[-0.15108453, 0.005995904, -0.09572674, -0.27142993, -0.1680905, -0.31526035, -0.24873106, -0.09937634, 0.42979443, -0.2950718, -0.20517635, 0.0236963, -0.2506306, 0.20594431, 0.5891548, 0.013565416, 0.09430018, -0.12861708, -0.11252058, -0.5085296, 0.19547957, 0.16620354, 0.64612615, -0.4478715, -0.07073033, 0.3139389, 0.47664598, 0.26433182, 0.35757926, -0.11461258, 0.3699114, 0.14419344, 0.38346824, 0.4985044, -0.12058291, 0.4013845, -0.41947347, -0.18595172, 0.515692, -0.047217295, 0.028071696, 0.041703075, 0.13499293, 0.15541731, -0.33238247, -0.3970858, 0.010151895, -0.5995719, 0.10646285, 0.091313936, -0.18120001, 0.61814404, -0.15298253, -0.42332858, 0.38832882, -0.28695896, -0.050181504, -0.6344249, -0.15582716, 0.044909544, -0.07503871, 0.021951558, 0.2536197, 0.31263474, 0.36053768, 0.008871009, 0.2415698, -0.31177652, 0.20978291, -0.20874879, -0.0036434648, -0.2595113, 0.50695246, 0.20603198, 0.23157653, 0.05192, -0.43128544, -0.15058458, 0.113806665, 0.015516163, 0.4641139, -0.21275291, -0.35391387, 0.09833987, -0.20451102, -0.5015964, -0.1941746, -0.26363313, 0.37485775, 0.21388161, -0.05679872, -0.23071727, -0.08978901, -0.13749968, -0.3418753, 0.049510352, 0.10331533, -0.11541261, -0.20097487, -0.22909391, -0.024827544, -0.6150393, -0.37527257, 0.43612656, 0.68392944, 0.22212054, -0.03314123, -0.51560163, -0.13279201, 0.31743842, 0.15786192, -0.10439838, 0.1463529, -0.13485354, 0.36034206, 0.11221141, 0.25984183, -0.4494116, -0.1725808, 0.0005032551, -0.018291282, -0.038949035, 0.16865419, 0.13501683, -0.04586546, -0.26920968, -0.3412965, 0.52993745, -0.34528422, -0.21731766, -0.15188465, -0.12235944, 0.22880249, -0.6424113, 0.15004916, 0.03917289, -0.2933973, -0.29490304, 0.16835755, 0.26371843, 0.18054724, 0.06303105, 0.36254424, -0.10128822, -0.18655518, -0.5509672, 0.20159549, 0.5795449, 0.15140793, 0.20677198, 0.14080402, -0.061153755, 0.16006637, 0.2535532, -0.21590921, -0.049416576, -0.34471065, -0.07465804, -0.529054, -0.112012036, 0.028643109, -0.19600232, -0.31457302, 0.079115994, -0.31722143, 0.17682478, 0.21683693, -0.07545924, -0.19625847, -0.13762517, -0.005003622, -0.35025844, -0.10818311, 0.12746121, -0.2533582, -0.2093719, -0.35454756, 0.0130598815, 0.1158458, -0.41070232, 0.062242102, 0.02744786, 0.2597581, -0.48935565, -0.0038227998, -0.17234923, -0.030091073, 0.19520973, -0.07770611, 0.3254263, 0.3086203, 0.3031666, 0.09765833, 0.102736145, 0.34202477, 0.112370215, 0.037296746, 0.3078665, -0.44639567, -0.42363265, 0.123565435, 0.0037789918, -0.77386457, -0.053136338, -0.20039918, -0.22628042, -0.07293165, 0.18660904, -0.5102556, 0.2126435, -0.13796608, 0.48384613, 0.36262554, 0.26730454, -0.37780944, -0.33606625, -0.08158845, -0.48197636, 0.1461559, 0.062324934, -0.08868215, 0.2951067, 0.3016032, -0.08698187, 0.20197208, -0.393765, -0.2573355, 0.17674187, -0.02235091, 0.08012718, -0.41775295, 0.12834117, -0.16790451, 0.061068363, -0.22568783, -0.20933124, -0.1454659, -0.12088891, 0.32593036, 0.35406035, -0.30944425, 0.06995602, -0.08165827, -0.2770579, 0.05645573, -0.028728534, 0.50960034, -0.28060716, -0.47007453, 0.25670236, 0.03535361, 0.060381614, -0.08883817, 0.28059283, 0.67184913, 0.043571837, -0.33077472, 0.009525746, -0.36155406, 0.15946384, 0.05607832, -0.20521806, 0.1551515, 0.05644136, 0.13733883, 0.34575897, 0.5145137, -0.1143201, -0.23085931, -0.21319424, 0.2741956, -0.106157444, 0.07882984, 0.23411007, -0.102080524, 0.23365091, 0.19760682, 0.3517111, -0.4880659, 0.40539062, -0.37799895, 0.04225811, -0.1375757, -0.1294088, -0.36500543, -0.07515969, 0.04686454, 0.06082834, -0.23226488, 0.0918701, -0.1128795, 0.1538182, -0.03891601, 0.31567845, 0.36818, 0.055622067, 0.4307899, -0.14966445, 0.025088415, 0.2728378]|[-0.14696082, -0.042382833, 0.062948234, -0.11574663, 0.023313947, 0.20506123, 0.21127763, -0.2797438, -0.03844778, -0.1934046, 0.4039181, -0.24301547, -0.39050677, -0.045424465, 0.021551268, 0.14135489, -0.21233788, -0.23510082, -0.22699146, -0.035981115, -0.067951575, 0.07311171, 0.116079815, -0.056592304, 0.2238378, 0.18414548, -0.11568359, 0.13484071, -0.28734475, 0.22792141, -0.15051678, -0.41277027, -0.13124229, 0.075098634, -0.09240184, -0.035385974, 0.12625675, 0.22656743, 0.34188998, 0.107254595, -0.022339536, 0.021908294, -0.34917945, 0.18568528, 0.5325316, -0.20747435, 0.100315824, -0.18857642, 0.04217181, -0.09829488, -0.24109785, 0.60958, 0.062498655, -0.33823553, 0.3135567, -0.2010723, -0.4306205, -0.36414942, 0.16375524, -0.18623626, 0.18754075, 0.40955946, 0.11741564, -0.18581137, -0.042557802, -0.35528302, -0.1367224, 0.22410305, 0.14430799, 0.34694046, -0.047858804, 0.15947099, -0.093272254, 0.2179387, 0.34495643, 0.118324175, -0.30294296, -0.1447818, 0.15265019, -0.2131353, -0.23073725, 0.07262236, -0.3817556, -0.056567222, 0.6114418, -0.04521077, -0.061990242, 0.35310632, 0.07670771, 0.20474526, 0.09768288, 0.102478385, 0.035655566, 0.3903479, -0.5017944, -0.14748564, 0.20250711, 0.094111815, -0.35250476, -0.124308266, -0.21539599, -0.31979358, -0.07935007, 0.1386208, 0.12467674, -0.22758903, 0.2232311, 0.3582023, -0.33580145, 0.011728107, 0.18452424, -0.3706034, 0.33626175, -1.9921456e-05, -0.0066197794, 0.07869835, 0.46403977, 0.09514551, 0.028813781, -0.051197957, 0.0036217088, 0.24867572, -0.14347976, -0.10269503, 0.019501995, 0.27790588, 0.19761336, 0.15917203, -0.41589636, -0.49945924, -0.61307806, -0.23684995, -0.08614534, -0.3844809, 0.23843879, 0.13666736, 0.02925073, 0.22722995, -0.1326239, -0.64889234, 0.30684584, 0.1565483, -0.045066193, -0.07040228, 0.127335, -0.27614525, 0.032077305, 0.15216039, 0.25753355, 0.3295382, 0.12828483, -0.13772075, 0.13490106, -0.32605463, 0.6426821, 0.09655573, 0.2329641, 0.014662355, -0.08292284, 0.18612725, 0.013765333, 0.12738949, 0.09146029, 0.051095475, 0.2755887, 0.32282954, 0.28730497, -0.101964995, -0.10438705, 0.06552451, -0.27778697, -0.038484644, 0.21636005, -0.3134224, 0.32450175, -0.05238933, 0.0014818585, -0.21273495, -0.4768934, 0.17458509, 0.27707684, 0.35348293, 0.14766803, 0.37445715, 0.08802847, 0.29576167, -0.3477463, 0.39323327, -0.42482427, -0.04439049, -0.042596105, 0.25150317, -0.34877297, 0.06644272, -0.15174857, -0.2791141, 0.05003861, 0.089147046, 0.12687092, 0.11270754, -0.018983373, 0.06603161, -0.36968407, 0.2195824, -0.3645459, -0.07811589, 0.110174835, -0.26741278, -0.29641044, 0.15408511, 0.3797522, 0.30164352, -0.054660425, -0.10284754, 0.37515464, -0.07918727, -0.2904782, -0.016415587, 0.028360317, 0.41338107, -0.01882621, 0.30865696, 0.10445359, -0.057392962, 0.4611826, -0.059197377, 0.046177093, 0.09530785, -0.031826235, 0.12299798, -0.1638645, -0.1263982, -0.3467104, 0.1932009, 0.115610145, 0.56650096, 0.4034669, -0.3895739, -0.28462234, 0.14500497, -0.25801402, 0.0033779098, -0.16916934, -0.008495303, -0.12454359, -0.13483977, 0.17399402, -0.06775656, 0.359264, -0.060536653, 0.13982123, 0.0628693, 0.13271578, 0.015694162, -0.07576689, -0.15066971, -0.26404166, 0.11647615, 0.13324828, 0.4579108, 0.014088641, 0.20388028, 0.022972737, 0.2703501, 0.24814047, 0.31573144, 0.2804722, -0.026132599, -0.53870684, -0.22677337, 0.23037525, -0.44454232, 0.39857754, -0.24417101, 0.28188735, 0.3099589, -0.14321966, -0.06922766, 0.30130753, 0.22657219, -0.10409428, 0.45354852, -0.25112244, -0.39074105, -0.06602138, -0.09370131, -0.11234494, 7.901699e-05, 0.044391397, 0.3042348, -0.4335645, 0.2431237, 0.12501432, -0.15425882, -0.2683922, 0.21897244, 0.052876823, -0.085964836, -0.03290104, -0.33738217]|[0.2686744, -0.26194662, -0.07545594, 0.029160624, 0.32052055, -0.09175259, -0.08785364, 0.06757832, -0.012244646, -0.045954306, 0.3120829, 0.13790172, -0.3561108, -0.12607332, 0.01338267, -0.103769176, -0.119722635, 0.084845036, 0.050812427, -0.3493074, -0.04298198, -0.1294282, -0.11333285, -0.08094603, 0.0016315834, 0.078685716, -0.038609095, 0.031802747, -0.08057883, -0.016727334, -0.025421677, 0.12571204, 0.11248752, -0.19074766, 0.08045392, 0.22984059, -0.049775112, 0.14527416, 0.050382115, 0.25648293, 0.29270306, 0.0051887585, 0.18159385, 0.09058555, -0.064818285, -0.040114257, -0.09795546, 0.056939717, 0.25204793, 0.012511825, 0.030110778, 0.04024987, 0.14247097, 0.14576328, 0.30256906, 0.043088716, -0.26834056, -0.20578758, -0.018551774, 0.03441911, 0.22075504, 0.15643664, 0.114456944, 0.16775802, -0.0920808, -0.36073, 0.21711577, 0.054467205, -0.012147976, 0.036864217, -0.04591977, 0.131396, 0.11832093, 0.2201806, 0.2367301, -0.12298902, 0.0494087, 0.22817798, 0.14870866, -0.12637024, 0.07335529, 0.10642106, 0.22944519, 0.11705613, 0.32497558, -0.16100664, 0.044955246, 0.31428215, 0.0529895, -0.07641931, 0.18520632, -0.10162029, 0.007072011, 0.21342511, -0.4397494, -0.085014656, 0.02502806, 0.3586006, -0.101831175, -0.27640644, -0.087051205, -0.006224747, -0.20526971, -0.35919055, 0.070659906, -0.1081724, -0.2786709, 0.19543612, -0.12953727, -0.00953115, 0.17748381, -0.17522103, -0.119370885, -0.006835456, 0.104699425, 0.25303835, 0.07964303, -0.06261376, 0.071762994, 0.14845422, -0.13344726, -0.024285603, 0.0036995523, -0.042413473, 0.15105166, 0.088746004, 0.034294333, 0.1616407, 0.08220399, -0.2765594, 0.011157685, -0.20492196, -0.12695146, -0.34924826, 0.14237662, 0.14386472, 0.1459298, 0.09893761, 0.05265816, 0.12194994, 0.19794422, -0.04488183, 0.083720036, -0.056613762, 0.16371426, -0.2753856, -0.07649865, 0.2319944, 0.1210466, 0.058631666, 0.18149732, -0.04022058, 0.007625573, 0.100323014, 0.281683, -0.27167872, 0.17376088, 0.023171738, -0.261594, 0.089390226, 0.07242737, 0.13489752, -0.33978346, 0.08573474, -0.069687285, -0.121019915, -0.14007415, 0.05936528, -0.061168965, 0.13596545, -0.10042255, -0.051638067, -0.08958745, 0.076121494, 0.07126411, -0.28509894, 0.16216828, 0.009708856, -0.031892795, 0.10375036, 0.023869764, 0.21304907, -0.22430591, 0.12625928, 0.20098853, 0.2055029, -0.27116054, -0.13976865, -0.12026527, -0.12477611, -0.055425942, 0.13742124, -0.1768906, -0.15688936, 0.10081178, 0.06933863, 0.029508233, 0.06488511, 0.0740908, -0.242709, -0.081661075, -0.13071877, -0.18367401, -0.048385024, 0.12544711, -0.05237704, 0.31261155, -0.07083537, -0.10700878, -0.12588078, -0.02200617, 0.16884488, -0.010195187, 0.09228423, 0.23507664, 0.081136, -0.24453558, -0.12992296, -0.14397931, 0.1452786, 0.10288141, -0.37469533, -0.17199205, -0.08952369, 0.42248595, -0.086361565, -0.03120428, -0.01037954, -0.35330358, 0.15868285, 0.27792874, 0.029680341, 0.077847764, -0.29896754, -0.0943227, 0.17781918, 0.05957728, -0.08309854, -0.07230462, 0.15451497, -0.007944177, -0.082791865, -0.21380913, 0.1635228, 0.20594609, 0.12709069, 0.23610783, -0.3944323, 0.050001573, 0.20088395, -0.2189296, 0.2423796, -0.06437932, 0.027810834, 0.2090916, 0.14289637, -0.057730787, -0.08436595, 0.15596421, 0.1816501, 0.023959022, 0.22905596, -0.18430363, 0.17521293, -0.12128375, 0.1591901, 0.09708629, -0.064271, -0.0005740896, -0.10419047, -0.10169197, -0.36264724, -0.019473778, 0.0050672553, 0.1711057, 0.09164155, 0.1448999, 0.16492972, 0.15588611, -0.052519117, 0.03138598, 0.094963655, 0.2454674, -0.20914038, -0.22236767, -0.20740236, -0.16315883, 0.0395533, 0.21168497, 0.30981722, 0.09770361, 0.11954877, 0.20075963, -0.0036835382, -0.14753158, -0.16661653, -0.07008379, 0.11709133, 0.14637958, -0.20816614]|[0.03468486, -0.2507916, -0.3768246, -0.007746162, -0.43094373, 0.028015187, -0.060511302, 0.09154227, 0.022316532, -0.116498746, -0.1099505, -0.21071583, -0.26342517, -0.23636709, -0.010282381, 0.45104226, 0.24151914, -0.2319156, -0.3757674, -0.306423, -0.2554352, 0.083506316, -0.050379787, 0.10983504, -0.47098637, 0.029843647, 0.007270527, 0.20955132, 0.110379696, 0.5894089, -0.23020871, 0.19207233, 0.3225769, 0.28247842, 0.22061633, 0.4251923, -0.047942974, -0.29942152, -0.05571762, 0.123650506, -0.12182801, 0.01938865, -0.2534285, -0.2690384, -0.12137266, 0.089212336, -0.23596579, 0.082626306, -0.008520303, 0.05510263, -0.33522052, 0.025012959, 0.032156687, -0.18116738, 0.38112646, -0.020385727, -0.2033395, -0.14379779, 0.32299188, 0.14116827, 0.18254338, 0.5033683, -0.20643161, -0.4039544, 0.61835724, -0.011020215, 0.56626546, 0.18311955, 0.30839348, 0.013029771, -0.12834163, 0.21046545, 0.14482747, 0.16322835, 0.043151993, 0.13844904, 0.39718768, 0.4763574, 0.16663821, 0.32386556, -0.023514204, -0.13748263, -0.46716276, 0.24262366, 0.2587121, -0.06877342, -0.263633, 0.043499462, 0.12603755, 0.4249703, 0.0021059718, -0.12035432, -0.57160574, 0.30028117, -0.056881513, 0.18953931, -0.14031452, -0.31520876, -0.0747235, 0.060010675, -0.3811455, -0.22526726, 0.05220425, 0.09101708, 0.020543074, -0.015787348, -0.21702604, 0.08823261, -0.3828732, -0.33304855, 0.25733936, -0.17825696, -0.2926885, -0.16422266, 0.036325786, 0.41844523, -0.16347626, 0.2932712, 0.08268188, -0.3851958, 0.0026301853, 0.5477095, 0.24779294, -0.24257393, 0.31517854, -0.10066298, -0.21000212, 0.09343764, -0.25605503, -0.45287347, -0.17816499, -0.21254282, -0.21316238, -0.5384812, -0.03827649, 0.25337642, 0.31232288, -0.078979015, -0.43543273, 0.21144205, 0.26185635, 0.17100821, -0.09117161, 0.063323244, -0.29408553, -0.1646758, 0.18656968, 0.40363753, -0.045810398, 0.38384584, -0.0059569455, -0.38296267, 0.09832618, -0.16264115, 0.3687423, 0.019987153, -0.2120368, 0.3234787, -0.12397405, -0.11937136, -0.024976632, -0.2841322, 0.031538073, -0.12181022, -0.03219876, -0.06576149, 0.12267884, 0.21477671, 0.100048326, 0.36318132, -0.16208069, 0.076375, 0.21083076, 0.037705388, -0.35721758, 0.08697416, 0.10006014, -0.042680286, -0.37786973, -0.112083286, -0.018836176, 0.27940032, -0.25978342, -0.2959847, -0.4007644, 0.04563826, 0.07878839, 0.4761283, -0.18213652, 0.05195119, -0.11620813, 0.3042225, -0.44370833, -0.041779365, -0.08364307, -0.0336633, 0.313427, -0.4873548, 0.43361366, -0.12817161, 0.020634694, -0.32620263, -0.013416885, 0.108353205, 0.18095835, 0.2166215, -0.10068185, -0.04206239, 0.19241121, -0.20485286, -0.12679078, 0.22819488, -0.028840896, -0.11167891, -0.033268455, -0.025274813, 0.00678529, -0.31011507, 0.24958166, -0.13483109, 0.034155503, 0.78987503, 0.17141834, -0.3711434, 0.19158046, 0.17250352, -0.17675552, -0.19454259, 0.21533926, -0.51496506, 0.05156341, -0.09195619, -0.22998811, 0.06975019, 0.030755933, -0.007810691, 0.44228467, -0.3383401, 0.04268987, 0.024138778, 0.22511971, -0.10549958, -0.34882239, 0.17394994, -0.10000341, -0.04141747, 0.40290445, -0.20300037, -0.13550861, -0.22395177, -0.35416466, 0.23473355, 0.04768241, -0.283856, 0.04471959, -0.06802112, -0.40828428, -0.3062567, 0.36770892, -0.19337282, 0.29978278, 0.229895, -0.11275866, -0.035740357, -0.015901176, 0.25464508, 0.37208152, 0.2652188, -0.32512456, -0.0543965, -0.08151804, -0.31852025, 0.4330351, 0.035926502, -0.23282005, -0.027801367, -0.20649655, 0.18124084, 0.04409734, 0.11484884, -0.11222072, 0.21299055, -0.33097154, 0.12217455, 0.0719013, -0.19361383, -0.23497425, 0.13759683, -0.052171692, 0.57647425, 0.0009701144, -0.028540112, 0.16783965, 0.35188457, 0.0046610907, 0.08153849, 0.08449078, -0.07726681, -0.051229462, -0.2968621]|[-0.17512134, 0.15738672, 0.20710538, -0.33965433, -0.23233877, 0.021997726, 0.10489107, -0.067716695, -0.18008201, -0.18193753, 0.006277646, -0.44625968, -0.12827581, -0.29620928, 0.0023949514, 0.4362759, 0.17815916, -0.10750597, 0.09735482, -0.064509064, 0.11643402, 0.30987096, -0.08878922, -0.16552088, 0.06913122, 0.19761388, 0.03345346, 0.1944466, -0.09907007, 0.15469691, -0.27987087, -0.23590975, -0.012747357, 0.034561977, -0.38949817, 0.06712278, -0.17123958, -0.18932296, -0.30462185, 0.34382725, -0.029736625, 0.18547092, -0.37459573, -0.23292485, -0.107887425, -0.221155, -0.12811795, 0.15451606, -0.00561633, 0.13365276, -0.595786, 0.3471903, 0.021607213, -0.42944607, -0.013832217, -0.04709769, -0.38427606, -0.09114808, -0.023632837, 0.33221743, 0.2774613, 0.6779972, -0.0931684, 0.025185473, 0.16435708, -0.45590207, 0.279569, 0.2489731, 0.2511786, -0.16546601, 0.2899222, -0.052057255, 0.28336546, 0.26991972, -0.102745645, 0.122227915, 0.21464647, 0.2829798, -0.10073826, -0.2819909, -0.22330974, 0.0031791027, -0.31509417, 0.14434473, 0.2393022, -0.43965477, -0.3694427, 0.2982006, 0.006327241, 0.4441054, 0.1968138, 0.3642018, -0.3526455, -0.0019367081, -0.18171678, 0.011377489, 0.15017436, 0.16082878, -0.17139149, 0.13063772, -0.66724885, -0.36337784, 0.065902114, -0.2613607, 0.18510313, -0.22857144, -0.10282033, -0.086924195, -0.32770646, -0.16295734, -0.12023479, -0.1947391, -0.3165505, 0.09808014, 0.23137514, 0.40546486, -0.27348813, 0.5399134, 0.36160433, -0.24105093, -0.24271819, 0.016872114, 0.12481388, -0.37733373, 0.06550168, 0.1056003, 0.31799263, 0.005481323, -0.15809786, -0.3779566, -0.101861, -0.11304662, -0.41138196, -0.32244694, -0.29639018, 0.33644482, 0.1414516, 0.1624748, 0.087281264, -0.1023608, -0.130605, 0.11802479, -0.04051655, -0.4210669, 0.27424878, -0.6247577, 0.3501285, 0.07665374, 0.11098563, 0.09383814, -0.018084202, 0.10076286, -0.009300725, -0.10136082, 0.27404442, -0.19486651, -0.115539484, 0.23358458, 0.29733446, 0.14572015, -0.24536347, -0.16316026, 0.21087067, -0.045513637, 0.09911761, 0.033625606, -0.048559178, 0.036317836, 0.020974917, -0.18014413, -0.008820107, 0.49753267, -0.09588722, -0.19811723, 0.18328813, 0.08466154, -0.0639284, -0.11035915, -0.28142333, 0.11788529, -0.373583, 0.318716, 0.34726655, 0.111838065, 0.45010847, 0.22713873, 0.22459145, 0.24480258, -0.12703519, 0.02149138, 0.23500668, -0.079065844, -0.3660395, -0.1149173, -0.19745165, -0.53244025, 0.0017995626, 0.009923464, 0.123409905, -0.056434985, 0.20249763, 0.32983816, -0.3349489, 0.15590759, -0.05668457, 0.116982274, -0.41181424, 0.19834891, -0.019517977, 0.09234346, -0.02881983, 0.24050796, -0.12132045, -0.04018749, -0.06638159, -0.1641393, -0.25507843, -0.2898136, 0.2387874, 0.49511915, 0.27010152, -0.038669735, 0.17267455, -0.21853043, 0.21775962, -0.05672278, 0.32339063, -0.20270048, -0.094597, -0.081158265, 0.30523565, -0.2776604, -0.04813734, -0.103512734, 0.14543812, 0.43052945, 0.017731171, -0.10778268, 0.18634237, 0.08449417, -0.17389192, -0.19390123, -0.33041096, 0.18236484, -0.1056513, 0.18274727, 0.21751666, -0.24217623, 0.1398554, 0.105986066, 0.104073584, 0.020046499, -0.07317631, 0.04708489, 0.09807426, -0.15958522, -0.1409243, 5.062198e-05, 0.3304801, 0.10642932, 0.010712721, 0.1641406, -0.27657446, 0.16664536, -0.3340362, 0.3304522, 0.17320779, -0.101814926, -0.28036827, -0.100006975, -0.25852984, -0.5032214, 0.5251976, -0.18937886, -0.0131502375, -0.118756875, -0.2076772, 0.4038735, 0.12612322, 0.008763076, -0.27622867, 0.52936375, -0.18621275, -0.023178644, -0.036857706, 0.09830046, -0.4040242, 0.21151987, 0.0600026, 0.13998216, -0.31674024, 0.26419657, -0.012870407, 0.081624575, -0.26165432, -0.0015770956, 0.06819972, -0.017554715, 0.11843584, -0.34736964]|[-0.013482762, -0.44161817, 0.23208238, -0.42078125, -0.056646235, -0.036046155, 0.1150331, -0.34939444, -0.10694496, -0.012897544, -0.11766544, 0.14938009, -0.28695163, -0.36307225, -0.071605906, 0.08261782, -0.009729771, -0.40303475, -0.22800645, -0.17074625, -0.19698592, 0.05518931, -0.1793994, -0.030385183, 0.3294873, 0.08097806, -0.04524343, 0.3271901, -0.3480177, 0.32622322, -0.07770255, -0.31107086, 0.3826926, 0.14971326, -0.13610508, -0.00498411, -0.15771219, 0.02007016, -0.40160808, -0.18719725, 0.29160643, -0.3263752, -0.21219985, 0.18011735, 0.005545882, -0.28587526, 0.06654482, -0.06446117, -0.24708939, 0.17965391, -0.24913557, 0.3416396, -0.14929059, -0.35262495, 0.40426585, -0.14801902, 0.19671988, 0.058753535, -0.015068349, -0.24440062, -0.01726713, 0.03843627, 0.308536, 0.14799556, -0.30815378, -0.22817267, -0.20153001, 0.034571044, 0.019281324, -0.360128, -0.082894094, 0.1774153, 0.64251316, 0.20852771, 0.0383139, 0.33812675, 0.036399413, -0.10552569, 0.3032801, -0.17703432, -0.05675121, 0.014918384, -0.27203566, 0.5026521, 0.1432187, -0.10114792, 0.027858634, 0.12042421, 0.4412348, 0.04754499, -0.120474145, 0.29448074, 0.23583466, 0.22447543, -0.23636875, -0.033656623, -0.0744374, 0.08728377, -0.10827507, -0.02138775, -0.26488563, -0.40911835, 0.13639885, -0.092985384, 0.0191826, -0.020955738, 0.11473273, 0.06822153, -0.6477728, -0.2881434, 0.26973003, -0.25508004, 0.17858322, -0.26962608, -0.19571005, 0.47507897, -0.044554185, 0.13598026, -0.019735415, -0.34651926, -0.060744073, 0.31983182, 0.0433855, -0.089311585, -0.14352748, 0.16272286, 0.031462733, 0.30836084, -0.54670113, 0.010754551, -0.05071682, -0.4634801, -0.46813142, -0.21334834, 0.0938276, 0.03137993, -0.13729578, 0.012147685, 0.20264809, 0.057844985, -0.015916632, -0.10346794, -0.16721958, -0.5279392, 0.5749284, -0.3272609, 0.16541146, 0.39704874, 0.63777953, 0.10599688, 0.085648224, -0.12663412, 0.21570367, -0.22263604, 0.3328404, 0.028717965, -0.37072146, 0.21613209, -0.15970084, 0.337731, 0.1788006, -0.15006013, -0.33836016, -0.15501761, 0.009110703, 0.013256852, 0.4073879, -0.0009849276, -0.0698008, 0.17717414, -0.017281508, -0.17723745, 0.1875399, -0.32260573, -0.3900787, 0.17363217, 0.08737412, 0.16095255, -0.69173276, -0.27395642, -0.50102055, 0.16524737, 0.6607623, 0.13364838, -0.019736737, 0.23991044, -0.1963611, -0.345636, -0.04663376, 0.122625545, 0.07518339, -0.06291216, -0.08579637, -0.06682908, -0.28732517, -0.100177966, 0.036520373, 0.11498942, -0.064349495, 0.19713356, 0.22424507, 0.23796985, -0.34792674, 0.3386935, 0.33905512, 0.19896527, 0.074750565, 0.08458809, -0.36322355, -0.16854613, 0.2654008, 0.62182766, 0.05149304, 0.15522087, 0.02318734, -0.14920743, -0.19251898, -0.69323194, -0.27942365, 0.04378141, -0.14527813, 0.04946442, 0.065163195, -0.067772776, 0.43289778, 0.16827047, -0.042475708, 0.07975181, -0.1290801, 0.0020685354, 0.11446645, -0.24803735, 0.050467726, 0.027115945, -0.41019797, 0.350071, 0.03627436, -0.4338153, 0.005685958, 0.04962124, -0.15817739, -0.3719667, 0.26425192, -0.0012677959, 0.078859694, 0.23197934, -0.14442722, -0.44096833, 0.07970408, 0.23895198, -0.06947223, 0.5170662, -0.0067591844, 0.258844, 0.13277872, 0.24653995, -0.21417873, -0.2766428, 0.13947062, 0.013531943, 0.057544194, -0.097401515, 0.038676254, -0.16506027, -0.2983441, 0.66792524, 0.4620302, -0.0009181228, -0.5443834, -0.091290526, 0.029395767, -0.26733658, 0.3437337, -0.23090261, 0.42614508, -0.2158528, -0.33092883, 0.08303604, 0.10909985, 0.10679408, -0.628163, 0.1156666, 0.03828567, -0.27896112, -0.012019534, -0.11053293, 0.017354459, 0.1153482, 0.08470094, -0.03471461, -0.01273031, 0.50127506, 0.100266725, 0.28246322, -0.26278588, 0.027725048, 0.37784088, 0.14532442, -0.14219415, -0.077121325]