502 128
1 0.2852087 -0.39173576 0.3706999 0.087290496 -0.3372294 -0.23591718 -0.3499528 -0.27253512 -0.22293861 0.3018946 0.22163147 0.26227853 0.2617807 -0.34405172 -0.36795515 -0.24791478 0.25910276 -0.2631526 -0.017232182 -0.2804383 -0.22648433 -0.28619957 0.27481094 0.24966274 -0.3139655 -0.33673194 -0.25250673 -0.34332928 0.2589292 0.059859876 -0.38025084 0.28691196 0.18779476 -0.30289826 0.3113412 -0.08492641 0.3705509 0.31890345 -0.36754417 0.2632103 0.2622363 0.34635884 -0.28772414 -0.36508554 -0.3103674 -0.17113234 0.011428489 -0.19068755 -0.32393423 -0.32627 -0.33541626 -0.33522305 0.24210519 -0.35493574 -0.3178673 -0.305242 0.2629451 0.31464994 0.21924901 0.29364935 -0.2891164 -0.288219 0.3179073 0.21067064 0.02834273 0.29277545 -0.32916522 0.25946677 -0.3637578 0.3075868 -0.3497635 -0.31532773 0.04743611 0.3613718 -0.16996244 0.28521883 0.3128412 -0.36393535 -0.27048093 -0.3753583 -0.27095446 -0.202824 -0.31486997 0.1740779 0.17637315 0.24481437 -0.29833955 0.3629558 0.048523087 -0.1796937 -0.35751367 0.34343946 -0.2886789 -0.15391503 -0.28525156 0.21118115 -0.063742265 -0.2563631 0.3757322 -0.101155825 0.30762503 -0.37576497 0.34829545 0.30343154 -0.36196092 -0.022271484 -0.34519944 0.3576104 -0.28327778 0.29284132 -0.35429582 -0.018578708 -0.3653859 -0.040587574 -0.26433182 0.22693215 -0.31222796 0.32216245 -0.35573307 0.35272717 -0.25475964 -0.03507921 0.2598418 0.32989553 0.25181898 0.27868116 -0.11841773 -0.29160827
2 0.14135496 -0.35413268 0.3016222 -0.09129836 -0.33382338 -0.24758656 -0.35784093 -0.2782281 -0.07737352 0.2647473 0.26911846 0.30853772 0.31197706 -0.36946273 -0.32366538 -0.3072492 0.3054176 -0.31799164 0.11870163 -0.3471359 -0.22139229 -0.31789935 0.32553855 0.2445737 -0.3142635 -0.33888134 -0.3516956 -0.36097872 0.2582651 -0.17129973 -0.31139028 0.35405937 0.26635712 -0.3080585 0.3618487 0.0794183 0.387469 0.36575186 -0.33119446 0.35076115 0.20948339 0.29170045 -0.21858431 -0.27651814 -0.25299695 -0.14950544 0.11480796 -0.22276759 -0.24613385 -0.30637127 -0.2739247 -0.26911768 0.27836415 -0.23696621 -0.3412006 -0.23579417 0.30750084 0.28973213 0.25580022 0.32915434 -0.34206307 -0.2564772 0.280747 0.27463484 -0.17684594 0.28451353 -0.33653826 0.2609211 -0.30308428 0.338052 -0.38222033 -0.32889485 -0.018270092 0.31579342 -0.006370175 0.19039273 0.30597562 -0.32879746 -0.3715667 -0.30081642 -0.32042995 -0.19307655 -0.30113083 0.03583911 0.22964403 0.17590804 -0.25745416 0.3105077 0.11688283 -0.33471605 -0.3269171 0.33778965 -0.29318437 -0.24369363 -0.31144503 0.23153436 -0.119602084 -0.2613353 0.24848856 -0.22530338 0.2928842 -0.31584683 0.33284727 0.328329 -0.21033673 0.0059708934 -0.3593175 0.35729408 -0.33736095 0.23317206 -0.29892316 -0.0690393 -0.2583552 -0.18308936 -0.2682458 0.18526834 -0.34349567 0.30962247 -0.35905772 0.3483307 -0.23355582 0.18091662 0.1542544 0.28244758 0.21032946 0.345517 -0.11987524 -0.27650312
3 0.31703606 -0.34098327 0.33396992 -0.16098575 -0.31718656 -0.17710473 -0.34105492 -0.31295565 -0.22923987 0.1743081 0.29656708 0.2866492 0.3324437 -0.32743052 -0.34641036 -0.33751622 0.34774432 -0.2808904 0.09916013 -0.23115993 -0.3070987 -0.32860544 0.30841893 0.17468016 -0.29753703 -0.35458297 -0.24038732 -0.33146757 0.32167524 -0.20702791 -0.34519354 0.26868066 0.2731066 -0.25305164 0.33326823 0.12356004 0.3585448 0.34533143 -0.28675604 0.3358882 0.2440426 0.24713278 -0.20778266 -0.3697488 -0.26249966 -0.24042122 -0.060918402 -0.16186143 -0.26569158 -0.31468517 -0.27977493 -0.3142113 0.29950044 -0.3772061 -0.26828247 -0.233639 0.23193084 0.37507942 0.2637408 0.3103356 -0.31305534 -0.20749734 0.34752932 0.32419154 -0.23219518 0.18335259 -0.36246964 0.30230397 -0.28332898 0.17849888 -0.2633672 -0.2717838 0.052363362 0.31155428 -0.14452161 0.2945314 0.22721198 -0.32120273 -0.31889743 -0.33324695 -0.3176499 -0.32317773 -0.33717498 0.24700889 0.1369415 0.20805278 -0.3070996 0.3370451 0.18533847 -0.1479625 -0.26344487 0.32842687 -0.28697854 -0.21749936 -0.30795062 0.33998057 -0.22443834 -0.31503627 0.24228036 -0.2781641 0.27511117 -0.3502806 0.2769045 0.3478687 -0.36488357 -0.013948664 -0.33621043 0.25917578 -0.3313951 0.3181217 -0.23846354 -0.068530396 -0.28039938 -0.20238127 -0.30034912 0.02328911 -0.3167398 0.3387894 -0.32956105 0.32067898 -0.23996885 0.13153528 0.31845832 0.34897795 0.18847173 0.26191586 0.08851142 -0.2798909
4 0.080299035 -0.3677807 0.34723872 -0.04259709 -0.39023235 -0.28814548 -0.3216148 -0.26168096 -0.081076555 0.249529 0.15751632 0.24346204 0.34784037 -0.3457555 -0.28142697 -0.37287107 0.3542265 -0.23928492 0.112927966 -0.27342308 -0.24174654 -0.32509914 0.27371854 0.2110981 -0.36282504 -0.359867 -0.36854467 -0.37647957 0.28238183 -0.20773236 -0.31629366 0.26734176 0.28050447 -0.23230942 0.35584536 0.06313855 0.38817623 0.33846632 -0.3788022 0.3323941 0.1940938 0.33562142 -0.26094025 -0.33792248 -0.27537844 -0.16981071 0.09821849 -0.18525301 -0.3067534 -0.2995433 -0.31056026 -0.3352286 0.29925382 -0.31738576 -0.28895712 -0.2766575 0.3112122 0.331908 0.2986341 0.27080455 -0.36446145 -0.33369905 0.2554327 0.34433228 -0.09191007 0.33074087 -0.31116006 0.3041294 -0.29310873 0.23129085 -0.3706055 -0.24554053 -0.057165034 0.3171317 0.096773095 0.25779274 0.30904198 -0.36164328 -0.35229424 -0.31076574 -0.29920262 -0.14322928 -0.3101916 0.14128941 0.22782466 0.15029229 -0.35485944 0.34822413 0.14573753 -0.29600567 -0.29562858 0.3293216 -0.3148145 -0.19646735 -0.29121804 0.35878867 -0.1392155 -0.2345982 0.33417317 -0.13615118 0.3240004 -0.34762934 0.23631702 0.2555884 -0.2382598 0.101789445 -0.34494752 0.32771054 -0.32911462 0.35706612 -0.25215048 -0.18478845 -0.37890366 -0.21537302 -0.24590501 0.08780631 -0.31195846 0.35996306 -0.37103754 0.31868923 -0.23828633 0.20534088 0.118099146 0.33005187 0.2687531 0.26599914 -0.12095322 -0.24945185
5 -0.013690144 -0.36082438 0.28436935 0.051229738 -0.22918025 -0.22049208 -0.26389074 -0.28873438 -0.17192633 0.34648123 0.2753743 0.12014778 0.3572212 -0.3671927 -0.35952708 -0.359407 0.35532033 -0.3629785 0.1576319 -0.3292842 -0.16643886 -0.3462349 0.3347754 0.18301174 -0.35173407 -0.37625125 -0.36737105 -0.3712817 0.2631085 -0.19973432 -0.19983768 0.3174724 0.3440421 -0.26277387 0.22180128 0.19317617 0.3436017 0.32834926 -0.34982613 0.32942855 0.3105843 0.33397132 -0.3239684 -0.34305915 -0.32138756 -0.2232081 0.13059074 -0.26908255 -0.28841376 -0.3232309 -0.23835167 -0.22633404 0.2504209 -0.16856526 -0.3391971 -0.31682524 0.38114122 0.36288598 0.36587432 0.30136275 -0.33480325 -0.32956016 0.2814221 0.33845413 -0.20552792 0.29052213 -0.27988845 0.35052484 -0.3328766 0.32013944 -0.27625102 -0.31288493 -0.101611294 0.29915273 0.12651853 0.18728991 0.29653978 -0.36570892 -0.36387742 -0.28990546 -0.3551687 -0.16282922 -0.33770636 0.1647016 0.28822076 0.20440069 -0.25348005 0.27616897 0.16216825 -0.3491782 -0.34053573 0.31106228 -0.33689547 -0.22142154 -0.25657588 0.3409122 -0.28057808 -0.20667903 0.3152304 -0.13776146 0.39395174 -0.3315418 0.1964124 0.16201708 -0.16207421 0.15456732 -0.32501101 0.35232928 -0.23956652 0.26486188 -0.33846802 -0.132104 -0.33872986 -0.30083767 -0.18166316 0.23161933 -0.25708118 0.37068436 -0.3121846 0.27187926 -0.12368614 0.21934223 0.19241072 0.29929438 0.2921827 0.3150317 0.09603175 -0.19771165
6 0.23448537 -0.38252905 0.35335526 0.17483275 -0.31717628 -0.31513223 -0.27132872 -0.29515517 -0.08215921 0.22651781 0.29806107 0.32428053 0.33549735 -0.30374104 -0.32324132 -0.35466692 0.31477755 -0.2055527 -0.09206589 -0.3052179 -0.20510045 -0.2831114 0.3426819 0.31161776 -0.29925215 -0.32613644 -0.27876177 -0.32730922 0.36079225 -0.18226337 -0.3380704 0.34400153 0.19420676 -0.22139175 0.38673902 -0.15373915 0.34112626 0.38802028 -0.3709017 0.21363924 0.29387042 0.3666049 -0.27243537 -0.27513006 -0.22276393 -0.22512092 -0.11709388 -0.11666681 -0.34473184 -0.29923677 -0.3719372 -0.31188974 0.35353348 -0.37785512 -0.25831595 -0.25589812 0.2589365 0.3633459 0.31568247 0.1891927 -0.35755768 -0.3543495 0.28705844 0.16754146 -0.040607445 0.25671342 -0.371574 0.36600822 -0.3142231 0.29012436 -0.3497912 -0.24730177 0.18683705 0.30030888 0.06489888 0.3696707 0.2889827 -0.24939923 -0.27869126 -0.31195533 -0.37000316 -0.2655144 -0.35232574 0.29045254 0.19256195 0.2504058 -0.28138033 0.37296414 0.10144547 -0.23435032 -0.36471537 0.36726302 -0.3825384 -0.08789847 -0.33521658 0.19172338 -0.18174069 -0.36333495 0.37211907 -0.14985202 0.32461768 -0.31920326 0.27604824 0.25802627 -0.34242958 -0.11684992 -0.35246778 0.2941615 -0.32169387 0.30121043 -0.2735752 -0.22332212 -0.37077108 -0.057828996 -0.27259827 0.22331354 -0.35710979 0.27850038 -0.35542208 0.32897028 -0.29281336 -0.06971853 0.16022858 0.28704417 0.19717695 0.24642794 0.08397815 -0.18581586
7 0.26529443 -0.3720217 0.34264123 0.19837688 -0.20661509 -0.30922854 -0.37689775 -0.27901572 -0.24011618 0.23902829 0.0866427 0.13268282 0.3845392 -0.29403707 -0.28069577 -0.37786764 0.14350457 -0.35417345 -0.098369986 -0.35001078 -0.34278917 -0.34859097 0.42100722 0.28151932 -0.36591446 -0.27661276 -0.40566745 -0.40162262 0.3200037 -0.17908297 -0.2942719 0.27662936 0.18875462 -0.36472708 0.37312484 0.2414534 0.2658586 0.38029316 -0.31628197 0.24886785 0.2105909 0.22672087 -0.1340578 -0.23268604 -0.26574242 -0.22899681 0.17572924 -0.23673648 -0.2182375 -0.35708326 -0.36122727 -0.0767879 0.1463777 -0.39143032 -0.24467598 -0.25580588 0.33382466 0.306748 0.36342034 0.35895637 -0.28259942 -0.28177294 0.24069943 0.21073033 -0.2126037 0.32757917 -0.3713843 0.35644677 -0.31209484 0.33667183 -0.416826 -0.390326 0.20077132 0.34335956 -0.025440004 0.26126617 0.37756273 -0.40941277 -0.34531358 -0.29057962 -0.34979215 -0.29428682 -0.3421433 -0.06899202 0.34591615 0.186762 -0.30105853 0.37289667 0.21818253 -0.2225141 -0.33073878 0.27957 -0.3424654 0.029820438 -0.35025248 0.24700916 0.034279965 -0.3117218 0.32891193 -0.18772812 0.2501964 -0.3543483 0.073339984 0.35770476 -0.08323925 -0.15418242 -0.2747961 0.3549068 -0.37363553 0.3028014 -0.32295832 -0.1542959 -0.34295297 -0.16030388 -0.17578393 0.19633226 -0.3100791 0.38343853 -0.3650383 0.36535358 -0.14764595 0.30916256 0.028994424 0.36227244 0.31646636 0.29328376 0.13981019 -0.35836318
8 0.27635184 -0.3179512 0.35695317 0.043431323 -0.22053346 -0.34783575 -0.24935351 -0.3817481 -0.30755153 0.29877692 -0.0056955996 0.30484846 0.37367874 -0.33101758 -0.2909021 -0.31876576 0.263378 -0.37586117 0.07795326 -0.26494575 -0.2711908 -0.3292793 0.37786466 0.3403713 -0.39621413 -0.2953889 -0.28977674 -0.3642341 0.35838348 -0.18879803 -0.24498555 0.33175758 0.25322336 -0.36858633 0.3818379 0.17994305 0.35692894 0.3091396 -0.26841348 0.20726076 0.21455216 0.31987917 -0.2430502 -0.3084829 -0.33931482 -0.2254358 0.20605594 -0.26910263 -0.3109109 -0.26461267 -0.33472788 -0.11296908 0.1059018 -0.3303998 -0.2737833 -0.37876016 0.32111153 0.37191302 0.35577706 0.34933576 -0.28876883 -0.25487915 0.32088113 0.21394432 -0.19567218 0.33879778 -0.35434982 0.34254315 -0.36205995 0.36621952 -0.27435434 -0.35586548 0.2966958 0.3306765 -0.15964581 0.2898904 0.3407367 -0.2920956 -0.28818473 -0.32936954 -0.29271263 -0.32660002 -0.2836992 -0.0723991 0.34240943 0.3022756 -0.3434302 0.26544887 0.16141962 -0.16800407 -0.3538379 0.31408954 -0.39122272 -0.011517314 -0.3473494 0.30527675 -0.15325746 -0.23918289 0.25889054 -0.10335268 0.28849646 -0.28524366 0.20781241 0.30008212 -0.089986905 -0.16264689 -0.33606964 0.35223436 -0.34570718 0.32483724 -0.36137792 -0.06814777 -0.35364294 -0.1517847 -0.18608512 0.09184529 -0.36024067 0.39400998 -0.37391233 0.3515716 -0.22286801 0.26790765 0.09496236 0.2988885 0.28250864 0.34375226 0.14465618 -0.32693338
9 0.11191809 -0.29119772 0.32437027 -0.14354196 -0.24585369 -0.24665278 -0.32081446 -0.3729511 -0.29940084 0.37551096 0.30329025 0.32922524 0.32360908 -0.3326544 -0.34809282 -0.33728668 0.3360241 -0.3519769 -0.14819632 -0.32047018 -0.34334144 -0.2518179 0.31001323 0.330314 -0.29792252 -0.3371965 -0.40334678 -0.3175697 0.37608758 0.060994644 -0.20482717 0.37892592 0.33437106 -0.35739505 0.23418188 0.26407415 0.27980232 0.26153404 -0.33754912 0.39236423 0.102371365 0.31850082 -0.31277555 -0.35693854 -0.250585 -0.2556416 0.13950396 -0.14625132 -0.25002602 -0.32991275 -0.30869666 -0.11049477 0.3340264 -0.36893123 -0.3797311 -0.37188897 0.31057164 0.36367378 0.30605188 0.26301774 -0.36384183 -0.27875236 0.36765456 0.3464176 -0.008048163 0.010985009 -0.3154339 0.31440932 -0.32435238 0.37018362 -0.34037143 -0.3090705 0.2844199 0.25937542 0.0041055167 0.22549121 0.3724749 -0.3869509 -0.22601368 -0.35350072 -0.25798362 -0.3384793 -0.32137305 0.305078 0.0762365 0.17512684 -0.21114524 0.33274448 0.032109197 -0.21502388 -0.38975254 0.16730574 -0.23286855 -0.27425286 -0.34885967 0.35519743 0.051471893 -0.23602475 0.27249685 -0.29162142 0.34335214 -0.38162673 0.18106584 0.28522837 -0.20398016 -0.24665812 -0.3607358 0.25022948 -0.19826715 0.15800561 -0.19789793 -0.16110763 -0.3519332 -0.031205196 -0.32271856 0.22762412 -0.28448987 0.28630766 -0.28673217 0.31417394 -0.29038617 0.08155908 0.38199145 0.35584858 0.18480398 0.31071442 -0.19404233 -0.36030424
10 -0.022513721 -0.315932 0.2693787 -0.1678296 -0.2596397 -0.25219005 -0.32947844 -0.2797801 -0.0052652406 0.35377792 0.31541812 0.13847253 0.27245858 -0.346169 -0.23795158 -0.35877246 0.36643317 -0.07913151 -0.20828672 -0.2964856 -0.32431468 -0.18339927 0.2246492 0.3608671 -0.31245148 -0.28844643 -0.28440392 -0.34469858 0.3138794 0.10277304 -0.35793033 0.33846298 0.33326593 -0.31470293 0.28728408 0.0032522914 0.30770788 0.29509896 -0.3536339 0.22855455 0.32513303 0.21898468 -0.047977645 -0.2623438 -0.37108395 0.09561186 0.11110349 0.045393296 -0.14312543 -0.3477293 -0.2668924 -0.3472553 0.37039584 -0.35222667 -0.325591 -0.32986647 0.34865806 0.3115435 0.3157142 0.36761606 -0.3623854 -0.32629853 0.30891874 0.31410554 -0.27341434 0.29143995 -0.29848126 0.23193668 -0.3492834 0.26599956 -0.33777803 -0.26917624 0.03500894 0.2868754 -0.23389563 0.24289212 0.32051972 -0.2618862 -0.29064754 -0.36110312 -0.2756684 -0.37673897 -0.3607408 0.24209891 0.2825206 -0.066010356 -0.31789866 0.3583873 -0.03999926 -0.33920702 -0.41238326 0.3401461 -0.28686613 -0.050449956 -0.38334736 0.3227704 0.01821267 -0.3100488 0.28489685 -0.29914126 0.380231 -0.32376236 0.24642234 0.35234863 -0.09475909 -0.14623584 -0.38254753 0.38158855 -0.284323 0.26072615 -0.3462544 0.13134126 -0.22657563 -0.3367185 -0.32015207 -0.032853913 -0.28982446 0.25258574 -0.3378948 0.2566513 -0.19324158 0.31210348 0.35078293 0.30781332 0.34777477 0.38081905 -0.0065509607 -0.35082376
11 -0.06944915 -0.36717153 0.33638728 -0.16369706 -0.3495529 -0.28188702 -0.35704634 -0.32892108 -0.0098014325 0.31203625 0.3116253 0.03729793 0.32807627 -0.31002775 -0.3621973 -0.36663637 0.35957524 -0.11059919 -0.18707263 -0.3553533 -0.3312711 -0.22244169 0.31814992 0.30684283 -0.3345088 -0.1655515 -0.39136386 -0.28855854 0.36774832 0.09438961 -0.3857183 0.40306836 0.29252952 -0.2341116 0.3650083 0.1625239 0.3748213 0.3403436 -0.3476613 0.247157 0.3329069 0.3160852 -0.03229501 -0.33812058 -0.36257866 0.06177913 -0.094878316 0.039997 -0.11095159 -0.370167 -0.25656518 -0.28515595 0.37366208 -0.2020958 -0.3565608 -0.30597195 0.36224735 0.35444704 0.37688562 0.27006042 -0.37180912 -0.25743157 0.38355836 0.38946062 -0.2426165 0.21622992 -0.21391602 0.32638043 -0.27878454 0.11762877 -0.34464622 -0.26213244 0.12274708 0.34477636 -0.17373495 0.2952674 0.37381038 -0.28254178 -0.19471729 -0.3779315 -0.28662854 -0.33936143 -0.32596788 0.2720118 0.3030347 -0.13211013 -0.32596537 0.3734076 0.0217152 -0.33235526 -0.39064837 0.38214707 -0.37403676 0.013910151 -0.3710402 0.36319086 -0.18664941 -0.31328332 0.23231676 -0.25721386 0.34414232 -0.3525076 0.33373454 0.34780553 -0.06717128 0.0006924625 -0.30518907 0.3222549 -0.23650019 0.31906912 -0.260763 0.12760206 -0.32036108 -0.3539058 -0.32145113 0.1674258 -0.31650966 0.2952833 -0.30873236 0.35619974 -0.29296735 0.27059335 0.30156377 0.23658124 0.21140423 0.37405047 0.09850114 -0.31198856
12 0.27521732 -0.38061324 0.30920744 -0.14032172 -0.28616837 -0.35207805 -0.22540252 -0.35259047 -0.2685506 0.33353305 0.055231735 0.2519062 0.32068002 -0.37033737 -0.36337343 -0.34595364 0.3579426 -0.28663975 0.20298976 -0.35556737 -0.2744283 -0.29166365 0.36465222 0.10589228 -0.1864384 -0.3196005 -0.28732947 -0.33000493 0.36470914 0.097384155 -0.32668722 0.27396643 0.3170424 -0.25911567 0.2975234 0.14107987 0.3563356 0.3116718 -0.33762303 0.31682226 0.0945101 0.33951834 -0.21764629 -0.34961903 -0.3741764 -0.2407599 -0.15360579 -0.09844029 -0.3611322 -0.14860168 -0.32811898 -0.34669194 0.2643326 -0.27389345 -0.2929488 -0.29820868 0.30745435 0.32916713 0.28914315 0.322682 -0.31125352 -0.1900122 0.28791887 0.32182875 -0.22293152 0.3151742 -0.34646508 0.3423935 -0.27696425 0.17311269 -0.3679937 -0.36064088 0.0728926 0.18414576 -0.21278825 0.31868556 0.25964776 -0.3427265 -0.38603356 -0.27227408 -0.34398714 -0.35864788 -0.33881193 0.15837629 0.24970661 -0.016942758 -0.30669788 0.2947828 0.2775245 -0.15051773 -0.3415287 0.38035232 -0.34233186 -0.23035783 -0.24427748 0.3477706 -0.24962719 -0.18208148 0.22386976 0.007521066 0.2959038 -0.31847912 0.35621306 0.31298962 -0.22670399 -0.17001563 -0.30593938 0.23069106 -0.27844757 0.2115943 -0.3742049 -0.17224327 -0.35621908 -0.10472165 -0.15593645 0.24832919 -0.35907283 0.27615187 -0.24011315 0.3795114 -0.31238624 0.10288064 0.36135483 0.33826318 0.3033195 0.39303327 0.073205054 -0.30227044
13 0.2631824 -0.28026962 0.30501857 0.11728337 -0.30922133 -0.3530106 -0.31320038 -0.36172655 -0.30314034 0.25188372 0.16916078 0.2918525 0.3038183 -0.3392822 -0.3556452 -0.24529251 0.32288274 -0.28958097 0.15175344 -0.23901783 -0.3135347 -0.32076785 0.3474632 0.2724017 -0.3671172 -0.16974692 -0.3345682 -0.34096542 0.2957181 -0.15875785 -0.32925177 0.3778354 0.37539104 -0.3544851 0.33748397 0.15536408 0.21901524 0.22051947 -0.34404942 0.34222132 0.12840095 0.31145686 -0.05087205 -0.3241422 -0.35869247 -0.2586705 -0.11428113 -0.250837 -0.29180327 -0.20382196 -0.30721387 -0.2637846 0.19170049 -0.33055955 -0.36801603 -0.24845402 0.30394897 0.37616313 0.35597396 0.24973069 -0.3318537 -0.21375483 0.21792178 0.320737 -0.23866437 0.3035785 -0.26052558 0.302988 -0.29211164 0.064410225 -0.3804318 -0.3079287 0.0570582 0.18244198 -0.1846777 0.37922823 0.35659298 -0.31084034 -0.31392828 -0.31822115 -0.3573332 -0.22172329 -0.20505562 0.256797 0.32518 0.1602727 -0.30246264 0.26901698 0.2785172 -0.30939266 -0.24705903 0.36961865 -0.2822499 -0.16155554 -0.27345157 0.20422864 -0.22645134 -0.36396426 0.25772944 -0.02674682 0.22948846 -0.25556317 0.34449473 0.2779877 -0.31924203 -0.20848678 -0.23094445 0.27798375 -0.265012 0.30265653 -0.32146978 -0.008367668 -0.3092482 -0.30073065 -0.25999755 0.2385838 -0.35987046 0.33424193 -0.32582545 0.37327757 -0.2593974 0.11181145 0.36612934 0.33930543 0.3317914 0.29066148 -0.10982095 -0.33107987
14 0.10155977 -0.39021924 0.30113122 -0.08448975 -0.22683267 -0.31672245 -0.33916298 -0.2966697 -0.25278974 0.26099375 0.19242188 0.29442507 0.3107871 -0.38012412 -0.2633088 -0.29612932 0.3247423 -0.25586876 -0.19482993 -0.2890821 -0.27545443 -0.26550204 0.30443347 0.26156285 -0.32832205 -0.31953225 -0.33651814 -0.35081112 0.36516818 -0.026275333 -0.26315954 0.357784 0.2291199 -0.25076687 0.3325741 0.107691266 0.3951812 0.3343107 -0.35545313 0.2619842 0.027523803 0.33480683 -0.31265712 -0.33868125 -0.31379622 0.08063232 -0.10776653 -0.2019033 -0.3361468 -0.27690753 -0.3159923 -0.19633444 0.29952446 -0.32961088 -0.23996058 -0.3530274 0.24813959 0.3583996 0.34390113 0.2930071 -0.29858178 -0.34445637 0.33663222 0.3400458 -0.04037458 0.28719363 -0.3385486 0.21662784 -0.38357678 0.31315312 -0.34030172 -0.27599213 0.26779792 0.2254308 0.076698765 0.34856564 0.27966404 -0.27930513 -0.30797717 -0.26818228 -0.23717731 -0.29022112 -0.27717268 0.09835024 0.336149 0.24516845 -0.33218977 0.36262304 0.28526324 -0.20126739 -0.3171018 0.30737516 -0.1658741 0.03359747 -0.36417177 0.28074294 -0.15021957 -0.3674341 0.26308504 -0.180042 0.3816082 -0.32874396 0.16695672 0.29038277 -0.2663298 0.034681085 -0.3458856 0.2662672 -0.29940864 0.34227002 -0.29784486 -0.18118061 -0.33307725 -0.20441076 -0.30602187 0.27224016 -0.32001498 0.3477104 -0.22614433 0.2579815 -0.28978163 0.2416427 0.19280745 0.22546937 0.31713998 0.36792275 -0.099022895 -0.36589304
15 0.2203956 -0.31759036 0.2539843 -0.01649655 -0.36716628 -0.25299993 -0.31584522 -0.2861222 -0.13861457 0.26720488 0.1750304 0.30790612 0.38327563 -0.2730572 -0.26369345 -0.34406093 0.3391098 -0.33020276 -0.22112727 -0.2940792 -0.18141873 -0.19406374 0.34913963 0.13249303 -0.34346566 -0.2912133 -0.37015232 -0.37597662 0.36508945 -0.10180943 -0.3168752 0.35622498 0.25695604 -0.35601997 0.3065523 0.0992803 0.38960388 0.34558812 -0.37679976 0.34226635 0.08374507 0.25600898 -0.25565687 -0.24194068 -0.24580513 -0.0304919 -0.037021305 -0.08464343 -0.30768347 -0.3322914 -0.35902834 -0.31184477 0.25548398 -0.32829332 -0.29878104 -0.33391812 0.25461206 0.3316984 0.37704492 0.27892599 -0.3726984 -0.36456943 0.28054953 0.25952882 -0.1751048 0.26066267 -0.27742022 0.16572742 -0.35905626 0.26116902 -0.3798955 -0.3877636 0.28845415 0.37016952 0.012813378 0.3641378 0.26309305 -0.34375438 -0.28629205 -0.32482696 -0.30305248 -0.31443784 -0.29058695 0.14762719 0.32560852 0.18322714 -0.3883801 0.3891836 0.06827154 -0.30175236 -0.2795353 0.37104228 -0.058666244 0.02109516 -0.36075082 0.23346712 -0.039973237 -0.3430573 0.30125287 -0.25882798 0.3728081 -0.3664121 0.23267142 0.29250586 -0.23754986 -0.11262493 -0.34781882 0.32307687 -0.2962539 0.32423568 -0.25932917 -0.16449791 -0.34949487 -0.22194856 -0.3095266 0.20677128 -0.30653876 0.36591485 -0.25201607 0.22134313 -0.20673653 0.24298435 0.33350956 0.2435538 0.22868486 0.30325076 -0.09593968 -0.35107043
16 0.06202426 -0.35986564 0.2578056 0.055940095 -0.39777794 -0.24303882 -0.29346374 -0.36774972 -0.17304601 0.299509 0.0907961 0.29957563 0.27190474 -0.3529269 -0.26898187 -0.3737373 0.31304938 -0.2747803 -0.16225344 -0.32071334 -0.24962628 -0.23400158 0.36253637 0.13146427 -0.25618756 -0.35343263 -0.3653934 -0.37500486 0.37084693 -0.08574085 -0.33015728 0.40534014 0.24657057 -0.24037786 0.26176807 0.024738511 0.39340985 0.38345277 -0.3821362 0.3323012 0.058659486 0.30324897 -0.22529055 -0.27949414 -0.19858868 -0.06548591 -0.14524187 -0.14995417 -0.35810775 -0.34561452 -0.36416084 -0.24698876 0.33115372 -0.28027558 -0.27027747 -0.3567754 0.23306087 0.25724047 0.36950377 0.23090741 -0.36871058 -0.34704417 0.34658462 0.29758486 -0.03842178 0.31657225 -0.33411264 0.17109233 -0.35174683 0.23649985 -0.37819493 -0.3087996 0.26718625 0.3529308 0.09626169 0.38318408 0.29107466 -0.24125457 -0.2864334 -0.28352624 -0.3034427 -0.28038487 -0.26847973 0.16559139 0.3670352 0.22712243 -0.27118388 0.37971777 0.0878843 -0.21190225 -0.35788184 0.37264705 -0.10551254 0.070722595 -0.32057673 0.30919987 -0.0660906 -0.3579955 0.35723454 -0.18713947 0.37858316 -0.29858738 0.18321091 0.329559 -0.28266484 0.019337628 -0.36808774 0.32942888 -0.25998497 0.2911458 -0.32879305 -0.18795633 -0.36507094 -0.19685575 -0.23562619 0.19875948 -0.35289875 0.28325695 -0.26380274 0.30127394 -0.20411961 0.21686658 0.32409236 0.26271236 0.30538902 0.37226388 0.014341495 -0.31881598
17 0.29644746 -0.3776749 0.37517706 -0.099026255 -0.25997767 -0.32452223 -0.32505894 -0.27159873 -0.1023513 0.19149165 0.19307798 0.17254059 0.30349442 -0.30343816 -0.3550299 -0.32432178 0.26854643 -0.30288133 0.13242437 -0.31606495 -0.33498406 -0.3234129 0.3299013 0.2688168 -0.25708777 -0.34636536 -0.35924968 -0.34874168 0.34944317 0.085802145 -0.35865432 0.35553342 0.24047115 -0.2939281 0.28389978 -0.09640095 0.35099941 0.35497084 -0.33827052 0.35096195 0.07454871 0.33372232 -0.23573378 -0.35986775 -0.18792771 0.044189554 -0.12806709 -0.23119538 -0.2592145 -0.34265006 -0.3411914 -0.26381463 0.268838 -0.2984858 -0.28868625 -0.2709785 0.32794073 0.34516013 0.32875156 0.16928068 -0.30195376 -0.36951965 0.26679265 0.33113223 0.027308974 0.1417411 -0.33554232 0.3185322 -0.35152382 0.32877877 -0.298151 -0.25127944 0.09023665 0.32184163 -0.029343786 0.37793094 0.31964993 -0.31943938 -0.2983445 -0.34946924 -0.3103549 -0.33724222 -0.35991383 0.03090715 0.13442029 0.24907917 -0.35991398 0.3534029 0.04592179 -0.34695184 -0.34907326 0.34329185 -0.17231785 -0.15905525 -0.33189946 0.22140709 -0.14861703 -0.2688945 0.31305104 -0.23688065 0.22519478 -0.2914625 0.3088981 0.27749544 -0.32683387 0.09359246 -0.28260097 0.3020439 -0.20985475 0.27068043 -0.36314598 -0.23078807 -0.3158326 -0.05301046 -0.3165474 0.26283813 -0.30150652 0.31402475 -0.33275783 0.3056634 -0.26165116 0.031177659 0.3080406 0.32463995 0.28024825 0.25263786 0.06316164 -0.27876276
18 0.17040342 -0.27426532 0.39231128 -0.090293236 -0.37804174 -0.32019258 -0.17642535 -0.40849644 0.0468817 0.29438633 0.27346185 0.2692469 0.3689874 -0.3802372 -0.39742428 -0.2563412 0.33891034 -0.21595791 -0.0756734 -0.36242065 -0.32389385 -0.29940668 0.23903352 0.08988569 -0.2539606 -0.29680827 -0.380446 -0.37078992 0.35904586 0.027485356 -0.33267003 0.35681015 0.2517753 -0.3632226 0.33857232 -0.1182576 0.29874736 0.34361625 -0.38912416 0.34295526 0.25699517 0.37317887 -0.2799224 -0.34671974 -0.29540464 0.10737543 0.1502954 0.04482659 -0.28781775 -0.35588616 -0.35607666 -0.1404591 0.08661495 -0.28552905 -0.287572 -0.35946953 0.22672561 0.25434068 0.31054795 0.29870483 -0.34801874 -0.27804083 0.32820016 0.32245928 -0.15188804 0.23327373 -0.30410817 0.29554033 -0.3796525 0.21012668 -0.34085116 -0.35032487 0.15540905 0.13084911 0.089247175 0.32854328 0.27631462 -0.28521478 -0.33069336 -0.3060454 -0.3290556 -0.23968299 -0.262969 0.007619148 0.31602848 0.24926534 -0.38115418 0.2343107 0.21346019 -0.31607747 -0.33332944 0.35796258 -0.34751603 -0.1330985 -0.35446984 0.14029102 -0.16519351 -0.31367382 0.33112922 -0.030454027 0.21145402 -0.38059956 0.20222273 0.34102 -0.30650344 0.030822543 -0.306352 0.3389225 -0.28556645 0.2718467 -0.23739313 0.00040352723 -0.21107827 -0.32283288 -0.3046937 0.015717722 -0.36921328 0.37421587 -0.25655058 0.2914566 -0.23808402 -0.04013743 0.3130935 0.39704987 0.3590892 0.37127092 -0.046514347 -0.31857452
19 0.2120835 -0.2421901 0.355041 -0.13562255 -0.35051942 -0.308925 -0.33197486 -0.29717195 -0.01105696 0.3448745 0.29062983 0.28483373 0.33924383 -0.33343333 -0.35221878 -0.3049551 0.2508133 -0.18923761 -0.10648574 -0.32269514 -0.30181998 -0.32098565 0.1838988 0.034068618 -0.30262306 -0.35954553 -0.2856713 -0.28835967 0.32851207 0.037060466 -0.2435063 0.33384773 0.26763424 -0.2345592 0.30459046 -0.13366354 0.2691785 0.36371276 -0.33962935 0.36783737 0.303712 0.37336123 -0.25797617 -0.32143274 -0.2653595 0.15004596 0.06780395 0.009877262 -0.2408678 -0.33507025 -0.3746883 -0.25171804 0.09198561 -0.37486675 -0.36761272 -0.36881718 0.27591532 0.32533705 0.2841592 0.21955249 -0.33061352 -0.37582928 0.37378922 0.37286267 -0.14231233 0.30254874 -0.34162605 0.3452268 -0.3496289 0.12506714 -0.29005438 -0.3664599 0.2629908 0.073729284 0.05525621 0.3446363 0.18981978 -0.34191516 -0.27255824 -0.34061304 -0.2549746 -0.33013758 -0.34147862 0.08103928 0.26259926 0.25429705 -0.34429476 0.25175193 0.29061526 -0.32676896 -0.37411892 0.32642713 -0.38132468 -0.18304248 -0.29801792 0.24293679 -0.21373674 -0.282707 0.35016304 -0.06615448 0.27769423 -0.2830247 0.31006402 0.36950436 -0.32665431 0.109432556 -0.36436978 0.35505417 -0.28169504 0.23601665 -0.2727595 0.10477545 -0.17617305 -0.29717803 -0.34610865 -0.06571274 -0.370265 0.33044538 -0.3006273 0.26054907 -0.27095532 0.03397272 0.263946 0.34745052 0.346578 0.32986712 0.04174777 -0.37898847
20 0.29196697 -0.23865527 0.33558652 -0.09529955 -0.3750499 -0.2808154 -0.19816452 -0.33519214 0.042067982 0.23650444 0.2827043 0.26549774 0.32748154 -0.36824486 -0.35636887 -0.23255086 0.28673998 -0.22023784 -0.1336836 -0.30405933 -0.25950047 -0.3398957 0.27331057 0.026695503 -0.30155677 -0.30218384 -0.33543667 -0.28184628 0.33630434 -0.0113618355 -0.36046746 0.3242878 0.33185613 -0.31641808 0.26267833 0.027057284 0.36658344 0.33444306 -0.29861763 0.32162994 0.19661878 0.33930746 -0.26375535 -0.36240235 -0.31643414 0.15399192 0.13328043 -0.022268632 -0.19212526 -0.36392388 -0.36050704 -0.16054058 0.22467189 -0.33842772 -0.26280767 -0.3385634 0.25524887 0.23638685 0.3213084 0.32906762 -0.3621204 -0.35388994 0.26639464 0.3455851 -0.006257586 0.31101757 -0.24734712 0.3356428 -0.31964347 0.25669754 -0.24507283 -0.3592235 0.20086798 0.179954 0.108274624 0.37262374 0.23357236 -0.3626267 -0.21994543 -0.31056795 -0.36237204 -0.33614415 -0.338977 0.064933866 0.2704853 0.23266813 -0.29447958 0.2706416 0.2879604 -0.34487385 -0.3133409 0.37541696 -0.3373241 -0.06548259 -0.3124292 0.28531602 -0.19106552 -0.21158668 0.36703667 -0.05178979 0.2723186 -0.34478012 0.18915226 0.24740128 -0.30642906 0.12960202 -0.2974195 0.37059474 -0.33967787 0.17364806 -0.32854968 0.11307994 -0.22407326 -0.3310545 -0.26655278 -0.020907734 -0.2726287 0.31137994 -0.26370206 0.32510215 -0.2989348 0.0027425897 0.33661592 0.35400015 0.2705168 0.2833272 -0.114556156 -0.3268212
21 0.2681973 -0.18069187 0.35961917 0.18335158 -0.28887442 -0.29726452 -0.31821245 -0.24443695 -0.26841444 0.2237876 0.20618634 0.27805296 0.23704225 -0.23706487 -0.38009858 -0.34127325 0.36874416 -0.28558806 -0.015156763 -0.33387575 -0.21204375 -0.27469763 0.2585926 0.2975879 -0.34144452 -0.38602018 -0.34678772 -0.3471225 0.35273767 -0.1723076 -0.25340372 0.2077542 0.35651076 -0.2521237 0.32832265 0.2146126 0.3597208 0.30544072 -0.3233468 0.29314378 0.32095122 0.37112764 -0.2048741 -0.21954419 -0.3365488 -0.21623152 -0.14681225 -0.11507316 -0.32949722 -0.31675455 -0.34080422 -0.2701894 0.2013125 -0.3615032 -0.31217015 -0.32008073 0.37034145 0.35640746 0.3056215 0.36328897 -0.3415997 -0.29161355 0.32675055 0.26555103 -0.17299485 0.28183237 -0.35505524 0.34267768 -0.3173668 0.3561563 -0.37454596 -0.34040117 0.08099866 0.3282579 0.020526595 0.18441942 0.2595309 -0.2876519 -0.34744784 -0.30099308 -0.33894566 -0.2691999 -0.30487892 0.0749792 0.25522777 0.16298962 -0.3465816 0.25285423 0.27849075 -0.3240035 -0.23702298 0.31841174 -0.25043324 -0.16196294 -0.35305458 0.25460196 0.10482101 -0.30413392 0.39759853 -0.2666151 0.37845936 -0.36289042 0.2999959 0.25753614 -0.26855844 -0.16342756 -0.25220186 0.345505 -0.26885447 0.3552971 -0.26732 -0.15633224 -0.29886484 -0.2752022 -0.25928852 -0.003280333 -0.3383438 0.36566424 -0.30931607 0.33483106 -0.1496278 -0.003890719 0.14586495 0.31222942 0.32468227 0.33932889 0.10146266 -0.31961727
22 0.27973828 -0.19825596 0.36411998 0.14828281 -0.25824082 -0.2618885 -0.23997383 -0.3352594 -0.29726762 0.22163098 0.1643791 0.31784746 0.2798965 -0.30787107 -0.35585296 -0.35389253 0.32249004 -0.29690287 0.01743494 -0.27908394 -0.110399105 -0.27651468 0.34937754 0.30998126 -0.3059178 -0.33507073 -0.2745364 -0.29596332 0.2771748 -0.13521628 -0.30492055 0.29243314 0.3452607 -0.34885997 0.22367312 0.15004525 0.36317906 0.29879937 -0.29301682 0.3263346 0.2816257 0.30466554 -0.07980789 -0.25436202 -0.37927333 -0.27960545 -0.08302711 -0.22413202 -0.30980495 -0.29171807 -0.3387328 -0.24705982 0.27537584 -0.33452183 -0.24399759 -0.3388951 0.336917 0.3424846 0.33820236 0.34894982 -0.36693385 -0.3256955 0.30202106 0.24744807 -0.14750428 0.31811345 -0.30985996 0.2780872 -0.37999773 0.3496821 -0.2857161 -0.42457342 0.10893594 0.3822207 -0.086589985 0.15495118 0.29399022 -0.31979716 -0.31310058 -0.3199283 -0.35399494 -0.23655483 -0.37407455 0.2153013 0.18104425 0.25116968 -0.3810383 0.29631472 0.26859826 -0.3136677 -0.2590729 0.35593674 -0.19906361 -0.21606869 -0.4020504 0.2985945 0.048019238 -0.3288415 0.2629322 -0.13485996 0.3476366 -0.35445085 0.32964027 0.31382078 -0.3351714 -0.010416602 -0.27106312 0.2699978 -0.30905303 0.30663764 -0.30087692 -0.17106093 -0.2669716 -0.27598944 -0.16407649 0.1516731 -0.2717561 0.3735828 -0.33388376 0.3297197 -0.11779983 0.13450652 0.31319177 0.35021594 0.29623064 0.3267159 0.11422542 -0.23388812
23 0.1138318 -0.1420653 0.33886984 0.19545375 -0.22877352 -0.31660247 -0.23568529 -0.3219062 -0.26067778 0.17601795 0.24054325 0.30781895 0.32972822 -0.30286527 -0.32727396 -0.21997164 0.33199206 -0.35405973 -0.10659434 -0.341937 -0.17295438 -0.3253548 0.28502524 0.31038153 -0.2863398 -0.34324315 -0.35531375 -0.23592782 0.29832223 -0.23022863 -0.34676233 0.33833674 0.25229856 -0.36984774 0.20351109 0.064913966 0.31408256 0.25455913 -0.28032959 0.24786744 0.375051 0.28552717 -0.027958097 -0.24606845 -0.2990615 -0.25633 0.07440562 -0.2880911 -0.2881971 -0.20448339 -0.33480084 -0.2348757 0.18532807 -0.29890487 -0.26464242 -0.26751667 0.36446884 0.24171427 0.36096907 0.34643432 -0.30112767 -0.3383871 0.3153641 0.21519041 -0.010829722 0.1880123 -0.3108261 0.3203583 -0.314916 0.328493 -0.38248378 -0.34490365 0.029579176 0.31954995 -0.20457998 0.17982985 0.3372715 -0.27142602 -0.22632115 -0.33108687 -0.32284594 -0.31154937 -0.3247992 0.118603714 0.16796072 0.2317278 -0.26412424 0.35395795 0.26844338 -0.2435139 -0.30725095 0.38452855 -0.08240736 -0.16097222 -0.3468459 0.36199296 0.07288975 -0.3775293 0.31227186 -0.2548587 0.3370455 -0.34371844 0.32089505 0.34464756 -0.30256706 -0.12790231 -0.2747064 0.33245456 -0.36429414 0.3614815 -0.31026852 -0.17389072 -0.34340072 -0.29039395 -0.2555124 0.24513423 -0.2555723 0.33866656 -0.35640067 0.3269961 -0.22626387 0.10767053 0.2329691 0.3525859 0.28135303 0.33451194 0.117496446 -0.25198442
24 0.22975178 -0.33382854 0.3058317 -0.18482728 -0.30047506 -0.16164431 -0.26220667 -0.24902308 -0.16363063 0.20055819 0.25176826 0.30944666 0.3577468 -0.35677403 -0.35454303 -0.24848078 0.33349678 -0.2969309 0.16415024 -0.24684486 -0.14687963 -0.33240286 0.3255437 0.18160088 -0.30155548 -0.30918732 -0.2535115 -0.33331704 0.24916014 -0.16873121 -0.19139038 0.3304891 0.30928805 -0.36241212 0.3735392 0.10333481 0.2984788 0.3625676 -0.33723632 0.3227814 0.12426522 0.31310573 -0.29963067 -0.36721548 -0.28284788 -0.13071236 0.06913634 -0.20804347 -0.31942067 -0.29048353 -0.28700796 -0.25437304 0.343892 -0.31829396 -0.3578075 -0.3109984 0.1571812 0.3733938 0.27277204 0.33458605 -0.36594746 -0.23873998 0.33978805 0.23601641 -0.15283704 0.29262513 -0.3304863 0.32060012 -0.37077874 0.21783882 -0.2679634 -0.25702512 0.19761634 0.35372624 -0.13888077 0.24903524 0.16113408 -0.26609737 -0.3468092 -0.35497576 -0.30348518 -0.28122115 -0.36072373 0.26806092 0.19860122 0.20864639 -0.31984717 0.29334342 0.21604595 -0.28197652 -0.3292531 0.38294995 -0.32886407 -0.22793874 -0.35196024 0.28794408 -0.20448695 -0.31323323 0.26955867 -0.2582349 0.36907592 -0.3695324 0.3100244 0.29192135 -0.34284094 0.062542714 -0.35312468 0.31330726 -0.3632943 0.35182157 -0.22278771 0.038665302 -0.35044724 -0.10087858 -0.30192295 0.17256598 -0.3132725 0.3241767 -0.3435756 0.3411603 -0.2544015 0.12772898 0.29700407 0.36247286 0.14556363 0.2787566 0.108654216 -0.29327163
25 0.028897407 -0.38001028 0.383488 -0.10543801 -0.41944298 -0.31293964 -0.38560456 -0.2844876 -0.1037467 0.3339967 0.289407 0.31794232 0.37129858 -0.36520478 -0.30992907 -0.3802654 0.33884457 -0.16742776 -0.19121712 -0.29260415 -0.3555594 -0.26330444 0.14961718 0.29500023 -0.31849086 -0.30964074 -0.1902456 -0.24088028 0.3485358 0.090086915 -0.35022599 0.16714041 0.30832443 -0.3872452 0.3846059 -0.004479693 0.37919047 0.34273204 -0.32934254 0.39383093 0.2317667 0.24768054 -0.30843204 -0.29268655 -0.23657192 -0.25417855 -0.1643026 -0.024962941 -0.37958375 -0.25406152 -0.37293345 -0.1936433 0.35027337 -0.29139575 -0.4047105 -0.34059083 0.3406058 0.27108952 0.3570751 0.22969037 -0.27172235 -0.37347817 0.38828707 0.39346203 -0.3099403 0.22527552 -0.37188974 0.32296523 -0.36719415 0.0926063 -0.28669703 -0.34928682 0.29923356 0.37439808 -0.06339587 0.3766669 0.3162667 -0.1829824 -0.21742328 -0.2769041 -0.34159553 -0.33752427 -0.32239068 0.028190413 0.15362304 -0.06297319 -0.31485233 0.36043933 -0.09421532 -0.26001814 -0.37797984 0.28240868 -0.35685185 -0.0577769 -0.2552828 0.31819698 0.052445002 -0.30966184 0.23911656 -0.10665479 0.27629253 -0.403044 0.3045998 0.36261123 -0.34703106 -0.17519768 -0.24871321 0.25811327 -0.360076 0.3173896 -0.3075236 -0.22946316 -0.35912853 -0.3161369 -0.3519079 -0.0020899577 -0.36004862 0.30874807 -0.3517889 0.31101635 -0.16642225 -0.122838974 0.3561792 0.27510452 0.32024992 0.36915955 0.16768686 -0.33551824
26 0.21263446 -0.2781242 0.3217638 -0.0724609 -0.32750905 -0.35283184 -0.24943763 -0.3533516 -0.1271402 0.26229233 0.2636433 0.3073804 0.34512258 -0.26223674 -0.25451443 -0.3139275 0.23284984 -0.27480102 0.2025636 -0.2085678 -0.085706554 -0.32807708 0.3514591 0.23548871 -0.32576597 -0.3431549 -0.30188107 -0.2743667 0.31150153 -0.24061765 -0.31556112 0.29644337 0.314415 -0.34678015 0.3491391 0.15724385 0.32212287 0.29409206 -0.27791995 0.35526133 0.28968272 0.2770969 -0.3011122 -0.2990698 -0.18111624 0.08815467 0.062548816 -0.07848052 -0.31112352 -0.2808951 -0.31325987 -0.28024465 0.3170222 -0.30481067 -0.37677258 -0.28651676 0.34779513 0.31754082 0.34094325 0.25677416 -0.34579527 -0.36459827 0.31415048 0.34648478 -0.12473287 0.21915509 -0.25781623 0.33978906 -0.23913132 0.3426454 -0.3251182 -0.32783282 0.22648886 0.28161877 0.14022505 0.33168697 0.33302036 -0.30197823 -0.290277 -0.33166036 -0.28337535 -0.30728903 -0.2917958 0.19776735 0.3554567 0.26772463 -0.3313514 0.21501674 0.2979644 -0.2275031 -0.30529264 0.16545892 -0.3454628 -0.2822748 -0.33201438 0.3537936 -0.2568966 -0.3415403 0.3609777 -0.24554305 0.34313807 -0.3517459 0.32509944 0.31058288 -0.34355325 -0.04891802 -0.24644867 0.21969223 -0.31682923 0.18235134 -0.33345416 -0.20785658 -0.318059 -0.20547606 -0.17089854 -0.031086076 -0.35372195 0.37131104 -0.34753108 0.35535818 -0.28155455 0.09537045 0.22641155 0.33517712 0.315711 0.340523 0.117455326 -0.33433145
27 0.20751935 -0.33772528 0.3802397 -0.1085498 -0.3546592 -0.29432562 -0.18351741 -0.34578234 -0.08918588 0.2913159 0.17142487 0.28025576 0.3406649 -0.3436965 -0.27632847 -0.36388433 0.33876708 -0.1925606 0.14599696 -0.30423388 -0.22228472 -0.32772368 0.3345163 0.22585867 -0.34593996 -0.35309914 -0.3434389 -0.3635502 0.3414759 -0.23247655 -0.33650222 0.32788113 0.29508922 -0.3716782 0.32644325 0.11197719 0.2623227 0.36841857 -0.3611034 0.33363545 0.3118586 0.3289855 -0.15924959 -0.32125655 -0.17033158 -0.023409888 0.107002094 -0.23601042 -0.2398025 -0.36526376 -0.2840716 -0.32475895 0.28807652 -0.34662384 -0.33671033 -0.36207926 0.37650868 0.2771646 0.36093113 0.2682964 -0.29792172 -0.24525434 0.32638064 0.21764174 -0.18536383 0.14163065 -0.2075444 0.30464587 -0.30730477 0.21234253 -0.30643946 -0.306457 0.06351622 0.30407816 0.06766136 0.3429107 0.26099038 -0.2594578 -0.37924573 -0.3165585 -0.2703983 -0.22091539 -0.26178068 0.1382562 0.24626648 0.23141348 -0.36277723 0.3111315 0.20000626 -0.22019714 -0.31504703 0.31462237 -0.33274996 -0.22062224 -0.3355829 0.25796214 -0.26044473 -0.2358755 0.3472842 -0.20174353 0.3378928 -0.3260894 0.24215622 0.35633597 -0.31110185 0.058716398 -0.34767294 0.30423093 -0.3608272 0.20105666 -0.38568264 0.03467894 -0.16463217 -0.17853343 -0.14564818 0.0022394613 -0.35756892 0.30171221 -0.38488933 0.37508655 -0.21158731 0.007519398 0.326637 0.33465344 0.32636628 0.36145854 -0.029634977 -0.37164897
28 0.25943807 -0.3281101 0.34964845 0.04387098 -0.38610944 -0.2927461 -0.37285966 -0.36733237 -0.22184065 0.32974786 0.24088088 0.21582177 0.28533748 -0.26923013 -0.33388647 -0.345169 0.22701094 -0.18259011 -0.109117106 -0.3199154 -0.1601257 -0.255672 0.37504795 0.29432666 -0.25843638 -0.30687204 -0.37456685 -0.36249277 0.39676553 -0.19552639 -0.3580166 0.23083287 0.3031238 -0.34478208 0.33628577 -0.024652494 0.33570293 0.3704156 -0.23683742 0.26959103 0.14383604 0.21631904 -0.19699754 -0.3469203 -0.3182558 -0.13901398 -0.14105654 -0.13497788 -0.309062 -0.33899817 -0.3414836 -0.30130762 0.26669863 -0.32984987 -0.3544292 -0.3794506 0.3390076 0.37355492 0.3582226 0.2446677 -0.2400198 -0.20287994 0.37428442 0.27616814 -0.19935715 0.32627597 -0.24207404 0.33819064 -0.33691654 0.23760585 -0.31601882 -0.33685887 0.19791292 0.29349774 -0.20652035 0.36593315 0.26987356 -0.38317075 -0.38147393 -0.35567153 -0.32994053 -0.21331324 -0.35740292 0.2185597 0.34869903 0.19258668 -0.23894168 0.2342079 0.112184525 -0.3359821 -0.24551336 0.18063593 -0.31900293 -0.1795027 -0.35586414 0.30640516 -0.2517218 -0.33664125 0.28893834 -0.20156807 0.27951446 -0.29706538 0.3129486 0.37172258 -0.32197204 0.07509762 -0.35898823 0.34993568 -0.3294661 0.36732617 -0.35495707 -0.0051192646 -0.3798278 -0.29380375 -0.17000552 0.15502515 -0.35215086 0.33314848 -0.25204983 0.33636215 -0.18969077 0.0985883 0.35558337 0.3414756 0.3010398 0.24472703 -0.20896778 -0.27555364
29 0.122257285 -0.3620965 0.3038762 0.13534878 -0.31126967 -0.31401944 -0.3278981 -0.35390678 -0.2045781 0.2933052 0.26054922 0.1686831 0.28578 -0.30903172 -0.29336068 -0.2800978 0.16561994 -0.3132625 -0.16668864 -0.28098905 -0.23009557 -0.24351943 0.32361808 0.31851926 -0.24023253 -0.23280008 -0.32986596 -0.31769702 0.26084322 -0.03136482 -0.29048023 0.28865114 0.3149863 -0.27236876 0.373408 -0.0010037166 0.21079235 0.29055223 -0.24675263 0.3710384 0.32611352 0.13844743 -0.21178867 -0.3332774 -0.33035526 -0.2550895 -0.18195888 0.0033056424 -0.264424 -0.3322946 -0.37440902 -0.3326393 0.27133548 -0.32541996 -0.26549593 -0.28962868 0.3357816 0.30131924 0.36980048 0.23221177 -0.2157856 -0.28236347 0.35059485 0.29671395 -0.17564756 0.31010592 -0.23714054 0.35320136 -0.3279221 0.23120631 -0.3278327 -0.31812954 0.250304 0.34296227 -0.22170113 0.37372905 0.35388935 -0.3599404 -0.30149427 -0.34023046 -0.33137557 -0.33611602 -0.32235965 0.29872257 0.3344487 0.17900085 -0.2637189 0.30155462 -0.038705036 -0.3054249 -0.29471734 0.25643715 -0.32239246 -0.2065449 -0.3140027 0.33001882 -0.21729714 -0.29722983 0.34609595 -0.049236685 0.35072267 -0.292271 0.32499823 0.299842 -0.34887317 -0.16749734 -0.3135184 0.29538205 -0.3266989 0.25129244 -0.3506837 -0.15652332 -0.31303248 -0.32808435 -0.3186083 0.17054835 -0.2785317 0.3487881 -0.26779768 0.25960273 -0.09695196 -0.00616501 0.33983558 0.33705607 0.19789818 0.321622 -0.17263953 -0.34056252
30 0.20934534 -0.37680024 0.34395778 0.18410513 -0.35164702 -0.34713203 -0.2833707 -0.31666708 -0.11835663 0.29872498 0.3185887 0.12930845 0.22952683 -0.3673454 -0.3549721 -0.33416778 0.16879554 -0.3142188 -0.11604909 -0.3178095 -0.23698999 -0.27624407 0.354826 0.2927186 -0.26391488 -0.35418975 -0.3357237 -0.3585956 0.3059367 -0.10600644 -0.37327886 0.3448363 0.30600736 -0.36790895 0.35784885 0.12182323 0.37228483 0.32090378 -0.19716378 0.24852048 0.2642221 0.2850419 -0.27985957 -0.323474 -0.33408868 -0.08704283 -0.19605738 -0.1967057 -0.3312424 -0.3267236 -0.29868716 -0.3563439 0.20825487 -0.33057305 -0.22620766 -0.3569514 0.2835072 0.25624397 0.3794359 0.29239106 -0.23368913 -0.18641539 0.379143 0.22728036 -0.17729348 0.20104909 -0.32003063 0.34130102 -0.3568219 0.32400128 -0.23629582 -0.32475695 0.27246866 0.18941389 -0.20740977 0.40092206 0.30597675 -0.26404148 -0.27687487 -0.30071378 -0.29285562 -0.31115136 -0.28891888 0.28687733 0.28974703 0.15330087 -0.26604536 0.35258266 0.04870782 -0.2792195 -0.38297102 0.25044444 -0.35060358 -0.15177844 -0.34463385 0.31166637 -0.20305045 -0.3588539 0.3530743 -0.084947 0.33910474 -0.23642457 0.15712559 0.3405716 -0.32596186 -0.06110252 -0.21751821 0.3396767 -0.35327423 0.28734893 -0.35842225 -0.14644861 -0.23102969 -0.31539455 -0.30910268 0.04126644 -0.3311739 0.33187294 -0.32180738 0.34449992 -0.08487436 0.14705557 0.32368574 0.33265042 0.3160266 0.3552949 -0.17593823 -0.3506972
31 0.17860948 -0.2784602 0.3446318 -0.03627688 -0.26221412 -0.34362882 -0.3184014 -0.26597664 -0.20697689 0.32779562 0.25917506 0.17121911 0.32975549 -0.35669675 -0.30954117 -0.3156114 0.29834104 -0.31783608 0.21965294 -0.36614537 -0.25037602 -0.28186053 0.2781321 0.27201372 -0.34989187 -0.26820698 -0.2742387 -0.3481409 0.287079 -0.21966979 -0.3683947 0.34202158 0.37972897 -0.28035983 0.34562013 0.06880577 0.35000256 0.33992317 -0.31418493 0.32251978 0.21999322 0.17524518 -0.18853392 -0.35403678 -0.31445566 -0.0464072 -0.1541817 -0.23469944 -0.16083531 -0.3071741 -0.34895778 -0.2629326 0.19423363 -0.113526054 -0.35262758 -0.35059398 0.32853973 0.28266057 0.35445103 0.36103046 -0.3693051 -0.31240636 0.33752507 0.38064355 -0.12069191 0.18106589 -0.26189226 0.2844558 -0.25827116 0.23765895 -0.32975933 -0.33269 0.052001152 0.23736745 -0.20549907 0.35867703 0.35299134 -0.2693506 -0.23722172 -0.29048353 -0.29147264 -0.34957424 -0.34532818 0.29172596 0.33244962 -0.047644645 -0.3502855 0.24858876 0.12985487 -0.29136628 -0.32332608 0.24815497 -0.19221729 -0.24741425 -0.28645632 0.21677193 -0.24802655 -0.31721005 0.21288534 -0.12088995 0.34074324 -0.30034545 0.23942637 0.3098574 -0.30058664 0.116320364 -0.31844273 0.25711086 -0.28556427 0.35947663 -0.31876758 0.032464866 -0.37877807 -0.21974336 -0.28501618 -0.08336051 -0.354622 0.32377252 -0.3085637 0.3732801 -0.16134188 0.23792084 0.33425042 0.24566229 0.3078019 0.31314692 -0.2403506 -0.15104459
32 0.015997006 -0.31503797 0.2882281 0.1471431 -0.29556566 -0.31194946 -0.22849336 -0.31548974 -0.23217405 0.38063866 0.21547547 0.2687187 0.33039197 -0.3728138 -0.31841558 -0.33154687 0.20964159 -0.21058549 0.16838126 -0.3517281 -0.24791041 -0.3270115 0.24370787 0.26010823 -0.3670438 -0.3257611 -0.24507102 -0.35017395 0.37021703 -0.15008548 -0.29180825 0.35977146 0.2956462 -0.37408897 0.3611014 0.03636471 0.34427413 0.2959468 -0.26470178 0.3545223 0.27399787 0.26173326 -0.27125037 -0.3599368 -0.28234208 -0.085478246 0.042806566 -0.27228972 -0.27886763 -0.3622423 -0.27561462 -0.28397307 0.36712897 -0.06503037 -0.36032033 -0.36560047 0.2877904 0.3464465 0.28792796 0.32732862 -0.34117526 -0.30759266 0.36204877 0.37998998 -0.1915199 0.081957474 -0.23030503 0.29073647 -0.3536165 0.37542844 -0.3417133 -0.3732613 -0.007659807 0.23423621 -0.15404719 0.26414198 0.30921236 -0.3518102 -0.21798895 -0.33871186 -0.29545638 -0.2301816 -0.30148825 0.22224219 0.23696348 0.24969043 -0.3357914 0.33661982 0.20948444 -0.21899271 -0.27866256 0.24600966 -0.37766814 -0.22732651 -0.22712563 0.13258131 -0.09253865 -0.3191537 0.2984531 -0.16178949 0.3756008 -0.345811 0.31006503 0.3507009 -0.3073221 0.08436507 -0.26795265 0.33520636 -0.15589495 0.32052475 -0.31074077 -0.14032404 -0.25683275 -0.27963087 -0.22870071 -0.10942627 -0.34335706 0.30101585 -0.34729478 0.3605828 -0.21721405 0.21126261 0.25215137 0.28345457 0.3217945 0.3724351 -0.17908628 -0.20242165
33 0.070904255 -0.30213067 0.29114434 0.16065139 -0.291078 -0.31773555 -0.27562243 -0.36807016 -0.26255834 0.32664156 0.21305345 0.22652364 0.36528033 -0.35685623 -0.2989545 -0.24966784 0.31597096 -0.2195081 0.1533106 -0.34244478 -0.32283553 -0.32115334 0.23429655 0.2125165 -0.35400403 -0.27456772 -0.27081352 -0.32580087 0.2927176 -0.0780345 -0.34560603 0.31233636 0.36861998 -0.3668552 0.35559905 -0.08820492 0.34835616 0.28741363 -0.2740386 0.29686844 0.23189943 0.14117666 -0.32133308 -0.29714015 -0.34669405 0.0994724 -0.10950137 -0.21594861 -0.32313344 -0.3199065 -0.2442624 -0.33731073 0.31583184 -0.0634374 -0.3332498 -0.35895717 0.29339057 0.2674381 0.3310524 0.24209867 -0.2593691 -0.386906 0.31460556 0.35233244 -0.24847604 0.276075 -0.2131782 0.3568973 -0.31650314 0.35830092 -0.30524367 -0.3460727 0.11900749 0.3084087 -0.21361811 0.3088484 0.28415617 -0.35621303 -0.26718128 -0.34605628 -0.35915056 -0.3315011 -0.34278363 0.25851956 0.3426125 0.17695422 -0.340055 0.22103761 0.14574434 -0.2970321 -0.29648384 0.30126303 -0.28805688 -0.17390853 -0.29026452 0.13375896 -0.26361528 -0.2595498 0.3631341 -0.15543133 0.29420638 -0.36772677 0.31853348 0.3606255 -0.29057643 0.15852693 -0.2699138 0.3426853 -0.16659345 0.35943195 -0.3764075 0.01826939 -0.28730172 -0.21406005 -0.25361633 -0.026013236 -0.34650505 0.363943 -0.27258977 0.25100106 -0.12287795 0.12725274 0.2350046 0.29595888 0.30573386 0.31971997 -0.19580851 -0.18531911
34 0.28840825 -0.3279892 0.3355285 -0.058579758 -0.26685637 -0.31777248 -0.24270329 -0.28711095 -0.21814552 0.373734 0.2864719 0.17893124 0.4080482 -0.3830254 -0.27745676 -0.36085597 0.33858865 -0.2940511 -0.15337661 -0.33993095 -0.27309856 -0.30147967 0.2655906 0.33414775 -0.34811193 -0.34199953 -0.24073747 -0.3745184 0.28403234 -0.24244799 -0.2720069 0.3486398 0.38190114 -0.32662416 0.19411945 -0.18198945 0.35284123 0.3702418 -0.33488 0.31739625 0.27060428 0.3453028 -0.26110443 -0.27581736 -0.30961028 -0.16195418 0.18299194 -0.23704718 -0.20963041 -0.358854 -0.34864196 -0.33081606 0.3418722 -0.35194874 -0.3836172 -0.34862047 0.36029986 0.25719 0.35895434 0.33139864 -0.30148524 -0.31988505 0.36814243 0.2876058 -0.17753206 0.29654962 -0.30605972 0.36619258 -0.380606 0.32555363 -0.29451346 -0.3416865 -0.012503763 0.26586112 -0.20761651 0.3643982 0.29358798 -0.22749431 -0.389098 -0.22732906 -0.36474168 -0.32413167 -0.4077161 0.036928456 0.25074577 0.1197357 -0.36479017 0.3702921 0.066547625 -0.37989986 -0.29983112 0.36944962 -0.18484834 0.047531445 -0.3443974 0.12421366 -0.030998945 -0.34171247 0.37651578 -0.21808715 0.3535989 -0.39022705 0.06110225 0.33157372 -0.18947282 0.187974 -0.3730022 0.28020462 -0.350927 0.1259523 -0.21203838 -0.10098641 -0.20338087 -0.3081253 -0.3194795 -0.044224996 -0.341946 0.37327412 -0.2797197 0.32580724 -0.07010874 0.25472942 0.17448537 0.32218188 0.2531775 0.28452277 0.16984734 -0.19011872
35 0.27611208 -0.31137207 0.31991976 0.14385504 -0.13652126 -0.3471419 -0.30328435 -0.29812238 -0.26907572 0.29777405 0.31673437 0.32781938 0.3429101 -0.25625908 -0.3166781 -0.3162782 0.3487152 -0.23424813 -0.16378106 -0.30833468 -0.32465106 -0.33842763 0.2407653 0.32252043 -0.35500744 -0.3055533 -0.34960428 -0.3549966 0.36420223 -0.2400172 -0.33148342 0.31128287 0.31848338 -0.33072868 0.18758972 -0.1650091 0.31295833 0.37707093 -0.30609772 0.37544283 0.31871292 0.36088854 -0.19536193 -0.3772176 -0.35499117 -0.09625526 0.16654691 -0.26039734 -0.20806111 -0.35429883 -0.28327447 -0.27010632 0.23501077 -0.33052093 -0.34923074 -0.33510274 0.32761297 0.18976928 0.3406752 0.28050506 -0.30977198 -0.27506933 0.31372893 0.30458352 -0.056805722 0.29505086 -0.32740325 0.2242629 -0.35338914 0.18634623 -0.19040143 -0.25330603 -0.07526777 0.33354855 -0.23874529 0.34104973 0.3249555 -0.35625723 -0.35410896 -0.34306577 -0.37741867 -0.31608427 -0.3323631 0.12265309 0.3190627 -0.037317205 -0.3715054 0.3476678 0.023937229 -0.317875 -0.21673517 0.36333424 -0.23367637 0.052629355 -0.336564 0.2750457 0.06458003 -0.3414478 0.34318498 -0.27934888 0.37359628 -0.3152737 0.04393388 0.34716317 -0.21975292 0.109336235 -0.35518935 0.3471423 -0.36020243 0.078582555 -0.30263576 -0.087432764 -0.26979846 -0.33384457 -0.31665492 -0.054271776 -0.25042814 0.38037205 -0.26116818 0.2688378 -0.069009215 0.2121572 0.2682734 0.33931598 0.3035478 0.34182653 0.18153359 -0.2426794
36 0.26083845 -0.31189975 0.33124942 0.15741219 -0.3028945 -0.3489958 -0.33016148 -0.3705683 -0.25382408 0.36455607 0.2628565 0.03362117 0.36162394 -0.30508742 -0.24737954 -0.27526578 0.34948784 -0.35414895 0.16364844 -0.3345907 -0.32412064 -0.36048913 0.35395357 0.2813064 -0.368818 -0.34241614 -0.21999548 -0.23284714 0.28589517 -0.042506862 -0.1935482 0.3604832 0.3390204 -0.29492772 0.35612953 -0.13125375 0.33363754 0.33141324 -0.3128573 0.14271389 0.2994776 0.32030773 -0.0219356 -0.29065415 -0.14366242 0.08131111 0.09353804 -0.2706551 -0.2909119 -0.19549438 -0.24049506 -0.2838274 0.32754475 -0.27399537 -0.2552832 -0.35916337 0.37700817 0.29082412 0.36069378 0.31981796 -0.2508394 -0.35161415 0.32121342 0.30696392 -0.15467496 0.2988276 -0.34328642 0.36689848 -0.32308185 0.30339125 -0.3171382 -0.36948633 -0.003447774 0.3091331 -0.16059121 0.37018907 0.23507775 -0.32808253 -0.3149138 -0.31714717 -0.27908725 -0.23269965 -0.3572399 0.10250294 0.3281373 0.20679091 -0.27691278 0.25699794 0.26452613 -0.319671 -0.34655094 0.31889123 -0.34063384 -0.24812627 -0.32781172 0.18050742 -0.20395517 -0.26356685 0.3654506 -0.27698308 0.288346 -0.26387697 0.22570515 0.27744305 -0.27558088 0.07995528 -0.32486182 0.3542713 -0.28983343 0.3225407 -0.36885417 -0.17370641 -0.30251712 -0.28334397 -0.19372533 0.22368221 -0.36362907 0.30908653 -0.323849 0.34378657 -0.23779656 0.09090445 0.34589413 0.39316946 0.29293123 0.28095332 0.044008285 -0.3190169
37 0.27748406 -0.31674942 0.31465647 0.1461247 -0.3489265 -0.2931437 -0.3522055 -0.24906233 -0.26268467 0.35854694 0.25326174 0.21638007 0.27043208 -0.2552538 -0.32704332 -0.33928907 0.31564423 -0.3225066 0.16817659 -0.2344585 -0.31567764 -0.30215344 0.332072 0.256497 -0.3831608 -0.23976287 -0.34455702 -0.341012 0.31232962 -0.18722303 -0.20057751 0.21193497 0.33810204 -0.21861207 0.34619665 -0.09111736 0.34990045 0.23991977 -0.35833576 0.26162273 0.27925387 0.3194467 -0.022158312 -0.2437921 -0.28155047 0.044324547 0.029595643 -0.27428117 -0.31684545 -0.294945 -0.3232644 -0.32160673 0.31039032 -0.3105441 -0.2784461 -0.32140714 0.337886 0.36186358 0.3734841 0.32586122 -0.32632735 -0.31773236 0.31254038 0.22651914 -0.024837425 0.26238862 -0.22822334 0.3862967 -0.33992332 0.31538436 -0.34219548 -0.36220005 0.14384536 0.21111622 -0.0052437386 0.3327508 0.25933328 -0.26951015 -0.29373577 -0.33369592 -0.35178787 -0.32521433 -0.31509912 0.24629156 0.35508588 0.077305175 -0.32175875 0.31892127 0.12064889 -0.27327928 -0.33532417 0.34222674 -0.2978156 -0.25873494 -0.32914662 0.17096172 -0.09371226 -0.35525736 0.3483444 -0.22081421 0.39922085 -0.25764194 0.31771606 0.31029525 -0.2439568 -0.11765663 -0.30667982 0.29864666 -0.21618105 0.25946626 -0.35613325 0.025973482 -0.33320832 -0.3201749 -0.26605952 0.031199582 -0.31956035 0.32120073 -0.31705445 0.33009467 -0.08128613 0.19747065 0.25791764 0.38215232 0.22960082 0.32185966 -0.1637657 -0.30543315
38 0.24510048 -0.37267193 0.3488496 0.005263815 -0.27619976 -0.34767085 -0.33690462 -0.26118875 -0.20871401 0.37021723 0.27847877 0.14974454 0.30042964 -0.28214243 -0.26958764 -0.3027171 0.21962178 -0.34027085 0.17150795 -0.2859437 -0.33373386 -0.3494302 0.37015048 0.31437665 -0.30002707 -0.2458274 -0.2933031 -0.30034256 0.2726629 -0.20616263 -0.22890188 0.28111568 0.353943 -0.34539095 0.35130534 -0.13728957 0.3508708 0.32951927 -0.3453474 0.23472033 0.30809447 0.26862952 -0.0713778 -0.277308 -0.21555592 -0.021351008 0.12493331 -0.1882354 -0.30002004 -0.292275 -0.34980804 -0.22935723 0.24118957 -0.35165468 -0.3322479 -0.29948497 0.31863704 0.37627178 0.37801874 0.28769547 -0.32910308 -0.35663107 0.27312133 0.25836778 -0.15825382 0.31910542 -0.2273539 0.3439804 -0.305135 0.33717042 -0.33373493 -0.2548297 0.05694606 0.18296693 -0.18740444 0.36804366 0.18051386 -0.3794364 -0.21124232 -0.2748767 -0.28239444 -0.31575665 -0.28791878 0.19654042 0.274359 0.066337205 -0.2663571 0.32881576 0.27333087 -0.3577664 -0.3866419 0.29725352 -0.34350428 -0.20965736 -0.24145828 0.14895903 -0.21871944 -0.30836466 0.34297404 -0.2556447 0.35346588 -0.2865865 0.27700493 0.26629302 -0.27305394 0.02501679 -0.32400158 0.36960098 -0.22670007 0.35550654 -0.36754242 -0.14736505 -0.28326252 -0.2723392 -0.23756993 0.20060015 -0.329137 0.30821908 -0.215188 0.32043055 -0.15807009 0.10106059 0.340396 0.34454644 0.13644198 0.27470428 -0.08219222 -0.365342
39 0.31673047 -0.33665442 0.2851581 -0.07132467 -0.3624254 -0.31096688 -0.29698405 -0.36511216 -0.1502614 0.33989573 0.13221093 0.248073 0.2691212 -0.37051424 -0.36258394 -0.3341423 0.3415841 -0.26296285 0.15135065 -0.33178973 -0.3042312 -0.31390378 0.21555379 0.17715664 -0.24716054 -0.2843627 -0.35030624 -0.2469854 0.3008751 -0.24320866 -0.30265722 0.2968548 0.2990326 -0.30843377 0.23011181 0.029187484 0.3197672 0.30499452 -0.3140711 0.23435795 0.17657427 0.34133226 -0.25887227 -0.25735298 -0.36645585 0.12111078 -0.06541966 0.029046774 -0.20801927 -0.3085034 -0.33036172 -0.16487049 0.34726307 -0.34876522 -0.36203593 -0.27204147 0.15775988 0.33367193 0.29588073 0.3910872 -0.29374355 -0.38160214 0.32170025 0.25313184 -0.21045022 0.23669854 -0.32182515 0.23661233 -0.3196812 0.3350244 -0.26699015 -0.38425228 0.15911047 0.25930336 0.08213353 0.35412285 0.26859033 -0.26735833 -0.2348975 -0.26493928 -0.33164254 -0.27312008 -0.31277043 0.005616448 0.31642646 0.18921019 -0.2838805 0.27786282 0.19598691 -0.32002637 -0.3580025 0.38877273 -0.3492963 -0.26912588 -0.28391826 0.22719654 -0.2382283 -0.28719574 0.31969148 -0.13189465 0.28711873 -0.33149683 0.22969958 0.3183676 -0.22613075 -0.00033521577 -0.32549888 0.3127647 -0.28597632 0.35741138 -0.38779414 -0.06449971 -0.30938897 -0.3249655 -0.17048404 -0.036027927 -0.36152533 0.29874775 -0.18031523 0.35204163 -0.26123273 0.12895706 0.31173038 0.25139087 0.35175923 0.3354775 -0.18081361 -0.3455166
40 0.3078002 -0.36739367 0.24582566 0.13424668 -0.32611313 -0.20090477 -0.3345882 -0.3410637 -0.2847983 0.3947561 0.060391326 0.29285672 0.31882787 -0.35843012 -0.31548625 -0.26725516 0.34936848 -0.22425848 0.16863409 -0.33431002 -0.31769404 -0.32349792 0.17143953 0.1858577 -0.31738847 -0.16644514 -0.37901795 -0.268808 0.37525883 -0.19009073 -0.3442719 0.20163801 0.3666892 -0.3457276 0.31992224 -0.1411118 0.3488491 0.29516837 -0.259994 0.23312186 0.3289997 0.36318192 -0.19582038 -0.33614522 -0.32685408 0.09264654 -0.09300542 -0.06820076 -0.32404548 -0.32498404 -0.37502348 -0.25126266 0.25054872 -0.32806903 -0.35953617 -0.3354353 0.13453446 0.30449748 0.36976177 0.27955183 -0.34085318 -0.34643343 0.29100838 0.2461611 0.034257594 0.27943116 -0.28366503 0.2445116 -0.35140917 0.38633788 -0.34803665 -0.3011439 0.18541624 0.345612 -0.1224305 0.2689253 0.26833913 -0.35428527 -0.36472127 -0.26383963 -0.32758176 -0.2527512 -0.30523774 -0.03216354 0.34195665 0.14845915 -0.35350516 0.26775646 0.19597062 -0.30595303 -0.3705368 0.35038236 -0.25716466 -0.2445076 -0.26629388 0.16726722 -0.22562711 -0.3698691 0.31344357 -0.21648982 0.3441355 -0.3729007 0.32803234 0.3416805 -0.27647153 -0.15912147 -0.32483056 0.27458006 -0.30476406 0.28154272 -0.32388142 0.1241127 -0.32845807 -0.27461895 -0.088372156 0.0044296384 -0.3349256 0.37261608 -0.19884853 0.34131795 -0.15631004 0.24580473 0.13511479 0.37590632 0.35944954 0.3639504 -0.17676425 -0.3323041
41 0.29964864 -0.29009947 0.3025746 0.122922994 -0.31047606 -0.27315855 -0.26912045 -0.32756832 -0.2429614 0.36281893 -0.00066550984 0.2528655 0.25781253 -0.3727856 -0.26956907 -0.3341474 0.35952285 -0.3086126 0.18860817 -0.36137977 -0.2822063 -0.35133672 0.22081244 0.21775953 -0.3328153 -0.17723204 -0.274812 -0.2868996 0.36789578 -0.22572502 -0.3144384 0.2918317 0.28667197 -0.27211258 0.27696517 0.04244828 0.3198308 0.27744788 -0.3116786 0.22460122 0.252187 0.37541905 -0.2043358 -0.32069755 -0.35483956 0.060007986 0.08828175 -0.0021050056 -0.30149603 -0.23721573 -0.36730674 -0.16820867 0.32188115 -0.37123442 -0.3443147 -0.29096738 0.18083362 0.3647402 0.30896884 0.3792494 -0.29286247 -0.33164185 0.36691356 0.29149097 -0.039048504 0.20825358 -0.26334453 0.19429591 -0.2953678 0.32842347 -0.30434757 -0.35349002 0.23287687 0.28718358 0.006645817 0.37230596 0.2876401 -0.31367397 -0.29299265 -0.27508697 -0.2679836 -0.1909829 -0.28010762 -0.013198773 0.31349993 0.23914486 -0.31977588 0.31919685 0.21501374 -0.24121645 -0.3602621 0.36817572 -0.27051932 -0.23220336 -0.27177718 0.17309129 -0.1852687 -0.29912487 0.28353718 -0.16267438 0.36030185 -0.3248881 0.3545612 0.31925204 -0.34203455 -0.16986503 -0.3588019 0.3247769 -0.29724625 0.36658823 -0.30287138 0.12098371 -0.28409147 -0.2853247 -0.10616131 0.13460308 -0.31875363 0.25413263 -0.23389274 0.30636272 -0.26597488 0.26270252 0.1871942 0.3460398 0.3377061 0.36010805 -0.15570265 -0.34409392
42 0.2614618 -0.2755941 0.16129202 0.21377683 -0.21757334 -0.3555397 -0.32541227 -0.3438792 -0.2694199 0.3463227 0.32356402 0.19705886 0.33674842 -0.2753877 -0.22866641 -0.34941158 0.33455774 -0.3507776 0.21789528 -0.32357398 -0.32898095 -0.277502 0.34108123 0.0946014 -0.21006975 -0.31811616 -0.28177443 -0.28958347 0.32568896 -0.035281327 -0.32421848 0.35126546 0.27161428 -0.3409634 0.3573603 -0.10935119 0.31866625 0.24907008 -0.25280127 0.21928345 0.344032 0.33693418 -0.25398883 -0.3230777 -0.26585037 0.122381896 0.094084784 -0.27843207 -0.1823323 -0.31713077 -0.3028743 -0.24912627 0.32609758 -0.28015736 -0.23540162 -0.26456684 0.35093296 0.34380794 0.26065072 0.36959895 -0.34261364 -0.22143844 0.31274486 0.35653454 -0.25849888 0.30416086 -0.3629605 0.36712486 -0.3414641 0.12891681 -0.29000366 -0.3533438 0.033037726 0.3203983 -0.15888657 0.20625633 0.35861292 -0.35483426 -0.3249475 -0.29526123 -0.19310682 -0.088570684 -0.20269412 0.30747414 0.317554 -0.08331118 -0.27980766 0.33570534 0.18841924 -0.29059714 -0.33591136 0.33977228 -0.3051645 -0.2292056 -0.36108118 0.32494736 -0.27640775 -0.38388127 0.32998115 -0.22981954 0.30033216 -0.26956633 0.3631166 0.31264505 -0.30497438 -0.18033324 -0.35424912 0.24410519 -0.22040509 0.22089411 -0.2206566 0.15198337 -0.22250126 -0.2889819 -0.11347803 0.24415898 -0.31961513 0.36479345 -0.37231344 0.31573424 -0.30204222 0.1252333 0.22990686 0.32193696 0.19769569 0.3595933 0.15589698 -0.37170205
43 0.16013046 -0.35129452 0.25757396 0.19492032 -0.3086404 -0.18145229 -0.37523004 -0.35791975 -0.21764638 0.16978107 0.08765187 0.10522167 0.37042502 -0.35859838 -0.30111045 -0.35299647 0.37452504 -0.3274562 0.17421506 -0.29316834 -0.3298427 -0.3812823 0.372836 0.11899273 -0.14712146 -0.21526779 -0.2520777 -0.3170226 0.32984206 -0.085175484 -0.34128764 0.34245253 0.2990103 -0.300456 0.2959731 -0.023663307 0.3497496 0.34310415 -0.25236943 0.17565554 0.24870767 0.34055895 -0.21868278 -0.2821435 -0.3454881 -0.095366925 -0.19335648 -0.19784756 -0.2715333 -0.3452182 -0.21944694 -0.32668266 0.34123817 -0.36276165 -0.34427395 -0.31789196 0.33843178 0.35986826 0.28413385 0.26276574 -0.35890955 -0.35096425 0.25652945 0.24503943 0.033891495 0.19768216 -0.28711814 0.35089916 -0.31118762 0.29124528 -0.30363774 -0.3753634 0.001149187 0.36745402 -0.21553403 0.3832913 0.2799245 -0.35998607 -0.32608616 -0.38619804 -0.3492443 -0.12779807 -0.32901332 0.13676369 0.3426956 0.17330557 -0.277642 0.38392 0.21624635 -0.3633823 -0.35824803 0.2351769 -0.2142666 -0.26661918 -0.2521054 0.33651456 -0.24605006 -0.36639395 0.39345843 -0.17021272 0.28178117 -0.34189042 0.33835164 0.3222914 -0.36111602 -0.1186358 -0.3114069 0.30762643 -0.31459856 0.26804453 -0.33924788 0.07810886 -0.36113212 -0.34367108 -0.058068927 0.25898764 -0.39261743 0.36163422 -0.2835314 0.2815947 -0.27793482 0.104439855 0.33396664 0.28363198 0.23052423 0.3017776 -0.051368084 -0.28560778
44 0.112877 -0.36049077 0.23023011 0.13046978 -0.34105876 -0.23698631 -0.3565964 -0.3343124 -0.07175529 0.24687117 0.2774229 0.15627015 0.38696015 -0.38626036 -0.32133123 -0.37497324 0.32175407 -0.334118 0.16286351 -0.26616228 -0.37110117 -0.31236592 0.31503728 0.09079927 -0.16902927 -0.23707828 -0.2833467 -0.35170263 0.34311396 0.018720357 -0.36778727 0.3710855 0.38160855 -0.346241 0.36443564 0.097371876 0.3066392 0.27948165 -0.34479785 0.2463073 0.26601663 0.2839625 -0.121459424 -0.26517925 -0.36973378 -0.08825341 -0.1347107 -0.18749087 -0.338666 -0.31869856 -0.2486507 -0.33226767 0.22038825 -0.3280564 -0.29344267 -0.26905474 0.30316684 0.3863798 0.37340227 0.27547124 -0.338574 -0.23477632 0.29125795 0.22260077 -0.11180319 0.28894785 -0.3442698 0.35323647 -0.3629736 0.236217 -0.3666533 -0.29889113 0.08028759 0.32559574 -0.22564697 0.24626715 0.27209464 -0.34994766 -0.3407399 -0.3623816 -0.20172092 -0.13868624 -0.25782213 0.13746762 0.34339964 0.10169338 -0.3355689 0.3532296 0.23425362 -0.29605147 -0.35022205 0.31768098 -0.29400125 -0.2300561 -0.31676382 0.31455788 -0.26608458 -0.34332007 0.3667689 -0.05367804 0.25697836 -0.34104696 0.22201928 0.30816573 -0.2236604 -0.097187445 -0.3925318 0.20781587 -0.35316157 0.19728588 -0.24706835 0.09523008 -0.29159838 -0.33753616 -0.12002027 0.22922282 -0.3053789 0.31689003 -0.3401305 0.26706204 -0.26000106 0.0017122141 0.21924624 0.33665937 0.30632195 0.36946377 0.11039337 -0.3016716
45 -0.030300718 -0.31793272 0.37972924 0.20500967 -0.24531372 -0.32291192 -0.17167935 -0.34670487 -0.28162903 0.32816237 0.21009779 0.26793024 0.3554538 -0.29582492 -0.35855502 -0.31139377 0.2748706 -0.3198523 0.11438816 -0.34218347 -0.22790429 -0.23964798 0.2626891 0.26834157 -0.36519262 -0.29824233 -0.3392671 -0.34677777 0.23638357 -0.23131311 -0.32398915 0.35421914 0.31646377 -0.32020745 0.26736355 -0.15616299 0.28683373 0.33716395 -0.3712615 0.17771986 0.24774484 0.3589103 -0.053926934 -0.30470788 -0.36325982 -0.12480144 -0.20355524 -0.28337383 -0.3066769 -0.30195075 -0.26903078 -0.34077087 0.2672505 -0.3109618 -0.3494583 -0.35582504 0.24178714 0.2800877 0.24194893 0.37777838 -0.36069113 -0.37467727 0.32854283 0.29395396 -0.25567973 0.33344936 -0.22876057 0.35475495 -0.28325295 0.32464203 -0.25521746 -0.33218503 0.22534183 0.27291223 -0.20001692 0.2125173 0.2560497 -0.2914702 -0.3473437 -0.31032145 -0.37529483 -0.24197198 -0.2105442 0.3024212 0.31680545 0.11941886 -0.23989488 0.33479935 -0.036653884 -0.23295604 -0.3098553 0.35182744 -0.2642737 -0.28118578 -0.320422 0.3254428 0.09219489 -0.31980467 0.17917478 -0.22407581 0.19771665 -0.32982072 0.19016886 0.28725088 -0.13605028 -0.13316539 -0.3154733 0.34018537 -0.1605831 0.2571819 -0.36491176 -0.19336788 -0.32559112 -0.34757307 -0.24941388 0.2551974 -0.32940942 0.26280043 -0.33830038 0.29498747 -0.0033430308 0.15720555 0.34731537 0.28555384 0.32118338 0.28054816 -0.07067659 -0.28072867
46 0.15456192 -0.32162872 0.23279206 0.21399845 -0.33708084 -0.32575765 -0.29308426 -0.3451006 -0.03451566 0.23318714 0.33754086 0.28427652 0.32592618 -0.27987427 -0.36465353 -0.3905477 0.34325814 -0.36526215 -0.10433433 -0.37061134 -0.39719066 -0.15869994 0.23862776 0.27905697 -0.35998946 -0.34267575 -0.2591446 -0.38182777 0.32524693 0.026580239 -0.36754015 0.29020905 0.3841526 -0.35330153 0.30831993 0.12034045 0.3291881 0.32906666 -0.33151188 0.29212272 0.28518745 0.33069563 -0.12843275 -0.3624653 -0.30207133 -0.23506843 -0.1511674 -0.048668325 -0.3520608 -0.27819884 -0.37223688 -0.25522923 0.23459531 -0.39832002 -0.28820956 -0.30927363 0.32342473 0.3598809 0.3275873 0.3642662 -0.3796415 -0.29866138 0.36755046 0.23404749 -0.29283148 0.16538265 -0.35733488 0.25186244 -0.35744902 0.3635613 -0.36058682 -0.32762286 0.28730118 0.18751833 -0.24422054 0.14438842 0.2037212 -0.26649863 -0.2725368 -0.33643407 -0.31137365 -0.31407067 -0.35014302 0.06389444 0.3719174 -0.09933777 -0.25726312 0.24345808 0.041739818 -0.22575037 -0.3811536 0.33645862 -0.35374427 -0.22990859 -0.29396683 0.35053173 0.060327932 -0.34887952 0.21688911 0.00830815 0.2826989 -0.29207835 0.14895333 0.38557407 -0.32810405 0.12451587 -0.35121423 0.3780467 -0.2957755 0.24420291 -0.343683 -0.22673044 -0.36126193 -0.3074652 -0.18931676 0.041778136 -0.34675306 0.26929557 -0.25940016 0.32524598 -0.25712225 0.14761585 0.38486722 0.31145892 0.34401953 0.30433628 0.069351524 -0.40231258
47 0.031649683 -0.31448838 0.39805755 0.2410783 -0.30058905 -0.2779912 -0.15121262 -0.3421759 -0.26357746 0.23254055 0.30440924 0.18248309 0.27448028 -0.37917754 -0.33863136 -0.39618427 0.34762833 -0.3975597 -0.07450092 -0.37967426 -0.29830006 -0.1935483 0.17555653 0.1483792 -0.36990204 -0.33524448 -0.34592697 -0.37712145 0.2918018 -0.19952802 -0.39005065 0.34811515 0.3530074 -0.38460994 0.29145765 -0.14790615 0.37416935 0.39024854 -0.3521697 0.15625972 0.22138429 0.37213162 -0.113594115 -0.36778226 -0.36401165 -0.24103844 -0.17674068 -0.2242012 -0.25626704 -0.2877776 -0.2593427 -0.2900119 0.32969955 -0.27686614 -0.26830453 -0.2865278 0.17400387 0.33608076 0.2334107 0.34291303 -0.339228 -0.35159886 0.35604078 0.3057887 -0.22870436 0.31040505 -0.30212334 0.34356287 -0.25677666 0.37952316 -0.2843259 -0.3365274 0.13588166 0.15899377 -0.22716887 0.17603663 0.25368002 -0.32856676 -0.38155818 -0.3915413 -0.35088983 -0.3090423 -0.25278857 0.19078884 0.23795906 -0.029033873 -0.28394994 0.25212362 -0.059336085 -0.3572687 -0.24523973 0.26731318 -0.33781162 -0.20601219 -0.31055927 0.33917356 0.06777037 -0.28632432 0.21788412 -0.24228714 0.24432443 -0.34428716 0.22440395 0.352527 -0.19405045 0.01134677 -0.3357161 0.3838981 -0.15953726 0.2557348 -0.30688205 -0.14986964 -0.34960338 -0.30669874 -0.1201239 0.16935068 -0.33961424 0.2283371 -0.38034394 0.3390176 0.012684239 0.2244634 0.27622953 0.28449324 0.3413369 0.36655247 0.12157895 -0.35312998
48 0.30436888 -0.37146842 0.22283387 -0.15122707 -0.3125237 -0.37011573 -0.21588998 -0.32747272 -0.1790865 0.31474465 0.32182962 0.07716266 0.25433224 -0.25847417 -0.34783342 -0.20511557 0.3375369 -0.30998626 -0.09384597 -0.33113247 -0.3492221 -0.317018 0.30507544 0.27561107 -0.335448 -0.3234763 -0.26124638 -0.27280608 0.32177773 -0.23632602 -0.3240897 0.29926047 0.27564168 -0.300931 0.34205154 0.19968674 0.3610074 0.32627445 -0.28920642 0.25603792 0.25076526 0.26934442 -0.122542135 -0.28610465 -0.3009201 0.08451239 -0.173286 -0.15302983 -0.31177646 -0.2933075 -0.27184385 -0.3334692 0.28925163 -0.29721832 -0.24488257 -0.24383011 0.32199973 0.34815943 0.33200115 0.24804519 -0.23416132 -0.286382 0.31647596 0.20737939 0.047529977 0.27961385 -0.2186098 0.34459138 -0.25388613 0.32050982 -0.31939355 -0.32228357 0.119697414 0.29565695 -0.22436486 0.32230863 0.27726635 -0.3367132 -0.3606833 -0.30488813 -0.30619907 -0.3069363 -0.3433193 0.27659786 0.22318888 0.26999232 -0.24321558 0.29810938 0.18210518 -0.31824595 -0.34339598 0.20841771 -0.30977145 0.071425065 -0.34653753 0.32121548 -0.098977976 -0.17460597 0.29093134 -0.23658548 0.25181252 -0.25797737 0.290195 0.35207048 -0.30456245 -0.0477222 -0.33235934 0.34549204 -0.3343224 0.35523665 -0.38495648 -0.19150351 -0.3275274 -0.24837837 -0.3158488 0.18922587 -0.2839297 0.31199133 -0.32894346 0.32665956 -0.2852565 -0.021217978 0.35451904 0.30363744 0.25796977 0.26744333 -0.12905143 -0.33186576
49 0.27493203 -0.30374056 0.21292238 -0.07183705 -0.2629706 -0.3165466 -0.29806483 -0.35123566 -0.24553423 0.27570426 0.31985945 0.1430887 0.36382672 -0.3574967 -0.29858592 -0.33979565 0.30987483 -0.31358227 0.02144088 -0.33726406 -0.32413173 -0.29836652 0.3156024 0.25193837 -0.33181474 -0.32203364 -0.2988853 -0.29569227 0.36558717 -0.22734195 -0.28668526 0.29177192 0.2270792 -0.33192095 0.33111772 0.19061016 0.28263456 0.3320456 -0.21888168 0.26019487 0.1633769 0.23848028 -0.21477887 -0.329715 -0.21447267 0.019292926 -0.17814164 -0.16426109 -0.27638286 -0.33858722 -0.36227208 -0.24749348 0.24580684 -0.3096598 -0.2847414 -0.27441743 0.35781628 0.27578348 0.33356544 0.32471603 -0.3608031 -0.34132767 0.33040938 0.21765025 -0.025728747 0.2555992 -0.34220302 0.35307932 -0.34810174 0.2848812 -0.3569433 -0.23102169 0.1394398 0.3363135 -0.20448881 0.347819 0.259813 -0.33807337 -0.2876173 -0.34941044 -0.3612417 -0.2516953 -0.30789888 0.25690213 0.095377974 0.20601267 -0.3564981 0.31670168 0.16676049 -0.31320888 -0.26108387 0.21258312 -0.19919474 -0.07111318 -0.33571193 0.3031075 -0.2528638 -0.28342924 0.37064785 -0.21557365 0.36496583 -0.32053 0.22653577 0.35116753 -0.32232183 -0.028178105 -0.34394813 0.2807321 -0.34194097 0.32418373 -0.364274 -0.16389668 -0.34783626 -0.13804947 -0.31500235 0.21122204 -0.3355554 0.28631878 -0.3101465 0.30552313 -0.25789195 0.1394867 0.24057217 0.27990386 0.3260058 0.35297388 -0.17287597 -0.16728574
50 0.2644499 -0.34412172 0.23482694 0.02410656 -0.21312384 -0.33162874 -0.22510752 -0.37005767 -0.28725982 0.35504705 0.26412502 0.079663634 0.37534693 -0.32570282 -0.3547352 -0.278885 0.27265579 -0.3352383 0.13309887 -0.31271774 -0.29394683 -0.33360225 0.20855835 0.23652622 -0.30835977 -0.34128043 -0.36583644 -0.36397323 0.3405696 -0.21715775 -0.22631878 0.24546655 0.1652413 -0.36590767 0.35278237 0.0018780194 0.3278479 0.2671521 -0.29016322 0.33628193 0.28331634 0.39374298 -0.17186356 -0.32426086 -0.21579568 -0.08286047 -0.1474058 -0.205476 -0.18991412 -0.3460464 -0.35448197 -0.30938 0.35409912 -0.36259887 -0.2637966 -0.36390498 0.35184672 0.32641476 0.31059703 0.34638295 -0.30836147 -0.26682556 0.25373816 0.19924384 0.036415648 0.23596933 -0.33914927 0.36834586 -0.35173512 0.29625705 -0.38186908 -0.2828669 0.21940553 0.31527835 -0.20643874 0.30579326 0.36065024 -0.3867133 -0.29351425 -0.28068668 -0.34715042 -0.3197764 -0.26502556 0.08330905 0.24496032 0.07792725 -0.26666373 0.3558766 0.22656609 -0.30905512 -0.23260541 0.3131562 -0.33134845 -0.029862106 -0.28268623 0.2312722 -0.14022052 -0.24854146 0.37621608 -0.26019803 0.37020165 -0.37591314 0.20300113 0.3095558 -0.2854074 0.07786539 -0.34564376 0.23873661 -0.37376368 0.3294931 -0.35141876 -0.0884611 -0.34850213 -0.31122372 -0.2847813 0.1570036 -0.3688627 0.3659446 -0.3492685 0.3480174 -0.30108097 0.0026625053 0.32053956 0.3853506 0.18940343 0.36384723 -0.15475088 -0.21596432
51 0.16089818 -0.32673195 0.34968063 -0.14414926 -0.3494927 -0.34431595 -0.3601091 -0.35009578 -0.28470296 0.23662427 0.3013912 -0.014595723 0.22872554 -0.2997744 -0.3415895 -0.35664916 0.4019505 -0.2420884 -0.13522953 -0.34698 -0.1900455 -0.3339528 0.23093833 0.22940043 -0.33976266 -0.30834734 -0.33547 -0.31793925 0.30182827 -0.18462601 -0.31989023 0.35467583 0.3354127 -0.32418394 0.3268145 0.07682715 0.28818437 0.32455456 -0.32788765 0.31402773 0.12529135 0.28631118 -0.24301995 -0.35762143 -0.21295984 0.058992274 0.12091897 -0.278604 -0.18889728 -0.34552044 -0.38081536 -0.3568001 0.27127725 -0.3316233 -0.22721493 -0.27385774 0.30178165 0.2596465 0.34753427 0.33464238 -0.3713495 -0.25917184 0.30929267 0.35179773 -0.12947801 0.2760512 -0.3509044 0.21863556 -0.30722597 0.34557837 -0.294013 -0.32723925 -0.020010928 0.31881014 -0.18134212 0.33407155 0.31209156 -0.31930315 -0.2301808 -0.27230638 -0.28535107 -0.16441073 -0.3650386 0.2262052 0.30446067 0.22434445 -0.24681939 0.34609213 0.20981187 -0.3508838 -0.2833624 0.3235479 -0.104744084 0.0071614087 -0.31578925 0.23390251 -0.12115561 -0.35817868 0.24043564 -0.20472589 0.3254952 -0.31931305 0.31174526 0.23136614 -0.33788818 0.1093782 -0.2910843 0.3760582 -0.3002786 0.39531097 -0.2561017 0.032404155 -0.33340818 -0.17592114 -0.33387098 0.20094256 -0.29875475 0.26203915 -0.3530469 0.30027276 -0.2618078 0.26320845 0.35263097 0.31068286 0.10364947 0.33974925 0.015662268 -0.23210526
52 0.29140428 -0.31777337 0.34381 -0.12594712 -0.32121488 -0.28206554 -0.37033868 -0.3033251 -0.2527974 0.3680205 0.3127402 0.11266832 0.27358463 -0.3586825 -0.26033923 -0.29536483 0.34732443 -0.3243598 -0.04902302 -0.31715783 -0.23386769 -0.36955142 0.33649305 0.2625092 -0.3400269 -0.24272853 -0.2434605 -0.3039384 0.37210637 -0.21556899 -0.29892823 0.29143956 0.28675514 -0.32333302 0.3787992 -0.034238715 0.35922956 0.3496986 -0.38176104 0.3157707 0.2096366 0.3776368 -0.2982763 -0.3009534 -0.36159328 0.1124182 0.0997072 -0.24825726 -0.2908267 -0.32410315 -0.30887473 -0.31459272 0.31893876 -0.31313834 -0.34770113 -0.3359798 0.30260256 0.32521898 0.3561494 0.2671296 -0.27643585 -0.35744247 0.33649403 0.19560575 0.030168405 0.2233808 -0.35371083 0.1825968 -0.3058531 0.32232538 -0.35427722 -0.31050977 0.23652251 0.36080787 -0.030649386 0.38190046 0.32850045 -0.37806255 -0.34820628 -0.2595777 -0.2942486 -0.12976515 -0.36697906 0.059611864 0.2991643 0.21805666 -0.25429222 0.23147409 0.1457043 -0.27729228 -0.37579975 0.3144227 -0.17533189 -0.17298861 -0.33955908 0.139021 0.06891785 -0.25779492 0.34766665 -0.088886805 0.3318182 -0.32589662 0.19969344 0.35911995 -0.34218696 0.13789672 -0.2670971 0.34011984 -0.32402644 0.36759812 -0.22471845 -0.10517476 -0.24676618 -0.29562306 -0.31320634 0.1807693 -0.32692423 0.2982556 -0.3154552 0.299454 -0.066951394 0.26991215 0.24686563 0.3697886 0.06274954 0.2688234 -0.1769415 -0.26127657
53 0.25401306 -0.35597295 0.34511197 0.03067937 -0.36578923 -0.32126075 -0.3134062 -0.2237269 -0.25415838 0.36516878 0.21537785 0.08829112 0.26119035 -0.342754 -0.30959323 -0.25858042 0.27893183 -0.33215803 0.05520654 -0.29765648 -0.2872513 -0.35321933 0.25328946 0.14314435 -0.32271433 -0.31471092 -0.34209383 -0.30862913 0.37549847 -0.22837882 -0.36047494 0.33083695 0.30291015 -0.37283427 0.33639264 0.13501588 0.34346384 0.36695278 -0.35726568 0.34206998 0.21406007 0.35990143 -0.28705797 -0.25921613 -0.36275312 0.0697382 0.1083199 -0.24177516 -0.30350193 -0.36815527 -0.295713 -0.32321256 0.34831604 -0.35039887 -0.29364485 -0.34909225 0.2812276 0.35756245 0.30382645 0.3144216 -0.32135385 -0.35114524 0.2284523 0.19454813 0.051742632 0.14027439 -0.30033314 0.16394113 -0.34352022 0.2507521 -0.24323657 -0.34633538 0.2474685 0.3374416 0.012127201 0.29685265 0.24558246 -0.35577485 -0.34081843 -0.35166013 -0.33634147 -0.1848462 -0.30273363 0.27719373 0.27836043 0.23951024 -0.21049988 0.27258083 -0.03181282 -0.32718578 -0.30322304 0.36438152 -0.22990975 0.0371444 -0.3530607 0.12593624 0.06730323 -0.36732242 0.33826515 -0.23794366 0.309359 -0.30073228 0.33636817 0.35123128 -0.28534493 0.15408932 -0.31968036 0.34633598 -0.23773248 0.29721624 -0.3205073 -0.16296844 -0.35181817 -0.109337434 -0.22458033 0.22892918 -0.33275205 0.35978928 -0.3688554 0.32407728 -0.24915749 0.256493 0.3355718 0.35533357 0.06815806 0.3255006 -0.20888384 -0.32757577
54 0.2715329 -0.32885525 0.34328726 -0.11802779 -0.2039743 -0.2677268 -0.3749339 -0.19762173 -0.23428912 0.38941565 0.3253656 0.27461192 0.3868269 -0.3224785 -0.2531624 -0.26605582 0.39727837 -0.36424032 0.19397847 -0.3680912 -0.35137096 -0.34370604 0.33565557 0.3244626 -0.17376919 -0.20309672 -0.34033555 -0.2561424 0.39065263 -0.21244104 -0.33158022 0.33578417 0.3071973 -0.34145132 0.3463048 0.19267896 0.26168403 0.34431514 -0.3600961 0.29112515 0.30097714 0.22640355 -0.30443943 -0.35262257 -0.36485174 -0.26853108 -0.18615626 -0.10166982 -0.30626115 -0.32923743 -0.32860303 -0.23950967 0.34133112 -0.2447382 -0.35074973 -0.31648186 0.338344 0.35692728 0.37461403 0.33184618 -0.3122088 -0.31050688 0.3648426 0.23522635 -0.21840057 0.2506563 -0.33837137 0.31915167 -0.31234223 0.38791028 -0.34746188 -0.23197928 0.25487778 0.23424673 0.022243412 0.28290108 0.36926183 -0.26845115 -0.27490568 -0.28665188 -0.37174317 -0.30195642 -0.3523257 0.12508795 0.19388765 0.24336754 -0.28638923 0.2938259 0.28082082 -0.36824653 -0.32700825 0.37214804 -0.3500874 0.08968793 -0.26999098 0.31430358 -0.22735727 -0.31175962 0.27906722 0.069538854 0.21620852 -0.34126255 0.37768608 0.3141747 -0.21262382 -0.15824665 -0.31268212 0.36230332 -0.31861952 0.34805572 -0.26485816 0.1673556 -0.28022242 -0.20489025 -0.33210555 -0.037515577 -0.33806208 0.32608503 -0.33231494 0.34908396 -0.2625449 0.25553498 0.16489299 0.27537557 0.14856328 0.3414754 -0.16157323 -0.1746812
55 0.093276 -0.2699457 0.34094623 -0.1265385 -0.30162916 -0.31949186 -0.29424205 -0.30480623 -0.20091052 0.3853523 0.18101168 0.25957987 0.32185706 -0.30245066 -0.24793255 -0.28478703 0.37865528 -0.36786687 0.11405573 -0.34108093 -0.35094166 -0.30397454 0.24304661 0.3679821 -0.34440678 -0.30093807 -0.27685103 -0.3073939 0.35718808 -0.23380329 -0.35665384 0.4003296 0.27295133 -0.34614703 0.28708482 0.16445173 0.2345463 0.32295632 -0.27687624 0.39996853 0.33087537 0.26465896 -0.31548622 -0.321189 -0.37952837 -0.23944616 -0.024248607 -0.21377248 -0.20145313 -0.32887176 -0.38292477 -0.21086371 0.34200868 -0.2765394 -0.30730528 -0.26946416 0.3927421 0.23697661 0.41425914 0.34834573 -0.30268037 -0.32507056 0.36306602 0.18684489 -0.2619584 0.076345414 -0.27808273 0.3011049 -0.33177242 0.3191253 -0.2939687 -0.2788954 0.069506176 0.2919417 -0.008731648 0.32605577 0.41508248 -0.30500877 -0.22293174 -0.2640779 -0.33494234 -0.35920602 -0.34192425 0.074474335 0.09030923 0.26424518 -0.37337857 0.34041288 0.27222207 -0.39582363 -0.3152222 0.38995627 -0.30810738 -0.030357981 -0.2774649 0.26298648 -0.050359115 -0.33777666 0.3624933 0.074429914 0.34461233 -0.30167878 0.28557783 0.2617315 -0.19153297 0.019626433 -0.25267017 0.33002967 -0.25060576 0.20351963 -0.33461684 -0.11199775 -0.17428817 -0.29544497 -0.33707982 0.16731644 -0.3064199 0.37029427 -0.24173796 0.38803545 -0.31933466 0.24934618 0.3189072 0.38375375 0.30563015 0.33879963 -0.144634 -0.24360488
56 0.20805007 -0.3402681 0.3407788 -0.10818998 -0.29859936 -0.32562584 -0.27383253 -0.34045032 -0.3121098 0.3425235 0.23267639 0.21755831 0.23904516 -0.3381057 -0.29375136 -0.33180842 0.22657715 -0.33801755 -0.016796447 -0.32498312 -0.30986398 -0.15827598 0.33479145 0.24040744 -0.28179184 -0.25504133 -0.3343647 -0.3832565 0.29112652 -0.24701764 -0.37754756 0.2840748 0.38679972 -0.35230026 0.38475335 -0.16095893 0.3532898 0.33108008 -0.28465235 0.37268177 0.2248818 0.36006027 -0.16319953 -0.35144112 -0.19142924 -0.061230194 -0.1428426 -0.1954693 -0.30237165 -0.35927817 -0.34790072 -0.3009713 0.36853072 -0.31652996 -0.34613183 -0.3674435 0.3680679 0.3798029 0.31089127 0.2509823 -0.34088707 -0.307211 0.3759423 0.32385284 -0.22646858 0.11119621 -0.38073418 0.3516978 -0.38637117 0.35919356 -0.35079148 -0.3511442 0.13974445 0.32954317 -0.12582475 0.34408414 0.20783128 -0.3643251 -0.26393157 -0.35483724 -0.2991005 -0.3592117 -0.22051448 0.111782104 0.30791545 -0.03574697 -0.3483724 0.37276924 0.25348735 -0.2488928 -0.39582115 0.33917245 -0.3571243 -0.24375996 -0.244374 0.27726406 -0.22489621 -0.36988455 0.21020697 -0.014531313 0.28604513 -0.23022754 0.3293431 0.22931589 -0.32533836 -0.21613076 -0.33596584 0.34509695 -0.32192162 0.35607362 -0.3203061 0.13145442 -0.29304764 -0.1223589 -0.07249883 -0.11633194 -0.36508447 0.30322254 -0.14856401 0.35903814 -0.24081106 0.06555932 0.31921703 0.2842395 0.28797528 0.31368652 -0.13001359 -0.23058571
57 0.18590176 -0.18945764 0.28839636 -0.011751183 -0.3550766 -0.35752982 -0.2413051 -0.2577457 -0.27487373 0.3143992 0.15809546 0.30646175 0.23016894 -0.37482327 -0.36678565 -0.21756488 0.30022073 -0.27814543 -0.16743298 -0.34337625 -0.2846756 -0.26079223 0.23750225 0.13931015 -0.31372926 -0.28622863 -0.28928286 -0.36710307 0.31260428 -0.17930661 -0.35413766 0.35199356 0.34080198 -0.31357923 0.3543145 -0.1657462 0.31824824 0.26161444 -0.2587841 0.2963864 0.3162878 0.32514256 -0.28726473 -0.38525933 -0.13509908 0.077938676 -0.15933448 -0.17514825 -0.3053136 -0.3167074 -0.3775722 -0.29049152 0.349093 -0.36429468 -0.39306223 -0.22140613 0.3340203 0.24836028 0.36478013 0.24225801 -0.36309445 -0.2674718 0.34416503 0.35462475 -0.1886634 0.0218337 -0.32473183 0.31064892 -0.32579976 0.3197851 -0.31346303 -0.32206616 0.15467048 0.35681897 0.028589807 0.3209029 0.29199737 -0.35955808 -0.35238335 -0.39219856 -0.18707654 -0.32215235 -0.3096759 0.25491336 0.3107385 0.1971406 -0.3660673 0.3728518 0.28076568 -0.24785714 -0.37852964 0.36734068 -0.27786508 -0.27405885 -0.2112301 0.25650847 -0.15798351 -0.2770174 0.29910293 0.060298383 0.253157 -0.22453144 0.30243912 0.1501619 -0.26843214 -0.20031688 -0.250963 0.29529896 -0.20053183 0.34399593 -0.21568492 0.08928049 -0.19205052 -0.26129985 -0.08606874 -0.081435494 -0.34000766 0.22007756 -0.15814362 0.2983936 -0.17776558 -0.0044971863 0.24573278 0.2646034 0.2751356 0.3142796 -0.0057138414 -0.22803327
58 0.29501197 -0.36159512 0.37720358 -0.19200246 -0.3611943 -0.35450014 -0.35858893 -0.3573682 -0.28987038 0.27337328 0.21235426 0.29266983 0.24836686 -0.35391334 -0.2549384 -0.23445575 0.33005276 -0.22004029 -0.017140169 -0.3296736 -0.33346796 -0.20814617 0.18498039 0.33702058 -0.3488748 -0.37818 -0.31390572 -0.3171657 0.32708886 0.09295548 -0.3283992 0.32016322 0.3392518 -0.33349064 0.3527899 -0.19948016 0.33506164 0.29846472 -0.30864123 0.3396396 0.2910663 0.23049802 -0.2898338 -0.26809588 -0.17788273 -0.18271588 0.108646445 -0.087178685 -0.33027142 -0.25930855 -0.31415045 -0.2689165 0.36182228 -0.28020257 -0.303681 -0.34731385 0.33996874 0.3535679 0.3397996 0.36762363 -0.35905972 -0.25869468 0.36202362 0.379516 -0.27278915 0.28035992 -0.2812264 0.26456755 -0.29737172 0.21770239 -0.19711192 -0.32794037 0.052415993 0.35662284 -0.1429219 0.28034902 0.31211218 -0.34448627 -0.20880125 -0.3139702 -0.3608697 -0.35116988 -0.26707608 0.2739087 0.3398944 0.042882964 -0.33999547 0.30499172 0.22769889 -0.3577855 -0.3973231 0.31223324 -0.22173089 -0.26485243 -0.35541427 0.19847386 -0.0075744553 -0.35409454 0.3144943 -0.23339958 0.29704243 -0.32145643 0.3494331 0.2931381 -0.3397459 -0.18377726 -0.39869815 0.24826235 -0.3600199 0.24472012 -0.3306366 -0.113536544 -0.3451328 -0.27193177 -0.2149974 0.06250348 -0.34183264 0.32428104 -0.2664113 0.22650519 -0.27436054 0.27794763 0.35278156 0.23111154 0.20779842 0.24096362 -0.11940094 -0.32924134
59 0.26247832 -0.3013833 0.36241305 -0.060780447 -0.34519395 -0.31952482 -0.23455414 -0.3391766 -0.15933423 0.23056978 0.34611613 0.29068595 0.30840385 -0.34419596 -0.36194628 -0.3612388 0.3420286 -0.20219882 -0.1439133 -0.2893377 -0.24514534 -0.24178801 0.37205672 0.17595455 -0.37143973 -0.34958822 -0.3325989 -0.30406398 0.315922 -0.21388245 -0.3923168 0.30712643 0.25490373 -0.34000567 0.25320384 -0.14993866 0.3310234 0.40151143 -0.22066298 0.22145721 0.28493133 0.33861366 -0.21765853 -0.341459 -0.25307474 0.019749798 -0.13555202 -0.2444847 -0.31604773 -0.33423313 -0.2783369 -0.18085046 0.34460565 -0.3534302 -0.12938602 -0.36193374 0.26776212 0.39843687 0.2943286 0.26505134 -0.36625946 -0.25056627 0.3535816 0.30150357 -0.25748527 0.30733076 -0.353089 0.32974643 -0.28253552 0.3122154 -0.39803758 -0.3908455 0.27568993 0.35751444 0.12109365 0.3493023 0.22835994 -0.17140801 -0.29990435 -0.2129259 -0.37826946 -0.2765699 -0.21471663 0.1941159 0.3124435 -0.063458376 -0.28353164 0.34180677 0.26601723 -0.22149886 -0.20733994 0.3767296 -0.23936187 -0.14587982 -0.34263983 0.34529385 -0.24498707 -0.19851455 0.11004144 -0.2800679 0.3158588 -0.38004503 0.23948315 0.36524558 -0.31793013 0.04323579 -0.3478773 0.35769743 -0.35384017 0.2753532 -0.2993129 0.12634942 -0.33197185 -0.16651566 -0.2884312 0.21324717 -0.33716732 0.2894968 -0.3396518 0.37901527 -0.11017708 0.22737785 0.27836347 0.36494127 0.23963985 0.3382944 -0.00041538393 -0.34064427
60 0.2697931 -0.32257614 0.33628935 0.19171585 -0.3265552 -0.3430834 -0.28821063 -0.391721 -0.27656683 0.30041394 0.32762554 0.23476791 0.26270846 -0.36493096 -0.2687446 -0.31806782 0.2918387 -0.2774895 0.041533824 -0.32263854 -0.28874633 -0.32380804 0.3860457 0.28556016 -0.34791362 -0.26760232 -0.36590153 -0.30556905 0.3218252 -0.25403214 -0.27118984 0.3664098 0.345276 -0.32684565 0.28333306 0.11253745 0.27441588 0.36329228 -0.3123213 0.30092606 0.3306906 0.3227451 -0.23848383 -0.23306352 -0.27987805 -0.19698428 0.14099096 -0.24974012 -0.24064703 -0.38880447 -0.30324635 -0.26288414 0.23925515 -0.33857405 -0.23521383 -0.34854937 0.27112472 0.33454612 0.31108645 0.3544334 -0.34217292 -0.3808884 0.32813364 0.23506325 -0.14818875 0.34360352 -0.33731318 0.36980262 -0.22700457 0.2801597 -0.3343003 -0.26981863 0.1713248 0.26170814 0.06635216 0.34321737 0.31636006 -0.2916882 -0.35055217 -0.31694975 -0.33664528 -0.17903498 -0.3269346 -0.02793956 0.33292326 0.0518577 -0.3578983 0.34520772 0.30686074 -0.30764675 -0.13922536 0.25681344 -0.32153276 -0.13483158 -0.31027615 0.3326498 -0.24580576 -0.12716943 0.29900062 -0.10475596 0.24023895 -0.30023193 0.18447964 0.29253042 -0.34141117 -0.1563449 -0.27355805 0.2672256 -0.33626476 0.26585603 -0.31692013 0.15986623 -0.3611239 -0.31205356 -0.33776817 0.27096564 -0.3207608 0.24401037 -0.2501331 0.27270126 -0.32273522 0.28355896 0.2505503 0.29703355 0.22459307 0.28726742 -0.072684936 -0.32312176
61 0.07211105 -0.33853397 0.29079252 0.10993015 -0.3431748 -0.3435102 -0.33894435 -0.2821769 -0.13079055 0.3359213 0.30862877 0.29298407 0.3229842 -0.23476897 -0.2255005 -0.33483243 0.3409307 -0.25624976 0.002904066 -0.33648565 -0.24786395 -0.325851 0.24082164 0.07360168 -0.25679657 -0.28954467 -0.3349795 -0.27415913 0.3504893 -0.011636787 -0.32261908 0.34730586 0.26408356 -0.3393518 0.31661376 -0.12775879 0.29727808 0.29930452 -0.23923917 0.345597 0.21383746 0.34442323 -0.28240466 -0.2613512 -0.32963908 0.15780911 -0.104364485 -0.0144594405 -0.26384792 -0.32310197 -0.33485782 -0.22644868 0.3440251 -0.3442832 -0.34540468 -0.29172975 0.29882994 0.30108976 0.32058677 0.3760853 -0.31377894 -0.32807794 0.3186102 0.34046316 -0.219949 0.31773126 -0.28237417 0.35398725 -0.31397083 0.36225012 -0.3400191 -0.27962744 0.23290601 0.26569888 -0.04701068 0.38934332 0.31071898 -0.36529154 -0.33449608 -0.21354668 -0.382453 -0.27446795 -0.33149278 0.13704059 0.29914543 -0.015558188 -0.29798004 0.35167855 0.23235281 -0.2956035 -0.26154342 0.24795179 -0.1932981 -0.28647885 -0.22303373 0.23857288 -0.14886932 -0.31205976 0.21656324 -0.21769911 0.30332464 -0.34201556 0.19729373 0.3058479 -0.33766 0.12568836 -0.3248612 0.32562804 -0.35594 0.29342395 -0.28970748 -0.080605395 -0.33368686 -0.289994 -0.253102 -0.0228602 -0.2606165 0.307506 -0.28044447 0.29047444 -0.25814426 0.23362517 0.32006446 0.24910459 0.31608126 0.34017855 0.09215889 -0.33915517
62 0.09715108 -0.33526456 0.27993366 0.009798223 -0.36632404 -0.2299003 -0.35594893 -0.31332418 0.00045214914 0.3886846 0.21325229 0.30226684 0.3286039 -0.3160647 -0.2186888 -0.34751055 0.36346468 -0.30594578 -0.12122655 -0.33549926 -0.3180765 -0.23747975 0.3419199 0.28075197 -0.26236883 -0.27765554 -0.2749268 -0.27175158 0.34420478 -0.14487536 -0.33681354 0.33267233 0.22089526 -0.3089132 0.34817678 0.061854847 0.2322721 0.2692183 -0.22277156 0.3158726 0.31386453 0.2845223 -0.29001957 -0.18049401 -0.35937855 -0.13709855 0.10852129 0.010793072 -0.33660513 -0.30492607 -0.3286964 -0.3011445 0.32717776 -0.36172795 -0.3629825 -0.26036736 0.24185386 0.3082174 0.36129794 0.2602381 -0.29176903 -0.3205641 0.3380192 0.30500224 -0.20329444 0.2689928 -0.3675767 0.35133985 -0.28672934 0.3138569 -0.36795735 -0.26093233 0.28010222 0.24979271 -0.19640818 0.33241597 0.2682833 -0.36883962 -0.36401555 -0.23895143 -0.37551573 -0.26435307 -0.3095094 0.28853527 0.1395718 -0.06396946 -0.37384763 0.37704137 0.25647524 -0.34838456 -0.32704636 0.3391217 -0.30051827 -0.23203155 -0.20437148 0.33010185 -0.18559857 -0.36151534 0.21334824 -0.2559938 0.32712388 -0.38679084 0.11346494 0.38460803 -0.34274706 -0.057466414 -0.33402705 0.26249135 -0.23740928 0.34662157 -0.26262042 -0.15304966 -0.3339275 -0.31362796 -0.20018221 0.16955894 -0.29808727 0.32191208 -0.36771107 0.2354988 -0.29848063 0.26454747 0.33259568 0.37995407 0.2949106 0.35759863 0.062795214 -0.27764624
63 0.02205073 -0.3006794 0.28010517 0.10981134 -0.34516147 -0.22150292 -0.30022088 -0.2967748 -0.19712749 0.32451525 0.28736615 0.23585676 0.33490154 -0.21302286 -0.24581118 -0.35112762 0.2576565 -0.33218774 0.10556885 -0.35962263 -0.30649385 -0.32729423 0.25747684 0.04075945 -0.2973721 -0.28259146 -0.23135166 -0.36194763 0.3327036 -0.18987422 -0.27317157 0.21315424 0.38697022 -0.37489262 0.3218021 -0.105246104 0.27849463 0.320014 -0.31153345 0.28881407 0.29681548 0.34660786 -0.18668158 -0.27796963 -0.36621404 0.054736055 -0.016038168 -0.066654935 -0.3151743 -0.29003134 -0.34670353 -0.1904379 0.326153 -0.24721025 -0.38241148 -0.34926355 0.3826524 0.3695484 0.37278482 0.3362137 -0.29197517 -0.2937648 0.33904558 0.33971146 -0.21862924 0.28535 -0.26212493 0.2803805 -0.32638946 0.24624267 -0.33159426 -0.35436097 0.2678923 0.22900566 -0.10007421 0.24762605 0.15870745 -0.33403748 -0.27041656 -0.2808468 -0.28347483 -0.3542891 -0.37769818 0.21058951 0.18992376 0.0060988064 -0.28291348 0.34698796 0.25887358 -0.30796042 -0.30616373 0.303373 -0.32847115 -0.27689564 -0.30183744 0.3076584 -0.043705646 -0.31263217 0.32555735 -0.12546192 0.39354515 -0.28314418 0.3042391 0.31953636 -0.20666583 0.11172363 -0.3564748 0.2997084 -0.26113164 0.3518127 -0.274271 -0.0018911216 -0.30208668 -0.24816278 -0.26056096 -0.107298926 -0.31686318 0.35253927 -0.33274114 0.32891822 -0.24205223 0.21191573 0.3031444 0.37661663 0.34163415 0.32559624 0.019443743 -0.24860013
64 0.2779248 -0.35467237 0.23325664 -0.083510734 -0.34827164 -0.3280716 -0.3271448 -0.30791092 -0.12464972 0.34329012 0.13858362 0.24273288 0.31028548 -0.40687996 -0.29874513 -0.3448818 0.3531191 -0.35375208 -0.14828192 -0.26265237 -0.26558086 -0.27928144 0.2732519 0.20961113 -0.22361243 -0.26778287 -0.24546097 -0.31488192 0.34813106 -0.200199 -0.34025192 0.32819757 0.22844878 -0.2516342 0.27802244 -0.13929987 0.35934013 0.27973506 -0.35151002 0.17465945 0.19488047 0.36019012 -0.026885359 -0.30855408 -0.31248832 -0.11032484 -0.15438771 -0.2775865 -0.32064214 -0.3518587 -0.28108975 -0.2588249 0.3058516 -0.33271307 -0.3592055 -0.35872537 0.3120035 0.2848239 0.33447072 0.2628144 -0.36161208 -0.37932718 0.34316817 0.3678018 -0.17244382 0.34316653 -0.2035607 0.37086758 -0.33057308 0.32322896 -0.37303317 -0.20151137 -0.032447442 0.11001644 0.13630314 0.26184624 0.21590963 -0.36574572 -0.31202418 -0.3406208 -0.4190261 -0.21483909 -0.29869178 0.020810356 0.35850352 0.027122004 -0.3312778 0.33337936 0.14685771 -0.34972504 -0.37315148 0.35907272 -0.25710848 -0.24047711 -0.30830678 0.3226141 -0.09286021 -0.31359172 0.16098428 -0.17079353 0.3829139 -0.3769215 0.30520034 0.37096083 -0.3135572 0.0071810405 -0.37909088 0.3441015 -0.32800686 0.34008402 -0.3932928 0.137569 -0.03772181 -0.19277528 -0.3522752 0.19309779 -0.29767397 0.358637 -0.32936257 0.27489337 -0.14789696 0.17265394 0.29865465 0.2972629 0.34483203 0.31936347 -0.20558117 -0.2708242
65 0.25550237 -0.4091216 0.26883286 -0.10618519 -0.27814636 -0.3484761 -0.33680817 -0.3233823 -0.20326263 0.3408222 0.09825426 0.23706974 0.32106572 -0.33872902 -0.28634942 -0.35223773 0.2555314 -0.32306045 -0.16277838 -0.29327407 -0.314327 -0.3209622 0.24195859 0.29696438 -0.3081705 -0.13702485 -0.2622347 -0.28418857 0.36608103 -0.15272541 -0.35850203 0.3823551 0.26750538 -0.35086352 0.282913 -0.12181691 0.33346063 0.32652155 -0.28355965 0.17516 0.22862561 0.3529034 -0.032300383 -0.31141075 -0.36395952 -0.03294626 -0.13453399 -0.1861613 -0.33883843 -0.37432966 -0.37939188 -0.29237363 0.35459778 -0.34744492 -0.32369748 -0.32467854 0.3639673 0.35720286 0.34070432 0.350063 -0.36211452 -0.30306044 0.37560734 0.27244034 -0.1252044 0.3226986 -0.21635348 0.38120937 -0.3724784 0.38884875 -0.26371887 -0.20768958 -0.041833512 0.0977343 0.13206322 0.30663115 0.2294764 -0.3470635 -0.26463032 -0.2764313 -0.37642458 -0.073182315 -0.3476719 0.014307383 0.30994037 -0.044303562 -0.3398782 0.29272878 -0.010010443 -0.32036677 -0.41078097 0.26693776 -0.35527754 -0.16764902 -0.30488726 0.30706722 -0.16279873 -0.3158668 0.13742363 -0.099547066 0.37087902 -0.36752737 0.3027406 0.37129158 -0.31074533 0.021614324 -0.3707555 0.3099316 -0.34601605 0.37717932 -0.3470878 0.1372607 -0.041693956 -0.28419223 -0.27714694 0.19828857 -0.37983248 0.3633815 -0.2566794 0.28983736 -0.19084625 0.090204455 0.3303361 0.3939479 0.31690276 0.38214314 -0.2274895 -0.2128293
66 0.29859674 -0.34678534 0.38002476 0.15932234 -0.37155268 -0.2734039 -0.26203382 -0.3433893 0.01720251 0.34709653 0.22513485 0.25742295 0.2615218 -0.35082373 -0.31803438 -0.21323346 0.3080786 -0.24829368 -0.06303511 -0.30994534 -0.24108689 -0.38790733 0.3031748 0.12213208 -0.35061094 -0.21195453 -0.32078934 -0.31927288 0.39199352 0.019879907 -0.27352992 0.34109992 0.3835342 -0.25390834 0.33925036 0.1688495 0.32963115 0.3561008 -0.3144211 0.2562551 0.32671997 0.3821407 -0.033311017 -0.26605764 -0.3685124 -0.14838912 -0.05792961 -0.088061795 -0.28495574 -0.30018365 -0.34357473 -0.20290023 0.20644298 -0.3387943 -0.26418877 -0.33864707 0.26889575 0.24599223 0.359959 0.26622653 -0.38373077 -0.3334427 0.27280036 0.3567101 -0.27042827 0.3531835 -0.38657296 0.32683215 -0.32655028 0.24519335 -0.3265769 -0.2850687 0.288442 0.3146988 -0.2379401 0.35843635 0.20360059 -0.3077883 -0.25188312 -0.3675538 -0.33781308 -0.29468364 -0.27715737 0.2920549 0.24762422 -0.08341875 -0.29536843 0.2870276 0.12676863 -0.2590932 -0.33441505 0.23632732 -0.16828685 -0.22921447 -0.30726543 0.17179666 -0.21736209 -0.3122218 0.348028 -0.16776533 0.31809434 -0.30101642 0.2897229 0.34430793 -0.36165032 0.06693737 -0.27792883 0.2806014 -0.20269126 0.34979218 -0.31470802 -0.13531348 -0.37874407 -0.22222935 -0.33198297 0.24047741 -0.34935945 0.29923004 -0.33196023 0.21358263 -0.29106122 0.2277383 0.3030261 0.28810504 0.24435273 0.30557483 -0.1907341 -0.24686864
67 0.20749074 -0.33657357 0.34876448 0.18748727 -0.35608888 -0.22970347 -0.23542172 -0.28770444 0.008053565 0.29124847 0.2969992 0.26781237 0.33293298 -0.31302243 -0.32319197 -0.22651553 0.28900245 -0.30114064 0.030510588 -0.32685268 -0.34203148 -0.31508055 0.31497383 0.049938105 -0.2835523 -0.2829565 -0.27228117 -0.32563135 0.34738562 0.048086688 -0.26800913 0.3946867 0.33404624 -0.3339289 0.33151928 0.13284513 0.30961257 0.3580599 -0.31806594 0.26294482 0.31691 0.26932696 0.0051110587 -0.3161966 -0.2739435 -0.04110738 -0.089005254 -0.09070628 -0.22845864 -0.3491735 -0.3238708 -0.27154678 0.30748144 -0.32998317 -0.21965571 -0.36994782 0.3536148 0.31882843 0.39438224 0.2326693 -0.3159567 -0.26670262 0.31714198 0.38892376 -0.22739416 0.28532168 -0.32205257 0.24412578 -0.31834212 0.12838648 -0.27803072 -0.31165004 0.28021863 0.21932995 -0.16513151 0.36722115 0.24725835 -0.24908313 -0.25220972 -0.28208145 -0.36743924 -0.32017866 -0.27212033 0.30529088 0.2505022 -0.061449118 -0.33393383 0.32262182 0.20705298 -0.34750733 -0.37940556 0.21470067 -0.11714772 -0.10906096 -0.36323977 0.2622753 -0.20932038 -0.28648883 0.27518043 -0.0770203 0.340682 -0.37344512 0.34283724 0.3268196 -0.36946118 0.11590987 -0.3335605 0.36032856 -0.20937924 0.3619881 -0.30157587 -0.022668075 -0.27330196 -0.1588028 -0.29280233 0.23444472 -0.30560482 0.238606 -0.23291121 0.29580456 -0.25243187 0.26996532 0.28587142 0.3607812 0.297453 0.37786254 -0.1618973 -0.28229946
68 0.18418847 -0.32442245 0.2981526 0.048283607 -0.3122378 -0.16774757 -0.21070144 -0.31241226 0.015025657 0.23443627 0.25562814 0.21878803 0.33070555 -0.2743344 -0.34681714 -0.29690766 0.3063769 -0.35005522 0.07921191 -0.20353451 -0.28473255 -0.31670743 0.3300183 0.13952012 -0.27859005 -0.29234952 -0.33819765 -0.31301364 0.27782494 0.011464989 -0.3593333 0.32794398 0.3200628 -0.3489822 0.33130038 0.20377715 0.31744125 0.344948 -0.32267728 0.31842425 0.19135216 0.27165607 -0.07146718 -0.2796621 -0.35694003 -0.029989233 -0.11680288 -0.19198485 -0.30034104 -0.36155224 -0.30083168 -0.32422215 0.17039356 -0.34141 -0.31755883 -0.28206745 0.28276506 0.23334785 0.3698558 0.30297714 -0.2813626 -0.33631393 0.24254347 0.36384633 -0.24625652 0.23490484 -0.31115937 0.2865616 -0.25358495 0.15121827 -0.3305059 -0.30023772 0.28390408 0.24186353 -0.15761915 0.34358603 0.2592993 -0.27779368 -0.25443226 -0.27592227 -0.32316962 -0.37456238 -0.32991832 0.26836148 0.26528364 0.016909529 -0.3278644 0.23111883 0.09444484 -0.31564856 -0.34705794 0.23297043 -0.28259596 -0.13294294 -0.32110053 0.34815294 -0.25579226 -0.35112482 0.3602455 -0.17448896 0.2890579 -0.3711918 0.23943217 0.30821708 -0.3265068 0.12746619 -0.3085494 0.33005422 -0.27410275 0.32615831 -0.29842046 -0.14422421 -0.29216006 -0.13190457 -0.3001056 0.18407026 -0.28375965 0.33854222 -0.24291663 0.20420562 -0.29152784 0.22453092 0.25219235 0.3396568 0.29586133 0.31068638 -0.18417989 -0.17355332
