502 128
113 -0.33010074 -0.16284436 0.23284388 0.12795793 -0.08869617 -0.4649934 0.43650645 0.19549134 0.39836237 0.8427964 0.51316714 -0.27722374 -0.0960753 0.18315388 0.0075022704 0.42597052 -0.044389363 0.06843686 -0.45796987 -0.026647385 0.2128352 0.4583428 -0.5924584 -0.27407104 -0.30492344 0.15551586 -0.3784334 0.38952696 -0.27562523 -0.7177447 -0.18258157 0.07069313 0.5593479 -0.105403595 -0.69094366 0.30754912 0.465239 -0.5700557 -0.19860157 -0.33500063 -0.33357012 0.34886664 -0.5850353 -0.07397703 0.2979802 -0.124391 -0.5705787 0.2017082 0.63318366 0.56188357 -0.06562093 0.41914675 -0.1680014 0.06202379 0.2721613 0.041125704 0.54347104 -0.34038767 -0.36398646 0.68113935 -0.42906573 0.14324504 0.30125818 -0.39892954 0.1701054 0.07843537 0.21836166 0.34007493 -0.4390916 -0.39048687 0.13802247 0.22551933 -0.53660685 -0.43601844 0.4212789 -0.31008708 -0.050179806 -0.36243692 -0.50465745 -0.46870327 0.0159384 0.18801835 0.22125986 0.6045828 -0.32994628 0.49235836 0.6349164 -0.5666477 0.3567616 0.739802 -0.21652368 -0.25665462 0.3509969 0.25567612 0.2741258 0.63730067 -0.7033928 -0.23724028 -0.2299709 0.17713328 -0.47357804 0.22497414 0.56395155 0.9235742 0.18172485 -0.08698789 0.07590721 0.11895809 -0.30238035 -0.5490495 0.20052466 -0.7091891 -0.38991335 0.2654827 -0.28493148 0.35814223 0.28253797 0.5756386 0.1096606 -0.077729754 -0.019967813 -0.16322923 0.060381003 -0.27938142 0.033443708 -0.08258212 -0.43361604 0.20642069
116 -0.14422964 0.5697897 0.57938004 -0.37134293 0.5711573 -0.60474205 0.5745317 -0.35679883 0.20208965 1.3396056 0.34478456 0.4024812 0.45887187 -0.26292506 -0.2945265 0.23863727 -0.016095934 0.17296691 0.064731486 0.14528024 0.11133682 -0.025805691 -0.22418171 -0.9656036 -0.8973033 0.26135036 0.10562795 0.1622276 0.3189492 0.07548092 0.0007429394 0.219264 -0.2480553 -9.382127e-05 -0.11617097 0.43431965 0.6552892 0.05808701 0.0351437 -0.21890232 0.46521717 0.6029881 -0.5299937 -0.507162 0.5915377 0.40518504 0.1791393 -0.51221377 -0.06648678 0.0027225679 0.5431008 -0.20264679 -0.49241462 0.29479104 0.23634334 -0.37832376 0.39079085 -0.51013523 -0.08204384 -0.03628875 -0.17764062 -0.023851482 0.5008992 -0.14693657 0.6245709 -0.015348049 -0.32763782 0.25568676 0.12020888 -0.23027107 -0.69815177 0.006887898 -0.71625775 -0.009454526 0.23928751 -0.51047426 0.22940661 0.023868764 -0.29184964 0.14651223 -0.21226671 0.342347 -0.19956829 0.55956614 0.19544543 0.299527 0.49361014 -0.44615132 0.4818054 0.5036128 -0.33916548 -0.25031793 0.11536835 -0.38325927 -0.3637688 -0.2692247 -0.029140132 -0.19443166 0.038034555 -0.17052788 0.06201061 0.34472916 0.17945302 0.25241297 -0.20670976 -0.13278866 0.08141927 0.18864629 -0.2223332 -0.002540847 0.5283625 -0.58262336 0.08186262 -0.06434171 -0.57215905 0.5876856 0.44761032 0.464449 0.4433107 0.3710552 0.03259558 0.14105749 -0.28289905 -0.026948432 -0.3204817 -0.2720117 -0.5701474 -0.16211954
90 -0.22657713 0.1685857 -0.28555375 -0.37667266 0.5891214 -0.13014068 0.6521163 0.12284046 -0.44051152 0.5853723 0.5287045 -0.090390675 -0.36535576 -0.032640655 0.50216234 0.44467333 0.3541583 -0.1877933 -0.5427891 0.64607567 0.54500353 0.106114216 -0.79046595 -0.53656363 -0.24909003 -0.6095361 -0.08993416 -0.101292275 -0.3303608 -0.3055825 -0.3667489 -0.2826627 0.13917893 0.06169629 -0.48792043 0.51884 0.5198181 -0.49110776 0.4330634 0.17699549 0.001986191 0.31294143 0.34818602 -0.20390661 0.0150947515 0.42344338 -0.19959837 -0.29126993 0.2511102 0.110354595 0.19427472 0.23599449 0.0061315247 0.08985487 0.18175758 -0.047459275 0.64945066 -0.10474608 -0.14402641 -0.081360765 0.34757546 0.02675917 0.2879474 0.15748169 0.62483954 -0.28310755 0.25744647 0.5734677 -0.62158734 -0.28161007 0.15112655 0.02255357 -0.021686593 -0.11097679 0.41849104 -0.24390846 -0.258423 -0.41135964 -0.22372217 0.46519282 0.3831577 -0.0516164 -0.32563752 0.55146873 0.073405735 0.1738238 0.5781583 -0.42704687 0.58987504 0.38623115 -0.07798017 -0.24646915 0.08492316 -0.46601805 0.1624653 -0.12236215 -0.5508722 -0.5016626 -0.24847037 -0.54971826 0.14607348 0.3000114 0.40265074 0.19266953 -0.06598477 0.3359414 0.17315714 -0.27824888 0.14789231 -0.6038898 0.067612045 -0.03866776 -0.28547618 -0.7318288 -0.42952603 0.1255232 0.27385318 -0.016122678 0.5239179 0.32928613 -0.13066508 0.41167918 -0.3795894 -0.11034441 -0.29139715 0.16733393 -0.33159223 0.13786697
9 -0.7035212 0.33550802 0.36050165 0.007696561 0.47109842 -0.5292726 0.41541502 -0.2553766 -0.19167115 0.4222729 0.21087357 -0.03426012 -0.018007692 -0.57899857 0.22944073 -0.023679102 0.10651779 0.07959519 -0.32764512 -0.027218122 0.10150021 0.01668109 -0.1967396 -0.6019348 -0.63897246 0.12367882 -0.4571983 -0.50619245 -0.7405473 -0.56913567 -0.1870118 -0.43165952 -0.5870535 0.6416044 -0.18888083 0.28859138 0.26399046 -0.5135916 -0.0122455675 0.29161116 -0.28071266 0.17506081 -0.23041996 0.05367596 0.05508814 0.015670352 0.176837 -0.023416046 -0.21122247 -0.08629302 0.27993426 0.06755692 -0.3761838 0.22300054 -0.17462465 -0.2027606 0.41325435 -0.31940618 -0.7354875 -0.16177297 -0.060454518 -0.2923616 0.83774275 0.080306284 0.33650368 0.0021665057 -0.014063123 -0.028181413 0.33102608 -0.5375981 -0.2335838 -0.7690443 -0.72967136 -0.35608104 -0.060062207 -0.37485552 -0.3967166 -0.5472621 -0.23174936 0.13744746 -0.10933393 -0.0043205596 0.49892616 0.7069456 -0.19671811 0.47769368 0.11362884 -0.35797763 0.71346855 0.22411852 0.102572754 -0.051843803 0.36102337 0.025053866 0.036863852 -0.23891737 -0.55192477 -0.12613738 -0.360569 -0.2138186 -0.14606225 -0.20340395 0.17362487 0.24573667 -0.14850985 0.26481014 -0.013199286 0.18801275 0.14640796 -0.7498197 0.40984276 -0.77366513 0.2825539 -0.13258743 -0.3618801 0.029549392 -0.17899159 -0.096289136 0.026742676 -0.6927284 -0.40391737 -0.5457386 -0.2786965 0.4408854 -0.27086473 -0.2521275 -0.22082312 0.29417658
110 -0.20048682 -0.057430677 -0.41861048 -0.3742222 0.7008917 -0.20649976 0.4346254 0.029263124 -0.47075376 0.38334775 0.56414574 0.037646912 -0.38354707 -0.058537792 0.48318067 0.20264532 0.4217713 -0.11785508 -0.6958593 0.5473096 0.5131336 -0.2502473 -0.79558176 -0.3075397 -0.085583866 -0.40826875 0.095925435 -0.028488008 -0.005858876 -0.5482076 -0.48800617 -0.39006376 -0.002815983 -0.020017412 -0.49901906 0.7258715 0.453823 -0.53955007 0.41208264 -0.15428522 0.2890469 0.3645017 0.03104978 -0.25736636 0.19486578 0.24233569 -0.47345823 -0.3827756 0.040774412 0.056312658 0.20800349 0.10823717 0.14972353 -0.006363198 0.0711513 -0.14624001 0.1408144 -0.031164402 -0.2881136 0.21235174 0.23515639 0.24657965 0.26065648 0.25612053 0.34317318 -0.08315532 0.22282737 0.5821399 -0.5343191 -0.5211797 0.13542676 -0.010061201 0.02677622 -0.38618624 0.46635947 -0.04229754 -0.50440294 -0.34238556 0.09345194 0.29164246 -0.25264314 -0.2294603 0.3062172 0.51662046 0.004358803 -0.013812418 0.37190643 -0.24705882 0.6814955 0.23676066 -0.23202969 -0.020868976 0.037186038 -0.26347783 0.40501633 -0.09909479 -0.54507786 -0.31708223 -0.14316104 -0.44307774 0.19629166 0.14992833 0.31262052 0.3104486 0.15608378 0.3389934 0.13727951 -0.21562745 -0.08140378 -0.38828868 0.18024789 0.14389856 0.018499846 -0.46004248 -0.686691 0.1586564 0.09633695 0.072100796 0.62290174 0.54631376 0.023290753 0.51085293 -0.08076495 -0.10744583 -0.32302028 -0.15577133 -0.43574244 0.025957752
106 -0.09642834 -0.36711165 0.08404605 -0.33879727 0.25882435 0.3844344 0.11692713 -0.6063956 -0.38753954 0.48579153 0.26559615 -0.2615715 -0.367483 -0.26766458 0.10086363 -0.3280632 -0.015834559 -0.53857 -0.49753845 0.1516763 0.1244784 -0.031137843 -0.13327254 -0.5410553 -0.550306 0.111643955 -0.5829275 -0.5157188 -0.22619975 -0.7570831 0.43675774 -0.037009113 0.20198837 0.13404194 -0.24642636 0.105804496 0.43277374 -0.07912844 -0.16075252 0.34142098 0.51954144 -0.49753147 -0.50926286 0.088866845 0.44109172 -0.34665874 0.1466861 -0.25041872 0.01166072 0.12897009 0.27918512 0.23973115 0.42343968 0.38557884 0.06494465 0.12036906 0.43027437 -0.116321854 -0.17215705 0.5642612 -0.07809399 0.029314093 0.31160924 0.37504765 0.2401631 -0.3711703 0.21409395 -0.091603324 -0.55969214 -0.3615162 -0.08411314 -0.45751575 -0.015136968 0.09959506 -0.114107326 0.029520752 -0.22507963 -0.13947524 -0.41860214 -0.0060446765 0.20235227 0.18126866 -0.37358615 0.768731 -0.3416064 0.6374878 0.17307763 -0.042571913 0.1447044 0.13795923 -0.17529452 -0.28199315 0.429353 -0.18706109 -0.6820934 0.23151956 -0.4394532 -0.13328822 -0.5312899 -0.4086773 0.1526525 -0.11720653 -0.08468132 0.41279382 -0.2041546 -0.091385834 -0.13332766 0.17043775 -0.06803993 -0.24908777 -0.0142683145 -0.21126719 -0.17077062 0.5694528 -0.8467532 0.12649322 -0.5254153 0.5428581 0.284959 0.47831032 0.08056565 -0.21225764 -0.20988983 0.21445355 -0.12424054 -0.0900411 -0.39740616 0.19190432
89 -0.23617955 -0.33658916 0.21349736 -0.10794725 0.6246804 -0.18741667 0.18704477 -0.13600072 0.1441182 0.4530149 0.30330563 -0.5383248 -0.09235463 0.078498065 -0.4891922 0.3202896 0.24125011 -0.33178282 -0.06985489 1.0417093 0.4100818 -0.21311878 -0.44388154 -0.61343193 -0.7573442 0.43612516 0.015751472 0.0335502 -0.34986028 -0.67747504 -0.1430954 -0.34787884 -0.30076897 0.017075012 0.025186483 0.45329493 0.43243945 -0.2758981 0.17033349 -0.08301638 -0.22915684 0.022278799 -0.13320555 0.019503776 0.6846399 0.058033105 0.16120681 0.05789181 -0.42380482 0.32865116 -0.12664708 0.17247628 0.045996968 0.26018393 0.09255705 -0.40303627 0.052591756 -0.23742947 -0.134361 -0.2910135 -0.25646174 -0.36336437 0.48173743 -0.31596473 0.49747583 0.3754601 -0.08843408 0.013453833 -0.36181787 0.19862598 -0.1647884 -0.43622252 -0.5526947 -0.21463878 0.4668787 -0.13872805 -0.513712 -0.2947127 -0.17441256 -0.1266491 -0.49954474 -0.31470433 0.08705007 0.18871653 -0.39984545 -0.016733777 0.37640673 0.1399029 0.43093884 0.34381396 0.17344129 -0.054137193 -0.10511428 -0.17287582 0.49955392 0.29986808 -0.2337069 0.4630305 -0.53997386 -0.08578367 -0.21992429 0.060363308 -0.38507217 0.6824594 0.02973642 0.5085558 -0.2434767 -0.3926319 -0.49198195 0.15173972 -0.016589435 -0.08294123 0.09091287 -0.32639718 -0.6096037 0.3563404 0.14855051 0.37218574 0.20166643 0.27216032 -0.09789883 0.6414001 -0.15117036 0.039136533 -0.07317281 -0.093661934 0.44538015 0.37044108
-0.04608272, -0.38059863, -0.3007064, -0.10318119, -0.17157456, -0.10328145, -0.013040159, 0.18156458, 0.12359756, -0.021596624, 0.18092503, 0.3871925, -0.42699486, 0.18430068, 0.19066332, -0.30025867, -0.22374368, -0.0410871, -0.0483035, -0.16514114, 0.08178098, 0.1729086, 0.11037792, -0.43576568, 0.23402332, 0.5728449, 0.11256782, 0.37616944, 0.14155132, 0.05196795, 0.05269994, -0.1284763, -0.08886413, -0.111397, 0.022718657, 0.027606055, 0.08102764, 0.19341965, -0.28401333, 0.03620239, -0.4103391, 0.22368492, -0.19173932, 0.3745824, 0.028165301, -0.5144881, 0.10886446, -0.22775441, 0.34125888, 0.04657206, -0.3645838, -0.2979452, 0.112987846, -0.09252355, 0.0718566, -0.06427821, -0.3016715, -0.053843115, 0.41292626, 0.01946359, 0.21973123, 0.42784256, 0.052557178, -0.009085913, 0.055349126, -0.22524434, 0.17193854, -0.23789266, 0.05981311, 0.10419971, 0.012021428, 0.050249808, 0.006319795, -0.3430943, 0.038671497, 0.025304224, -0.19613464, 0.12743467, -0.14935823, 0.22461194, 0.14894907, 0.41455412, 0.05705372, 0.46901885, -0.107238516, 0.026967559, 0.15366635, -0.09050042, -0.53050894, -0.06533662, 0.14688046, -0.11641975, -0.30391318, 0.15376937, -0.07506618, -0.13929583, -0.19033843, 0.18605925, -0.12211121, -0.093348615, -0.12515613, -0.23827438, -0.19809505, -0.22635756, 0.014466093, -0.030560505, -0.3878114, -0.12088575, 0.09150943, 0.06816841, -0.12881088, -0.45811182, 0.0010493477, -0.025115304, 0.31016296, 0.37941948, 0.45256603, -0.25068337, -0.029767483, 0.19665411, 0.032094415, -0.2487051, 0.46806172, -0.43931675, 0.16403474, 0.11928889, -0.02618416, 0.2832693, -0.40642533, 0.17986558, -0.12556618, 0.008022271, -0.42263475, -0.44664633, 0.04199728, 0.3540972, -0.11671005, 0.2027929, 0.24695428, 0.16347933, 0.26502636, 0.20361722, 0.32177076, -0.42280436, -0.05937238, -0.21152432, 0.21711493, 0.2734731, 0.09045593, 0.045136124, 0.026042357, 0.17542091, 0.008112128, -0.23006581, -0.17290914, 0.16455169, 0.004651993, -0.06871127, -0.12088238, 0.45831865, 0.32608375, -0.27646667, -0.16712669, 0.062484317, 0.0049324227, -0.11020895, -0.07887008, -0.18920071, 0.18825617, 0.06141346, -0.08003662, -0.037182104, -0.3680672, -0.019375734, 0.23848122, -0.19456428, 0.106407315, 0.422858, 0.1238199, 0.090671085, -0.08774879, 0.10589193, 0.34019548, 0.046535917, -0.048077054, 0.40319085, 0.06198489, 0.06984442, 0.30981702, 0.2503715, 0.035679445, 0.21181367, 0.01564683, 0.18955742, -0.039001346, 0.1085, -0.17278081, -0.26056805, 0.025722317, 0.14110121, -0.017827842, -0.021827864, 0.004758409, 0.1409493, -0.08876903, 0.09069106, -0.1587111, 0.13895631, -0.49942005, 0.10367362, -0.24020875, 0.44432566, -0.10112442, 0.043050464, 0.41854894, 0.28946844, -0.19908735, -0.29849052, -0.02872955, -0.03637543, 0.2880462, -0.032255396, 0.26636145, -0.13098253, 0.12169437, -0.30957693, 0.08775727, -0.3367169, -0.043762214, -0.075048886, 0.030874161, 0.28124553, 0.31899127, 0.0238689, -0.08504282, 0.34388664, -0.08366391, -0.5229568, 0.15831336, -0.32358956, 0.07843105, 0.06659838, -0.29473922, 0.5636104, -0.047017746, 0.059526343, 0.15496533, -0.053051587, 0.3202429, 0.17222415, -0.084172405, 0.15700412, -0.18125269, -0.10369836, -0.17584674, -0.25538877, 0.247185, 0.2738014, 0.36224437, 0.28022677, 0.15282889, -0.18950817, -0.654742, 0.24050318, 0.0019081817, 0.06625499, -0.063179925, -0.15793326, -0.11054917, -0.22982797, 0.02006797, -0.02261235, 0.321012, 0.23018402, -0.01796801, -0.09021896, 0.121071525, 0.25444737, -0.0102415625, -0.2500723, 0.1689873, 0.14562552, -0.047902696, -0.18523651, 0.32892874, 0.2445204, -0.008999941, 0.2525166, -0.052154873, 0.27965966, -0.31829417, -0.06117446, -0.034997545, -0.033601947, -0.16774905, 0.11896884, 0.27276498, 0.004997772, -0.19020753, -0.10152311 -0.27576163 -0.19923972 0.12752412 0.0713082 0.52995735 -0.07839654 -0.07248561 0.33489993 -0.52120847 0.6217533 -0.17777996 0.030408356 -0.16777757 0.01984111 -0.17547102 0.25552794 -0.22066765 0.5750891 -0.4089559 0.18800145 0.09435628 0.13403049 0.022756474 -0.70809525 -0.4862792 0.24191035 -0.3869065 0.21455626 0.22040409 -0.4925351 -0.033738684 0.0045978134 0.21617529 -0.07207476 -0.26141858 0.4385549 0.4007594 -0.022558816 -0.52370423 0.09671784 0.18809523 0.13639271 0.14369102 -0.11066365 0.48333701 0.30920833 -0.42970118 0.035100207 -0.38793036 -0.077065825 0.35528365 0.3545511 0.12362731 -0.047044165 0.27274653 0.41641697 0.36699542 0.4226474 0.030228695 -0.3164522 -0.64134145 0.197902 0.29466465 0.16495381 0.18745744 0.521976 0.41629347 0.29584458 -0.15815563 -0.116658814 0.08036271 -0.4225277 -0.6892757 -0.09473854 -0.112093225 -0.46346185 -0.09710868 -0.4039445 -0.36196938 -0.0052398075 0.03332279 0.06824266 -0.019868681 0.5108629 -0.11056584 0.10067899 0.05907362 -0.28570917 0.28399533 0.10831763 -0.112885155 -0.17604744 0.35212582 -0.044582337 -0.21928117 0.07317253 0.22950777 -0.20151235 -0.13333951 -0.21010445 0.12010921 0.4015361 0.07569407 0.27898118 -0.034773726 0.029780455 0.13730776 -0.07913311 -0.86284864 -0.10313292 0.363379 0.07360579 -0.17016344 -0.1496292 0.00736014 -0.14784022 0.19746928 -0.48032054 0.40598878 -0.17023605 0.17276771 -0.023619182 -0.07930719 -0.17087257 -0.11876169 -0.31767187 -0.082728244 0.20373449
55 -0.051515985 0.35697705 0.16344036 0.16176417 0.61998224 0.25022826 0.1077001 -0.029767463 0.45268905 0.42406616 0.18136941 0.021571578 0.012840433 0.0361139 0.53656256 0.4816205 -0.44005027 0.16235831 -0.6408674 0.5088969 0.114530034 0.31639183 -0.24366693 -0.4978658 -0.3586041 0.4882937 -0.1802038 -0.0882058 -0.10423846 0.28150046 -0.14674674 -0.08470052 0.18113726 0.021172885 0.066816986 0.38612184 0.046484344 -0.17988767 0.10030046 0.0484484 -0.5731158 0.26324207 -0.18805386 0.056625377 0.018553123 -0.09882554 -0.19662589 -0.15221727 -0.25450143 0.12569346 0.53513974 0.3663604 0.1168181 -0.19155306 -0.43649802 0.12941705 0.74385345 -0.111459844 -0.3421957 0.036454458 -0.7683699 0.14292182 0.21709459 -0.11535744 0.123870246 0.2758353 0.59832376 0.14006484 -0.005913242 0.14414325 -0.73874897 0.32250908 -0.42148226 0.17571513 0.15808186 -0.17575572 -0.034782592 0.53540176 -0.2005658 -0.008004178 -0.3198404 0.18261513 0.28487873 0.34475634 -0.23342596 -0.14102848 0.71907985 0.04199635 0.07893654 0.37202916 -0.062129613 -0.4069426 -0.04673366 -0.2497117 -0.07117708 -0.34399366 -0.7580104 0.010175947 0.0398532 -0.2980779 0.028590705 -0.49133557 -0.10032854 0.3470712 -0.022185972 0.4451516 0.30635133 0.3894685 -0.021881333 -0.33536366 0.13010105 -0.27096066 -0.10009468 -0.1655537 -0.4957131 0.10757631 -0.26184192 0.20098226 0.44807595 0.51933026 0.0724764 0.19780514 -0.1869313 0.1515004 -0.07562003 -0.20906468 -0.15083446 0.16776668
54 0.029176597 0.538825 -0.041845277 0.002240785 0.90808415 0.4914539 0.10662915 -0.21024722 0.30487326 0.48269895 0.14035262 -0.09118061 0.029656073 0.023245849 0.49043387 0.41787606 -0.30857578 0.15345863 -0.8851845 0.5021404 0.005936397 0.4622856 -0.057213012 -0.3368516 -0.43221363 0.5730024 -0.16858394 -0.33365706 -0.41134244 0.048473254 -0.32927936 -0.101905055 0.21053584 0.17901762 -0.05592559 0.38166904 0.18609276 -0.2507044 0.01959651 0.050488602 -0.7564681 0.32867476 -0.11533574 -0.10154351 0.123194255 -0.08278452 -0.12878157 -0.13577008 -0.3934812 0.011296746 0.7171689 0.28594202 0.1813895 -0.05453109 -0.39143017 0.25406682 0.77393967 -0.21344365 -0.5457333 -0.1168844 -0.86212534 -0.002716473 0.1841352 -0.28706196 0.36418954 0.3390459 0.40300253 0.10674963 -0.19616768 -0.06641191 -0.63321424 0.29371303 -0.438392 0.11863992 0.08672526 -0.087339066 -0.10649084 0.5276984 -0.45333207 -0.08815957 -0.13796623 0.31040448 0.14157419 0.18358819 -0.22888613 -0.056110285 0.7057924 -0.043327726 0.19231473 0.65886104 -0.09562244 -0.2691057 -0.07888002 -0.4234661 0.018943626 -0.5112606 -0.7425354 0.15562405 0.0657481 -0.53500676 0.10283114 -0.4584183 0.025124967 0.37766767 -0.022332134 0.40720323 0.351239 0.3794231 -0.40688103 -0.46373558 0.13841006 -0.13206969 0.14137663 -0.27530771 -0.5693723 0.007732903 -0.30380574 0.20047317 0.34698537 0.39321136 0.094271675 -0.052600738 -0.31520852 0.1416572 -0.061183598 -0.34811392 -0.22021484 0.2124933
11 -0.09536738 0.17510316 0.11909693 0.2629307 0.16684821 -0.25326696 0.9912189 -0.6437967 -0.45834756 0.2996037 -0.27230477 -0.35065445 0.18623117 -0.5449114 0.25360575 0.28513873 0.008032185 -0.013533744 -0.16487308 0.41359738 -0.2037408 0.4831343 -0.32274926 -0.66636395 -0.6929257 0.24828197 -0.07771904 0.12188707 -0.38166073 -0.15799464 -0.39725372 -0.15921982 0.21591195 0.12808827 -0.17476241 -0.019042319 0.34452152 0.3641227 -0.0054241363 0.19795243 -0.2490227 0.16654007 0.013517875 0.6179977 0.8551098 0.47674093 -0.31944183 -0.5904949 0.15456001 0.44270065 0.13669479 0.4736783 -0.09070002 -0.23376743 0.04861826 -0.1759504 0.2298487 -0.017298905 -0.24005641 -0.27364913 0.11067476 -0.14604716 1.2209882 0.033653323 -0.1265614 -0.31050417 0.070264615 0.3938625 0.016214432 -0.3174873 -0.05833394 0.03883127 -0.48081365 -0.08531444 -0.36507475 0.0800507 -0.2086812 0.040204 -0.62101626 0.22044185 0.06605611 0.32339156 0.18206777 0.79204595 -0.11593205 0.07470284 0.3317959 -0.37943813 0.5935406 -0.09468396 0.10009199 -0.1265563 0.1491728 -0.246735 0.1528373 0.618636 -0.47646254 0.15758443 -0.22400688 -0.4811089 -0.29812512 0.08671227 0.12224742 0.33256522 -0.4337431 0.10440719 0.7003251 0.54279315 -0.59539276 0.01440402 0.43750492 0.098574035 0.15000024 -0.036905408 -1.12395 0.08979127 0.5734211 0.15266228 0.09301406 0.5850297 0.26338625 0.3659727 -0.1980559 -0.0799041 -0.049093675 -0.34863615 -0.22233513 0.2567491
34 0.06745541 0.15333484 0.5125673 -0.58541757 0.90067524 -0.6827273 0.08362708 -0.19453682 0.08546312 0.60378957 0.5706683 -0.25321358 0.30476663 -0.2893631 0.34721568 0.15035693 0.41954964 0.14024165 -0.25294054 0.43067655 0.18400197 -0.24156575 -0.43453836 -0.287745 -0.25915343 0.7318233 -0.09454796 -0.006905112 0.12162381 -0.2981523 -0.41642007 -0.14147277 0.056646947 0.20660579 -0.6241837 0.23218177 0.12115177 0.026019145 -0.27521998 -0.25873592 0.20468551 0.06343512 -0.37085605 0.2297949 0.5019559 -0.10465135 -0.5597454 -0.5347464 0.41066304 0.05084189 0.33995754 0.7178259 0.0854676 -0.20351116 -0.3473107 0.20576537 1.0430373 -0.030653497 0.03222777 -0.4014701 -0.5030059 -0.16019048 0.33203217 -0.31104115 0.8727231 -0.43362564 0.3930808 -0.2216029 0.20757854 -0.59069705 0.13628398 -0.4250484 -0.12783004 -0.18231015 0.061856102 -0.044882976 -0.025640475 -0.24820246 -0.54831785 0.07255344 -0.30289623 -0.21132733 -0.3984902 0.4508574 0.03778822 0.77109295 0.37842697 -0.58145934 0.09966435 0.76281714 -0.44329655 0.043958616 0.13844587 0.08102822 -0.19454595 0.015427932 -0.4196937 0.25795397 -0.2733716 -0.24437697 -0.6230545 -0.061807923 0.029427128 0.35631588 0.27245116 0.3216703 -0.22701186 -0.5062429 -0.3398346 -0.13459378 0.48133373 -0.09059459 -0.19877939 -0.31414202 -0.7719927 0.2830735 -0.07271047 0.09487424 0.12101472 0.38085994 -0.36433786 -0.30089104 0.14501555 -0.34407336 -0.21301138 -0.007267877 -0.24706604 0.5110472
103 -0.27680662 -0.44873047 -0.15034641 0.081946515 0.7713181 -0.57471174 0.12621255 -0.06631818 0.2653381 1.0392147 -0.4929035 -0.41585842 0.19048761 0.06357556 0.3767906 0.14970829 0.4623092 0.8478156 -0.52366006 0.29701152 0.3697878 0.14046094 0.09858687 -0.54550415 -0.183041 0.046462968 -0.106298655 -0.038397465 -0.120823145 -0.5151169 0.080608785 0.0684796 0.26483887 0.13795905 -1.0206887 0.24947256 0.22975212 -0.33819258 0.38254255 0.19928826 -0.08482367 0.21928048 -0.27863762 -0.010601078 0.3204785 0.32118645 -0.31291634 -0.07476658 -0.51167804 0.37189314 -0.028445376 -0.18713254 0.3190969 0.5484122 -0.4140661 0.50168496 -0.034158964 -0.40872508 -0.2929974 0.11780264 -0.30702353 0.66117746 0.78886235 0.02008194 0.68605137 -0.4203116 -0.37219593 -0.086918175 0.15094899 -0.3621939 -0.22514224 -0.14078438 -0.56496894 -0.09104333 -0.21292956 -0.36856803 -0.029766757 0.10617109 -0.8620143 0.24591573 -0.29261902 -0.33636743 0.104384005 0.26539123 -0.05390542 0.41761577 0.39172173 -0.19356379 0.4324787 0.4442761 -0.28239274 -0.5518886 0.13336773 -0.109607294 0.17932782 -0.03300631 -0.34897798 -0.60118043 -0.043711107 -0.25300962 0.10640042 0.27104875 -0.4280332 0.09316353 -0.27150586 0.10499702 -0.3423221 -0.18912585 -0.09676354 -0.23547058 -0.34471816 -0.64709896 0.18923473 -0.13497105 -0.80543953 0.3945358 0.21527159 0.10000031 0.34548673 0.42757925 -0.3004278 0.07946819 -0.37459725 0.20504874 0.42857358 -0.1329315 -0.19465874 0.15290825
75 -0.08941153 0.15189765 -0.6438539 0.17227693 0.63834345 0.07614592 0.25939572 -0.16918586 0.022958916 0.7173194 0.10808602 -0.6440044 0.60393095 -0.587017 0.03254962 0.21074931 0.16775121 -0.098413005 -0.70640427 -0.01327468 -0.41024902 0.276346 -0.6503936 -0.3399875 -0.35906473 0.27822468 -0.041708134 -0.14279316 0.03086427 -0.4394946 -0.40006053 0.4329788 -0.43116066 -0.2912093 -0.41783336 0.49917576 0.30515903 -0.103698224 0.187155 -0.2490132 0.23350507 -0.36258447 0.1839242 0.033048946 0.2057076 -0.012112305 -0.77094245 -0.38896343 0.21577892 -0.40167713 0.18401875 -0.12309981 -0.116035245 -0.3292315 -0.36464342 -0.2112464 0.6115248 0.007394056 -0.22417611 -0.17610815 -0.61660445 -0.0066131568 0.4257741 -0.46006492 0.6463428 -0.21370627 -0.12053825 0.15820101 -0.17458753 -0.53163356 -0.014953267 0.0064112796 -1.0234858 0.22882216 0.1644749 -0.5574536 0.083453424 -0.45166665 0.056170844 0.39549956 -0.034203872 -0.13245927 -0.1381599 0.39620417 -0.20825505 0.18578368 0.42915082 0.017432379 0.8114645 0.25577566 0.24864928 -0.41255334 0.7766406 -0.13106109 0.23937261 0.13607696 -0.6996042 -0.28859988 -0.4049873 -0.10411116 0.31401256 0.16989096 -0.03783225 1.029549 -0.20831147 -0.1441309 0.14121886 -0.24916531 -0.38542518 -0.076066725 0.02684885 0.054166872 0.12531395 0.267442 -0.44253752 0.35803935 0.16729622 0.7638045 0.2181831 -0.23517989 0.025557267 0.28964853 -0.0059777596 0.32917237 0.39297417 -0.29950643 0.13458772 -0.036121756
25 -0.16870211 0.12772578 0.32249126 0.21620107 0.5012679 0.03613266 0.21549341 -0.19634809 0.39687183 0.4950616 -0.052911088 0.118255146 0.09274287 -0.093418956 0.5485066 0.6906309 -0.41253656 -0.13722329 -0.7971404 0.467234 0.33794904 0.23324452 -0.18746951 -0.5470795 -0.27328116 0.8567031 -0.08716741 -0.013772889 0.1413514 0.051408097 -0.15041786 -0.3272241 0.20684846 -0.103777595 -0.0075508812 0.38502085 -0.06528551 -0.2580147 0.41109836 0.30878133 -0.5113026 0.1916267 -0.2850507 -0.2694656 0.1867901 -0.19610384 -0.09508358 -0.19634774 -0.31046155 -0.07755874 0.7737585 0.22508249 -0.3905481 -0.16717546 -0.60895693 -0.19800782 0.7951034 0.24823005 -0.28293642 -0.15666316 -0.5302538 0.31780118 0.28174734 0.2241895 0.21078783 0.16943036 0.74189115 0.15756027 0.053146783 0.04754823 -0.38030267 0.14739865 -0.6407755 0.3264614 0.48104075 0.0017227505 -0.18139958 0.45872712 -0.23339336 -0.2393928 -0.45276052 0.04682232 0.1964939 0.552842 -0.34771055 0.40772256 0.44222394 -0.18475048 -0.15469247 0.1869663 -0.021909526 -0.12131767 0.18439701 -0.15246478 0.12637365 -0.17092402 -0.5607773 -0.23903391 0.08367452 -0.065117374 0.079924084 -0.08199271 -0.017525733 0.4115183 -0.11953016 0.58780026 0.47975475 0.29241693 0.33879483 -0.23635335 0.069597416 -0.10762588 -0.34860966 -0.016247613 -0.41658205 -0.033365913 0.051936552 0.2395889 0.40130055 0.38682303 0.14155498 0.23344858 -0.3845409 0.38584784 -0.008230894 0.23442931 -0.05405471 0.15396234
74 -0.0017089767 0.3210368 -0.5249048 -0.043565597 0.48312482 0.17659262 0.17802195 -0.5264828 0.07034155 0.70615613 0.068571135 -0.63870764 0.6028411 -0.44813716 -0.14252914 0.45053765 0.004099001 -0.11832559 -0.71694034 0.2527351 -0.255525 0.32903448 -0.6120929 -0.21498491 -0.20824604 0.21864632 -0.1668972 -0.31307155 0.029487314 -0.35154125 -0.39678437 0.36216956 -0.4599564 -0.43984392 -0.1933602 0.48145837 0.43111974 -0.05682742 0.31502154 -0.24036922 0.28647283 -0.49770814 0.32506236 -0.009935025 0.18338796 0.1397244 -0.6427305 -0.48418292 0.056708556 -0.38710412 0.045198716 0.010903728 -0.056474205 -0.5292044 -0.4542315 -0.120501176 0.64497143 0.09655165 -0.033273045 -0.09172205 -0.46563688 -0.0068439385 0.4579295 -0.203688 0.6951328 -0.2716561 -0.012287257 0.1444093 -0.2499259 -0.56505746 -0.093341574 -0.067133635 -1.0287688 0.27740416 0.04210987 -0.5496813 -0.121362835 -0.168224 0.013522355 0.5061076 0.07552099 -0.12300831 -0.3806824 0.5249028 -0.22943981 0.18848652 0.24054481 -0.02880258 0.9316016 0.2121574 0.07988764 -0.30620602 0.7188659 -0.15274516 0.12186966 -0.034682877 -0.6768028 -0.04400507 -0.48304638 -0.1689118 0.30013815 0.22247675 -0.09375195 1.0102953 -0.43093678 -0.08519119 0.15989952 -0.06299537 -0.5433785 0.054465145 -0.040841717 0.031862173 0.077040106 0.14153476 -0.5682784 0.40283206 0.12612127 0.86448526 0.16503799 0.0022171484 -0.02870106 0.37952307 -0.101984754 0.46739563 0.2596167 -0.3695431 -0.18213652 -0.18756871
104 -0.21622263 -0.3921945 -0.016757235 -0.10016492 0.738922 -0.50203764 0.18050076 -0.15793465 0.1291025 0.7678308 -0.5224705 -0.439271 0.046874076 0.25405708 0.52501357 -0.02177727 0.108290486 0.8012785 -0.5458963 0.21971077 0.30268463 0.0872707 0.14052531 -0.66622066 -0.28095874 0.052219722 0.11879558 0.1290295 -0.27652532 -0.34287888 -0.043448333 -0.13469824 0.3578283 0.077275 -0.9404309 0.12591979 0.03548039 -0.13596143 0.33737674 0.20764944 -0.15878506 0.26009506 -0.32288334 0.08153379 0.3658101 0.3748434 -0.2041331 -0.25927487 -0.50615615 0.36834976 0.025453284 -0.12440416 0.35727876 0.49699816 -0.2246699 0.5961624 -0.20165575 -0.2823294 -0.40449762 0.03322332 -0.29826346 0.76001287 0.87077534 -0.016988032 0.7473404 -0.3195632 -0.46525377 -0.17341767 0.13057053 -0.4145885 -0.1777423 -0.10375771 -0.6865677 -0.30228442 -0.2190473 -0.2380995 0.011998461 0.10880043 -0.8620999 0.1519932 -0.108325966 -0.2400081 0.33390492 0.3768194 -0.15263112 0.19272551 0.37867826 -0.33004653 0.2749094 0.12569344 -0.33318543 -0.53207237 0.15626775 -0.061036266 0.20614672 0.094821736 -0.41146353 -0.6633462 -0.114996925 -0.37830883 -0.016523214 0.27626354 -0.30328888 0.18052761 -0.40150377 0.21104482 -0.30681762 -0.26945075 -0.12291939 -0.31967947 -0.32182008 -0.53194875 0.12692705 -0.06896352 -0.973162 0.5250393 0.19253892 0.098555714 0.3976508 0.57877505 -0.1648606 0.27548015 -0.32446328 0.42807585 0.36309907 -0.13932239 -0.264334 0.076101035
8 -0.09090417 0.14253427 0.5401283 0.30994487 0.4167414 -0.025306279 0.49126768 -0.34382778 -0.40465868 0.7867585 0.26764214 -0.17225794 0.23007935 0.18858561 0.2666719 0.18818218 0.46265566 0.25331342 -0.2021322 0.38715178 -0.5413007 0.22235344 -0.3254083 -0.5360478 -0.53920406 0.5660637 -0.47239783 0.58953524 -0.2169134 -0.18491447 -0.18449134 0.26847854 0.23545904 -0.620108 -0.5492795 0.049236387 0.7613277 -0.50537497 0.39172876 0.13702893 0.34838355 0.44597661 0.16937631 -0.0018682267 -0.03881225 -0.086408265 -0.15134643 -0.20175737 0.31426364 0.64618176 0.25273675 0.46237212 0.35232893 -0.47534868 -0.4666999 0.03808539 0.15031518 -0.26950613 -0.018490557 0.16569811 -0.33044145 -0.33008775 0.19683181 0.29085007 0.50236243 0.2454062 -0.27013966 0.22063138 0.12300199 -0.6287579 -0.41555452 -0.34871203 -0.72370845 -0.55173457 0.18716566 -0.013841994 -0.63698703 0.12902473 0.24148113 0.42449176 -0.12580653 0.2636293 -0.10277288 0.6970955 -0.26834393 -0.12049212 -0.06553455 -0.56997156 0.85537696 -0.1299524 -0.5424243 -0.21591072 0.28857452 -0.073549986 -0.35366186 0.22491363 -0.46914312 -0.16592892 -0.42903793 -0.34126568 -0.42403647 0.3964897 -0.22884063 0.20550363 -0.32275426 0.6386262 0.47783515 -0.13951056 0.32318562 0.05590969 0.3716597 -0.60141796 -0.13033928 0.0057077445 -0.30818647 0.03553778 0.043659974 0.3170928 0.6871067 0.23997101 -0.43251568 -0.04401803 -0.27355382 -0.030876925 -0.16614653 -0.19681047 -0.03041849 -0.104657486
88 -0.45119527 -0.004950767 -0.17520387 -0.01730435 0.20527896 0.18741001 0.17225872 -0.22342323 -0.22637938 0.7203342 0.37135327 -0.037681185 0.060592085 -0.55040425 0.18657757 -0.3841792 0.029966578 -0.2571564 -0.16747583 -0.05717698 -0.023019118 0.19267689 -0.5416904 -0.69047624 -0.39593434 -0.22582684 -0.31551263 -0.50627565 -0.26051697 -0.70425093 0.66181993 -0.25452173 0.08202525 0.17058355 -0.44830742 0.37734964 0.5135941 -0.08968895 -0.19918472 0.08348965 0.35284513 -0.47892994 -0.5673743 0.11079159 0.61461174 -0.232415 0.19269319 -0.24050269 -0.01964939 0.2992053 0.14650309 0.48323646 0.44029415 0.46844965 -0.04253515 -0.07846701 0.22098166 -0.07166678 -0.31439218 0.30059034 -0.24716245 0.1938275 0.32440564 0.04271714 0.29171872 -0.16822636 0.0008140074 -0.23169608 -0.3507023 -0.48470742 -0.12998232 -0.523374 -0.035015058 0.06852672 -0.18520427 0.12884615 -0.37883514 0.0025104072 -0.31852856 0.012283434 -0.067452766 0.055963412 -0.23250239 1.0438337 -0.31674433 0.7408873 0.37457177 -0.18955229 0.16669837 -0.37406301 -0.03650389 -0.054490473 0.48893914 -0.075780615 -0.1905698 0.15060464 -0.12251181 -0.25112113 -0.40903082 -0.23124848 0.013298783 -0.3272902 0.063942894 0.26668218 -0.11055338 -0.079668105 -0.059353672 0.15317121 -0.044415336 -0.09240593 -0.02013534 -0.16070007 -0.1613399 0.532912 -0.5659515 -0.067054585 -0.60427195 0.31501952 0.13814081 0.2723974 -0.14434166 -0.39762968 -0.12137367 0.09180452 -0.012710262 -0.3919361 -0.057280805 0.26670665
35 0.062247105 0.16875133 0.41765666 -0.42399704 0.9635914 -0.64064884 0.3114973 -0.21609552 -0.22879282 0.5176943 0.4872852 -0.3542222 0.25328606 -0.3311285 0.38220045 0.16759093 0.58326316 0.26133052 -0.20713016 0.64373595 -0.0049635977 -0.09978222 -0.32307103 -0.1972845 -0.19234587 0.7532244 0.020346992 0.2811188 0.11423325 -0.24905166 -0.42849553 -0.088358074 0.0685769 0.1534835 -0.67244256 -0.077834845 0.18606617 0.060999796 -0.17776284 -0.25026155 0.13657823 0.0034403447 -0.24902743 0.243729 0.43654972 0.07435963 -0.4590428 -0.5362572 0.43866292 0.12614192 0.2112775 0.6444661 0.31347024 -0.049317393 -0.44864282 0.25822598 0.93721634 -0.0766441 0.17983145 -0.34594366 -0.38502085 0.0051864674 0.54090154 -0.47640225 0.828094 -0.4809473 0.45236653 -0.24624777 0.14628743 -0.6262569 0.1555785 -0.35768747 -0.35010898 -0.24887356 -0.029179929 0.08487297 -0.00092495896 -0.2254259 -0.7047443 0.028146382 -0.21647562 -0.05047661 -0.39863762 0.5541218 -0.026946574 0.7704233 0.19837368 -0.575594 -0.061730172 0.5096981 -0.20010182 -0.17734568 0.17440706 0.011256028 -0.28733787 0.027388463 -0.2824927 0.29080284 -0.17926231 -0.28726405 -0.55943453 -0.11337403 0.02142412 0.59295994 0.24510369 0.24659756 -0.07413713 -0.43975493 -0.2012742 -0.30872986 0.4819732 -0.12294838 -0.26590425 -0.30670178 -0.80054355 0.28256604 0.17896724 0.16938151 0.21766204 0.39411676 -0.30764258 -0.04836114 0.11499821 -0.29658595 -0.35816288 -0.05809076 -0.3615697 0.41719615
10 -0.014022224 0.020032609 0.024398012 0.30479074 0.37507933 -0.017761257 0.9381768 -0.7039483 -0.5290765 0.14333974 -0.31636724 -0.42399496 -0.053951774 -0.5111267 0.30217913 0.26362208 -0.059195235 -0.016169135 -0.33995494 0.35871816 -0.06395093 0.5971497 -0.35427067 -0.5985143 -0.56588113 0.30934075 0.012204924 0.2771419 -0.4557991 -0.2257277 -0.45718428 -0.27136558 0.35238376 0.13784571 -0.31598052 -0.10747516 0.18278424 0.22811802 -0.16528545 0.2695454 -0.43974286 0.006373244 -0.06882249 0.62344223 0.7081645 0.3036756 -0.26253176 -0.565222 0.04233486 0.3533648 -0.06555753 0.6720172 -0.08639078 -0.3231405 -0.13254316 -0.087795526 0.41241318 -0.0666869 -0.27803838 -0.31852087 0.32718667 -0.14737059 1.2337474 -0.096125625 -0.27528125 -0.31401885 0.15386257 0.47231957 -0.1481625 -0.25987357 0.058640588 -0.02883502 -0.4110401 -0.0021380684 -0.2876402 0.0779223 -0.45023388 -0.06303819 -0.51081616 0.13428596 0.052975867 0.19639906 0.04458407 0.78569967 -0.25924695 -0.01624179 0.22971834 -0.5247527 0.7118822 -0.15416269 0.23487343 -0.010304742 0.31425944 -0.19453995 0.14272268 0.6048539 -0.49979702 0.055264056 -0.47624806 -0.5252578 -0.24392004 -0.03590134 0.12032806 0.19569959 -0.536456 0.20017226 0.64035 0.3571761 -0.62460315 0.061171237 0.35076752 0.065796815 0.15190369 -0.12541947 -1.0034477 -0.046512578 0.39807326 0.16377753 0.097027555 0.25097162 0.12919275 0.43386585 -0.1984694 0.11118443 -0.12641253 -0.38359496 -0.2840757 0.4208913
107 -0.21865691 0.092503585 0.4456858 -0.24879733 0.41801345 0.18959288 -0.17360564 -0.45594484 0.11088132 0.84193546 0.124559104 -0.27810878 0.5077598 0.13187428 -0.06250536 0.3806807 0.6730341 0.32488257 -0.2825803 -0.042189665 0.37918082 0.092995085 -0.3300419 -0.68331873 -0.20884533 -0.0054341746 -0.089514434 -0.4733456 0.06518303 -0.4418487 0.019104863 0.12039824 0.033917982 0.25355527 -0.080117285 0.43158075 -0.13808449 -0.7528515 -0.40247703 0.3255603 -0.3307246 0.41966212 0.059986785 -0.41856375 0.2928935 -0.30917475 -0.5790134 -0.8279897 0.081501104 0.33205113 0.7349338 0.19417304 -0.17896278 -0.28597432 -0.34162912 0.064548686 -0.0683246 0.23653789 -0.3824906 -0.13925369 0.13746291 0.012355241 0.12829491 0.04522114 0.66604906 -0.17596905 0.19419688 0.023810402 -0.25611982 -0.54047436 -0.4935318 -0.24119163 -0.550027 -0.11472236 0.549102 -0.566801 -0.29932368 -0.16267617 -0.6743009 0.21387768 -0.055527866 0.23970938 -0.09652738 0.6537234 0.27853286 -0.06717001 0.18331486 -0.5403436 0.051116277 0.20035866 -0.23236549 0.019776735 -0.16596766 -0.018259851 0.06782056 0.76774627 -0.03596186 -0.19953412 -0.7505538 -0.43012294 0.25324428 -0.31523144 0.2577971 0.1741241 0.08115649 0.06392036 0.0024564418 0.025958344 -0.016071295 0.28487632 0.054450836 -0.20473133 0.38262856 0.1778017 -0.42527217 0.55882645 -0.12494084 0.18487084 0.525403 -0.21028887 -0.10436256 0.3352611 -0.04115913 0.09303268 0.46445256 -0.051633183 -0.17871773 0.34920347
112 0.02141934 -0.040260088 -0.09063782 -0.16168469 0.86022145 -0.21475121 0.57931817 0.02010333 -0.19170415 0.5370349 0.16062172 0.077014334 -0.09747811 0.121065855 0.2530929 0.19676098 0.5327148 -0.3657898 -0.7782377 0.53901106 0.39019644 -0.12969403 -0.81239825 -0.58342576 -0.38792804 -0.035879962 0.03401287 -0.08399632 -0.20771971 -0.5341124 -0.43267974 -0.40133488 -0.0029926968 0.15365092 -0.53457487 0.4664212 0.27089512 -0.19338673 0.2909515 -0.3905653 0.4365042 0.36077204 -0.36694774 -0.20339449 0.20260796 0.2027513 -0.28964454 -0.021993862 -0.21816511 -0.034827508 -0.09347834 0.09429201 0.13727997 0.18766008 0.10313128 -0.24513113 -0.014885853 -0.13233218 -0.29050416 -0.14099365 0.12935905 0.089970015 -0.034960806 0.25379273 0.3226734 -0.021408442 -0.14099851 0.5678347 -0.5658161 -0.47781527 0.014524751 -0.024259755 -0.14151944 -0.50177795 0.5393622 0.124633215 -0.56835777 -0.49776205 0.053864833 0.083330035 -0.32900897 -0.29898918 0.33857214 0.45952302 -0.20693581 -0.21689264 0.19963214 -0.01994822 0.67634135 0.39214754 -0.3053878 0.12546845 -0.08829832 0.01962965 0.23711951 -0.15240319 -0.21391587 0.059543014 -0.23154175 -0.45768875 0.29994294 -0.19937879 0.093686685 0.25463176 -0.03461495 0.20089994 0.16407815 -0.0028552886 0.033812243 -0.02560584 0.1672685 0.3622748 0.1361569 -0.7554597 -0.82518667 0.23059012 -0.09635692 0.19021313 0.44764933 0.32309443 0.25277147 0.5509136 0.041786157 -0.14387934 -0.3516326 -0.02199213 -0.055189956 0.26347464
56 -0.1732111 0.3807866 -0.12463679 -0.3696147 0.14583023 -0.23872626 0.4042335 -0.32952464 -0.37569058 0.67060906 -0.14698094 -0.032123465 0.22537763 -0.105075374 0.58665645 0.1019805 0.19817503 -0.11981079 0.12633952 0.21702051 -0.38877332 -0.03226939 -0.44564128 -0.08935056 -0.3602756 0.22760274 -0.047542553 0.058139965 -0.52486086 -0.1855813 -0.12158536 0.00013374524 0.22868238 0.39526808 -0.19033036 0.49367085 0.059324346 -0.06661799 -0.47619477 -0.16886611 0.17287575 0.3377186 -0.41033852 0.20876169 0.32283553 0.25536245 -0.16800535 0.21511082 0.19177501 0.31875774 0.042668797 -0.11929793 0.11821321 -0.41511783 -0.33825684 -0.24875008 0.29572204 -0.020694317 -0.07909618 0.39732352 -0.56752783 0.30477467 0.3388994 0.20698158 0.4777208 0.25579995 0.039235108 -0.16822398 0.014379269 -0.3990822 -0.24961138 -0.2985772 -0.22863881 -0.29047063 0.7227571 -0.2226702 0.13838154 -0.61967653 -0.8224288 -0.36953583 -0.044612166 0.016518544 -0.5555299 0.2294275 -0.4589124 -0.17413738 0.30391955 0.15295047 0.0318052 0.26498717 0.0017977386 -0.82713026 0.6752153 0.22126077 -0.04933791 0.5481303 -0.42230478 -0.12983143 -0.123959474 -0.3439438 -0.25265005 -0.060952578 0.20705107 0.22821863 -0.5441642 0.3848793 0.15515769 -0.0062890463 -0.44551998 0.4344618 -0.021901323 -0.06480779 0.38332987 -0.57228875 -0.4186793 0.14675575 0.09321336 -0.1550883 0.33207396 0.037061356 -0.20210071 0.13772886 -0.6702703 0.38104543 0.11636823 -0.10176164 -0.48349372 0.02073201
115 0.36920756 -0.16887812 0.5391212 -0.13551514 0.53118956 -0.24684481 0.19852695 -0.53894687 -0.14521772 0.34690052 -0.23718512 0.1883933 -0.28458402 -0.24624504 0.30953896 0.3138645 0.053635396 0.1257862 -0.2522814 0.47521427 0.37280348 -0.10737839 -0.116616346 -0.3782727 -0.56991434 0.012376683 -0.15172142 -0.109040774 0.17325385 -0.3685591 0.16443263 -0.3530669 0.30202904 -0.1797234 -0.17015769 -0.0957152 0.24911867 -0.4793049 0.043727793 -0.088786125 0.40744728 -0.17759714 -0.15109749 0.1397326 0.22644177 -0.26461002 -0.29810598 -0.09273666 0.028312579 -0.13879588 0.5165799 -0.32296458 0.40437993 0.12868167 0.028836416 0.41262314 0.24996452 0.2859161 -0.20201625 0.8069499 -0.30302837 -0.08340072 0.21169172 0.1034054 0.015365091 0.03261235 0.36151168 0.31050545 0.16017236 0.02033693 -0.082288615 -0.53289443 0.0028041825 0.47786996 0.08776525 -0.15014319 -0.16128118 -0.5600084 -0.12280177 0.22990555 0.09459988 0.24806482 -0.16813985 0.26034456 -0.3715696 0.33487687 0.53224164 0.17452718 0.18699184 0.14064752 -0.10685294 -0.52622724 0.64841694 -0.12406849 -0.41005647 0.24820125 -0.38942215 0.6487567 -0.5672876 -0.19811937 0.28043607 -0.037724562 -0.3746257 0.34963438 -0.42521146 -0.20662156 0.3989574 0.34131142 0.12320582 -0.44093555 0.021994699 -0.5238646 -0.35572907 0.408465 -0.9306417 0.40102473 0.06749803 0.44596955 0.22861896 0.36688852 -0.41073605 0.17697582 -0.20150104 -0.08930993 -0.09540555 0.21705772 -0.17079294 0.05432083
105 0.094927944 -0.43239713 0.25485733 -0.22416022 0.32669798 -0.19342001 -0.019932458 -0.41512024 -0.19465508 0.4992503 0.14091252 -0.07235959 -0.4159099 -0.11253336 0.04101238 0.10389681 -0.01688292 -0.39433238 -0.21600752 0.27496022 0.17995998 -0.16085875 -0.14759025 -0.67253035 -0.5164244 0.31951016 -0.39461827 -0.16816434 0.0651934 -0.4406718 0.2326328 -0.25145483 0.25045288 -0.014519031 -0.077336535 0.038788848 0.04736936 -0.26347008 0.067077234 0.2970611 0.36856186 -0.4621868 -0.53674716 -0.1577203 0.376267 -0.48919073 -0.189181 -0.13076371 -0.015061323 -0.1011711 0.29413658 -0.13372935 0.39588025 0.29170448 0.09969382 0.009121439 0.43879488 0.13188246 -0.104726486 0.7492733 -0.37561888 -0.072760165 0.19964378 0.3733394 0.1007055 -0.19612987 0.11374488 0.2160176 -0.38938367 -0.15502186 -0.086605854 -0.5224832 0.18339993 0.09402198 0.05183146 -0.18774837 -0.20875181 -0.3388661 -0.31521338 0.11515587 0.26594624 0.09375881 -0.3749708 0.68633866 -0.2024346 0.35692868 0.38516337 -0.107498124 0.07897115 0.022957368 -0.07129243 -0.42330936 0.57896405 -0.08827327 -0.49958095 0.14008209 -0.313772 0.059964057 -0.33683887 -0.3716479 0.082234696 -0.20535332 -0.4349916 0.3416406 -0.43014038 -0.13841282 0.24147846 0.26145613 -0.079659104 -0.5814262 -0.05589275 -0.35467324 -0.39648306 0.44090274 -0.8562857 0.33853075 -0.36856964 0.5265762 0.2578948 0.69393003 -0.2155196 -0.106970794 -0.20873772 0.21760084 0.047719225 0.2827271 0.07257431 -0.12805106
46 -0.31901816 0.42169166 0.6124426 -0.8052769 0.28054848 -0.22495984 0.27693594 -0.28976747 0.0319125 0.47253194 0.3202055 -0.3982329 -0.196078 -0.19573371 0.092996225 0.782389 0.008020947 -0.059802275 -0.74596196 0.35930777 -0.42750257 -0.008603995 -0.7789518 -0.48728183 -0.5233691 -0.11956748 0.4483307 0.24739185 -0.22234026 -0.31321672 0.020964833 -0.0237705 0.0922662 -0.16862088 -0.7150125 -0.031682584 0.14452995 -0.51024085 -0.2701643 -0.11785188 -0.29845515 0.037841324 0.23028615 -0.041960508 0.043640263 -0.037470378 0.2631098 -0.47945228 -0.21392548 0.18582045 0.3912276 0.029167991 -0.06003839 -0.33803535 0.15687121 -0.26613894 0.85213536 -0.2733362 -0.3797855 0.26817667 -0.21430057 0.73247784 0.0153473 -0.5952609 0.32545424 0.049680162 -0.2563122 0.12544371 -0.50015926 -0.059177328 0.110859014 -0.36953703 -0.7827571 -0.2705594 0.11947595 -0.31855938 -0.09939496 -0.33659926 -0.5186326 0.28690818 0.17455386 -0.016754482 0.2525357 0.04126608 -0.24382955 0.58079505 -0.037277468 -0.19189563 0.2666168 0.1447907 -0.34673157 -0.1676511 0.36369583 0.03024806 -0.21422464 0.3395649 -0.14823987 -0.044562466 0.056227095 -0.7485362 -0.30583498 -0.012068106 -0.3917926 0.41423774 -0.050299864 0.14742659 -0.3131071 0.5855344 -0.14077032 0.02259541 0.41224235 -0.01694389 0.33717513 0.30444428 -0.464645 -0.09076714 0.16282566 -0.111016825 0.20763366 0.086150326 0.28508016 0.03994903 -0.06395425 0.16043961 -0.012978709 -0.20404848 0.28692922 -0.19930491
60 -0.16107436 0.35683987 0.09125369 -0.23710571 0.33153647 -0.02259307 0.33092138 -0.03282251 -0.30534807 0.53530437 -0.1954671 -0.004384521 0.097587235 0.13881426 0.7664056 -0.05684919 0.029997531 -0.003217099 0.08558047 0.6502381 0.42754054 -0.2997356 -0.8957338 -0.17324279 -0.4917964 -0.20436281 -0.048087314 0.32216835 0.19230711 -0.32359874 0.14499274 0.56144613 0.25208142 0.37095347 0.083021015 0.45579833 0.32874882 -0.22626217 -0.42791197 0.098162316 -0.037374265 0.2710705 -0.1842458 0.1926198 0.44609427 -0.08452442 0.2953035 -0.13309045 -0.08893675 0.05894441 0.2478407 -0.01718877 -0.060942367 -0.4193829 0.023984283 0.44068494 0.32691178 0.24133939 -0.10095461 0.254029 -0.7311777 0.19744875 0.45908278 0.2951331 0.33633098 0.22614454 0.21991295 -0.17238083 0.22575054 -0.7012895 -0.06685892 0.091362566 -0.53793985 -0.26602006 0.66591656 -0.32497182 -0.02740314 -0.38320202 -0.42023373 -0.21072528 -0.18190016 -0.0821261 -0.39998198 0.3172661 -0.47702807 0.18591374 0.07956076 -0.28507328 0.25895992 -0.053009313 -0.08899224 -0.53839195 0.49990126 -0.10987665 0.07276806 0.47648773 0.044511963 -0.1071099 0.03887575 0.034735598 -0.21907626 0.12984005 0.1297788 -0.034026697 -0.6469012 0.56820124 0.2296875 -0.2245565 -0.6792353 0.21328503 -0.030555256 -0.23107645 0.20579296 -0.3890643 -0.39238483 0.061293915 -0.029473182 -0.09728219 -0.12983721 0.18115692 -0.17682065 -0.41468358 -0.4870679 0.26162136 0.020618545 -0.28067255 -0.73408896 -0.013696268
109 -0.3793757 0.046606995 0.25327772 -0.07776572 0.6856049 0.21885826 0.007982157 -0.1508826 0.26030818 0.79433316 -0.20923519 -0.23009236 0.5007683 0.13295121 -0.12150078 0.27280197 0.32790253 0.34642315 -0.40502098 -0.022903549 0.17665176 0.24839605 -0.3164639 -0.36187443 -0.12752397 -0.056014538 0.23742795 -0.3832436 -0.008718011 -0.15025578 0.24451415 -0.07860979 -0.101240106 0.16062541 -0.1783196 0.20984453 -0.19055001 -0.7609437 -0.34948504 0.52430063 -0.25988016 0.54819876 -0.18318328 -0.30490184 0.28025717 -0.23603709 -0.541247 -0.6723115 0.29304725 -0.042351298 0.37446374 0.40658706 -0.13705583 -0.21889895 -0.12734628 0.41734132 0.027966104 0.12994136 -0.34178928 -0.12475139 0.35036713 -0.2374964 0.25440186 0.33552477 0.6371257 0.13026775 0.23413041 0.07608623 -0.49763453 -0.500503 -0.41627184 -0.6659773 -0.41407257 0.12539443 0.6438933 -0.5308129 -0.1891416 -0.37973732 -0.52106965 0.06327816 0.043186344 0.28970397 -0.38861015 0.6081317 0.05468601 -0.005991533 0.4096166 -0.3472 0.33942825 0.45107624 -0.10664296 0.06758915 -0.007471355 -0.21384886 0.13658026 0.7924142 -0.35763937 -0.021672959 -0.5793644 -0.46716616 0.27554938 -0.32607445 0.01227208 0.29589468 0.13839771 0.25865713 -0.12309775 -0.15138227 0.13734062 0.45811513 0.35919157 -0.059104495 0.270764 0.3825272 -0.49895504 0.57179415 0.010078995 -0.17067067 0.5489857 -3.547021e-05 -0.40237108 0.2512288 0.13609633 0.29130644 0.33395293 -0.2226407 -0.014509075 -0.009313533
59 -0.15951186 0.3019897 -0.18423696 -0.074214 0.29827338 -0.040304698 0.29607555 -0.071551204 -0.38671082 0.41210714 -0.22397202 -0.18886653 0.22402026 0.031951133 0.6856283 -0.040842976 -0.19966361 -0.07550305 -0.12104438 0.596084 0.28174347 -0.28880656 -0.8775686 -0.18289407 -0.48751017 -0.29542288 -0.24691246 0.12572114 -0.30899101 -0.3057027 -0.015340971 0.6323193 0.29697707 0.3490119 -0.014613096 0.40726092 0.11603016 -0.12062781 -0.32559735 -0.07122276 0.0692568 0.2632251 -0.07813419 0.12083465 0.21207134 0.107762225 0.039052997 0.11107438 0.088241026 0.07118722 0.14555234 0.012173178 -0.07111579 -0.4541721 -0.26100862 0.07910027 0.41529724 0.29514053 -0.08729865 0.34165236 -0.7380557 0.10443402 0.41003758 0.45193478 0.34047467 0.3131041 0.017198317 0.04295575 0.13992126 -0.58627236 -0.25539196 -0.29205316 -0.39602423 -0.40032938 0.73088604 -0.2965449 -0.020714935 -0.47284386 -0.7258606 -0.27563438 0.039609943 -0.17025293 -0.44114935 0.2774062 -0.3154923 0.045172945 0.107433446 -0.04558559 0.1064438 -0.12968037 0.020200403 -0.6184676 0.61192924 -0.019476263 0.02869359 0.3670931 0.062360525 -0.0015164387 0.0005282093 -0.1083329 -0.2949299 0.08733515 0.13132492 0.030406745 -0.6531332 0.5680497 0.3355149 0.09050125 -0.45439616 0.291411 -0.039995056 0.0082332 0.5007484 -0.5326683 -0.2166479 0.12203471 -0.11312979 -0.16627261 0.022348369 -0.0029774315 -0.28394914 -0.20230833 -0.27795544 0.4918726 0.13748612 -0.23154409 -0.49195915 -0.19593056
47 -0.17356072 0.08112731 0.4795792 -0.88409215 0.33749077 -0.094902515 0.34110636 -0.5056076 0.10800212 0.2789681 0.37842286 -0.20602858 0.013364221 -0.24597241 -0.02726898 0.7800321 -0.059332833 0.080981664 -0.73197234 0.47193977 -0.38053447 0.07429805 -0.6939241 -0.734681 -0.36988372 -0.05616674 0.41737327 0.20761997 -0.20080416 -0.1298757 0.04885256 -0.106679395 0.12720819 0.064251356 -0.8079475 -0.045025952 0.30285394 -0.68291104 -0.21754828 -0.05831464 -0.3052876 -0.03154534 0.26549152 -0.16820797 -0.049623955 -0.051037934 0.17362705 -0.5121377 0.07099866 0.39797816 0.24916048 -0.091930576 -0.1438766 -0.15660672 -0.14426002 0.10128713 0.74316233 -0.4013178 -0.3618906 0.33290192 -0.37650257 0.6650659 0.08094828 -0.48629498 0.22579756 0.19027591 -0.051706806 0.08523517 -0.5369133 -0.036093455 0.18569933 -0.42656225 -0.7131089 -0.17400105 0.25421634 -0.351146 -0.03404727 -0.370687 -0.26992455 0.32636535 0.08727189 0.009325888 0.26091677 0.29784366 -0.61452425 0.56984216 -0.46936873 -0.26936242 0.31484354 -0.021117087 -0.31325978 -0.17329924 0.36579183 -0.020563077 -0.10436407 0.2561481 -0.2940179 0.18682681 -0.2089646 -0.5179854 -0.32958096 0.08138692 -0.2603944 0.3555928 -0.114774995 0.46075168 -0.1707966 0.2659642 0.076817095 0.03068108 0.13626002 0.056702927 0.27659962 0.37442902 -0.35185254 0.048581906 0.100282155 -0.39124417 0.22403696 0.12524247 0.3639925 0.05202586 -0.027373852 0.3121237 -0.1883266 0.015012367 0.15995109 -0.13016322
42 -0.29728916 0.42666128 0.09471601 0.12435775 0.6809698 -0.43319973 0.34846148 0.12187768 -0.04969362 0.5369841 -0.12341174 -0.08036965 -0.18434511 -0.3617782 0.115057595 0.4601043 0.030763421 0.3713062 0.09492506 0.22665809 0.08228368 0.46136558 -0.7718826 -0.71826375 -0.29143703 -0.3655422 0.052119154 0.11555354 -0.6703787 -0.009421949 -3.1716772e-05 -0.15652987 -0.24708262 -0.25668594 -0.52391964 0.063044004 0.13097674 -0.3742413 -0.11215234 -0.00015621136 0.5442813 -0.023652723 -0.1903776 0.5034268 -0.2188015 -0.2034658 -0.1484865 -0.5678785 0.0064630974 -0.1324656 0.24561176 0.5098654 -0.16225593 -0.32894707 0.1818986 0.09241925 0.6437865 -0.13441564 -0.45667988 0.4972956 -0.022313984 -0.0070732976 0.59696746 0.002609369 0.0240131 0.110150024 0.18600431 0.030049177 0.101442695 0.025818404 -0.23209688 -0.6781464 -0.4659663 0.14495969 -0.1191801 -0.06007719 -0.030126264 -0.7135702 -0.31521368 -0.24941537 -0.2528776 0.20736057 -0.011269449 0.00591004 -0.17751388 0.0155177945 0.21662305 0.12659922 0.39719543 0.24013594 -0.2984377 -0.5603144 -0.21383066 -0.3435964 -0.22770974 0.19460616 -0.26925325 0.5009835 -0.48892015 0.009982802 0.6342539 0.035893537 -0.08842818 0.41676942 0.095902875 0.070768274 0.5201082 -0.53868335 -0.098098874 0.21348573 0.40110418 -0.36397934 -0.37874997 0.1619425 -0.78224975 0.7309446 0.14624605 -0.25087205 0.4602222 0.49346074 -0.3963606 0.3353532 0.17627351 0.2471436 0.17453705 -0.4798722 -0.16667244 0.111833274
108 -0.18969828 0.04223635 0.21346301 -0.14892259 0.41152292 0.33927375 -0.13615459 -0.4224937 0.26310965 0.6792022 -0.10465949 -0.29142258 0.43479005 0.027856905 -0.008449522 0.39560086 0.56616044 0.34435084 -0.3067184 0.01975242 0.3233793 0.1615763 -0.3478039 -0.54655766 -0.29054087 0.023494115 -0.050056163 -0.41090938 -0.05780025 -0.26403078 0.19435062 -0.025908038 0.007730169 0.02796217 -0.21753295 0.2783678 -0.18703148 -0.73587036 -0.34446406 0.49390125 -0.20126179 0.61537117 -0.0020550797 -0.23380375 0.16941327 -0.18047088 -0.48787072 -0.7436712 0.0011543313 0.07312806 0.7521614 0.23258963 -0.12085794 -0.21670787 -0.037923526 0.19370376 0.036887255 0.10510688 -0.4108599 -0.19100125 0.1985748 -0.21820807 0.1408123 0.21413764 0.64698875 -0.13242538 0.24512063 0.10222544 -0.2990718 -0.46705636 -0.5552961 -0.50685585 -0.57824016 0.0343159 0.67281127 -0.41735533 -0.35104072 -0.0630257 -0.74482155 -0.035152484 0.015088803 0.30939275 -0.3283113 0.5249949 0.21914247 0.0048652715 0.20555668 -0.37269405 0.27492246 0.28326443 -0.31767538 0.0862691 -0.23119992 -0.01965654 0.18436849 0.64510643 -0.08270005 -0.13124461 -0.9464523 -0.41698375 0.06507169 -0.39152098 0.34125924 0.1293757 0.06677056 0.12603056 0.16474089 -0.20883334 0.015136824 0.31963348 0.31040508 -0.24861433 0.2804356 0.27339086 -0.44998866 0.6652376 -0.06599313 0.005433738 0.5753496 0.045900322 -0.19476321 0.37774807 -0.008913495 0.31521556 0.30719358 -0.3524074 -0.019173697 -0.08205103
99 0.39442423 -0.11429621 0.5919082 0.057881832 0.4180081 0.06681739 0.3635362 -0.24835612 -0.46141198 0.34748608 0.22859097 -0.5041084 -0.23831294 -0.4791193 0.43607467 -0.131169 0.25822964 0.10775238 0.3221198 0.24741311 -0.26821783 0.43160048 -1.2345562 -0.9048552 -0.53436375 0.16056629 -0.072379835 -0.068771236 -0.25081015 0.020267718 -0.2987527 0.33845174 0.34696615 0.07220328 0.24487187 0.056417808 0.31153393 -0.3584468 -0.32293132 0.069405586 -0.050751623 0.36033264 0.024412073 -0.4263129 0.4009144 -0.3401401 -0.6715897 0.047835037 0.20871569 -0.18914163 0.67697084 0.013243853 -0.042632744 0.065770075 -0.39703658 0.25216857 0.2368465 -0.38221207 -0.30557263 0.021218244 0.045794472 0.09573626 0.097889885 -0.28919205 0.29415885 0.15896149 -0.21773204 0.053159583 -0.14193302 -0.45443162 -0.37392443 -0.50485826 -1.0168184 -0.33061826 0.21526712 -0.15456288 0.11282035 -0.46263087 -0.3581879 -0.2628831 -0.0031337286 -0.089898564 0.119980015 0.8138906 -0.24114984 -0.066920556 0.5997348 -0.32652792 0.11940464 0.24166907 0.42604178 -0.44985268 0.047239706 -0.2573648 0.22901219 -0.22763482 0.3690216 -0.31599513 -0.37242523 -0.5246983 -0.11511729 -0.061306708 -0.034527317 0.6616468 0.115084365 0.1538395 0.06218429 0.17307557 0.20730673 -0.35041043 0.63223433 0.033714477 -0.26761684 0.039915796 -0.92676336 -0.21575303 0.5615937 0.22632727 0.0086255055 0.17360014 -0.038439944 0.20897517 -0.32220244 0.1612693 -0.4665006 -0.08240196 -0.03785236 0.123097666
44 -0.22583856 0.40055588 0.2429831 0.08168485 0.7073456 -0.29372472 0.18921967 0.020322625 0.1707885 0.47127914 -0.1814487 -0.13766871 -0.030460354 -0.32604468 0.18377438 0.5515545 0.08160742 0.34287852 0.033868723 0.02729719 0.20535828 0.35497576 -0.67395586 -0.6047661 -0.13309301 -0.47334826 -0.045060735 -0.07233704 -0.3369894 0.0010605421 0.1552179 -0.1450141 -0.06650889 -0.25718 -0.3058714 0.04464402 0.013058821 -0.4083882 0.03838685 0.043811172 0.2100405 0.11625123 -0.158224 0.49981755 -0.090463445 -0.18385832 -0.23360877 -0.38725826 0.01873582 -0.052974142 0.4306711 0.36737415 -0.17049299 -0.22416288 0.18350725 0.43598 0.46628517 -0.22508195 -0.43342727 0.36837667 -0.079938136 -0.08803057 0.2283695 -0.01458604 0.1315307 0.102319926 0.56910235 0.104823954 0.17410004 0.14527774 -0.32021967 -0.6069764 -0.46945688 0.1109133 0.12416552 0.086806774 -0.17232575 -0.41854718 -0.43895543 -0.15440096 -0.37905625 0.33483544 -0.1975483 0.059400897 -0.09521321 -0.05843584 0.36276492 -0.09912274 0.4267771 0.4249817 -0.31336185 -0.57871014 -0.10190563 -0.2934186 -0.08582714 0.2006436 -0.25695103 0.5336896 -0.59718066 -0.06652814 0.47577232 -0.06862823 -0.12995785 0.22378482 0.00016026448 -0.027102442 0.40463212 -0.36760968 0.05643412 0.19487064 0.36195612 -0.45322552 -0.25688 0.28255767 -0.66083205 0.76184666 -0.008084675 -0.022091437 0.39971536 0.36358774 -0.38103414 0.3680843 0.18293405 0.29398572 0.18539163 -0.34903008 -0.16114259 0.10788183
85 0.27214003 0.25873765 0.31304902 0.115967795 0.63731986 0.114376836 0.15847555 0.0016133902 0.31666195 0.20866625 0.12066004 0.0072301878 0.067337506 0.119414546 0.63290507 0.4029181 -0.32273856 0.21780956 -0.65579855 0.313513 0.21429747 0.2068739 -0.3873645 -0.54460496 -0.45348307 -0.16780671 0.049990837 -0.11645922 0.18135089 0.34033442 -0.064230464 -0.18026319 0.10357078 -0.08387502 0.015360736 0.25554815 0.104391195 -0.3655732 -0.003602906 0.013463981 -0.03459596 -0.035238966 0.16187519 0.67940986 -0.010593456 0.05714806 -0.5117221 0.0956221 -0.06831718 0.23774113 0.29949132 0.13314596 0.29604912 -0.1773186 -0.3233978 0.34346834 0.5526764 -0.29172537 -0.34184194 0.33159986 -0.70937186 -0.104707375 0.5317787 -0.32097614 -0.30250064 0.16272776 0.4532142 0.08752919 0.20568569 0.33729663 -0.68196815 -0.13035241 -0.3115869 0.21183704 0.34081882 -0.033755973 -0.37059832 0.22455573 -0.27293006 0.08902503 -0.24203928 0.16498914 0.2590521 0.3156362 0.008398233 0.0040760846 0.55259156 0.07213108 0.11984654 0.5335722 -0.0251301 -0.3573868 0.1557453 0.09633924 -0.23482673 -0.14010216 -0.71672374 0.22277178 -0.36761272 -0.17678006 0.15364611 -0.41197714 -0.30317357 0.2071062 0.1435744 0.17675558 0.079211004 0.3069108 0.0067442646 -0.24623759 0.1402323 -0.59353435 -0.33133724 -0.17044638 -0.45406622 0.29332763 -0.16673039 0.19540586 0.33120877 0.22967388 -0.080138415 0.26181197 -0.31934264 0.18276635 -0.051532235 -0.14871496 -0.3619035 0.21811561
32 -0.8243618 0.36956903 -0.14380735 0.2249938 0.63494384 -0.09346419 0.5233431 -0.04332041 -0.049103558 0.45993328 0.035190504 0.079870805 -0.0044630114 -0.37584388 0.39023018 -0.08907954 0.21544155 -0.18860248 -0.3373555 -0.0016648504 0.050231487 -0.16471274 -0.24734183 -0.5433302 -0.48479065 -0.37103966 -0.33871934 -0.5255104 -0.52287006 -0.6588012 0.18200822 -0.31521535 -0.43432084 0.35518405 -0.31446132 0.62197757 0.10024624 -0.1937698 -0.24207097 0.11199528 -0.34196278 0.037720088 -0.3428378 -0.054684587 0.49031922 -0.027594715 0.19089065 0.09178824 -0.27795684 0.03227868 -0.03618343 0.2404666 -0.28586835 0.15619305 -0.29487586 -0.14076333 0.5626069 -0.04600034 -0.62099457 -0.26939914 -0.16218854 -0.19349709 0.78046703 0.028172705 0.34589675 0.07890307 -0.10545077 -0.31936863 -0.08500238 -0.52380985 -0.18431115 -0.66204727 -0.42638958 -0.097917594 -0.12638167 -0.15892719 -0.373051 -0.26043475 -0.18820724 -0.051837273 0.08223434 0.042629153 0.30151007 0.8523782 -0.33152267 0.53649896 0.37768707 -0.36803856 0.6111773 -0.058695007 0.1909451 -0.09998545 0.35559934 -0.044861894 -0.0392619 -0.05148454 -0.06929977 0.11821597 -0.4707928 0.19465739 -0.038845953 0.00042137058 -0.08451487 0.14850043 0.24680386 -0.014690766 -0.061117087 0.34649664 0.12277284 -0.6140942 0.37909928 -0.47746482 0.090482734 -0.043233942 -0.27179548 -0.09077481 -0.04632818 -0.12438497 -0.012433273 -0.38384035 -0.262046 -0.69196445 -0.29404324 0.41646683 -0.21413814 -0.16775632 -0.26315925 0.38537005
13 0.20430157 0.088016175 0.4453553 -0.028844051 0.7382323 -0.18106873 0.325035 -0.1817022 0.2022162 0.26962268 -0.18352884 -0.10851942 -0.091944866 -0.009559608 0.5081994 0.41779125 -0.053333424 0.3482161 -0.28483972 0.2572666 0.2974384 0.042612407 -0.44006994 -0.45893055 -0.35302904 -0.24197109 0.11148603 -0.15228954 0.072108805 -0.0303172 0.024989942 -0.38028565 0.17424235 -0.16442156 -0.15591131 0.20381013 0.056122053 -0.47356096 -0.046920903 -0.13792312 0.15297563 -0.2765886 -0.13110195 0.3924595 -0.11877497 -0.23407912 -0.3126782 -0.06207155 0.08628228 -0.2317648 0.56940126 0.03906645 0.18902665 -0.11649542 0.26237708 0.4278267 0.3201966 -0.17822039 -0.24672677 0.5718278 -0.38352537 0.03386589 0.1273148 -0.055498686 -0.13346742 0.3085941 0.4566587 0.3280739 0.1094867 0.16535683 -0.6141946 -0.5512458 -0.23599914 0.4609106 0.09776202 0.047307953 -0.06234289 -0.31887504 -0.23086806 0.0606525 -0.08500356 0.35254896 -0.062039807 0.014437245 -0.0004214745 -0.1548352 0.55236816 0.025752112 0.22741131 0.33872262 -0.056331016 -0.53841823 0.17114697 -0.091080636 -0.29378334 0.12771511 -0.57487077 0.7262644 -0.60157967 -0.20997398 0.39879528 -0.055477425 -0.36103734 0.36593983 -0.19047786 0.021655371 0.2084486 0.31507775 -0.0574976 -0.17143196 0.1361407 -0.6053232 -0.51735556 0.2977631 -0.7809393 0.5459982 -0.25407922 0.28420243 0.24000436 0.32388327 -0.42217618 0.19860633 -0.26155594 -0.016551597 0.080647215 -0.1354459 -0.23920435 0.20074952
72 -0.4672198 -0.045373894 -0.1574134 0.11545951 0.11467325 0.34252244 0.1786906 -0.109186225 -0.14802922 0.611092 0.46545678 0.15566039 -0.12809913 -0.78369766 0.018048076 -0.07291086 0.061439663 -0.23485829 0.034466423 0.27682152 -0.0976882 0.4192835 -0.64109546 -0.83180296 -0.37788725 -0.32323593 -0.2674242 -0.42917076 -0.30836448 -0.30385408 0.73449975 -0.4608209 -0.1579839 0.13305333 -0.6192034 0.35847706 0.42833987 -0.20041315 -0.016350154 -0.0064728027 0.25123182 -0.2730916 -0.57147616 0.14713128 0.756378 -0.1246465 -0.14982262 -0.25630566 -0.15573251 0.3715092 0.115477085 0.34557632 0.37652975 -0.01355606 -0.31917235 -0.05700301 0.3794268 0.0696477 0.020376073 0.10659073 -0.34171146 0.33181852 -0.06972335 -0.04692904 0.46785697 -0.60648805 -0.18171354 -0.16596285 -0.56866336 -0.39871663 -0.23013464 -0.5516244 -0.21693903 0.09384947 -0.2856721 0.1525214 -0.32828522 0.16514581 -0.19976984 0.12769754 -0.33040377 -0.024298063 -0.079910465 0.97899675 -0.15171362 0.6180072 0.53318137 -0.289285 -0.005647403 -0.35445437 -0.010806135 -0.34965697 0.5058016 -0.11446638 -0.012416543 0.2684356 -0.31553695 -0.16202655 -0.34284377 -0.16529043 -0.03400675 -0.47346652 -0.07568918 0.120054945 0.07532344 0.375726 0.3997228 -0.06742383 -0.1462572 0.023127798 0.13637997 -0.21247281 0.116301484 0.23917228 -0.4640843 -0.10476905 -0.17408435 0.4463279 0.50452006 0.08819649 -0.16649249 -0.24972625 -0.07431634 0.1352416 -0.3801327 -0.3035408 0.27046803 -0.040155225
43 -0.25125834 0.019628845 0.3553101 0.10635507 0.6492301 -0.2384707 0.10430629 -0.11260891 0.20351261 0.36759502 -0.18348263 -0.16178988 -0.032532193 -0.2670401 0.2604384 0.59184486 0.014820497 0.48388234 0.016182134 0.1409331 0.15288015 0.3573046 -0.6726684 -0.6623234 -0.117066525 -0.51852727 0.027917838 -0.1446077 0.0048040533 -0.124574736 0.006990814 -0.17465605 -0.103177585 -0.3270978 -0.26679003 0.10547279 -0.077767834 -0.3641929 -0.019999364 0.13575684 0.18104057 -0.1132189 -0.10453096 0.34299996 0.04599119 -0.10299378 -0.30570734 -0.47743493 0.14786287 -0.039450534 0.35980242 0.2938871 -0.094590046 -0.37278754 0.06690023 0.5708013 0.37735453 -0.10247801 -0.5258467 0.14465052 0.09480281 -0.05589746 0.4372997 -0.055155903 0.07430537 0.2268698 0.5892895 0.09672952 0.20656219 -0.15874627 -0.34345117 -0.9389666 -0.33286464 0.09761139 0.20097741 0.1725088 -0.0660865 -0.49834314 -0.42534482 -0.13010238 -0.2193976 0.34468475 -0.15526985 0.06783992 0.060808007 -0.111084916 0.33616987 0.07719194 0.50184494 0.43667805 -0.32150316 -0.546138 -0.040469922 -0.2172487 -0.07629148 0.31069008 -0.4397715 0.7183915 -0.4309256 -0.13748513 0.7035923 -0.07206677 -0.19824305 0.16134298 0.06878872 0.05170575 0.27715135 -0.05625107 0.12486055 0.22484599 0.20176148 -0.38223845 -0.20695245 0.16679889 -0.7261671 0.69369715 -0.2560159 -0.026518598 0.35002372 0.21774045 -0.36603302 0.33171338 -0.059770428 0.2739711 0.12275389 -0.15256935 -0.18781178 -0.031111723
58 -0.19272229 0.06957646 0.14708857 -0.37226894 0.28699446 -0.4212612 0.25381896 -0.59753495 -0.27620944 0.9903115 -0.17693481 -0.09252847 0.17731307 -0.32900545 0.41226345 0.30745074 0.059490178 0.155854 0.014543524 0.33462694 -0.43022922 -0.014206373 -0.33216467 -0.04402239 -0.3062031 0.30048403 -0.052055646 -0.23646158 -0.54978204 -0.19387536 -0.13521674 0.12446763 0.13900122 0.41146928 -0.34144726 0.59717596 0.28994623 -0.06414902 -0.20022209 -0.23825297 0.37213868 0.37833446 -0.43150842 0.2004347 0.26588723 0.4371826 -0.21253479 0.23596732 0.19819045 0.28279752 -0.2717195 0.005161129 -0.072448805 -0.22933371 -0.24163614 -0.5204636 0.229715 -0.0011455697 0.022512035 0.37392876 -0.5296409 0.39833164 0.083518945 0.17360502 0.55190325 0.2802955 -0.07083855 -0.06513176 -0.024777757 -0.061502703 -0.45154047 -0.16979437 -0.037968636 -0.4568177 0.62905896 0.054378428 -0.07112596 -0.4133123 -0.759442 -0.4049904 -0.06876408 0.012024854 -0.53456527 0.38340187 -0.38522485 -0.06364626 0.12806998 0.18582866 0.047689226 0.41362643 -0.08644097 -0.39844322 0.69803715 0.07600519 0.031565882 0.43893373 -0.5229951 0.07634902 -0.37307987 -0.29237127 0.13429491 -0.03147543 0.47792593 0.4242598 -0.33762997 0.47991738 0.29449037 0.11605094 -0.3192314 0.29420748 -0.11398853 -0.19216684 0.46859384 -0.56841624 -0.46061602 -0.06612043 -0.11239326 -0.16442028 0.33921152 -0.07631528 -0.05628145 0.55693406 -0.35136992 0.3576247 0.08554336 0.116271004 -0.40804875 0.073388785
45 -0.27280432 0.055781063 0.43101352 -0.8677023 0.23450856 -0.23826137 0.45857653 -0.5347422 0.017817229 0.32246274 0.24694 -0.21062511 0.013417558 -0.29046384 -0.090956904 0.68477976 -0.08053292 0.11392781 -0.6537563 0.50082994 -0.35565445 0.1228628 -0.6107795 -0.7346088 -0.32245186 0.07528096 0.38774753 0.074264266 -0.059718993 -0.2836617 -0.06530574 0.03924836 0.17844939 0.22828011 -0.7605403 -0.097626895 0.21371804 -0.7951068 -0.2752776 -0.14618854 -0.39318374 0.015016902 0.287671 -0.19251846 -0.0004430417 0.14178675 0.2833956 -0.6367332 0.0715008 0.5497494 0.20104781 -0.104021296 -0.12111103 -0.24341959 0.027489083 0.05450367 0.71824276 -0.412055 -0.21499582 0.2933187 -0.19608805 0.42305687 0.34875897 -0.47324106 0.1963057 0.07257149 -0.047746386 0.19283402 -0.53115153 0.011773789 0.11317792 -0.14027701 -0.8444004 0.044122435 0.07748005 -0.4580104 -0.034651328 -0.18527302 -0.4150849 0.34874365 0.003934301 -0.15198873 0.29138178 0.32803467 -0.3832105 0.64170843 -0.5021992 -0.14972226 0.32148802 -0.012049122 -0.22197366 -0.21354927 0.38823193 -0.0898393 -0.15730841 0.2030297 -0.35232937 0.074986495 -0.16661374 -0.47216287 -0.22917067 0.17386785 -0.25362992 0.22449613 -0.14178991 0.48258507 -0.24397326 0.43175077 0.005499693 -0.02077315 0.27830383 -0.0771299 0.4039303 0.36347988 -0.7002314 0.10571028 0.18683147 -0.31754625 0.28262186 0.27613485 0.18980499 0.06575354 0.048058555 0.2855181 -0.07930542 -0.004398896 0.20989409 -0.16078438
101 0.6806199 0.13986714 0.06552967 0.04190226 0.7121744 0.40694597 0.28920504 0.18890898 -0.03182936 0.70685637 0.2824938 -0.4609225 -0.06827227 -0.12626433 -0.3584408 0.49769813 -0.017661365 0.0025048517 -0.6748537 0.104569905 -0.14911282 0.0028342565 -0.36101672 -0.76767457 -0.78444636 -0.20739236 -0.052108865 -0.24990027 -0.07473545 0.3762051 0.25721604 -0.20113674 -0.22570828 -0.013055039 -0.44659936 0.28376782 0.5437117 -0.14176421 -0.2207302 0.3914506 0.16576126 0.54978794 0.08585128 0.6750386 0.43670332 0.17389902 -0.46649468 -0.00012310775 0.024543246 0.12515146 -0.090343945 -0.05189162 0.18838209 -0.20895334 -0.5017325 0.25628117 0.44969362 -0.45054507 -0.3339859 0.47513816 -0.30629775 -0.25935668 0.66505396 -0.07797531 -0.31280825 -0.35176772 0.40895775 0.07778195 0.39666232 -0.13835908 0.049816128 -0.124193445 -0.15311398 -0.40312225 0.6680068 -0.5443726 -0.59165144 0.12475642 -0.55775356 0.07478441 -0.29737672 -0.13895346 0.01778075 0.39061648 -0.023113137 0.50551426 0.099578574 0.010854588 0.444655 -0.04226373 -0.13604285 0.34721234 0.38505968 0.48040235 0.30811027 0.33553636 -0.076023676 -0.4117558 -0.39658248 -0.73089 0.27699852 -0.18680693 -0.17916787 0.35812563 -0.3063582 0.037272956 -0.09129128 0.013973965 -0.33593085 -0.13284981 0.22619563 -0.5590599 0.23524992 -0.21769847 -0.33937022 -0.0682336 0.4455289 0.32022858 0.46316332 0.14678465 0.018808274 -0.13230388 -0.28618225 0.1437901 -0.10610666 0.2780537 -0.23123454 -0.13385677
97 0.32780305 -0.37330866 0.40363625 0.23600447 0.32619694 0.08398693 0.07081661 -0.20768765 -0.4354777 0.38973156 0.1253662 -0.54568005 -0.393207 -0.2591974 0.5180236 0.092718 0.23358352 0.020961259 0.2465489 0.16343938 -0.3372841 0.44812536 -1.0758488 -1.0720941 -0.55295324 0.09107177 -0.034511272 -0.08124601 -0.49029925 -0.02908729 -0.12324772 0.070490964 0.13849021 0.26286134 0.08215858 0.06829613 0.37132984 -0.26344544 -0.25544348 0.15980014 -0.19906089 0.20605522 0.19766486 -0.29975727 0.55884176 -0.3592837 -0.72046745 0.035390187 0.23847981 -0.27532268 0.6208346 0.03345716 -0.05449617 0.08685459 -0.35660166 0.5369515 0.37948704 -0.5986011 -0.24002066 0.164092 0.11405867 0.21317226 0.24265026 -0.25269312 0.35479367 0.03169069 -0.24171335 0.006648339 -0.004318028 -0.432754 -0.28371796 -0.4400161 -0.90780646 -0.4895037 0.5742215 -0.1427048 0.0103906775 -0.3716617 -0.46819866 -0.321957 -0.1254246 -0.27367795 0.28256637 0.7859772 -0.19186977 0.003597964 0.4422804 -0.13262221 -0.06237399 0.124939516 0.38758206 -0.62674725 0.058966316 -0.19478954 0.20604025 -0.09795334 0.45881784 -0.28780696 -0.38191277 -0.5985758 -0.17456125 -0.011707734 -0.01702497 0.7450143 0.10658017 0.14312093 -0.09634341 0.008991303 0.08035859 -0.4380602 0.6841513 0.09916023 -0.2212883 0.07115255 -0.7640034 -0.1348426 0.5707785 0.07330805 0.034402266 0.26164576 -0.20475878 0.4165785 -0.40124285 0.11961187 -0.40768716 0.009472397 -0.049336314 -0.053080495
114 -0.35239476 -0.08465998 0.1942697 -0.08430808 0.71919554 -0.27032658 0.188927 -0.4080006 -0.26345894 0.7943968 0.13593666 -0.26201886 0.14845434 -0.1069999 -0.2936585 -0.103081696 -0.04719736 -0.4516481 -0.3269304 0.53640157 0.11930497 -0.3652683 -0.14910112 -0.6708474 -0.24831814 0.2616176 0.10455114 0.22247201 -0.30300006 -0.5897286 -0.30996123 -0.19779463 -0.09780654 -0.38980627 -0.20290685 0.030068811 0.22053067 -0.7090159 -0.15704718 0.13543792 0.13534543 -0.045876253 -0.25263125 0.053058423 0.18930134 0.53572303 -0.56595623 0.45880675 -0.42678368 0.33095974 0.34139237 0.4715559 -0.15224352 -0.060163185 -0.1312416 -0.07081326 -0.34780017 -0.2746855 -0.44865155 -0.05426852 -0.4745407 -0.15037712 0.27097774 -0.25345808 0.23417446 0.11585487 -0.12920673 0.18643211 -0.32176316 0.03467715 -0.33962953 -0.10043212 -0.23525187 -0.529002 0.36329713 -0.017649729 -0.5689826 -0.5123621 0.22739609 -0.47795603 -0.7917996 -0.040507633 0.5749463 0.27239645 -0.32264325 0.22603057 0.12296755 0.1992813 0.34917435 0.25828415 -0.2074061 0.15947756 0.20568542 -0.095858015 0.44679898 0.5031933 0.15452895 0.2577733 -0.69948995 -0.14677647 0.058480103 -0.18299064 0.007174973 0.3841453 0.22592217 0.16014174 0.22691572 0.08749529 -0.11901601 0.077299304 0.33714485 0.35763648 0.17404746 -0.38971373 -1.1598932 0.05786407 -0.11658543 0.38964885 0.08817471 0.35632226 0.24323165 0.097578764 0.2844809 0.2228045 -0.09751516 0.02145698 0.003738182 -0.04817044
31 -0.65066653 0.17648764 -0.21797888 0.15104628 0.17141451 0.022933329 0.24183403 0.18091553 -0.21844777 0.26038074 -0.05811695 0.19270825 0.18210267 -0.3180953 0.33100227 -0.066872954 -0.019161904 -0.19290242 -0.18769205 0.26714647 0.31857306 -0.18148747 -0.4251841 -0.55672365 -0.27976772 -0.2718771 -0.33474442 -0.36100078 -0.26219237 -0.69533074 0.5542719 0.059597656 -0.2779883 0.17802581 -0.44286394 0.42649227 0.16797255 -0.21468353 -0.3097049 -0.014242194 -0.055033 0.15296786 -0.43755242 0.0864744 0.60722697 -0.14856726 0.33218932 -0.051019453 -0.12984215 0.029417481 0.16256638 0.24130064 0.027573053 0.22464244 -0.058971886 0.0075758747 0.5422237 0.12972325 -0.23886266 0.036048017 -0.5010324 -0.019998915 0.5670727 0.14821036 0.10667368 -0.026855517 -0.10519983 -0.39057356 -0.19406238 -0.75426745 -0.28229275 -0.6516526 -0.29121882 -0.26509288 -0.24456353 -0.03085151 -0.27662143 -0.011418189 -0.028513074 -0.032609783 0.069958024 0.06800578 -0.072229624 1.0259026 -0.25875425 0.5884572 0.1333789 -0.3190201 0.41231784 -0.5037355 0.17284383 -0.031212872 0.39844602 -0.055867106 -0.117226 -0.093623124 0.11870983 -0.054519236 -0.38038838 0.18415514 0.019716233 0.0037832095 0.065964125 0.1750645 0.1201494 0.113971 0.11392159 0.26862508 -0.03973509 -0.30788597 0.18005514 -0.22994867 0.28381678 0.017124444 -0.2588335 0.056546073 -0.35553086 0.16037491 0.059546176 -0.07420549 -0.27781364 -0.6937499 -0.18601422 0.26394993 -0.110997416 -0.08143933 -0.12155697 0.089581005
12 0.046119355 0.43069807 0.5572531 0.24799708 0.5775429 -0.29578048 0.4000022 -0.2277994 0.14802572 0.33494213 -0.062310047 -0.031599604 -0.057274062 -0.21193425 0.4363595 0.40860468 -0.1331694 0.45900425 -0.09172643 0.1758241 0.14421359 -0.0045315395 -0.4603378 -0.6592484 -0.32614824 -0.39692777 0.20436291 -0.122907214 0.0058420496 -0.039605815 -0.12153171 -0.3431069 0.14504059 -0.27846876 -0.38630822 0.27340096 0.12459362 -0.4245145 -0.016447945 -0.2831392 0.033076033 -0.20305061 0.0058949958 0.45785034 0.025548458 -0.17808534 -0.26743722 -0.10820463 -0.05191394 -0.004138017 0.29441988 0.098342575 0.29374254 -0.32289687 0.10633803 0.6204399 0.5183555 -0.1743268 -0.40508834 0.37939453 -0.48312446 0.16876382 0.26170376 -0.12712465 -0.13211648 0.054438647 0.6622139 0.1224868 0.11682348 0.2847294 -0.6352072 -0.30979076 -0.39323846 0.3996126 0.045093518 0.044499803 -0.15320759 -0.20452394 -0.06142761 0.1979583 -0.17717202 0.33116284 0.03263034 0.13756348 -0.07186728 -0.19676076 0.64391774 -0.016127063 0.47609037 0.18939726 -0.038561314 -0.5244058 0.35515562 -0.0031918255 -0.3159732 0.2320346 -0.5915112 0.7344867 -0.44120488 -0.045844957 0.5681808 -0.085317425 -0.3343681 0.11923303 0.058567353 0.2615408 0.12002271 0.163502 0.031295434 -0.1400216 0.15176025 -0.69151366 -0.44288716 -0.28562525 -0.48738754 0.7213527 -0.25411966 0.11128829 0.19712381 0.37753657 -0.21398984 0.46337384 -0.086365804 0.09339956 0.09615628 -0.07931214 -0.116715156 0.3869754
38 -0.30625263 -0.41214687 -0.10235342 0.15051867 0.49664265 0.42605183 0.15685824 0.3426262 -0.351809 0.6348797 0.0451665 0.002423708 -0.057605937 0.2486254 0.62179124 0.23869349 0.0022121444 0.23721114 -0.6740101 0.66807 -0.28570685 -0.014275283 -0.6661905 -0.57506144 -0.50367963 -0.15952455 0.23216006 0.4427786 0.14919841 -0.21560481 -0.01020437 0.43828255 -0.04882067 0.1518735 0.21922088 0.6280555 0.37530392 -0.6330108 -0.07767949 0.09853424 -0.0043896674 -0.18610327 -0.24378712 0.38505426 0.14182238 0.32109573 -0.44521147 -0.11528936 -0.09207424 0.49778736 0.32528394 0.6757876 -0.105412625 0.12548412 -0.45829245 -0.29764935 0.24228185 -0.34498602 -0.038425654 -0.07885926 -0.48815888 0.042033315 0.5305064 -0.5457743 0.2090235 0.097991265 -0.21163148 -0.018794667 0.048815407 0.36214203 -0.57763296 0.15134534 -0.36806318 -0.081567325 0.4327165 -0.07125269 -0.32778692 -0.11829995 -0.3319773 0.33348042 -0.26137266 0.10518687 0.07399518 0.7662433 0.21211496 0.30303183 0.19550827 -0.30155116 -0.1401817 0.7185034 0.2418179 -0.36701632 0.36453876 0.16058601 -0.42448854 0.22403471 -0.54864967 -0.2719735 -0.2118573 -0.10877209 -0.0851956 -0.48113334 -0.09644926 0.27310926 0.012990518 0.2797477 -0.17386818 0.23891811 0.2774499 -0.45814422 -0.05311132 -0.55307716 -0.04434229 0.5297731 -0.0676938 0.5782926 0.20122863 -0.11345265 0.39724088 0.4112898 0.1341695 0.34848604 -0.38314733 0.018200142 -0.4068099 -0.55542696 -0.4727375 0.019337794
37 -0.0765362 -0.2552717 0.082329124 0.23276347 0.5045517 0.3282336 0.085106194 0.131262 -0.097607546 0.3572639 -0.014191031 0.027970733 -0.03928452 0.055412643 0.75889635 0.2777912 -0.06848558 0.175621 -0.5473587 0.6402932 -0.095446505 -0.02879841 -0.6093905 -0.46416038 -0.55331534 -0.007287445 0.14795662 0.34435785 0.20632365 -0.052768108 -0.16418527 0.25077775 0.04109353 0.19254941 0.16539983 0.57867604 0.38088533 -0.4822181 -0.14623 -0.053159885 -0.03884076 -0.3154139 -0.06439759 0.539996 0.11497212 0.4012318 -0.4053696 -0.19148204 -0.09900765 0.36045298 0.18358037 0.5887263 0.12154412 0.05340417 -0.33795217 -0.29580396 0.3390576 -0.31759408 -0.059093222 -0.16682792 -0.5870461 -0.062845714 0.5226172 -0.45634976 0.045005072 0.061308768 -0.08362875 -0.051241204 0.04748363 0.4085447 -0.7594624 0.19828102 -0.38267145 0.016662583 0.31896752 -0.09267007 -0.19954193 -0.014309856 -0.28434157 0.46559772 -0.19505718 -0.0064181522 0.13519149 0.86220896 0.24746515 0.107808754 0.42987916 -0.0051431996 0.1303699 0.75194126 0.1073185 -0.569154 0.49319172 0.22137709 -0.36239365 -0.022638457 -0.62752736 -0.058425847 -0.1807239 -0.064448684 -0.15839843 -0.52038515 -0.1531622 0.2779064 -0.09138474 0.2707289 -0.21528946 0.44580898 0.2174077 -0.5536288 0.0008643752 -0.5445619 -0.15672201 0.2773425 -0.19800295 0.5046865 0.11410965 0.003727615 0.34577763 0.33254844 0.09345282 0.24218428 -0.28173798 -0.02694365 -0.41999948 -0.6823647 -0.41390124 0.026310017
84 0.29237822 0.20916718 0.22086576 0.15690456 0.6680532 0.2718805 0.05274028 0.13039057 0.20981131 0.28411335 0.2452683 -0.10357512 0.2549635 0.1984446 0.528046 0.27468166 -0.40208578 0.12022551 -0.71650416 0.296618 0.019443408 0.037835844 -0.26635996 -0.62006444 -0.43906543 -0.06291461 0.037380453 0.06366274 0.25241384 0.27762362 -0.06114198 -0.01878095 0.12372237 0.053779077 0.10641382 0.43247038 0.20750967 -0.44464415 -0.14489977 -0.015861478 -0.15371838 -0.0692962 0.0072964863 0.4961463 0.020556683 0.07080032 -0.24419303 -0.14253128 -0.11459829 0.28140262 0.3127699 0.3708867 0.21780235 -0.16236827 -0.35663846 -0.019586084 0.48683035 -0.20638183 -0.17534359 0.09876928 -0.5590277 -0.04095906 0.4119253 -0.4770618 -0.31414056 0.16887039 0.31253248 0.059975423 0.1583278 0.30906555 -0.8051365 0.085774615 -0.27960193 0.23697235 0.4023585 -0.21618238 -0.3304345 0.1510412 -0.32186875 0.24224988 -0.25728887 0.2752414 0.333224 0.47359478 0.06788055 -0.018753136 0.7095445 -0.0169681 -0.04603886 0.48166203 -0.047864217 -0.34566596 0.4350291 0.20774284 -0.21001293 -0.1045354 -0.7655226 0.022827739 -0.341398 -0.17833556 0.13062282 -0.41688102 -0.2325822 0.23872045 0.011224116 0.32484862 -0.18448617 0.410913 0.18150179 -0.38330877 0.067978755 -0.41383222 -0.16637355 -0.16820092 -0.40403697 0.2510011 -0.039145567 0.14898612 0.24879752 0.24941483 -0.09207863 0.30713803 -0.39261603 0.0052024154 -0.13210846 -0.17230794 -0.54889894 0.30510435
-0.08547448, -0.29826584, -0.14741431, -0.67061037, -0.43497878, -0.38970268, -0.19331034, 0.0026911893, -0.14017418, -0.3710046, 0.19588524, 0.50693357, -0.40660346, 0.060307745, 0.4046258, -0.62973624, 0.11785334, -0.17953649, 0.05160977, -0.095493965, -0.18132052, 0.03826847, -0.1944767, -0.8787426, -0.052537657, 0.23939374, 0.61991715, 0.87798643, 0.22267313, -0.29736802, 0.028789824, -0.30809578, -0.0542155, -0.25352523, -0.25583473, -0.08532951, 0.28817376, 0.41289523, -0.00792686, 0.24107456, -0.20131549, 0.3377247, -0.25690502, 0.35726756, 0.027287206, -0.40293846, -0.54056203, -0.28486973, -0.029724529, -0.47154206, -0.3967071, -0.4742465, -0.005546905, -0.50885016, -0.061332688, 0.07627737, 0.12908617, 0.19868691, 0.5408949, -0.4623319, 0.13502872, 0.1309458, -0.26053345, -0.009056642, 0.08146737, -0.14192095, -0.20352887, 0.21550697, 0.19168872, -0.29205415, 0.26351216, 0.24171916, 0.025810005, -0.55607706, -0.40277648, 0.13517939, -0.27300778, 0.3711192, -0.193878, 0.02004339, -0.36554146, 0.48420388, 0.0878743, 0.34118977, 0.03527869, 0.06615776, 0.24636766, -0.030541956, -0.30129728, -0.05087695, -0.08543088, 0.25910518, 0.16375847, 0.14950982, 0.41354564, -0.09212178, 0.039013565, 0.12550597, -0.39747158, 0.0011751303, -0.0302062, -0.28866524, -0.1901337, -0.2015753, 0.11327507, 0.46685705, -0.49245948, 0.06320734, -0.3105893, -0.20835456, 0.17934407, -0.52467066, 0.19670442, -0.10700878, -0.032256693, 0.5803727, 0.30203456, 0.26631632, -0.23506074, -0.23485185, 0.2501363, -0.12184304, 0.6253184, -0.035855155, 0.050049763, -0.15232724, -0.38403606, -0.020263184, -0.5847818, -0.004061971, -0.09157497, -0.4583943, -0.34568977, -0.52104604, -0.25861678, -0.117276, 0.09799441, 0.15111157, 0.3134129, -0.10316217, 0.040958494, 0.2389556, 0.17087452, -0.70924014, -0.001072801, -0.26048806, -0.0540118, -0.42857033, 0.42508703, 0.0016576943, 0.070508994, 0.04336412, 0.00092854566, -0.00027608735, 0.040260985, 0.2957077, 0.0015368146, -0.14539924, 0.12009415, -0.21632099, -0.16827787, 0.012367013, -0.26745015, 0.016989142, -0.016897155, 0.0875287, 0.020095015, 0.13754281, 0.21871457, 0.1386973, 0.1382741, -0.059942845, -0.13604516, -0.2653919, -0.2131206, -0.1908882, 0.36786342, 0.5130381, -0.1351802, 0.0793475, -0.39795962, 0.42081177, 0.3715465, 0.35093012, 0.12619488, 0.35592395, -0.40973133, -0.19444618, 0.18313268, 0.07849345, -0.25149447, -0.15154907, -0.2326549, 0.053796984, 0.09788425, 0.07247626, -0.02296063, -0.37131947, 0.0594042, 0.09914632, -0.16609015, 0.34075087, -0.12332687, 0.0005157145, 0.14297669, 0.017582132, -0.008779151, -0.12335509, 0.028752109, -0.13830797, -0.015183254, 0.018969852, -0.15514384, -0.20015176, 0.41659614, 0.4606939, -0.19941185, 0.012086859, 0.18714122, -0.17984743, 0.39554515, -0.21936855, 0.22323571, -0.4914505, -0.13813391, 0.017122291, -0.09105322, -0.32170448, 0.056053903, 0.02643442, 0.28093007, -0.16845793, -0.054187518, 0.28471726, 0.07457285, 0.14122358, 0.019835977, -0.31870613, 0.13467562, -0.34367275, 0.16879731, 0.4887708, -0.24816054, 0.41746026, 0.31506085, 0.17307363, 0.044022985, -0.31272265, 0.068612866, -0.15236238, 0.0671384, 0.3666283, 0.05042359, -0.24060361, -0.22770517, -0.11951465, -0.04880576, 0.019174015, 0.2776341, 0.5573643, 0.39455283, -0.06596572, -0.38140762, -0.040391847, 0.16734867, 0.22110373, 0.5233019, -0.244626, -0.06581722, -0.23032989, -0.1740666, -0.26465023, -0.22275618, 0.43023762, -0.026344901, 0.0849443, 0.06791598, 0.15605208, -0.29888138, -0.17934243, -0.13411514, -0.08885195, -0.15275909, -0.3600689, 0.08731703, -0.014200481, -0.072012715, 0.019505868, 0.10770646, -0.1055515, -0.14581163, 0.21632844, 0.22605777, -0.32623723, -0.12906912, 0.25288722, -0.22108723, -0.12618136, -0.6181268, 0.28843206 -0.29654312 -0.04262473 -0.14825585 0.37866974 0.4827995 -0.04401375 -0.0804395 0.2944939 -0.46177727 0.3715559 -0.20676072 0.17347687 0.09780114 0.289772 0.12815572 -0.004105651 -0.25909498 0.34218147 -0.47033465 0.34841427 0.19925311 -0.1336351 -0.30172318 -0.5240642 -0.52094716 -0.09688263 -0.3613071 0.17536677 0.2241972 -0.53466743 0.018025847 0.24197216 0.17073604 0.070002295 -0.148259 0.3986169 0.21122795 -0.16842899 -0.56679094 0.048075605 0.010005239 0.044861227 0.40406528 0.03507883 0.22815274 0.2820221 0.07493175 0.13799019 -0.256924 0.013104198 0.3493267 0.06154479 -0.09227687 -0.17516546 0.084520645 0.2342448 0.7456771 0.3049104 0.05128861 -0.002841188 -0.65886074 0.1136063 0.07019309 0.18462269 0.24749747 0.37592494 0.18043105 0.0075012683 -0.10258358 -0.6294759 -0.040258653 -0.57588255 -0.6596346 -0.3059302 -0.046995755 -0.18703586 0.057857543 -0.15642427 -0.508562 -0.096105635 0.108394414 -0.13731249 -0.11722019 0.54859763 -0.27141857 0.18315758 0.030451706 -0.15105277 0.2941082 -0.24318449 0.038021877 0.058423504 0.3124364 -0.16874762 0.07997105 0.123579204 0.39835498 -0.100867465 -0.28009441 0.1671574 0.036553454 0.3435025 0.048238996 0.18676488 -0.18461527 0.022559479 0.08324655 0.06452276 -0.5907528 0.005605568 0.20471781 -0.12774071 0.021487461 -0.3142851 -0.22287059 0.3114916 0.07653165 -0.32024834 0.09548238 -0.061026033 0.05536241 -0.33943376 -0.026871363 -0.16902892 -0.0767731 -0.11632355 -0.37116998 0.1756428
87 0.29734936 -0.36008957 -0.10218708 -0.23652303 0.58602196 -0.11858811 0.17700888 -0.46189642 -0.19354215 0.55186546 -0.10165747 0.045691792 -0.24583994 -0.021512592 0.15667585 0.2050231 -0.06871343 -0.214054 -0.38477618 0.43032405 0.23186734 0.10007729 -0.07447294 -0.5560768 -0.7320868 0.37439746 -0.14386892 0.13210446 0.026763523 -0.48429805 -0.06878749 -0.44039518 0.22663666 -0.07819398 0.16100585 0.15163967 -0.023126507 -0.5278178 0.2971225 0.3370741 0.19573954 0.027374944 -0.33021182 -0.0895981 0.35719752 -0.29487962 -0.27107084 0.0059523205 -0.054565243 -0.21206409 0.37132594 -0.086899504 0.045016985 0.19011009 0.18744504 -0.16775547 0.42990762 -0.028220946 -0.40945825 0.75777376 -0.23618108 0.13736033 0.120940335 0.45007268 0.55970323 0.09543737 0.26985845 0.43250164 0.114519745 -0.112392806 -0.16825713 -0.30090508 -0.08016529 0.1793072 0.0009610742 -0.23189141 -0.021727739 -0.48565263 -0.3073921 0.26750886 -0.17142573 0.23516332 -0.2185857 0.15167676 -0.22950006 0.39116803 0.13109955 -0.29185936 0.0031626462 -0.23734954 -0.14251298 -0.37436146 0.36983466 -0.21844645 -0.42791173 0.577332 -0.356924 0.2735843 -0.26140028 -0.20657878 0.27611026 0.07318215 -0.4300931 0.49947673 -0.6226163 -0.31367007 0.28570062 0.5021642 0.14102735 -0.5397549 -0.12760977 -0.30302688 -0.15339625 0.53911036 -0.77311623 0.19695446 0.107240714 0.43649176 -0.07959253 0.24809344 -0.40608728 0.0322379 -0.50427586 -0.105120234 -0.18823706 0.25556123 0.14072424 0.0014909724
0.09764802, -0.20666419, -0.2864806, 0.1287079, 0.14412698, -0.10841166, -0.15406984, -0.036729388, -0.1177055, -0.09935307, -0.041810453, -0.008728098, -0.3468495, 0.17734888, 0.19513077, -0.0858568, -0.22721408, 0.06114239, -0.117644146, 0.33393565, -0.1421072, -0.1840395, 0.17976011, -0.5777922, -0.03186427, 0.072536476, 0.21951313, -0.015664913, -0.27343133, 0.4422347, 0.03664591, 0.08572768, 0.18317358, 0.1937772, -0.21591341, 0.11178382, 0.09260701, -0.09740799, 0.45523795, -0.21794087, -0.068199515, -0.020328369, -0.26503664, -0.17378114, 0.02597769, 0.06886646, -0.15722539, -0.39231753, 0.08324532, -0.02173574, 0.10476489, -0.16388895, 0.067410156, -0.28570232, 0.49323094, -0.32827166, -0.116261885, 0.14897431, -0.002963292, 0.18309072, -0.10348101, 0.38713688, -0.085666135, 0.14797442, 0.1898333, 0.11066101, 0.3560755, 0.33444464, 0.14697959, -0.19386992, -0.0494139, 0.011247435, 0.092709854, -0.48909292, 0.2973489, 0.007221804, -0.12046346, 0.073658265, -0.1801229, 0.022197932, -0.017381331, -0.5297509, -0.11811498, 0.104075015, -0.15088348, -0.0016950873, -0.1791464, 0.21329285, 0.10481132, 0.22781043, 0.0025424268, 0.13113086, -0.2198641, 0.17624314, -0.29213414, -0.37224126, 0.30958423, -0.3860774, 0.11267768, 0.13420473, -0.38057643, -0.02648147, -0.040312216, 0.19256808, -0.37913832, -0.11491213, 0.079483226, 0.06602427, -0.22204645, 0.116320886, -0.090848036, -0.26740548, 0.21390702, 0.29242945, -0.034763817, 0.022094954, 0.13344304, 0.06968659, -0.06828758, -0.11531303, -0.3452169, -0.042815853, 0.19410808, -0.5877384, -0.06044133, -0.14408433, -0.013025867, 0.06487416, 0.2330027, -0.485359, -0.26154253, -0.425966, 0.14595297, 0.1730274, -0.095873676, 0.13125587, 0.20873299, -0.15170288, -0.23719902, 0.32966825, 0.07774869, 0.092283405, 0.14397953, -0.45218977, 0.47339076, -0.17270266, -0.05496519, 0.5062959, 0.15393281, 0.18259223, -0.30538067, -0.27718374, -0.08090261, -0.068352886, 0.1773675, 0.064331904, -0.16085462, -0.26816, -0.19240984, 0.11113064, 0.2416305, 0.05161714, 0.043171983, 0.19377807, -0.11305993, 0.7241702, 0.012783748, -0.043975215, -0.058750737, 0.05241558, 0.09807989, 0.40013593, -0.23603557, -0.16522932, 0.16283348, -0.17047773, 0.033556886, 0.04686666, -0.14891104, -0.06780108, -0.28631815, -0.1559361, -0.011275592, -0.028051093, -0.23242635, 0.21632265, -0.09015114, -0.3802725, -0.11136278, -0.16655618, -0.4266463, 0.028146042, -0.18242057, 0.30296898, -0.25588074, -0.20912066, -0.09246302, -0.0450994, -0.20264728, 0.42216447, -0.12821868, -0.44575447, -0.24775763, -0.110757716, -0.31256187, -0.026447877, 0.115363546, 0.19363835, 0.04635419, 0.41337666, 0.20077072, 0.04841544, 0.32272756, 0.13799836, 0.19080395, 0.19330826, -0.5518639, -0.2999977, -0.0040618046, 0.28646302, -0.25516352, -0.37624082, -0.15541948, -0.01186751, 0.03458296, -0.24418227, 0.17435499, -0.054211944, -0.12325376, -0.001055199, -0.11282645, -0.2252963, 0.10341473, 0.13398065, -0.0014452436, 0.21658236, 0.07705026, -0.0017819501, -0.12070052, -0.06174355, 0.22616395, -0.037060875, -0.16135974, 0.25768423, 0.20143475, -0.10299883, 0.013064335, -0.18117261, 0.39289337, 0.119784676, 0.012889955, 0.29378748, 0.07367215, 0.26151642, 0.19081554, 0.15260759, -0.48354304, -0.15074563, -0.29685792, 0.35243672, -0.21639092, -0.098621145, 0.12711743, -0.12219201, 0.031144632, 0.13671313, 0.39999968, -0.06860852, -0.046760265, -0.033197045, -0.033254076, -0.32457328, 0.025557384, -0.08869745, 0.2549284, -0.16183113, 0.19714037, -0.19380926, -0.13132903, -0.25241303, -0.22665362, -0.030253023, 0.03196748, -0.12190918, -0.34618354, -0.23121963, -0.27175257, 0.16352732, 0.3066555, 0.13342491, 0.42406276, 0.20949228, 0.23378482, 0.26222545, -0.22963989, -0.13366766, 0.36123234, -0.18539013, 0.3577127, 0.28823024 -0.33440265 -0.21619907 -0.029979855 -0.0018578972 0.5622526 -0.37991875 0.20801283 -0.45629093 -0.3464829 0.7277934 -0.12714672 -0.007422878 -0.071761504 -0.022732165 -0.08775818 0.32321176 0.34620646 -0.11284316 -0.40517312 0.72168386 -0.05617895 -0.18638304 -0.29543793 -0.15669215 -0.20068441 0.4268091 -0.025950331 -0.15914932 -0.49229068 -0.455135 -0.19869925 -0.18684757 -0.05359289 0.18188325 -0.1496339 0.3036838 0.37076855 -0.008990363 -0.148043 -0.2514758 0.5264183 0.2769459 -0.497937 -0.16420054 0.532613 0.31686348 -0.32306945 0.16532268 -0.25826943 0.18343207 -0.16391495 0.14834605 -0.2263825 0.008429039 -0.201806 -0.13001378 -0.16057305 -0.40406853 -0.24537855 0.17306848 -0.36294672 0.2484199 0.16222167 -0.04094062 0.36831647 0.38932952 -0.1592128 -0.0968462 -0.31810686 0.10442369 -0.37060308 0.04641304 -0.09045688 -0.36083943 0.5861472 0.07195883 -0.43583915 -0.36865517 -0.10773998 -0.16030893 -0.54049754 -0.104480304 -0.044177435 0.29945222 -0.3580772 -0.07340312 -0.014846504 0.36327118 0.37960202 0.381805 -0.08433448 0.08532396 0.15162471 0.15943985 0.34535664 0.14571123 -0.17422049 0.3148794 -0.7704837 -0.21574745 -0.094055526 -0.042023845 0.02235546 0.5649221 -0.0261035 0.607503 0.06758116 -0.007786545 -0.081471436 0.21264161 0.24538623 0.011470317 0.24718149 -0.5044828 -0.8690807 0.15947299 -0.024055038 0.29534543 0.101666234 -0.05089681 0.23485751 0.7356483 0.0701795 0.29161942 -0.15575926 0.13589422 0.030754475 0.19959112
33 -0.8459635 0.38457423 -0.24366294 0.095198475 0.52937305 0.10201882 0.50616634 0.118096486 -0.14166015 0.6031901 0.009117629 0.18050957 0.26739547 -0.3365322 0.5462602 -0.09275427 0.3407389 -0.10565459 -0.14725786 0.038141306 0.008412587 -0.19512199 -0.2870499 -0.52696776 -0.5215549 -0.31013462 -0.30580053 -0.6543149 -0.51818335 -0.5827197 0.27789664 -0.14403269 -0.38526517 0.038252715 -0.39448875 0.47454506 0.33703378 -0.29364386 -0.30657804 -0.0489795 -0.32551605 -0.044132177 -0.4612298 -0.0029486297 0.5990615 -0.10050286 0.10930566 -0.09521694 -0.21915005 0.06304704 -0.04161856 0.108052835 -0.23724143 -0.014247807 -0.08688528 -0.121890165 0.32815728 0.039273307 -0.3702141 0.0019161508 -0.32162473 -0.15753958 0.6176742 -0.05248902 0.32773852 0.1413387 -0.03444767 -0.429138 -0.1814302 -0.5917501 -0.2940668 -0.563584 -0.4912299 -0.27370858 -0.25027645 -0.1904293 -0.35389528 0.08990971 -0.17532386 0.10004761 0.16867884 0.18761502 0.19313385 0.84252346 -0.28992477 0.41705114 0.41585502 -0.5064258 0.728983 -0.25969812 0.20254189 0.022727499 0.34732834 -0.116334535 -0.23612973 -0.018794592 -0.070454255 0.067901224 -0.6619129 0.27089933 0.070427194 0.22812898 -0.06835543 0.108901046 0.16779238 0.22847672 -0.19362335 0.4109462 0.15347505 -0.35215774 0.33784294 -0.39098042 0.11430824 -0.081896916 -0.33854023 -0.13707088 -0.07779392 0.16772512 -0.0047608693 -0.33107093 -0.23359254 -0.6167199 -0.4283261 0.20367767 -0.33651668 -0.040888984 -0.21369942 0.38109422
92 -0.51978236 -0.20487192 0.27282766 -0.008879483 0.74784875 -0.2719072 0.10327276 -0.67149264 -0.36238524 1.1417719 -0.10749772 -0.1160649 -0.17760262 -0.026272817 -0.28376788 0.15810095 0.17640135 0.080096 -0.56890845 0.47600666 -0.19913128 -0.30087912 -0.54679173 -0.5171201 -0.15065761 0.23864506 0.102707826 0.058146317 -0.29266447 -0.5989385 -0.042585324 0.029074853 0.13140973 -0.12400665 -0.1735886 0.2683535 0.05831921 -0.33139423 0.02242662 0.18869977 0.36957222 0.033810854 -0.21996814 -0.09873088 0.1457346 0.59768873 -0.563016 0.32747754 -0.17951684 -0.16737537 0.23971468 0.37883794 -0.062337525 -0.05717525 0.010239123 0.35165593 -0.09781644 -0.61381704 -0.30661684 0.10405083 -0.1308093 0.27577126 0.37004703 -0.18177293 0.46783617 0.03499975 0.1100208 -0.20101258 -0.071576394 0.19394945 -0.4147537 0.2728565 -0.1060429 -0.39729583 0.32513002 0.08128607 -0.275994 -0.28319782 0.27646536 -0.22178425 -0.6094666 -0.068540156 0.11537237 0.53749037 -0.27247116 0.06423693 0.11826005 0.13831468 0.40522426 0.41415903 0.11260935 0.23180787 0.3190346 0.14352737 0.21750909 0.42840904 -0.22893201 0.19391812 -0.6607674 0.18373625 -0.12689519 -0.3511001 0.208171 0.34081063 -0.04161533 0.38191238 0.35835645 0.03497669 -0.24442157 0.17985606 -0.061254695 0.106230386 0.37663382 -0.3895706 -1.1628468 -0.29666197 0.14271311 0.36582896 -0.042893045 0.3763487 0.40385592 -0.030115139 0.32154772 0.1455528 -0.019582713 0.023172216 0.107309416 -0.0073849913
98 0.43603143 -0.29361525 0.4111059 0.09048471 0.42824095 0.1641159 0.16889425 -0.10658987 -0.40136033 0.36230108 0.094661176 -0.24572428 -0.14972462 -0.31282884 0.46387056 -0.048983403 0.25785905 0.26917028 0.15904912 0.17879707 -0.18418238 0.49100065 -0.88042516 -1.1577468 -0.58820105 -0.013701181 0.010555543 -0.13079272 -0.33232722 -0.15398777 -0.037502464 0.17814004 0.24683923 0.08446503 0.16654508 -0.08804577 0.31397024 -0.2948731 -0.44200182 -0.015963962 -0.17836127 0.40352446 0.02060408 -0.51639736 0.56115 -0.31356275 -0.5015109 0.09255082 0.28622326 -0.22404188 0.45424157 0.15550423 -0.16931199 0.11307257 -0.33224514 0.30258963 0.3230124 -0.6795696 -0.22194082 -0.17573276 0.27204153 0.18065955 0.22681004 -0.17645274 0.4620104 0.101077564 -0.08838761 0.17389289 0.019208033 -0.4270156 -0.373432 -0.3889564 -0.9725997 -0.44385326 0.46008387 0.011278929 0.043781623 -0.4024244 -0.2312907 -0.06921899 0.005424517 0.066977195 0.2699088 0.657602 -0.34870306 0.100509554 0.57985497 -0.06326475 0.04066389 0.3493532 0.44094652 -0.54190964 0.19215503 -0.32659805 0.04673961 -0.0009846734 0.5207894 -0.3803708 -0.25952205 -0.5965088 -0.36900273 0.14583 -0.1707037 0.6173569 0.16271709 0.42905357 0.135769 -0.01478781 0.3034325 -0.37085885 0.4767751 0.06884352 -0.294182 0.14222723 -1.0509626 -0.26897034 0.5639936 0.27827185 0.23284328 0.26910245 -0.049644306 0.19256784 -0.3675733 0.19559556 -0.39512232 -0.034946777 -0.32623175 0.20295537
111 -0.11318167 0.22098297 -0.09270596 -0.42077062 -0.06014152 0.5301454 0.22450158 -0.28426743 -0.2851506 0.30773842 -0.20311782 -0.0004930877 0.17960651 0.16184773 0.6131628 0.4376663 -0.085493326 -0.45755544 -0.24380898 0.25937355 0.39589137 -0.3892699 -0.65516 -0.78901845 0.19064862 -0.1344904 0.66917044 0.106628686 -0.06337445 -0.91559976 0.58608073 0.55082357 0.023542287 0.086982995 -0.388503 0.3195728 -0.003681898 -0.2995353 -0.1585647 -0.16130255 0.037525095 0.51407397 -0.1466857 0.4924822 0.5265522 -0.15596431 0.2670009 -0.33483323 0.021566963 -0.11044693 0.4917453 0.15708475 -0.05712931 0.18431716 -0.24892485 0.4677843 0.7095427 -0.06929172 -0.507492 -0.11501753 -0.78241694 0.03041856 0.82245326 -0.007077568 -0.09793646 -0.037915733 -0.15205935 0.30342862 0.11922346 -0.5623814 -0.2988286 -0.3835974 -0.17826195 -0.23393394 0.22760688 -0.43996614 -0.029739173 0.02912401 -0.23625289 0.3466372 0.10082433 -0.13857017 -0.30389848 0.42651305 -0.41583273 0.16714092 0.04382945 -0.2671212 0.44624603 -0.062807366 -0.18927789 0.032997895 0.2743219 -0.19499698 0.15785325 -0.16825125 0.20606542 0.22761369 -0.08510485 -0.04136561 -0.31730348 0.25485408 -0.092542954 0.29278898 -0.3272885 0.47445545 0.12945884 -0.025382955 -0.15665942 0.010913781 0.02725299 -0.25777265 0.19881782 -0.31726646 -0.3068776 0.22416592 0.041171767 0.047466356 -0.41905937 0.09194478 0.044708647 -0.04270866 0.045168832 -0.086285695 -0.03651312 -0.34465906 -0.04049815 -0.10760119
76 0.37128046 0.13143224 -0.19482918 -0.11176976 0.8331945 -0.24379711 0.16810304 -0.55890244 -0.3094884 0.72499245 0.16528955 -0.027643379 -0.07529282 -0.026221124 -0.02561775 0.065519914 -0.153923 -0.23945083 -0.040271766 0.12128337 -0.087176144 0.3467657 -0.54332393 -0.8231501 -0.94793135 0.33878306 0.35980728 0.57847244 -0.2735373 -0.57932013 -0.16634867 -0.23408563 0.21974309 0.07606214 0.1710609 0.3572507 0.23854725 -0.55529594 -0.08494495 0.43460208 -0.00667238 0.11456715 -0.45117086 -0.12798907 0.59079385 -0.24702968 -0.6044613 -0.41785935 -0.11622734 0.1581154 -0.35050064 0.4531221 -0.13126868 -0.15243472 -0.034198526 -0.17225654 0.5749726 0.015408422 -0.6647335 0.41044822 -0.11150787 -0.045713548 0.30416223 0.11027956 0.75786704 0.3317363 0.13711458 0.029524524 0.26358 -0.085926674 -0.26763052 -0.13623738 -0.30897865 -0.27694172 -0.03180854 -0.2670728 0.13004775 -0.52123374 -0.23292993 0.61746025 -0.20017529 0.3791423 -0.16979587 0.12404557 -0.15835021 0.1880087 -0.028826822 -0.72095805 -0.16946885 -0.18148439 -0.20562933 -0.08750765 0.48624268 -0.4444531 -0.15109949 0.65758234 -0.27468327 -0.09176899 0.06744973 -0.38928545 0.4666357 0.17029685 -0.42300555 0.27671224 -0.1295699 -0.22943927 0.044685505 -0.057068426 0.31531942 -0.70730513 -0.117137656 -0.043588992 0.47207826 -0.30725482 -0.39204365 0.42312497 0.13726813 -0.17168093 -0.08712328 0.22074127 -0.26628605 0.18785569 -0.42544448 -0.38119075 -0.14224498 0.25434315 0.09821683 0.22004473
49 -0.07702763 -0.17634912 -0.021013273 0.0664658 0.5321302 -0.11844754 -0.035999965 0.050010204 -0.57697445 0.614969 -0.09978853 0.10066195 -0.15362373 -0.00804402 -0.42449263 0.45581958 -0.16171178 0.5690161 -0.34134847 0.020604037 0.01988517 -0.12187478 -0.06630241 -0.79090816 -0.3648548 0.36146995 -0.57498837 0.32993335 0.046370227 -0.33036795 0.1116459 -0.0017540934 0.47390977 -0.113285445 -0.34417978 0.16070357 0.15683816 -0.20776202 -0.25925246 -0.00035114188 0.2938471 0.14758785 0.027927265 -0.24186073 0.5846734 0.38399717 -0.7188869 -0.14728168 -0.31460628 0.2597638 0.3043233 0.58166575 0.26986834 -0.107416995 -0.012538763 0.120112754 0.60523987 0.24561019 -0.04409402 -0.16704576 -0.73796237 0.25791043 0.021808565 0.3338302 0.2664898 0.5930031 0.23560928 0.3240301 -0.100045234 0.023854814 0.1134882 -0.42795494 -0.818161 0.13989723 -0.011762532 -0.58266205 -0.366822 -0.40189925 -0.32648358 -0.2703295 0.13264835 -0.085691445 0.123739876 0.63351536 0.056008097 0.048876733 0.12306338 -0.296117 0.51853865 0.46364754 -0.03652342 -0.3623294 0.20599425 -0.3387028 -0.18682715 -0.08015798 -0.11442465 -0.35775387 -0.2912973 -0.28033423 0.2631673 0.25165048 -0.18371688 0.06386331 -0.117619745 -0.16131859 -0.1698592 -0.0055183806 -0.8179327 0.06628667 0.31410015 0.014887696 0.0056520486 -0.06843452 -0.017201781 -0.10206579 0.07867667 -0.37829357 0.27279198 -0.38007125 0.23451017 0.08064042 -0.04791196 -0.22407474 -0.20999411 -0.33308294 -0.1120285 0.21217167
26 -0.41176587 0.4152769 -0.2752874 0.09569479 0.34059134 0.29098144 0.26947123 0.341639 0.022329688 0.17823449 -0.26251924 -0.18706857 0.4361818 0.39940244 0.24118699 -0.0033016203 -0.20059486 0.054263443 -0.3254499 0.3972092 0.44447643 -0.04431136 -0.67134565 -0.53273314 -0.27192122 -0.30209738 0.12164146 0.45513323 0.12370186 -0.69490796 0.17339905 0.18958794 0.16212825 0.30710503 -0.08579386 0.34221005 0.5100376 -0.26899415 -0.2122606 -0.4389633 0.07788386 0.33914715 -0.35635957 0.050768316 0.5866909 -0.023135934 0.048350416 0.0916797 -0.07323081 0.15756905 0.39466253 -0.0030772404 -0.29685843 -0.016438652 -0.5466046 0.4446503 0.692021 0.13604106 -0.30889302 0.092082016 -0.66368175 0.14413847 0.79106224 0.19896421 0.03909772 0.11211181 0.03698481 0.01623232 -0.12739944 -0.7251719 -0.34259325 -0.24826625 -0.44650444 -0.35487327 0.06373242 -0.059785612 0.18602224 -0.23577006 -0.451422 0.12477617 -0.021624569 0.043360233 -0.20744182 0.20377566 -0.40711 0.5484747 0.28604 -0.4456417 0.20446505 -0.42975232 0.079933375 -0.20482723 0.0008584566 -0.09198861 0.051454246 -0.1752474 0.56367373 0.2673854 -0.4222203 0.24716479 -0.2045929 0.20138 0.1872173 0.56568897 -0.20842583 0.19949558 0.2065557 0.04463878 -0.28941804 0.13036844 0.060939886 0.04446918 0.3302221 -0.38771412 -0.45651484 0.4049515 -0.16569142 0.13805874 -0.05813278 -0.10294899 -0.5171066 -0.41310388 -0.14335611 -0.04274491 -0.12198396 -0.093483776 -0.38209206 -0.10401727
