502 128
95 0.13258713 -0.5980532 0.43688944 0.6168168 -0.12661053 0.10338106 -0.0070802765 0.5311125 0.40561754 -0.1741112 -0.020495497 -0.04734459 0.29500368 -0.5507669 -0.1896234 -0.17813122 -0.25265795 0.2988713 -0.49121827 0.6052482 -0.23179875 -0.3836348 -0.5598575 0.21211539 0.250991 0.5229049 0.5252654 -0.2315722 -0.17951722 0.42822737 -0.42178756 -0.003917423 0.124408 -0.42086998 0.1902014 0.3806991 -0.12117964 0.13073845 0.14157893 0.2505899 -0.3254522 -0.25125936 -0.19571292 0.22732097 -0.12155577 0.14843372 0.442028 0.4149928 -0.036313623 -0.56818146 0.36975056 0.118728325 -0.21795706 -0.21081671 0.1003106 0.14913453 0.4830808 -0.26804692 0.1348798 -0.3807153 -0.045629602 -0.15537651 0.008509458 -0.036472294 -0.33671752 0.5075884 0.0822931 -0.58623433 0.63559556 -0.52375346 0.3247307 0.11062908 -0.27903366 -0.3314602 -0.058162402 0.42777732 -0.26166266 0.018906983 -0.43751547 0.46660742 -0.49638206 -0.25901234 0.023120854 0.17096947 -0.13351336 -0.25895116 0.70995945 0.015022595 0.069334 0.5059373 -0.1451041 -0.40829417 0.02059535 0.26808944 -0.083858006 0.51018757 0.4153651 0.15942173 -0.053213373 -0.35073847 -0.11674326 0.34346876 0.017313443 0.055503715 0.05141083 0.30758545 -0.0350593 -0.16190356 -0.0011842541 -0.061752163 0.3564111 0.011894263 0.03067302 0.49897787 -0.082801834 0.24817763 0.14309743 0.24620028 0.07500444 -0.095155165 -0.15585868 -0.3918116 0.58986163 -0.32520762 0.22453623 0.005486845 -0.58629304 0.1717499
93 0.20567691 -0.5168144 0.36248198 0.539123 0.020058762 0.036163326 0.0041123293 0.6051673 0.42114735 -0.07250008 0.048177056 0.013332838 0.39957035 -0.5517237 -0.24047206 -0.1407716 -0.105516985 0.25310317 -0.6330719 0.53321785 -0.28948298 -0.30552363 -0.4690218 0.12530252 0.37409893 0.72151875 0.45365205 -0.15900476 -0.15616435 0.41308275 -0.3565991 -0.004730173 0.0676138 -0.5194821 -0.034066964 0.44517803 -0.02288772 0.122379385 0.11762616 0.29182553 -0.41919196 -0.17557736 -0.15115194 0.26661766 -0.13499434 0.04326913 0.3264572 0.42286965 -0.068201914 -0.37726513 0.24310432 -0.08407861 -0.22622071 -0.3506087 0.20335826 0.027417522 0.34570605 -0.2198401 0.09444882 -0.3266877 -0.08789555 -0.18339191 -0.104807965 -0.12791249 -0.2983495 0.56084746 0.10600044 -0.49246883 0.68979686 -0.5762954 0.22450185 0.12839265 -0.32406142 -0.11111562 0.03204283 0.32655057 -0.10732936 0.1303408 -0.48741663 0.46348977 -0.43020147 -0.3666914 -0.092290685 0.1429775 -0.24718039 -0.30452314 0.5196724 -0.12637183 0.09974379 0.5122628 -0.1895021 -0.4182932 -0.09903517 0.2293146 -0.0994092 0.45640454 0.35135928 0.08591538 -0.13307816 -0.32113343 -0.23110768 0.31418905 -0.18072228 0.13463172 -0.019945223 0.3600513 -0.013697019 -0.25184137 0.005654208 -0.23927861 0.272016 -0.12570722 0.22449572 0.47803685 -0.25742042 0.24489316 0.24773827 0.01052044 0.14509575 -0.051880877 -0.054272324 -0.50117886 0.6002879 -0.37024418 0.0014473202 0.016087914 -0.58029497 0.13835694
94 0.2519603 -0.42947978 0.3895096 0.5469817 0.003777118 0.03804559 0.09899093 0.5666504 0.34581256 -0.16173123 -0.14048682 0.061866164 0.2914873 -0.4192758 -0.21385007 -0.23083094 0.011121111 0.06989241 -0.56626105 0.5561651 -0.25229394 -0.27555165 -0.5834494 -0.044884093 0.31884503 0.5971865 0.5018434 -0.20161858 -0.06886677 0.4760312 -0.47009066 -0.0021681592 0.004882267 -0.402182 0.08316428 0.5863919 0.008012669 0.053560518 0.12936375 0.25755543 -0.5737427 -0.019810732 -0.19524303 0.24747044 -0.056151822 -0.06028971 0.32481062 0.35595125 0.07798345 -0.32347944 0.2539692 -0.07973386 -0.3190635 -0.25515082 0.21008296 -0.05332947 0.29808694 -0.22439861 0.21094103 -0.4123506 -0.053941827 -0.17125505 -0.18068247 -0.012512163 -0.37322858 0.29644516 0.042751253 -0.56967247 0.642465 -0.5047663 0.23521595 -0.041716024 -0.32651883 -0.1353941 0.12871203 0.14092724 -0.032332197 -0.03220338 -0.5480648 0.5191363 -0.5515401 -0.4995747 -0.017349388 0.28807542 -0.26664233 -0.120817594 0.5323139 -0.17178415 -0.10056039 0.33553314 -0.18083212 -0.34341523 -0.13811003 0.293138 -0.23666635 0.36399898 0.2300363 0.0077757738 -0.08569644 -0.37945655 -0.2478046 0.30907604 0.10049226 0.14619783 0.023523156 0.38003454 0.112780735 -0.17879598 0.1228952 -0.26928303 0.25005865 -0.04909949 0.22431315 0.64166576 -0.31944042 0.061810136 -0.0014480912 0.10995446 0.1459878 -0.1573866 -0.11290711 -0.494192 0.53581965 -0.4491979 0.13468787 0.17398413 -0.57585174 0.10240587
-0.04608272, -0.38059863, -0.3007064, -0.10318119, -0.17157456, -0.10328145, -0.013040159, 0.18156458, 0.12359756, -0.021596624, 0.18092503, 0.3871925, -0.42699486, 0.18430068, 0.19066332, -0.30025867, -0.22374368, -0.0410871, -0.0483035, -0.16514114, 0.08178098, 0.1729086, 0.11037792, -0.43576568, 0.23402332, 0.5728449, 0.11256782, 0.37616944, 0.14155132, 0.05196795, 0.05269994, -0.1284763, -0.08886413, -0.111397, 0.022718657, 0.027606055, 0.08102764, 0.19341965, -0.28401333, 0.03620239, -0.4103391, 0.22368492, -0.19173932, 0.3745824, 0.028165301, -0.5144881, 0.10886446, -0.22775441, 0.34125888, 0.04657206, -0.3645838, -0.2979452, 0.112987846, -0.09252355, 0.0718566, -0.06427821, -0.3016715, -0.053843115, 0.41292626, 0.01946359, 0.21973123, 0.42784256, 0.052557178, -0.009085913, 0.055349126, -0.22524434, 0.17193854, -0.23789266, 0.05981311, 0.10419971, 0.012021428, 0.050249808, 0.006319795, -0.3430943, 0.038671497, 0.025304224, -0.19613464, 0.12743467, -0.14935823, 0.22461194, 0.14894907, 0.41455412, 0.05705372, 0.46901885, -0.107238516, 0.026967559, 0.15366635, -0.09050042, -0.53050894, -0.06533662, 0.14688046, -0.11641975, -0.30391318, 0.15376937, -0.07506618, -0.13929583, -0.19033843, 0.18605925, -0.12211121, -0.093348615, -0.12515613, -0.23827438, -0.19809505, -0.22635756, 0.014466093, -0.030560505, -0.3878114, -0.12088575, 0.09150943, 0.06816841, -0.12881088, -0.45811182, 0.0010493477, -0.025115304, 0.31016296, 0.37941948, 0.45256603, -0.25068337, -0.029767483, 0.19665411, 0.032094415, -0.2487051, 0.46806172, -0.43931675, 0.16403474, 0.11928889, -0.02618416, 0.2832693, -0.40642533, 0.17986558, -0.12556618, 0.008022271, -0.42263475, -0.44664633, 0.04199728, 0.3540972, -0.11671005, 0.2027929, 0.24695428, 0.16347933, 0.26502636, 0.20361722, 0.32177076, -0.42280436, -0.05937238, -0.21152432, 0.21711493, 0.2734731, 0.09045593, 0.045136124, 0.026042357, 0.17542091, 0.008112128, -0.23006581, -0.17290914, 0.16455169, 0.004651993, -0.06871127, -0.12088238, 0.45831865, 0.32608375, -0.27646667, -0.16712669, 0.062484317, 0.0049324227, -0.11020895, -0.07887008, -0.18920071, 0.18825617, 0.06141346, -0.08003662, -0.037182104, -0.3680672, -0.019375734, 0.23848122, -0.19456428, 0.106407315, 0.422858, 0.1238199, 0.090671085, -0.08774879, 0.10589193, 0.34019548, 0.046535917, -0.048077054, 0.40319085, 0.06198489, 0.06984442, 0.30981702, 0.2503715, 0.035679445, 0.21181367, 0.01564683, 0.18955742, -0.039001346, 0.1085, -0.17278081, -0.26056805, 0.025722317, 0.14110121, -0.017827842, -0.021827864, 0.004758409, 0.1409493, -0.08876903, 0.09069106, -0.1587111, 0.13895631, -0.49942005, 0.10367362, -0.24020875, 0.44432566, -0.10112442, 0.043050464, 0.41854894, 0.28946844, -0.19908735, -0.29849052, -0.02872955, -0.03637543, 0.2880462, -0.032255396, 0.26636145, -0.13098253, 0.12169437, -0.30957693, 0.08775727, -0.3367169, -0.043762214, -0.075048886, 0.030874161, 0.28124553, 0.31899127, 0.0238689, -0.08504282, 0.34388664, -0.08366391, -0.5229568, 0.15831336, -0.32358956, 0.07843105, 0.06659838, -0.29473922, 0.5636104, -0.047017746, 0.059526343, 0.15496533, -0.053051587, 0.3202429, 0.17222415, -0.084172405, 0.15700412, -0.18125269, -0.10369836, -0.17584674, -0.25538877, 0.247185, 0.2738014, 0.36224437, 0.28022677, 0.15282889, -0.18950817, -0.654742, 0.24050318, 0.0019081817, 0.06625499, -0.063179925, -0.15793326, -0.11054917, -0.22982797, 0.02006797, -0.02261235, 0.321012, 0.23018402, -0.01796801, -0.09021896, 0.121071525, 0.25444737, -0.0102415625, -0.2500723, 0.1689873, 0.14562552, -0.047902696, -0.18523651, 0.32892874, 0.2445204, -0.008999941, 0.2525166, -0.052154873, 0.27965966, -0.31829417, -0.06117446, -0.034997545, -0.033601947, -0.16774905, 0.11896884, 0.27276498, 0.004997772, -0.19020753, -0.10152311 0.18314293 -0.50813574 0.02690956 0.64559406 -0.054139134 0.25517386 -0.16568924 0.01907846 0.41567987 -0.13421302 -0.19675714 0.01982538 -0.10205978 -0.024469126 -0.24623866 -0.288423 -0.081136174 0.4403987 0.049201775 0.12747668 0.088354796 0.1761307 -0.509159 0.304085 -0.14226784 -0.08573505 0.30798694 -0.48818943 -0.23649417 0.4031586 -0.046915032 0.24414048 0.17914176 0.20337945 -0.04237341 0.07558051 0.012706602 0.47615638 0.13827494 0.1980743 -0.22740214 0.1543606 -0.25233886 0.32517368 0.11663373 -0.43770063 -0.091082424 -0.19094889 0.4740027 -0.36367494 -0.06680121 -0.29611754 0.14436361 -0.10320677 0.55408996 -0.012546667 0.38384897 -0.5964286 0.32994196 -0.4123895 -0.76062804 -0.55101526 -0.42896336 0.1597335 -0.01979484 0.19371063 0.49455136 -0.2840154 -0.11547395 -0.012778289 0.21028094 -0.008810374 0.00371231 -0.42283994 0.066903755 0.06765813 -0.5580069 0.15976301 -0.13175789 -0.22019742 0.6814609 -0.104426645 -0.040748686 0.022963645 -0.19565779 0.420697 0.364994 0.27153373 -0.14525811 -0.13989773 0.68414146 -0.10327816 0.12571974 0.29572627 0.31679264 0.2542611 -0.10193745 0.18692909 -0.13504188 -0.22989535 -0.117673986 0.14802814 -0.042273 -0.26826376 0.0729631 0.3009742 -0.10439608 -0.2217843 -0.5037937 0.022525907 0.012470383 0.18101509 -0.10933462 0.24645555 0.16295037 -0.029561905 0.12018646 0.13985966 0.47453824 0.108916275 -0.88856304 -0.20941076 0.2107021 -0.10058897 -0.51721454 0.32571128 -0.18952222 0.35644552
-0.08547448, -0.29826584, -0.14741431, -0.67061037, -0.43497878, -0.38970268, -0.19331034, 0.0026911893, -0.14017418, -0.3710046, 0.19588524, 0.50693357, -0.40660346, 0.060307745, 0.4046258, -0.62973624, 0.11785334, -0.17953649, 0.05160977, -0.095493965, -0.18132052, 0.03826847, -0.1944767, -0.8787426, -0.052537657, 0.23939374, 0.61991715, 0.87798643, 0.22267313, -0.29736802, 0.028789824, -0.30809578, -0.0542155, -0.25352523, -0.25583473, -0.08532951, 0.28817376, 0.41289523, -0.00792686, 0.24107456, -0.20131549, 0.3377247, -0.25690502, 0.35726756, 0.027287206, -0.40293846, -0.54056203, -0.28486973, -0.029724529, -0.47154206, -0.3967071, -0.4742465, -0.005546905, -0.50885016, -0.061332688, 0.07627737, 0.12908617, 0.19868691, 0.5408949, -0.4623319, 0.13502872, 0.1309458, -0.26053345, -0.009056642, 0.08146737, -0.14192095, -0.20352887, 0.21550697, 0.19168872, -0.29205415, 0.26351216, 0.24171916, 0.025810005, -0.55607706, -0.40277648, 0.13517939, -0.27300778, 0.3711192, -0.193878, 0.02004339, -0.36554146, 0.48420388, 0.0878743, 0.34118977, 0.03527869, 0.06615776, 0.24636766, -0.030541956, -0.30129728, -0.05087695, -0.08543088, 0.25910518, 0.16375847, 0.14950982, 0.41354564, -0.09212178, 0.039013565, 0.12550597, -0.39747158, 0.0011751303, -0.0302062, -0.28866524, -0.1901337, -0.2015753, 0.11327507, 0.46685705, -0.49245948, 0.06320734, -0.3105893, -0.20835456, 0.17934407, -0.52467066, 0.19670442, -0.10700878, -0.032256693, 0.5803727, 0.30203456, 0.26631632, -0.23506074, -0.23485185, 0.2501363, -0.12184304, 0.6253184, -0.035855155, 0.050049763, -0.15232724, -0.38403606, -0.020263184, -0.5847818, -0.004061971, -0.09157497, -0.4583943, -0.34568977, -0.52104604, -0.25861678, -0.117276, 0.09799441, 0.15111157, 0.3134129, -0.10316217, 0.040958494, 0.2389556, 0.17087452, -0.70924014, -0.001072801, -0.26048806, -0.0540118, -0.42857033, 0.42508703, 0.0016576943, 0.070508994, 0.04336412, 0.00092854566, -0.00027608735, 0.040260985, 0.2957077, 0.0015368146, -0.14539924, 0.12009415, -0.21632099, -0.16827787, 0.012367013, -0.26745015, 0.016989142, -0.016897155, 0.0875287, 0.020095015, 0.13754281, 0.21871457, 0.1386973, 0.1382741, -0.059942845, -0.13604516, -0.2653919, -0.2131206, -0.1908882, 0.36786342, 0.5130381, -0.1351802, 0.0793475, -0.39795962, 0.42081177, 0.3715465, 0.35093012, 0.12619488, 0.35592395, -0.40973133, -0.19444618, 0.18313268, 0.07849345, -0.25149447, -0.15154907, -0.2326549, 0.053796984, 0.09788425, 0.07247626, -0.02296063, -0.37131947, 0.0594042, 0.09914632, -0.16609015, 0.34075087, -0.12332687, 0.0005157145, 0.14297669, 0.017582132, -0.008779151, -0.12335509, 0.028752109, -0.13830797, -0.015183254, 0.018969852, -0.15514384, -0.20015176, 0.41659614, 0.4606939, -0.19941185, 0.012086859, 0.18714122, -0.17984743, 0.39554515, -0.21936855, 0.22323571, -0.4914505, -0.13813391, 0.017122291, -0.09105322, -0.32170448, 0.056053903, 0.02643442, 0.28093007, -0.16845793, -0.054187518, 0.28471726, 0.07457285, 0.14122358, 0.019835977, -0.31870613, 0.13467562, -0.34367275, 0.16879731, 0.4887708, -0.24816054, 0.41746026, 0.31506085, 0.17307363, 0.044022985, -0.31272265, 0.068612866, -0.15236238, 0.0671384, 0.3666283, 0.05042359, -0.24060361, -0.22770517, -0.11951465, -0.04880576, 0.019174015, 0.2776341, 0.5573643, 0.39455283, -0.06596572, -0.38140762, -0.040391847, 0.16734867, 0.22110373, 0.5233019, -0.244626, -0.06581722, -0.23032989, -0.1740666, -0.26465023, -0.22275618, 0.43023762, -0.026344901, 0.0849443, 0.06791598, 0.15605208, -0.29888138, -0.17934243, -0.13411514, -0.08885195, -0.15275909, -0.3600689, 0.08731703, -0.014200481, -0.072012715, 0.019505868, 0.10770646, -0.1055515, -0.14581163, 0.21632844, 0.22605777, -0.32623723, -0.12906912, 0.25288722, -0.22108723, -0.12618136, -0.6181268, 0.28843206 0.23635724 -0.18829717 0.27802068 0.6211779 -0.18336792 0.48289776 -0.16800614 0.19189319 0.12619995 -0.13054696 -0.19520687 -0.046615433 -0.08727485 0.07421695 -0.30487242 -0.25088835 -0.107031204 0.33099723 -0.06523071 0.21279839 0.015175148 0.06819895 -0.5879616 0.17539331 -0.1608267 -0.20335782 0.27242312 -0.3488611 0.122147255 0.5182768 0.089114845 0.22227609 0.07765294 0.31327316 0.019855304 0.16234809 0.05388496 0.3465558 0.2930873 0.3377961 -0.029144127 0.015105432 -0.2551548 0.07963495 -0.052058246 -0.39784843 0.07849285 -0.17630921 0.6049908 -0.22824983 0.0813287 -0.19358844 0.40998784 -0.06372521 0.44771793 -0.003549348 0.16358735 -0.28429562 0.22936918 -0.06463554 -0.58405095 -0.55642474 -0.32556483 0.29943457 -0.1678911 0.12940022 0.25266746 -0.51838803 0.04873276 -0.05226531 0.3556552 -0.07581165 -0.12507609 -0.25988108 -0.079853974 -0.17124349 -0.25535393 0.053993747 0.012702018 -0.065059595 0.33042294 0.10198224 -0.057922117 -0.033488452 0.06110126 0.5083545 0.2577503 0.18069729 0.0034395475 -0.06768861 0.55681294 -0.052484527 -0.09881943 0.32681367 0.35814136 -0.070222445 -0.0067671863 0.22353128 -0.10555719 -0.012217876 -0.093213886 0.26507843 0.05443021 -0.26504415 0.4686349 0.37225384 0.1039364 -0.22991036 -0.1514563 -0.01266324 0.06190862 -0.10430234 -0.23691767 -0.10844349 0.101866454 0.056328047 0.022431457 -0.14554588 0.33524552 0.1376648 -0.53756034 -0.09083704 0.280116 0.0570877 -0.6304799 0.30459255 -0.25903785 0.46558976
61 0.29904437 -0.48943415 0.19496252 0.3069209 -0.032869145 0.7055985 0.14146496 0.2653801 0.20390059 -0.17586325 0.58130705 0.11344859 -0.8297031 -0.09952332 -0.5664954 -0.23284435 -0.35581887 0.18906827 -1.078594 0.18469615 -0.5954807 -0.1672767 -0.10152392 0.32750905 0.19570483 0.145483 -0.23856945 -0.41048095 -0.16607168 0.026163826 0.11729878 0.1326084 0.11986559 -0.44060606 0.22803134 0.2772894 -0.19286367 0.44722363 -0.06048567 0.16289906 -0.41382563 -0.3490654 -0.49791428 -0.09661836 0.2940351 -0.25323913 -0.01284319 0.2623404 -0.060724013 -0.0457622 -0.19689448 -0.056491323 0.3462927 -0.24529627 -0.09866603 -0.474131 -0.07531124 -0.08091013 -0.15521649 -0.24237747 0.30863106 0.08759697 -0.5121072 -0.30896923 0.05323065 0.3114623 0.415533 -0.7198429 0.09102649 -0.6668037 -0.075228535 0.5188605 -0.066412985 -0.3536328 -0.011092432 0.15338725 0.26589784 0.2831935 -0.15983376 -0.03382753 0.28014344 0.07846131 -0.30468324 0.08935059 0.20690371 0.3891935 0.18174408 0.235724 -0.15012097 0.048087984 0.5217529 -0.9350195 -0.041484635 0.031930488 -0.12743548 0.26741448 -0.24777848 -0.19107555 -0.44921464 -0.31026873 -0.18605545 0.47729865 0.043176856 -0.30752155 0.22504313 0.6221119 0.42326456 -0.08859141 0.31009638 -0.38833192 0.47992444 0.06646414 0.1050032 0.36834824 0.17069544 -0.12347275 0.34950382 0.16276824 -0.21581052 0.26285657 0.016500339 -0.19821887 -0.037380736 0.23163252 -0.56807494 0.45179743 -0.4466839 0.25990847
5 0.28996077 -0.18076639 0.4179687 0.4490485 -0.29486975 0.46246174 -0.22291514 0.2664229 0.39037797 -0.18911272 -0.24796468 -0.32266432 -0.29431534 0.33540863 -0.23698227 -0.23435938 -0.11907788 0.17736872 -0.13599941 0.2609087 0.21323168 -0.05056877 -0.6311529 -0.054700498 -0.26725897 -0.27801043 0.30768523 -0.36601478 0.14686228 0.6393558 0.22612093 0.11873245 -0.12827244 0.37677696 0.121589854 0.30310595 0.047394667 0.46801335 0.29038572 0.36104086 0.018021451 -0.22205961 -0.29006502 0.07086655 -0.26315722 -0.24494319 0.02836634 -0.26005927 0.51300144 -0.23018518 0.24080396 -0.09064792 0.58599347 0.030469092 0.45154935 0.15419358 0.19557434 -0.33290496 0.24604337 0.03771245 -0.3986757 -0.3875982 -0.541349 0.3192855 -0.43108717 -0.11277934 -0.0022372014 -0.7755937 0.22896871 -0.26750436 0.5366905 -0.1147958 0.008664154 -0.064455196 -0.11283297 -0.03319138 -0.2511331 0.057995956 0.17438322 -0.24390806 -0.0032234623 0.20953085 -0.04617226 0.09885897 -0.00546012 0.38906655 0.36046204 0.08595783 -0.17462051 -0.24021052 0.5252758 -0.057005413 -0.4443571 0.49190825 0.34428573 -0.29740086 -0.1011409 0.31589526 -0.2903318 -0.07437444 -0.03760802 0.33050486 0.19080743 -0.22792393 0.32292065 0.40850985 0.1445092 -0.2535258 -0.031873163 -0.037020206 0.14697574 0.0535309 -0.10404725 -0.213611 -0.18821064 -0.017903525 -0.06297068 -0.17623639 0.2489255 -0.110847466 -0.6709126 -0.10072974 0.2475491 -0.0751108 -0.60447484 0.26898026 -0.46434215 0.781777
0.09764802, -0.20666419, -0.2864806, 0.1287079, 0.14412698, -0.10841166, -0.15406984, -0.036729388, -0.1177055, -0.09935307, -0.041810453, -0.008728098, -0.3468495, 0.17734888, 0.19513077, -0.0858568, -0.22721408, 0.06114239, -0.117644146, 0.33393565, -0.1421072, -0.1840395, 0.17976011, -0.5777922, -0.03186427, 0.072536476, 0.21951313, -0.015664913, -0.27343133, 0.4422347, 0.03664591, 0.08572768, 0.18317358, 0.1937772, -0.21591341, 0.11178382, 0.09260701, -0.09740799, 0.45523795, -0.21794087, -0.068199515, -0.020328369, -0.26503664, -0.17378114, 0.02597769, 0.06886646, -0.15722539, -0.39231753, 0.08324532, -0.02173574, 0.10476489, -0.16388895, 0.067410156, -0.28570232, 0.49323094, -0.32827166, -0.116261885, 0.14897431, -0.002963292, 0.18309072, -0.10348101, 0.38713688, -0.085666135, 0.14797442, 0.1898333, 0.11066101, 0.3560755, 0.33444464, 0.14697959, -0.19386992, -0.0494139, 0.011247435, 0.092709854, -0.48909292, 0.2973489, 0.007221804, -0.12046346, 0.073658265, -0.1801229, 0.022197932, -0.017381331, -0.5297509, -0.11811498, 0.104075015, -0.15088348, -0.0016950873, -0.1791464, 0.21329285, 0.10481132, 0.22781043, 0.0025424268, 0.13113086, -0.2198641, 0.17624314, -0.29213414, -0.37224126, 0.30958423, -0.3860774, 0.11267768, 0.13420473, -0.38057643, -0.02648147, -0.040312216, 0.19256808, -0.37913832, -0.11491213, 0.079483226, 0.06602427, -0.22204645, 0.116320886, -0.090848036, -0.26740548, 0.21390702, 0.29242945, -0.034763817, 0.022094954, 0.13344304, 0.06968659, -0.06828758, -0.11531303, -0.3452169, -0.042815853, 0.19410808, -0.5877384, -0.06044133, -0.14408433, -0.013025867, 0.06487416, 0.2330027, -0.485359, -0.26154253, -0.425966, 0.14595297, 0.1730274, -0.095873676, 0.13125587, 0.20873299, -0.15170288, -0.23719902, 0.32966825, 0.07774869, 0.092283405, 0.14397953, -0.45218977, 0.47339076, -0.17270266, -0.05496519, 0.5062959, 0.15393281, 0.18259223, -0.30538067, -0.27718374, -0.08090261, -0.068352886, 0.1773675, 0.064331904, -0.16085462, -0.26816, -0.19240984, 0.11113064, 0.2416305, 0.05161714, 0.043171983, 0.19377807, -0.11305993, 0.7241702, 0.012783748, -0.043975215, -0.058750737, 0.05241558, 0.09807989, 0.40013593, -0.23603557, -0.16522932, 0.16283348, -0.17047773, 0.033556886, 0.04686666, -0.14891104, -0.06780108, -0.28631815, -0.1559361, -0.011275592, -0.028051093, -0.23242635, 0.21632265, -0.09015114, -0.3802725, -0.11136278, -0.16655618, -0.4266463, 0.028146042, -0.18242057, 0.30296898, -0.25588074, -0.20912066, -0.09246302, -0.0450994, -0.20264728, 0.42216447, -0.12821868, -0.44575447, -0.24775763, -0.110757716, -0.31256187, -0.026447877, 0.115363546, 0.19363835, 0.04635419, 0.41337666, 0.20077072, 0.04841544, 0.32272756, 0.13799836, 0.19080395, 0.19330826, -0.5518639, -0.2999977, -0.0040618046, 0.28646302, -0.25516352, -0.37624082, -0.15541948, -0.01186751, 0.03458296, -0.24418227, 0.17435499, -0.054211944, -0.12325376, -0.001055199, -0.11282645, -0.2252963, 0.10341473, 0.13398065, -0.0014452436, 0.21658236, 0.07705026, -0.0017819501, -0.12070052, -0.06174355, 0.22616395, -0.037060875, -0.16135974, 0.25768423, 0.20143475, -0.10299883, 0.013064335, -0.18117261, 0.39289337, 0.119784676, 0.012889955, 0.29378748, 0.07367215, 0.26151642, 0.19081554, 0.15260759, -0.48354304, -0.15074563, -0.29685792, 0.35243672, -0.21639092, -0.098621145, 0.12711743, -0.12219201, 0.031144632, 0.13671313, 0.39999968, -0.06860852, -0.046760265, -0.033197045, -0.033254076, -0.32457328, 0.025557384, -0.08869745, 0.2549284, -0.16183113, 0.19714037, -0.19380926, -0.13132903, -0.25241303, -0.22665362, -0.030253023, 0.03196748, -0.12190918, -0.34618354, -0.23121963, -0.27175257, 0.16352732, 0.3066555, 0.13342491, 0.42406276, 0.20949228, 0.23378482, 0.26222545, -0.22963989, -0.13366766, 0.36123234, -0.18539013, 0.3577127, 0.28823024 0.034432087 -0.40801182 0.3481233 0.66293424 0.010834393 0.1449731 0.05436898 0.59619886 0.2974047 -0.17983653 -0.0029074214 0.062397204 0.42871958 -0.5799838 -0.14102747 -0.12753856 -0.037328847 0.22857825 -0.5942731 0.36289164 -0.20974207 -0.06278876 -0.64742774 -0.054929 0.20874612 0.6959764 0.2305265 0.06345387 -0.18831903 0.43703663 -0.275257 -0.050804578 0.2170657 -0.45953506 0.019396389 0.22031473 0.024550438 0.21204649 0.32215574 0.23234387 -0.44735295 -0.080046274 -0.09707571 0.17781895 -0.14727226 -0.0018940917 0.29352587 0.27849784 0.07137305 -0.35986736 0.33581996 -0.14873712 -0.24038775 -0.19601677 0.36404732 -0.008413538 0.28308374 -0.1595353 0.06771257 -0.30985442 -0.26717907 -0.11169628 -0.10082411 0.06836533 -0.2629709 0.47844824 0.13934733 -0.5974882 0.5492888 -0.4963344 0.23299095 -0.027070414 -0.33709207 -0.13158797 -0.15867352 0.25594324 -0.20601128 0.038017683 -0.4414932 0.4728855 -0.44365403 -0.2527073 0.00902433 0.14021291 -0.22795472 -0.1789108 0.43159708 -0.15246601 -0.010496284 0.47523946 -0.15495601 -0.4788453 -0.035314392 0.3066907 0.120121956 0.42095414 0.28961667 -0.059180316 -0.049269836 -0.35541046 -0.28949767 0.35165536 -0.19214092 0.19204481 0.039409976 0.23405723 -0.07606491 -0.33747488 -0.012529826 -0.3391612 0.037334755 -0.1438192 0.19564952 0.4647229 -0.23748289 0.20529526 0.21643752 0.19876178 0.10852983 -0.116140805 -0.1397884 -0.38974658 0.51598936 -0.29835054 0.04656518 0.090356536 -0.62160015 0.05172605
29 0.043100078 -0.32693294 0.32836866 -0.12416135 0.27494088 0.21544045 -0.055839352 -0.15613885 0.69099665 -0.01741659 0.29795554 -0.22592834 0.03980211 0.24690826 -0.5676412 -0.36206502 -0.019502925 0.109297365 -0.37785447 0.5999787 -0.060921255 -0.35057408 -0.60765946 0.37568623 -0.013993847 0.13895443 -0.31921446 -0.026685106 0.12319489 0.29542315 0.3280894 -0.03503774 0.026925765 -0.029774524 0.5198279 0.2181719 -0.3040652 -0.23198438 -0.1487884 0.24784258 -0.5678797 -0.13415153 -0.3359929 -0.10383521 0.33900702 0.06720001 0.06690019 0.21457411 0.5434703 -0.21885547 0.14275254 -0.27836075 0.27079132 -0.6405992 0.43468487 -0.16091688 0.23188876 0.2847028 0.08402861 -0.050491158 0.2105671 0.0110586425 -0.18093568 -0.33196095 -0.054446504 0.35611627 0.13812011 -0.4514145 -0.09825793 -0.5173894 0.04824618 -0.042277627 0.43585372 0.24615414 -0.04944667 0.16044682 0.22252451 0.4828408 -0.22020076 -0.012133852 -0.18706773 0.3363593 -0.27276477 0.15945686 -0.69111645 0.05621611 0.07239858 -0.025699645 0.16769047 -0.00052825897 -0.19236128 -0.34368223 0.1647069 0.3635854 0.52625793 -0.030375097 -0.072771214 -0.1316332 -0.0067925267 0.3263278 0.16528408 -0.055077054 0.22412838 -0.07258747 -0.07981881 0.33714926 -0.26227507 -0.15047488 -0.2594821 -0.3169231 0.11823218 0.020997874 0.7183748 0.2770556 -0.27106422 0.4373695 0.4965866 0.27620032 0.22800936 0.16875857 -0.44884118 0.32199517 0.28422982 -0.3853108 -0.5195658 -0.02054136 -0.37238404 0.793332
4 0.2481906 -0.14303483 0.3403727 0.513133 -0.2856014 0.36870107 -0.28929043 0.30449134 0.33111736 -0.06176226 -0.3205657 -0.28751177 -0.096817054 0.27398375 -0.19786052 -0.26144618 -0.059876762 0.13559702 -0.15994973 0.057507396 0.02341154 0.11086633 -0.69533604 0.18364476 -0.2408634 -0.26808196 0.31762478 -0.332845 0.24003147 0.38422835 0.130462 0.20455347 -0.16040127 0.13291639 -0.030870868 0.17806454 -0.11533883 0.34210172 0.25037834 0.30140525 -0.054170534 -0.19779442 -0.3044535 0.06725559 -0.17897946 -0.4925384 0.07830586 -0.24804296 0.50517994 -0.31572935 0.2851457 -0.08953246 0.49189326 0.008497431 0.47613165 0.16354169 0.1665983 -0.35388824 0.15575306 0.010934331 -0.44289887 -0.54969907 -0.42907327 0.26130423 -0.30588382 0.055120427 0.053278275 -0.81200546 0.21249609 -0.29621983 0.47825548 -0.029660035 -0.08594359 -0.15137266 -0.10708516 -0.010725241 -0.315811 -0.03908656 0.058712654 -0.18767364 0.1840125 0.2181986 -0.06810794 0.113453284 -0.15194006 0.447781 0.26791996 0.10953716 0.018952545 -0.07420037 0.5574354 -0.02195216 -0.33919138 0.5088623 0.33663347 -0.23002805 -0.060928132 0.23941275 -0.07821873 0.07932137 -0.055784214 0.37246612 0.018370755 -0.37630373 0.25206318 0.34544593 0.09314294 -0.28952903 -0.13303299 -0.085946225 0.19244494 -0.03393915 -0.19091134 -0.16326952 -0.095654055 0.028358504 -0.07225008 -0.09148375 0.30086297 0.024649184 -0.7134182 -0.07247202 0.27536458 -0.08542516 -0.55103076 0.34741196 -0.38237387 0.65051466
71 0.08332128 -0.59589255 0.39421487 0.14147729 0.6394349 0.14669338 -0.05569109 -0.1342556 0.602058 -0.14946254 0.31309152 -0.23740588 0.00027555868 0.25517845 -0.6842701 -0.13088521 -0.033628307 0.038317606 -0.6392115 0.90422195 -0.014886393 -0.13740167 -0.5207731 0.5318371 0.12801951 0.23636499 -0.07139272 0.020335615 0.2258687 0.66252077 0.19484267 0.03937674 -0.03205994 0.010660971 0.4364808 0.3429094 0.04951326 0.1695774 0.070428 0.08223578 -0.35355082 0.024452413 -0.13813859 0.36331964 0.25097516 0.22125459 -0.10749209 -0.025495542 0.514292 -0.17113635 0.15846424 0.008444729 0.21472462 -0.6246605 0.5782502 -0.18036374 -0.00032019633 0.49046046 0.24887022 -0.1301986 0.13031682 -0.07577166 -0.21891901 -0.3694249 -0.24210812 0.37354827 0.230378 -0.29399675 0.04769906 -0.2508605 -0.3011381 0.23661318 0.27895978 0.19700053 0.110093474 0.21896206 0.063214555 0.2649375 -0.186723 -0.08390763 -0.24238825 0.30931216 -0.0363284 -0.04049846 -0.6517627 0.0030726746 0.025318779 0.06730892 0.04717698 0.15851411 -0.23120905 -0.6156449 0.038678534 0.15196177 0.58812696 0.001029725 0.20335113 -0.27397686 0.06886692 0.1868727 -0.22654524 -0.19235 -0.12147389 0.15272683 -0.040620536 0.2676661 -0.03162403 -0.12408486 -0.21929899 -0.3658186 0.28675026 -0.22314323 0.7898975 0.3208405 -0.12501042 0.43391004 0.6679133 0.15193963 0.31474367 0.06930776 -0.44984162 0.12806776 0.3531188 -0.21811168 -0.30435053 0.26966417 -0.47988003 0.41292194
70 -0.012327589 -0.5156683 0.40445685 0.14057659 0.47987717 0.1509612 -0.013301826 -0.089129955 0.55855834 0.021626186 0.24708396 -0.24043143 0.02669348 0.30208546 -0.69494164 -0.21750405 -0.088507846 -0.059889596 -0.6070423 0.8734348 0.06640926 -0.156672 -0.5908691 0.44639245 -0.010293899 0.1510269 -0.13617879 0.075610034 0.17711529 0.59520364 0.24601537 0.019412411 0.028810123 0.044606976 0.5624354 0.31938657 0.026629815 0.17758676 -0.006305737 0.08466276 -0.3197944 0.11164285 -0.13238573 0.29024446 0.25452515 0.24729414 -0.088818215 0.002703733 0.55685073 -0.18828225 0.21864471 -0.05721647 0.14301828 -0.59878016 0.56213903 -0.110617734 0.03417357 0.4243957 0.12789312 -0.10640198 0.08171696 -0.12113731 -0.31608555 -0.31642523 -0.2453636 0.46158832 0.20044713 -0.38015872 0.033424877 -0.23035944 -0.24638839 0.2620236 0.3302747 0.12594213 0.1496929 0.29931784 0.22259732 0.38110048 -0.16020004 -0.032166764 -0.10925477 0.37052637 -0.045269307 -0.05197894 -0.6434366 -0.02969287 0.099185534 0.008336701 0.0647389 0.021765586 -0.24632423 -0.5644814 0.01131577 0.14389746 0.6617135 -0.036217995 0.09653964 -0.17307611 0.042100694 0.115511306 -0.20380735 -0.18189763 -0.004884185 0.07186314 -0.05588978 0.34829515 -0.07241593 -0.07488829 -0.22580937 -0.3573479 0.27169773 -0.16093814 0.6954344 0.36618045 -0.20444511 0.45537007 0.6538437 0.041760284 0.3539892 -0.044048633 -0.42717952 0.17358314 0.33660656 -0.25775933 -0.36803266 0.13481584 -0.45497662 0.5006854
30 0.007414398 -0.28625932 0.19373138 0.10244863 0.021460615 0.17295782 0.07044145 -0.3218328 0.68555456 0.17554328 0.16570863 -0.31316227 0.19835821 0.34382388 -0.5879661 -0.3724077 -0.062714554 -0.11918138 -0.34785664 0.73026067 -0.060858056 -0.3130878 -0.5698443 0.35318747 -0.19206177 0.093662865 -0.31703052 -0.01612862 -0.011145161 0.2178919 0.43740806 -0.01837896 0.05103208 -0.051283672 0.48857924 0.24567433 -0.2849478 -0.11281798 -0.13238032 0.1696998 -0.57629305 -0.051463854 -0.35192382 -0.12789999 0.22939143 0.28660953 0.08255496 0.20119113 0.42597893 -0.16205429 0.08426449 -0.19938014 0.0007851051 -0.64336467 0.54555863 -0.19893256 0.36233068 0.18760186 0.21068467 -0.20507647 0.03767176 0.12391827 -0.31160128 -0.12044806 -0.016950618 0.3036795 0.17622289 -0.36878052 -0.19627915 -0.34680128 0.080387674 -0.0025637224 0.41329497 0.12520668 0.08040697 0.22686626 0.32333738 0.60613024 -0.19013453 -0.0014569625 -0.23366687 0.123302996 -0.130332 0.06405557 -0.70811653 0.05153292 0.17100269 -0.027135005 0.22377585 -0.078302756 -0.15566942 -0.34342596 -0.021524165 0.34733003 0.66423035 -0.12194324 0.044691686 -0.06607556 -0.053805236 0.30460817 0.016883068 -0.15892531 0.11256771 -0.03745704 -0.041885633 0.41833982 -0.058101032 -0.056533363 -0.26700452 -0.29750815 0.1399744 0.14119259 0.6173389 0.17790197 -0.15334049 0.31310165 0.5961474 0.20446074 0.30311307 -0.09795942 -0.45034176 0.20909719 0.24014616 -0.33523065 -0.41353223 -0.15384507 -0.38035396 0.72551113
28 0.023515025 -0.28593332 0.38972533 -0.06102427 0.058791198 0.22985506 0.06283085 -0.28944218 0.7104821 0.20138644 0.14119053 -0.3820702 0.18048653 0.23919041 -0.57349926 -0.4302318 -0.07502654 -0.11799733 -0.4175843 0.7207144 0.109696165 -0.4175489 -0.7182301 0.07273263 -0.12513335 0.049485937 -0.35761082 0.050050516 0.025112128 0.15423904 0.5461678 0.011957974 0.08889493 -0.21550483 0.58016264 0.32353494 -0.33484372 -0.16576579 -0.13823928 0.094018064 -0.59349763 0.00020579388 -0.32337973 -0.04669079 0.29432246 0.3717815 -0.035752553 0.058813382 0.50639665 -0.15239611 0.14116524 -0.1132772 0.12958851 -0.60359687 0.44527936 -0.15752842 0.24713929 0.11071046 0.13988972 -0.053466856 -0.040717132 0.040302344 -0.48910597 -0.29468045 0.08339199 0.34605506 0.10358862 -0.41689527 -0.18426187 -0.47471926 -9.379047e-05 -0.123931564 0.43442082 0.058829874 0.056871478 0.23852806 0.35939023 0.5767833 -0.15300675 0.28483364 -0.37592837 0.24583389 -0.028721942 0.16660537 -0.7947466 0.16409543 0.29073334 -0.098970994 0.28459883 -0.037506174 -0.25407264 -0.38665873 -0.009001267 0.4653033 0.629182 -0.11352343 0.13320033 0.08694342 0.01567537 0.19845581 0.0568598 -0.079841495 0.16561317 0.116547994 -0.10419928 0.18829101 -0.06517927 -0.11196295 -0.27646002 -0.43095487 -0.065590285 0.046682753 0.5633553 0.17102276 -0.19195326 0.3620314 0.3436748 0.050270226 0.27751723 -0.019049607 -0.3505353 0.15087675 0.2199824 -0.3473758 -0.4351148 -0.2149243 -0.39979893 0.8080718
88 -0.04617908 -0.53184325 0.5386243 0.68872166 0.19222453 0.24471126 0.21226692 -0.009644985 -0.050741553 0.107017614 0.12784536 -0.14522487 -0.14076269 0.20691322 -0.7715467 -0.16434512 -0.2014584 0.11234147 -0.73425925 0.94867796 0.37296885 -0.18913499 -0.52793217 0.122835405 -0.22445786 -0.13880746 0.15156002 -0.009753256 0.060564827 0.77761525 -0.017008964 -0.13146521 0.28638053 0.37590203 0.40574095 0.32895374 0.27767304 0.6605112 0.038850598 0.10171149 -0.21001981 0.21669303 0.23110774 0.43716475 0.10366362 -0.16912928 -0.24101594 0.040776696 0.32531238 -0.022443213 0.5225657 0.04273693 0.13282202 -0.56452394 0.2754786 -0.018562445 -0.21017529 -0.03587773 -0.25512505 0.058683593 0.119329885 0.004821063 -0.4308483 0.13757007 -0.2653081 0.4368413 -0.22836575 -0.5069626 -0.009540483 -0.1350876 -0.5327848 0.06325922 0.019032143 0.046580475 0.0978311 0.13942708 -0.056730613 0.34255973 0.062220346 -0.075791396 -0.036498476 0.22093666 0.13001457 -0.21141869 -0.24052407 -0.18490061 0.6082792 0.44201225 -0.12281151 -0.29594666 -0.09170406 -0.30280283 -0.20446151 0.09525874 0.72556365 -0.063489705 -0.30448383 0.009563938 -0.1417529 -0.30329317 -0.23444211 -0.18884058 0.19040188 0.32986242 0.13379163 0.14246072 0.15415587 0.1405969 -0.2256832 -0.23324458 0.31969833 0.21252646 0.5755095 0.36408195 -0.3899917 0.47371098 0.064277746 0.041518115 0.42146564 0.00911093 -0.36067894 -0.09768723 0.42637295 -0.14672858 -0.32162547 0.20560096 -0.5703947 0.080633305
-0.2249016, -0.053476267, 0.08432953, -0.045511417, -0.20936985, -0.40506476, -0.5429182, 0.14118932, -0.18078493, -0.38848507, 0.3459763, 0.190049, -0.49841735, 0.016199242, 0.1531825, -0.27905184, -0.12057595, -0.16513021, -0.018487029, -0.11841819, 0.038885217, -0.11696725, 0.0041145077, -0.610339, -0.24681902, 0.5630991, 0.34745818, 0.4186136, 0.45183426, 0.069901854, -0.13515696, -0.0050174785, -0.09962355, -0.30181167, -0.021334173, 0.31338412, -0.15750353, 0.3165593, -0.057124116, 0.5325685, 0.017845979, -0.21110815, -0.15959224, -0.071074225, 0.0735729, -0.64677405, -0.025851382, -0.313768, -0.20219107, -0.012195247, -0.48241752, -0.37162885, -0.035165988, 0.02007471, 0.15270215, -0.001242023, -0.49981737, 0.024298798, 0.37553528, -0.33986238, 0.024775857, 0.29163784, -0.28030095, -0.2885512, 0.19389491, -0.1379098, -0.06494312, 0.19298309, 0.30567127, 0.3478201, 0.20597248, 0.2718856, 0.49794447, 0.013377012, -0.292283, -0.071816005, -0.17716278, 0.36878425, 0.12486155, 0.1866944, -0.3227196, 0.4598505, 0.08622459, -0.0003059078, 0.13022092, 0.43207708, 0.2334045, 0.17516562, -0.45877331, 0.24705052, -0.1314324, 0.19614965, -0.092009276, 0.6690234, 0.18109474, -0.018265165, 0.3544846, 0.15807979, -0.5273931, 0.023711892, -0.09049496, -0.14350323, -0.038565785, 0.14167197, -0.0897719, 0.29614866, -0.60993713, 0.19362572, 0.13190061, -0.36185238, 0.0013485437, -0.61363065, -0.05945661, -0.02182421, 0.10592105, 0.5426139, 0.22974892, 0.15013298, -0.123289235, 0.33017325, 0.24996148, -0.048989426, 0.53381443, -0.17581594, 0.0044379295, -0.10189862, -0.456149, 0.08455664, -0.06258535, -0.12664619, 0.007989795, -0.48457292, -0.16132976, -0.42098808, 0.03554766, 0.30311367, 0.0014643092, 0.26768816, 0.105896756, 0.21411285, 0.20506786, 0.2770473, 0.19204016, -0.2975628, 0.12994504, -0.42486042, -0.35304806, 0.12681843, 0.26454365, 0.043411814, 0.01839233, -0.080157444, -0.14488521, 0.047218543, 0.04081391, 0.0056863045, 0.23669352, -0.2104586, 0.20081542, 0.15299883, -0.10117783, -0.22407132, -0.38708577, -0.09162373, -0.19584613, -0.14027776, 0.32165772, -0.42982027, 0.34926334, 0.040591694, -0.28052676, -0.54837894, -0.15007073, -0.18211818, 0.23670152, -0.25732264, -0.08399628, 0.4120273, -0.08216757, -0.35457233, -0.51937276, 0.5856229, 0.19137706, 0.3331014, 0.021131108, 0.20336324, 0.16418374, -0.13088495, 0.0334612, -0.08791626, -0.23344679, -0.048585966, -0.26328278, 0.24557255, 0.10599005, -0.042507574, 0.019298067, -0.52162635, -0.015642354, 0.274584, -0.08226237, 0.41855994, -0.19186938, 0.16447592, -0.21152703, 0.054484867, -0.3089268, -0.3765168, -0.33535615, -0.12553327, 0.08521302, 0.16891053, -0.22786507, -0.07155389, 0.3717003, 0.17129698, -0.18526334, -0.26539412, -0.0057792813, 0.11890642, 0.03297648, 0.12567444, 0.107998736, -0.04338421, -0.03829477, -0.3199356, -0.05071198, -0.3100781, 0.14198287, 0.17588644, 0.1952509, -0.22045338, 0.20568554, 0.08224665, 0.02016481, 0.57256365, 0.343855, -0.34962225, 0.2345643, 0.014613574, 0.4882392, 0.0882462, -0.2509133, 0.29936633, 0.14694661, 0.052791044, 0.08299495, 0.14577952, 0.3489694, 0.17913732, -0.0010998979, 0.3922993, -0.20277062, -0.05790636, 0.040727936, -0.1796949, 0.0041840333, 0.06816952, -0.050097883, 0.904486, 0.115082614, -0.4086165, -0.64734566, 0.055255212, 0.28042832, -0.114520594, -0.21923882, 0.24987875, -0.530997, -0.14694741, -0.026000228, -0.370858, -0.004899095, 0.39446434, -0.40740034, -0.19621287, 0.00064806384, 0.26399976, -0.27537712, -0.03050004, -0.27125558, 0.12214912, -0.1679334, -0.17210814, 0.06362561, 0.08880147, 0.020801693, 0.17972016, -0.3058571, 0.2234346, -0.4243881, -0.10870145, 0.3464801, -0.09196184, 0.030542832, -0.14789887, -0.35264152, -0.5003838, -0.13799055, -0.3315248 0.35371095 -0.24663872 0.26787287 0.51850516 -0.1128321 0.5090257 -0.15132 0.059316628 0.3072944 -0.1992544 -0.08019611 -0.07349575 -0.13483946 0.16832246 -0.40605235 -0.29301786 -0.2525966 0.2972479 -0.07007735 0.28259817 0.062066603 -0.029479109 -0.52931136 0.075991504 -0.18845567 -0.3035074 0.2594002 -0.39587638 0.16677645 0.53100425 0.05809258 0.20187174 0.045555823 0.4424382 0.15295997 0.21178861 0.11314273 0.38000816 0.39745232 0.2797534 -0.055718828 0.028748067 -0.26385164 0.051696435 -0.0748509 -0.32121384 -0.113270365 -0.1694129 0.64110065 -0.21034336 0.054811742 -0.16286027 0.45140806 -0.023601536 0.34882468 0.096055984 0.22675775 -0.31266698 0.3314419 -0.19001979 -0.48902366 -0.6495609 -0.294758 0.31181386 -0.20939074 0.0465702 0.27203065 -0.55004936 -0.01436584 -0.044582434 0.34600514 -0.2301481 -0.027035952 -0.23348626 -0.08381951 -0.22844692 -0.26513714 -0.037270598 0.017006423 -0.11743822 0.24933372 0.28027198 0.0043052747 0.09406523 0.009526093 0.49010065 0.2910586 0.15158424 -0.057707537 -0.13702855 0.643597 0.019088585 -0.1448022 0.33688977 0.33444196 -0.14392586 -0.1325833 0.27627197 -0.14438882 0.029684547 -0.09748527 0.115847416 0.0044559706 -0.20793231 0.38427085 0.34483394 0.09195607 -0.25900948 -0.19959468 -0.08774197 -0.019763308 0.075817116 -0.13603872 -0.15416041 0.053979274 0.0168913 0.043737166 -0.19498503 0.3599018 0.0044010626 -0.5724469 -0.0439975 0.28259093 0.09175492 -0.57739836 0.37968192 -0.33366072 0.5544386
80 0.4938632 -0.45710692 0.85145366 0.5488001 0.030760443 0.48590714 0.18137406 0.46347284 0.1403967 -0.3876839 -0.10918345 -0.2836048 0.1429337 0.30490226 -0.6426897 -0.3401992 -0.732373 0.05630421 -0.36268967 0.20869905 -0.18447092 -0.052635718 -0.6150289 0.2100563 -0.065104336 -0.1560753 -0.19535659 -0.21106961 0.2753465 0.78087276 -0.14901732 0.12023059 0.1781822 0.06867754 0.44208428 0.42000955 -0.1253944 0.4176487 0.59063625 0.41917333 0.23291415 -0.03162206 -0.59203565 0.055561006 -0.1494627 -0.33380407 -0.11796923 -0.16201267 0.5790061 -0.2205563 -0.11221279 -0.026888996 0.60183173 0.17641099 0.0032878045 -0.030960225 0.15050466 -0.17327791 0.42672414 -0.17752908 -0.4091617 -0.6250749 -0.32992348 0.2846699 0.023446137 0.3080108 0.1680429 -0.5537722 -0.14121914 -0.12553778 0.09442799 -0.20713359 -0.03822771 -0.32752588 -0.08994575 -0.09986996 -0.14883421 -0.112452775 -0.14517406 0.27794936 -0.22230883 0.40366217 0.38924512 0.18691005 0.033331472 0.2698282 0.16638662 -0.07621721 0.08622209 -0.169044 0.7983071 -0.061125576 -0.09330729 0.4355228 0.1996468 -0.1915723 0.08298605 0.46371454 -0.017890168 0.0673489 -0.0675745 0.014400164 -0.049115036 -0.06907818 0.3808446 0.064054534 -0.11626663 -0.17420112 0.021353988 0.13521686 0.036397256 -0.3257531 -0.039002977 0.0065375674 -0.0029320586 -0.0447027 -0.028522141 -0.25179163 0.31750247 0.271669 -0.36606804 -0.19016448 0.4752594 -0.010722954 -0.2715607 0.5630897 -0.31401613 0.33548775
3 0.29238158 -0.3356176 0.5515007 0.55307364 -0.039437447 0.38035566 0.09336347 0.19237754 0.25641066 -0.31239483 -0.25927234 -0.3036416 -0.16490662 0.35160306 -0.52796596 -0.28312618 -0.39062288 0.36213318 -0.3282342 0.36349654 0.20966752 -0.096668884 -0.5711095 0.21212493 -0.09657755 -0.27082652 0.23533227 -0.27300593 0.18003315 0.7010309 -0.033447593 0.1608293 -0.08926607 0.33856928 0.35144415 0.37377948 0.15325448 0.645637 0.48611447 0.2511455 0.10767205 0.18549234 -0.33633882 0.19234595 -0.29072273 -0.11822394 -0.18971063 -0.21578072 0.61582917 -0.2117611 0.27130756 -0.049506333 0.59891033 0.08798535 0.19588321 0.1552307 0.1955534 -0.3100362 0.4381914 -0.17713761 -0.51939857 -0.54361355 -0.5003971 0.24865746 -0.0948692 0.13032272 0.034613647 -0.43583554 -0.17587219 -0.0742694 0.28909734 -0.2973422 0.01450935 -0.23100962 -0.006655297 -0.027864253 -0.20800519 0.029796079 0.019248998 -0.0013418917 0.059947263 0.45418248 0.18595637 0.077929564 -0.025108356 0.2986591 0.39434156 0.0072112265 0.08237107 -0.45294183 0.5962601 -0.026530756 -0.20431212 0.30300665 0.36133695 -0.21837229 -0.19121774 0.36684301 -0.091397814 0.030567998 -0.19005802 0.051396985 0.12731953 -0.03726238 0.44694534 0.23113313 -0.046666507 -0.25914592 -0.22165187 0.04418099 -0.09752916 0.068923704 -0.09469689 -0.13613926 -0.12544492 0.011670539 -0.01674385 -0.15806548 0.33870578 0.13253176 -0.5304168 -0.11407285 0.31541947 -0.055416528 -0.37654507 0.51669383 -0.36851135 0.45668665
85 0.21140122 -0.2821847 -0.023528926 0.26476 0.19527797 0.2293972 -0.079460725 -0.010424925 0.38830656 -0.2520435 0.55998 0.014147405 -0.1565338 -0.21758798 -0.43477592 -0.28808698 -0.23697759 -0.17411509 -0.27236858 0.33958918 -0.20893167 -0.095835775 -0.37539998 -0.10894537 -0.3896618 0.45150822 -0.29742864 0.1406013 -0.11065729 0.6054404 -0.2842731 0.43463492 0.32669517 -0.12393254 0.05969032 0.5466456 -0.26255605 -0.12989956 -0.30911416 0.17191412 -0.3034414 -0.25532615 0.10172585 -0.3563497 -0.06329993 -0.4190221 0.15541796 -0.071991615 0.55902094 -0.06889506 0.060463123 -0.41793206 0.18794148 -0.12445063 -0.41410726 -0.13751249 0.062282138 -0.33035964 -0.21710484 -0.021095162 -0.011868489 -0.025539882 0.07348671 -0.0990819 -0.11159632 0.16630156 -0.23620905 -0.35575375 -0.16941151 -0.68855584 0.23120241 0.05455282 0.6201049 -0.02980403 -0.008856361 0.4647235 -0.0542929 0.31164396 -0.34272903 -0.23920834 -0.21144247 0.15927108 -0.5527731 0.108779356 -0.3248155 -0.2013941 0.4446589 0.06577056 -0.29413578 0.34339362 0.41756615 0.13174358 -0.18332614 0.14253691 -0.006376662 0.22542888 -0.31595355 0.15890612 -0.4624429 0.07744139 0.21149503 -0.29897374 0.31323144 -0.059446275 -0.31174162 0.43762904 -0.40882936 -0.16575868 -0.19617884 -0.026293894 0.23889801 0.06502845 0.09722285 0.28849533 -0.15729998 0.086740814 -0.095854625 0.25113383 0.16580802 -0.08015788 -0.08594343 0.113607936 0.47846133 0.13998331 -0.7068648 -0.1757248 -0.91693175 0.2840579
72 0.029014086 -0.7291669 0.6141536 0.41471675 0.26418397 0.25776282 0.30248654 0.30529967 0.34978274 -0.06662157 0.030408435 -0.2418638 -0.07134103 0.21876556 -0.9606527 -0.11960897 -0.079803884 0.2517747 -0.8699814 1.111618 0.5039427 0.07690205 -0.64921296 0.4164249 0.05065292 -0.1093138 0.08233805 -0.14923023 -0.011361736 0.81823045 0.10147556 -0.06458731 0.11857173 0.32557562 0.7424596 0.3021521 0.22041824 0.54857713 0.17570026 0.2348889 -0.34952897 0.42094892 -0.12263869 0.4393519 0.010132782 0.12961365 -0.18525161 0.24411316 0.53328735 -0.021001114 0.5008096 -0.08944967 0.1273908 -0.6230111 0.4846441 -0.102381445 -0.12647457 0.40075165 -0.09868938 0.032504786 0.2608706 -0.09745552 -0.2950174 -0.0012690902 -0.2141256 0.28985262 0.026389478 -0.55824316 -0.16231936 0.044199847 -0.30737352 -0.007792166 0.09393673 0.058502253 0.067326866 0.075994715 0.011821289 0.40332097 -0.15369238 -0.142441 -0.087873094 0.23525845 0.140194 -0.015800806 -0.44158962 -0.21423967 0.47826406 0.3055843 -0.03292522 -0.42301533 0.079393886 -0.58495724 0.07854147 0.0233031 0.5918748 -0.2672996 -0.30584052 -0.14450109 -0.03073876 -0.053439256 -0.23062849 -0.09729878 0.021826653 0.13593072 0.19855669 0.1929475 -0.13521375 -0.0035253474 -0.22463852 -0.21849051 0.26746225 -0.09021548 0.74622655 0.5339457 -0.32722637 0.413684 0.23826544 0.038430713 0.4683781 0.16984344 -0.17491606 -0.011274326 0.5154584 -0.24137253 -0.09094429 0.34145474 -0.2977213 0.32022145
96 0.1356513 -0.4724559 0.3852643 0.63747245 -0.009713342 0.0414369 0.070182376 0.6304305 0.37338454 -0.16678762 -0.067764856 -0.021807259 0.38830537 -0.50506157 -0.1315858 -0.09661268 -0.10958919 0.21045028 -0.49110308 0.5026938 -0.25352946 -0.17075387 -0.6226259 0.062000763 0.32640108 0.74682134 0.40583074 -0.060835164 -0.21393311 0.5213635 -0.37859237 -0.04963187 0.14098236 -0.4696896 0.0037487964 0.33782402 -0.07820649 0.1810464 0.27562064 0.25722802 -0.483328 -0.14161284 -0.20399393 0.21520148 -0.12130265 0.015015554 0.39681277 0.3810439 0.070741296 -0.4119648 0.34237847 -0.082333274 -0.26137328 -0.2862798 0.36416426 -0.016379066 0.3814215 -0.20589004 0.07043109 -0.38127026 -0.15013921 -0.19741903 -0.08323627 0.056704458 -0.27418235 0.4444583 0.12051477 -0.5285459 0.6005324 -0.48686343 0.3045629 0.041099306 -0.37352985 -0.15136465 -0.012928136 0.28574616 -0.25346276 0.04756552 -0.47054696 0.52857846 -0.48106432 -0.3169338 0.07423663 0.24063537 -0.12817813 -0.21268995 0.604646 -0.15533523 0.0072643417 0.47150075 -0.11704051 -0.40857634 -0.11220092 0.29494816 -0.040184684 0.49212137 0.40820834 0.10058864 -0.04187846 -0.39603984 -0.23999782 0.35666406 -0.11699405 0.106579125 0.07352148 0.33578613 -0.044537988 -0.22983353 -0.0067517906 -0.22619873 0.25592592 -0.098953955 0.1675249 0.47083884 -0.20761079 0.20732836 0.1797863 0.13700564 0.106069766 -0.08197799 -0.11767022 -0.438694 0.52136123 -0.4092574 0.15344836 0.055552952 -0.6477741 0.08802286
62 0.27733007 -0.5228238 0.115241595 0.35287496 -0.09046022 0.81161094 0.0798128 0.24564655 0.13274167 -0.25884926 0.61677074 0.218492 -0.88813955 -0.06791866 -0.4919732 -0.22837614 -0.36484414 0.21402432 -1.1670767 0.10258335 -0.58995897 -0.18673731 -0.16357315 0.23548229 0.1149797 0.24848066 -0.2468083 -0.37182802 -0.22494574 0.010574579 0.09281715 0.10722045 0.05705279 -0.54652345 0.14880934 0.1007148 -0.14744955 0.4399721 -0.09095139 0.16007403 -0.35457686 -0.42199594 -0.38429356 -0.09513518 0.14848101 -0.2329978 0.12522963 0.20503958 -0.09433515 -0.1604049 -0.13859954 -0.062064845 0.39981872 -0.26523462 -0.057571437 -0.29438403 -0.16127305 0.013233836 -0.14053321 -0.26264104 0.31104633 0.2379596 -0.6253293 -0.1890644 0.08358394 0.30323783 0.4438097 -0.64896256 0.1460975 -0.5609312 0.058269456 0.52785903 -0.09140976 -0.19696043 0.003696299 0.28452837 0.20919181 0.33257282 -0.084788814 0.032819342 0.38415176 0.09223789 -0.3038809 0.02606364 0.17690797 0.306869 0.32215357 0.24657212 -0.03114758 0.071363345 0.5343805 -0.9992813 -0.0142562855 -0.056744885 0.004163818 0.14192931 -0.2480153 -0.17707951 -0.35219988 -0.43405357 -0.058833905 0.47613725 0.1359951 -0.2331587 0.20944297 0.6283631 0.39316648 -0.08251476 0.21369983 -0.44088367 0.52150047 0.15315095 -0.029171007 0.38414025 0.11856169 0.10385456 0.34740004 0.084658295 -0.13103768 0.18100244 0.118036404 -0.23833625 -0.01524027 0.26047575 -0.40852246 0.36858618 -0.5104834 0.3682065
33 0.4415019 -0.7677903 0.5040754 0.46861154 0.08445071 0.3420965 0.17093346 -0.0053557977 0.44629252 -0.27702275 0.07542372 -0.16189519 -0.267341 0.18935026 -0.9055017 -0.23678535 -0.6192341 0.20308384 -0.85029763 0.81743747 0.24470039 -0.18824527 -0.35478285 -0.1390046 -0.13569045 -0.14543515 0.071469106 -0.24859636 0.15167382 0.51577085 0.23364681 0.13997628 0.2870641 0.30362964 0.6276799 0.36709952 -0.023311505 0.7312794 0.049478352 0.22623558 -0.12096072 0.37627065 -0.3110969 0.08113282 -0.12789913 0.13113254 -0.44822815 -0.10204812 0.29361743 0.111371666 0.055728562 0.124988146 0.34056932 -0.03283893 0.20591742 -0.31186524 0.0120140305 -0.41069445 0.23477456 -0.0038879775 -0.18288946 -0.08957365 -0.65820646 -0.0088893445 0.102477424 0.17280889 -0.15714951 -0.30525875 -0.41690174 -0.05110157 -0.49793917 -0.16616972 0.15845568 -0.18695454 0.13928811 -0.015930897 0.17486618 0.28327087 0.22549018 0.28781316 -0.19763145 0.15753104 0.352442 0.015486168 -0.47046533 0.13782263 0.539459 0.17838146 -0.11050408 -0.48056492 0.38743687 -0.22131619 -0.31352115 0.15173264 0.27747893 -0.12772134 0.0050426386 0.26364276 -0.05970526 -0.17646448 -0.38176253 -0.21464148 0.10073521 0.2264105 0.046767987 -0.055006612 0.3332953 0.055535693 0.01607913 -0.120328456 0.018754287 0.17325622 0.46877554 0.35333648 -0.018251212 -0.08963556 -0.1804747 -0.083668455 0.08593954 0.18353188 -0.2698323 -0.30271596 0.49735755 -0.01353753 -0.15717098 0.4049615 -0.28200272 0.27574027
2 0.26247975 -0.30105296 0.4020877 0.571867 -0.08613502 0.25674593 -0.23236202 0.21610568 0.19289787 -0.13895008 -0.41213435 -0.30054706 -0.03930176 0.17621805 -0.3064477 -0.25951385 -0.06236739 0.0888311 -0.2520539 0.19024988 0.21135549 -0.014005981 -0.703865 0.13623074 -0.30235887 -0.18232186 0.42080924 -0.24012785 0.28239667 0.5010247 0.039848905 0.25177783 -0.13921359 0.3621094 0.025373193 0.29663154 0.011536018 0.4533345 0.22720854 0.26722866 -0.010946381 -0.05164121 -0.2799612 0.09761806 -0.24183051 -0.43908542 0.07564825 -0.29491246 0.4355573 -0.23799752 0.322969 -0.076997645 0.4201578 0.053252272 0.4301923 0.17029014 0.15299241 -0.49038792 0.1529744 -0.0061912574 -0.5368143 -0.5898754 -0.42437115 0.3165511 -0.24528667 0.094260305 0.03014823 -0.77404845 0.19560811 -0.1853077 0.48746228 -0.1720842 -0.013538348 -0.19065022 0.10487054 -0.040368367 -0.2258806 -0.013778385 0.01585795 -0.053226147 0.094541326 0.14722317 -0.04850125 0.067706116 -0.20139943 0.3872937 0.3977329 0.1122124 0.05325648 -0.15301768 0.44324335 0.04822013 -0.37705255 0.33196566 0.3046245 -0.1725613 -0.024211787 0.3530864 -0.06299752 0.1621622 -0.17858748 0.33019105 0.12041062 -0.28840226 0.28245047 0.33104867 0.062075946 -0.37538552 -0.24115393 -0.06238501 0.045050643 -0.09520889 -0.12146647 -0.14048178 -0.14259787 0.13468324 -0.010185872 -0.2614754 0.4565014 0.03746512 -0.6646628 0.069240026 0.32539883 -0.08719729 -0.49725455 0.388211 -0.37522566 0.49323103
68 0.03724841 -0.3711388 -0.04981356 0.40739724 0.01588855 0.4165951 -0.05880034 0.049073797 0.14056994 0.20909782 0.018494742 0.27045274 0.020137072 0.40668404 -0.6528967 0.17816997 -0.16596395 -0.054789994 -0.56972957 0.52545905 -0.2004306 0.03283249 -0.5813219 -0.22507681 0.081978954 0.7102974 -0.039848585 0.28383377 -0.683353 0.7518642 -0.064555176 -0.14472906 0.53248227 0.49195182 0.12863833 0.33056808 -0.2811822 0.002502113 0.009047595 0.19227538 0.11643833 -0.28927574 -0.15812759 -0.2964853 0.0327225 -0.004054201 0.51194775 -0.3619318 0.4966 0.06014339 -0.10619633 0.036586426 0.3275041 0.28332302 0.3115319 0.06738043 0.4238689 -0.12114294 -0.3078855 -0.35186502 -0.4045233 0.3766482 -0.039041094 -0.29137215 0.026477719 0.2910646 0.4462473 -0.28940985 0.0838003 -0.102054834 0.33616942 0.14752705 0.102412276 -0.2713489 0.5902238 0.6143918 0.07939133 0.7375734 -0.15248008 0.3659196 -0.19080491 -0.07806678 0.08569131 0.2070693 -0.09037563 -0.117601566 0.42453846 -0.19530655 -0.3555299 0.23402873 0.037953228 -0.08448573 0.020763692 0.3962982 -0.15739019 0.2717045 -0.19765423 0.818108 -0.5953619 -0.42877614 -0.39795864 0.0740994 0.16336805 0.26480108 -0.07930886 0.5379404 -0.10175682 -0.003819159 0.07396115 -0.14882588 0.23761095 0.15264095 0.18658479 0.21731323 -0.25294614 -0.062494766 0.3264772 -0.21914001 0.40279725 -0.18618971 -0.3846649 0.19874826 0.105948284 0.31296644 -0.24759093 -0.14747366 -0.6868889 0.45213804
39 0.5530955 -0.4981017 0.31714335 0.28698456 -0.38870087 0.3699732 0.013226843 0.15461126 0.48800412 -0.3029789 0.41508213 0.33288926 -0.71101487 -0.05390138 -0.67899674 -0.13160168 -0.10220613 0.5274218 -0.8863992 0.29665422 -0.60288745 -0.24404758 -0.51238096 0.13032229 0.14225179 0.2846654 -0.20168658 -0.6573801 -0.16753183 0.07951621 -0.12353927 0.0997301 -0.09727746 -0.26091415 0.041475885 0.18178745 -0.17516524 0.1875582 0.13471588 0.26974565 -0.45406112 -0.45404088 -0.33589157 -0.086242646 0.01734765 -0.4679529 -0.01762047 0.039373312 0.14553286 -0.062252346 -0.36883038 -0.41344962 0.4637964 -0.25100523 0.088839866 -0.24577422 0.2260581 -0.2515311 -0.32334286 -0.2624384 0.11161944 -0.06282983 -0.76359075 -0.16312538 -0.38380548 0.44646806 0.6944354 -0.2749454 0.08223056 -0.41686496 -0.54239434 0.47447392 -0.2254813 -0.17071652 -0.16219497 -0.21372613 0.30646813 -0.0069670114 -0.2303524 0.12175922 0.15389353 -0.20355871 -0.0045987335 0.15425958 -0.008871697 0.32773554 0.13481967 -0.13961333 -0.3195945 -0.4539734 0.23592289 -0.56300145 -0.10451266 0.029669778 -0.05546195 0.2832924 -0.28774768 0.19194461 -0.4708507 -0.29000488 -0.3799012 -0.0035462338 -0.0015013191 -0.20054907 -0.27093372 0.56118345 0.4488636 -0.06299992 0.094927736 -0.4029367 0.07529953 0.090628214 0.33099598 0.45259017 0.10604757 -0.5102714 0.2853231 -0.2468534 -0.05246622 0.26281312 0.19612865 -0.30381978 -0.05052701 0.45936757 -0.6263129 0.27469432 -0.73124665 0.027869225
79 0.52217203 -0.35509083 0.95047337 0.48279768 -0.09157427 0.5088071 0.02987574 0.40661886 0.14066039 -0.3906973 -0.10173728 -0.3089551 0.11047514 0.3076806 -0.8192073 -0.27633548 -0.818038 -0.078041315 -0.44335088 0.207899 -0.14853267 -0.17518537 -0.61983544 0.19761908 -0.12244145 -0.090498984 -0.27246252 -0.0037463275 0.4055785 0.70138127 -0.21060207 0.18129976 -0.0060852002 -0.062000945 0.2923498 0.5481551 -0.27413878 0.45063505 0.6625664 0.5347779 0.16497749 0.0015130128 -0.65440303 -0.14514783 -0.3527305 -0.016332902 -0.1692517 -0.23142105 0.49670124 -0.25825924 -0.10468765 0.20418723 0.49327084 0.17274937 0.11500141 -0.079542294 0.114336506 -0.30727217 0.34264442 -0.26346555 -0.5280488 -0.57460797 -0.3487018 0.24367425 0.038500175 0.38069704 0.11737912 -0.6706498 -0.102215536 -0.22517793 0.20273107 -0.19818324 -0.041225564 -0.18610553 -0.026649067 -0.03552323 -0.14108299 0.06245713 -0.12228984 0.38873366 -0.42911392 0.42707744 0.46583313 0.24732096 -0.1536945 0.31330115 0.19982247 -0.095405914 0.18269654 -0.08882946 0.94764966 0.043242887 -0.17169866 0.39766613 0.2747999 -0.28333518 0.19961913 0.705018 0.030462714 0.028797029 0.02764613 -0.024554193 -0.09158154 -0.022856077 0.51336676 -0.009014427 -0.1849623 -0.2694851 0.11353061 0.26974732 0.18457398 -0.32003826 -0.02692735 0.043194987 -0.17646502 -0.019084066 -0.15081652 -0.28848606 0.5170598 0.40276262 -0.51855624 -0.2999846 0.6066578 0.040361222 -0.22354221 0.62572515 -0.27446118 0.41546428
23 -0.097025916 -0.24128358 0.33653677 0.12044485 0.020141136 0.34664875 0.05979272 0.2655937 0.36900854 -0.4223557 0.64609104 0.08821079 -0.28661847 -0.33521736 -0.30647692 -0.11604604 0.01106107 0.31768578 -0.25128332 0.31455138 -0.26221263 -0.28121516 -0.33242056 -0.029408896 0.10037605 0.41208112 -0.041410867 -0.07295399 -0.23403214 0.29524246 -0.40314016 0.4577067 0.046406213 -0.14918864 -0.0033766762 0.6182818 -0.3349503 -0.15426825 -0.044114474 0.4497136 -0.3946999 -0.20517796 -0.1025499 -0.35573903 0.1179866 -0.52380735 0.13698915 0.067718625 0.4912394 -0.35160068 -0.08230067 -0.38285533 0.45829156 -0.25862715 -0.19837233 -0.2957115 0.00057629327 -0.5946949 -0.15282348 0.19497962 -0.122643195 0.057646085 -0.066384405 -0.10788649 0.04762339 0.30442274 -0.31983477 -0.5284264 -0.2581081 -0.9948343 0.40989625 -0.17255701 0.44288203 0.11909344 -0.14950185 0.29733282 0.027149688 0.28780064 -0.35801166 -0.3606093 -0.2700185 -0.15623723 -0.58842915 0.16974673 -0.4331278 -0.19208643 0.25516796 0.20873983 -0.21196821 0.4112357 0.5458267 -0.2807336 -0.05627819 0.2800811 -0.11702992 -0.096387334 -0.3152852 -0.013496469 -0.42872217 -0.17113918 0.32619658 -0.31102037 0.32268724 -0.19768234 -0.23391366 0.09195452 -0.20956643 -0.11499028 -0.52947205 0.043806408 0.11087109 -0.05789847 0.32372007 0.37866488 -0.039818965 -0.1086481 -0.092129156 0.2260853 0.4881664 0.024226889 -0.62289274 -0.014136344 0.6871123 -0.09242191 -0.83449155 0.20385106 -0.42841154 0.27165228
73 0.064233094 -0.61305493 0.8020178 0.36894667 0.16758615 0.30766252 0.15982418 0.26748213 0.34152058 0.03315247 0.14158262 -0.32940176 -0.11289013 0.4537451 -0.9418605 -0.14038475 -0.23370335 0.28169373 -0.58747536 1.146565 0.41421124 0.032171458 -0.5170536 0.47082812 0.12154333 -0.095764965 -0.054583043 -0.29301393 0.06156435 0.81462216 0.22946593 -0.0011913391 0.07923352 0.26279646 0.75823545 0.22389421 0.09063929 0.44489282 0.15926467 0.2076104 -0.40297496 0.3903223 -0.10853764 0.37664303 0.09340672 0.053525425 -0.27369827 0.038609747 0.43479747 -0.19942036 0.45202824 0.008111894 0.16239376 -0.64159554 0.49471107 -0.07501979 -0.043440875 0.33525047 0.004035712 -0.1555117 0.14864866 -0.029302822 -0.16619313 0.058178395 -0.19232428 0.25756955 -0.15183881 -0.34655496 -0.23933119 -0.023508621 -0.32974416 0.01459509 0.17047793 0.17027394 -0.038525928 -0.019177485 -0.11888137 0.45715693 -0.12148478 -0.16104972 -0.023267582 0.23785731 0.21477778 0.05264243 -0.5024856 -0.14060755 0.441909 0.19563316 -0.09002268 -0.45377457 0.12577714 -0.52459085 0.07863187 0.16324772 0.52463025 -0.19916911 -0.21519059 -0.124351226 0.08468725 0.007366027 -0.07940811 -0.0801143 -0.034815967 0.22452001 0.24031651 0.20890807 -0.020368673 0.04790687 -0.23655443 -0.30080584 0.14675592 -0.03758257 0.75847423 0.44967967 -0.27777758 0.32083806 0.1344793 0.2648362 0.40127105 0.0551012 -0.28093192 -0.13398315 0.461905 -0.31379873 -0.17995746 0.37769312 -0.30276856 0.5496823
27 0.2640736 -0.27206078 0.3627237 0.36302984 -0.017829422 0.61920273 -0.009160745 0.15213823 0.30628535 -0.06628583 -0.039171897 -0.2653084 -0.2136313 0.056501087 -0.559415 -0.035990864 -0.18307365 0.33425945 -0.7382085 0.4480616 0.35285115 0.14957072 -0.31421357 0.1105384 -0.2590462 -0.30529296 0.29641584 -0.3938975 0.22833017 0.50785697 0.04558314 0.2486966 -0.10201215 0.35371515 0.27847865 0.25670183 0.2923813 0.5195221 0.22016744 0.34158936 -0.3661701 0.0092824 -0.18168208 0.33501086 -0.040767897 -0.030997898 -0.16385384 -0.21772549 0.40316358 -0.040923774 0.45396444 0.08294639 0.35970652 -0.16549899 0.24908544 0.06436256 0.085800976 -0.2033537 0.35816598 -0.10886646 -0.31211737 -0.5804641 -0.54717696 0.16928327 -0.21338107 -0.14487858 -0.046174522 -0.6791749 0.11061399 -0.24936382 -0.06749663 -0.11323867 -0.08555008 -0.019023562 -0.099392466 -0.0740604 0.12811062 0.16611572 0.19338325 0.16557342 -0.080987714 0.26093838 -0.0038168528 0.18392101 -0.09611667 0.5669436 0.30685315 0.3235106 -0.1696229 -0.20514032 0.2849452 -0.168831 -0.10350587 0.2183911 0.1746929 -0.118198186 -0.100469366 0.2803929 -0.35330492 0.28564483 -0.23299445 0.49390936 0.19366957 0.29099116 0.29759884 0.09911106 0.29544553 -0.2761895 0.24736087 -0.2658575 -0.06314419 -0.0038140642 0.08546922 -0.08158383 0.15926188 -0.29983622 0.24470353 -0.18889663 0.008878965 0.15742956 -0.32875526 -0.16528371 0.15760167 0.15157592 -0.4215927 0.4557423 -0.2523261 0.522461
16 -0.1451549 -0.4618377 0.2886275 0.7768875 -0.01817028 0.13995169 0.0037365265 0.5870836 0.28437498 -0.21160784 0.099979095 0.08181149 0.555911 -0.7331135 -0.240918 -0.05772481 0.10069325 0.22761688 -0.854831 0.19979662 -0.21077396 -0.045900725 -0.71390456 -0.13239892 0.03216383 0.72488546 0.2767015 0.25099808 -0.15814419 0.3408836 -0.26908484 -0.032480795 0.27664018 -0.38011286 -0.18543519 0.13669793 0.046357736 0.27180508 0.28008026 0.24021803 -0.4435869 -0.083630644 -0.023974631 -0.042857572 -0.2912388 -0.053549163 0.24854887 0.16563642 0.15356874 -0.13828006 0.46265677 -0.32861623 -0.15996043 -0.06600533 0.36661473 -0.037798055 0.16301562 -0.24151598 -0.0004556232 -0.22643456 -0.44276184 -0.23623341 -0.11365838 0.07400541 -0.08080048 0.5906397 0.2524267 -0.7857027 0.6080311 -0.5927772 0.08380757 0.00844586 -0.33271897 -0.08173265 -0.18187688 0.19189948 -0.064681634 0.10284474 -0.38965914 0.39396214 -0.34836394 -0.21728435 -0.2344816 0.095564134 -0.18703869 -0.0944853 0.3188521 0.10494068 0.18248734 0.5932015 -0.15567337 -0.3858624 -0.07845511 0.34596977 0.27351788 0.38819706 0.32327488 -0.06709387 -0.14923733 -0.35925928 -0.39893115 0.46032253 -0.26832595 0.13763621 0.03181884 0.2109174 -0.19375442 -0.31822896 0.16431826 -0.44091952 -0.11583266 -0.28029028 0.13808757 0.50085086 -0.2543835 0.10724866 0.31941503 0.08318252 0.21745759 -0.013864089 -0.21471426 -0.3449546 0.4466579 -0.08817965 -0.13264108 0.079257645 -0.6246785 0.17740157
41 0.57659376 -0.5052539 0.32211688 0.38175294 -0.4722441 0.32407686 0.022796258 0.21296349 0.4780293 -0.35499367 0.3930662 0.29808176 -0.71671563 -0.049376115 -0.75416875 -0.118503794 -0.073709294 0.6139176 -0.98416984 0.4071767 -0.6221344 -0.25248215 -0.62059146 0.18832327 0.09356464 0.27601653 -0.21605156 -0.7209384 -0.1305288 0.17755161 -0.22601825 0.09372894 -0.14071968 -0.26391438 -0.06065066 0.226098 -0.15311123 0.19895762 0.16485026 0.2879012 -0.48536652 -0.48746076 -0.2859158 0.0035586087 -0.06973862 -0.491261 -0.0013078203 0.035903454 0.19001247 -0.07460007 -0.3602854 -0.45452076 0.40506387 -0.31171826 0.15095088 -0.24771106 0.3244935 -0.31286573 -0.31318632 -0.29236028 0.051443204 -0.06666021 -0.835827 -0.13053189 -0.51478726 0.4536953 0.6736044 -0.29577887 0.19282041 -0.42540404 -0.58047986 0.51961213 -0.331064 -0.23090598 -0.22877255 -0.27781907 0.35204446 0.013947526 -0.27223754 0.12360581 0.08952393 -0.22877772 0.05533316 0.2728939 0.04291498 0.29085556 0.16248807 -0.19777177 -0.3087108 -0.5115955 0.16964985 -0.6083004 -0.09042432 -0.0014129556 0.023802059 0.26249412 -0.2833673 0.23658215 -0.45624295 -0.32725143 -0.34969106 -0.020922648 -0.044554785 -0.20176952 -0.30038044 0.48971334 0.48649797 -0.09705111 0.131844 -0.43209937 0.04934888 0.036705825 0.365739 0.49960598 0.050899513 -0.5047666 0.38397887 -0.30387405 0.0067503466 0.2729906 0.22381835 -0.34775892 -0.021511188 0.4377007 -0.6715274 0.2427174 -0.8407411 -0.021048706
40 0.5118482 -0.426116 0.28432864 0.3672233 -0.46399847 0.2705217 0.043848373 0.20074692 0.49841893 -0.37755677 0.38619438 0.2965679 -0.75422657 -0.05624996 -0.7862059 -0.1877943 -0.06676415 0.55949086 -1.025593 0.32507333 -0.5307926 -0.28865406 -0.58966315 0.21477349 0.14178678 0.35555717 -0.22650157 -0.6931588 -0.16795725 0.07896118 -0.24223135 0.032216717 -0.13677275 -0.43823376 -0.04557742 0.2340724 -0.14726707 0.21935904 0.23429899 0.2639331 -0.5719573 -0.52099115 -0.3119205 -0.056787264 0.055083822 -0.4210412 -0.06523229 0.033401113 0.17084081 -0.11879601 -0.37545758 -0.43045744 0.43985114 -0.2899772 0.14418705 -0.30460817 0.23712415 -0.27245286 -0.32867804 -0.33233404 0.13885397 0.006392196 -0.8480999 -0.13809666 -0.5141523 0.4039377 0.76518834 -0.26855853 0.12563919 -0.4062173 -0.6138677 0.5373498 -0.26353148 -0.18106712 -0.16403303 -0.17338933 0.30764008 0.030063087 -0.2789971 0.1237751 0.03447159 -0.3060563 0.03757114 0.2303948 0.03236211 0.26878634 0.23572916 -0.16889231 -0.30015907 -0.4950829 0.1339628 -0.6122061 -0.07183682 0.019503072 0.030219512 0.27920967 -0.32158953 0.21809062 -0.5338946 -0.40045512 -0.34170958 -0.059183396 -0.036540397 -0.17419922 -0.34547544 0.5315755 0.48075825 -0.12908861 0.1068135 -0.3962142 0.10162145 0.006223389 0.39283925 0.47393733 0.039097067 -0.5215035 0.31927428 -0.2666109 0.007976372 0.2679281 0.22706325 -0.37085044 0.04140295 0.3987797 -0.6537342 0.2779307 -0.7852692 -0.05367393
31 0.37709367 -0.8805786 0.5050943 0.37431067 0.0910383 0.30566028 0.09708418 0.0656288 0.30674884 -0.17053004 -0.013815808 -0.122471154 0.007929615 0.15481631 -0.93258053 -0.19417723 -0.4714471 -0.0024421967 -0.77875155 0.6989386 0.39096412 -0.20808333 -0.40805346 0.018093143 -0.27839932 -0.26446927 0.23902726 -0.026511446 0.37163335 0.60839504 0.1581172 0.22514516 0.13882145 0.2810673 0.6082693 0.41328895 0.20310245 0.64982975 -0.029054537 0.23945148 -0.008421429 0.47447288 -0.25617054 0.107918985 -0.19343185 0.13891152 -0.41227227 -0.12294389 0.21134217 0.08814756 0.15927035 0.09869207 0.2231902 -0.1126946 0.29468715 -0.25392067 -0.009871263 -0.30548683 0.37238246 0.019624686 -0.31943324 -0.2707654 -0.5017658 0.05005094 0.052779593 0.27791783 -0.11029008 -0.30287522 -0.2750214 0.024482867 -0.5054735 0.076346315 0.12921703 -0.09477355 0.25810957 0.019683154 0.11539812 0.23176987 0.22097555 0.23956387 0.077353835 0.17895783 0.25042263 0.028236952 -0.4288182 0.37082028 0.39543325 0.28581968 -0.04238737 -0.41154316 0.21546087 -0.13052973 -0.28483766 0.15033287 0.34157974 -0.10123088 0.022797555 0.1479435 -0.012516503 0.12779741 -0.33069134 -0.083561964 0.04228512 0.1623408 0.16882609 -0.10271712 0.1514489 0.00026103237 0.09203132 -0.15427108 -0.053753052 0.003983801 0.35791683 0.39712748 -0.20929432 -0.047109872 -0.14662959 -0.1457899 0.30092332 0.14167137 -0.32424763 -0.10104774 0.4188397 0.052062307 -0.21524063 0.4937538 -0.4272538 0.3756518
69 0.0311661 -0.5703771 0.31268078 0.20635176 0.63748765 0.2073109 -0.033929173 -0.1652228 0.5528585 -0.072143964 0.37079242 -0.267562 -0.10366565 0.24405384 -0.5938749 -0.20810895 -0.03358104 0.032888267 -0.6382857 0.8232901 -0.023747042 -0.036086712 -0.5518981 0.5325476 -0.015584886 0.23664235 -0.14833294 0.014221282 0.2157363 0.6970667 0.15269783 0.12433859 -0.039671868 0.13126971 0.5459414 0.36036637 -0.01138163 0.15103179 -0.07203892 0.1238478 -0.3692715 -0.055242643 -0.107822776 0.28075737 0.20326073 0.21038832 -0.05004488 0.026029022 0.5895083 -0.1874443 0.23302482 -0.1375159 0.23668097 -0.66890305 0.51865184 -0.13025917 -0.0042299414 0.55243164 0.118504465 -0.10116192 0.16494502 -0.16610327 -0.20279841 -0.25804654 -0.29357713 0.3265138 0.15751387 -0.40752667 0.12738259 -0.27665192 -0.19620128 0.36280832 0.32941782 0.20572872 0.13137461 0.31735003 0.15058061 0.43222812 -0.11877623 -0.19079462 -0.06492544 0.26262933 -0.23968296 -0.116388485 -0.61781424 -0.01875874 0.09451138 0.049270954 0.07016177 0.052762635 -0.16419561 -0.45006076 0.030027406 0.06311333 0.65745354 -0.0878051 -0.016316826 -0.3382679 -0.06505772 0.15442465 -0.12884057 -0.23770416 -0.013660325 0.012158021 -0.13500814 0.43194267 -0.087721355 -0.077619955 -0.20894517 -0.33697653 0.31760615 -0.16711442 0.69921297 0.31927085 -0.23370743 0.48070815 0.7130093 0.1907682 0.25120267 -0.026627079 -0.3916841 0.24136677 0.37372667 -0.17346513 -0.43688148 0.15532708 -0.56992006 0.47968662
12 0.2553372 -0.36918446 -0.041466452 0.26185057 0.06435961 0.63185483 -0.19152878 0.15243202 0.21850081 -0.035781983 0.24878323 0.23488046 -0.17303675 -0.24180062 -0.46303126 -0.2049732 -0.48457628 -0.104060434 -0.25954962 0.5152781 -0.25521734 0.0808548 -0.14114211 -0.31321916 0.056834098 0.7255222 -0.07796517 0.18996637 -0.6177464 0.92038625 -0.14019538 0.44664273 0.50171506 -0.038086943 -0.3574212 0.26506662 -0.33917987 0.14564838 -0.3178564 -0.13748068 0.021103313 -0.18787824 0.005497066 -0.49384668 -0.16623369 -0.12360087 0.30558705 -0.18545444 0.5429069 -0.02820243 -0.025630403 -0.2122679 0.017260572 0.1688638 -0.12912112 -0.2418332 0.21634811 -0.2907882 -0.51855713 -0.32497573 -0.082225315 -0.04901575 0.20763001 -0.04213217 0.0022787026 0.27249914 -0.27206668 -0.23878874 -0.1768598 -0.4678657 0.3161694 0.16863199 0.43976521 -0.112180784 0.28390214 0.6829501 -0.021168213 0.34056807 -0.62867755 0.26803252 -0.05472036 0.060578175 -0.33460197 0.26342833 -0.33261082 -0.12158831 0.452128 -0.025556086 -0.41582343 0.41864952 0.53146267 0.2001054 -0.31701264 0.15542693 0.16858454 0.45265183 -0.10263525 0.4605753 -0.70335716 -0.30272603 -0.24306135 -0.079691716 0.020570286 -0.0980384 -0.44704106 0.6160336 -0.2088578 -0.12511207 -0.058032006 0.06909918 0.122738495 0.05662277 -0.17017819 0.34956795 0.05148417 -0.28480923 -0.09029911 -0.041991673 0.27647278 -0.088885285 0.015400972 -0.2695954 0.3330511 0.42968345 -0.7267039 0.03392731 -1.0000994 0.21211351
63 0.30977693 -0.53241026 0.2675422 0.21540003 0.11232168 0.6851934 0.12324827 0.29379955 0.27111503 -0.04773283 0.56744915 0.15043867 -0.7419821 -0.08729498 -0.58650917 -0.14979252 -0.48846114 0.06546597 -0.94445896 0.13391037 -0.5435663 -0.056806013 -0.07986812 0.26964152 0.152811 0.17467852 -0.1697932 -0.33957052 -0.26022658 -0.043338116 0.26003516 0.10879444 0.15469031 -0.37159395 0.37668103 0.21793982 -0.23011135 0.45363173 -0.043729223 0.19204311 -0.31927875 -0.31439123 -0.45838013 -0.108933724 0.28732374 -0.20657521 0.18906796 0.27106863 -0.028997714 0.0021123057 -0.05827937 -0.015457246 0.31583667 -0.12107356 -0.045195546 -0.42445156 -0.17909034 -0.035728417 -0.20794594 -0.36094695 0.19225037 0.11631836 -0.28647566 -0.29927757 0.12671898 0.2358397 0.4406414 -0.6672177 -0.07587784 -0.68159324 0.06587849 0.38294828 -0.026776722 -0.21100867 -0.026397351 0.3554134 0.27880183 0.30566615 -0.118337676 0.11670259 0.3297094 0.13095254 -0.119669825 0.074896276 0.16164367 0.39641562 0.1952884 0.29975507 -0.18248476 0.17486492 0.4436633 -0.8910599 -0.016353415 0.058109738 -0.23623893 0.22468852 -0.18329364 -0.24290766 -0.24697736 -0.19015156 -0.33609572 0.53146964 0.026320172 -0.13020515 0.26770154 0.6050426 0.37754157 -0.06329046 0.24370138 -0.35191083 0.48200274 0.12216204 0.10170857 0.35719642 0.14593892 -0.10632807 0.36097878 0.19817463 -0.20224075 0.20460346 0.030716967 -0.30391234 0.04576604 0.21177569 -0.3386006 0.31157434 -0.3165664 0.34296864
6 0.19111487 0.05792834 0.26767197 0.6688976 -0.28549328 0.41060886 -0.05443895 -0.3072969 0.12734185 -0.20424181 -0.13505594 -0.092246294 -0.14026096 0.080089085 -0.08411005 -0.18856026 -0.019142209 0.74489415 -0.10762984 0.3440339 0.17709018 0.034199964 -0.5304197 0.19767258 -0.11418179 -0.1971705 0.45447838 -0.4831479 -0.048839156 0.78605396 0.035088744 0.15305975 0.08844819 0.45225275 0.30055285 0.28606555 0.12885572 0.5312061 0.32774776 0.18866023 -0.113074794 -0.12870361 -0.10061662 0.35860372 -0.1782481 -0.53901714 -0.14583085 -0.092417784 0.66040456 -0.41558585 0.31817588 -0.11010644 0.58585256 -0.072001904 0.46569943 0.3508857 0.28554857 -0.45912528 0.13308589 -0.49411216 -0.40951777 -0.45422313 -0.53719646 0.34203544 -0.1117396 0.05503082 0.27133375 -0.5327866 0.3101824 -0.24605216 0.46091318 -0.365584 -0.12481599 -0.12954774 -0.026792975 -0.04541273 -0.4840681 -0.034008976 0.17254566 -0.22635661 0.30531588 0.19245513 -0.33224326 0.08535038 -0.08524233 0.351698 0.69015765 0.17504513 0.19190143 -0.30107537 0.3742175 -0.035524033 -0.064608745 0.40118587 0.26731545 0.08708081 -0.24402693 0.23756897 -0.13419358 0.029718911 0.047566563 0.1507169 -0.0046556084 -0.046786927 0.42188853 0.71483797 0.17872223 -0.13133872 -0.38080224 -0.21002851 0.09237556 0.27130905 -0.20425987 -0.19067311 -0.06873178 0.22333695 -0.11536032 -0.14808534 0.18895221 0.06726766 -0.8889639 -0.022605076 0.10389048 0.003445013 -0.6242271 0.1908342 -0.56818825 0.48085248
101 -0.3269971 -0.25579914 0.56147254 0.10702995 0.2530915 0.41129047 0.11408788 0.13113745 0.20344545 -0.6401459 0.41613573 0.03455303 -0.49606514 -0.1718418 -0.52111256 -0.14253443 -0.47285828 0.27182302 -0.33551955 0.72921306 -0.41328526 -0.3897315 -0.15874238 0.279099 0.21690938 0.2473216 0.07183577 0.03047578 -0.21146263 0.41723195 -0.2873551 0.25522977 -0.22493061 -0.06410217 -0.011543041 0.41023582 -0.25202665 0.040887017 -0.13416557 0.2084791 -0.44985327 -0.5228878 -0.0011484842 -0.3123886 0.16678828 -0.5169422 0.026506837 0.0919207 0.23085082 -0.34523124 -0.32375073 -0.21879329 0.6246528 -0.5320066 -0.07303689 -0.22544424 -0.1149144 -0.9424435 -0.12899472 -0.034710377 0.13295084 0.027764898 -0.11218894 0.031618677 0.051123913 0.6455213 -0.09560408 -0.5798201 -0.39572653 -0.9625957 0.11666073 -0.26302576 0.22049952 -0.1047982 -0.25757584 0.22346246 0.13091898 0.25816923 -0.2987854 -0.50702155 -0.48229352 -0.03843308 -0.51926357 0.08759844 -0.54727656 -0.19522558 0.43840063 -0.0049702628 -0.2252117 0.19713047 0.72162896 -0.46541542 0.14758241 0.2824 0.10313237 -0.41146785 -0.26703593 0.033745017 -0.5231001 -0.20335172 0.106496096 0.15822372 0.01054635 -0.17631486 -0.00066030433 0.038411994 -0.16257909 0.01675528 -0.76383454 0.34562647 0.19023222 0.03368162 -0.06055457 0.6200404 -0.08399736 -0.09233013 -0.05493518 -0.097101524 0.42403463 0.21012071 -0.6252069 -0.21829326 0.5699615 -0.021413626 -0.45748898 0.71893877 -0.3561361 0.20331952
102 -0.32130554 -0.26773843 0.31887183 0.041819148 0.22643952 0.4150231 0.1619007 0.13391125 0.21618569 -0.6367919 0.31585488 0.023359932 -0.40962005 -0.18104008 -0.483513 -0.08079372 -0.42809424 0.23986723 -0.2436098 0.5720652 -0.3504851 -0.35639217 -0.232084 0.17691156 0.24099813 0.2759264 0.09571821 0.15034816 -0.30663177 0.3513566 -0.29087043 0.3077333 -0.019798879 -0.047336813 0.0065035457 0.42140895 -0.3122064 -0.05778133 -0.23245804 0.051921714 -0.38426247 -0.49079478 0.011029421 -0.365113 0.045080226 -0.5543942 0.09144673 0.09582019 0.328291 -0.28778276 -0.28610545 -0.286973 0.5437117 -0.43138635 -0.17129008 -0.30302557 -0.14651746 -0.8162018 -0.22378555 -0.012187971 0.09374247 0.015839955 -0.07487583 0.012511704 0.012506253 0.40755263 -0.14769661 -0.607173 -0.3638133 -0.8367505 0.14119518 -0.2887362 0.29095206 -0.12793624 -0.1517243 0.29373175 0.14429821 0.4033777 -0.382748 -0.4549943 -0.471508 0.046221506 -0.48881868 0.15966369 -0.4134197 -0.18575832 0.40732726 0.028931659 -0.26729003 0.25305602 0.7529559 -0.25712678 0.11627153 0.29544672 0.1358806 -0.22709095 -0.26324597 0.038828813 -0.5671253 -0.23395498 0.06695679 0.048862703 0.010343037 -0.18408497 -0.108863235 0.1475396 -0.2678235 0.07792151 -0.6589256 0.40649548 0.11191649 0.027176403 -0.14925186 0.5847086 -0.12223978 -0.02202663 -0.01900771 -0.1158348 0.49090028 0.23832722 -0.57070786 -0.16217169 0.5116719 -0.014633695 -0.46253663 0.5759561 -0.42188153 0.16257688
105 -0.020399965 -0.4266291 0.32106128 0.370568 0.46296299 0.09707775 0.07992278 -0.30885667 0.1851531 0.28565374 0.08553487 0.10955543 0.07602782 0.19151926 -0.78745556 -0.17038585 -0.2554131 -0.36018896 -0.49799863 0.8273078 -0.19502607 -0.14060122 -0.5136887 0.26460564 -0.23044959 0.45497772 -0.21038194 0.10604733 -0.1101357 0.6086101 0.08733829 -0.07534793 0.047731232 0.1393975 0.078058444 0.3046115 0.27324167 0.17812173 0.030670984 -0.06979558 -0.1510813 -0.02191919 0.23936836 0.26972404 0.4947741 0.05247723 0.095024 -0.24905244 0.51624835 -0.16881338 0.15941197 -0.06976012 -0.04324062 -0.503292 0.4844644 -0.1541799 -0.06725542 0.58399993 -0.2070997 -0.22459361 0.06360887 -0.047601663 -0.25361094 -0.11217971 -0.37868118 0.5421007 0.38784954 -0.2658784 0.2765192 -0.16485757 -0.35164806 0.53705555 0.25043553 -0.012933549 0.28209916 0.3329299 -0.039852303 0.4201005 -0.34995103 0.00326358 -0.044904258 0.34056807 0.031876918 -0.18756759 -0.38647112 -0.013955656 0.29430214 0.054269444 -0.14602779 0.22476897 -0.3100043 -0.49261454 -0.34885716 0.18031108 0.8196827 0.21484348 0.12053527 -0.22936445 -0.08328127 -0.08319443 -0.31609064 -0.49644375 0.022779485 0.14650767 0.10431913 0.47157997 -0.035753123 0.016326558 -0.21751884 -0.43272784 0.41626558 0.0822273 0.45977217 0.02917444 -0.30393767 0.4994861 0.6009085 0.22911349 0.5271779 -0.19535446 -0.38202986 0.025722455 0.049446706 0.050250888 -0.585328 0.09792996 -0.7150283 0.24046324
56 -0.10088065 -0.3949166 0.1052244 0.6474024 -0.050220028 0.24775389 -0.12360428 0.27404746 0.09321734 0.027316349 -0.3415381 -0.2318537 0.42170092 -0.4084681 -0.60121554 -0.08638366 -0.085059814 -0.030170951 -0.9401066 0.05774457 0.22755139 -0.24879265 -0.71930885 -0.014536746 -0.39631918 0.25300175 0.48876402 0.1292721 0.22503975 0.1056471 -0.07304346 0.21348862 -0.0006110833 0.064559795 -0.07717551 0.29450002 0.2831089 0.54110664 0.17538293 0.25907016 -0.311659 0.12989898 -0.30468822 -0.13332593 -0.29096776 -0.360773 0.1110678 0.10047555 0.14273562 -0.027694294 0.56666887 -0.30348143 -0.18363728 0.13064513 0.3504495 -0.3169366 0.049336374 -0.41165945 0.09075524 0.36847016 -0.44732532 -0.2822029 -0.62919754 0.08650307 -0.16639897 0.5573736 0.13502438 -0.9885664 0.39080185 -0.41160628 0.22269681 0.038548797 -0.3609397 -0.06550517 -0.01871229 -0.08974321 0.34160814 -0.114547476 -0.17366534 0.22201131 -0.29674286 -0.10929395 -0.29654002 -0.045951612 -0.2929633 0.30537537 0.1649394 0.32772943 0.18799771 0.3805025 0.026802128 -0.20090334 0.08764694 0.36296108 0.6156206 -0.00815642 0.20641416 0.29012588 -0.3067758 0.165072 -0.59049076 0.5631548 -0.12303104 -0.11299492 0.096519865 0.17496802 -0.20531034 -0.2921254 0.20128444 -0.31455684 0.092834786 -0.17241335 0.012683683 0.3928793 -0.08273953 -0.1286625 0.23414584 -0.45241556 0.3278987 0.21913409 -0.40648425 -0.021038676 0.38216406 0.08299963 -0.5173853 0.19846633 -0.2249774 0.28415582
92 0.07842697 -0.5945896 0.42844805 0.54959446 0.024665717 0.37816733 0.19208327 0.45007718 0.5447038 -0.2571418 -0.045479678 0.109814234 -0.049365878 -0.8315665 -0.1583038 -0.09527928 0.062343586 0.4803702 -0.66694146 0.70164365 -0.04065596 0.10203915 -0.6480771 0.117087364 0.03984383 0.71688235 0.3417753 -0.0022720725 -0.4846614 0.3876684 -0.25897893 -0.16157703 0.12099808 -0.6827735 0.34194422 -0.17467986 -0.091271885 0.35050374 0.4266182 0.298426 -0.6046302 -0.53100675 -0.10199257 0.115685426 -0.13217542 -0.005176853 0.4310574 0.5060823 -0.2618199 -0.53888863 0.29079986 -0.1321196 -0.32379737 -0.346562 0.3568532 -0.007446493 0.13619722 0.0111416085 -0.30248034 -0.263067 0.0677813 -0.18340054 -0.14549014 0.034431536 -0.27709186 0.6917957 0.1864479 -0.79288316 0.559769 -0.36264414 0.4337566 -0.13430487 -0.36893877 -0.022742867 -0.11706946 0.47533593 -0.4681089 0.39004916 -0.2949323 0.31711346 -0.6054062 -0.01725512 0.23560143 0.3046406 -0.09101567 -0.22448647 0.56401217 0.0368302 0.13209869 0.53192616 0.01649866 -0.67680085 0.122453116 0.11214512 0.010786064 0.6263473 0.14668499 -0.11159689 -0.13179275 -0.31461218 0.089843266 0.38196516 -0.14001374 0.118298985 -0.12703218 0.44869512 -0.10777611 -0.009519659 -0.0774068 -0.22752279 0.17127673 0.031924114 0.21902472 0.3418494 -0.01219163 0.427387 0.019013466 0.42057666 0.14955287 -0.25671574 -0.5618981 -0.37604964 0.30858833 -0.25673172 0.16515258 0.29466754 -0.8605796 0.111912005
14 -0.13936412 -0.33791015 0.29645112 0.88512105 -0.022052616 0.085493214 0.10216025 0.58035403 0.39743513 -0.19158502 0.063288175 0.08295632 0.49301365 -0.7197186 -0.037022267 -0.081007265 0.12970997 0.21856768 -0.8354374 0.1669092 -0.22649768 -0.0011734661 -0.76926523 -0.18376228 0.09268929 0.7347378 0.14682636 0.19519433 -0.23209818 0.46181902 -0.23983596 -0.039193045 0.3087762 -0.38012674 -0.16443822 0.16234301 0.08823918 0.24869323 0.44559988 0.14124814 -0.50370276 -0.03756323 -0.0115686115 -0.0193493 -0.24767397 0.0030393368 0.37916407 0.2963373 0.23965806 -0.18220294 0.52345103 -0.26055115 -0.2600541 -0.017522221 0.45186237 -0.12715934 0.3563602 -0.2933854 -0.05077595 -0.4294233 -0.5364185 -0.22896214 -0.113776885 0.12711151 -0.049345184 0.57154816 0.25825176 -0.70490485 0.5282583 -0.54282886 0.0911037 -0.066272914 -0.26778275 -0.16274877 -0.15513761 0.31418785 -0.20172372 0.07743589 -0.44051954 0.43847567 -0.40329558 -0.1428522 -0.14863801 0.17379819 -0.18991858 -0.042366892 0.37426856 0.060325433 0.021241821 0.59369737 -0.22358793 -0.4287627 -0.10047187 0.38559264 0.33453357 0.44615254 0.3536949 -0.18850169 -0.07025637 -0.39366022 -0.3932106 0.4511222 -0.3106959 0.095348895 0.12445538 0.30562404 -0.11450694 -0.398472 0.058667388 -0.44561028 -0.14401607 -0.23098408 0.11320238 0.44690165 -0.21466725 0.074365154 0.35365537 0.05644451 0.17303213 0.036136545 -0.12831104 -0.32729343 0.4524847 -0.12079869 -0.058909047 0.11289949 -0.62658376 0.13528979
26 0.45576265 -0.28748724 0.4724968 0.46346623 -0.025195953 0.6295825 0.08314193 0.33533135 0.34816083 -0.32682797 -0.17794022 -0.21207458 -0.5462809 0.3819601 -0.4990968 -0.13333437 -0.23812135 0.37241417 -0.5658105 0.37796417 0.19349883 -0.024591714 -0.43568677 0.082313724 -0.20236371 -0.47641504 0.07833487 -0.4537012 0.11234318 0.6880113 0.175353 0.29485112 -0.28695238 0.38093653 0.34160957 0.42048258 0.18385684 0.6116138 0.42546934 0.274034 -0.021725047 -0.15279734 -0.2264488 0.24228655 -0.1383436 -0.105096355 0.12423932 -0.36771822 0.61350816 0.045382358 0.49578443 0.026768493 0.57630926 -0.09916754 0.33586612 0.11396956 0.29290986 -0.12987025 0.022922087 0.00655648 -0.17475387 -0.59911406 -0.54372483 0.2644003 -0.3238406 -0.29431662 -0.023168765 -0.82507867 0.094370045 -0.2388693 0.08726943 -0.12035432 -0.1193657 -0.15549234 -0.24924116 -0.009734193 0.082786486 0.17760806 0.16576335 0.01727567 -0.19545844 0.24450243 -0.17141731 0.14351434 -0.11032384 0.5669708 0.5075834 0.27095088 -0.23437558 -0.43484852 0.37452978 0.017073581 -0.3860725 0.49313098 0.10606449 -0.26191717 -0.3440977 0.36909756 -0.31424683 0.17661469 -0.013386484 0.44194812 0.25208202 0.10805851 0.3103255 0.47241777 0.379805 -0.40674177 0.29159856 -0.2601732 -0.015873814 0.16318439 0.02591159 -0.2711768 -0.05802602 -0.22532892 0.2452957 -0.24932872 -0.15329112 -0.05686259 -0.4370133 -0.016834678 0.14076015 -0.07310692 -0.5471462 0.44711196 -0.2894691 0.7523037
-0.16738346, -0.3822082, 0.031672776, -0.2563849, 0.087631315, -0.082465, 0.06556218, 0.22848625, -0.03980579, -0.023303606, -0.03506449, 0.08451084, -0.22506963, 0.13073854, 0.2938866, -0.12002209, 0.06271751, -0.46596387, -0.5514669, 0.18921898, 0.29785612, 0.1383587, -0.2652268, -0.5005962, 0.010548678, 0.13492203, -0.3417709, 0.12639771, -0.012209788, 0.08753724, 0.06327117, -0.052274972, -0.072424725, -0.062716275, 0.38463593, -0.046895724, 0.072365984, -0.061087348, -0.17703083, -0.04731597, -0.12008948, -0.34338978, -0.22802971, 0.2039578, -0.20727834, -0.15519723, 0.0035236138, -0.109916314, 0.21168435, 0.29528406, -0.22452815, 0.28556994, 0.25276417, 0.07684166, 0.028499942, 0.32597297, 0.16096283, -0.17769384, -0.0029004384, 0.03810304, -0.19814818, 0.4084644, 0.014574268, -0.1842041, 0.019285722, -0.028772973, 0.18335539, 0.13904439, -0.15040003, -0.2524381, -0.06892721, 0.07785129, 0.107503876, -0.08569448, 0.3546766, -0.13635321, 0.32535625, -0.30573252, 0.23736818, -0.02524633, -0.114424385, -0.18513831, -0.07599987, -0.05506, 0.069165334, -0.09793333, 0.38135263, 0.00085385534, 0.20185298, 0.1795663, 0.0852496, 0.020048235, -0.094583675, 0.1848677, -0.03570227, 0.23911828, 0.31282791, 0.11497455, -0.42875093, -0.113982655, 0.09868439, 0.112440065, -0.29790878, -0.30596352, -0.2988404, -0.018777765, -0.094844766, 0.12529366, -0.3228197, 0.048973434, -0.29383856, -0.13656624, -0.14772616, -0.43002793, -0.25560874, -0.061556503, 0.40905142, -0.24364835, -0.032174043, -0.06817559, 0.23748255, 0.23307478, 0.3329657, -0.2512505, 0.17101905, -0.35428327, -0.24284917, -0.06926248, -0.00036708603, -0.20613468, -0.084548146, 0.10629759, -0.062173534, 0.10326623, -0.07720879, -0.05502804, 0.6177207, 0.11621648, 0.080158636, 0.15230188, 0.2763832, -0.06631197, 0.13375743, 0.17707878, -0.24420287, 0.023326082, 0.10050631, 0.40817463, -0.35602093, 0.19726653, -0.32451105, 0.2723728, -0.01645127, -0.53412586, 0.10909899, -0.13993165, -0.07481093, 0.10531022, -0.097699024, 0.0300861, 0.06624669, 0.021614015, 0.10727077, -0.20065811, 0.015918005, 0.047122512, -0.039691005, -0.17541973, -0.1069059, 0.19797415, 0.088388674, 0.20021136, -0.3171811, -0.0023503974, -0.07510572, -0.11494998, 0.36360964, 0.28091368, -0.14061889, 0.1652759, -0.10610409, 0.4857355, 0.12531167, -0.25815055, 0.13808103, 0.16129538, -0.38771313, 0.37156156, 0.14360902, 0.00024969247, -0.30765238, 0.06641967, -0.21537893, 0.088369355, -0.23975778, -0.13986285, -0.04317315, -0.30918685, 0.062038522, 0.09124623, -0.05743888, -0.50432444, -0.012733349, 0.127484, 0.25009897, 0.1529681, -0.20548397, 0.103104524, -0.20682849, -0.2198122, -0.26670122, -0.2542851, 0.15735911, -0.10077811, 0.22163358, -0.09979206, -0.020144532, 0.23197776, 0.309583, 0.00022873834, 0.2025293, -0.4706176, 0.42952928, -0.35722464, -0.0810945, -0.10250565, 4.538457e-05, -0.055999745, -0.038655825, -0.052641112, -0.14223996, 0.120002374, -0.14644021, -0.22468233, 0.3145956, -0.17648228, 0.10788454, 0.31534758, -0.19832836, -0.32832256, 0.04958002, 0.25143218, -0.20573567, 0.009028069, -0.13895696, -0.06552796, -0.0527755, -0.201182, -0.054559745, -0.21967687, 0.06356554, 0.18484925, 0.036796894, -0.14071302, 0.028863715, -0.09983533, -0.69695497, 0.03594213, 0.1744355, 0.42016393, 0.031597916, 0.23041609, -0.50848967, 0.18122394, -0.030050805, 0.32881057, -0.0046097226, 0.15151206, -0.16800606, -0.51212996, 0.2863888, -0.42382526, 0.22088028, 0.15456861, -0.15809412, -0.23979343, -0.19710243, 0.27765316, -0.28367993, -0.106339455, 0.21711549, 0.52093005, -0.016354423, 0.058188766, -0.5439129, 0.12592609, 0.041031037, 0.29801464, -0.03808414, 0.003813955, -0.027150616, 0.4034645, 0.17244901, 0.10273452, -0.23171917, 0.08982015, -0.1309626, -0.07508449, 0.58983624, 0.18255185 0.3928845 -0.3331146 0.73482835 0.3180942 0.0075239423 0.33575943 0.14544323 0.68848634 0.009739967 -0.23658574 -0.11243516 -0.2612081 0.18335316 0.10694823 -0.62399226 -0.22448443 -0.6334103 -0.078593746 -0.28220183 0.07639142 -0.31144914 -0.17773588 -0.7291947 0.2446942 0.1486257 0.005688257 -0.3231177 -0.02097328 0.16523488 0.62549263 -0.34113774 0.14543557 0.09719641 -0.40047935 0.43620694 0.3729027 -0.20840459 0.30764955 0.50108635 0.35764208 0.31193617 -0.096188724 -0.69247985 -0.04373686 -0.2003137 -0.31066912 0.18050429 -0.020630479 0.6468403 -0.25960657 -0.18820998 -0.15502465 0.62359124 0.14489505 0.060037892 -0.081020445 0.060157254 0.024192613 0.24978696 -0.044907723 -0.4271076 -0.31778297 -0.1478303 0.13820523 -0.07941383 0.42609623 0.38753054 -0.56750315 -0.04275811 -0.2416897 0.2732173 -0.025787558 0.06770506 -0.40709984 -0.10413893 0.1937429 0.09864963 0.060216613 -0.3543067 0.33076116 -0.0771066 0.4256726 0.38327512 0.13846476 0.20485112 0.26227355 -0.17789727 -0.2942729 0.19855851 0.040318463 0.76211584 0.0029484024 -0.11313616 0.38256475 0.28915876 -0.11734422 0.0857768 0.33978513 0.05510729 0.006197596 -0.034692366 0.14209013 -0.026488613 -0.2903006 0.32495216 0.29118124 -0.254317 -0.23482879 0.015404287 0.03895361 0.09850344 -0.39632225 -0.23641016 0.09369572 -0.0648834 -0.021077607 0.037246343 -0.14656459 0.45149714 0.32394156 -0.21732491 -0.1300864 0.4267646 0.009815216 -0.47810435 0.38805133 -0.35415757 0.25022817
24 0.34714144 -0.29073998 0.54032606 0.36588073 0.071334526 0.41239905 -0.023948599 0.29213962 0.13803159 -0.2329024 -0.23644973 -0.29696235 -0.1435297 0.30965257 -0.4602013 -0.34636572 -0.23574264 0.2864057 -0.28599128 0.16115147 0.18832412 -0.033573017 -0.52661437 0.25814724 -0.101248026 -0.36243984 0.24779718 -0.2763474 0.2943026 0.5526299 -0.052803177 0.15695213 -0.19836943 0.37182307 0.24652806 0.17866963 -0.030075185 0.4428369 0.4642228 0.17254771 0.131009 0.03816722 -0.35027117 0.14070302 -0.17653166 -0.43109795 0.00956586 -0.15433161 0.6600312 -0.13249548 0.32254106 -0.11734977 0.44384894 0.02608426 0.24506241 0.10121521 0.15999873 -0.19623645 0.23802198 -0.2503152 -0.34454793 -0.656933 -0.2749578 0.26531905 -0.14773794 0.12166058 0.27250776 -0.76424485 0.04758194 -0.2670136 0.38435566 -0.21409935 -0.13109137 -0.06444871 0.0219691 -0.01429236 -0.20795238 -0.23782702 -0.14584751 -0.020366665 0.15845774 0.2993725 0.11113881 0.076891504 -0.06454446 0.47524557 0.28530854 0.0348456 -0.11144171 -0.2614623 0.55272365 0.05607767 -0.21902986 0.33298114 0.20185167 -0.12097363 -0.10830135 0.2763323 -0.035203237 0.17896959 -0.16577704 0.09588132 -0.10663197 -0.20217526 0.3266546 0.29893252 -0.12121876 -0.4361644 -0.1764013 -0.13327374 -0.025961883 -0.014360981 -0.12389738 -0.24354023 -0.09774923 -0.04648355 0.14634684 -0.306523 0.41530356 0.050332054 -0.31025508 0.0816776 0.15808968 -0.01689805 -0.45351505 0.5050944 -0.36994174 0.54583293
52 0.082284994 -0.46869355 0.16470946 0.57903814 -0.0059569757 0.272064 -0.2276648 0.28022283 0.6074395 0.11034798 -0.24971022 -0.119706675 -0.0761322 -0.0388241 -0.072382696 -0.3943763 -0.083070554 0.20898113 0.077532835 0.17302693 -0.17051983 0.21698532 -0.46969903 0.25554988 0.029390786 0.1747667 0.3523561 -0.456668 -0.4261594 0.24642898 0.13431573 0.124351285 0.24912904 0.14354108 -0.2647674 -0.12969272 -0.0897518 0.25598943 0.05048818 0.247598 -0.100558266 0.17966428 -0.39881793 0.25797722 0.21046446 -0.33740065 0.008442876 -0.26590085 0.5466342 -0.41813174 -0.05699595 -0.14849116 0.13648206 -0.29516748 0.6134001 0.0074457577 0.55441165 -0.56328803 0.33902943 -0.3203919 -0.6534397 -0.5938661 -0.30704755 0.112732925 -0.12175316 0.18858221 0.41179475 -0.39992285 -0.3127873 -0.09129032 0.18348417 0.07320555 0.10925713 -0.63657683 0.21378025 0.27167103 -0.58035004 0.4691715 -0.19779858 -0.04475221 0.6807323 -0.42796266 -0.18392582 0.10077828 -0.31062752 0.29037634 0.4257683 0.16826594 -0.42620847 -0.10204451 0.7964911 -0.33277914 0.1780827 0.26098764 0.38801014 0.3852902 0.21371908 0.21334602 -0.26410657 -0.41611066 -0.32333848 0.18846856 0.116078265 -0.39758265 -0.027890423 0.12418311 -0.16980714 -0.16553152 -0.5774692 0.2959232 0.0884821 0.07006559 -0.10260025 0.3639453 0.0283395 0.018690808 0.24168493 0.35136485 0.4388701 0.10248393 -0.87028223 -0.27102435 0.3943328 -0.33694467 -0.23682281 0.29949602 -0.23369204 0.29963607
111 0.35358822 -0.29925692 0.32697418 0.52721 -0.22894722 0.54750013 -0.056084603 0.039007213 0.31740123 0.04681629 0.034013655 -0.21531832 -0.6316251 0.07714214 -0.51946825 -0.1349866 -0.46250936 0.42630082 -0.71890384 0.36071816 0.13124612 0.07733702 -0.3650772 -0.02009876 0.03391354 -0.21050073 0.27576786 -0.6367625 -0.04620375 -0.070300676 0.18238984 0.32906687 0.088960014 0.075019486 0.22657298 0.17753166 0.058430064 0.48829937 0.09213295 0.2977925 -0.5061696 -0.051420443 -0.47328213 0.10182563 0.07680751 -0.2737428 -0.34514165 0.021114733 0.18838911 0.02275939 0.19809526 0.099044375 0.13506192 0.048461564 0.19319323 -0.2729319 0.0747893 -0.53265357 0.078911915 0.00063093565 -0.17474423 -0.34450385 -0.5673811 -0.055684153 -0.30859724 0.0021951362 0.06455715 -0.733467 0.08172895 -0.42780852 -0.13331501 0.15615419 -0.20050006 -0.30872196 0.038254503 -0.11765592 0.30960888 0.10800305 0.07853638 0.2511352 0.009528357 0.070661955 -0.07874976 0.1349746 0.019643435 0.3577312 0.27693602 0.19787985 -0.108161025 -0.33138552 0.4761763 -0.28976586 -0.2677061 0.26557177 -0.21182235 0.08105378 -0.229092 -0.021379583 -0.5317897 -0.113362074 -0.62684935 0.40418002 0.056858346 0.08016474 0.32343227 0.28691205 0.6266534 -0.11495421 0.5409305 -0.11911377 0.07408098 0.13091916 0.1980133 0.117593296 0.19287395 -0.512243 0.22704688 -0.16532154 -0.25128785 0.34945148 -0.24200651 -0.37306324 0.121807575 0.12803155 -0.4435996 0.3116862 -0.2517365 0.267995
91 0.06450568 -0.5825879 0.35764936 0.5942844 0.028483756 0.34326896 0.23845737 0.35924292 0.43873045 -0.21964611 -0.10179151 0.093285024 0.0556434 -0.73689306 -0.16084503 -0.103061944 0.08634882 0.33570936 -0.5946491 0.5427327 -0.076268345 0.05257781 -0.8046115 0.03346797 -0.12240238 0.5820382 0.3359321 -0.04207258 -0.41106045 0.3759317 -0.32402238 -0.1309573 0.04747098 -0.53110826 0.30699772 -0.11327268 -0.049398884 0.24611181 0.40991595 0.23310025 -0.5310629 -0.44749054 -0.101286545 0.09566969 -0.2591233 -0.006479969 0.4874621 0.47823012 -0.14384976 -0.57201105 0.35654455 -0.19451697 -0.31720078 -0.29796612 0.4189576 -0.12104974 0.25505707 -0.10691945 -0.20651907 -0.21549527 -0.10129825 -0.045067333 -0.22705741 0.086847976 -0.25345156 0.6362427 0.15425372 -0.8212842 0.5291591 -0.42267293 0.4916019 -0.22465444 -0.39088494 0.011005155 -0.20627792 0.44754437 -0.46303174 0.2854983 -0.30118123 0.2657669 -0.6738218 -0.09905775 0.23759606 0.21675777 -0.12736604 -0.17743038 0.5457012 -0.052438866 0.17652866 0.47878775 -0.058701478 -0.6078632 -0.037009172 0.15297334 0.16343127 0.58990675 0.09190632 -0.24715087 -0.05346297 -0.29903558 0.0065458585 0.4069435 0.024257807 0.17587258 -0.09873797 0.32737562 -0.12960675 -0.111625254 -0.0668722 -0.24806073 0.023505123 0.03904362 0.06229178 0.3158729 -0.016803825 0.3791908 0.07550641 0.39725068 0.23437715 -0.23674375 -0.4968309 -0.36847627 0.32000038 -0.24938816 0.08826013 0.32380697 -0.75877357 0.050430458
17 0.4036286 -0.13876902 0.3124569 0.5397322 -0.20795777 0.36701423 -0.16077913 0.037015323 0.24106313 -0.13549535 -0.21104264 -0.018128924 -0.14529218 0.047746595 -0.040465042 -0.40386695 -0.22326346 0.47242785 0.08846413 0.28208145 0.071698174 0.08864791 -0.47172633 0.26313478 -0.12225047 -0.2195773 0.3413682 -0.498645 0.0008972399 0.6507323 0.11769771 0.16808307 0.16719685 0.33258206 0.1774043 0.19703317 -0.026330274 0.40583163 0.27521423 0.17264847 0.055608198 -0.030234646 -0.30330923 0.2072564 -0.027373971 -0.48480198 -0.032043774 -0.26483393 0.66658866 -0.4754083 0.14464168 -0.0036686861 0.5907485 -0.05368303 0.47900662 0.2080649 0.35434222 -0.51097983 0.33237317 -0.50010544 -0.5847689 -0.62955624 -0.3665915 0.3847052 -0.0029377125 0.16719796 0.2748699 -0.42162916 -0.13541955 -0.19358158 0.4227052 -0.29961753 -0.052200016 -0.34392792 -0.029615905 0.028052898 -0.47162822 0.027054561 -0.022872895 -0.16857225 0.45798266 0.12296057 -0.15517098 0.037645586 -0.041574407 0.24282897 0.5475392 0.12722483 -0.028379858 -0.18115757 0.67441654 -0.1063243 -0.023903467 0.40103444 0.3575488 0.10935369 0.020886278 0.34798202 -0.062219538 -0.08962811 0.066348046 -0.003935584 0.04958495 -0.3434718 0.35797325 0.4427499 0.011371973 -0.17214972 -0.46979734 0.17580494 -0.025692863 0.115604244 -0.23357661 -0.048829757 -0.083505854 0.09337661 -0.05260486 -0.014550418 0.352585 0.13854349 -0.8095233 -0.1656125 0.28169414 -0.18878166 -0.47498143 0.4188201 -0.41212595 0.39060938
83 0.4516986 -0.3435366 0.84230626 0.40837255 0.054963462 0.22822294 0.07956429 0.7877509 -0.1107853 -0.4523516 -0.12093953 -0.25193307 0.09695636 0.04389865 -0.6065508 -0.22349669 -0.6468102 -0.20620261 -0.5364547 0.022953352 -0.38928518 -0.13645957 -0.78552645 0.3213931 -0.008799888 0.23248786 -0.51168406 -0.007334454 0.20857859 0.71235657 -0.32952085 0.21600409 0.12452388 -0.46560684 0.47270614 0.40551347 -0.4863237 0.14952993 0.4327233 0.3612731 0.28088656 -0.13375293 -0.6987043 -0.019461451 -0.1650278 -0.1234583 0.12739506 -0.06934721 0.5982421 -0.057894602 -0.2153943 -0.05733558 0.5700841 0.08581576 0.09910006 -0.21328941 -0.032864176 -0.035203118 0.016779652 -0.20277004 -0.40123907 -0.27937117 -0.039669573 0.11797784 0.0023880557 0.4257289 0.42313114 -0.700909 -0.1849152 -0.31008562 0.2096673 0.10584065 -0.08801171 -0.25764796 0.077721514 0.109789714 0.09505187 0.15491709 -0.4442086 0.4656964 -0.2623615 0.31353173 0.382217 0.10569892 -0.083452776 0.16232613 -0.04136704 -0.29836345 0.18208633 0.03135758 0.7189229 -0.07830705 -0.2071426 0.4242662 0.16700697 0.0403153 0.28000754 0.5803723 0.16213325 -0.052060332 0.034346424 0.18251707 -0.21437998 -0.16796826 0.30990043 0.19470719 -0.15125576 -0.20120607 0.1517793 0.27006438 0.15561004 -0.629009 -0.025844062 0.026561858 -0.08754703 0.07904887 0.11916808 -0.28812742 0.47674525 0.38720572 -0.074855156 -0.11674309 0.3484228 0.039298434 -0.40073916 0.39656144 -0.20589674 0.15508626
15 -0.1729514 -0.34224233 0.3451676 0.8151246 -0.07914045 0.1540627 0.08634294 0.53580964 0.35740826 -0.10548479 0.108368166 -0.013217279 0.56597596 -0.75800973 -0.1283414 -0.12160287 0.11576655 0.24750961 -0.89329225 0.13270341 -0.22713263 -0.019348133 -0.70314455 -0.10482072 0.17154105 0.709417 0.23619004 0.18985821 -0.186516 0.27351335 -0.2436263 -0.06488011 0.22380182 -0.44097188 -0.17560464 0.19585824 0.059492506 0.28769875 0.316203 0.1911611 -0.5495986 -0.086732365 -0.04765528 -0.027625341 -0.2682134 -0.11639885 0.38799092 0.34001824 0.113638446 -0.10025251 0.45022112 -0.37974215 -0.2576196 -0.02400518 0.3607923 -0.033384476 0.20936981 -0.19921139 0.005505005 -0.24910037 -0.4173235 -0.26897123 -0.14600712 0.07540196 -0.11249249 0.5774759 0.25678405 -0.7985882 0.6001077 -0.5705372 0.012692973 0.023346545 -0.27957088 -0.07310597 -0.1869825 0.2760322 -0.10484188 0.12958384 -0.45002624 0.41776717 -0.4248856 -0.08567541 -0.16733378 0.12409363 -0.34275907 -0.06397877 0.2969526 0.10810713 0.22258891 0.6377378 -0.18059638 -0.40274256 -0.06676905 0.44371733 0.266835 0.29515824 0.3488563 -0.07902617 -0.022773316 -0.33641857 -0.520407 0.4244177 -0.3187634 0.05811203 0.07037757 0.3137259 -0.11208683 -0.27569506 0.0629677 -0.45183963 -0.058008738 -0.24467647 0.1355248 0.52933323 -0.31335893 0.09610379 0.3021346 0.12155094 0.17970188 0.02765987 -0.2139897 -0.3536548 0.41449577 -0.13424136 -0.2497562 0.097665995 -0.60465264 0.07743207
97 0.35696507 -0.03437443 0.2860682 0.25628075 -0.08260099 -0.054206602 0.14664306 0.040572282 0.022524094 0.17443728 -0.16280401 -0.014724125 -0.17134883 -0.05449649 -0.85995656 -0.55365807 -0.3535736 -0.28647673 -0.6831007 0.3572285 0.033421192 -0.09292471 -0.3551069 0.23105739 0.16869678 0.72446424 -0.15376587 -0.31445858 -0.24467145 0.6872005 0.045638498 0.121312246 -0.20652822 -0.18134893 -0.10872817 0.36033836 -0.3246708 0.32061195 0.099978544 -0.100796506 -0.47308818 -0.3986709 -0.50389886 -0.096516386 -0.19529171 -0.41517946 0.50258636 0.13779196 0.6152175 0.36900184 0.027355043 0.07908002 0.652055 -0.16104443 1.1146872 -0.35637242 0.23534293 -0.86040044 -0.4127002 -0.8080941 0.06504982 -0.021590183 -0.7292551 -0.015412215 0.20632324 0.23525582 0.7370472 -0.4275781 -0.31166217 -0.1258561 0.017285274 -0.02281374 -0.43660265 0.16820037 0.0820583 0.087458275 0.1789516 0.4932241 0.09273801 -0.4097784 -0.17864317 -0.115363464 0.40246707 0.029812673 -0.5008501 0.06062623 0.07816018 0.3256247 0.4088555 0.5996489 0.8388269 -0.35839686 -0.3865048 0.35668576 0.35188788 0.27354115 -0.03444469 0.2841847 -0.32123643 -0.09174297 0.12790571 0.0770803 -0.008428361 0.017998131 -0.59115136 0.24750003 -0.32097402 0.06738189 -0.25639585 -0.065022185 0.7105876 0.13217267 -0.06334424 0.15969457 -0.33354113 -0.17591858 0.17401771 0.30594912 0.30515334 0.20690522 -0.37617868 0.08741025 0.1832393 -0.21036983 -0.3079987 -0.01104906 -0.05984473 0.5200783
55 0.29746568 -0.29826897 0.06601776 -0.07552112 0.1792437 0.09859352 -0.1874982 0.12850161 0.575092 -0.070177995 0.43429214 -0.22454944 -0.07333083 -0.004691088 -0.34317595 -0.37232554 -0.078861445 -0.2042772 -0.4204784 0.10913383 0.07287914 -0.33498412 -0.43210527 -0.035682447 -0.26457545 0.3985829 -0.42886066 0.11524177 0.0930496 0.40187582 -0.18892777 0.33080178 0.22834419 -0.21813992 0.40766683 0.44780704 -0.47968143 -0.1560994 -0.27294815 0.26813418 -0.7023254 -0.15808006 0.06556175 -0.25677884 -0.17287676 -0.33009088 0.19972648 0.10330169 0.6190795 -0.039677836 0.2644424 -0.298227 0.3283476 -0.09442964 -0.28367504 -0.18458094 0.2084431 -0.24239227 0.068699844 -0.030970156 0.17474179 0.021906734 -0.26431453 -0.17054886 -0.21634126 0.294555 -0.13395996 -0.33136088 -0.1805168 -0.6919978 0.16367415 -0.046236206 0.4750504 0.11516719 -0.016206264 0.38587156 0.08436834 0.3618985 -0.24194036 0.06009244 -0.27563685 0.46424475 -0.5416089 0.23750086 -0.37390697 -0.24945834 0.18145882 -0.06668149 -0.28947854 0.27021027 0.04892701 -0.13357542 0.12412024 0.28158015 0.21363014 0.31939426 -0.3728535 0.05317293 -0.2889303 0.19374168 0.35470363 -0.025152585 0.32928938 -0.2644872 -0.21802399 0.3611905 -0.42141888 -0.24113347 -0.1576328 -0.06485594 0.11808239 -0.032434817 0.502688 0.44146466 -0.14903224 0.51975626 0.10678678 0.20085895 -0.07875268 0.089872055 -0.2608849 0.20268118 0.31444794 -0.058752898 -0.778357 -0.21301384 -0.5851754 0.7618482
