502 300
116 0.11592847 0.19849324 0.06285179 0.4075968 -0.5646521 -0.26397073 0.0383894 0.4263647 -0.15430787 -0.2934474 0.19246009 -0.27353138 -0.0838871 0.10603492 0.10288329 0.044035304 -0.06619603 0.40299132 -0.14432387 -0.19939817 0.2272856 -0.12322352 0.4305095 0.16334605 0.24508396 -0.031927034 -0.045451585 0.1764696 -0.23408197 -0.2685766 -0.1277466 -0.32813945 0.49637103 -0.33926842 0.10177891 0.14880663 0.36486015 -0.009547904 -0.13139059 0.022899799 -0.452206 0.34135076 -0.06583803 0.045691065 0.04896192 -0.055815637 -0.022114923 0.16626936 0.14847787 0.36832774 -0.11377458 0.02415376 -0.18134834 -0.1815217 0.19987275 -0.024436532 0.2230441 -0.23517868 -0.13286841 0.18787459 -0.06499418 -0.0796816 -0.13081583 -0.12112565 -0.23457618 0.15616876 0.040901944 0.035878316 0.049537674 -0.10363177 0.074650906 0.43030572 -0.2619943 -0.19554055 0.008395196 -0.09052553 -0.017386617 -0.03680542 0.016788974 -0.15251927 -0.08893721 -0.04240613 -0.11450544 0.47504318 -0.049503922 0.1673525 0.22487411 -0.39530557 -0.18017744 0.20733006 0.18988396 -0.045185827 -0.011890698 -0.013768103 0.35612777 0.27605966 -0.3521879 -0.33481622 0.012919352 0.05080021 -0.30493128 -0.24811527 -0.040280737 0.31660774 -0.31702694 -0.3611713 -0.20271878 0.13111214 -0.048750695 -0.119159 -0.27276927 -0.19417958 -0.07613009 0.34083992 0.001680727 -0.020284804 0.16494067 -0.03928351 -0.15557113 -0.03386812 0.3297236 0.31939515 0.36562482 -0.42107877 0.39560294 -0.0141071165 -0.12487758 -0.0060201343 0.19644609 0.32732695 0.40804785 0.0033189782 -0.0033570535 -0.36089656 0.22869676 0.15321328 -0.0070066126 -0.12063861 0.081257455 0.14940074 0.42671466 -0.18845272 -0.29536003 0.23065561 -0.12611505 0.072959945 -0.27085572 -0.34898037 0.1797474 -0.033953212 0.55419236 -0.10195138 -0.104777955 0.070651054 0.028388103 0.38097748 0.07185975 0.21630172 -0.09417388 0.40664247 0.09228118 0.2422827 -0.10588472 0.06825883 0.042316716 0.42674026 0.5073963 -0.07619971 -0.10427556 0.6951167 -0.284055 -0.4557138 0.38049892 0.1636838 0.23288319 0.040879022 -0.015174677 -0.39562315 0.07243434 0.07721219 -0.5464372 0.340956 -0.013851417 -0.20602173 -0.17314366 -0.37586877 -0.16955444 -0.38011298 0.17115092 -0.18389587 0.040697288 0.119386315 0.060287282 -0.3905616 0.039638363 -0.25937206 0.22263223 -0.11733097 -0.33293912 -0.19084623 -0.135341 -0.11727982 -0.32507384 0.08053876 0.15941155 0.35506934 -0.24625143 0.050473787 -0.030672953 0.16045259 0.015591969 -0.3018098 0.026759865 0.231116 0.18041654 -0.30481243 -0.12165909 0.041451283 -0.40238854 -0.33985767 -0.034523215 -0.36838982 -0.17723757 -0.1594543 0.4995118 -0.33266395 0.36338997 -0.0056742076 -0.40659636 0.1420981 0.3829386 -0.21033297 -0.2892959 0.00844059 -0.34232524 -0.002355631 0.26184347 0.34712654 0.13444611 -0.5036627 -0.12864254 0.16624588 -0.009060062 0.07431053 0.19165282 0.15528177 0.18322425 0.19767873 -0.11595619 0.16137376 -0.04343491 -0.16752955 0.17484799 0.055989526 -0.6324977 -0.01665641 0.20721951 0.057377275 -0.31625342 -0.33674556 0.102297716 0.18544583 0.23393643 -0.21890129 -0.30934358 0.006592567 0.18785284 0.43281564 -0.23409551 -0.0051338444 -0.18362968 -0.091772474 0.059301976 0.19716574 -0.006375219 0.13842244 0.5148643 0.49811417 -0.1888119 -0.335482 0.31604216 0.0602872 -0.1711795 0.40363023 -0.09666303 -0.23672393 -0.15411079 -0.05842036 0.32861876 0.12512963 -0.57015544 0.3592257 0.29594842 0.1994623 0.022968015 0.45465207 0.25584742 -0.016875215 0.411475 -0.5617421
113 -0.08606425 0.20862481 0.31756148 -0.03743622 0.20096655 -0.21435949 0.008069101 0.6805012 -0.00860781 -0.08911837 0.11889562 -0.016701836 0.031382088 -0.48022956 0.18572986 -0.018730493 0.22852592 0.039030615 -0.18476607 0.25105667 0.3131421 -0.4006753 0.44760993 0.2405124 -0.044934183 0.014731291 0.20232224 0.17272028 -0.02751617 -0.26317823 0.12323671 -0.50231 -0.055272065 -0.14565213 0.23436387 0.55370873 0.24634059 -0.122623876 -0.49998295 0.56602156 -0.026894797 0.3179077 0.26330072 0.05455503 -0.06471611 -0.16526023 0.33702946 -0.24240294 0.054469477 0.12141187 0.2304521 -0.061214812 -0.22890447 -0.63435566 -0.20597896 0.17316318 -0.122821875 0.10021529 0.23450048 -0.21027954 -0.03266125 0.30289048 0.22369693 -0.19037983 -0.07446033 0.011410356 -0.12976861 0.16026922 0.19528277 -0.28880724 0.15322144 -0.1308142 -0.19019559 0.015566523 0.040575664 -0.13487 -0.35435462 0.1915614 -0.23205689 0.18808775 -0.23280351 0.121204734 0.15433614 0.30031735 -0.14800224 -0.15554863 0.20846114 0.004715795 -0.14640512 0.028291587 -0.07047336 -0.09531496 0.06612496 0.19983628 0.13522291 0.2982216 0.23767155 -0.30071858 -0.15888263 -0.40236846 -0.6087119 -0.16923319 -0.08064032 0.035256512 -0.29014325 0.083920226 0.070797 0.0498998 -0.04737126 0.288074 -0.5348138 0.28370306 -0.2393023 0.42041984 -0.008921705 -0.027628757 -0.09593331 -0.005370856 0.116623305 0.030495536 0.11275546 0.076448046 0.30784255 0.11224955 0.016373374 -0.10429038 -0.11905844 -0.043438528 -0.23209092 0.060930032 0.16476269 0.24083656 -0.12296403 -0.09811716 0.59401953 0.07247358 -0.11890942 0.072347015 -0.089319974 -0.17608295 0.15173349 -0.12557146 -0.3651733 0.76215833 0.020929389 -0.053040832 -0.18760845 -0.017600823 0.18513255 -0.34028313 0.2769587 -0.02121745 -0.11320459 -0.18533507 -0.102713786 -0.07164978 -0.34874564 0.16075316 0.34849077 -0.15402295 0.32460794 -0.016624572 0.044799283 0.021824019 -0.2019526 0.20625909 0.44375333 0.3730269 -0.34140232 0.6064478 -0.32083908 -0.21005626 0.30442336 0.06469166 0.1821252 0.4946085 -0.07152135 -0.13269009 -0.002367659 -0.07344604 -0.5317029 0.19447522 -0.11678744 -0.1943294 -0.18032323 -0.22008035 -0.038429625 -0.03763302 -0.21862344 -0.07827336 0.05425022 -0.05991431 0.14193682 -0.27449673 0.2785927 -0.37493956 0.2618949 0.12572983 -0.01517284 -0.21127474 -0.5256572 -0.092933826 -0.17511752 -0.35805765 -0.21501698 -0.09818041 0.09284858 -0.052494265 -0.15204339 -0.3125266 -0.12837581 0.05973429 -0.36951572 -0.22641857 0.24215484 -0.44234863 -0.17036055 -0.4530183 -0.15892531 0.17890021 -0.0023592934 -0.16139618 0.19930366 0.26259932 -0.106465645 -0.25171188 0.4834532 -0.08981807 -0.21174549 0.40155926 0.15610798 -0.24367373 -0.30924112 -0.1678099 -0.117928304 0.3539396 0.30932635 0.054145813 0.04926513 -0.12317277 0.35445878 -0.18397805 -0.1743589 0.07591474 -0.07215049 0.032578435 -0.06888193 0.58483285 -0.047577076 0.30849656 -0.08606857 -0.14141484 0.51322085 0.12503053 -0.60939753 0.23121311 0.1411445 -0.0667819 -0.18737888 -0.50382286 0.27919114 0.28458834 0.026143638 -0.38699085 -0.23690957 0.016407961 -0.16454321 0.44809988 -0.48803926 -0.30917868 -0.07259103 0.15424074 0.23861472 0.0016230228 -0.027721548 0.34845215 0.055597916 0.25515148 0.08060726 -0.22510116 0.19458635 -0.17389123 0.29720217 -0.07947346 -0.056483336 -0.52837384 -0.26010355 0.32847184 0.07523724 0.052760966 -0.018552294 0.449389 -0.030070007 -0.055509843 0.020549463 0.19148639 -0.15435962 0.025967255 0.35281515 -0.45391986
90 0.42702955 0.1447855 0.17929217 -0.15746284 -0.08713364 0.22726627 -0.22197829 0.5545969 -0.27885896 -0.47453323 -0.03908738 -0.22762059 -0.21416605 0.24311912 -0.07660744 -0.15640245 0.23424686 0.19210073 0.16491413 -0.07750866 0.013156747 -0.19753353 0.38875964 0.2844947 0.12661697 -0.085770115 -0.22174217 -0.05638519 -0.16036281 -0.1556368 -0.17136186 -0.039912034 0.07052587 -0.21737306 -0.16098553 0.021097198 -0.23749758 -0.3438736 -0.22087821 0.1012797 0.025067568 0.14401157 0.19233853 0.008327687 -0.1696301 -0.0810774 0.43439913 -0.10040793 -0.06480008 0.28548878 0.15679978 0.055637676 -0.1571601 -0.24189526 -0.15743437 -0.11011205 -0.0913228 -0.40126702 -0.03312021 0.05388663 -0.24455456 -0.22385581 0.23886622 0.12506396 -0.15019898 0.15052594 -0.13012882 -0.15634519 -0.03928329 -0.11702789 0.054939605 0.4002459 0.17545223 -0.13564351 0.045062646 -0.31834444 0.055446662 0.20440753 -0.36027142 0.07224339 -0.23677239 -0.32905376 -0.27816334 0.6495857 -0.24410716 0.11215703 0.43273145 -0.29903767 -0.36324218 0.25941545 0.03811814 -0.26218706 0.18368079 -0.06880862 0.17345284 0.35514113 0.26257408 -0.089764684 -0.16857111 0.28636727 -0.14531936 -0.102340385 -0.13171344 0.10011808 -0.45522067 -0.4364539 -0.08928826 -0.108597554 -0.27629745 0.25833562 -0.54999554 0.14770946 -0.18268958 0.050193 0.16099364 -0.024006875 0.22644395 0.026347708 -0.18593916 -0.07463115 0.5406461 0.30055872 0.4768312 -0.23367667 0.19941035 0.41682026 -0.16306044 -0.13281357 -0.116546236 0.45755237 0.29450434 0.23240632 0.14957753 -0.44074813 0.3129157 0.23442373 -0.48826864 0.11561784 -0.33681956 -0.2299994 0.26613474 -0.18636723 -0.030807614 0.45201284 -0.08232008 -0.01945256 -0.1660639 -0.17977299 0.23555255 -0.16335413 0.18389285 -0.30845222 -0.09726889 -0.33386964 -0.05936988 0.027768489 -0.22391824 -0.056750122 0.17229626 0.62941176 0.39099982 -0.1155267 -0.02370505 0.43493342 0.2605833 0.33037406 0.114848025 0.5761101 -0.076791115 0.10991298 -0.3388867 -0.31560817 0.27283102 0.039028104 0.07255429 0.30407715 0.33775163 -0.040649727 0.086452596 0.14311905 -0.42277384 0.07119304 -0.35607043 -0.12231353 0.10303177 -0.16873685 0.10872893 0.41815287 0.022839904 -0.014398004 0.027475704 0.1480637 -0.043156855 -0.16024126 0.25970474 -0.17190276 0.24838153 -0.18437558 0.015462029 -0.09862701 0.030501554 0.110420585 -0.019271733 0.021983296 0.20486106 0.03934305 0.23403037 0.10003121 0.12080998 -0.150519 0.38757607 -0.20300889 0.10095526 -0.319365 0.13380769 0.15050903 -0.18417555 -0.28481752 -0.24445699 -0.023315698 0.42086783 0.2747133 0.06501128 0.029277852 -0.06748609 -0.079636335 0.07106232 -0.1438011 0.120174415 -0.054717444 0.23264232 -0.15296042 0.034928393 0.037654646 -0.15676102 -0.08504657 0.14966571 0.2823144 0.1390923 -0.295185 0.09138213 0.15409695 0.19990066 0.029764729 0.16194317 0.10019767 -0.2314341 0.26062614 0.14968407 0.26794255 -0.045065586 0.13399023 0.44263366 -0.16147314 -0.34268433 -0.1270603 0.1988167 0.13805217 0.08391996 -0.22152472 -0.030093968 0.13351464 0.1935164 -0.037641652 -0.39996293 -0.26778615 -0.069767326 0.18262173 -0.60409284 0.015487581 -0.38548863 -0.16319565 0.29504365 -0.05602314 0.18977408 -0.1653603 0.26696748 -0.1394926 -0.14959945 -0.38620722 0.1365537 -0.16232957 0.08917257 0.14412549 0.28582096 0.051524747 0.044363316 -0.03940487 -0.2679824 -0.088948846 -0.08144523 0.16954741 0.36304075 0.027131338 -0.045708332 0.12828855 -0.0408354 0.3640879 0.27655017 -0.26084498
9 0.07173567 -0.063241765 0.057256937 0.28018847 -0.33305115 -0.47916514 -0.38716283 0.51853895 -0.053711146 -0.19195381 -0.038988654 -0.12680602 0.011327916 0.04432215 0.057555657 0.11116976 -0.02745017 -0.09135102 0.07893936 -0.40669364 0.32121468 -0.1957857 0.04546833 -0.08523663 -0.06454987 -0.35416114 -0.22417799 0.203504 -0.39653364 -0.1273926 0.29374042 -0.18193147 0.23345791 -0.07313508 -0.14977616 0.46123496 0.0816244 -0.18857634 0.014495217 0.09325644 0.07520937 0.2812859 -0.14960037 -0.010210168 -0.06136584 0.1822563 0.3268259 -0.04163805 0.29505688 0.39191073 0.31421015 0.21382661 -0.26169884 -0.19860364 -0.03225444 0.16607407 -0.027685842 -0.055521652 0.09151103 -0.048857987 -0.11773845 0.22102892 0.090414524 0.29049617 -0.0930827 0.0066409996 -0.105280325 -0.21592547 0.08041339 0.03833104 -0.022514839 0.037109233 0.061097078 -0.23742662 -0.070408426 -0.17031072 -0.047332585 0.14873803 0.041914478 -0.19014099 0.0972355 -0.39637524 -0.38505834 0.23754556 -0.13276829 0.044959646 -0.057054915 -0.0077508427 0.042427655 0.21289924 0.038872022 0.1815638 0.2375993 0.3713973 0.62010103 0.4798819 0.07200239 -0.06780793 0.13743964 -0.009154789 -0.08356772 0.06772635 -0.20034012 -0.0975593 -0.5917683 -0.31687662 -0.0054692905 -0.11983477 -0.14075905 -0.1363789 -0.22344626 -0.26863283 0.023616388 0.45354763 0.20095554 0.15304464 -0.29760727 0.0453619 0.009248007 -0.173598 0.3788128 0.23040652 0.56422174 -0.21074244 0.010854565 -0.07747333 -0.105305895 -0.3119788 0.44590572 0.5183468 -0.12117853 0.22780478 0.22041795 -0.21691571 0.2365654 0.25671798 -0.16247772 -0.41877422 -0.0072275926 -0.09435022 -0.081275076 -0.14677525 0.06558071 0.09936545 -0.23126644 0.024144916 -0.38532618 -0.15715757 0.040729903 -0.12076323 0.16762504 -0.07644561 0.0351124 -0.11401151 -0.031540826 -0.21120434 -0.32543433 -0.21350472 -0.0066735283 0.17231508 0.1589813 -0.080036856 0.07415775 0.18266141 -0.27516988 0.056991015 0.23944442 0.028569886 0.04693223 0.1919253 0.091337286 -0.17588918 0.13924159 0.19783281 0.1661839 0.83091944 0.17475979 -0.6053065 0.05871802 0.0695789 -0.16538809 0.29898342 0.1178997 0.13972847 -0.006623515 -0.33279425 -0.17445408 0.082795575 -0.015345813 0.1955471 0.17471401 0.041415036 -0.0006341214 -0.09832684 0.09470923 -0.22624639 0.14010239 0.021703951 0.07310476 -0.20351617 0.39334252 0.0038047158 -0.32796666 0.36016548 0.009317947 -0.37157685 -0.43941623 0.34902924 -0.07310973 -0.12678468 0.11936502 0.0877069 -0.20590787 -0.18109626 0.06934084 -0.35148147 -0.30543488 -0.37939414 0.015772704 -0.18365113 -0.07190882 -0.05621927 0.09768882 -0.24595791 -0.44985738 -0.6269597 0.3412239 0.3290649 0.07919659 0.04232798 0.18247472 0.0701886 -0.1515094 -0.032978 0.09810475 -0.010733921 0.44868642 0.15811037 -0.48791796 -0.49012032 -0.10134232 0.02365433 0.015197039 -0.15411524 -0.24765472 -0.023135759 -0.03452144 0.4774559 0.14305244 0.45298517 -0.16936319 0.0049776337 0.4770913 0.15302537 -0.44613054 0.07331486 -0.10673859 0.065001495 0.00410614 -0.15436657 0.31526178 0.37036103 0.24550809 -0.36962628 -0.1528974 -0.13125414 -0.03756562 0.3448836 -0.68527323 0.009101127 -0.08761079 0.052128993 -0.13610065 -0.01739216 0.052687544 -0.057020098 0.09700094 0.16746223 0.04069539 -0.20291702 0.25397816 0.27911252 -0.23624365 0.09188957 -0.025997091 -0.049986318 -0.26215684 -0.028117327 -0.01585425 0.15418059 -0.074177615 0.45409307 -0.007957122 0.009784953 -0.09469237 -0.0624422 -0.23671012 -0.32806268 -0.01674241 -0.35305652
110 0.3611795 0.18249787 0.30297524 -0.25907868 0.060798347 0.19102564 -0.1749491 0.6845626 -0.09170485 -0.4589542 -0.06314284 -0.29661384 -0.22370487 0.036688037 0.018565666 -0.24943462 0.084692426 0.27426124 0.23184648 0.06577309 -0.020844053 -0.2280241 0.15174694 0.24521853 0.026899626 0.035343476 -0.17185527 0.17005517 -0.16267565 0.12989962 -0.27256903 -0.12049978 0.10868761 -0.3329577 -0.23279703 -0.1716742 -0.2588528 -0.21552382 -0.051853836 0.31929994 -0.067722574 0.20676458 -0.038312048 0.11382305 -0.35364506 -0.36364308 0.6317726 -0.07682088 0.02028949 0.323201 0.112234734 0.0928501 -0.15227087 -0.28922722 0.08211924 0.11599772 -0.000820284 -0.1830469 0.1316439 0.15604672 -0.34000504 -0.15937114 0.18082857 0.12875074 -0.1708959 0.023036223 0.13547748 -0.14143127 -0.18299828 -0.07844073 0.28589135 0.31037188 0.23192789 -0.17330213 -0.09494524 -0.28702077 0.009061973 0.04823001 -0.33612373 0.137988 -0.3647151 -0.21458253 -0.1969556 0.6407894 -0.23148285 0.058516663 0.124358535 -0.27267632 -0.23736969 0.1785746 0.08900219 -0.29363236 0.15946186 -0.04240856 0.07265348 0.27680662 0.27759045 0.0132979145 -0.1638884 0.28065464 -0.36415452 0.021313759 -0.2140518 -0.026244808 -0.3063007 -0.21656422 -0.12812603 -0.15480454 -0.2247425 0.09722282 -0.5289418 0.11117642 -0.29649234 0.10495165 0.18940473 0.21492384 0.21681288 0.081335075 -0.1144391 -0.032733463 0.50118905 0.26197866 0.35211432 -0.03355994 0.26418123 0.42724565 -0.24158387 -0.2294791 0.024626281 0.3662317 0.30117527 0.31087267 0.29989257 -0.34529248 0.30582255 0.19327638 -0.5049407 0.034641083 -0.28083742 -0.18810362 0.27970067 -0.16951466 0.15904802 0.380708 -0.12441133 -0.07394255 -0.17939715 -0.09397461 0.11559917 -0.20848177 0.05451694 -0.31548533 -0.366267 -0.1810764 0.017911987 -0.1457036 -0.14223616 -0.0630671 0.17039007 0.5406941 0.24025506 -0.048610985 0.01951488 0.24904881 0.1061034 0.32980567 0.18842296 0.4441781 -0.08218166 0.3484438 -0.3879017 -0.33300716 0.025341012 0.10660602 0.31975994 0.2976617 0.1770118 -0.056135193 0.13770266 0.045262903 -0.21316737 0.03207782 -0.094318464 -0.28290516 0.15848643 -0.11573416 -0.09554552 0.20862412 -0.13245852 -0.28413457 0.058878765 0.13633864 0.06047784 -0.2307996 0.10972766 -0.14879301 0.15003358 -0.16490163 -0.08887866 0.024393871 0.17176214 0.05876625 -0.09088825 -0.15516791 0.1731551 -0.057995334 0.17227288 0.11111592 0.38102272 -0.19439007 0.43626645 -0.24633136 -0.112817004 -0.20916975 0.037605647 0.13146861 0.09441755 -0.32390353 -0.08715429 -0.05562413 0.4883342 0.09467832 -0.17414397 0.19106413 -0.09776709 -0.039886042 -0.023845604 -0.12786359 0.10257241 0.018023746 0.009449087 -0.13327648 -0.085872956 -0.15146881 -0.1473779 -0.15147854 0.30460882 0.3390921 0.11834564 -0.20852502 0.11501857 0.08704381 0.3059716 0.009546531 0.12798734 0.0998641 -0.23433563 0.19130082 0.1557291 0.30403626 0.19588175 0.24295123 0.48297498 -0.16502638 -0.33840987 -0.17195328 0.33155954 0.20602652 -0.17744456 -0.032610647 0.019457778 0.25814402 0.18986037 -0.032912437 -0.3449548 -0.1062186 -0.155734 0.24786092 -0.27396595 -0.115752265 -0.16246557 -0.15462972 0.35772792 -0.21038647 0.29875034 0.08816313 0.34401387 -0.052644078 0.007196797 -0.43931824 -0.021485316 -0.018757587 0.11691749 0.042821698 0.17217997 0.09313581 -0.0010548697 0.059503205 -0.22161746 -0.06916414 -0.10178918 0.07919835 0.414911 0.06253095 -0.1534365 0.13044682 0.014385128 0.2765416 0.08520395 -0.12703179
106 0.11231551 0.34134516 0.11436606 -0.17848344 -0.13112561 -0.2678248 -0.12878862 0.48294148 -0.53626937 -0.04752242 -0.016318288 0.031960327 0.053102452 -0.12976064 0.13101971 0.26573256 -0.108108036 0.028042816 -0.13867666 0.3308257 -0.18709454 0.23731697 -0.15891773 -0.025950186 -0.23245226 -0.057810612 -0.31241164 0.053645525 -0.2644537 -0.22802034 -0.26551586 -0.47081926 0.4576889 -0.24409054 -0.16287133 0.3664356 0.1214386 -0.13735464 -0.06994972 0.33662948 -0.15509921 0.01904059 0.019179318 0.03820036 0.13490488 0.11785155 0.1540597 -0.08413399 0.02339723 0.11587411 -0.013105657 -0.03344185 0.08840843 -0.3468872 0.104375735 0.34992427 -0.0073645352 0.08825101 0.005517347 0.24233194 -0.06812149 -0.018641952 0.124992594 0.13648541 0.027619623 0.2531575 -0.31288764 0.36375228 0.24891078 0.13476679 0.08629608 0.30339062 0.09803979 -0.08914969 0.33577144 0.043777097 -0.3168956 0.3220071 0.23725033 0.013514136 -0.05336727 -0.07553366 -0.08375222 0.17608202 -0.020917464 -0.027330026 -0.032548893 -0.24089734 0.11548213 0.19733472 0.043596394 0.25247917 0.10812096 0.038381018 0.062439445 0.40915713 0.13898444 -0.1305177 -0.19207923 0.080912255 -0.24780865 -0.18734604 0.24885283 0.28766954 -0.15028591 -0.15364721 -0.051391695 0.30496088 -0.08912441 0.10277132 -0.52900684 0.07656922 -0.030295864 0.2348789 -0.019580059 -0.23885883 0.0014795563 0.22545388 0.13127503 0.031456526 0.36366615 0.23661755 0.12043651 0.13051431 0.132901 -0.11993495 0.0011176243 -0.17604953 0.06192796 0.087620445 -0.1617246 0.05147022 0.028791402 -0.4537005 0.24242188 0.20526351 -0.2560722 -0.18645214 -0.13798553 -0.20916186 -0.055692945 -0.28077272 0.061087646 0.36109582 -0.14070034 0.5009436 -0.37100658 0.07322116 -0.039161354 -0.10550878 0.09842674 -0.23699334 -0.03977779 0.045480505 0.1864756 0.13097878 -0.40501162 -0.26948503 0.27533895 -0.02621495 0.16844936 0.08014299 0.007918193 0.3911213 -0.21669789 0.10078279 -0.044621516 0.37920448 -0.13425753 0.82520694 0.36841294 0.11321807 -0.036099695 0.20357604 -0.015855234 0.02715189 0.4356352 -0.30237654 0.27391788 0.12263702 -0.19765434 0.124140576 -0.2889688 -0.22104563 -0.21683852 -0.062381353 -0.32968608 -0.08433383 -0.112777315 -0.20310873 0.39837676 -0.065614074 -0.059732024 0.05813464 0.3070593 -0.16508311 -0.33208117 -0.07099542 -0.17987193 -0.17769048 -0.114208825 0.2011173 -0.09793959 0.020775829 0.19547933 -0.42384475 0.002988704 0.1215916 0.25846875 -0.16336326 0.008350132 -0.022508806 0.06682612 0.15165643 0.43262246 -0.13387296 -0.007461614 -0.32999188 0.029358184 -0.0993143 0.339996 -0.2151121 -0.012370579 0.121679 0.010239573 -0.22093044 0.49140885 0.12521143 -0.046672866 0.19882351 0.37706652 -0.22471794 -0.06986408 -0.08208782 -0.07654673 0.23326851 -0.030964866 -0.15655468 -0.084782586 -0.36177203 -0.06626879 -0.10377007 -0.08912005 0.15230668 -0.12711509 0.29499975 0.005952551 0.2637768 0.06716457 0.31100494 -0.15331364 0.47900325 0.036279965 0.22414899 0.12003304 -0.20424046 0.052116096 0.3384311 -0.061536513 0.081412464 -0.1372394 0.29450738 -0.3176694 0.24992399 -0.16142716 -0.32796618 0.027366368 0.18410687 -0.11441012 -0.25256607 -0.17524073 -0.20665208 -0.11414263 0.062322248 0.20527361 0.1169475 0.37717587 0.3781238 0.02690899 -0.31477702 0.1845352 0.16889872 0.18835968 0.16025698 -0.11537379 -0.04631798 -0.31179506 0.08367348 -0.11403752 -0.23639911 0.19399309 0.2963127 0.25676885 -0.17765284 -0.04523529 0.45074576 0.2957926 0.017660163 0.11112336 -0.5136371
89 0.23342572 -0.23125114 -0.08545527 0.016144339 0.18415281 -0.19252263 0.045365535 0.6000563 -0.2326349 -0.2017828 -0.20024139 -0.1951666 0.23521361 0.31280467 0.27976644 -0.024526676 -0.15156524 0.38705376 0.29222098 0.23069997 0.3081236 -0.45975122 -0.13819902 -0.27023044 0.089007355 -0.1652755 -0.43882027 0.28987783 0.3591479 -0.06889711 0.13031586 -0.2486671 0.15915816 -0.28322902 -0.010127213 -0.19277926 -0.009456596 0.1458551 0.12020401 0.051955596 0.035300188 -0.005086786 -0.019583596 0.20660618 -0.062640026 -0.17181124 0.23081596 -0.009865872 0.29387546 0.11122144 -0.07349901 -0.07468718 -0.29106113 -0.2327762 0.24631749 0.48289958 -0.0632644 0.08246753 0.28306887 -0.0044650924 0.15442576 0.32631263 0.14818092 0.29793507 -0.07845701 0.35730064 0.12765735 0.24241492 -0.109279 0.009023584 0.122456245 0.11886261 0.24460632 0.05551816 0.20563367 -0.23736095 -0.37739038 0.30554032 -0.23496729 0.056014832 -0.33877566 -0.23911996 -0.08623449 0.2512143 0.15122314 0.040359583 0.019857924 -0.2625632 0.028737642 0.007766745 0.16581489 -0.25960362 0.05118074 0.18570618 0.03695436 0.20626988 0.11138162 -0.08820204 -0.1437243 -0.06858146 -0.13829231 0.093575746 0.11846283 0.1716562 -0.4353259 0.23738602 0.27993703 0.022292191 0.052332804 -0.28131148 -0.4325029 0.2071543 0.10223022 0.13490976 0.075275876 0.13121526 0.07862821 -0.28200758 -0.30031747 -0.15545882 0.080875844 0.107010685 -0.10852418 -0.11701834 -0.17176281 0.15219343 -0.1626993 -0.27948475 0.15685838 0.42569816 0.050368544 0.116230056 0.21238583 -0.1261691 -0.010890267 0.16224697 -0.16639762 -0.2546113 -0.2701995 -0.20267104 0.26705462 0.23786981 0.44082782 0.60215116 -0.031847406 0.010641147 -0.2793956 -0.21834019 0.1700636 -0.068176806 -0.20544755 -0.19854797 -0.28965586 -0.25378242 0.13952431 0.15288797 -0.09812847 0.17112334 0.17921278 0.002215395 0.14977762 -0.09649967 -0.0637368 0.015284244 -0.16572976 0.3377255 0.015993036 0.06685924 -0.37091255 0.37226832 -0.4260032 -0.020992013 0.05156576 -0.10375026 0.1362155 0.21382803 0.32984838 -0.066396564 -0.03037148 -0.049075827 -0.28525996 0.18944763 0.109346084 -0.3196219 0.26399252 -0.327182 -0.37020257 -0.35697204 -0.16233283 -0.28290194 -0.079637066 -0.11422867 -0.2135359 -0.032390058 -0.17611873 -0.475724 -0.42649457 0.22578487 0.15290964 0.15007965 0.019872595 -0.13020462 -0.32237992 0.13897888 0.07497661 0.034777734 -0.053872965 -0.005889323 0.30850145 -0.046910916 0.38683036 -0.14819646 -0.09786925 0.21575357 0.4429568 -0.316726 -0.15675706 -0.1150327 -0.15842006 -0.092525706 0.13744448 0.15708904 -0.47759336 0.4200615 -0.04213111 -0.28256047 0.20308551 0.06472221 -0.2750863 -0.073992774 0.051722288 -0.19780546 0.009026952 0.1103172 -0.24063805 0.12676156 0.4098971 0.432561 0.07361297 -0.3514611 0.08914306 -0.11028869 -0.15208454 0.19190215 -0.09988636 -0.26384926 -0.15687932 0.17323747 0.13815169 0.22396852 0.12546228 -0.18123506 0.42831695 0.087629914 -0.16669407 0.2760144 0.20116688 0.19095622 -0.49013186 -0.27207318 0.18848059 0.48905012 0.31975654 -0.36688426 -0.46176526 0.16552266 -0.35577264 0.15877703 -0.09822573 -0.29182974 0.02625279 -0.01648562 0.047588103 -0.17274323 0.24070112 0.33543348 0.15892662 0.09706854 -0.24253301 -0.36869147 -0.09653634 0.12262033 -0.017882228 0.24192376 -0.36741632 0.20108348 -0.052787885 0.08045268 0.0067215986 0.14363968 -0.34823158 0.24475774 0.15242094 0.3636879 0.10115578 0.23749498 -0.03829192 0.1097056 -0.08854227 -0.20087716
-0.04608272, -0.38059863, -0.3007064, -0.10318119, -0.17157456, -0.10328145, -0.013040159, 0.18156458, 0.12359756, -0.021596624, 0.18092503, 0.3871925, -0.42699486, 0.18430068, 0.19066332, -0.30025867, -0.22374368, -0.0410871, -0.0483035, -0.16514114, 0.08178098, 0.1729086, 0.11037792, -0.43576568, 0.23402332, 0.5728449, 0.11256782, 0.37616944, 0.14155132, 0.05196795, 0.05269994, -0.1284763, -0.08886413, -0.111397, 0.022718657, 0.027606055, 0.08102764, 0.19341965, -0.28401333, 0.03620239, -0.4103391, 0.22368492, -0.19173932, 0.3745824, 0.028165301, -0.5144881, 0.10886446, -0.22775441, 0.34125888, 0.04657206, -0.3645838, -0.2979452, 0.112987846, -0.09252355, 0.0718566, -0.06427821, -0.3016715, -0.053843115, 0.41292626, 0.01946359, 0.21973123, 0.42784256, 0.052557178, -0.009085913, 0.055349126, -0.22524434, 0.17193854, -0.23789266, 0.05981311, 0.10419971, 0.012021428, 0.050249808, 0.006319795, -0.3430943, 0.038671497, 0.025304224, -0.19613464, 0.12743467, -0.14935823, 0.22461194, 0.14894907, 0.41455412, 0.05705372, 0.46901885, -0.107238516, 0.026967559, 0.15366635, -0.09050042, -0.53050894, -0.06533662, 0.14688046, -0.11641975, -0.30391318, 0.15376937, -0.07506618, -0.13929583, -0.19033843, 0.18605925, -0.12211121, -0.093348615, -0.12515613, -0.23827438, -0.19809505, -0.22635756, 0.014466093, -0.030560505, -0.3878114, -0.12088575, 0.09150943, 0.06816841, -0.12881088, -0.45811182, 0.0010493477, -0.025115304, 0.31016296, 0.37941948, 0.45256603, -0.25068337, -0.029767483, 0.19665411, 0.032094415, -0.2487051, 0.46806172, -0.43931675, 0.16403474, 0.11928889, -0.02618416, 0.2832693, -0.40642533, 0.17986558, -0.12556618, 0.008022271, -0.42263475, -0.44664633, 0.04199728, 0.3540972, -0.11671005, 0.2027929, 0.24695428, 0.16347933, 0.26502636, 0.20361722, 0.32177076, -0.42280436, -0.05937238, -0.21152432, 0.21711493, 0.2734731, 0.09045593, 0.045136124, 0.026042357, 0.17542091, 0.008112128, -0.23006581, -0.17290914, 0.16455169, 0.004651993, -0.06871127, -0.12088238, 0.45831865, 0.32608375, -0.27646667, -0.16712669, 0.062484317, 0.0049324227, -0.11020895, -0.07887008, -0.18920071, 0.18825617, 0.06141346, -0.08003662, -0.037182104, -0.3680672, -0.019375734, 0.23848122, -0.19456428, 0.106407315, 0.422858, 0.1238199, 0.090671085, -0.08774879, 0.10589193, 0.34019548, 0.046535917, -0.048077054, 0.40319085, 0.06198489, 0.06984442, 0.30981702, 0.2503715, 0.035679445, 0.21181367, 0.01564683, 0.18955742, -0.039001346, 0.1085, -0.17278081, -0.26056805, 0.025722317, 0.14110121, -0.017827842, -0.021827864, 0.004758409, 0.1409493, -0.08876903, 0.09069106, -0.1587111, 0.13895631, -0.49942005, 0.10367362, -0.24020875, 0.44432566, -0.10112442, 0.043050464, 0.41854894, 0.28946844, -0.19908735, -0.29849052, -0.02872955, -0.03637543, 0.2880462, -0.032255396, 0.26636145, -0.13098253, 0.12169437, -0.30957693, 0.08775727, -0.3367169, -0.043762214, -0.075048886, 0.030874161, 0.28124553, 0.31899127, 0.0238689, -0.08504282, 0.34388664, -0.08366391, -0.5229568, 0.15831336, -0.32358956, 0.07843105, 0.06659838, -0.29473922, 0.5636104, -0.047017746, 0.059526343, 0.15496533, -0.053051587, 0.3202429, 0.17222415, -0.084172405, 0.15700412, -0.18125269, -0.10369836, -0.17584674, -0.25538877, 0.247185, 0.2738014, 0.36224437, 0.28022677, 0.15282889, -0.18950817, -0.654742, 0.24050318, 0.0019081817, 0.06625499, -0.063179925, -0.15793326, -0.11054917, -0.22982797, 0.02006797, -0.02261235, 0.321012, 0.23018402, -0.01796801, -0.09021896, 0.121071525, 0.25444737, -0.0102415625, -0.2500723, 0.1689873, 0.14562552, -0.047902696, -0.18523651, 0.32892874, 0.2445204, -0.008999941, 0.2525166, -0.052154873, 0.27965966, -0.31829417, -0.06117446, -0.034997545, -0.033601947, -0.16774905, 0.11896884, 0.27276498, 0.004997772, -0.19020753, -0.10152311 -0.21302089 -0.061774023 0.6544789 0.21862122 -0.21617952 0.22260319 -0.15838468 0.19715962 -0.10906446 -0.1682138 -0.13432671 0.011091626 0.14784811 0.18741511 -0.42371893 -0.07313046 0.016514443 -0.1162877 0.16255483 0.15822439 -0.11569342 -0.39224055 0.1508492 -0.19834803 0.059031542 -0.34742627 -0.40892988 -0.045540597 0.1895145 0.07005257 -0.05444563 -0.2464792 0.330422 -0.14932525 0.04921883 0.19343092 0.26347768 -0.04228688 0.038232554 0.28624064 -0.323083 0.32605585 -0.22659583 0.07968139 0.04022323 -0.09561827 0.42290515 -0.15494959 0.00029251853 0.1572023 0.13923818 0.24087045 0.025686497 -0.3169047 0.07799922 -0.06718651 0.03486389 -0.14838924 -0.049919497 -0.081380896 -0.1873349 0.097468264 -0.05114817 0.019190216 -0.045586668 0.039227426 0.05410449 0.2957754 0.02969169 0.027003596 -0.14102548 0.06841711 -0.15102756 -0.2369861 -0.08247073 -0.06676271 -0.20942824 0.2872472 0.3044813 0.34853312 -0.21032935 -0.19809322 -0.17297046 0.12472803 -0.15818173 -0.0042742207 0.22162397 -0.117826775 -0.08811281 0.113147855 0.2957614 -0.27601644 0.012401372 -0.00782062 0.07493729 0.19855472 0.046924893 -0.08101521 -0.15873727 -0.14117713 -0.19809286 -0.19957896 -0.15994985 0.2651658 -0.092628 0.03299113 -0.033662014 0.089195445 0.14142358 0.13227351 -0.21654892 -0.025060125 0.050668634 0.24695109 -0.0064956825 0.088424884 -0.2303894 -0.085694544 0.06753279 0.09700122 0.053558555 0.0743412 0.056141898 -0.042032454 0.039572153 -0.112909384 -0.073437564 0.044549633 -0.12169743 -0.14009264 0.005823514 0.062936194 -0.058674946 -0.54506373 0.105828166 0.1993538 -0.21597236 0.1480005 -0.031004373 -0.14053828 0.097513475 -0.51902604 -0.17789797 0.19512302 -0.13340995 -0.03848291 -0.2830725 0.017226687 -0.04319948 -0.28571248 0.35377094 -0.1900068 -0.16634493 -0.124760784 -0.21476205 0.20436811 -0.3058833 -0.036925096 -0.11443962 0.17125356 -0.015476979 -0.01084702 -0.26831764 -0.12405927 -0.22074181 -0.08127647 -0.04335995 0.038675092 -0.2664942 0.26315212 -0.3748333 -0.004140087 0.3868614 -0.055317294 0.08163542 0.070903786 0.07484135 -0.14340517 -0.09003066 0.14568442 -0.122714646 0.26466954 -0.2324605 -0.46961623 -0.14680871 0.03046566 0.05764627 0.074656256 0.20155695 0.075441636 -0.3091986 -0.09030391 0.034969214 -0.16617207 0.006978362 -0.3635256 -0.10914826 0.120833136 0.07297486 -0.11676248 -0.09878489 -0.45559868 -0.050171755 0.10981997 -0.20244206 0.09343863 -0.3512365 -0.0821465 -0.018476902 -0.6485726 0.14356282 -0.10190714 -0.24780647 0.11924155 0.21625814 -0.30730575 0.2039319 -0.2098503 -0.22490583 0.21056613 0.28782877 0.251084 -0.33709177 0.10017903 -0.09820589 -0.2540936 0.1601844 -0.031113766 -0.12099078 0.17052136 0.32349226 -0.19676991 -0.13456278 -0.013872678 -0.14291403 -0.03458128 -0.0012753663 0.087681405 -0.025355263 -0.18587796 0.109724686 0.14587948 0.035849825 -0.105679296 -0.0076000663 -0.06732976 -0.119425036 -0.111292794 0.07786348 0.21660389 0.112165935 -0.16356783 -0.23350284 0.10368688 -0.28759152 0.20878962 0.017755458 0.12417932 -0.20241015 -0.054609437 -0.3102622 0.1728544 0.17487065 -0.2736841 -0.23237503 -0.22617802 -0.14656295 0.03991047 -0.3816103 0.28117323 -0.065533146 -0.0043612397 -0.005307025 0.01235266 0.27003247 -0.27566043 0.15508355 -0.101053424 -0.16926327 -0.26829517 0.28162256 -0.02328171 -0.09793801 0.09219755 0.037830126 0.06269542 -0.2577532 0.08160695 -0.08109471 0.33428362 0.025189834 0.1824803 0.26940495 0.00927486 -0.3658958 0.3243101 0.13511491 -0.1815434 0.21578687 0.05060688
10 -0.043770857 -0.20077744 0.09912744 -0.19884713 -0.4542181 -0.35141647 0.08631654 0.7204655 -0.29092866 -0.16622257 -0.29053572 0.026143115 0.035820697 -0.18279113 0.029878274 -0.059197444 0.043748494 0.33396 -0.45996493 -0.16531901 0.13529234 -0.31734064 0.19652863 0.04155759 -0.3164442 -0.4886289 0.16806309 -0.0969478 -0.089407064 -0.18737327 0.24284858 -0.10488875 0.37688237 0.15181866 0.07971865 -0.055830017 0.18327346 -0.3400814 0.1733926 0.3719283 -0.03900529 -0.13819283 0.28666267 0.025318686 0.20231907 -0.47243047 0.42200795 0.11682608 0.29818952 0.2383745 0.4222298 0.11345715 0.089941815 0.17970546 -0.14882794 0.34368905 -0.021476727 0.3571822 0.06284015 0.38110223 0.15871944 0.19201177 -0.33320916 0.06818251 0.023386324 0.10361632 -0.32175085 0.08268521 0.035962235 0.08582956 0.1584369 -0.04435736 0.13807376 -0.22287786 0.27703515 0.027694235 -0.27392527 0.06541904 -0.24254224 0.028150985 0.08920967 -0.22886422 -0.3378536 0.60618484 -0.17818877 0.0989126 -0.19099845 -0.21837033 0.04343993 0.031144368 0.109547906 -0.59008294 0.009171511 0.14711416 0.32652318 -0.034071147 0.08808881 -0.30705878 -0.059112977 -0.4212358 -0.03742592 0.016390052 0.037957326 0.08744499 -0.28959507 -0.3765141 -0.24072354 0.44802418 -0.21247236 0.18989006 -0.45391965 0.30377495 0.05666183 0.27435198 0.13183841 -0.108293876 0.14715543 0.040756904 -0.10143475 -0.040718872 0.3547503 -0.02913301 0.25653356 -0.2779952 0.18258555 -0.1454971 -0.19083883 -0.081691235 -0.16002159 0.32950416 0.1303765 0.067615256 -0.23518248 -0.412179 0.27367973 0.10629474 0.023249893 -0.03854263 -0.2747595 -0.16766417 0.07025565 0.1168818 0.21678755 0.45915556 -0.19535924 0.023826528 -0.28211778 -0.21757537 0.20787592 -0.6580907 0.18315542 -0.2993356 -0.30254373 -0.31978476 -0.13132125 -0.15793392 -0.07543543 0.0684272 -0.091974445 0.08207152 0.38576335 0.13453609 -0.005302528 0.17627533 0.11087337 0.43731272 0.4235534 -0.1465558 -0.33802325 0.18298192 -0.40962544 -0.36444846 0.4840246 -0.25996545 -0.082108654 0.39695308 0.056793522 -0.406076 0.008685079 0.105515994 -0.0685809 0.44349527 -0.13687037 -0.2711932 -0.28574476 -0.33325136 0.004117576 0.109390035 -0.051922046 0.01701665 -0.052079942 0.19836277 0.14832321 -0.39382476 0.24882199 -0.4028041 -0.15536663 0.1703033 -0.16507609 -0.20741035 -0.16812837 -0.1827791 -0.13454343 0.23150763 0.2165926 -0.13764127 0.20217474 0.11090785 0.06769799 -0.10471624 -0.08172948 0.02828276 -0.010313449 -0.23512164 0.0856458 -0.0767639 -0.05362486 -0.5461478 0.06302494 -0.1960273 0.32696077 -0.07211143 -0.15484412 -0.27414688 -0.15632504 -0.27153116 0.16620545 0.21395048 -0.01789593 0.32070825 0.53762424 0.010102173 0.016694315 -0.14611857 0.11275796 0.5529502 -0.15683971 0.078523435 -0.27667573 -0.18500051 0.28272563 -0.03724281 -0.16929537 -0.011824318 0.27447626 -0.018782211 -0.17909205 -0.16607969 0.088006735 -0.09588288 -0.2122728 0.05889864 0.18945512 0.2143168 -0.10227747 -0.006694297 -0.024684353 0.11488821 -0.29272455 -0.27778384 0.17147283 0.05935578 0.03023804 -0.34272966 -0.38318512 -0.0911799 0.011761899 0.21733873 -0.4317135 -0.06922886 -0.20073093 0.04840531 0.091650076 -0.03750558 0.21349902 -0.2036948 0.4913281 0.27082902 -0.22745968 -0.28856245 -0.054127533 0.3685159 0.07139772 0.6446773 -0.018201165 -0.13425517 -0.37381262 0.35231245 -0.025412787 -0.040112037 0.048245158 0.16050458 0.2696853 -0.2007957 -0.33427608 0.008043231 -0.09172059 0.19694857 0.5037183 -0.11207281
115 0.35080373 0.5860767 -0.07723849 0.0035677077 -0.10565452 0.021623118 0.22580247 0.22942296 -0.23411894 -0.24742559 -0.10043427 -0.14763708 0.20882437 -0.18687597 0.25000197 0.05408005 -0.027546415 0.13177402 -0.3230069 0.25928375 -0.38553134 0.09616368 -0.052760318 0.028314684 0.08492659 -0.204609 -0.5233547 -0.23801434 -0.07533132 -0.35556775 -0.14832558 -0.45746148 0.075495355 -0.41041237 -0.33056176 -0.15481141 0.08735747 0.06199192 0.06913172 0.058133885 -0.10113165 0.106369995 -0.09064645 -0.1892749 0.18594113 0.10182729 0.021039931 0.34420392 -0.108334124 0.16052401 -0.10055564 0.052074313 0.022270469 -0.27600864 0.11240037 0.16026917 0.10739382 0.11109445 0.14185768 0.12852411 -0.03583241 -0.18685463 0.089300394 0.21983142 -0.257514 0.16335855 -0.31121704 -0.09988975 0.1426866 -0.124621585 -0.028807914 0.38233396 0.18021847 -0.2668954 0.115612105 0.014665477 -0.34017017 0.2554883 0.22186598 0.067512274 -0.017907765 -0.257168 0.30423144 0.12703176 0.10954662 0.08199428 0.0002292917 -0.32717425 0.2177279 0.008269195 -0.038653452 0.13919988 0.41031122 -0.020853508 0.050747294 0.3263245 0.19327115 -0.34748724 -0.3816814 -0.04001028 0.047316227 -0.08690644 -0.0039889803 0.40056592 -0.1539072 0.0019632368 0.12884268 0.25605187 -0.016012305 0.32181087 -0.17972432 -0.0005979198 0.34619275 0.17315173 -0.07680781 -0.1144812 0.051098343 -0.06698967 0.11568333 0.215511 0.39679775 0.13044247 0.23129256 -0.011750285 0.18161768 -0.18656266 0.06773865 -0.30282938 0.10054387 0.0063067446 0.15861215 0.15010819 0.053728636 -0.6904218 0.06942169 0.06763071 -0.11420551 -0.21802378 -0.2921389 -0.06651493 -0.20522062 0.027030911 0.17012982 -0.058497734 -0.08636896 0.05814896 -0.51185805 0.01612098 0.13149269 -0.30585206 0.022635499 -0.004047676 -0.069574244 -0.117868215 0.08560441 -0.07158357 -0.17758244 0.041788936 0.38578105 0.093179375 0.046405513 -0.10236749 -0.2581553 0.21345887 -0.3830795 -0.0012943778 -0.108139984 0.0907051 -0.14329726 0.730818 -0.06868656 -0.035192292 0.092669375 0.14869551 -0.23538457 0.15229769 0.07756437 -0.43013677 -0.20650268 0.08650936 -0.34634304 -0.114948906 -0.23285536 0.22342278 -0.1140027 -0.1581365 -0.17025438 -0.08659706 -0.039117057 -0.115681194 -0.068989925 0.20473899 -0.1046085 0.07989498 0.027342353 -0.17011067 -0.04703053 -0.22171573 0.13128553 0.005191655 -0.1920271 -0.09802358 -0.2435818 0.18423851 0.11367295 -0.079783164 -0.25907815 0.20842867 0.10283562 -0.057749607 0.044814993 -0.0068579568 -0.17999774 0.075557396 0.43948197 -0.2860388 -0.11013831 -0.41382682 -0.064135104 0.082953274 0.0792271 -0.2194518 0.09742967 0.19569252 0.31689435 -0.040868863 0.27948952 0.041337516 -0.0016978888 0.19222748 0.119159155 0.032862574 -0.004547477 -0.23502694 0.23087884 0.07993122 0.16457406 -0.19707412 0.029793914 -0.11793013 -0.23311506 -0.24729435 0.1767767 0.11125937 -0.082194544 -0.027621215 0.0124592865 0.06832067 0.009270601 -0.036461446 -0.09214931 0.20773576 0.03679594 0.35373425 -0.14988835 -0.11441435 0.23390357 0.3235498 0.010849858 -0.07708792 0.033912584 0.29708582 -0.37735504 -0.12403126 -0.34263217 0.0039366237 -0.10256827 -0.08088853 -0.45799148 0.0023413673 -0.27429843 0.3723536 0.031136114 -0.12240324 0.29108366 -0.0858859 0.58773535 0.10178529 -0.14248416 -0.039847918 0.03127015 0.23653436 0.087895244 0.2084633 -0.18720077 0.0027344192 -0.4750586 0.24104176 0.11850842 -0.19461258 -0.026895043 0.3877446 0.2274993 0.03485453 0.3358402 0.25831264 0.2930239 -0.010866753 0.26631686 -0.22679581
104 0.3038105 -0.022670932 0.1860399 -0.063268974 -0.32936326 0.10061226 -0.27212825 0.47924238 -0.25539285 -0.14106779 0.12102653 -0.04214619 0.26923835 0.16570966 0.18287013 0.08124812 -0.37733322 0.051448666 0.0016478378 -0.47665203 0.3824617 -0.485661 -0.08421837 -0.03598134 -0.10485686 -0.37153065 -0.2855915 -0.2539455 0.014078615 0.12891577 0.0057660104 -0.22616471 0.33387405 -0.65764064 0.19906938 -0.063659556 -0.11568738 0.1769563 0.14051408 0.18931277 0.11468924 -0.011094142 0.21495889 0.16076449 -0.14616787 -0.27341646 0.47581038 0.026110195 0.07928471 0.19009414 0.19182333 0.311293 0.048450157 0.24996369 -0.13956839 0.009899274 -0.06956128 0.006769448 0.079895325 0.3626145 -0.04276867 0.12101272 -0.08070373 0.39649153 -0.3621342 0.28805214 -0.031292118 0.12657107 0.009157856 -0.15806091 -0.44832578 -0.14063336 -0.11942697 0.10986781 0.1829839 -0.09498593 -0.35966685 0.40902215 0.24065492 -0.029867183 -0.34205875 -0.24161053 -0.4908096 0.27587137 -0.39206517 0.12940374 -0.011942553 -0.42860785 -0.33946162 -0.07413068 -0.15840669 -0.005082802 0.36553797 -0.4017112 0.38118735 0.52940154 -0.020413045 -0.02285793 -0.3078554 -0.21099119 -0.11225302 -0.26020956 -0.17713004 0.51783043 -0.27195856 -0.27001467 0.14185788 -0.019093767 -0.1306595 0.20169154 -0.23261674 0.044104666 0.4610121 0.048518624 -0.055649005 -0.3092268 0.07081934 0.023238828 -0.18142863 0.064479634 0.39230266 0.14378254 0.35154244 -0.1279192 0.49824536 0.0819415 -0.1603887 0.26883972 0.2762456 0.35230535 -0.03407529 -0.22412337 0.35867918 -0.20626727 0.1038056 0.26023054 0.09876125 -0.12848783 -0.22251341 -0.3308528 0.042292792 -0.07181038 0.14755237 0.44541764 -0.048563007 0.2753393 -0.37537304 0.06391829 -0.12349015 -0.31388468 0.49527797 0.25123522 -0.070186794 -0.346296 -0.03291802 -0.07492521 -0.07661447 0.027631981 0.25246832 0.010148562 0.416721 -0.20620732 -0.015713243 0.16187835 0.04613864 -0.10042406 0.0870606 0.3218578 -0.009028107 0.35596648 -0.4011751 -0.09434312 0.13864172 -0.16945094 -0.06656834 0.40236026 0.3147018 -0.41547707 -0.0118291015 0.27180088 -0.19305065 0.2580145 -0.13464989 -0.17708673 0.01396153 -0.39745793 -0.6143802 -0.33906654 -9.3884766e-05 0.29485312 0.17182633 -0.08363506 -0.20850788 -0.17687124 0.23904419 -0.28869978 0.027695084 0.21908914 -0.073949665 -0.22155738 -0.123704106 -0.41102865 -0.17490977 0.31946936 0.15347332 -0.19342124 -0.225949 0.22371398 0.35868868 -0.2070053 0.22801736 -0.007826342 -0.29753277 -0.09789379 0.288925 0.016001439 -0.1964737 -0.0008495488 0.1581171 -0.044978023 -0.14605922 0.22769049 0.21046944 -0.25343716 0.17172228 -0.17635441 0.108545 0.13672736 -0.10551539 -0.019166274 0.2210338 0.031469468 0.22105987 -0.053507056 -0.03602758 0.0067307814 0.090059474 0.029913304 -0.030318858 -0.1829393 0.11594737 -0.09656183 0.17974558 -0.30726826 0.15480421 -0.19043067 -0.27224806 0.34717822 0.0967168 0.38578212 -0.07186064 -0.055931225 0.35101563 0.34560803 0.020750776 0.24151231 -0.0021573275 0.09446085 0.17676148 0.092157185 0.059490558 0.28680524 -0.17728636 -0.04265942 -0.0574447 -0.19031395 -0.049451005 0.18858688 -0.5250474 0.17957218 0.05686566 -0.14982766 0.21237642 -0.098422386 -0.016638642 -0.3601225 0.055395726 -0.031004244 -0.0033213599 -0.560219 0.25226712 0.15006137 -0.0850475 0.5345045 0.00045939753 0.3865975 0.095108055 -0.034560826 -0.04676 -0.120088615 -0.20380224 0.3245797 0.33289877 0.25428945 -0.20893702 0.14837287 -0.018216431 0.23944835 0.44239846 -0.3059567
34 0.29855433 0.0409189 0.06363738 0.13321273 -0.25196195 -0.36244595 -0.16611421 0.48253497 -0.40948457 -0.23050417 -0.21973789 -0.09328021 -0.1064359 0.20557338 0.34897256 -0.023218267 0.31963223 0.17032222 0.15269062 0.040097136 -0.14850263 -0.2493538 0.2950613 -0.0375059 -0.11984915 0.044655673 -0.04913804 0.10435575 -0.06406783 0.11877729 0.3231493 -0.49500215 0.3991967 -0.2343183 -0.09496973 0.07570009 -0.16538675 0.055415798 -0.05772822 0.00199847 -0.4696805 0.19309203 -0.29490548 0.2947137 0.14479692 -0.05600749 0.30638248 -0.061487336 -0.25620827 0.1166716 0.034464277 0.23456608 -0.36125174 -0.5323139 0.277573 0.26778018 -0.07246441 -0.42111292 -0.08197389 -0.13314919 -0.12534183 -0.10601321 -0.15370312 0.3042479 -0.021761516 0.10077408 -0.18842666 -0.10808298 0.066207476 -0.16487654 0.12158253 0.24036054 -0.15436636 -0.20739378 0.19890508 0.10094201 -0.14300343 -0.061469257 0.050785325 0.23558554 -0.034816764 -0.34527683 0.0656323 0.22937414 0.07577248 0.115786105 0.039249983 -0.37141475 0.027206112 0.44920734 -0.077251606 -0.47561872 -0.002968263 0.085954934 -0.2794073 0.07583952 -0.20613907 -0.42871052 -0.13555863 -0.19617105 -0.39908823 -0.35169652 -0.49034527 0.06810659 -0.55804354 -0.080757625 -0.40730757 0.28659803 0.2122719 -0.107534125 -0.35950264 0.17511922 0.2269612 0.06854541 0.064774066 -0.07182063 0.050227597 0.02392603 -0.2873781 0.37167156 0.492954 0.26862735 0.03610068 -0.33566487 0.20606506 -0.13382655 -0.12634648 -0.4622419 0.18355429 -0.04456504 -0.07801975 0.10761591 -0.16324507 -0.38971683 0.024039907 0.25463915 -0.3762138 -0.34030905 -0.3410144 0.030359576 0.39091158 -0.19664316 0.06699163 0.13217391 0.09061336 0.022847006 -0.4540547 -0.19921647 0.1470307 -0.15425085 0.12000266 -0.19803454 0.0127977785 -0.17675558 0.35113782 -0.25622097 -0.0038281933 -0.030401137 0.1593203 -0.13137168 0.15264054 0.09522216 0.22710274 -0.30004525 -0.099833995 0.66500705 0.0155469375 0.33756757 -0.5083787 0.41355446 -0.010894014 -0.2630747 0.4564315 0.12823977 0.32207677 0.5315417 0.1944454 -0.16230534 0.051351383 0.051064268 -0.29139906 0.17516527 -0.37024984 0.06361122 0.31224057 -0.4592104 -0.13585858 0.18280536 -0.10327979 0.17864981 0.07105815 0.08535932 0.3196128 -0.2634614 0.0037195222 0.04122803 -0.27970168 0.13361938 -0.2630245 -0.06439295 0.113727316 -0.24736883 -0.046789788 0.1540288 -0.21687068 -0.22333238 -0.1099844 0.23865244 0.20360754 -0.20737687 0.29865035 0.17167595 -0.16095376 0.26529962 -0.29393142 -0.2214849 -0.24939938 -0.31240234 0.033672795 0.06774795 0.3472592 -0.21721672 -0.12861225 -0.037862547 0.037176847 -0.4886578 0.26364717 0.038867 -0.21058416 0.110264026 0.33301806 0.01691508 0.15102328 -0.29378048 0.19108972 0.069424324 -0.100825906 0.21989828 -0.04655215 -0.52701694 -0.009061797 0.124559365 -0.0080745295 0.07962348 0.2304112 -0.058380913 0.07633699 0.23050144 0.20387633 0.20428742 0.12774348 0.009905955 0.15221132 -0.4185471 0.26229325 0.107028134 -0.18077727 0.38116342 -0.17530642 -0.17017446 -0.1334357 0.3005705 -0.112893164 -0.5069807 -0.47979403 -0.024113938 -0.27313837 0.3718455 -0.29468143 -0.21302125 -0.34981832 -0.07603259 0.035893515 0.26678887 0.11490659 0.16334833 0.29258454 -0.29325077 -0.11406501 -0.14594887 0.07233613 0.33531106 -0.25653726 0.17008455 -0.11758598 -0.50217307 -0.17430389 0.0018380984 0.005613989 0.35798922 -0.1768294 0.33752283 0.19813935 0.27864355 -0.3073845 0.093590945 0.13647518 0.39026764 0.07920232 -0.48041296
25 0.45802706 0.40753362 -0.14433564 0.18708442 -0.13572645 -0.064919084 0.29173332 0.5487141 -0.18610622 0.0026959623 -0.11933892 -0.42497218 0.45541131 -0.082863994 0.28980607 0.027442085 0.1716487 0.08682876 0.019794963 -0.22872974 -0.13125123 -0.34653825 -0.27061802 0.27251047 -0.081998274 -0.026038043 -0.23229879 -0.03366361 -0.026466973 -0.21513875 0.14222583 -0.22297949 -0.064485736 -0.6079412 0.15725127 0.44858 0.10224455 0.10313127 -0.190905 0.1350503 -0.1571814 0.18128963 -0.0005211392 0.002843236 0.4255115 -0.43676302 0.37852374 0.4123596 0.17997752 0.120234154 0.14649141 0.1859136 -0.19959958 -0.1176559 0.16855411 -0.042884365 -0.05689725 -0.3466209 0.22571015 -0.052683953 -0.025848912 -0.22311229 -0.16096622 0.04319097 -0.08869884 0.13554667 0.08699472 0.17992428 -0.017726457 -0.38176697 0.07375398 -0.105217345 -0.07296685 0.062277276 0.15395923 0.37484705 -0.058461137 -0.1699681 0.19716519 -0.18601176 -0.42514274 -0.25674576 0.032199692 0.14302294 0.12046757 0.1311537 0.052787498 -0.05011249 0.12793656 -0.03601568 0.029713985 -0.056264866 0.28325507 0.371868 0.23803231 0.05528454 0.22339545 0.14795662 -0.20654044 0.2272887 -0.054072276 -0.06587018 0.06407947 0.1332428 -0.2831537 -0.23558535 0.15819144 -0.09818255 -0.075940154 0.2338161 -0.07118387 0.18852478 0.008355341 -0.016806671 -0.1174506 0.09840767 -0.052497912 0.06969495 -0.011089116 0.017241577 -0.20547083 0.32921228 0.14646335 -0.2611002 0.031171225 0.27737373 0.15670243 -0.14931938 0.22203189 -0.18059075 0.07044049 0.39195117 0.1644629 -0.30696562 0.2170652 0.3806316 -0.12510476 -0.33704323 -0.21245414 -0.051254302 0.13847916 -0.40344185 -0.032927174 0.21724184 0.21644092 -0.16569516 -0.14232063 0.006982611 0.41015357 -0.17224967 0.10370057 0.06959419 -0.015876153 -0.049903553 -0.06313348 -0.13522995 -0.49558163 0.1285663 -0.05107531 -0.36371565 0.27408224 0.14707583 -0.046760216 0.23062043 -0.067020275 0.2754659 0.020996403 0.2766012 -0.25588867 0.13675086 -0.36642396 -0.099973164 0.120336175 -0.22981527 0.11888297 0.09088257 -0.15654622 -0.14048688 -0.21648788 0.39264622 -0.2559645 0.18105954 -0.07683756 -0.27873874 -0.005563965 -0.19528423 -0.08554739 -0.10911752 -0.2466332 -0.055212732 -0.01396664 0.23355639 -0.26975867 0.11136271 0.63485247 -0.14611109 0.2867215 0.12366424 -0.12349952 -0.58232856 -0.09796981 -0.339104 -0.036190055 0.16365124 0.006894752 0.012346662 -0.38154843 -0.032564048 0.1361377 -0.004711237 0.18944092 -0.033199213 -0.20879832 -0.08368031 -0.12138522 -0.3335855 -0.2146059 0.23782712 -0.06923124 0.091846965 0.41034353 -0.35553178 0.12635346 0.0016604653 0.20071052 -0.15847787 0.26966473 -0.30088803 0.019319968 0.48131174 0.26397282 0.0976075 -0.025452515 -0.0036480308 0.18784444 0.106377676 -0.09169963 0.4613347 0.14558913 -0.31532642 0.28870586 -0.038288098 0.052160516 -0.040026475 -0.1530225 -0.10663889 -0.01124416 0.26140678 0.15561025 0.12491029 0.23919089 0.22270422 0.6385953 -0.24277 -0.28791803 0.2610328 0.31635386 0.2769784 -0.2515709 -0.26277384 -0.049353164 0.29883093 -0.3119848 -0.42234087 0.014996114 -0.07421839 -0.13303337 0.18904535 -0.39454386 0.075607866 -0.081868045 -0.17099069 -0.18014379 0.12176938 0.1275768 0.019550726 0.14683048 0.119817026 -0.004341092 -0.22679314 0.1413349 0.068071745 0.12293092 0.20442294 -0.038293526 0.06869163 -0.08760416 -0.060209062 0.18149778 0.385431 -0.1775752 -0.0067118844 0.31380492 0.055093467 -0.008836033 0.37049416 -0.08127527 -0.3401554 0.30562693 -0.062607735
75 0.08140586 0.31852445 -0.10901861 -0.315567 -0.3532791 -0.07412668 -0.10791982 0.2928185 -0.37413952 0.04138188 0.21642627 -0.32562572 -0.061149076 0.19923525 0.4382352 -0.06848366 0.048988152 -0.097942635 0.06164174 0.21879394 -0.004712811 0.022482762 0.30617994 0.15542583 -0.3265368 -0.22564061 -0.5271234 -0.111714736 0.02882209 -0.21113935 -0.027503498 -0.52962923 0.5429637 -0.028905496 0.02363771 0.09152348 -0.04183241 0.22411633 -0.02978208 0.045918908 -0.27064627 -0.044446956 0.02239511 0.26767272 -0.25686648 -0.0018604337 0.6163656 -0.21433476 0.11613346 0.22109294 -0.01209224 0.16208427 0.17273302 0.117353216 0.3403661 0.14077896 0.071578234 -0.22774425 -0.103123985 -0.0012840827 0.09249018 -0.047795273 -0.3509373 0.5194963 -0.037689324 0.30061898 0.024462076 -0.21742466 -0.12836045 0.02184956 0.088754416 -0.13888781 0.16175282 -0.036139593 -0.009734354 0.1575735 -0.13050677 0.26431423 0.18444239 -0.11821564 -0.46991646 -0.2626644 -0.23401739 0.18885 0.14640477 -0.052882805 -0.16695656 -0.061207134 -0.32270366 -0.098962516 0.11324442 -0.19152752 0.07109088 -0.18116008 0.33245975 0.2638288 -0.06640562 -0.03950612 0.015533593 -0.12816454 -0.3365136 -0.16107602 -0.18123621 0.060500324 -0.09397038 -0.23422883 -0.30260375 -0.22177534 0.060870018 0.08268163 -0.3756549 0.4113094 -0.059705283 0.06974008 0.09238954 -0.15344855 -0.24391036 -0.25324723 0.14153232 0.34189186 0.50536764 0.29875454 0.30919656 -0.23876442 0.5838263 0.23865773 -0.03637273 0.19276151 -0.108545735 0.3657346 0.40364352 -0.067839526 -0.24413373 -0.37963438 0.22104326 0.1328579 -0.23241849 -0.0881051 -0.10242937 -0.2395209 -0.013594251 0.11902601 -0.101448745 0.06856451 -0.07566115 -0.12809302 -0.4532299 -0.16387694 0.05712694 -0.3442131 0.0678103 -0.13179389 0.07259149 -0.121642955 0.4093199 -0.001956135 -0.2575485 0.06440503 -0.27666593 -0.035240155 0.21689019 0.037615895 -0.19346868 -0.049644828 -0.04701908 0.045023832 -0.006137452 0.2888788 -0.07634144 0.21957158 -0.12632608 -0.0012827709 0.7042912 -0.014556895 0.0042749774 0.008433235 -0.022045588 -0.2851746 0.3913548 -0.026633488 -0.31794 0.1634027 -0.2590711 0.19516672 0.2337454 -0.5406128 -0.18672064 0.26268005 -0.12747484 -0.21927004 0.16234869 0.17560273 0.15665443 -0.050129812 0.405984 -0.04316263 -0.027580583 0.019840622 -0.19396867 -0.42128614 -0.21139312 0.17108291 -0.22103618 -0.12260642 0.32230493 -0.13925855 -0.17404285 -0.001401846 0.20638448 -0.06550292 0.12420316 -0.13150886 0.2543614 -0.032411624 0.03109497 -0.4491981 0.11621669 -0.0862518 -0.14115049 -0.24466248 -0.13731547 -0.1341183 -0.3061095 -0.10822971 0.17922662 -0.46269658 0.49243197 -0.024655733 -0.4488068 -0.12523046 0.058368094 0.09952837 -0.17275184 -0.21777222 -0.27572846 0.2117108 0.17822716 0.09720589 -0.12737405 -0.47979686 -0.13348562 -0.12976648 0.12008946 -0.21817261 -0.14373006 -0.33344874 -0.30425537 -0.008053683 -0.007655267 0.33337313 0.0031584266 0.12875706 0.40610316 0.17379113 -0.23722152 -0.20408858 0.25982493 0.08149149 -0.4832904 -0.07264382 0.30069348 0.23407798 0.08284124 -0.38176334 -0.18687376 -0.16039255 -0.49108338 0.13864622 -0.5837368 0.16247931 0.09923636 0.12891442 0.14439186 0.10699694 0.27039146 -0.12601486 0.104898505 0.122972324 -0.11303465 -0.5610351 0.54324067 0.28560203 -0.2543725 0.18525209 -0.23886131 0.11209319 -0.24500032 0.38719743 -0.08232173 0.22057588 -0.17659801 0.21786316 0.41360462 0.071773626 -0.37525064 0.29926834 0.1754689 -0.28256804 0.33339795 -0.5167367
8 0.34799504 0.24371742 -0.08641056 0.09261399 -0.053494234 -0.30573654 0.0273075 0.49811527 -0.06456759 0.015527239 0.3038955 0.025944674 0.0089579085 -0.055483893 0.004196823 -0.25449935 0.17724366 0.1694158 0.041874915 0.038421195 0.14058095 -0.4344087 0.37321264 -0.15975443 0.082111984 -0.14722867 -0.03569678 -0.1792962 -0.011432271 -0.13095342 0.07188582 -0.2649287 0.052843336 -0.18900278 0.060767908 0.07461949 0.2071917 0.0061144596 0.02253091 0.14966142 -0.2576649 0.068809435 0.034901336 0.006057072 0.15391086 0.16177657 -0.0024628239 -0.085316315 0.07155286 0.5759106 0.13582957 0.33580947 -0.122404136 0.29183215 -0.29155013 0.36139783 -0.044542503 0.125834 0.1709612 0.10668712 0.1089013 0.06561618 -0.04510274 0.1446152 -0.028273791 0.31762257 -0.063061886 0.16157797 0.06981975 -0.27506247 -0.10139757 0.19882624 -0.01637264 0.16350795 0.15550917 -0.21389177 -0.19577079 -0.026151357 0.20023994 0.27111396 -0.29172033 0.02796086 -0.44351935 0.57992756 -0.04186981 0.058225658 0.05987264 -0.45018104 -0.3035297 -0.3217496 -0.084718265 -0.43944272 -0.08600898 0.093079194 0.12122829 -0.015440018 -0.031324252 -0.56755334 -0.31484285 -0.22834934 -0.3827389 -0.60098255 0.07014744 -0.106987156 -0.20379399 -0.41221836 -0.17446865 0.37928477 0.024883848 0.10568684 -0.43010265 -0.12991646 -0.07766448 0.3841573 -0.1406033 0.023594746 -0.09649388 0.22414777 0.2379435 -0.19968297 0.11055441 -0.06906497 0.2868958 -0.2921391 0.3675684 0.093453184 -0.06974309 0.11020748 -0.04708311 -0.019332267 -0.14628991 -0.06582244 0.2598421 -0.35180435 0.23369323 0.13979922 -0.37257677 -0.5766832 -0.16416208 -0.4133988 -0.019280102 0.08372124 -0.17022666 0.36866105 -0.093489796 -0.022741744 -0.4723501 0.006061023 -0.17575262 -0.3289937 0.10497264 0.15071423 -0.053119425 -0.055731922 0.09763601 0.07773597 -0.020713763 -0.094997056 0.42470926 0.20567632 0.108133756 -0.0016379121 0.012184857 0.026047863 -0.25733003 0.41929144 -0.04001918 0.42586422 0.2113554 0.3644235 0.111867785 -0.47017828 0.4017979 0.07249967 0.167988 0.3739723 0.29117563 -0.6498441 -0.07111251 -0.08825515 -0.33304828 0.5717648 -0.11890229 0.024254601 0.19512264 -0.31209728 -0.08385463 0.062114958 -0.04648283 -0.08016183 0.0011223638 0.15788777 0.09860801 -0.11990464 0.44635433 -0.014381108 -0.3341128 -0.18128762 -0.39023152 -0.31328496 -0.2531811 -0.08064772 0.15992229 -0.027238686 0.22802126 -0.03016734 -0.02541181 0.26081288 -0.07009279 -0.20687215 -0.084494285 0.16244088 -0.15305589 -0.3048507 -0.02218087 -0.10331022 -0.031593185 -0.16293322 -0.2040958 -0.037804708 0.26716483 0.120291725 -0.20473565 -0.2843764 0.3759741 -0.36138982 0.05427014 0.004054694 -0.103897594 0.06234929 0.25643027 -0.009784302 -0.31042108 -0.07635219 -0.069042705 0.076681286 0.120374754 0.022788033 0.107835926 -0.7008664 0.24132538 -0.051658154 -0.09842738 -0.18656683 -0.116485894 -0.1796746 0.09981032 0.13917364 0.26640856 0.032186344 0.08366006 -0.067091696 0.023575118 -0.023976546 -0.19759484 0.061385207 -0.074391164 0.21489467 0.017348912 -0.012222835 0.25907254 0.33256358 0.0015146568 -0.4057827 -0.4622284 -0.15316144 -0.44925645 0.58391 -0.36415264 0.17466602 0.14647385 0.032552313 0.23119277 -0.08091132 0.25631988 -0.022420416 0.15758803 -0.34553874 0.18180375 -0.5486264 0.60432065 -0.28594902 -0.25490284 0.29501253 -0.09244571 -0.3675855 -0.36410025 -0.15379134 -0.2541728 0.10417359 -0.38673663 0.37913066 0.1611289 0.37935778 -0.06466797 0.73845965 -0.383871 0.09199169 0.09687434 -0.5054546
74 0.13526711 0.30064827 -0.108012944 -0.3994876 -0.19086263 -0.07919435 -0.05050108 0.46154812 -0.25677058 0.10432429 0.17445318 -0.20511258 -0.011710197 0.18035057 0.52272314 -0.08755804 0.08719963 -0.11459678 0.12507461 0.2650261 -0.044707235 -0.027743855 0.3881331 0.20637406 -0.3011012 -0.23234978 -0.45544943 0.01743324 -0.0677924 -0.18566243 0.08558347 -0.6469262 0.5246885 0.03447895 0.03780369 0.21082398 -0.050405227 0.17232177 -0.11592829 0.21402155 -0.39168862 0.028395219 0.095344916 0.23389909 -0.34081328 0.036081355 0.6533943 -0.13899991 0.09316782 0.20499285 0.012918715 0.0031784922 0.06826875 -0.06714681 0.3166845 0.16768588 0.06653948 -0.12692235 -0.13810492 -0.04337638 0.089688905 -0.111519605 -0.31283486 0.47945344 -0.0006499306 0.32684115 0.049052835 -0.17502451 -0.12925126 0.045980886 0.10992982 -0.07791086 0.19406828 -0.11600309 -0.00829929 0.13558939 -0.093664646 0.18363048 0.18862946 0.032004155 -0.5227957 -0.16830388 -0.23412426 0.2934756 0.14798966 -0.1171777 -0.105461165 -0.05907196 -0.30185628 -0.05298191 0.2524855 -0.16906321 0.013267054 -0.1244176 0.3110317 0.14832564 0.07330389 0.017297864 -0.07669054 -0.17996283 -0.37963372 -0.090153836 -0.21689795 0.18259247 -0.018605143 -0.19153035 -0.32710004 -0.19404773 -0.1007122 0.15134147 -0.3309129 0.3954602 0.014058309 0.14918134 0.19977015 -0.20262672 -0.1475063 -0.32755625 0.11317021 0.2726661 0.46200278 0.25373575 0.3001048 -0.1903787 0.4826505 0.1431537 -0.10607156 0.063453555 -0.18142638 0.3159198 0.41047087 -0.028896267 -0.37991527 -0.362319 0.31366482 0.13788049 -0.2830856 -0.065029904 -0.09928773 -0.2995305 -0.005605557 0.06785793 -0.14843102 0.23182483 -0.070788376 -0.010619713 -0.3359754 -0.09844893 0.059012204 -0.37520492 0.026265811 -0.18035857 0.11889314 -0.062180564 0.3296085 -0.083489925 -0.32373148 0.10308306 -0.3307552 0.0016590361 0.144985 0.1044655 -0.28526762 0.00296028 0.07383397 -0.008465795 -0.005445501 0.21394613 -0.1396053 0.027366739 -0.09094275 -0.040926613 0.77662927 -0.121276006 -0.071868375 0.016319139 -0.06178453 -0.28001374 0.4149823 -0.08846003 -0.30033085 0.143446 -0.29253864 0.043222643 0.086167455 -0.46718243 -0.07378844 0.32509458 -0.083790444 -0.11945346 0.15503821 0.21270148 0.039361563 0.13669483 0.45645306 -0.07388475 0.07492667 0.13063021 -0.02202005 -0.43566844 -0.22234653 0.10705627 -0.1996164 -0.2052665 0.2962192 -0.11674653 -0.11339912 -0.15880293 0.14072452 -0.06245806 0.046452627 -0.25958034 0.3288018 -0.20334122 0.0013102994 -0.4709618 0.1523747 -0.1975478 -0.17643592 -0.17823616 -0.08345711 -0.14126557 -0.17393981 -0.11424545 0.13042158 -0.4087701 0.5311939 -0.07119995 -0.43980682 -0.063383475 0.07665783 0.17223105 -0.16225636 -0.17762786 -0.32089472 0.30365968 0.107160464 0.10228962 -0.14956321 -0.43481988 -0.08119801 -0.11264333 0.06070215 -0.17670189 -0.15872312 -0.3318223 -0.2926001 -0.048972327 -0.1302744 0.31127843 0.03283796 0.16016646 0.4110467 0.25476745 -0.24368419 -0.31057718 0.3403489 0.1895157 -0.54120296 -0.11007647 0.3551576 0.22261634 0.036357813 -0.4530735 -0.124081746 -0.100989155 -0.40056375 0.17329837 -0.65939385 0.03927985 -0.03811493 0.12881796 0.14562847 0.078377075 0.33522126 -0.2126017 0.16488089 0.10004938 -0.15393668 -0.55379796 0.4817486 0.19229338 -0.24003413 0.17054427 -0.19562134 -0.0022829561 -0.21709777 0.47121355 -0.08668305 0.14423737 -0.17484255 0.2525989 0.3367445 -0.001248708 -0.2439007 0.3408381 0.20472567 -0.19647132 0.51708704 -0.43544406
35 0.1471911 0.10170699 0.21606438 0.11611845 -0.3321955 -0.4000935 -0.20708476 0.3382356 -0.2706105 -0.19880128 -0.16191527 -0.077646814 0.12299402 0.16313227 0.3988212 0.10830479 0.24318352 0.28541327 -0.06513887 -0.0887011 0.030242823 -0.28976765 0.17817259 -0.09160554 -0.21260454 0.0315841 -0.08987311 0.18121615 -0.2149283 -0.0016078355 0.20728792 -0.38358822 0.37673688 -0.2484526 -0.10183517 -0.00809903 -0.13625704 0.044813752 -0.11350804 -0.033716626 -0.3805025 0.30208892 -0.40463287 0.23702754 0.07167828 -0.2121715 0.321771 0.012315548 -0.27393848 0.15313612 -0.03779498 0.096663 -0.4130177 -0.6685335 0.3655375 0.09006613 -0.10352843 -0.3588298 -0.082994774 -0.07923434 -0.09050429 -0.11968192 -0.08170093 0.2456577 0.015364896 0.010400938 -0.2080798 -0.10847093 0.07417478 -0.06667132 0.062342096 0.26641354 -0.20266877 -0.18796377 0.13724273 0.179335 -0.18568511 -0.11894214 0.0044946256 0.201791 0.052793946 -0.24903731 0.02207173 0.2971298 -0.121172085 0.08547819 0.06064523 -0.30707607 0.004914644 0.38473567 -0.11339578 -0.3978678 -0.03862131 0.07293019 -0.1643296 0.19883224 -0.23375805 -0.24672633 -0.18890108 -0.21621013 -0.33140782 -0.34663752 -0.48262626 0.19857454 -0.5215381 -0.010175059 -0.28147137 0.32435706 0.15828563 -0.064723946 -0.36473644 0.23046844 0.22829701 0.054353032 0.041516796 -0.1032908 0.0098988125 -0.07211495 -0.3826695 0.42173317 0.45472383 0.21021903 0.15086333 -0.3553616 0.2319259 -0.18826121 -0.23485243 -0.35683942 0.3620342 -0.08158137 -0.084363006 0.107558385 -0.23711151 -0.39477146 0.09791536 0.1787447 -0.31974664 -0.29754147 -0.37261665 0.118612945 0.27329752 -0.17340145 -0.025662472 0.26820147 0.18573129 0.026005434 -0.43083334 -0.14405923 0.06659797 -0.1238116 0.27808282 -0.07375578 -0.112393335 -0.120909736 0.25939164 -0.2736194 -0.015629243 -0.092629254 0.27294812 -0.10065155 0.12723896 0.065664165 0.22195387 -0.29046723 0.011627822 0.5356028 0.13582884 0.35731924 -0.43346238 0.47569877 -0.16724591 -0.2545886 0.38630167 0.11349043 0.16668613 0.51673084 0.2503631 -0.19278468 0.043063357 0.07711454 -0.24943599 0.20366299 -0.48195124 -0.120799705 0.21618508 -0.4834272 -0.20292026 -0.013389691 -0.09420162 0.1544385 0.12066644 0.036457922 0.23842019 -0.36459306 0.021165404 0.033112712 -0.28646624 0.15342875 -0.28256157 -0.08935471 0.08935767 -0.30917436 -0.16657819 0.2692402 -0.28077295 -0.20049883 -0.071852185 0.3162973 0.15896386 -0.1000925 0.29614633 0.15691276 -0.19395924 0.31159705 -0.26906562 -0.26619634 -0.2532073 -0.3668483 -0.042072445 0.15646191 0.20815708 -0.34509897 -0.014868655 0.03908049 0.02250909 -0.5386376 0.21351017 -0.019977726 -0.1603043 0.2024043 0.43021125 0.014762479 0.2581004 -0.3113722 0.2145344 0.14424884 -0.05195449 0.23301908 0.013087734 -0.503949 0.0637137 0.041043952 0.06254594 0.063607864 0.17260838 0.0048755677 0.15950665 0.39576873 0.20909765 0.18239297 0.12687202 -0.11834088 0.2998754 -0.36723614 0.2714037 0.14572275 -0.16501787 0.4509262 0.009495295 -0.013250119 -0.1455188 0.19107334 -0.06006201 -0.4730471 -0.3788126 -0.23799658 -0.23548263 0.4387168 -0.32026917 -0.26399407 -0.34879044 -0.08717123 0.025625514 0.2888656 0.0139328055 0.09336163 0.23243703 -0.16950607 -0.12780315 -0.15408066 0.10654495 0.45183566 -0.12724638 0.081207335 -0.14932846 -0.51531446 -0.15331462 -0.050168008 0.053191565 0.3525223 -0.20165007 0.3382703 0.26312244 0.3800786 -0.29749966 -0.079923816 0.17689791 0.36443874 0.21327274 -0.44677278
103 0.34442207 0.04748891 0.20911641 -0.07339959 -0.17832765 0.08399444 -0.30639258 0.42079765 -0.28326353 -0.1515738 0.14366429 0.040250428 0.20253529 0.24106503 0.23622297 0.18240638 -0.3989369 0.12949894 -0.027077513 -0.4293206 0.38457593 -0.46712604 -0.072135344 -0.06461421 0.0011758729 -0.34601858 -0.3093544 -0.28091756 0.1542597 0.16194072 -0.09443118 -0.22857025 0.24371167 -0.6735671 0.2075654 0.10931303 -0.14594758 0.26222974 0.15079546 0.13518418 0.15341601 -0.01312086 0.22915576 0.18053298 -0.071223885 -0.1639044 0.30652526 0.058599673 0.08460097 0.27645975 0.16197343 0.3095454 -0.056149296 0.18731093 -0.16737375 -0.012859949 -0.036268547 0.058624927 0.19703092 0.18473107 -0.06064806 0.16653839 0.004449564 0.30113396 -0.39306626 0.3331553 0.04311448 0.20228049 0.013304949 -0.1635816 -0.4619235 -0.10713229 -0.20774405 0.14916798 0.10042564 -0.16970274 -0.37303644 0.41478962 0.2957996 0.10923311 -0.31672734 -0.18854332 -0.4395206 0.23410064 -0.24688411 0.2044071 -0.015864665 -0.39405572 -0.27740762 -0.05091578 -0.12294095 0.017926922 0.27483854 -0.41305113 0.3139927 0.571051 0.098199666 -0.025501393 -0.30805856 -0.11180319 -0.040187962 -0.202265 -0.15309832 0.47674114 -0.34326228 -0.15784685 0.31601876 0.029598583 -0.19305256 0.26315728 -0.2826932 0.005613867 0.4141791 -0.033466086 -0.15612748 -0.28964132 0.043256413 0.040881444 -0.18676296 -0.11110603 0.32757756 0.16289118 0.32987356 -0.007647604 0.3419617 0.045508858 -0.09627579 0.21209599 0.3337282 0.24394476 -0.12624659 -0.2675458 0.48431516 -0.1823369 0.16742639 0.23325893 0.08963609 -0.12854026 -0.15461415 -0.300361 -0.08777961 -0.096169375 0.094561286 0.4999033 -0.0847678 0.23242207 -0.3814357 0.07107443 -0.1679391 -0.16651005 0.47201964 0.16139491 -0.21080516 -0.34540144 0.034798715 -0.079610094 -0.06460517 -0.06982315 0.25790086 0.022935407 0.28194898 -0.25972894 -0.06058626 0.2155926 -0.12883322 -0.06856051 0.056399662 0.39716035 -0.0058672354 0.44806337 -0.39010653 -0.08583631 0.08480439 -0.17643403 -0.11844819 0.28347015 0.36097148 -0.4304123 -0.12039106 0.2708979 -0.25648305 0.29845077 -0.09819589 -0.21238057 0.005743909 -0.4047827 -0.6106268 -0.36013964 -0.09559542 0.196419 0.11369505 -0.19398314 -0.16471376 -0.018380826 0.2943857 -0.23939449 0.17978589 0.24601084 -0.08482428 -0.18167447 -0.23602696 -0.42495412 -0.07909592 0.37033617 0.15658756 -0.23292258 -0.16985865 0.18838826 0.33293036 -0.16366956 0.14460796 -0.11112532 -0.38471302 -0.038635947 0.38519204 -0.01839354 -0.26534134 0.12418938 -0.02099031 0.105125725 -0.17297184 0.34195757 0.15655163 -0.22419368 0.20502849 -0.22711611 -0.017418839 0.046273187 -0.095146075 -0.11814325 0.19060835 0.04650961 0.1952063 0.0790438 -0.14873956 0.08114266 0.23013452 0.17217055 0.07722958 -0.28275922 0.19291764 -0.036386147 0.19487067 -0.24410167 0.06838164 -0.109333746 -0.2687932 0.5083023 0.11923401 0.36093354 -0.05890835 -0.044936538 0.363952 0.35970283 -0.2022819 0.35227567 0.00827531 0.012793129 0.27014193 0.1562842 0.11843704 0.4534987 -0.2490786 -0.104701996 -0.07340694 -0.21347809 -0.060605932 0.18026309 -0.4538841 0.15514946 0.03367131 -0.20770599 0.22661676 -0.09362943 0.063659966 -0.2171014 0.09093787 -0.026004681 0.06860984 -0.5862666 0.25645414 0.07835607 -0.031511933 0.49567217 -0.11686968 0.45904672 0.15479682 -0.11621467 -0.053492837 -0.2282207 -0.24675465 0.2918193 0.3194091 0.37442175 -0.15596995 0.27294987 -0.14205061 0.19843766 0.36841077 -0.23725112
11 -0.09774735 -0.17305991 0.10526241 -0.14444225 -0.5224334 -0.16271311 0.124456 0.7376599 -0.3020197 -0.13968581 -0.35727817 -0.043945886 0.10859744 -0.23562056 0.046525035 -0.124623924 0.054396715 0.1959698 -0.3750712 -0.11421603 0.177564 -0.36091602 0.23883519 0.15677893 -0.36197996 -0.45811465 0.18986617 -0.16197778 -0.1760146 -0.17051607 0.12543793 -0.19035777 0.39282998 0.0520845 0.069753945 0.017328635 0.11987098 -0.35380766 0.14636372 0.4012118 -0.074823715 0.0091689825 0.15947852 -0.057152342 0.2056977 -0.55353844 0.42225337 0.16864055 0.41310424 0.19607604 0.4541054 0.07043702 0.041310437 0.18600431 -0.1283252 0.23530574 -0.1824668 0.16500849 -0.0041981013 0.31249776 0.040358607 0.13429303 -0.39854842 -0.018681988 0.072057575 0.11319687 -0.2595451 0.14402632 -0.034476805 0.005216363 0.20921098 0.08260984 0.11939902 -0.32526356 0.2633218 0.107106656 -0.14356081 -0.041549906 -0.18646953 -0.0876127 0.03743105 -0.25558758 -0.30208015 0.5320021 -0.17074317 0.0024636437 -0.24300562 -0.14245588 0.09496038 -0.0016513292 0.16609761 -0.54905725 0.1509286 0.27481073 0.38149226 0.07369481 0.05730221 -0.16655695 -0.07988139 -0.22349499 -0.040893096 0.06779827 0.033362284 0.16233627 -0.21780014 -0.4976243 -0.20191684 0.40932614 -0.3589799 0.1791947 -0.37354013 0.23518965 0.067113735 0.26848027 0.2420288 -0.058547474 0.07203973 0.08184024 0.0463012 0.07434331 0.36504066 -0.060588513 0.29677725 -0.36741439 0.11767902 -0.046480276 -0.18085729 -0.06958593 -0.19782645 0.26801726 0.19371231 0.23521876 -0.16643913 -0.36800012 0.26253268 0.0074732616 -0.0748187 0.06177075 -0.25767827 -0.16876784 0.15609561 0.10148718 0.2519749 0.36320394 -0.21479706 0.022501191 -0.25410542 -0.13603687 0.33539385 -0.6285671 0.18780962 -0.32745546 -0.21028227 -0.29581252 -0.17159422 -0.19832933 -0.07083533 0.0866268 -0.13513085 0.089275144 0.37319654 0.26678342 -0.008220128 0.219853 0.07847266 0.43274763 0.3439044 -0.21146299 -0.3026936 0.2049396 -0.49897686 -0.35141173 0.5365972 -0.35068077 -0.04349695 0.33528045 0.04744912 -0.42704222 0.06388276 0.19312489 -0.116079375 0.40296915 -0.16631374 -0.33544546 -0.37346494 -0.35338315 0.13754433 0.07323619 0.023337722 -0.04912935 0.025326516 0.30505246 -0.040738367 -0.41930646 0.2787723 -0.419228 -0.100439645 0.047489338 -0.084159136 -0.3156648 0.015876163 -0.26609153 -0.099037275 0.16910653 0.2562233 -0.11775058 0.08510579 0.109466694 0.13428006 -0.16453557 -0.05608783 0.00909466 -0.046390187 -0.27989784 0.101579584 -0.02273599 -0.0480933 -0.43238986 0.04332072 -0.14769381 0.40972078 -0.10616581 -0.2006653 -0.18158627 -0.08155513 -0.11575397 0.14046851 0.19636689 -0.019864772 0.31286597 0.59116286 -0.041360546 -0.026686192 -0.1703078 0.17702462 0.51650554 -0.19181219 0.046234265 -0.27106526 -0.14466402 0.15027802 0.09076283 -0.14453948 -0.07939414 0.28981036 0.006411768 -0.2825061 -0.16676271 0.037676226 -0.18414219 -0.1419527 0.106666766 0.23661801 0.07047835 -0.1435313 -0.06896101 0.0575546 0.13482124 -0.33327776 -0.25659707 0.01283804 0.06765702 -0.017413244 -0.36623684 -0.21652599 -0.20187418 0.03538159 0.1603277 -0.4562666 -0.099442385 -0.31041184 0.11396495 -0.011386987 -0.007106362 0.18754639 -0.17543994 0.48041895 0.34142184 -0.28918067 -0.24235037 -0.13828032 0.36303744 0.04773519 0.6694165 -0.090081766 -0.06381302 -0.38978 0.2976891 -0.007652515 -0.02108508 0.1427518 0.17607102 0.3266291 -0.28477752 -0.22021256 0.09750499 -0.17092656 0.05512666 0.49251574 -0.03708128
108 0.14047018 0.050840873 0.3450134 -0.021152709 -0.1820551 0.05396411 -0.100673474 0.42197126 -0.16578725 -0.2911021 0.012745208 -0.5403925 -0.1841445 0.16014409 0.3187964 0.0071878736 -0.1715575 -0.038710184 0.20595211 0.10749024 0.049307477 -0.2271403 -0.06879217 0.4173437 -0.19890724 -0.27611306 0.23148827 0.067801096 -0.1007701 -0.16637754 0.1718171 -0.30386177 0.3047936 -0.04575436 0.20112929 0.20655586 0.26394385 -0.24443851 0.1711112 0.015857259 -0.071910985 -0.10298927 0.19875377 0.3941834 -0.17003092 0.014453695 -0.0048293616 0.27430707 0.060707584 0.24449159 0.16396177 0.13085844 -0.021634774 -0.11699374 -0.010976083 0.14831682 -0.024422849 -0.114457004 -0.19379795 -0.16943024 -0.13005115 -0.010201121 -0.060591027 -0.03375937 -0.30140808 0.31939766 0.17142045 0.19694284 0.08459638 -0.32689804 -0.14559744 0.04205563 -0.19303064 -0.11431984 0.21214235 0.1620589 -0.30216557 -0.073732644 0.07929503 -0.08655682 -0.007077241 -0.13493581 -0.24091265 0.07127752 0.25536892 0.2267358 -0.031363025 -0.31419295 -0.1554205 0.14339043 0.40456834 -0.17564683 -0.2387622 0.16739497 0.113338724 0.5673872 0.07034126 0.005337066 0.101772085 -0.064705044 -0.111424856 -0.0628139 -0.20391299 0.04839704 -0.34499714 -0.07551164 0.20669542 0.023136947 0.16991481 0.29161793 -0.24390775 0.30650064 -0.3037647 -0.030862955 0.3033081 -0.3240456 -0.062968716 0.090953305 -0.25869724 -0.010375405 0.4014872 0.10926697 0.12539881 -0.12949444 0.1465306 -0.44034377 -0.3676982 -0.55577135 0.32679385 0.11369458 -0.099283725 0.22063735 -0.0078527015 -0.24963948 0.31175888 0.25077555 0.1713188 0.05647551 -0.2022304 0.101921804 0.084675886 -0.084696345 0.17638512 0.25120813 -0.087482534 -0.15872073 -0.32910705 0.20499405 0.16361703 -0.19489424 0.39903063 -0.11871296 -0.07038036 -0.3508031 -0.45933935 0.07141277 -0.35213056 -0.012433544 -0.18785888 0.0819844 0.36108035 0.20850237 0.05779365 -0.074640274 0.13476366 -0.028868118 0.20247656 0.2869915 -0.23404756 0.21639065 -0.27665108 0.13406996 0.31007704 -0.047030024 -0.12567392 0.06409852 -0.026865806 -0.17061183 -0.012656314 0.17123519 -0.3269012 -0.09588423 -0.2686058 0.099330336 0.101580754 -0.2945246 0.025048712 -0.10011598 0.033484086 0.087220095 0.42165402 -0.017354256 0.23080768 0.048978087 0.12385714 -0.45344198 0.08278475 0.18781456 -0.21417317 -0.3661444 -0.017826922 -0.35176006 -0.13728178 -0.072322756 0.12224081 -0.30254632 0.02908676 0.028048407 0.024477968 -0.15962745 -0.016930357 -0.026618687 -0.47070205 -0.26635516 -0.017203128 -0.31468216 -0.19361383 -0.49373657 -0.1948285 -0.2448108 -0.00797871 0.30417815 -0.14604071 0.340814 -0.3826714 -0.4423877 0.2520863 -0.012155519 -0.095765546 -0.121927015 0.19574426 0.17368284 0.20732133 -0.14129171 -0.12909049 0.293178 0.17911999 0.27079108 0.22164916 -0.07988867 0.37983567 -0.050530706 -0.09395425 0.45175654 0.40056688 0.15180123 -0.29543424 0.07414634 -0.20217484 0.33673826 -0.22764927 0.11855467 0.33099347 -0.14971308 -0.13329372 -0.17822422 0.03343831 0.120694794 0.07530998 0.14698376 -0.050691828 0.5296537 -0.06566996 -0.35817918 -0.19563286 -0.15503523 -0.21144882 0.45915776 -0.32743505 -0.10281173 -0.34141758 -0.12069593 0.05670519 0.15451384 0.2637815 0.13802104 -0.11482919 0.24859415 -0.043306276 -0.49345276 0.16679433 0.17011966 -0.3339565 0.33306557 -0.21016593 0.053857785 0.137116 0.23720336 0.1269629 -0.13325681 -0.32654333 -0.015593273 0.34670034 0.14245175 0.043071564 0.29161355 0.022794766 0.09838358 -0.059888683 -0.0995311
109 0.12884971 -0.056263097 0.35398358 0.048040636 -0.2801801 0.05654879 -0.25502962 0.39483225 -0.10220838 -0.11328602 -0.122115806 -0.475321 -0.07732158 0.24288124 0.39156553 0.10341146 -0.26465753 -0.118273064 0.17376073 0.012136335 2.0154639e-05 -0.11470068 0.008195213 0.36527002 -0.3326335 -0.23183084 0.14716904 0.053573634 -0.15410268 -0.009088588 0.25805402 -0.35007265 0.4607547 -0.020346824 0.10672399 0.25724277 0.17584603 -0.16695806 0.1566756 -0.03932271 -0.10714025 -0.1562465 0.13370654 0.4001082 -0.24149245 0.038510963 0.08234213 0.2736798 -0.046347775 0.028828196 0.2601065 0.25559577 -0.10225121 -0.091376685 0.096698955 0.052243255 -0.010088196 -0.13227959 -0.23129407 -0.100172475 -0.00414444 -0.08039825 -0.15249844 0.09922789 -0.24847965 0.32157576 0.21928552 0.21058825 0.050459843 -0.13088983 -0.0650285 -0.16791278 -0.24432871 -0.059155677 0.24133924 0.050900415 -0.4190429 0.08720091 0.16062082 -0.178221 0.07296953 -0.18190832 -0.27539542 0.11246678 0.268377 0.21874182 -0.06584296 -0.14372139 -0.026905661 -0.06824849 0.40958604 -0.19085059 -0.09975402 0.2003996 0.046619516 0.5106501 -0.05055901 0.12803763 -0.081626445 0.015526709 -0.028706346 -0.053703897 -0.14519534 -0.0122503545 -0.40891573 0.048955653 0.2588595 -0.019073978 0.16274595 0.44204134 -0.3420855 0.40552148 -0.1988903 -0.08712878 0.21892078 -0.3459427 -0.21702498 -0.056534607 -0.14361177 -0.038841087 0.5186986 0.26640695 0.09755006 -0.10040609 0.2675035 -0.33030018 -0.38944298 -0.36489815 0.19455355 0.15183531 0.07214859 0.28977454 0.03537735 -0.30334353 0.37320706 0.31147364 0.24423787 0.19196007 -0.33491287 0.061197106 -0.06288869 -0.060750686 0.044103324 0.33126917 -0.086061925 -0.25000837 -0.20051141 0.122980624 0.128777 -0.032635488 0.24432181 -0.13505223 -0.05535508 -0.21150555 -0.3045084 0.1227969 -0.34321216 -0.07505025 -0.030013908 0.1298421 0.32754555 0.023984913 0.13962269 -0.064495124 0.15459085 0.028737258 0.25816253 0.22445007 -0.3100237 0.4013162 -0.20224966 0.18244064 0.2538803 -0.1034471 -0.19773854 0.009506231 0.07676421 -0.27130535 0.06463033 0.30742896 -0.25735924 -0.053562455 -0.31227493 0.05802926 0.06103567 -0.47477642 -0.030655514 0.078196004 0.007954949 0.096101664 0.33639693 -0.010600533 0.24000347 -0.12834038 -0.018953526 -0.43861407 0.1152207 0.19989029 -0.19760025 -0.21443182 0.07481 -0.22851911 -0.29919478 -0.095315695 0.12116953 -0.38712525 0.08162152 0.048779838 -0.0047015976 -0.14117062 -0.04503443 -0.046644278 -0.4594026 -0.14956512 -0.07955998 -0.29880136 -0.17836028 -0.44226277 -0.12869628 -0.27243036 0.023650648 0.27522457 -0.11698247 0.30010512 -0.3441866 -0.41714075 0.31849512 0.0038553476 0.02315417 -0.07769025 0.27448344 0.1653576 0.08904638 -0.0082090525 -0.07429877 0.21952769 0.20462666 0.19683482 0.24793153 -0.1252722 0.3391179 -0.032332063 -0.061820857 0.44504187 0.4389908 0.077505596 -0.257093 -0.023224838 -0.17651086 0.19732161 -0.18597482 0.12162763 0.31441277 -0.15475778 -0.22065549 -0.15826388 0.026697148 0.054362237 0.062467687 0.054096498 0.0030876498 0.6134037 -0.09117292 -0.4000554 -0.06378805 -0.15207571 -0.20827806 0.35718817 -0.4021525 -0.2441223 -0.4367462 -0.12738767 0.09195868 0.18430595 0.23070852 0.1476438 0.0040186257 0.20347378 -0.17368406 -0.38461867 0.13377346 0.087331794 -0.26810062 0.24318175 -0.08334349 -0.13229233 0.20835145 0.0876799 -0.09290741 -0.10425601 -0.43396592 0.082346536 0.28818116 0.06364259 0.12954889 0.34221902 0.2057213 0.14885122 -0.052643817 0.1087376
112 0.3482102 0.24411085 0.119046055 -0.2409685 0.0054421597 0.19592875 -0.16261661 0.5790706 -0.2376814 -0.5863228 0.13746093 -0.23618758 -0.021279035 0.04086524 0.08954457 -0.316796 0.11201837 0.22436361 0.39126152 0.030385032 0.115510836 -0.35068575 0.012532306 -0.07816563 -0.12123973 -0.2878973 -0.060679182 0.014087768 -0.12546617 0.16864944 -0.11425742 -0.24909939 0.11645792 -0.35331392 -0.14124782 -0.31012034 -0.367172 -0.07914257 -0.06945958 0.31313238 0.1679813 0.1353143 -0.05962259 0.15742281 -0.3392757 -0.28300327 0.5494414 0.021733522 0.070967466 0.14123067 -0.020491071 0.19516526 -0.24972303 -0.13774969 0.20747828 0.2730718 0.041669272 -0.2250379 0.20851408 -0.014673573 -0.05438473 0.07610247 -0.08290894 0.15023915 -0.08286472 0.103467174 0.16011576 -0.17597394 -0.17965905 -0.13868947 0.23575643 0.2302031 0.14054282 -0.07998964 -0.15494262 -0.3838148 -0.15371935 0.04645357 -0.33379906 0.2777633 -0.30091932 -0.15456536 -0.2002441 0.5812629 0.004277573 -0.026456498 -0.15160215 -0.2284775 -0.008905248 0.18076496 0.0059440676 -0.2578531 0.011094698 0.0835328 -0.16923557 0.33823875 0.18777531 -0.011623874 -0.28975248 0.31097844 -0.13373657 -0.08208509 -0.19752444 0.23329368 -0.14733368 -0.13352191 0.03593653 -0.07626869 -0.2032885 -0.13410035 -0.5152214 -0.03330478 -0.15682377 0.15995346 0.24874942 0.24666251 0.15749504 0.13763563 -0.2874835 0.08417649 0.3812089 0.13516071 0.12984204 -0.058648903 0.20067304 0.42786473 -0.3985587 -0.15977941 -0.047746796 0.32425722 0.1636498 0.3623505 0.19071822 -0.21722363 0.16264923 0.10081889 -0.42338607 -0.16481534 -0.38065168 -0.16703372 0.35463902 0.112246 0.2991393 0.37336534 -0.11147833 -0.022992605 -0.03038417 -0.14350218 0.07752023 -0.10164342 0.015919648 -0.4319709 -0.22555184 -0.3142924 -0.034694836 -0.2164265 -0.20530757 0.03334573 0.056823567 0.44304845 0.3071541 -0.19476081 -0.1068687 -0.020123461 -0.069847725 0.3893053 -0.027666634 0.38807368 -0.17408505 0.26922992 -0.33587325 -0.25794116 -0.09070421 -0.11246526 0.3288033 0.114181265 0.20778494 -0.0792388 0.010468968 -0.11255993 -0.23476642 0.05345976 -0.01003907 -0.28571242 0.10680103 -0.09077642 -0.27161255 -0.023385795 -0.09639501 -0.34484696 0.057972923 -0.16478051 -0.080766335 -0.08108046 0.03177676 -0.19715025 -0.061769467 -0.1508629 0.15548539 -0.008797929 0.04721974 -0.13618372 -0.102459654 0.108695894 -0.021719612 0.018137699 0.030052142 0.030899208 0.30119443 -0.093169354 0.42842945 -0.24910316 -0.10950667 -0.062866405 0.17390719 -0.0127347205 -0.004920669 -0.32143012 0.006468393 -0.075010486 0.24069224 0.025944961 -0.17271051 0.29543087 -0.14066398 0.10943207 -0.11760939 0.02123519 -0.10789702 -0.09628637 -0.0051974542 -0.08002256 -0.19876045 0.035319276 -0.13974623 -0.015539077 0.31148982 0.1546536 0.09909054 -0.16605194 -0.07572324 0.05871577 0.30419573 0.074575454 0.0075897463 0.016957833 -0.2388686 0.28515443 0.15532656 0.23012532 0.08146732 0.21688285 0.40145767 -0.009474507 -0.29149297 -0.15450706 0.265356 0.054924883 -0.347699 -0.22715424 0.29576182 0.35391635 0.26177406 0.019064246 -0.37061837 -0.07159965 -0.22858241 0.3478104 -0.25919715 -0.06104854 0.080819555 -0.118650146 0.27402267 -0.16294682 0.32511702 0.26781645 -0.0055110315 -0.17839652 -0.015528958 -0.3716735 -0.034174666 0.02526672 0.24593388 0.013384166 -0.04736827 -0.010655332 0.048717678 0.051520452 -0.206008 -0.059412412 -0.21164529 0.14498158 0.2609445 0.029759618 -0.1275205 0.34659457 -0.03383142 0.2060616 0.015234242 -0.2006755
54 0.19788906 0.23960383 -0.02085397 0.1220844 -0.02064887 -0.15285423 -0.11934721 0.5378983 -0.47873 0.014943345 -0.14561674 -0.27631837 0.2853533 0.022537185 0.2817478 -0.00414916 0.26230732 -0.20586444 0.20360681 -0.3011624 0.07779947 -0.24036743 0.020886937 0.15732187 -0.1424264 0.02968262 -0.25779837 0.123049244 -0.15770882 0.06855769 -0.008218109 -0.2238035 -0.1366589 -0.66910625 0.18337454 0.26282835 -0.13119084 -0.20908736 0.103980504 0.07255529 -0.15954728 0.05288126 -0.24145873 -0.18317533 0.21928816 -0.41580322 0.16282412 0.036383387 0.25725883 0.020014603 0.13043101 0.14208873 -0.21847261 0.12505749 0.15795529 0.049705844 -0.28423652 -0.36168668 0.03991576 0.16742533 0.014873713 -0.24865259 0.0015366154 -0.08253912 -0.29897007 0.3769992 0.16142459 0.056163967 0.026175072 -0.020286357 -0.08001183 -0.01926945 -0.18611741 -0.23423274 -0.088159956 0.44900006 -0.16233854 0.014528689 0.30114385 -0.32807156 -0.23050061 -0.2527892 -0.2532728 0.33430007 0.13915063 -0.170585 -0.036125448 0.034812998 0.12294108 -0.10900302 -0.16747333 -0.18373655 0.45641407 0.08908454 0.17246003 0.17154023 0.17321418 0.038808104 -0.09919592 0.15022747 0.075947635 -0.1038789 0.035265684 0.13942762 -0.16827422 -0.32659295 0.1860812 -0.067438744 -0.27047586 0.36685485 -0.29606852 0.33574855 0.28264531 0.0030370122 -0.028987369 0.259683 -0.14933524 -0.010861093 0.15588962 0.018838119 -0.19783998 0.31131098 -0.07576663 -0.29758564 -0.008053774 0.12567285 0.014532333 0.11803697 0.2602053 -0.19880442 0.27355522 0.13751513 0.19740434 -0.31086442 0.34809884 0.30881822 -0.15522873 -0.39068726 -0.21181987 -0.32961407 0.29006445 -0.53215224 -0.19461729 0.22950487 0.18302828 0.059600994 -0.40310112 0.19468744 0.5462937 -0.18663308 0.12066658 0.01991142 -0.24633466 0.05589435 0.083514474 0.009621631 -0.1669307 0.23495418 0.20006377 -0.3581181 0.24585119 0.27514285 -0.14845802 0.3326537 0.033961404 0.34820753 0.036818735 0.33047664 -0.08062505 0.3339787 -0.67588097 -0.2740093 0.18604016 -0.11004678 0.11463555 0.046692844 0.021120196 -0.26558593 0.004330558 0.31625006 -0.24251063 0.09370929 -0.13633083 -0.10616274 0.06788527 -0.10655335 0.0011968834 -0.09411062 -0.068810895 -0.16807637 0.03168324 0.3448035 -0.23860157 0.018106535 0.35454586 -0.272413 -0.13049757 -0.19512977 -0.058052685 -0.48257884 0.024807887 -0.23720077 0.098162614 0.072053224 0.13372006 0.029209996 -0.26260796 0.11714985 0.0058858274 0.098934464 0.29557014 -0.04366739 0.009457662 -0.26273212 0.05163183 -0.16399077 -0.13776071 0.00025363802 -0.11487543 0.05966613 0.2679929 -0.15153119 -0.16224268 0.037192468 0.053675674 -0.24548103 0.1646374 0.023567222 -0.13594785 0.25615203 0.2857185 0.09942532 0.026802005 0.020630235 -0.08848996 0.026782244 -0.14753152 0.04142196 0.0800335 -0.500381 0.17274502 -0.05571825 0.17797132 0.18142553 0.10867579 -0.023348814 -0.03675931 0.43342757 -0.017473625 0.1608841 0.28812498 -0.110372156 0.54908806 -0.30468473 -0.1454985 0.2678175 0.0673735 0.24059375 -0.28924862 -0.20995627 -0.37429014 0.6148982 -0.0847893 -0.55404276 0.27780455 -0.09605273 -0.225645 0.3935025 -0.32953677 0.0066806567 -0.2479752 -0.004879089 -0.08018278 0.13234308 0.016481852 0.19251342 0.2608205 0.051654577 0.058377486 -0.48929787 0.14728868 0.08066836 -0.27691907 0.535073 0.011151375 0.06929549 -0.07239613 -0.14751136 0.04982053 0.5275959 -0.09583642 0.18460625 0.35284394 0.06393155 0.18561654 0.14682277 -0.21618465 -0.39115056 0.25838163 -0.3853362
105 0.36713958 0.36301002 -0.025974488 -0.08061218 -0.12833855 -0.10969859 0.16717997 0.43437394 -0.42675906 -0.32153732 -0.12803239 -0.011128164 0.0380013 -0.33683947 0.2237135 0.2317771 -0.057834785 0.16661799 -0.30730438 0.1728669 -0.3993581 0.18471012 -0.18429989 0.0048092897 0.073371366 -0.090821944 -0.4876029 -0.056981824 -0.019175805 -0.29888272 -0.23648986 -0.34257963 0.16160384 -0.2988897 -0.11319394 0.04544964 0.117349274 0.09233631 -0.04870466 0.058059428 -0.08992036 0.0004796294 0.10910223 -0.021385353 0.34211457 0.13058142 0.15149972 0.3490552 -0.1867232 0.18951675 -0.048433617 0.09014973 0.08566423 -0.2527069 0.043782894 0.29152957 0.054013908 0.10029121 0.0028236003 0.30099916 -0.031379364 -0.075766854 0.038304057 0.19560288 -0.012933173 0.17487705 -0.19874606 0.19318198 0.11246577 -0.12938388 0.12546909 0.31062776 0.18153994 0.043333814 0.3623065 0.046107095 -0.33509535 0.36038783 0.2029093 -0.0034901137 -0.10343914 -0.056945775 0.25696808 0.18386418 0.054352514 0.16674511 0.11040238 -0.31013894 0.13896346 0.11760404 0.123385504 0.19820175 0.19756976 0.11918071 -0.03128992 0.25620317 0.041038226 -0.28637323 -0.2810215 0.15184177 -0.13706067 -0.051211394 0.21237576 0.39716312 -0.15937188 -0.10570869 -0.023870556 0.35633048 -0.10331911 0.21108374 -0.37229332 0.14170584 0.049651135 0.0053193895 -0.0018959723 -0.309033 0.059922904 0.22019206 0.2471373 0.16501422 0.2043382 0.33837163 0.10107798 0.11464755 0.10050155 -0.14958122 -0.0038948467 -0.20870681 0.074546516 0.019670624 -0.13288145 0.11516615 0.16769871 -0.42095655 0.180936 0.16462713 -0.16446228 -0.19020101 -0.108064644 -0.097431205 -0.0052912775 -0.08437082 0.1693941 0.15561527 -0.1733295 0.29314008 -0.42667535 0.08218344 0.03279285 -0.26866204 0.10897947 -0.11631787 0.0982466 -0.08969725 0.108947 0.08162219 -0.35540307 -0.057468247 0.3793151 0.016657112 0.12563518 0.043049514 -0.1554022 0.12206318 -0.29779568 0.08226672 -0.06356759 0.25650606 -0.17648786 0.56757915 0.12721987 0.004401744 -0.014139042 0.14839478 -0.017442016 0.14713794 0.25154155 -0.18120912 -0.05702005 0.02754746 -0.28491998 0.13578196 -0.12998442 -0.050021645 -0.120197214 -0.19644542 -0.24261388 0.079363465 -0.06579158 -0.022558037 0.102746226 -0.08928649 -0.1701451 0.076479256 0.36366144 -0.1635364 -0.0025769093 -0.06022238 -0.05381426 -0.18580459 -0.14045464 0.06492058 -0.109005004 0.0051989765 0.10491533 -0.2537177 -0.15588796 0.26715204 0.18163617 -0.08920282 -0.028137743 -0.05991621 -0.2484345 0.20025228 0.395858 -0.03763021 -0.14251861 -0.34871224 0.013629534 -0.11719624 0.3664107 -0.10703153 0.1617165 0.13532265 0.21003437 -0.08857416 0.40181926 -0.035138093 -0.045918506 0.35215816 0.41771993 -0.410615 0.030122744 -0.12205394 0.05978125 0.05780637 0.05704199 -0.119420946 0.04742676 -0.23667993 -0.06338174 0.017914923 -0.100451484 0.2362743 -0.07102517 0.13928267 0.020100199 0.079929315 0.0726166 0.069626726 -0.20345506 0.43131173 -0.027061848 0.27148366 -0.10710688 -0.21875626 0.33214363 0.33075547 0.0753493 -0.103152744 0.0075447224 0.20714839 -0.48934197 0.123075835 -0.46842912 -0.07306662 0.07401177 0.06027434 -0.31711906 -0.18984047 -0.25805578 -0.035029598 -0.21591015 -0.03801422 0.30084097 -0.06533299 0.32163262 0.14366475 -0.10729398 -0.089269675 0.20265032 0.14305447 0.31997275 0.20007218 -0.08301155 0.07902961 -0.36559293 0.1350998 -0.05179986 -0.270564 0.01862217 0.13724962 0.25760344 -0.113957025 0.28540277 0.42456555 0.3347016 0.06318228 0.2030194 -0.36984077
107 0.03683554 0.12178536 0.15908714 -0.006759442 -0.2141892 0.12926447 -0.1307966 0.35983038 -0.03530385 -0.28755358 0.13756907 -0.436372 -0.2081487 0.24857885 0.2795909 -0.09731907 -0.033927087 -0.049939673 0.2101124 0.06022165 0.14984374 -0.25221145 -0.08568829 0.4684138 -0.08370291 -0.36733344 0.19259614 0.12347863 -0.26381803 -0.12224914 0.068945535 -0.22434436 0.29685858 -0.15907334 0.2159898 0.16758126 0.36788675 -0.18889648 0.23015195 -0.0095025515 -0.20497057 -0.20163219 0.21968113 0.32159743 -0.17919283 -0.010161116 -0.0023166046 0.28562066 0.1400656 0.28046978 0.15991934 0.27877533 -0.12090106 -0.038631875 0.08039467 0.095695995 0.022229183 -0.21945491 -0.11526006 -0.12785235 -0.009649233 0.03744818 0.04605044 -0.11934069 -0.2594167 0.40722936 0.18590389 0.24460424 0.012665439 -0.29388076 -0.06242097 0.053926405 -0.27017346 0.015705632 0.26766297 0.061771806 -0.3374116 0.0356903 0.09787008 -0.25383306 -0.0660691 -0.042069774 -0.43320855 0.15891995 0.3001221 0.26260647 0.06464611 -0.31832615 -0.08595114 0.15172878 0.4369731 -0.21762551 -0.16386218 0.10976549 0.11189459 0.61472666 -0.111038566 -0.08264366 0.19366147 -0.17899273 -0.10398203 -0.10690478 -0.14881419 0.040303268 -0.37320435 -0.23189111 0.06108374 -0.007865178 0.09107373 0.20967783 -0.31475696 0.3724592 -0.14739774 -0.21267301 0.39460152 -0.30376297 -0.0019042983 0.24316446 -0.16095364 -0.0026794944 0.5196389 0.19078043 0.11546186 0.0034098874 0.24006426 -0.3827576 -0.37411794 -0.4238249 0.36594638 0.20273724 0.0332059 0.18355379 0.07863848 -0.311034 0.23081286 0.42130837 0.24772386 -0.063041605 -0.27266902 -0.14317763 0.11062398 -0.008904582 0.058512866 0.19698921 -0.22371975 -0.046380773 -0.5253907 0.10252083 0.1831711 -0.20679924 0.28894153 -0.18973738 -0.13451274 -0.24922377 -0.2981219 0.06593362 -0.41893002 -0.18039323 -0.16212423 0.12747045 0.45315742 0.19808458 0.0045764837 -0.14666995 0.11674857 0.061548386 0.30905256 0.2627917 -0.17512284 0.2565326 -0.3695047 0.10844174 0.313807 0.07469985 -0.20278688 0.10565886 0.058331314 -0.041285828 0.0007111894 0.12700047 -0.1598715 -0.073790476 -0.40509266 0.104537554 0.00026951852 -0.42928421 0.015039298 -0.16736588 0.003441859 -0.010989409 0.42468378 -0.06957201 0.15795578 -0.021965617 0.28844774 -0.47010484 -0.048987806 0.11713705 -0.2964777 -0.4037382 0.0320603 -0.47749028 -0.07220205 -0.15050878 0.2777678 -0.33156222 -0.14577565 0.10594174 0.02073205 -0.11473935 0.033086475 0.066665225 -0.40655917 -0.19197413 -0.122171834 -0.20308524 -0.21988824 -0.42688626 -0.27802128 -0.3033182 0.098364055 0.3553179 -0.19654308 0.27222058 -0.12938818 -0.40419272 0.19805703 0.0434053 -0.0054862546 -0.027297484 0.11180247 0.11414857 0.07904641 -0.2087649 -0.2380029 0.34790796 0.094837666 0.20179394 0.16824138 -0.04113342 0.28954986 -0.024739975 -0.100362025 0.31870955 0.45834675 -0.047222964 -0.21106884 0.1543624 -0.048761297 0.29865864 -0.2444247 0.024225084 0.18572153 -0.10290435 0.033479918 -0.13391958 0.05166218 0.18968499 0.08491165 0.088615105 -0.10136755 0.36270168 0.03417746 -0.40576035 -0.24760321 -0.25507244 -0.30352607 0.34483996 -0.26004922 -0.101546325 -0.3813348 -0.11767155 -0.12541085 0.25138736 0.16282104 0.21287616 -0.0125407325 0.23374428 -0.13216262 -0.49867886 0.27369195 0.092476994 -0.4704209 0.32324395 -0.23703298 0.07206814 0.0767418 0.21053752 -0.0016628251 0.039332334 -0.35178894 -0.048683412 0.20654498 0.20263977 0.06378161 0.4192847 0.10708032 0.0853205 -0.1442022 -0.24216767
87 0.15337911 0.59257215 0.006797165 0.0625335 -0.21979347 -0.15338537 0.22764185 0.37770757 -0.13144502 -0.39676937 -0.006656357 -0.13819411 0.43123168 -0.33651188 0.11535149 -0.11040844 -0.11769559 0.19275051 -0.39083084 0.12356572 -0.28457516 -0.107318744 0.021576017 0.12982093 0.19184637 -0.12889242 -0.3635908 -0.1582698 -0.17455032 -0.40573463 -0.14879249 -0.22941148 -0.04225331 -0.2439522 -0.0075414847 -0.015132283 0.102065586 -0.12010041 -0.1831828 -0.014307224 -0.023147825 -0.1103645 -0.1912941 -0.14215751 0.29519233 -0.018951377 0.24892616 0.2777623 -0.24247475 0.31447905 -0.08901092 0.19449009 -0.03531842 -0.30298665 0.09225314 0.15861836 -0.123829976 0.061555106 0.12858362 0.21586436 0.15607071 -0.36475527 0.07970413 0.13172169 -0.13145366 0.07886804 -0.07230467 -0.032144792 -0.01797949 -0.08462794 0.19980901 0.1753876 0.14482695 -0.0655517 0.11348375 0.03461248 -0.28620875 0.08334402 0.020764517 0.3792474 -0.16259539 -0.37466288 0.24823695 0.053144764 0.01480974 0.23704961 -0.113383606 -0.28453773 0.1867492 -0.007111173 0.102749385 -0.19075719 0.3490067 0.15135269 0.02063341 0.3347857 0.22145514 -0.1142865 -0.24276455 0.039237756 -0.1700938 -0.027916377 0.18749411 0.32534695 -0.27603698 -0.07056566 -0.17621955 0.2771679 -0.07629653 0.14975613 -0.2351603 0.033254 -0.027264277 0.053908955 -0.28781176 -0.4305023 -0.055142485 0.03298627 0.06626161 0.0964773 0.30516636 0.10851791 0.17536812 0.053089883 0.18600751 0.005027169 0.060324606 -0.10262117 0.31119588 -0.10863744 -0.00093813665 0.052696303 -0.03483421 -0.50225765 0.21560076 0.044497974 -0.06830305 -0.16467968 -0.17277081 -0.09085426 -0.14533006 0.122099906 0.08327956 0.11818527 -0.25194493 -0.038676966 -0.26720774 0.015842376 0.052786235 -0.37247586 0.012186007 0.049830146 0.08150237 -0.14086784 0.19271481 0.15816616 -0.24076827 -0.04251399 0.33490202 0.030493898 -0.038225923 -0.09445942 -0.23647851 0.18048796 -0.23249085 0.016175048 0.18934606 0.21443917 0.10532019 0.83370024 -0.08418586 -0.007885832 -0.070329264 0.1989576 -0.19184007 0.2067257 0.1829238 -0.29181543 -0.10852043 0.25681293 -0.24972852 0.061725628 -0.2881166 -0.016457565 -0.18352081 -0.12586682 -0.18639691 0.14554629 -0.09794307 -0.096765846 -0.002109992 -0.13728756 -0.17621876 -0.05035138 0.35483226 -0.009239682 0.030732004 0.055451475 0.09617026 0.04794328 -0.21520765 -0.056663614 -0.22488701 0.12745704 0.036844905 -0.17360869 -0.16772379 0.21382576 0.14915481 -0.090026036 0.18090445 0.13565117 -0.21067132 0.14197136 0.3021543 -0.19413257 -0.2986933 -0.31597152 -0.03130316 -0.17940526 0.20205204 -0.29833537 0.14436166 0.14337792 0.17470145 -0.22002281 0.41786247 -0.15601167 0.16723743 0.26255178 0.17878814 -0.13286185 -0.06969242 0.0019598594 0.01630928 -0.021305041 0.0629884 -0.10319332 -0.041404773 -0.06694079 0.07987381 -0.055328682 0.09886113 0.15778668 -0.12642302 0.08344165 0.1104159 0.075351246 0.13896824 0.23448461 -0.07011419 0.11299192 0.09301721 0.31168726 -0.015629163 -0.09467958 0.3239141 0.4492391 -0.022651214 -0.21984786 0.044200532 0.19204782 -0.31127188 -0.19322103 -0.2988159 -0.39572465 -0.03918057 -0.1876167 -0.45626688 -0.15133716 -0.17045012 0.016845956 -0.034499828 -0.25296032 0.2372897 -0.13099271 0.3775383 0.19026536 -0.25181377 -0.03266505 0.108862296 0.14609812 0.21192926 0.15823515 -0.1315926 0.102129154 -0.3575807 0.084498554 0.17485403 -0.36665422 -0.06786944 0.3924336 0.45402697 0.15120207 0.14085549 0.2217775 0.17400242 -0.060420386 0.1803671 -0.24124974
32 0.025647799 0.05446632 0.29059353 -0.015731117 0.031927712 -0.4464115 -0.2139383 0.51009625 -0.19049126 -0.19292584 -0.08950895 -0.056369808 -0.099974535 0.055538967 -0.13212213 0.09923289 -0.074578345 -0.034916047 -0.025569092 -0.23236828 0.32054135 -0.045592297 0.123752534 -0.045502096 -0.16062419 -0.21255217 0.03367775 0.012421006 -0.33315715 -0.041878097 0.16843623 -0.10194189 0.17028093 -0.24001002 -0.08237804 0.4502264 0.102929644 -0.21647625 -0.12795134 0.041817665 -0.026011009 0.3815291 -0.06133994 -0.085112564 -0.16163793 0.2782206 0.40271872 -0.13063107 0.16728401 0.291372 0.24399391 -0.074840344 -0.30159682 -0.28900653 -0.044710096 0.23064622 -0.09112339 -0.09386635 0.049940333 0.090040125 -0.038312227 0.028010305 0.117098525 0.21834062 0.0050329207 0.061747953 -0.042900812 -0.11647546 0.039494254 -0.045077782 -0.0686477 0.0399264 0.06799902 -0.13234839 -0.12398078 -0.08227905 -0.18961976 0.19188745 -0.052796908 -0.09726797 0.1265161 -0.3148723 -0.4331527 0.13399155 -0.14992145 0.110080436 -0.05814624 0.1409482 -0.072758056 0.1552256 0.23981199 0.31878266 0.30695078 0.40666997 0.5552147 0.4013832 0.12970234 -0.10222923 0.0697174 -0.013977385 -0.2493873 0.15512934 0.0014975651 -0.13145864 -0.5918561 -0.2633613 0.056554142 -0.22197536 0.00023322355 -0.0723436 -0.3068905 -0.26862985 0.058195177 0.40613994 -0.03941415 0.29205963 -0.42335668 0.21863534 0.16475533 -0.16329777 0.16670571 0.22886884 0.25849476 -0.171539 -0.14536399 -0.3145937 -0.13265453 -0.21786557 0.34289658 0.36647984 -0.12511681 0.2565986 0.095166 -0.32190996 0.03365604 0.2975216 -0.27921513 -0.41611373 0.1678165 -0.029934812 0.18725164 -0.27952695 0.3137007 -0.12840346 -0.14064024 0.19194053 -0.280102 -0.12307296 0.11574317 0.04669934 0.17450391 -0.11790945 0.049909983 -0.0034561402 -0.03408155 -0.049755692 -0.18216671 -0.34253675 0.025485896 0.13078585 0.20285383 -0.0758304 0.14070275 0.3849104 -0.020641524 0.13621517 0.40456802 0.1205611 -0.15781532 0.3541232 0.1430003 -0.30855015 -0.019267837 0.15366076 0.07234986 0.6773318 0.10731695 -0.5199233 0.22519797 0.12490819 -0.17607854 0.15044872 -0.003468517 0.19149797 0.11715228 -0.14929461 -0.18995748 -0.007410064 -0.09485647 -0.04590265 0.115584075 -0.0064512365 0.009754979 -0.22768117 0.31928703 -0.25735363 -0.04152151 0.06579992 0.008259992 -0.1721086 0.1911366 -0.18799196 -0.26556945 0.23635323 -0.010413552 -0.26984933 -0.37332514 0.11707141 -0.08455292 -0.024947813 0.009094536 0.026484033 -0.28796396 0.082380444 -0.004550316 -0.1756599 -0.07989646 -0.16507442 0.033820383 -0.03666623 0.07617569 -0.16459201 -0.03087236 -0.08160631 -0.42250973 -0.5650315 0.4646537 0.15840912 -0.044158854 -0.061871447 0.29341534 0.11061424 -0.15117249 0.03543617 0.06831992 0.13427886 0.46603617 0.00368833 -0.35389513 -0.3244187 -0.15070699 0.078176 -0.14508545 -0.11089515 -0.38992447 0.20900778 -0.049808025 0.6114981 0.15091366 0.21811804 -0.19698991 -0.07329778 0.1808605 -0.07607591 -0.43902236 0.08667712 -0.19809394 -0.0029887767 -0.09692005 -0.13626604 -0.055045992 0.41938394 0.15981646 -0.2668551 -0.11752247 -0.32414043 -0.006963096 0.2996486 -0.43864474 -0.022594748 -0.17880198 -0.16733187 -0.15380354 -0.13799183 0.074010246 0.02002854 0.059414696 0.16684517 0.026291419 -0.23712909 0.08054233 -0.05060652 -0.21459031 0.251698 -0.16512622 -0.074524894 -0.2619444 -0.025488831 -0.11234537 0.080147676 -0.15304917 0.42366165 -0.09915012 0.016729485 -0.27037343 0.12873194 -0.16044077 -0.24981448 -0.090637915 -0.4316525
