502 128
113 -0.16845687 -0.45573428 0.07598602 -0.042215385 -0.7033066 -0.6073836 0.41868904 0.053924534 -0.054531936 0.22110625 0.20957595 -0.22623645 -0.29703265 0.18187022 0.14338343 0.005454529 0.18807346 -0.5090107 -0.63367945 -0.14607543 -0.10046078 0.47612074 -0.0034029416 -0.18457142 0.44158724 0.16013978 -0.09560551 -0.030275935 -0.24024709 -0.41645497 -0.4094814 -0.20313719 0.41063866 -0.5284485 -0.31261787 0.17866123 0.26273763 -0.041039515 0.00942195 -0.60861063 -0.53299874 0.37795758 -0.5132152 -0.14780755 -0.30722627 0.20174393 -0.85919976 0.3129138 0.99928695 0.37221575 -0.21684799 0.056861516 -0.016577005 0.33569753 0.3481714 -0.07877034 0.36850244 -0.34053528 -0.056418363 0.834179 -0.34067225 0.2980425 0.041932892 -0.49925163 -0.29531795 -0.14338009 0.31286234 -0.029150994 0.17790249 0.038756892 0.22805749 0.55652255 -0.20951247 -0.2294104 -0.1911978 0.19245467 0.7666035 0.028520204 -0.6888666 -0.28800592 0.22600897 0.13883139 0.15375043 1.011893 -0.3950699 0.46369356 0.56272846 -0.08834765 -0.23769848 0.28562975 -0.18137829 -0.3227669 0.3035501 0.2982438 0.10440233 0.7496538 -0.3664038 -0.14705184 0.3163119 0.19318545 -0.6573921 0.28258222 0.42340618 0.89673907 0.05664293 -0.49106508 0.15159059 0.3633899 -0.12982418 -0.43454146 0.42135647 -0.5527948 -0.25295377 -0.10709004 -0.14581232 -0.020743376 0.41544902 0.3273058 -0.07674786 -0.17320278 0.30540243 0.025977105 0.29270872 -0.45876348 0.40618795 0.24031559 -0.4470662 0.5146299
116 -0.26653856 -0.09125654 -0.24466401 -0.21595266 0.044093672 -0.39072815 0.10016763 0.03610272 0.23182397 1.1462295 0.2736306 0.421891 0.13872327 -0.3425889 0.2275561 0.17326298 -0.44367698 -0.0058455607 -0.13277897 -0.33704054 -0.0010565801 -0.009717626 0.14867288 -0.7006978 -0.37970516 0.6216595 0.19605348 0.40822646 0.34818897 0.031423375 -0.5016306 -0.26028073 -0.34407645 0.099359244 -0.28415197 0.2887731 0.025587207 0.9200096 0.023239212 -0.5575835 0.04070719 0.7368037 -0.5262828 -0.6698807 0.23206688 0.65342253 -0.23212181 -0.25221828 0.58040744 0.40921548 0.348747 0.0987651 -0.26309484 0.4838373 0.33554953 -0.449457 0.36592984 -0.22132766 -0.19503397 -0.13175769 -0.24742442 0.34777993 0.45386767 -0.222838 0.5334826 -0.42283362 0.29396087 -0.2023354 0.5721784 -0.30644655 -0.3278421 0.5505243 -0.13535905 0.34160346 -0.27614155 -0.18646151 0.569648 0.261496 -0.8319158 0.4636373 -0.2904522 -0.076435186 -0.07104055 0.7102698 -0.012422956 0.30732328 0.790967 -0.35880068 -0.20026016 0.6932773 0.010352794 -0.022806989 0.22213002 0.07879979 -0.19848546 -0.24963571 0.2505808 -0.27491543 0.53714645 0.09299182 -0.57550526 0.25454667 0.022613002 0.21742201 -0.29300728 -0.3440139 0.018753774 0.64570624 0.110362425 -0.01716173 0.63344574 -0.5718161 -0.29798958 -0.029592255 -0.446324 0.0056833858 0.6535027 0.28837204 -0.08246134 -0.13419394 -0.055466384 0.31859148 0.50167084 -0.5288001 -0.15889819 -0.29572484 -0.38866174 -0.3203441
90 -0.14383855 -0.48911706 -0.021524576 -0.44411546 0.4063695 -0.24976215 0.23298806 -0.11965968 -0.82835186 0.4868068 0.77957326 -0.062290817 -0.24195021 -0.15852019 0.6925494 0.10514508 0.50016713 -0.15347105 -0.20823735 0.6851261 0.4695741 0.027078968 -0.17727326 -0.062193964 0.19602726 0.10507718 -0.039414275 -0.50824094 0.216457 -0.22935955 -0.8625708 -0.21550736 -0.20777667 -0.48314273 -0.30246451 0.13802099 0.081285015 0.21066089 0.29350406 -0.4174574 0.36532718 0.6019876 -0.32669348 -0.2618591 0.14863032 0.6231628 -0.6705166 -0.46101502 1.0010434 0.18409155 0.07207555 0.08695334 0.2787459 0.27608716 0.1569761 0.39140642 -0.11219254 -0.25329205 -0.1750692 0.29609376 0.4495925 0.36852422 0.36312625 0.29979798 0.05060121 -0.35149676 0.6433325 0.049298383 0.5690242 -0.48322973 0.26536226 0.08733171 -0.4016548 -0.17230155 -0.6045454 0.33613575 -0.15769854 -0.054589678 -0.3010086 0.4919304 0.18723398 -0.075293764 -0.46918553 0.9831315 0.14901033 0.0043411455 0.3554775 -0.08710703 0.2845784 -0.1675259 -0.020743148 -0.31341147 0.34654742 -0.022846408 0.097716525 -0.2426116 -0.20498969 -0.435052 -0.02451563 0.051641848 -0.31642562 0.07649011 -0.022378664 0.26158544 0.118649684 0.26078904 -0.03794038 -0.025269326 -0.15973116 -0.7455877 0.38167697 -0.32343534 0.065268 -0.6038432 -0.3943842 -0.384882 -0.07794941 -0.08436921 0.2887473 0.13921507 0.3253571 0.3443085 0.10500547 -0.40351206 -0.0051263906 -0.0068231244 -0.20049201 0.30382982
89 0.14930105 -0.42859787 0.09493382 -0.11184443 -0.028080588 -0.69283885 -0.42089078 -0.719778 -0.072429135 0.18362685 0.024343766 0.14263293 0.2128466 -0.44063604 0.14188989 0.14470816 -0.28887698 -0.30467004 -0.5989296 0.1640134 0.04216416 0.6603676 0.21003021 -0.27497214 0.41114894 0.19832173 0.35815257 0.10304521 -0.56966823 0.122144446 -0.22220434 -0.30558893 -0.42434156 0.47568518 -0.050326288 -0.22893888 -0.123931356 -0.03707203 0.13727282 -0.089708105 -0.47841868 0.9685678 -0.34226894 0.17888866 -0.27423942 0.13907944 -0.44824126 -0.22975498 0.52326393 -0.41765586 0.51477295 -0.36787072 -0.25783214 0.28799564 -0.3786244 0.3082969 0.42836487 -0.042204008 -0.046721242 0.25595924 -0.052688085 0.39674646 0.029610708 -0.013694471 0.39652073 -0.51378536 0.20161158 -0.26849905 0.7447301 -0.3635104 -0.10491837 -0.17599578 -0.6106358 -0.35357276 -0.35278818 -0.30316067 0.44374073 -0.40057984 -0.23272277 0.13783671 -0.33474657 -0.6248958 0.25759575 0.82531744 -0.2324041 0.46964613 0.27031937 0.2705475 -0.51420045 0.34101415 -0.28670806 -0.054226678 0.09685157 0.31976292 0.2446523 -0.27980673 0.03977215 -0.46373436 -0.00401826 -0.0776397 -0.35212478 -0.2998544 0.37238744 0.26633683 -0.51029795 -0.42088813 0.3224878 0.20723224 0.08965799 -0.38375434 0.5912674 -0.18625316 0.097462155 -0.4259244 0.24918115 0.14968324 -0.3569482 -0.010953305 -0.041402087 -0.29017845 -0.10794504 -0.21784504 0.2811596 -0.10160893 0.041367803 -0.22465014 -0.12002698 -0.13696897
110 -0.13152964 -0.41397005 -0.07627529 -0.53269625 0.3750041 -0.27857178 0.018505715 -0.36740097 -0.65052813 0.24378358 0.5579056 0.006061987 -0.21016037 -0.25794873 0.55810684 -0.036041077 0.2681037 -0.13053377 -0.007143675 0.3911472 0.06755303 -0.19879651 0.02895744 0.018681102 0.37092066 0.32935703 0.21333912 -0.54145354 0.20873925 -0.060610797 -0.4954413 -0.11830805 -0.26805672 -0.18370941 -0.34073967 0.1648859 -0.14609948 0.32094917 0.08779749 -0.44587392 0.24338594 0.8432853 -0.47545344 0.06883942 0.21110906 0.15203431 -0.678274 -0.5446524 1.0964581 0.17021672 0.3868497 -0.12831458 0.20881206 0.36080712 -0.041152045 0.29864043 -0.35581446 -0.27751532 -0.05608629 0.2524678 0.2805983 0.51936823 0.27297863 0.20111348 -0.09264268 -0.2566981 0.29579172 -0.2723203 0.80629724 -0.4547432 0.29572007 -0.19378376 -0.40352282 -0.4105683 -0.621188 0.64093906 0.0227786 0.005126438 -0.19163604 0.44112667 -0.0364053 -0.14543727 -0.1999353 0.6895344 -0.09581709 -0.20609151 0.51339376 -0.08447994 0.056733415 -0.20467532 -0.26333374 -0.10978614 0.3708082 0.06573931 -0.16351727 -0.33770078 0.032828074 -0.16243978 0.21699786 0.21112655 -0.34187815 0.21103445 -0.25690812 0.2163406 0.31022087 0.18819048 0.009518832 -0.25146013 -0.08459127 -0.5904056 0.6635343 -0.21200441 0.10601649 -0.25546518 -0.56418353 -0.39714754 -0.030579006 -0.15211208 0.42064327 0.26009664 0.2276645 0.12704103 0.105423756 -0.37430677 0.14326099 -0.26737857 -0.28639856 -0.09313691
9 -0.072093666 -0.32802638 0.016528904 -0.56880146 0.06255772 -0.025106877 0.0075144204 -0.5230671 -0.47612697 0.25757012 -0.009589756 -0.45856586 -0.110975094 -0.013913548 0.18045285 -0.1503725 -0.14554904 -0.40111524 -0.84855384 -0.27301836 -0.44131768 -0.064574346 0.1598185 -0.4945967 -0.062344056 0.19708368 -0.41940397 -0.47580713 0.08364189 -0.24772513 -0.5664585 0.20787069 0.10130045 0.20741041 -0.099725865 -0.09770998 0.04347197 0.19908017 0.018702101 -0.15016794 0.53091496 0.60710526 -0.28577602 0.008966421 -0.27344376 0.14032821 -0.45459232 -0.22482182 0.7031097 0.33267564 0.43227652 0.24101005 0.13860324 0.28182438 0.0024151483 0.39253488 0.6003894 -0.29462942 -0.28131878 0.33722007 -0.034656323 0.00919659 0.54329056 0.6304769 0.001543309 -0.17289104 0.28899628 -0.2687044 0.3501196 -0.5847669 0.24052718 -0.34271473 -0.2323416 -0.20248196 -0.09222579 0.31168425 0.3291288 0.1982005 -1.1903782 -0.27252325 0.15322836 0.013248731 -0.088933505 0.33795834 -0.4417454 0.7637832 -0.053984296 0.023284823 -0.0828848 0.5437565 -0.15949136 -0.036517482 0.09343208 -0.290929 0.17455272 0.38685536 -0.1233112 -0.27834195 -0.38097072 -0.26663736 -0.0033511333 0.049302455 -0.535147 0.68304116 -0.57385427 -0.4488437 0.44881415 0.23264338 0.35003996 -0.37753773 -0.29315785 -0.12039019 -0.092369914 -0.8014188 -0.7674038 -0.09593184 -0.4062185 0.5797108 -0.0064850817 0.3278099 0.11959582 0.19007543 -0.20564856 0.2466899 0.28769532 0.102986544 -0.441607 0.33637428
106 -0.17495994 -0.49739465 0.08675111 -0.16365373 0.23663503 -0.40199143 0.23849201 0.017965874 0.12675312 0.3724549 0.06971524 -0.40139303 -0.017493127 -0.17458972 0.20147927 0.42451495 0.21878046 -0.18087652 -0.49189925 0.23432344 -0.37176555 -0.27424705 -0.19021055 -0.40400037 -0.27228317 0.31117693 -0.24703282 -0.05412019 0.060653448 -0.40803495 -0.54235274 -0.091493115 -0.29910222 0.29817507 -0.05838026 0.79185563 0.063363105 0.24530113 0.30651492 -0.5853109 -0.5821071 0.8330685 0.029121457 -0.09448882 -0.02689411 -0.60485506 -0.5539011 0.030068958 0.45890856 -0.15336914 -0.010738052 -0.038086094 0.33961147 0.7960666 -0.04417739 -0.3563178 0.11756379 0.16717327 0.06250512 -0.26488295 -0.48433912 0.38935408 0.4803974 -0.27251557 0.30965623 0.15961474 -0.20174007 -0.0786191 0.3516277 0.0033602195 0.014951361 -0.4794284 -0.42944995 -0.038946602 0.08223878 0.4178353 -0.3565525 -0.23859459 -0.41363338 0.29573193 -0.04825122 -0.16928214 0.28065598 0.2946547 -0.17816779 0.3679491 0.32824534 -0.42934427 -0.05925268 0.59722096 0.41719022 -0.5016196 0.05497701 0.14073262 0.28964114 0.41978315 -0.21396747 -0.18530457 -0.021702627 -0.14901496 -0.46629044 -0.008260888 -0.32635775 0.25397557 -0.20482737 0.28392506 0.026532682 0.27621612 0.1710876 -0.45135212 0.07211955 -0.88210034 -0.121602304 -0.757471 0.02178475 -0.27933002 0.1387997 0.36508456 -0.16098523 -0.054807838 0.009759744 0.6208068 0.024642378 0.112622246 0.16424203 0.3327512 0.039860535 0.36518312
11 0.17274863 -0.22488213 -0.117156476 0.27600625 -0.2265574 -0.56760716 -0.12809551 -0.46092427 -0.2030995 0.28054717 -0.04830872 0.049480755 -0.20418552 -0.06292122 0.7245853 -0.24138506 0.002918447 0.0652427 -0.6595946 0.52559006 -0.31807214 0.27103043 -0.1398852 -0.7206962 0.03814324 0.69412094 -0.28314522 -0.45118803 0.20075707 -0.17532007 -0.87479347 -0.08237701 -0.0015084463 -0.20185955 0.12036845 0.23452443 0.27783084 0.5724789 -0.022273708 -0.16764463 -0.2259039 0.35555717 0.057965666 0.28488258 0.18534894 0.46537754 -0.98426306 0.028362738 0.7044714 0.2769514 -0.06817098 0.6526609 0.54214454 0.44830438 -0.4548962 0.8427565 -0.0744556 0.01395129 0.37666383 0.007404481 -0.44274905 -0.010254789 -0.08287406 0.2505145 0.12011176 0.06615781 0.514679 -0.5304887 0.035871148 -0.5497954 -0.20377916 -0.4828023 -0.2283801 -0.40328905 -0.03652141 0.363918 -0.21895969 0.056630317 -0.4105239 0.26804358 -0.4907838 -0.19218953 -0.3196476 0.6771991 -0.32869217 0.1894364 0.115180425 -0.022825284 0.31982613 0.11785295 -0.44483534 -0.1724369 0.22020048 0.40108836 -0.2891217 0.7497268 0.002156522 -0.22240707 0.13937567 -0.46102637 -0.84376734 0.01263885 0.52438766 0.8526631 -0.35072082 -0.18931141 0.5558671 0.20724955 -0.21219452 -0.1653275 0.078867406 -0.10664913 -0.05729619 -0.35035664 0.44340768 -0.3621059 0.43467873 -0.11913882 0.0075854654 0.029876227 0.059500244 -0.18912531 0.08475146 -0.20718516 0.11840635 -0.19730608 0.41870338 -0.05598573
54 -0.46323806 -0.27026278 -0.33523443 -0.19674015 0.3411528 -0.34170002 0.17424347 0.103467375 0.14364497 0.22949599 0.06165662 -0.41620263 0.24496368 0.4312579 0.32780057 -0.015527451 -0.0034822358 -0.5580782 -0.4637984 0.51880354 -0.2122437 -0.14174804 0.19922364 -0.21131276 -0.33060598 0.09164316 0.23690844 0.17278175 -0.54385185 -0.025922267 -0.41561863 -0.7570245 -0.3812948 -0.4996454 -0.14923352 0.21978147 -0.6987154 0.08117157 -0.038584765 -0.70753634 -0.34357974 0.5394383 -0.6233759 0.019258996 0.02729426 0.5670423 -0.20628686 0.3150916 0.41622755 0.586869 0.20526733 0.3447514 0.9034227 -0.18354343 -0.6232878 0.6493405 0.13887669 0.30488527 0.05234896 0.36145264 -0.4078813 0.11443375 -0.008839947 -0.22642045 -0.015009195 -0.029128766 0.20535986 -0.4318657 0.28321993 -0.07671291 0.17113535 -0.20841372 -0.16245916 -0.18039964 -0.020903205 -0.27403277 0.6602266 0.07937404 -0.5095874 -0.06517908 -0.2646563 -0.076886296 -0.06479849 0.40292585 -0.02612304 -0.08454251 0.772977 0.38829687 0.008057346 -0.06989904 0.18401508 -0.6030592 0.28405917 0.1847618 -0.15233044 0.38860077 0.012818572 -0.49886057 0.051951278 -0.21264586 -0.94361216 -0.20429063 -0.13025218 0.44758707 0.09948449 -0.031651817 0.088726334 -0.0299599 -0.3264661 -0.21455033 -0.239689 -0.13991088 -0.09719353 -0.63605577 -0.72843504 0.22114648 -0.19763386 0.1922572 0.34305027 -0.02366226 -0.052266497 -0.07432602 0.034778167 0.08527153 0.10986427 -0.25886065 -0.14303069 0.041031294
104 -0.10163742 -0.07817038 -0.188942 -0.073246785 0.525347 0.09084681 0.39084342 -0.23538221 0.15973358 0.38765636 0.19281057 0.056898817 0.06496356 -0.014455833 0.88318753 0.33615154 -0.09216097 -0.22600001 -0.764058 0.40106532 0.18953381 0.2793698 0.09126299 0.07551863 0.032566123 0.8844025 0.0052024126 -0.27179328 -0.37829202 -0.00869575 -0.71132106 -0.32132313 0.2963916 0.033381537 -0.67686135 0.09360424 0.31665844 0.322606 0.47839358 -0.65381116 -0.5540648 0.36300293 -0.076318644 -0.42067757 -0.43032876 0.126338 -0.6385149 -0.30444273 0.66334033 -0.067853965 0.5475664 -0.13118856 0.17844118 0.29964873 -0.3635089 0.5456386 0.48927802 -0.01045596 -0.15389952 -0.08558418 -0.8986538 -0.013972847 -0.16126531 0.17623436 0.32945132 -0.21476024 0.50814825 -0.37008703 0.2705267 -0.17291103 0.10338471 0.57380784 -0.48860484 0.44268692 -0.40173906 0.6040246 0.2876865 0.68869895 -0.77076465 0.15215419 0.15311201 0.2043394 -0.4845922 -0.11411479 -0.43066478 0.22034572 0.31920022 -0.19401698 -0.44499204 0.35810983 0.10483781 0.026807833 0.16202483 -0.2665082 0.19388525 -0.18842249 -0.25865307 -0.4313827 0.23582241 -0.34566125 -0.46542728 -0.085985504 0.2663883 0.44404188 -0.18261728 -0.11654965 0.21618836 0.756921 -0.19550887 -0.4015974 0.4188235 -0.04982747 -0.3620801 -0.32515383 0.15172035 -0.13849033 -0.26593387 0.2697747 0.28859332 0.29223374 0.46321592 -0.118603274 -0.18228354 -0.3705903 0.37598968 -0.41221586 -0.17130777 0.03876321
74 -0.31939447 -0.011345321 -0.18684241 0.06764056 -0.2850088 -0.026127271 0.42890826 -0.34769875 -0.16223678 0.60108125 -0.2049864 -0.6169641 0.45413315 -0.40139863 0.98039067 -0.03631055 0.30060017 -0.5693675 -0.26671344 -0.11335744 -0.69217527 0.5203593 -0.40772772 -0.8134442 0.019482024 0.13142328 0.0033744422 -0.11133952 -0.3108609 -0.033142123 -0.26494128 -0.1719849 -0.629423 -0.1677623 -0.20641278 0.30773264 0.28081012 0.6826639 0.05312573 -0.5143349 -0.046221536 0.192556 0.24071148 0.34839875 0.2596447 0.3744947 -0.87840414 -0.43744034 0.8613651 0.18257117 0.30462086 0.03429429 0.30235133 0.0020559793 0.6779598 -0.010125281 0.0009495957 0.29691052 -0.00638777 0.04920457 -0.08576702 0.3213431 0.35938093 -0.12856479 0.07373064 -0.33247942 0.061521485 -0.2692674 0.5800668 -0.46632817 0.29674935 0.16287816 -0.86671364 0.13297941 -0.36376905 -0.09882759 0.72289217 -0.2308302 -0.39499968 0.5073296 0.033386204 0.23050739 -0.28675967 0.43019083 0.1266567 0.20949157 0.50874037 0.30238825 -0.061912093 0.084368885 0.09871808 -0.39039597 0.20152335 0.29188746 0.2738173 0.5396735 -0.033917315 0.030813739 -0.23859614 -0.17091547 -0.10274592 -0.11138042 0.13446061 0.28294504 -0.077049576 -0.48625556 0.4782055 0.38937578 0.11651464 -0.009456121 0.5022992 0.44931015 0.011827769 -0.07232237 -0.18559742 -0.21719055 0.007975197 0.35661572 -0.1880227 0.34132475 0.6704343 0.37423488 -0.104055285 -0.74552214 0.54112375 -0.027443485 0.3215109 0.4827363
35 0.5748346 -0.5278447 -0.22559367 0.3675537 -0.0032692533 -0.6340396 -0.028240386 0.351603 0.43681678 0.7030172 0.028551452 -0.399592 0.46448773 0.036311526 0.26842704 -0.21806946 0.05304362 -0.16485599 -0.32345948 0.35517877 0.13670567 0.44845194 0.091289744 -0.315191 -0.050816257 0.1687801 0.045254312 -0.82458776 0.291249 -0.13414794 -0.50434834 0.050824884 0.33493167 0.24843787 -0.39176184 0.2644722 0.069995046 0.533784 0.13984486 -0.3384272 -0.08104184 0.714449 -0.186603 -0.23585105 0.3639623 -0.06428107 -0.57019967 -0.2021103 0.6641927 0.6394043 -0.07623748 0.15146422 0.30376604 -0.23400068 -0.31079412 0.5618595 0.100601934 0.24356884 -0.16348174 0.6056813 -0.110163964 0.595201 0.22205795 -0.11997318 0.61329585 -0.3085354 0.26902813 -0.6838563 0.995653 -0.39238018 0.3912843 0.19900662 -0.54177433 -0.05596484 -0.34938622 -0.1279386 0.1985507 0.23286764 -0.40623116 0.80466217 -0.26946718 -0.06651154 -0.15539789 0.39766717 0.053919457 0.47943127 0.29669866 -0.06608335 -0.28962147 0.6197469 -0.117141575 -0.38385954 0.031213474 0.04852789 -0.00489662 0.48361102 -0.27641734 -0.4948764 -0.040937793 -0.028511873 -0.25301945 0.18547097 -0.5468451 0.12151802 -0.15794331 -0.08007532 0.06878751 0.42354196 0.061345235 0.23535348 -0.113211535 -0.47706237 0.05512881 0.032291304 -0.42632616 -0.14721414 -0.109681696 0.28907004 -0.03516659 0.5129933 -0.17104022 -0.6781822 -0.15709968 -0.43755874 0.46205285 0.28780293 0.03035602 0.5779861
34 0.5886951 -0.4773005 -0.39980593 0.49818027 0.028400097 -0.5198215 -0.015905978 0.33465055 0.31707403 0.81374395 -0.12336515 -0.4149271 0.5234935 -0.19606917 0.30268982 -0.22309089 0.12206258 -0.13252017 -0.46466646 0.3685289 0.12906633 0.41553125 0.3442781 -0.3634129 -0.08461779 0.27024072 0.07447383 -0.647298 0.25126937 -0.16236565 -0.48091158 0.17930023 0.17845178 0.2826989 -0.5223912 0.24481131 0.041404232 0.51730335 0.21568929 -0.27621636 -0.092950806 0.6708022 -0.35266596 -0.2608904 0.103550255 0.017477846 -0.48916048 -0.07917617 0.46273848 0.5703248 -0.20553593 0.08362642 0.4654891 -0.004334546 -0.3399714 0.62372255 -0.048371356 0.070534 -0.17935914 0.622621 -0.09578717 0.68771887 0.4870572 0.059580896 0.4312707 -0.3889134 0.2644395 -0.6113498 0.98028815 -0.31757817 0.28849825 0.088208504 -0.39854768 -0.07275745 -0.4794978 -0.1732827 0.25140813 0.34235153 -0.57114947 0.8032089 -0.47563833 -0.088134594 -0.24770862 0.220298 0.016949382 0.5221196 0.2093529 0.068716556 -0.36078343 0.7356189 -0.037411258 -0.49138072 0.068074785 -0.018016296 -0.0764237 0.2583168 -0.06602045 -0.61439764 0.006710669 -0.19500467 -0.18993595 -0.08600499 -0.37380752 0.12275596 -0.23029989 -0.37635633 0.028224401 0.4852799 0.25692588 0.18032035 -0.19678554 -0.42390215 0.24398677 0.0320818 -0.26939496 -0.094829336 -0.12918508 0.322821 0.04620723 0.4302503 -0.2802388 -0.7497905 -0.21873675 -0.38565558 0.47829947 0.23523448 0.08477332 0.42655495
75 -0.29278055 -0.062246457 -0.28896245 -0.06249975 -0.11481157 -0.017753296 0.38803503 -0.28736526 -0.08026539 0.51254255 -0.1914765 -0.62653196 0.40530023 -0.48650107 0.91539115 -0.213208 0.24503078 -0.647747 -0.47060078 -0.23043928 -0.6350199 0.39581692 -0.31691745 -0.8700454 -0.014832196 0.20154129 0.093469836 0.074199155 0.081722006 0.11654084 -0.3218178 -0.07935151 -0.5823583 -0.16826263 -0.31770948 0.24673906 0.16825305 0.7313265 -0.16449046 -0.54889333 -0.0151606 0.204827 0.079856575 0.29112053 0.08065175 0.27620992 -0.8514565 -0.507896 0.9104555 0.21155989 0.24423966 -0.042837996 0.2894442 0.0683465 0.49353933 0.053896528 0.16784465 0.09655535 -0.069588654 -0.0011404302 -0.073219575 0.4567405 0.309766 -0.34105447 0.10685326 -0.3225197 0.014923228 -0.13588007 0.47096136 -0.5163201 0.43157032 0.16345732 -1.0536901 0.09610404 -0.29297093 -0.043247245 0.60699344 -0.3114193 -0.4326756 0.3708011 0.04400321 -0.1104317 -0.2810283 0.48095763 0.0033121016 0.23842475 0.5812406 0.39319992 0.12303287 0.071216255 0.20797853 -0.40179366 0.2761965 0.36108622 -0.002094312 0.4732697 -0.027941775 -0.26401868 -0.38287538 -0.12112331 -0.008739452 -0.13303278 0.08454758 0.3900557 0.08178335 -0.55603087 0.549905 0.029818397 0.21209401 0.15841788 0.46874204 0.43702194 0.23566677 0.064968616 -0.20798631 -0.11789422 -0.057837196 0.47753403 -0.18181829 0.13663684 0.5720311 0.38645655 -0.032804757 -0.61477184 0.50893945 -0.003188887 0.27920392 0.46730927
103 -0.14009896 -0.15742852 -0.13338956 0.12503077 0.5966593 0.017550308 0.4276074 -0.39053217 0.205446 0.34229288 0.08751476 -0.06963946 0.11106154 -0.29815254 0.85052305 0.47246394 -0.07135896 -0.25350767 -0.6987898 0.20812371 0.07124004 0.31385574 0.13819057 0.062467035 0.1868462 0.9282583 0.05213267 -0.18764807 -0.21200632 -0.306988 -0.698144 -0.5820438 0.21523488 0.09914223 -0.6386154 0.31342018 0.39446452 0.1964798 0.530446 -0.7508434 -0.6266581 0.34649807 -0.16069628 -0.33958024 -0.22986966 0.22697207 -0.6347655 -0.40145683 0.65544194 -0.10883305 0.662041 0.15471439 0.25356013 0.13115774 -0.49550247 0.38815635 0.5021061 0.08602812 -0.1734178 -0.121705696 -0.9153911 0.10466192 0.08987494 0.23337406 0.20652388 -0.10257485 0.7140866 -0.38095242 0.30817908 -0.14983313 0.15512262 0.6245408 -0.54020685 0.34276238 -0.26934168 0.6654157 0.3117274 0.5594913 -0.6909145 -0.0038786859 0.14419675 0.27508742 -0.3089786 0.028788902 -0.47453186 0.27834094 0.42533153 -0.08446604 -0.3712442 0.40362936 0.035019804 0.14508592 0.2521265 -0.08420891 0.047539487 -0.15457977 -0.23268723 -0.4482979 0.17085625 -0.14033444 -0.37002513 0.049889565 0.30375072 0.45790347 -0.059151113 -0.02491788 0.20504601 0.7134769 -0.13402012 -0.20811154 0.26778817 0.085302755 -0.4581924 -0.18640304 0.38721156 -0.14455652 -0.08978865 0.22518066 0.12123197 0.30220145 0.5174568 0.05633025 -0.076364465 -0.31150836 0.39830554 -0.52811074 -0.0307515 -0.06320306
8 -0.111832805 -0.025594441 -0.3954134 -0.23576544 -0.13278034 0.0042773774 -0.2423719 -1.0344409 0.4089406 0.81296504 -0.08267549 -0.3883523 0.37426358 -0.18219206 -0.08526893 0.4817844 0.08843595 -0.74885863 -0.5555628 -0.36889082 -0.5389912 0.6109656 -0.25312018 0.17569178 0.29272813 0.22067668 0.018630432 -0.344226 -0.0004003233 0.27485907 -0.9675169 -0.35636923 -0.61503077 -0.1283666 -0.097383976 0.15099996 -0.108990625 0.103864335 0.6601737 -0.28513172 -0.19520278 0.36900795 -0.6043183 -0.027699342 0.30582145 0.36002025 -0.83330476 -0.1460539 0.5353534 0.43372035 0.08143851 0.18615836 -0.14381324 -0.18775594 -0.44682577 0.090070225 0.0187865 0.00862057 0.0038662695 0.25366077 -0.66963625 0.4712955 0.16241977 0.11198027 0.32136297 -0.43203628 0.38347217 0.08709726 0.12802829 -0.6221701 0.23930529 0.2341952 -0.31034455 0.21716437 -0.37343356 -0.19149679 -0.27684703 0.032532766 -0.2937394 0.5834742 -0.018691245 0.18904784 -0.41845265 1.0321814 -0.03325518 0.56819427 0.35091382 -0.25112215 0.30492172 0.10829935 0.07304474 -0.27006194 0.56555784 -0.07094191 0.14215232 -0.05019425 0.10589317 0.118870184 -0.15403579 -0.19955666 -0.38832 0.36575055 -0.55054957 0.5622098 -0.16309434 0.03413931 0.5713541 0.3491732 -0.37446076 -0.05246796 0.25938788 -0.7839097 -0.20444761 -0.19500262 -0.27230987 0.008901721 0.1618132 0.30113074 0.08810654 -0.05769532 0.1826516 -0.003111268 -0.30633608 0.30943108 0.2188104 -0.20833446 -0.22143134 -0.12909575
25 -0.30381063 -0.13021174 -0.41778302 -0.12864 0.23446634 -0.2179423 0.035459395 0.09074702 0.059849128 0.19204538 -0.314234 -0.20866212 0.40229264 0.5250098 0.43591067 -0.23706837 -0.21239951 -0.41959813 -0.19868124 0.070582405 -0.21845186 -0.16702336 0.037684456 -0.51353294 -0.5125189 0.13732041 0.21154131 0.5834467 -0.58179736 -0.058255218 -0.70299625 -0.6291486 -0.09919358 -0.18408431 -0.24996349 0.06731517 -0.55086344 0.4558242 -0.028174711 -0.63724715 -0.16036731 0.61212 -0.5959424 0.06462761 -0.039304625 0.45824033 -0.04742528 0.13933724 0.6190569 0.16069196 -0.18484065 0.35094586 0.2283865 0.1325749 0.21693273 0.44685516 -0.24648787 0.26291153 -0.12284814 0.37206605 -0.29532227 0.57887644 -0.03305849 0.029705288 0.32689008 -0.3141168 0.031660225 -0.22538804 0.44696894 -0.44903055 0.19916734 -0.25237003 -0.49080688 -0.22104985 -0.18920888 -0.21487755 0.36949137 0.06790636 -0.60092354 0.08041947 -0.04212136 0.26125547 0.060254082 0.2153043 0.11167758 0.069816545 0.47697985 -0.08076073 -0.3274849 -0.6325584 -0.0018752684 -0.034475137 0.124017835 -0.080352545 0.043095674 0.14432982 -0.36788845 -0.6687917 0.10527682 -0.25605336 -0.90647656 0.0364982 0.40404552 0.25002956 -0.2377747 0.02676292 0.15551023 -0.14061569 -0.2758202 -0.38678595 -0.44629535 -0.32340446 -0.45045242 -0.2833247 -0.37491292 0.5562306 0.055453725 0.092467844 0.64387554 0.23795727 -0.008691756 0.08055806 -0.2680696 -0.09627703 0.25792602 -0.10435287 0.1696656 -0.12156091
10 0.20602342 -0.029091602 0.017566286 0.4828894 -0.24795173 -0.53913194 0.15093939 -0.5995296 -0.34559557 0.15445442 0.10258569 -0.008882226 -0.3368969 0.013112957 0.8026877 -0.38267112 -0.12320346 -0.032119006 -0.74588543 0.31874877 -0.41091636 0.33598334 -0.2611054 -0.63778746 0.005676877 0.6953667 -0.17845987 -0.21828979 0.053406294 -0.21170044 -0.6985967 -0.16953534 -0.11516783 -0.32612008 -0.14216657 0.15456288 0.27179492 0.60201395 0.05393969 -0.16961928 -0.27899614 0.41519874 0.1149223 0.28068393 0.09153994 0.47069958 -0.9504112 0.2053347 0.91010565 0.36614895 -0.070082515 0.52954215 0.48989475 0.42619264 -0.42403504 0.6327634 -0.019450622 -0.22404711 0.29677796 0.20295621 -0.25554922 0.014303669 -0.1413684 0.32913077 0.18519793 -0.07461618 0.22847743 -0.5051988 0.14544854 -0.58009636 -0.116310894 -0.43298525 -0.253317 -0.48846033 0.11388154 0.29465035 -0.16665013 0.19375612 -0.3991821 0.23809414 -0.5234436 -0.2714834 -0.31276634 0.74703825 -0.6782763 0.26959756 0.19238737 0.021800904 0.37405518 0.16510369 -0.44292927 -0.105894886 0.060241234 0.38142222 -0.35606316 0.7555391 -0.06731123 -0.239241 -0.04665969 -0.2473817 -0.7317354 -0.029274786 0.51865536 0.9729482 -0.34070486 -0.13487217 0.61962503 0.09882643 -0.14305347 -0.11718937 0.17301048 -0.020831475 0.08436524 -0.21462679 0.35922027 -0.35706857 0.23825155 -0.020293266 0.022014167 -0.08960795 0.018712627 -0.0028083764 0.06794884 -0.09213788 0.060275506 -0.2756457 0.30946952 -0.12543555
-0.04608272, -0.38059863, -0.3007064, -0.10318119, -0.17157456, -0.10328145, -0.013040159, 0.18156458, 0.12359756, -0.021596624, 0.18092503, 0.3871925, -0.42699486, 0.18430068, 0.19066332, -0.30025867, -0.22374368, -0.0410871, -0.0483035, -0.16514114, 0.08178098, 0.1729086, 0.11037792, -0.43576568, 0.23402332, 0.5728449, 0.11256782, 0.37616944, 0.14155132, 0.05196795, 0.05269994, -0.1284763, -0.08886413, -0.111397, 0.022718657, 0.027606055, 0.08102764, 0.19341965, -0.28401333, 0.03620239, -0.4103391, 0.22368492, -0.19173932, 0.3745824, 0.028165301, -0.5144881, 0.10886446, -0.22775441, 0.34125888, 0.04657206, -0.3645838, -0.2979452, 0.112987846, -0.09252355, 0.0718566, -0.06427821, -0.3016715, -0.053843115, 0.41292626, 0.01946359, 0.21973123, 0.42784256, 0.052557178, -0.009085913, 0.055349126, -0.22524434, 0.17193854, -0.23789266, 0.05981311, 0.10419971, 0.012021428, 0.050249808, 0.006319795, -0.3430943, 0.038671497, 0.025304224, -0.19613464, 0.12743467, -0.14935823, 0.22461194, 0.14894907, 0.41455412, 0.05705372, 0.46901885, -0.107238516, 0.026967559, 0.15366635, -0.09050042, -0.53050894, -0.06533662, 0.14688046, -0.11641975, -0.30391318, 0.15376937, -0.07506618, -0.13929583, -0.19033843, 0.18605925, -0.12211121, -0.093348615, -0.12515613, -0.23827438, -0.19809505, -0.22635756, 0.014466093, -0.030560505, -0.3878114, -0.12088575, 0.09150943, 0.06816841, -0.12881088, -0.45811182, 0.0010493477, -0.025115304, 0.31016296, 0.37941948, 0.45256603, -0.25068337, -0.029767483, 0.19665411, 0.032094415, -0.2487051, 0.46806172, -0.43931675, 0.16403474, 0.11928889, -0.02618416, 0.2832693, -0.40642533, 0.17986558, -0.12556618, 0.008022271, -0.42263475, -0.44664633, 0.04199728, 0.3540972, -0.11671005, 0.2027929, 0.24695428, 0.16347933, 0.26502636, 0.20361722, 0.32177076, -0.42280436, -0.05937238, -0.21152432, 0.21711493, 0.2734731, 0.09045593, 0.045136124, 0.026042357, 0.17542091, 0.008112128, -0.23006581, -0.17290914, 0.16455169, 0.004651993, -0.06871127, -0.12088238, 0.45831865, 0.32608375, -0.27646667, -0.16712669, 0.062484317, 0.0049324227, -0.11020895, -0.07887008, -0.18920071, 0.18825617, 0.06141346, -0.08003662, -0.037182104, -0.3680672, -0.019375734, 0.23848122, -0.19456428, 0.106407315, 0.422858, 0.1238199, 0.090671085, -0.08774879, 0.10589193, 0.34019548, 0.046535917, -0.048077054, 0.40319085, 0.06198489, 0.06984442, 0.30981702, 0.2503715, 0.035679445, 0.21181367, 0.01564683, 0.18955742, -0.039001346, 0.1085, -0.17278081, -0.26056805, 0.025722317, 0.14110121, -0.017827842, -0.021827864, 0.004758409, 0.1409493, -0.08876903, 0.09069106, -0.1587111, 0.13895631, -0.49942005, 0.10367362, -0.24020875, 0.44432566, -0.10112442, 0.043050464, 0.41854894, 0.28946844, -0.19908735, -0.29849052, -0.02872955, -0.03637543, 0.2880462, -0.032255396, 0.26636145, -0.13098253, 0.12169437, -0.30957693, 0.08775727, -0.3367169, -0.043762214, -0.075048886, 0.030874161, 0.28124553, 0.31899127, 0.0238689, -0.08504282, 0.34388664, -0.08366391, -0.5229568, 0.15831336, -0.32358956, 0.07843105, 0.06659838, -0.29473922, 0.5636104, -0.047017746, 0.059526343, 0.15496533, -0.053051587, 0.3202429, 0.17222415, -0.084172405, 0.15700412, -0.18125269, -0.10369836, -0.17584674, -0.25538877, 0.247185, 0.2738014, 0.36224437, 0.28022677, 0.15282889, -0.18950817, -0.654742, 0.24050318, 0.0019081817, 0.06625499, -0.063179925, -0.15793326, -0.11054917, -0.22982797, 0.02006797, -0.02261235, 0.321012, 0.23018402, -0.01796801, -0.09021896, 0.121071525, 0.25444737, -0.0102415625, -0.2500723, 0.1689873, 0.14562552, -0.047902696, -0.18523651, 0.32892874, 0.2445204, -0.008999941, 0.2525166, -0.052154873, 0.27965966, -0.31829417, -0.06117446, -0.034997545, -0.033601947, -0.16774905, 0.11896884, 0.27276498, 0.004997772, -0.19020753, -0.10152311 -0.28380224 -0.4893041 -0.31324184 -0.24048789 0.26402926 0.25786108 0.026913168 -0.27419022 -0.08683037 0.16925722 0.158761 0.11529393 0.25166076 0.18914784 0.33891767 -0.010656675 0.017780254 -0.06762743 -0.118678614 -0.2707001 0.052256327 0.19794773 -0.03257859 -0.14394855 0.35890824 0.2240205 0.43399534 -0.07708201 -0.38044903 -0.37370872 0.0074807396 -0.41233122 0.16166605 -0.24799249 0.05642986 0.14869285 0.09597347 0.16799031 -0.19034278 -0.39791393 -0.3196734 -0.006239233 -0.3884406 0.027086195 0.07284188 -0.021700367 -0.41731665 0.118593216 0.8208614 0.24191216 0.23801127 0.28493565 0.05402404 0.41203964 -0.18244532 0.2239051 -0.20469144 0.012573711 -0.25055096 0.20429073 -0.14077055 0.16570085 0.29520136 -0.1526705 0.48595068 0.19516705 -0.013707644 0.04462137 0.25726995 -0.1804408 0.2628723 -0.45958358 -0.17817618 0.22895885 -0.6044218 -0.37110057 -0.45070836 0.17779079 -0.100377284 0.245363 -0.7184289 0.12934051 -0.51057184 0.58296764 -0.2238281 0.41469342 0.32285622 -0.16217145 0.102567196 0.22124359 -0.04010859 0.5023337 0.7938376 -0.12361107 -0.19664398 0.5668701 -0.032877196 -0.010918557 0.2386865 0.08693742 -0.31672016 -0.17089513 0.097961016 0.115765035 -0.3638612 -0.69297963 -0.08059644 0.341151 0.2612476 -0.22587323 0.02462118 -0.04651371 0.20409141 -0.4056419 -0.3619792 0.047234662 -0.10767053 0.17835535 -0.4476854 0.05676714 0.048114993 -0.11663148 0.10173294 -0.56599563 -0.16362818 0.075564966 0.2883469 0.5672591
112 0.19490735 -0.20028439 0.2502727 -0.5295507 0.30945835 -0.33059016 -0.010366364 -0.35050592 -0.2616672 0.1590241 0.47729748 -0.0747652 0.001791335 -0.2115576 0.2678396 0.24450158 0.429457 -0.18995892 0.0841747 0.4808151 -0.0657066 -0.022197647 0.18558201 -0.15614776 0.6165902 0.21930127 0.47844127 -0.33733913 -0.035381623 0.024287999 -0.14236125 -0.008540535 -0.24396265 -0.16838694 -0.3924741 -0.19182102 -0.24710387 0.45437223 -0.17592126 -0.33359852 0.09134711 0.66709214 -0.35049528 0.09446357 0.190297 0.06949417 -0.5030211 -0.3721805 0.95802456 -0.13312092 0.2583569 -0.098361 0.25191998 0.36067367 0.07156739 0.24954833 0.008400904 -0.08622543 0.31238058 0.026168538 0.09870945 0.7279605 0.33772957 -0.06863237 0.1528696 -0.6061119 0.19336727 -0.47702736 0.8425204 -0.34768632 0.08045401 -0.31249082 -0.09006547 -0.3797097 -0.62383085 0.51148623 0.12172685 0.004804465 -0.5095859 0.06306501 0.1346636 -0.31586546 -0.34180647 0.6850539 -0.07427278 0.035527587 0.35190204 0.109912045 -0.57671714 -0.25403845 -0.4137331 -0.1487389 0.23708507 0.087823205 -0.18125443 -0.33955657 0.18343577 0.1659843 0.1518031 0.24977204 -0.36897904 -0.10854023 -0.23394242 0.25558197 0.2509333 0.008370901 0.024396319 -0.14010336 -0.2414768 -0.6815622 0.8082761 -0.28490612 -0.12344735 -0.5021479 -0.18808557 -0.27814043 -0.07296154 -0.16958743 0.06568795 -0.037489787 0.14225861 0.040797487 0.2153714 -0.3293303 0.12794612 -0.055509508 -0.15006681 -0.017419707
109 -0.0635023 -0.08782723 0.08510802 0.36664945 0.6160974 -0.12061632 0.16120246 -0.51741534 -0.45616323 0.66142356 -0.34020174 -0.20756814 -0.17209166 -0.38688052 0.087173544 0.049507435 0.17017612 -0.10889375 -0.27561963 0.03328788 0.08092131 0.16090578 -0.29405332 -0.31518865 0.056038167 0.31772387 -0.027930021 0.36056232 -0.23244236 0.12183112 -0.25869125 -0.26962528 0.3682965 -0.17641303 -0.09527421 -0.24338579 0.04524893 0.252753 -0.59421676 0.16340813 -0.63315034 0.29486746 -0.6103099 0.30753458 0.14686504 0.2702496 -0.16163057 -0.06598402 0.40783003 0.6517306 -0.40007165 0.2683568 0.13342983 0.035213422 -0.81401205 -0.10098902 0.2916263 0.2648215 -0.41764316 0.036135625 -0.041286368 0.4075755 0.627332 -0.07464197 0.2308705 -0.4611592 0.5302604 -0.35721633 0.37108243 0.027949624 -0.026611637 0.20176205 -0.33255377 -0.0381199 -0.37740207 0.29196987 -0.10134469 0.088966526 -0.8087713 0.46023244 0.25034946 -0.3589067 0.26061684 0.2686258 -0.24915601 0.26979426 0.416536 -0.4242884 0.08461076 -0.22662123 0.22190562 -0.105088264 0.015984995 -0.034021363 -0.4396374 0.30750898 0.12476709 -0.53385895 -0.15814026 -0.48208135 -0.26693374 -0.2168565 -0.029613692 0.85225964 -0.27097857 -0.200212 0.4563262 0.30147877 0.07867942 0.120449565 0.5562416 -0.4211896 0.0047004856 -0.19644357 -0.72382 -0.49638745 0.33484572 0.023053009 0.20366076 0.110730365 0.2506442 0.15384117 0.33358464 -0.36625567 0.27185658 0.08236772 -0.17160304 0.411657
107 -0.17006426 -0.25644594 0.16595834 -0.0978041 0.30943504 -0.19752781 -0.1532235 -0.7856697 -0.09587018 0.41618893 -0.1917195 -0.07843746 -0.18147984 -0.08923114 0.3612226 -0.11123112 0.39621457 -0.010143121 -0.29709595 -0.024472693 0.18767443 0.095363535 -0.1725606 -0.4647533 0.26048604 0.61090964 -0.2077472 0.07995927 -0.29783008 -0.16283499 -0.45705137 -0.06438929 0.18441013 -0.2689788 -0.13391757 -0.1693152 -0.14631285 0.029102042 -0.80712336 0.11639696 -0.72650534 0.0458119 -0.4789305 -0.06391021 -0.2150099 -0.07159546 -0.31801268 -0.36374196 0.34475937 0.7524545 -0.18899955 0.0639239 -0.015456113 0.26029408 -1.1300348 0.24886112 0.16430691 0.4407839 -0.35423785 0.2239308 -0.2312459 0.4923457 0.48156637 -0.20856945 0.39871085 -0.38124657 0.5723239 -0.3040775 0.5692514 0.03809334 -0.020878756 0.22729142 -0.3537839 -0.11038959 -0.22907259 0.19100486 -0.30190226 0.1611788 -0.8931416 0.1958512 -0.10928487 -0.25548095 0.24824731 0.4466879 -0.37026677 0.17406373 0.37396324 -0.6590269 -0.13415927 -0.21090847 0.16773771 -0.2831693 -0.09927727 -0.005637521 -0.33623335 0.30839244 0.19222893 -0.69905984 -0.12487491 -0.36536217 -0.36754462 -0.11273698 0.07118539 0.6784479 -0.3156478 -0.38006872 0.4775322 0.43738788 -0.12724924 0.0747764 0.16644047 -0.8105423 0.26753148 0.18097562 -0.53568023 -0.25602853 0.19287053 0.11224525 0.4335961 -0.071757846 0.13092636 0.2718008 0.20265451 -0.21208657 0.55323994 0.1430915 -0.3311099 0.40774304
115 0.37758854 -0.55535465 0.26235306 -0.4312571 0.52212626 0.2297346 0.23461765 0.16230826 0.06267861 0.29380158 -0.3764372 -0.107516825 0.07283362 0.088876076 0.77701545 0.5392439 0.53481984 -0.26512486 -0.3630739 0.10901897 -0.4005896 -0.07349751 -0.5864707 -0.58239526 -0.114131585 0.8192094 -0.07900223 0.117068514 0.14180873 0.254832 -0.43875706 -0.32270423 -0.014264197 0.404323 -0.44153264 0.4395117 -0.05497015 0.052881088 -0.15827495 -0.3763357 -0.4763251 0.48652673 -0.43143043 0.043210875 0.30750012 -0.36899796 -0.53923005 0.16547999 0.25826752 -0.091713265 -0.06901496 -0.03809744 0.2999878 0.76236504 0.2112787 -0.32052398 -0.005769631 0.050508678 0.28601333 -0.011167815 -0.47944412 0.333322 0.32664022 0.011943145 0.23151626 -0.39102933 0.07274505 0.048271503 0.049839053 -0.55692893 0.026489045 -0.14260194 -0.7457634 -0.078902796 0.14678371 0.33527544 -0.08582179 -0.083679624 -0.40685537 0.07231401 -0.47235984 -0.023206996 0.114978954 0.69127333 -0.06873882 0.36427245 -0.18467402 -0.4373357 -0.073055066 0.38218832 0.034117077 -0.20436534 0.04177105 0.18685319 -0.05365246 0.4506386 0.020649383 -0.2293031 0.17248654 -0.36246726 -0.36079165 -0.16818725 0.06489069 -0.08476093 -0.0018667568 0.2848807 -0.24526316 0.1860158 0.23312825 0.20768556 0.3330448 -0.29748657 0.16148236 -0.13976632 -0.40741074 0.3556796 -0.3648714 0.17756094 0.4032598 0.015409884 0.38078597 -0.2578721 -0.19233118 0.28428861 -0.19122115 0.13696027 -0.18533482 0.09424713
55 -0.22446385 -0.22998567 -0.5385313 -0.053119116 0.2613614 -0.046559904 0.13561188 -0.12374097 -0.1008933 0.2469629 -0.044232313 -0.3032947 0.35538453 0.39562944 0.3143541 0.043969832 -0.12286162 -0.52413625 -0.08404388 0.31427974 -0.2072362 -0.1487184 -0.032688476 -0.41875774 -0.5455737 0.26820573 0.26338091 0.30349568 -0.65145135 -0.065412454 -0.38684434 -0.7241397 -0.20238991 -0.17454585 -0.20374727 0.14455584 -0.7555777 0.0772443 0.021273803 -0.59837466 -0.12451958 0.4754007 -0.48623532 0.0826397 0.13534912 0.4437078 0.019144237 0.33646283 0.3745568 0.43603262 0.15038127 0.20689523 0.6525743 -0.25601935 -0.24945316 0.58871746 0.060604494 0.019743836 0.1990036 0.4119177 -0.33944938 0.06733546 0.00059896195 0.044468343 0.122929685 -0.09727603 0.26751134 -0.38204396 0.3476366 -0.30251798 0.17332123 -0.39299133 -0.2668875 -0.2256315 0.14269729 -0.26539683 0.68775135 -0.03963399 -0.47759598 -0.086108856 -0.27007264 0.007971199 -0.10969508 0.3106218 -0.042830255 -0.08119237 0.50548446 0.114069 -0.053767122 -0.4102346 0.14256105 -0.39279708 0.25319722 0.16996177 -0.2621684 0.38093847 -0.32357416 -0.6409868 0.10471486 -0.22731426 -0.9470491 0.009598926 -0.027533853 0.11319894 0.07267651 -0.06915828 -0.026141621 0.020399995 -0.34403777 -0.10182844 -0.16558883 -0.13588817 -0.24670926 -0.5741749 -0.6527423 0.4403747 -0.20527896 0.046011325 0.44777694 -0.06552317 0.08801411 -0.03446492 -0.052492544 0.06729539 0.26225367 -0.23330316 -0.16412494 -0.03013153
108 -0.1578673 0.0030373542 0.19370276 0.14622669 0.43804577 -0.10386236 -0.0063071405 -0.7454196 -0.27202335 0.59898853 -0.25675717 -0.08459715 -0.35103008 -0.3838946 0.2708614 -0.07072632 0.36804387 -0.15255262 -0.25614494 0.059752855 0.10991315 0.06123376 -0.1797736 -0.5326084 0.024418412 0.3839076 -0.25845495 0.16980705 -0.3474979 -0.13590525 -0.09146363 -0.20759103 0.20171072 -0.23311505 -0.23809941 -0.099424005 0.056072842 0.06571534 -0.5813627 0.09933362 -0.36286196 0.15803294 -0.5325246 -0.03501419 -0.043810263 0.019046394 -0.14236291 -0.21755433 0.31692964 0.76737875 -0.17763911 0.07663593 0.04645668 0.17234679 -0.9403513 0.08575219 0.17090899 0.5223422 -0.43217534 0.24771531 -0.11505519 0.42442113 0.53909117 -0.18275346 0.3677322 -0.340705 0.5800654 -0.31151438 0.48524225 -0.08467353 0.07619636 0.16811816 -0.2606778 -0.0078487 -0.27711618 0.14210992 -0.06496763 -0.12236453 -0.6906318 0.42528653 0.20738101 -0.30479193 0.20947763 0.45806646 -0.2904773 0.17923272 0.35055298 -0.43135872 0.081423014 -0.35576734 0.23829313 -0.32918283 0.121146396 -0.14400999 -0.37795043 0.25136414 0.20539364 -0.48378956 -0.12906757 -0.28376976 -0.35290772 -0.1018775 0.029539043 0.81883055 -0.27617958 -0.4525758 0.4649133 0.5527302 0.13185824 0.007196269 0.35117298 -0.64079446 0.15545763 0.16405836 -0.8126242 -0.47032318 0.46699634 0.15476674 0.52967817 0.059353683 -0.010194718 0.28715774 0.2928912 -0.49082687 0.35390246 0.21577981 -0.36991748 0.23878075
56 0.100058034 -0.65582836 0.095401175 -0.10862791 0.053446412 -0.45159686 -0.14661406 -0.7097111 0.6909438 0.24471456 0.3159041 0.13714615 0.16083732 -0.27941436 0.6611896 0.45138025 -0.1501028 -0.22940187 -0.41979504 0.081067584 -0.0641144 0.1691004 -0.0046981834 -0.1379737 -0.00095416314 0.2112731 0.62744343 0.5134332 -0.21226239 -0.12308729 -0.044758342 -0.3038288 0.42828363 -0.2986442 -0.17729431 0.5700541 -0.17230858 0.2512963 -0.05686853 -0.53551036 0.30433926 0.49706912 -0.17092861 -0.54495376 0.30504084 0.14712225 -0.27499107 -0.5568305 0.4141746 0.49499908 -0.06411901 0.13377215 -0.053332567 0.1616875 -0.064049944 0.17685607 0.21137919 -0.26403046 -0.16534717 0.43294868 -0.45357394 0.45792937 0.17969234 -0.27361777 -0.10466853 -0.10395706 -0.078055225 0.036046345 0.22006418 -0.09134587 0.2879343 -0.48707315 -0.39100966 0.04405477 -0.12702557 -0.019226398 0.23298568 0.21393968 -0.6188623 0.08883877 0.12420717 0.053189054 -0.057020318 0.50284225 0.5682504 0.057908688 -0.16389647 -0.16464297 -0.27390447 0.1487591 -0.24177085 -0.5063767 0.46196696 0.06501222 0.4849051 0.7637134 0.1609881 -0.26572347 0.08523614 -0.47556916 -0.13292062 0.2661853 0.07539634 0.8313436 -0.44819665 0.12644386 0.13691011 0.49513677 -0.04970617 0.20433085 0.17525788 0.17154832 0.12730761 0.09113025 -0.27165312 -0.73752654 0.017277868 -0.244565 -0.23531932 0.1591708 0.0073575424 0.113446295 -0.11537824 -0.09835661 0.07970071 -0.47285107 -0.24544756 0.08145638
88 -0.4635301 -0.122778416 -0.1743422 -0.102254406 0.22394596 -0.5523162 0.3624323 -0.2588993 -0.14704253 0.42075562 0.13121077 -0.3536644 -0.21529236 -0.19216871 0.16998318 0.5827233 0.16873375 -0.14111903 -0.49716094 0.06908738 -0.49836814 -0.17659986 -0.18164192 -0.34056255 -0.20144993 -0.120357744 -0.35084444 -0.07002078 -0.045746367 -0.71093047 -0.34822667 -0.24210884 -0.06893459 -0.010999488 0.1404901 0.541085 -0.059804697 -0.00024104601 0.2659275 -0.38918024 -0.19811401 0.6714804 0.32352093 -0.037014253 -0.17465378 -0.31814176 -0.2034969 0.045215357 0.42414117 -0.17922923 0.46216843 0.04577331 0.5280944 0.173124 -0.054318603 -0.11750176 0.29182816 0.046067744 -0.17693552 0.0046167537 -0.3701112 0.44762602 0.07650827 -0.19672489 0.37576872 0.11830875 -0.20454895 -0.20512845 0.44882664 -0.16219422 0.15782437 -0.55391145 -0.45461738 -0.20481609 0.022735037 0.27515647 -0.21840109 -0.23880133 -0.64436567 0.1754703 0.107400045 -0.06729009 0.118787535 0.12299061 -0.06332126 0.47809273 0.6035391 -0.32333237 -0.032977328 0.5385295 0.116440095 -0.30488878 0.26175565 0.036095258 0.1922017 0.52571803 -0.25192797 -0.47623277 0.03279635 -0.27667183 -0.18585373 -0.031210998 -0.4741166 -0.020261357 -0.21598357 0.05570358 0.37837967 0.26129106 0.47760096 -0.65550774 0.17916039 -0.8853785 -0.25729027 -0.5860332 0.19823974 -0.4860968 0.26955244 0.26931047 -0.37464574 -0.09353376 -0.11191221 0.5640926 -0.14470068 -0.0018306981 0.16718858 0.20270053 -0.13028082 0.12488187
12 0.3409227 -0.29631808 -0.12961604 -0.25864673 0.4882779 0.0008054103 0.11606541 -0.31425008 -0.023081511 0.59695196 -0.12297575 -0.36770874 -0.029675623 0.06631754 0.48703745 0.39653605 0.5717398 -0.3138556 0.045016944 0.3492137 -0.03997957 0.4155958 -0.6819967 -0.7254809 -0.11541907 0.5924086 -0.005011528 -0.018012531 0.18595381 0.16794284 0.12909068 -0.57383895 0.3118997 -0.11501269 -0.43472522 0.09278022 -0.12927285 -0.23582892 -0.21790427 -0.16435589 -0.567211 0.36044225 -0.25014797 0.06377175 0.28398585 0.3387294 -0.16534477 0.38434765 0.082568206 0.16140668 0.21376358 -0.17860919 0.29787385 -0.11494338 0.30806017 0.21543963 -0.10260157 0.012902294 0.12527864 0.053429373 -0.33932102 0.040933207 0.15177538 0.16941753 0.5040925 -0.28708357 0.32511744 -0.4949737 0.1000625 -0.51151806 0.19908667 0.035319958 -0.8486395 -0.13294186 0.25295797 -0.039146587 0.53452426 -0.06620498 -0.45550594 -0.2567307 -0.16546027 -0.07145707 -0.1974635 0.46739313 -0.25887427 0.46140566 0.03531855 -0.13443194 0.16104029 -0.021424394 -0.44395748 -0.11243906 0.48426762 0.25679463 0.22848955 0.8379419 -0.1317102 -0.4980983 0.19507505 -0.38006195 -0.61335117 0.07903775 -0.10996542 -0.1662271 -0.09534661 -0.042235047 -0.2599908 0.14629124 -0.04999799 -0.06930462 0.28310248 -0.3208217 -0.14093062 -0.27851823 -0.6406643 0.3589415 -0.14301497 0.15463053 0.1605707 0.04300599 0.47099516 -0.31354505 -0.044667967 0.34234697 -0.052849658 -0.041114558 -0.32737 -0.08259347
105 -0.051903747 -0.46003455 0.11986373 -0.25213918 0.2852156 0.020930534 0.21355231 0.16759683 0.15273422 0.5078058 -0.18400767 -0.18876167 0.06732957 0.032999907 0.5358192 0.40872183 0.30981845 -0.20741354 -0.21613638 0.10024294 -0.6228575 -0.19316512 -0.4692756 -0.3893827 -0.2539119 0.68525535 -0.13210393 0.015179297 -0.008161606 -0.29771656 -0.44345436 0.034285925 -0.3915324 0.37545434 -0.19172992 0.8766814 -0.070370376 0.16096145 -0.17064093 -0.4705535 -0.48799586 0.5882635 -0.18162902 -0.19354536 0.15867703 -0.69865906 -0.4727894 0.10870755 0.59448916 -0.3175954 0.026510738 0.24576543 0.24638171 0.6920576 0.0095828865 -0.40593007 -0.103164755 0.17086373 0.43100488 0.23806973 -0.3452822 0.5921528 0.30045068 0.100526705 0.43604535 -0.14747028 -0.09176208 0.106659144 0.17789853 -0.33469132 -0.15746927 -0.4750998 -0.6083901 -0.10977096 0.5189402 0.3246676 -0.1175036 -0.27188942 -0.39101833 0.23794171 -0.1906516 0.009847389 0.23037839 0.36472994 -0.18186118 0.29387167 0.19450061 -0.43273216 -0.16962276 0.48146296 0.34472364 -0.21855804 0.19207212 -0.050821304 0.05712858 0.3786218 -0.48824266 -0.63686633 0.24941401 -0.26667196 -0.52027565 -0.08086561 0.028099576 0.11399571 0.015202101 0.3905253 -0.26300025 0.099688984 0.16881907 -0.2003349 0.41418925 -0.48520333 0.055397887 -0.15081115 0.101349615 -0.043986373 0.1276093 0.117365636 0.16762953 -0.029441753 0.15778044 0.19584955 -0.17880419 0.088265955 0.093906485 0.278646 0.033040028 0.23778503
60 -0.3075813 -0.78170574 0.23570265 -0.19729261 0.033544596 -0.3033952 0.15761323 -0.70537513 -0.028704042 0.4401532 0.32545373 -0.09826361 0.24213889 -0.12264659 0.763261 0.37021244 -0.1395006 -0.46959862 -0.36032984 0.22609843 0.17280413 0.21970594 -0.41992548 -0.13164349 -0.19653274 0.27046302 0.49031278 0.39064404 -0.28278756 -0.155664 -0.3747623 -0.19360071 0.6062418 -0.3919546 0.22277768 0.12118241 0.03693282 0.24811502 -0.20065627 -0.20588756 0.10984568 0.53534645 -0.6387294 -0.3852945 0.29998663 0.4872282 -0.35495666 -0.58575827 0.5367438 0.4267134 0.23777208 0.28986895 -0.18080904 0.11624781 -0.17319626 0.16295534 -0.12252092 -0.053261988 -0.39011583 0.37478122 -0.35649848 -0.17879839 0.3854906 0.13345979 0.02112576 0.006947238 -0.24670498 -0.24298123 0.3638071 0.009915797 -0.011194246 -0.7153644 -0.44971076 0.14316306 -0.3891285 -0.14036795 -0.042390447 0.3065667 -0.66535956 0.21489434 -0.2886961 0.41413358 -0.32319126 0.04283633 0.6589739 -0.09260277 -0.05591534 -0.20531239 -0.45062166 0.19837011 -0.49506176 -0.26669857 0.57981527 0.15021516 0.26858652 0.51836085 0.15079154 -0.16477652 0.005183306 -0.28922448 -0.27699137 0.20858294 -0.22281899 0.6483669 0.02016806 -0.09515268 0.18290965 0.226695 0.67742836 0.11841482 0.12382362 -0.017425809 0.081680655 -0.02450999 0.47003904 -0.052519575 -0.13940975 -0.13104272 -0.33841136 0.06140607 -0.058572214 -0.24793221 -0.25603348 0.17410399 0.096027866 0.0151737165 -0.090797424 0.26308012
58 -0.0040393895 -0.3783569 0.07925167 -0.28295684 0.017543022 -0.38650027 -0.17550814 -0.7435126 0.5403643 0.42896855 0.34390983 0.30018115 0.2358838 -0.33283487 0.40609038 0.5493569 -0.058570415 0.036471948 -0.44274887 0.2718123 -0.10546208 0.22007163 -0.028562384 -0.29583585 0.00611613 -0.14978881 0.595053 0.0018219458 -0.47040698 0.2543795 0.29106647 -0.3764448 0.173602 -0.22412121 -0.57829535 0.44492543 -0.21366851 0.27666187 -0.10321182 -0.7012759 0.1395702 0.5619478 -0.0856907 -0.46784842 0.08606606 0.09010638 -0.568657 -0.54428536 0.51114887 0.21875422 -0.13563173 0.011523654 -0.0823375 0.27280575 -0.21839808 0.24781081 0.23010793 -0.06694731 0.029659512 0.36643058 -0.36414647 0.81079346 0.125784 -0.2089604 -0.10591108 0.018261788 -0.253507 -0.23492453 0.15878981 -0.35337543 0.3081911 -0.49880606 -0.27151704 -0.0070931357 -0.1583988 -0.11220984 0.21691501 0.042170145 -0.70603675 0.09306839 0.19532451 -0.08816572 0.05246627 0.5042916 0.06900411 0.26147413 -0.16139658 -0.1791522 -0.24402227 -0.16103756 -0.13509566 -0.30828974 0.35382697 0.28202054 0.50002617 0.6654094 0.14452012 -0.10027241 -0.114307344 -0.30561152 -0.22086534 0.039151803 0.09745526 0.788754 -0.6121026 0.046024963 0.22990198 0.43379915 -0.35045692 0.16415997 0.3268293 0.3046005 0.07891828 -0.0009661281 -0.012326244 -0.77139634 -0.116777025 -0.38356695 -0.01849228 0.12043171 0.08020695 0.11542191 -0.13260734 0.15138794 -0.010575564 -0.49306202 -0.19830908 -0.015129271
59 -0.22500964 -0.68449897 0.11393173 -0.32315603 0.13063917 -0.44244695 -0.03531028 -0.8658195 0.2610386 0.38721997 0.20301463 0.12206186 0.118849665 -0.17901452 0.89798856 0.4637011 0.1664257 -0.31724283 -0.43056458 0.2618975 0.012711802 0.192642 -0.3187996 0.030826088 -0.096730046 0.13451028 0.6995663 0.4037437 -0.37674755 -0.26978818 -0.068507925 -0.34156188 0.4954459 -0.23941799 0.042099576 0.3185746 -0.05503867 0.07596989 -0.20313896 -0.2728382 0.1254429 0.38563186 -0.4383381 -0.31734574 0.28423214 0.22073536 -0.24948251 -0.54742336 0.47748187 0.28830737 0.16802998 0.18155713 -0.016158544 0.20612381 -0.058219817 0.3262102 0.09172672 -0.18226053 -0.26953188 0.5861074 -0.39688018 0.11740756 0.20546933 -0.113159806 0.123120666 0.029556347 -0.32078844 -0.26243082 0.35963193 0.07412007 0.14480838 -0.5169753 -0.4048096 0.27671003 -0.47912723 -0.023671811 -0.03997161 0.23890948 -0.51681155 0.3250314 -0.16822019 0.37544954 -0.2515776 0.10425582 0.59613466 -0.22826818 -0.044520684 -0.22094537 -0.23368995 0.11789751 -0.33026597 -0.34636024 0.48951507 0.0901271 0.40341088 0.7173109 -0.013957055 -0.0069437437 0.050881427 -0.23873499 -0.2088024 0.24963161 -0.22613597 0.76613545 -0.052376945 0.038886648 0.2457567 0.2076306 0.41107962 0.22206013 -0.0011389605 -0.095959246 0.06034808 0.13662101 0.20750386 -0.2421047 -0.026486268 -0.23033491 -0.38223842 -0.027403088 -0.022156123 -0.069656275 -0.16144992 0.18311113 0.06850042 -0.28142965 -0.10332263 0.523808
13 0.30422813 -0.44164965 0.026060162 -0.2557026 0.59457415 0.09413976 0.028248891 -0.072707884 -0.047253802 0.5157418 -0.17993887 -0.3185518 -0.08453564 0.15825771 0.43742 0.47202167 0.5300672 -0.2791626 -0.19827998 0.30783093 -0.09520727 0.22761565 -0.53151655 -0.9241069 -0.10941693 0.71446 0.014610675 0.13791248 0.044675384 0.1571377 0.0040594307 -0.44877142 0.18117146 0.112823494 -0.52687764 0.3946926 -0.06415403 -0.13684268 -0.16082512 -0.044991374 -0.63858896 0.46979898 -0.36732134 -0.10714197 0.3166827 0.12967815 -0.306214 0.34055194 0.021787906 0.0638412 0.11524411 -0.025141265 0.4703539 0.32200897 0.10204206 -0.0025118783 -0.09130303 -0.067751214 0.20601992 -0.05965351 -0.22137108 -0.110182874 0.29247656 0.049488794 0.43805456 -0.25991178 0.45256677 -0.4327586 0.1512893 -0.38905382 -0.054857396 -0.18597549 -0.6986235 -0.055943202 0.32071182 0.12036201 0.33537868 -0.1425697 -0.46277305 0.10375408 -0.3172742 -0.061895594 -0.038085904 0.39275795 0.09498528 0.35026944 -0.024103748 -0.1105693 0.2058535 0.18136239 -0.11079482 -0.22007787 0.20466016 0.28836837 0.1683722 0.6592119 0.12732838 -0.28007048 0.029903654 -0.39997053 -0.730859 -0.09175005 -0.089878455 -0.031673882 0.10528553 -0.09907766 -0.48058188 0.2219732 0.124870524 0.05331928 0.3933275 -0.109607905 0.1528699 -0.29861253 -0.7070339 0.37366927 -0.42172566 0.33336443 0.5208074 -0.09827959 0.37079 -0.31436336 -0.015332555 0.41434285 -0.21428792 -0.13499372 -0.32507798 0.01329774
46 -0.114923954 -0.6300138 -0.31462446 0.124251865 0.086594164 -0.24634439 0.25754765 -0.22954941 0.20419234 0.30296895 0.042592853 -0.526702 -0.27567723 0.2254024 0.79912966 -0.25869748 -0.010003445 0.13383918 -0.24022797 -0.16687588 -0.18271144 0.13300923 -0.47430778 0.43479714 0.45764276 0.35928893 -0.20002577 -0.108462445 0.021107942 0.43324295 -1.1425811 -0.04873618 -0.09557168 -0.09486194 -0.25380543 -0.0073213167 0.01629889 -0.12139055 0.0015996157 -0.4505448 -0.033512585 0.6442858 -0.002530042 -0.3045038 -0.5864634 0.46889272 -0.6431449 0.21345836 0.5689376 0.07393762 0.56979555 -0.2594802 0.4241171 -0.036909647 -0.29055813 -0.033335578 -0.054932654 0.11715943 0.13688333 0.19203162 -0.19466639 0.35036847 0.40339792 -0.04578851 0.42517197 -0.077848665 -0.36596462 -0.31618422 0.3441918 -0.5410982 -0.40727603 -0.063112944 -0.52657926 0.08878282 -0.502405 0.0014249708 0.57318354 -0.12297564 -0.6247399 -0.06819015 -0.32751364 -0.26234058 -0.22462608 0.6943588 0.2544318 -0.2631547 -0.22691698 -0.2809225 -0.07840689 -0.23553327 0.23202966 0.114514224 -0.042351298 0.39005327 0.13399231 0.14333138 0.06323844 -0.35100278 -0.15395291 0.062280715 -0.2808217 -0.13165441 0.17400716 0.67131823 -0.2584599 -0.6504187 0.10876223 0.96274745 0.22624542 -0.3226481 0.25498623 -0.4292112 -0.06221488 -0.028773464 -0.59875154 -0.21562211 0.41953564 0.02882072 -0.15075238 0.18119697 0.020568866 -0.1972109 -0.0065657063 0.3398318 0.18151636 0.109471135 0.21613362 0.3304573
42 0.25701067 0.07554095 0.058403622 0.1280533 0.86437863 -0.2761942 0.30183876 -0.2790366 -0.28037402 0.6892436 0.03146264 -0.08235971 -0.25459114 -0.06286401 0.48747692 0.6591777 0.52084243 -0.5785956 -0.08081088 0.022158358 0.14191586 0.58903956 -0.72646654 -0.9612197 0.40374663 0.27467042 -0.32274637 -0.068096414 -0.17518727 0.16116439 0.28933436 -0.29832733 0.48131254 0.22543389 -0.2928243 0.5128787 0.3020162 0.11387721 0.03570677 -0.07709805 -0.7239251 0.82038206 -0.07527326 0.058985822 0.03943896 0.16572185 -0.62636125 0.2577999 0.2841261 0.23041056 0.41727751 0.19502254 0.004194754 0.040205304 0.23685586 -0.11613968 -0.03967107 -0.19708739 -0.23022287 0.19034046 -0.12006813 0.036029324 0.22665669 0.24845403 0.37826332 -0.039731737 0.54873466 -0.27749118 0.0029259173 -0.25717995 -0.086651154 -0.08947809 -0.1680942 -0.24803162 -0.22621897 -0.04303612 0.23367195 -0.24039106 -0.57196444 0.3368939 0.004299961 0.13735779 -0.2561291 0.38224196 -0.12549499 0.11751334 -0.034523252 -0.11453019 0.0692376 -0.18460439 -0.22657666 -0.23004633 0.50947446 -0.15012093 0.29982042 0.07554038 0.063659936 -0.3449213 0.029545914 -0.3165264 -0.48467472 -0.028434068 -0.37381434 0.3756512 -0.33444434 -0.3089725 -0.064833805 0.3422194 0.32855317 0.107185036 0.61556876 -0.0910512 -0.19934648 -0.14885996 -0.95957094 0.020698814 0.13587049 0.10358702 0.2765139 0.2919469 0.2241492 0.001423186 0.35202762 0.19876163 -0.338043 -0.20511098 -0.36803833 0.059413962
33 -0.42850748 -0.20688489 -0.26531702 -0.4370025 0.032125324 -0.36229458 0.3505745 -0.44234803 -0.40383542 -0.018672304 -0.17697486 0.04869672 0.24726786 0.06821174 0.52456844 0.45651153 -0.20761006 -0.039569765 -0.8368422 -0.13054349 -0.19739604 0.2057641 0.1658243 -0.7093494 0.31340128 -0.12995096 -0.38066384 -0.20421518 0.38912436 -0.20082045 -0.3143117 0.1941955 0.43241623 -0.040205557 0.1443969 0.0070614386 -0.028481634 0.01981735 0.301296 -0.050951976 0.33437377 0.4721605 -0.11523208 0.27448916 -0.2561195 -0.0008768085 -0.38496175 0.20009452 0.43572634 0.30443853 0.4925503 0.022312015 0.4839264 0.20149134 0.032934774 0.5342198 0.20824295 -0.106953405 -0.34534806 0.1366047 -0.5002632 0.24971561 0.47953188 0.1268669 0.18440282 0.13894767 -0.2118795 -0.082346715 0.57202685 -0.16571657 0.20875734 -0.47350213 -0.4433694 -0.2779906 -0.14591154 0.638203 0.15479925 0.3262375 -0.83905995 -0.094030075 -0.18887568 -0.09765613 -0.19420402 0.3902067 -0.30186903 0.47623476 0.44221234 -0.31434095 -0.03022858 0.5996682 -0.07429492 0.08642758 0.07905491 -0.20617153 0.095186375 0.3611557 0.09468654 -0.37335274 -0.21870215 -0.10140882 -0.04535312 -0.0038206214 -0.46813434 0.050853748 -0.23464791 -0.42105657 0.6932564 0.21674621 0.6369695 -0.2806696 0.06637922 -0.56491977 -0.3523371 -0.6029988 -0.4957341 -0.26676664 -0.10992857 0.49184605 -0.24223016 -0.21945424 -0.24215144 0.3309481 -0.42576808 0.15650861 0.22768106 0.056864716 -0.6266624 0.25659925
-0.08547448, -0.29826584, -0.14741431, -0.67061037, -0.43497878, -0.38970268, -0.19331034, 0.0026911893, -0.14017418, -0.3710046, 0.19588524, 0.50693357, -0.40660346, 0.060307745, 0.4046258, -0.62973624, 0.11785334, -0.17953649, 0.05160977, -0.095493965, -0.18132052, 0.03826847, -0.1944767, -0.8787426, -0.052537657, 0.23939374, 0.61991715, 0.87798643, 0.22267313, -0.29736802, 0.028789824, -0.30809578, -0.0542155, -0.25352523, -0.25583473, -0.08532951, 0.28817376, 0.41289523, -0.00792686, 0.24107456, -0.20131549, 0.3377247, -0.25690502, 0.35726756, 0.027287206, -0.40293846, -0.54056203, -0.28486973, -0.029724529, -0.47154206, -0.3967071, -0.4742465, -0.005546905, -0.50885016, -0.061332688, 0.07627737, 0.12908617, 0.19868691, 0.5408949, -0.4623319, 0.13502872, 0.1309458, -0.26053345, -0.009056642, 0.08146737, -0.14192095, -0.20352887, 0.21550697, 0.19168872, -0.29205415, 0.26351216, 0.24171916, 0.025810005, -0.55607706, -0.40277648, 0.13517939, -0.27300778, 0.3711192, -0.193878, 0.02004339, -0.36554146, 0.48420388, 0.0878743, 0.34118977, 0.03527869, 0.06615776, 0.24636766, -0.030541956, -0.30129728, -0.05087695, -0.08543088, 0.25910518, 0.16375847, 0.14950982, 0.41354564, -0.09212178, 0.039013565, 0.12550597, -0.39747158, 0.0011751303, -0.0302062, -0.28866524, -0.1901337, -0.2015753, 0.11327507, 0.46685705, -0.49245948, 0.06320734, -0.3105893, -0.20835456, 0.17934407, -0.52467066, 0.19670442, -0.10700878, -0.032256693, 0.5803727, 0.30203456, 0.26631632, -0.23506074, -0.23485185, 0.2501363, -0.12184304, 0.6253184, -0.035855155, 0.050049763, -0.15232724, -0.38403606, -0.020263184, -0.5847818, -0.004061971, -0.09157497, -0.4583943, -0.34568977, -0.52104604, -0.25861678, -0.117276, 0.09799441, 0.15111157, 0.3134129, -0.10316217, 0.040958494, 0.2389556, 0.17087452, -0.70924014, -0.001072801, -0.26048806, -0.0540118, -0.42857033, 0.42508703, 0.0016576943, 0.070508994, 0.04336412, 0.00092854566, -0.00027608735, 0.040260985, 0.2957077, 0.0015368146, -0.14539924, 0.12009415, -0.21632099, -0.16827787, 0.012367013, -0.26745015, 0.016989142, -0.016897155, 0.0875287, 0.020095015, 0.13754281, 0.21871457, 0.1386973, 0.1382741, -0.059942845, -0.13604516, -0.2653919, -0.2131206, -0.1908882, 0.36786342, 0.5130381, -0.1351802, 0.0793475, -0.39795962, 0.42081177, 0.3715465, 0.35093012, 0.12619488, 0.35592395, -0.40973133, -0.19444618, 0.18313268, 0.07849345, -0.25149447, -0.15154907, -0.2326549, 0.053796984, 0.09788425, 0.07247626, -0.02296063, -0.37131947, 0.0594042, 0.09914632, -0.16609015, 0.34075087, -0.12332687, 0.0005157145, 0.14297669, 0.017582132, -0.008779151, -0.12335509, 0.028752109, -0.13830797, -0.015183254, 0.018969852, -0.15514384, -0.20015176, 0.41659614, 0.4606939, -0.19941185, 0.012086859, 0.18714122, -0.17984743, 0.39554515, -0.21936855, 0.22323571, -0.4914505, -0.13813391, 0.017122291, -0.09105322, -0.32170448, 0.056053903, 0.02643442, 0.28093007, -0.16845793, -0.054187518, 0.28471726, 0.07457285, 0.14122358, 0.019835977, -0.31870613, 0.13467562, -0.34367275, 0.16879731, 0.4887708, -0.24816054, 0.41746026, 0.31506085, 0.17307363, 0.044022985, -0.31272265, 0.068612866, -0.15236238, 0.0671384, 0.3666283, 0.05042359, -0.24060361, -0.22770517, -0.11951465, -0.04880576, 0.019174015, 0.2776341, 0.5573643, 0.39455283, -0.06596572, -0.38140762, -0.040391847, 0.16734867, 0.22110373, 0.5233019, -0.244626, -0.06581722, -0.23032989, -0.1740666, -0.26465023, -0.22275618, 0.43023762, -0.026344901, 0.0849443, 0.06791598, 0.15605208, -0.29888138, -0.17934243, -0.13411514, -0.08885195, -0.15275909, -0.3600689, 0.08731703, -0.014200481, -0.072012715, 0.019505868, 0.10770646, -0.1055515, -0.14581163, 0.21632844, 0.22605777, -0.32623723, -0.12906912, 0.25288722, -0.22108723, -0.12618136, -0.6181268, 0.28843206 -0.43577132 -0.460786 -0.19967955 -0.3649108 0.23446277 -0.16368622 0.2523822 -0.32664213 -0.13599245 0.22536775 0.071136944 0.027163584 -0.078978136 0.24706449 0.3387932 0.13533062 -0.017969534 -0.15864351 -0.3460196 -0.34039554 0.21351339 0.047013577 -0.06744221 -0.18408756 0.26246834 0.26131564 0.20383924 0.46910733 -0.08365441 -0.38621265 0.12105816 -0.3392422 0.102387734 -0.06360298 0.24960852 0.035371423 -0.039550986 0.24793202 -0.06889194 -0.22179069 -0.10570893 0.034810368 -0.37744647 -0.13180573 0.13659468 0.16383415 -0.32163125 0.1951628 0.5629055 0.11775287 0.0746433 0.30629033 0.022998538 0.4369572 -0.2115466 0.6892887 0.04203719 0.022549339 -0.51438874 0.33316284 -0.21719448 0.064946815 0.090800814 0.06791807 0.5085824 0.22818772 -0.11656443 0.02358638 0.36831185 0.06848746 0.22015226 -0.3218712 -0.4271206 0.34385902 -0.82696265 -0.23985861 -0.04963551 0.30714804 -0.017895445 0.2892112 -0.5005206 0.14331432 -0.47472405 0.25387427 0.109131984 0.36621207 0.11812129 -0.31471303 -0.12502286 0.202975 -0.15179017 0.26531988 0.5260892 -0.10889608 0.18475378 0.50608265 0.13839029 0.062347803 0.1441098 0.03573022 -0.18395904 0.24409783 -0.28094843 0.33904845 0.112601526 -0.31771538 -0.060546707 0.24037784 0.49703458 -0.055290345 0.10647048 -0.06351982 0.058105823 -0.35108137 -0.018742042 -0.18032646 -0.040075053 0.023506317 -0.40614834 -0.28476712 -0.10241487 -0.08037375 -0.02418496 -0.37483194 -0.19110496 -0.013970818 -0.010814831 0.6330906
-0.2249016, -0.053476267, 0.08432953, -0.045511417, -0.20936985, -0.40506476, -0.5429182, 0.14118932, -0.18078493, -0.38848507, 0.3459763, 0.190049, -0.49841735, 0.016199242, 0.1531825, -0.27905184, -0.12057595, -0.16513021, -0.018487029, -0.11841819, 0.038885217, -0.11696725, 0.0041145077, -0.610339, -0.24681902, 0.5630991, 0.34745818, 0.4186136, 0.45183426, 0.069901854, -0.13515696, -0.0050174785, -0.09962355, -0.30181167, -0.021334173, 0.31338412, -0.15750353, 0.3165593, -0.057124116, 0.5325685, 0.017845979, -0.21110815, -0.15959224, -0.071074225, 0.0735729, -0.64677405, -0.025851382, -0.313768, -0.20219107, -0.012195247, -0.48241752, -0.37162885, -0.035165988, 0.02007471, 0.15270215, -0.001242023, -0.49981737, 0.024298798, 0.37553528, -0.33986238, 0.024775857, 0.29163784, -0.28030095, -0.2885512, 0.19389491, -0.1379098, -0.06494312, 0.19298309, 0.30567127, 0.3478201, 0.20597248, 0.2718856, 0.49794447, 0.013377012, -0.292283, -0.071816005, -0.17716278, 0.36878425, 0.12486155, 0.1866944, -0.3227196, 0.4598505, 0.08622459, -0.0003059078, 0.13022092, 0.43207708, 0.2334045, 0.17516562, -0.45877331, 0.24705052, -0.1314324, 0.19614965, -0.092009276, 0.6690234, 0.18109474, -0.018265165, 0.3544846, 0.15807979, -0.5273931, 0.023711892, -0.09049496, -0.14350323, -0.038565785, 0.14167197, -0.0897719, 0.29614866, -0.60993713, 0.19362572, 0.13190061, -0.36185238, 0.0013485437, -0.61363065, -0.05945661, -0.02182421, 0.10592105, 0.5426139, 0.22974892, 0.15013298, -0.123289235, 0.33017325, 0.24996148, -0.048989426, 0.53381443, -0.17581594, 0.0044379295, -0.10189862, -0.456149, 0.08455664, -0.06258535, -0.12664619, 0.007989795, -0.48457292, -0.16132976, -0.42098808, 0.03554766, 0.30311367, 0.0014643092, 0.26768816, 0.105896756, 0.21411285, 0.20506786, 0.2770473, 0.19204016, -0.2975628, 0.12994504, -0.42486042, -0.35304806, 0.12681843, 0.26454365, 0.043411814, 0.01839233, -0.080157444, -0.14488521, 0.047218543, 0.04081391, 0.0056863045, 0.23669352, -0.2104586, 0.20081542, 0.15299883, -0.10117783, -0.22407132, -0.38708577, -0.09162373, -0.19584613, -0.14027776, 0.32165772, -0.42982027, 0.34926334, 0.040591694, -0.28052676, -0.54837894, -0.15007073, -0.18211818, 0.23670152, -0.25732264, -0.08399628, 0.4120273, -0.08216757, -0.35457233, -0.51937276, 0.5856229, 0.19137706, 0.3331014, 0.021131108, 0.20336324, 0.16418374, -0.13088495, 0.0334612, -0.08791626, -0.23344679, -0.048585966, -0.26328278, 0.24557255, 0.10599005, -0.042507574, 0.019298067, -0.52162635, -0.015642354, 0.274584, -0.08226237, 0.41855994, -0.19186938, 0.16447592, -0.21152703, 0.054484867, -0.3089268, -0.3765168, -0.33535615, -0.12553327, 0.08521302, 0.16891053, -0.22786507, -0.07155389, 0.3717003, 0.17129698, -0.18526334, -0.26539412, -0.0057792813, 0.11890642, 0.03297648, 0.12567444, 0.107998736, -0.04338421, -0.03829477, -0.3199356, -0.05071198, -0.3100781, 0.14198287, 0.17588644, 0.1952509, -0.22045338, 0.20568554, 0.08224665, 0.02016481, 0.57256365, 0.343855, -0.34962225, 0.2345643, 0.014613574, 0.4882392, 0.0882462, -0.2509133, 0.29936633, 0.14694661, 0.052791044, 0.08299495, 0.14577952, 0.3489694, 0.17913732, -0.0010998979, 0.3922993, -0.20277062, -0.05790636, 0.040727936, -0.1796949, 0.0041840333, 0.06816952, -0.050097883, 0.904486, 0.115082614, -0.4086165, -0.64734566, 0.055255212, 0.28042832, -0.114520594, -0.21923882, 0.24987875, -0.530997, -0.14694741, -0.026000228, -0.370858, -0.004899095, 0.39446434, -0.40740034, -0.19621287, 0.00064806384, 0.26399976, -0.27537712, -0.03050004, -0.27125558, 0.12214912, -0.1679334, -0.17210814, 0.06362561, 0.08880147, 0.020801693, 0.17972016, -0.3058571, 0.2234346, -0.4243881, -0.10870145, 0.3464801, -0.09196184, 0.030542832, -0.14789887, -0.35264152, -0.5003838, -0.13799055, -0.3315248 -0.42816678 -0.33799598 -0.27288926 -0.30677742 0.2019196 -0.09084446 0.2969977 -0.33740026 -0.14630958 0.18026595 0.08335953 0.03500486 -0.076428756 0.20591989 0.3319346 0.18517616 -0.06832738 -0.2733752 -0.36877236 -0.3563876 0.2505095 0.008927625 -0.15676887 -0.24427785 0.18301272 0.27899688 0.23289804 0.34028062 -0.09748818 -0.45740944 0.039685514 -0.21462712 0.034176007 -0.14031875 0.25432485 0.05579361 -0.13881125 0.26918942 -0.028509218 -0.27833253 -0.06496143 0.10576365 -0.37855056 -0.18868496 0.10175149 0.17596485 -0.34313712 0.15500596 0.5379351 0.103637815 0.061478715 0.34313592 -0.020402199 0.47456244 -0.290138 0.6408638 -0.07029434 0.038778234 -0.49991676 0.35944858 -0.23026817 0.0032357986 0.02571661 0.062240146 0.49510965 0.176385 -0.13224456 0.023437716 0.33942214 0.100176744 0.12179063 -0.3748473 -0.35750675 0.36872298 -0.801563 -0.20101254 -0.10253493 0.25010306 -0.11727002 0.29179814 -0.53973407 0.17980875 -0.5032622 0.254368 0.10147871 0.44075748 0.0048608123 -0.28018948 -0.16501048 0.19662574 -0.12089128 0.25948927 0.58685 -0.22741885 0.07172785 0.53158164 0.10806408 0.0934134 0.1887558 0.039233953 -0.13454926 0.19308753 -0.3257604 0.38244733 0.048605412 -0.37334138 -0.032981656 0.2269849 0.5715287 -0.07552936 0.107810244 -0.10074016 0.09718053 -0.34720075 0.019318972 -0.12980339 0.01172494 0.15135717 -0.4810327 -0.26785958 -0.10714386 -0.046019185 -0.013919508 -0.37240824 -0.21334888 -0.07625126 -0.0011000963 0.5774661
98 -0.24232112 -0.7976666 0.2037864 0.4557421 -0.0056676874 0.07961432 0.092966475 0.109323464 -0.17365722 0.3992676 0.16891173 0.50425005 -0.069376804 -0.27719033 0.07920605 0.03412447 0.27154416 -0.12666664 -0.22129238 0.10549584 -0.33150002 0.5413904 -0.20518392 -0.8564544 0.15389995 -0.008858496 0.042492505 -0.39257154 -0.041209623 -0.11105045 -0.5784558 -0.079459354 -0.35982403 0.5146369 -0.16066232 -0.66286314 -0.30853808 0.21689108 -0.5969741 -1.0729874 -0.33370715 0.5213223 -0.14257935 0.027109556 0.03236344 0.27681503 -0.42959446 0.15811633 0.81587124 0.54517496 0.6804665 0.13548961 -0.31073335 -0.109446675 0.09153236 0.38720524 0.20554239 -0.08035751 -0.028881622 0.09824725 -0.027000757 0.25489372 -0.16232839 -0.32375622 0.365978 0.022173109 0.25731063 0.56261796 0.10626616 -0.41871014 0.09093825 -0.24844487 -1.1410366 0.04635833 -0.4439291 0.17821737 0.10374557 0.039943725 -0.80144995 -0.124462746 -0.2187829 0.11249883 -0.02645313 0.45484707 -0.13336106 0.58518773 0.34040013 -0.0146362465 0.13320087 0.1335017 0.15457053 -0.70536935 0.38458115 -0.066095 -0.33609402 0.018320914 0.4096758 -0.8526957 0.12900615 -0.04089345 -0.32246172 0.16176276 -0.21813351 0.88130987 -0.13177916 -0.0041453005 0.099075444 0.29230922 0.1079692 -0.4872507 -0.05060117 -0.13492076 -0.31247395 -0.14443852 -0.3690122 -0.37697366 0.09298587 0.25907513 0.087045506 -0.08968134 0.10041463 -0.20594105 0.37487015 0.02513191 0.053268276 0.34136876 0.082562275 0.02467499
31 -0.42931414 -0.41665342 -0.009378046 -0.41690812 0.18163443 -0.34091386 0.28711173 -0.3812636 -0.16312699 0.14327006 -0.17096676 -0.060407124 -0.01795932 0.051306423 0.3244256 0.41053712 -0.11991354 -0.0064886753 -0.45396122 -0.16737573 -0.25186157 -0.13809696 -0.022095345 -0.44784155 0.0572951 -0.005091662 -0.27063036 0.06510706 0.2526447 -0.61816853 -0.1607422 -0.14546001 0.25584397 -0.06167932 0.13194813 0.23101163 -0.08388294 0.12312365 0.2297614 -0.040727623 0.3914483 0.39619887 -0.03423884 -0.047367964 -0.11890273 -0.009394684 -0.13815145 0.14017971 0.6211712 0.028238904 0.42755055 0.1279164 0.26685303 0.38676453 -0.115671866 0.4137075 0.30686113 -0.15607184 -0.5634853 0.24349906 -0.38224164 0.22132254 0.17925312 0.08241399 0.267706 0.09372244 -0.23769364 0.04448264 0.41243172 -0.029496027 0.22096767 -0.6165087 -0.42101434 -0.057122227 -0.095974706 0.3893057 0.007055693 0.17325383 -0.65424323 -0.022528466 -0.18319842 0.13018408 -0.09905613 0.016625913 -0.14739822 0.33637175 0.22524095 -0.456748 -0.07997388 0.48709965 -0.18697456 0.07819674 0.07610316 -0.29091984 0.08421868 0.43121856 -0.12151503 -0.21209177 -0.058727436 -0.19079028 0.11065387 0.00043434883 -0.35380602 0.107546285 -0.27576402 -0.107372485 0.574377 0.113090985 0.84820557 -0.36149773 0.04478786 -0.5700226 -0.23470396 -0.6570927 -0.17055175 -0.288924 -0.040176943 0.18171303 -0.47102982 -0.047895662 -0.29185626 0.4937326 -0.2754267 0.07845297 0.032519475 0.31908897 -0.40938634 0.15781923
114 0.29939014 -0.6095614 0.03857794 -0.32579315 -0.19334239 -0.23022132 -0.24305761 -0.5791042 -0.26882353 0.59704924 -0.23877928 -0.32071 -0.12715606 -0.07530269 0.35320896 0.5214382 -0.15143175 -0.11461452 0.07235404 -0.10307949 -0.1516888 -0.10550282 -0.016979152 -0.16786797 0.583124 -0.18294616 0.25728112 -0.1924033 -0.039065376 0.19707736 0.08858297 0.05164443 -0.060111687 0.2379105 -0.37051582 0.053839404 -0.005832201 0.56251603 -0.059046354 -0.37049225 -0.3584675 0.9835044 -0.44965646 -0.05234727 -0.1709626 0.05324673 -0.45057404 0.015534743 0.91416645 -0.2765686 0.23172338 -0.12561566 0.028627213 0.18103607 -0.2901519 0.3630526 -0.04934912 0.5740118 0.46783662 0.09146899 -0.15833734 0.6791796 -0.31653342 0.24032703 -0.112126626 0.036189068 0.18579379 -0.51815027 0.61305475 -0.14406134 0.17092416 -0.1800433 -0.051958714 -0.38819948 -0.18841308 0.002522557 0.228218 -0.065258734 -0.6763159 -0.020032918 -0.17254308 -0.1640749 -0.25760955 0.52042353 -0.35590383 0.34226087 0.7795374 0.22179608 -0.6362971 0.06679368 -0.60686564 -0.42379642 0.48954394 -0.24682674 -0.13967024 -0.18701394 0.48674417 -0.07756503 -0.37929937 0.0128012905 -0.17500067 0.3486886 0.36375374 0.20045823 -0.19216281 -0.13754043 0.07320898 0.48467857 0.0036578365 -0.16114053 0.529937 0.07174711 -0.15270591 -0.58639306 -0.078284815 -0.10025088 0.10168553 -0.09165786 0.2713104 -0.21050802 -0.02696174 -0.19577028 0.09048331 -0.27427298 0.25079167 0.18616356 0.07975886 -0.14056449
97 -0.4115578 -0.56402355 0.28369087 0.4573445 -0.06845786 -0.08401855 0.20305124 0.0435497 0.09432332 0.14326802 0.18523425 0.40329286 0.17090425 -0.31087813 -0.0024049925 0.2134092 0.01906325 -0.11062207 -0.32056013 0.15589745 -0.2954151 0.7112337 -0.24535939 -0.565103 0.2329138 0.018601557 -0.048074365 -0.37719628 0.0915438 -0.30805382 -0.5071337 -0.207148 -0.21631998 0.50973374 -0.2504438 -0.5012562 -0.41778296 0.013179238 -0.46183458 -1.1570873 -0.4761452 0.54921174 -0.18776421 -0.20038596 0.16027175 0.30996475 -0.39310467 -0.13646263 0.9292181 0.6181002 0.62035596 0.13537496 -0.24552448 -0.12950537 0.10364817 0.38828436 0.24840942 -0.04962834 0.044611514 0.19658338 -0.21603382 0.27629107 -0.18676616 -0.29624045 0.17976573 -0.084371924 0.502792 0.42215562 0.05412019 -0.34047323 0.053966522 -0.12460212 -1.1379986 0.30834898 -0.3181993 0.092274934 0.08666347 0.1058278 -0.8782771 0.19201873 -0.36981192 -0.026763273 -0.028571712 0.53141487 -0.007813176 0.5374225 0.2225003 -0.016473662 0.12554301 0.3658158 0.32997727 -0.5859538 0.5340722 -0.034866925 -0.21980715 0.04031578 0.40580708 -0.7029651 -0.052869134 0.14301556 -0.45163026 0.11958272 -0.42191473 0.56664526 0.042721007 0.16751128 0.08560717 0.60395944 0.062457494 -0.46854252 0.09826985 -0.03592689 -0.3568098 -0.0041228575 -0.5445672 -0.36461943 -0.092671745 0.16228323 0.095789604 0.015333943 -0.02417043 -0.05316349 0.1026023 0.026588948 0.23838168 0.11017635 0.13142172 0.027309531
32 -0.26160005 -0.32678363 -0.05870381 -0.54126084 0.12316911 -0.13807099 0.475498 -0.47945103 -0.53738457 0.13242614 -0.08004085 -0.17668252 0.15539993 -0.017289978 0.38680166 0.21432945 -0.023398984 -0.1335631 -0.8676981 -0.017754538 -0.4199235 0.05447689 0.2526415 -0.53895175 0.2493149 -0.094432645 -0.42132837 -0.41499168 0.08546052 -0.25676063 -0.24740238 0.16250178 0.34186813 -0.01876156 -0.062066652 -0.0062208576 -0.039297953 -0.09390226 0.15852025 -0.15471953 0.3342508 0.49100247 -0.2806076 0.25679722 -0.05441376 0.086709 -0.36278903 0.08245495 0.39718366 0.11558378 0.53322107 -0.047800343 0.30588385 0.21714884 -0.05269594 0.58116156 0.45433637 -0.3381236 -0.26778603 0.18793513 -0.3849721 0.18893693 0.49917552 0.37668413 0.18073608 0.16763997 -0.21368127 -0.15058145 0.540269 -0.14487764 0.3458346 -0.49988386 -0.29200897 -0.1428549 -0.17506 0.37015727 0.17709623 0.33607954 -0.9767623 -0.02632395 -0.08546324 -0.08900425 -0.17388007 0.40715706 -0.37024972 0.70585334 0.09790805 -0.37229317 0.11779451 0.5372141 -0.120328 0.2199128 -0.019819282 -0.26343438 0.067171305 0.56556267 0.04278709 -0.33944777 -0.29563397 -0.18839854 0.115179665 0.036652707 -0.54756814 0.2551478 -0.42162612 -0.4679252 0.7105686 0.051630273 0.47737008 -0.3958926 -0.13312395 -0.47286525 -0.24347112 -0.61915994 -0.36877692 -0.33668926 -0.04763385 0.34022468 -0.18055396 -0.019174991 -0.15771641 0.29000744 -0.40852058 0.25767884 0.150514 0.16614029 -0.50738895 0.37634873
92 0.10701734 -0.48651022 0.025804192 -0.04234864 -0.5628526 -0.24956721 -0.17155913 -0.55358 -0.07430001 0.789295 -0.045407508 -0.40654784 -0.19336258 0.0004713166 0.2506387 0.68031615 0.3210252 -0.09619586 0.02318563 -0.28948867 -0.26932207 0.16333988 -0.0113346325 -0.4397445 0.330796 -0.023864157 0.2943549 -0.23049153 0.002738577 0.068654984 0.13814373 -0.30974242 0.031681657 0.17769292 -0.26946577 0.10790862 -0.021941956 0.43966213 0.016299702 -0.39690638 -0.46020958 0.7757674 -0.5448951 -0.41285953 0.12746891 -0.2605992 -0.83239526 -0.19681366 0.49872175 -0.1677236 0.22586176 -0.01117958 0.2708859 0.2118584 -0.3209312 0.72666144 0.28489792 0.36260682 0.3855363 0.17392784 0.13795751 0.79041827 0.17988174 -0.1484985 -0.11207078 -0.32392696 0.14935155 -0.25827742 0.33714393 -0.26443943 0.12812026 -0.033031806 0.11823348 0.011208066 -0.24019122 -0.21384391 0.14409551 0.28873023 -0.732165 -0.32243097 -0.3283666 -0.5515872 -0.0904793 0.40057406 -0.0149169 0.26422447 0.67213404 0.041790593 -0.5617062 -0.28788334 -0.3219459 -0.41079435 0.08439699 -0.21038103 0.13776466 -0.15867889 0.5495923 -0.25254837 -0.29961795 -0.026080677 -0.12097994 -0.053286698 0.3585386 0.22627947 -0.28285393 -0.34309202 -0.13081628 0.45031098 -0.16250838 -0.22442508 0.6952004 0.020455858 -0.2530355 -0.46249795 -0.113389134 0.034199905 -0.0042924252 -0.13794759 -0.0054899245 -0.14663357 -0.12462567 0.04103622 -0.41212332 -0.38717854 0.028132753 0.18697889 0.21930261 -0.29459667
84 0.067982964 -0.4186919 -0.4756621 0.014774846 0.17671123 0.09109827 -0.27438188 -0.025053976 -0.1783844 0.27754614 -0.34501278 -0.2822686 0.12482241 0.22126342 0.4330021 0.03030625 -0.03534786 -0.21619187 0.08664675 0.38923684 -0.23673347 -0.17162968 -0.10938684 -0.72014356 -0.33665067 0.27066502 0.46596038 0.13982816 -0.23935343 -0.058020238 -0.15319525 -0.6780461 -0.3089102 -0.07010194 -0.6338967 0.017484631 -0.65941066 0.059130438 0.124754295 -0.40240797 -0.27257293 0.053002097 -0.29568776 0.10268177 0.03513891 0.43214437 -0.057770412 0.23008415 0.11522541 0.12026097 0.12633605 -0.025294576 0.5677688 0.04295241 -0.045478534 0.47325665 0.20991263 -0.36635265 0.090441726 0.48512417 -0.19774237 0.0016355568 0.35526264 -0.15689941 -0.25832 -0.07633128 0.4416923 -0.29179767 0.57031816 -0.33993387 0.16766939 -0.12846296 -0.37608263 -0.01510187 0.020881005 -0.060465075 0.53295594 -0.13027169 -0.41672686 -0.26184142 -0.4486773 0.11120698 0.1768257 0.606248 -0.057312213 0.04585796 0.43606856 -0.009809736 -0.008428079 -0.18365708 -0.20403166 -0.18360949 0.21857342 0.34265563 -0.05278604 0.46338612 -0.23636374 -0.40337837 0.088471435 -0.16212758 -0.9100269 0.19334461 -0.21212533 -0.10888413 -0.03970674 -0.12572555 0.09520601 0.48891127 -0.036194902 0.0038186545 -0.14440292 -0.4416984 -0.11402256 -0.40639967 -0.6005917 0.31665114 -0.1678562 0.27654308 0.2728311 -0.52946275 0.5928128 -0.06308034 -0.025010077 0.31336796 0.12944359 -0.20642553 -0.30531818 0.17260776
86 -0.19804597 -0.6315311 0.16319469 -0.49039048 0.06106096 0.30072224 0.06407383 0.22823022 -0.18949623 0.3472962 -0.25787956 0.23169991 -0.003430974 0.055451408 0.6144865 0.45689198 0.19459063 -0.25160077 -0.13621889 0.22025222 -0.599947 -0.30219373 -0.44046926 -0.33477974 0.11089188 0.23695667 -0.33051077 0.38088715 -0.3075739 0.059333906 -0.40806994 0.108768485 -0.2011223 0.22834162 0.014363476 0.3438184 0.24056715 0.11268507 0.00028665236 -0.33814353 2.6202102e-05 0.5194054 -0.5734565 0.07925623 0.1995771 -0.15936555 -0.74679476 0.21614347 0.5864319 0.2048247 0.05039457 0.17631067 -0.030481052 0.673998 0.09915726 -0.4089257 0.062300917 -0.07092561 0.49620396 0.35855827 -0.6708326 0.57988113 0.5478719 -0.23916176 0.36395642 -0.52343595 -0.0068743783 0.012839787 0.42788285 -0.2882103 -0.24614245 0.22274855 -0.3953757 -0.018158514 -0.021469163 0.12997343 0.06700421 0.14553869 -0.2861261 0.5281972 -0.23725653 0.24083929 -0.05252181 0.59367925 -0.20397529 0.67012405 -0.21955806 -0.2687959 -0.4102305 0.34283477 0.5680437 -0.32514095 0.036257803 0.14057076 -0.19516377 0.32726473 -0.06302631 -0.3655188 -0.027888078 -0.24705796 -0.61237514 -0.25772533 0.2656776 0.5036654 0.11592753 0.17596936 -0.16564 0.024129145 -0.13992259 -0.21394782 0.021520013 -0.21215095 0.26651183 0.09741241 0.041510582 0.112916395 -0.21828029 0.05713851 0.5600951 0.13349384 -0.08085134 -0.3350687 -0.631433 -0.1564507 -0.021534825 0.045584857 -0.22245789 0.005785135
72 -0.28767607 -0.10652961 -0.24867374 0.23970792 0.29449856 -0.62767863 0.53584504 -0.25066945 -0.059162214 0.5255782 0.031378064 -0.052144367 -0.032700706 -0.36349764 0.5895235 0.47413403 0.2592976 0.15857711 -0.32344785 -0.03853423 -0.4373022 -0.21625188 -0.2714532 -0.5326428 -0.09892809 -0.30749562 -0.25748697 -0.31315237 -0.110322595 -0.5912753 -0.44936168 -0.68144304 0.11497861 0.14250246 -0.15607145 0.52063924 -0.08834867 -0.09636424 0.28624505 -0.50107175 0.17246051 0.41756365 0.09659403 0.12955184 -0.07235444 -0.19906695 -0.4468437 -0.113324635 0.6657838 0.019736597 0.43401197 0.07211806 0.53439283 0.02989219 -0.2771625 -0.11021518 0.3339257 0.20954835 -0.41629946 0.3881427 -0.39715284 0.60527426 -0.25783452 -0.117913544 0.10916619 -0.276747 -0.032973103 -0.28326076 0.3171472 0.055016022 -0.15983975 -0.38793483 -0.4063213 -0.1345236 0.17198437 0.2751638 0.10910289 -0.057535127 -0.37938786 0.17521986 -0.03652137 0.019480458 0.17512438 0.4920152 -0.013306546 0.4570226 0.75036025 -0.50358546 -0.3220348 0.4773001 0.08181543 -0.25564086 0.24702084 -0.004046813 -0.22646648 0.44601822 -0.2982774 -0.15339203 -0.065073565 -0.12186007 0.08822763 -0.3692272 -0.26118568 -0.17925604 -0.371229 0.26468012 0.33214962 0.16621937 0.56164634 -0.51427615 0.31904396 -0.91841334 -0.27448356 -0.31338546 0.045699537 -0.3100995 0.10958273 -0.20612362 -0.61605394 0.105800875 -0.097685814 0.5952439 0.08028736 0.0033838286 0.2286974 0.40035295 -0.17345908 -0.032350507
87 -0.032018483 -0.69017226 0.21290192 -0.41724807 0.30943352 0.24377838 0.09544255 0.22961158 -0.17420734 0.3987148 -0.23758325 0.03637388 -0.09044602 0.05612203 0.53380495 0.47687262 0.2500529 -0.18207526 -0.16471696 0.20073375 -0.57556665 -0.26175794 -0.5084677 -0.42660162 -0.018335156 0.26555353 -0.2889501 0.4708529 -0.2453874 0.120311916 -0.4502099 -0.056470487 -0.10096494 0.20526217 -0.016034931 0.45789462 0.21703519 -0.0040812627 -0.002486428 -0.39452013 -0.07575682 0.54929805 -0.31645513 0.038137406 0.2689952 -0.22226463 -0.724429 0.31256878 0.5370751 0.13813947 0.039661173 0.10361602 0.12615284 0.7797343 0.15427558 -0.40392235 0.028922297 -0.10353301 0.5385932 0.2017319 -0.66083837 0.5676496 0.517524 -0.20038426 0.4416547 -0.40695742 -0.030393988 -0.014541007 0.24346636 -0.30252188 -0.088946745 0.030800475 -0.5656813 -0.10232675 0.12526193 0.033835784 0.026836518 -0.05846603 -0.22734052 0.4573961 -0.31591585 0.27274173 0.012235045 0.59515834 -0.14116786 0.6408396 -0.0879882 -0.1813391 -0.4633264 0.44101194 0.49070266 -0.26698023 0.031887893 0.24936028 -0.1045685 0.23783244 -0.05645824 -0.4236072 0.08034773 -0.21600391 -0.48307303 -0.26868692 0.18475337 0.26192024 0.14600086 0.39673975 -0.1908752 0.0025142473 -0.17627499 -0.12758845 0.12066612 -0.41766176 0.19272105 0.048549835 0.040765397 0.17276119 -0.048355553 0.025882445 0.4189054 0.092587136 0.034609612 -0.26336843 -0.48660323 -0.04630577 -0.02325655 0.08951374 -0.21264322 0.049924262
85 0.20354153 -0.37260088 -0.2067206 -0.010835155 0.46874458 0.13881558 -0.070248835 -0.13200162 -0.11902844 0.30993176 -0.3546157 -0.33500344 -0.013324971 0.2045942 0.45501924 0.27202198 0.24448211 -0.25940812 0.055762377 0.32494894 -0.1494224 0.024878124 -0.30961192 -0.7043666 -0.38244748 0.32014993 0.23761067 0.091724224 -0.3296642 0.15337968 -0.12111398 -0.732164 -0.06525654 -0.07845596 -0.5910564 0.26327378 -0.39609313 0.012314968 0.030580811 -0.5719751 -0.25781196 0.17345996 -0.21254253 0.21199644 0.09137992 0.6015126 0.022209814 0.35319906 0.13247828 0.04816056 -0.039964646 0.055810153 0.66898113 -0.030316688 -0.028716335 0.44274577 0.17352311 -0.2681761 0.13210437 0.23663652 -0.05505631 -0.12993708 0.28259242 0.013859544 -0.059833515 -0.26618344 0.5209086 -0.43291646 0.30109555 -0.27026173 0.02339125 -0.17001109 -0.56793237 -0.059558265 0.065851085 -0.104935065 0.56213254 -0.009439243 -0.32841358 -0.26418778 -0.37321022 0.12234589 -0.04738945 0.4294053 -0.011854654 0.21330978 0.31838605 0.10472787 0.03352408 0.0713555 -0.2577551 -0.26331848 0.42393342 0.35458803 -0.014928257 0.48180005 -0.061161906 -0.34378958 0.021102509 -0.26680624 -0.7855655 0.16666149 -0.22923857 -0.21048993 -0.0773182 -0.12618227 -0.06805757 0.3788128 -0.17270356 -0.060178045 -0.11825002 -0.3726565 -0.17174117 -0.38561845 -0.51360756 0.33349454 -0.15679292 0.22200431 0.36086386 -0.26348925 0.37967294 -0.1738168 -0.05587247 0.35229033 0.011916532 -0.28914925 -0.35964558 0.07979201
101 -0.3722835 -0.50277215 0.06845308 0.27627206 -0.13023251 0.08721995 -0.09594702 -0.0412252 -0.19856466 0.20223458 -0.20638399 -0.35925946 0.13492516 -0.33274835 0.8410123 0.11866271 -0.34647214 -0.19589783 -0.17827967 -0.08987715 -0.1915653 0.4394079 -0.10462594 -0.41451803 0.06443247 0.5067865 -0.20315647 -0.3400844 -0.031846195 0.14541514 -0.3789048 -0.61096025 -0.5765862 -0.07242509 -0.5265761 0.32765222 -0.13733046 0.33133477 -0.098958746 -0.7725794 -0.43770725 0.5175634 -0.16889636 0.06988526 -0.094333895 0.31116995 0.039691344 -0.27906027 0.46469417 0.0916271 -0.06811622 -0.027599324 0.0052113445 -0.37999135 -0.1170625 -0.002736494 0.118746154 -0.02672423 -0.28308076 0.11584361 0.054578487 0.34624752 0.7888494 -0.48436844 -0.42422694 0.01655669 0.8610318 -0.24848741 0.8897627 -0.6094822 -0.173783 -0.15559745 -0.14110883 0.076546416 -0.41866416 -0.1096697 0.22917011 0.3952736 -0.14959385 -0.26561746 0.015810834 0.7022676 -0.050557 0.7629612 -0.42840046 0.3502003 0.035450675 -0.04474581 0.23808956 0.21094157 -0.09575802 0.040513325 0.41065392 0.21294174 0.16181748 0.20060037 0.11540902 -0.52785075 -0.1341275 -0.4123322 -0.6095154 0.24532843 -0.26235336 0.21035224 -0.41491362 -0.4000674 -0.15678442 0.47602075 0.1445557 0.1917879 0.20822969 -0.49524125 -0.041815106 -0.5046076 0.07879286 -0.12464122 0.24467722 -0.36789247 0.07504169 -0.26541135 -0.2611699 0.233529 -0.32673544 -0.18581328 0.20285033 0.052777093 -0.78362614 0.3115734
47 -0.064733855 -0.6739297 -0.6932373 -0.071421914 0.12591723 -0.15566386 0.19126478 -0.22619069 0.16477461 0.4185248 -0.2131961 -0.6326239 -0.13618523 0.25791165 0.57324773 -0.044906426 0.16135877 0.042120893 -0.51413 -0.17701869 -0.085905634 0.06435766 -0.49992886 0.24155024 0.5456004 0.16537301 -0.15351774 -0.35663083 -0.08238716 0.16562259 -0.9840037 -0.030990465 -0.30118686 -0.14128542 -0.31547058 0.14381993 -0.12700817 -0.16975854 -0.06863166 -0.5501083 -0.039187357 0.6100746 0.103526466 -0.34536624 -0.46501157 0.37403083 -0.35306534 -0.07837181 0.5813256 0.06228355 0.4595191 -0.34069458 0.4507307 -0.09888569 -0.23622975 -0.13677092 0.02967824 -0.0460427 0.15168549 0.36002016 -0.14252836 0.23256323 0.27215528 -0.09416463 0.52884954 0.15528043 -0.38061166 -0.16383004 0.5237164 -0.60399705 -0.46514052 0.038093563 -0.5325828 0.032194067 -0.26582772 -0.2709244 0.569736 -0.07953687 -0.5166066 -0.044542156 -0.40424138 -0.25743687 -0.1781691 0.59042495 0.058650948 -0.10509466 -0.310102 -0.0938127 -0.023640307 -0.5750407 0.34491122 -0.19552715 -0.16618036 0.17285119 0.09163697 0.34900522 0.31324536 -0.21517651 -0.118447065 0.24008499 -0.18127048 0.13130118 0.063125685 0.70549047 -0.32305694 -0.49959597 -0.055339735 0.72401613 0.21871893 -0.3459668 0.36093146 -0.4586941 -0.0928003 -0.015580457 -0.7172691 -0.23397961 0.34408498 -0.18496701 -0.13613115 0.28850713 -0.016131883 -0.16455245 0.029994516 0.1674659 0.29044315 0.22651178 0.11920959 0.48548254
45 -0.09927265 -0.67716223 -0.59122705 0.058776174 0.049622025 0.014012001 0.27135888 -0.18140659 0.24846499 0.18205178 -0.19417667 -0.4865822 -0.42459008 0.16353562 0.66082597 -0.1329705 0.14667545 -0.022664908 -0.4977813 -0.05813078 0.14178893 0.22223987 -0.49215204 0.16570176 0.51371276 0.089996524 -0.15928738 -0.41999573 -0.0254346 -0.03537588 -0.84000576 -0.20308444 -0.011891124 -0.15554258 -0.26468074 0.4427644 -0.10392422 -0.014436426 0.1459691 -0.45320445 -0.12534264 0.77789664 0.18620744 -0.28235617 -0.34160796 0.42874488 -0.17276587 0.051588424 0.63955194 -0.14935802 0.5004195 -0.16725554 0.38891497 0.18173496 -0.27659702 -0.09087068 -0.07831587 -0.15705553 0.2726951 0.3777162 -0.25027934 0.13790832 0.3299401 0.14425777 0.55480146 0.12025743 -0.086268425 -0.27458665 0.5233034 -0.5098013 -0.5584522 0.07920902 -0.5209966 0.15249921 -0.37601185 -0.052356474 0.6076485 -0.112150885 -0.5359069 0.12438126 -0.41694272 -0.37308744 -0.1462093 0.5505612 0.045402605 -0.10970728 -0.36605364 -0.11326685 0.051821996 -0.4561009 0.36558977 -0.23047964 -0.21554302 0.17952837 -0.014335707 0.17240968 0.23303969 -0.15299603 -0.28850138 0.16667767 -0.30257532 0.10736945 0.13259852 0.65652966 -0.5662651 -0.68019575 0.07436326 0.7804985 -0.038178403 -0.3727298 0.3591229 -0.39268574 -0.0022427053 0.19141102 -0.5159974 -0.37469882 0.41156092 -0.17448556 -0.19342348 0.1532286 0.00061682065 -0.17188935 -0.018326135 0.13297588 0.29287982 0.093801156 0.27736044 0.35577628
44 0.32111076 0.15031216 0.051644206 0.26353574 0.77829504 -0.2880557 0.1962728 -0.29346782 -0.15281686 0.5984905 -0.028447498 -0.13245954 -0.10556516 -0.036414657 0.2270237 0.4677471 0.5351121 -0.44820723 -0.20904031 0.23947836 0.18051407 0.43103686 -0.64984053 -1.0358354 0.13124596 0.70565253 -0.30235994 0.20725483 -0.15044829 0.26246887 0.1315405 -0.52456224 0.4964233 0.19388326 -0.36825097 0.3508191 0.14848897 0.01239773 -0.1693135 0.044914022 -0.67239934 0.60726523 -0.23960024 0.11527602 0.26935196 0.19849046 -0.39037737 0.39153948 0.13759041 0.3253654 0.2400179 0.010460537 0.09689717 0.13578056 0.09551557 -0.20176165 -0.09659984 -0.036617085 -0.24140626 0.16758698 -0.2189995 0.054188397 0.12570144 0.15259181 0.3258653 -0.13138834 0.5332816 -0.48894235 0.1578459 -0.35441786 -0.0032183193 -0.068509884 -0.31828612 -0.21734314 -0.06173741 -0.011644017 0.41691837 -0.13944677 -0.70148504 0.37554842 -0.14687122 -0.11635137 -0.10054653 0.32567492 -0.119756885 0.21774185 -0.058207877 -0.10900706 0.10149937 -0.15229933 -0.35584253 -0.046964902 0.36614275 -0.11218228 0.08181106 0.44001225 0.087304614 -0.27182353 0.07534564 -0.32038096 -0.40169945 0.041400038 -0.16257398 0.2984167 -0.25753742 -0.23737991 -0.13374919 0.357763 0.22652678 0.12203714 0.6040101 -0.26662755 -0.24520947 -0.12322797 -0.9353348 0.07723331 -0.06387857 0.21736954 0.3344813 0.043874267 0.3342521 -0.08667936 0.25558335 0.23939458 -0.13628507 -0.08067421 -0.2894664 -0.0080058165
102 -0.28920174 -0.4861727 -0.21182163 0.36657426 -0.10098213 0.17772979 -0.12043218 0.030888615 -0.2767607 0.24522132 -0.12893185 -0.3275129 0.002033707 -0.2940383 0.65457135 0.29475003 -0.35921824 0.1034811 -0.032549042 -0.17484549 -0.16967544 0.17767696 -0.19194461 -0.557161 -0.19962877 0.53867894 0.12803108 -0.34194636 -0.042083908 -0.0035313778 -0.2257935 -0.6099972 -0.544154 0.12884262 -0.7215926 0.2078276 -0.10844489 0.5382195 -0.013594973 -0.50531226 -0.31572914 0.28239024 0.028771965 0.21546769 -0.16152814 0.46814686 0.07708695 -0.16250065 0.40213937 0.053041086 0.04019502 0.06993143 0.23031966 -0.15573779 0.012506915 0.3334925 0.20563225 -0.28970098 -0.13966806 0.26928097 -0.04417678 0.23275934 0.68826157 -0.34630948 -0.38777456 0.19650437 0.77291816 -0.5030991 0.9872058 -0.57796365 -0.14008172 -0.09048857 -0.23798327 -0.19987418 -0.4520107 -0.216257 0.28579038 0.40581718 0.010998642 -0.42777148 0.23706707 0.52021205 -0.116313525 0.8839804 -0.20803717 0.4432589 0.027953606 -0.11160856 0.095354274 0.14873908 0.0142115755 0.13781063 0.29753143 0.3775574 -0.093194835 0.3116531 0.042429145 -0.49207163 -0.06913575 -0.32911718 -0.7726199 0.20939693 -0.131149 0.2231258 0.023011893 -0.2576898 0.036744323 0.43233588 0.23642732 0.026721375 0.1491887 -0.6502883 -0.16999239 -0.4577346 0.12482492 -0.14900886 -0.10160676 -0.32882676 0.12094546 -0.3675846 0.11365008 0.039349683 -0.13863812 -0.052157223 0.20865087 0.16410598 -0.5823105 0.3133922
37 0.1423735 -0.62181884 -0.59999734 -0.109110944 0.08206027 0.052130606 -0.32893658 -0.39879036 -0.48302236 0.60413885 -0.4304151 0.12952316 -0.11564479 0.29594696 0.22783336 0.18199018 0.14513251 -0.12106789 -0.14017157 0.61764127 -0.5530643 -0.23501721 -0.18987568 -0.80646855 -0.16127688 0.034612827 0.6252419 -0.09124374 -0.38882494 -0.4648694 0.16318333 -0.42840788 -0.21184032 0.022167686 -0.5523937 0.07910404 -0.5350326 -0.025668709 0.12987296 -0.23727292 0.059826307 -0.0153140295 -0.22355314 0.20403816 0.088547245 0.3133115 -0.40465692 0.22285526 0.4745583 0.18744566 0.13472807 -0.2775466 0.75002015 0.20707206 0.017573591 0.5008409 0.34616163 -0.5496871 0.13477316 0.59419066 -0.22363418 0.1552978 -0.02406714 -0.101704136 -0.16289926 -0.09826873 0.558322 -0.15343468 0.76276356 -0.28780308 0.12967779 0.24569394 -0.23693173 0.23943341 0.07246224 0.25018594 0.38488597 -0.21139032 -0.5672795 0.17942707 -0.40678245 -0.10795139 0.10932469 0.43145823 -0.10147767 0.03642877 0.47900856 -0.034047883 0.09519415 -0.08993076 -0.053072028 -0.2414611 0.31984943 0.22489053 -0.06702532 0.48458186 -0.31250232 -0.020497039 -0.14019841 0.15798976 -0.9997391 0.12526733 -0.43037078 0.19940901 -0.13376519 0.16103952 0.38177028 0.6918566 -0.28476083 -0.13952348 -0.40767825 -0.39067933 -0.022161353 -0.27317017 -0.4611373 -0.041425098 0.07923796 0.43577534 -0.008210285 -0.50602376 0.5583121 0.07409842 0.07477534 0.09591242 0.042106472 -0.3779525 0.05822013 0.36182362
99 -0.2140517 -0.55383784 0.18433063 0.5377531 0.008734821 -0.030283758 0.09836581 0.034325898 -0.071749076 0.17739096 0.24480315 0.45779988 0.016671317 -0.15652503 0.30670807 0.053874806 -0.010634793 0.09451454 -0.18006708 -0.10172617 -0.22027121 0.7925826 -0.17925781 -0.53308004 0.19790833 -0.06367269 0.00980927 -0.35212934 -0.112338744 -0.29970735 -0.43695584 -0.048877455 -0.10579709 0.36617747 -0.07732623 -0.5656821 -0.23755506 0.1157403 -0.46452203 -1.143849 -0.44954816 0.5592871 -0.044867303 -0.20984393 0.14454837 0.39441925 -0.5282028 0.046261802 0.98427033 0.5331735 0.57256395 0.22186965 -0.35620573 -0.004906699 0.05239172 0.44179508 0.21155114 -0.088136114 -0.0023156127 -0.010470154 -0.16297857 0.2689843 -0.19734377 -0.07841753 0.30672482 -0.16138805 0.4694333 0.37346518 0.28034067 -0.25792512 0.026697807 -0.20056304 -1.0307364 0.18248533 -0.21661675 0.3386462 0.07760781 0.007753325 -0.786481 0.08072358 -0.348382 0.072679855 0.057643034 0.5184573 -0.18102641 0.464692 0.29728243 -0.0043043564 0.12597658 0.34445924 0.43645096 -0.7079577 0.63397115 0.072437845 -0.3111318 0.16787192 0.51069355 -0.75811994 0.08693591 -0.04403654 -0.5392812 0.2458573 -0.34918767 0.6847206 0.13088827 0.11205216 0.3224112 0.4035268 0.05675971 -0.46964553 0.042256616 0.060414184 -0.55949694 0.14120626 -0.5158036 -0.4723658 0.15742984 0.2242278 0.27415302 0.050121285 0.09014927 -0.07983651 0.060251866 0.13457008 0.11163258 0.13494854 0.039699417 -0.026448596
38 0.27081144 -0.36040166 -0.696467 -0.095376 -0.045116633 0.090322375 -0.28460115 -0.50451875 -0.50991523 0.5408258 -0.40805888 0.35988885 -0.033474434 0.26745537 0.6269789 0.16821249 0.25539917 0.021611506 -0.096254766 0.529342 -0.51214635 -0.10116118 -0.14712456 -0.78457826 0.026081074 -0.073547065 0.56416464 -0.077886984 -0.3509558 -0.46067414 0.117761634 -0.40977988 -0.27120197 0.2371506 -0.5611461 0.09785738 -0.36885807 0.09967113 0.45086664 -0.1621484 -0.046338834 -0.036547825 -0.16668671 0.11266197 -0.04833334 0.06649937 -0.50111216 0.11957091 0.57203084 0.0840969 0.30597427 -0.27634302 0.53777874 0.20821288 -0.0846486 0.5738762 0.47824255 -0.55405796 0.0853239 0.49310848 -0.29024395 0.061898034 -0.18383658 0.02107589 -0.02410093 -0.0559902 0.5556965 0.017127663 0.76507306 -0.42489487 -0.0010422692 0.34744364 -0.21458617 0.2583298 -0.07912993 0.14931661 0.50727504 -0.06239749 -0.6807639 0.41581416 -0.3209243 -0.06482803 0.016754132 0.5447981 -0.21692984 0.08903689 0.44462517 -0.32936218 -0.04745786 -0.06392105 -0.058435008 -0.3342777 0.230922 0.101318926 0.004841292 0.03879914 -0.45806712 0.04301725 -0.022769826 0.19424821 -0.9116054 0.049193542 -0.51969934 0.45881706 -0.37037706 0.04917663 0.41375926 0.8823932 -0.17170161 -0.13496758 -0.3227447 -0.27874267 0.022342846 -0.054346584 -0.4094063 -0.11398044 0.27253303 0.45966694 0.0790758 -0.39247724 0.54525137 0.1772905 0.11279652 -0.04380735 0.013802228 -0.37307087 0.104266375 0.46815583
27 -0.5626118 -0.61592895 -0.007386074 -0.33255836 0.07939982 -0.27035064 0.31252918 -0.66438603 -0.095532134 0.11956339 -0.11456163 -0.084230155 -0.08431712 0.26220745 0.5602953 0.62427425 -0.15332422 -0.3384451 -0.4288194 0.014489066 0.06426554 0.11357486 0.0029237992 -0.12356407 -0.008171064 0.08420668 0.40384182 0.24988668 0.1771804 -0.8637393 -0.008412847 -0.17278172 0.20851646 -0.056176778 0.31176937 0.17579062 0.106806815 0.15120673 -0.10708822 0.042099785 0.15658309 0.26520076 -0.20104618 -0.16765368 0.31838864 0.600633 -0.38893357 -0.10463238 0.39573175 0.3032681 0.14019108 0.19660857 0.16652526 0.20345302 -0.10566284 0.30522323 0.25582677 -0.19133261 -0.61773723 0.081367515 -0.15217583 0.049513202 -0.124095686 0.02305885 0.16685033 -0.022648923 -0.26499677 -0.10013945 0.26855528 0.11633526 -0.15249826 -0.45662147 -0.45355874 0.055997446 -0.4462319 0.18910058 0.1066828 0.406477 -0.6737644 0.43626437 -0.1184103 0.21242943 -0.34394407 0.12226075 0.19006115 -0.12263521 -0.03417168 -0.040855486 -0.27553514 0.34318298 0.09310879 -0.36774886 0.24073234 -0.31294304 0.35009566 0.6116533 0.11132978 0.13821097 0.024548113 -0.060311105 -0.0013582037 0.21223089 -0.26471427 0.23097381 -0.01210347 -0.24338718 0.3898572 0.2633332 0.73842347 0.1423841 -0.03353172 -0.42204988 -0.06226834 -0.23888999 0.20286638 -0.054906845 0.03889653 -0.033916716 -0.35855407 -0.20510745 -0.2388526 0.17793809 -0.19748844 0.012757035 -0.052616067 0.27909252 -0.39842573 0.15944247
