120 300
9 -0.06927341 -0.05519597 0.41821018 0.3703071 -0.2353718 -0.33348942 -0.18940805 0.41110644 -0.093391664 0.18806222 0.27327627 -0.03189987 -0.36224806 0.18149617 -0.28012624 -0.3861337 -0.05887571 -0.061616316 -0.057483226 -0.22636515 0.12589994 -0.038946833 0.05932414 -0.11391569 0.4884373 -0.42554706 -0.15187529 0.02962842 -0.30163175 -0.47562551 -0.27161726 -0.068932585 0.4451746 -0.08808961 0.070665345 -0.113654174 0.23181687 -0.21784939 0.028211402 -0.13695493 -0.26287028 0.16359007 -0.30140653 -0.18116492 0.08294348 0.1281682 -0.023266073 0.109833516 0.25890794 -0.008521377 0.06500318 0.20508158 -0.35831726 0.08561631 -0.04397308 0.19986103 0.19812526 -0.14663042 -0.03391934 0.15774299 -0.054800987 -0.06939789 -0.28228503 0.057054948 -0.025647439 -0.015095933 0.12844321 0.3574426 -0.19260949 -0.09383345 -0.022148237 0.062453102 0.23009838 -0.366243 0.05203254 0.04377826 0.116646945 -0.16427173 -0.25880495 0.09303469 -0.0026263415 -0.20003104 0.017304437 0.29790002 -0.074427396 0.09743025 -0.12518807 -0.008145445 0.12611303 0.08397203 0.26780024 -0.11694438 0.01777775 -0.000923586 0.07148201 0.26670977 -0.410231 -0.025219679 0.012604366 0.26384568 -0.17075647 0.12996514 0.22810933 0.11166266 0.34005713 -0.2995167 0.1239195 0.18687251 -0.21875972 -0.29317376 -0.101405874 -0.47924232 -0.24622947 0.100997105 -0.0082369475 0.33853865 -0.085273184 0.2492026 -0.2781786 -0.13568775 0.10495361 -0.06400631 0.31901187 -0.20161766 0.18407278 0.23882483 -0.15033929 0.05162521 -0.13291876 0.3263827 0.16971649 0.08536067 0.025277544 -0.28030336 0.017685024 0.07789108 0.15391597 0.16901097 0.01944125 -0.083171226 0.0836866 -0.23001155 -0.24985076 -0.04847284 0.04078635 -0.118093215 0.095887214 -0.29575443 0.19373967 -0.07769961 0.20601016 -0.55314773 0.057897735 0.08796086 0.20489183 0.40932068 0.10483268 0.1655796 -0.043637067 0.6224514 -0.18176316 -0.016645465 -0.3652415 -0.13389675 0.0018114793 0.1789639 0.123123646 -0.10877784 -0.04771906 0.5662183 -0.17543268 -0.1940625 0.1928902 0.3441451 -0.18882297 -0.13543034 -0.031608623 -0.20302477 0.2896867 0.025556467 -0.25661322 0.16916056 -0.05022187 -0.4199675 -0.2461289 -0.13472159 0.27422765 0.11565422 0.07920866 -0.25860155 0.14289854 -0.035628233 -0.15479584 0.006150321 0.14847036 0.22207488 0.029265778 -0.08532335 -0.37609756 -0.026562281 -0.12353374 -0.07221022 -0.25537223 0.089669436 0.1502133 0.15156083 -0.23681888 0.07727222 -0.31026858 -0.035990667 -0.25909293 -0.107362516 -0.15822963 0.11049834 0.3250676 -0.4115001 0.056545272 -0.0926027 -0.30876458 -0.41645044 -0.06987477 -0.068002045 -0.39401564 -0.3675347 0.040483836 -0.32633027 0.25137183 0.099160224 -0.17959288 0.3126703 0.18123326 -0.35166326 -0.27739367 0.11962851 -0.39483956 -0.14628509 -0.034372877 -0.009125687 0.14264019 -0.29812193 -0.05360951 0.16429253 0.16294591 0.06679997 0.38484514 -0.08356823 0.0449609 -0.05993431 -0.043704085 -0.07327231 -0.064933755 0.09194759 -0.20686285 -0.19865286 -0.2128354 -0.01068759 0.24015908 -0.16582225 -0.26743305 -0.098533146 0.1984403 0.013664751 0.33966517 -0.23409083 -0.29827008 0.18865137 0.07523797 0.18589847 -0.26497757 0.28061938 0.15322298 0.16922593 -0.04686171 0.1807882 0.29053947 0.2939745 0.28471097 0.26909384 -0.44019616 -0.06922288 0.18348444 -0.30492464 -0.47966605 0.07833766 0.06068747 0.062799074 -0.22808872 -0.118620284 0.32363617 0.012368935 -0.17010869 0.25935692 0.36552486 0.00041233498 0.22999944 0.5015521 0.16225085 -0.14934863 0.36383295 -0.28503984
25 -0.2720388 0.29165584 0.059303235 0.076197825 0.082234904 -0.3056668 0.07129897 0.6801159 0.28075042 0.010846469 0.21226573 0.09354491 -0.054078218 -0.18968911 -0.002435638 -0.2543856 0.25288162 -0.283414 -0.10279673 0.045630537 0.15528773 -0.07054959 0.381073 0.38662586 0.13756326 -0.096291564 0.0886276 0.05607027 -0.014275817 -0.29058534 0.024782458 -0.08557689 -0.15636724 -0.10594521 0.17671373 0.032558158 0.054163866 -0.43164906 -0.2883243 0.10607845 0.013690363 0.07810626 0.16706134 0.020160966 0.19219995 0.15397562 -0.10435241 0.24264559 0.038504675 0.06681441 0.2743896 -0.008887101 -0.17199661 -0.28192338 -0.3106234 0.1805613 0.105830066 0.05688267 0.1325522 -0.06823822 0.12087785 -0.04021401 0.24878111 -0.14642122 -0.083880045 0.057181537 0.22143933 0.13541844 -0.29249185 -0.27066362 0.18959123 0.07459346 0.1486565 -0.0031774715 0.06410837 0.13838877 -0.19656105 -0.15795055 -0.3634573 0.20790751 -0.08292257 0.10146779 0.0135893915 0.2874279 -0.13131577 -0.070297316 -0.013398849 0.25849894 0.3878188 -0.075579554 0.08888018 -0.27941737 0.2654458 -0.29399762 0.23002155 0.36331648 0.0762492 -0.06419467 0.098699264 0.105641745 -0.22319388 0.2817487 0.06335521 -0.07436996 0.2882419 -0.09877618 0.13684143 0.06403794 -0.39030805 0.057406943 -0.07237486 -0.03675295 -0.3587826 -0.08645181 0.0639338 -0.088176705 -0.13189852 0.30306557 0.022600314 -0.34989187 0.16040069 -0.016860234 0.14119786 0.22816089 -0.23815593 0.26061574 -0.23155947 0.14441493 -0.3979962 0.30256268 0.14250143 0.21896698 0.10415868 -0.13700032 -0.0686755 0.05236098 0.13082159 -0.008800472 -0.23905547 -0.23547575 0.13567244 -0.30508947 -0.36607674 0.11797137 0.4721651 -0.43655112 -0.058594022 -0.075663276 0.3662578 -0.33578545 0.24040692 -0.100869395 0.20945817 -0.25068182 0.017884044 -0.08102735 -0.11129876 -0.33302808 0.012031795 0.2178909 0.3186693 -0.0013939264 -0.100763716 -0.0575483 -0.1675134 -0.2177105 0.09148368 0.26694125 -0.21076073 0.7080773 -0.39540827 0.11538502 0.2539711 0.16391116 -0.14675769 0.10665586 0.015883846 -0.22874014 0.36529925 -0.22620484 -0.07899518 -0.17142233 -0.37450612 -0.18138795 -0.25216028 -0.18944274 0.35515666 0.21816644 -0.31345978 -0.27840686 0.09965735 -0.23072693 -0.04562265 -0.2656433 0.21263121 -0.1685312 0.019347576 -0.059421934 0.113406144 0.093579404 -0.093120925 -0.014008904 0.037736334 -0.01801766 -0.18990809 -0.21447864 -0.05113074 0.14517497 -0.15056744 -0.30841228 -0.2574628 -0.3890218 -0.33057797 -0.20018241 -0.036834173 -0.4464987 -0.35789132 -0.5949842 -0.25662014 -0.22306418 0.09574179 0.177851 0.020178096 -0.08662818 -0.10585142 -0.16403909 0.1720448 -0.1913968 0.049486414 0.3256824 0.19087465 -0.2735332 -0.19212425 0.12448919 0.057486176 0.012560194 0.010157608 -0.16677924 0.09968387 -0.29253408 0.36878738 -0.11855343 -0.10681071 -0.12313147 0.1422947 -0.37891215 -0.023204923 0.21206583 -0.06950322 0.11650855 0.2155414 -0.0059342766 0.24066843 0.0106879 -0.2394947 0.033186805 0.26516652 -0.12823915 -0.26763406 -0.39569607 0.24876408 0.12677798 0.34899834 -0.53914845 -0.14866932 0.07377929 0.05800645 0.42572415 -0.2879262 -0.08840679 0.0753626 0.002177583 0.11543004 0.25080472 0.3136584 0.44214353 -0.24422404 0.20619228 -0.3216115 0.23827024 0.15858933 -0.25618583 0.07975255 -0.20366369 -0.12771569 -0.051651772 -0.29938483 0.1254782 -0.0010525896 0.033595793 0.06921227 0.25320992 -0.19109029 0.07659134 0.447462 0.10038023 0.2225809 -0.10295188 0.15034583 -0.46254653
12 0.30596972 0.06195398 -0.0073109553 0.009314619 -0.19622868 0.031797063 0.012094049 0.41130295 -0.063930504 0.032551512 0.2937307 -0.073752984 0.030051475 0.06672793 -0.08942117 0.066172294 0.3559446 0.21805705 -0.01701875 -0.1550162 0.31408495 -0.22585325 0.1848551 -0.23438653 0.14121465 -0.15686052 -0.0017279515 -0.15578507 -0.24608321 -0.47753206 0.1285143 -0.04863568 -0.0075073848 0.26386553 -0.2709111 0.20316206 0.11494825 -0.10119978 0.1707644 -0.25630575 0.25895885 0.06343099 -0.022590347 -0.37203148 0.27337733 0.16452043 0.033131722 0.026324093 -0.15075223 -0.2359357 -0.0758679 0.2125561 -0.22266443 0.16669244 0.003695867 -0.1294508 -0.11334712 -0.2221748 -0.037325285 -0.20934534 -0.052912112 -0.17286697 0.15182051 -0.10661261 -0.13153385 0.1495095 -0.11629491 -0.11504888 -0.2510999 -0.23820631 -0.009617461 0.1586235 -0.12864912 -0.080493785 0.18426126 -0.037440125 0.30586717 -0.020281065 0.073432975 0.21518236 0.41072547 -0.19833958 -0.09351263 0.44882986 0.007259254 -0.023823211 -0.18613455 0.10993789 0.12815948 0.03616761 0.08057269 0.05503502 0.09332621 0.053311985 0.06203981 0.30241814 0.10321299 0.10203068 0.21986084 0.26414725 0.37274504 0.024739258 0.33893028 0.27368173 -0.018782334 -0.14401913 0.27303666 0.16092026 -0.43365815 -0.111275665 -0.08407774 -0.23444134 -0.03374774 0.07277968 -0.005310559 0.15407965 0.12589024 -0.067797385 0.20574315 -0.325898 -0.059666045 0.3364605 0.18227294 -0.06846943 -0.20559238 0.1923314 -0.0166878 -0.014914634 0.103896 0.48557746 -0.03505663 0.3677547 -0.0009168989 -0.15719052 0.051042296 0.16520976 -0.0068520107 -0.11289406 -0.36243263 -0.4526293 0.03736032 -0.12073384 -0.17379375 0.058032498 0.05177511 -0.40483725 -0.1885438 -0.09934979 0.21779193 -0.0372964 -0.025250187 -0.67796415 0.059763804 0.040878307 0.17806397 0.47830838 -0.114890106 -0.014165858 0.15956675 0.6792598 0.18926853 0.106670074 -0.3335094 0.09911887 0.0022260633 0.052107513 -0.20283929 0.26510963 0.15427625 0.2817536 0.06674974 0.10085761 0.11299533 0.32026818 -0.18907225 -0.2228715 0.38015088 -0.4420952 0.2159109 -0.17449597 -0.06224801 0.294734 -0.19415298 -0.03816775 -0.3383549 0.25539005 0.16640109 0.2884762 0.46579334 -0.17484975 0.16522585 -0.19913495 -0.46468934 -0.0019013949 0.04543117 -0.010058784 -0.08803131 -0.33686724 0.22657645 -0.25474846 0.03825804 0.30364773 0.08248696 0.23511799 0.12084029 0.109900646 0.0371814 0.2985909 -0.05018973 0.07289362 0.06373299 -0.2190421 0.06114006 0.098284364 0.4860622 0.1670776 -0.2913872 -0.3392503 -0.24925166 -0.16546774 -0.025093148 0.13687661 0.13745126 -0.08641136 -0.018174902 -0.11857957 -0.15671965 -0.24482256 0.062124502 -0.12565628 0.093315065 -0.34279057 0.053311378 0.44229108 -0.028196583 0.17139423 -0.13542356 0.13332586 0.14605168 -0.35649604 0.047317524 0.31941354 0.042767335 0.092428006 0.15135513 0.07064674 -0.032012798 0.1264963 -0.20490126 0.3841185 0.047216583 0.3798861 0.042299353 0.072825246 0.026174989 -0.10438429 0.036383197 0.26901177 -0.07057657 0.032348998 -0.015452497 -0.11195377 0.20672914 -0.43945003 -0.25023535 -0.2065178 0.1502352 0.31870717 -0.36589515 0.12177596 -0.16825007 -0.032628004 -0.006203397 0.1905143 0.003244257 0.11423772 -0.13681415 -0.054489788 -0.35205388 -0.15779561 -0.22051582 -0.12915331 -0.0062456047 -0.052346133 -0.21140015 0.09582605 -0.15928032 -0.14526148 0.14795086 0.25295803 -0.10919585 0.10595989 0.1207927 0.13988584 0.24200304 0.118495084 -0.1406515 0.11384171 0.0029963974 -0.42224085
13 0.1453634 0.0026602955 -0.058206722 0.06593659 -0.13272089 -0.057825856 0.0015738244 0.4357274 0.03508264 0.028247043 0.22151229 0.022254402 -0.0010607709 -0.008726543 0.023180056 0.13927639 0.4210166 -0.06468279 0.018177325 -0.130744 0.3109745 -0.16296142 0.056046046 -0.2463013 0.2437316 -0.12686552 -0.07232193 -0.009493962 -0.20868078 -0.44402507 0.17313899 -0.049715698 -0.030922329 0.24635936 -0.31397882 0.27926987 0.07322874 -0.053911895 0.12605092 -0.19219388 0.21500814 0.112714626 -0.08293812 -0.3192045 0.22531909 0.06536795 -0.059015706 0.25271818 -0.08364351 -0.13139033 0.021620216 0.20515397 -0.18720524 0.17304231 0.062379528 -0.18046802 -0.15808877 -0.13715969 0.19464946 -0.21812953 -0.039363377 0.029644331 0.18701029 -0.13680181 -0.26170993 0.1544622 -0.0946473 -0.16896674 -0.228852 -0.3150755 -1.2419148e-05 0.14689763 -0.11159684 -0.18359366 0.11609936 -0.15104261 0.27074206 -0.10182222 0.015118188 0.24257399 0.29618484 -0.12152108 -0.08290262 0.51670545 0.060095076 -0.055745553 -0.2663469 0.19749808 0.3152258 0.031877294 0.024420872 0.039675098 0.18469013 0.06449996 0.20775595 0.3348232 0.03824437 0.13869742 0.31298414 0.3089012 0.23347212 0.04351387 0.26314056 0.104831986 0.026744979 -0.2220253 0.14157218 0.113726005 -0.47024035 -0.14387392 -0.012368639 -0.15991114 -0.033695664 0.014886801 0.15830483 0.19402298 0.09244837 -0.0544218 0.32239914 -0.40465015 -0.103310645 0.19105272 0.27166936 0.030570459 -0.23087466 0.27500722 -0.10320825 -0.062375262 0.18342367 0.52813894 0.0012230834 0.35268292 0.14362364 -0.078619465 0.18719019 0.116957 0.04147635 -0.05628269 -0.34927922 -0.47165263 -0.05817582 -0.05818316 -0.25155205 0.11742773 -0.003643771 -0.5035683 -0.15121427 -0.10433844 0.10374716 0.020148402 -0.0410104 -0.56992584 -0.19775948 0.13076015 0.20464578 0.32745552 -0.17348795 -0.08159754 0.22660263 0.6911533 0.041869372 0.029229498 -0.18343715 0.028539276 -0.16475917 -0.04831419 -0.22333282 0.12597147 0.22147952 0.2825415 0.02016032 0.26426598 0.10454021 0.41978326 -0.20248134 -0.12586181 0.3640611 -0.42352787 0.14923532 -0.17116497 0.119776264 0.3415156 -0.005113399 -0.006455663 -0.44822225 0.30997387 0.119869374 0.3273689 0.37753552 -0.1578577 0.20436698 -0.10176707 -0.41021055 -0.026022665 0.036805216 -0.112782106 0.117979094 -0.31321272 0.22914822 -0.22004738 0.18474714 0.29233828 -0.027561592 0.16370721 0.078720115 -0.006295206 -0.049461223 0.27258402 -0.1275187 -0.03533611 -0.063396044 -0.25719097 -0.07217734 0.019774375 0.36171287 0.08211944 -0.30312482 -0.46353683 -0.28477606 -0.24862733 -0.009520917 0.07388222 0.045813527 -0.1455721 -0.13437894 -0.21879715 -0.22772358 -0.20175788 0.030849462 -0.025529126 -0.045620725 -0.38786978 -0.04898948 0.34277403 -0.022503166 0.10848821 -0.08076547 0.08172933 -0.0034440996 -0.36109006 0.15659772 0.22276038 0.14669919 0.19945444 0.0681593 -0.047427613 0.042553157 0.09707784 -0.1508912 0.4232233 0.12285169 0.17381883 0.21605805 0.17026922 -0.09842753 -0.1261114 0.10084437 0.22749402 -0.12374786 -0.024892291 0.0824468 -0.0012730969 0.15071973 -0.43116736 -0.22847643 -0.06462403 0.19209836 0.33121845 -0.31649426 0.016509123 -0.11336199 0.045203306 0.036115587 0.13741183 0.10817252 0.17706817 -0.18050444 0.12840556 -0.28114048 -0.13810702 -0.23882549 -0.053593762 -0.09450266 -0.14493749 -0.13913563 0.013349975 -0.16249827 -0.065946035 0.16709039 0.2627074 0.015959784 0.034851484 -0.13783945 0.13157785 0.1489474 -0.06773132 -0.17293091 -0.038181167 -0.023806063 -0.28659987
10 -0.03812279 0.12036164 0.14735866 -0.057889316 0.007905231 -0.010124711 0.0055056936 0.46211454 0.0073250877 -0.22368412 -0.29109386 -0.16636463 -0.071094215 -0.058394477 -0.15490912 -0.24063842 0.28452346 0.23404828 0.29811546 -0.07564714 0.05365488 -0.35087672 0.015870403 0.02824494 0.05993295 0.057135627 -0.3920056 -0.06983411 -0.19419342 0.100997396 -0.082760364 0.019105833 0.07640225 -0.06655161 -0.04450235 -0.19092289 -0.22084206 -0.18610276 0.0849531 -0.18854298 0.14237565 0.060645733 -0.15132435 0.09780623 -0.12813677 -0.019549327 0.032049753 -0.063778 0.02821269 -0.09283571 0.12466434 -0.37706578 -0.0429595 0.063749254 -0.024472984 0.3382063 -0.042372666 -0.07081899 0.2533672 0.10194685 -0.14967966 -0.025215138 0.20327023 0.055341065 -0.20550947 0.27580157 0.29702616 0.12032448 -0.44641787 -0.0523287 0.017722832 0.013453616 0.18963763 -0.19340691 0.21773921 0.07100783 -0.17006125 -0.27146724 -0.4737807 0.25213635 -0.23377828 -0.23036277 -0.30576324 0.49689457 0.14219412 -0.046974257 0.02122611 -0.04921998 0.11991228 -0.15087962 0.3650735 -0.30208886 0.09381086 0.116113134 0.15461248 0.50893176 0.281169 0.05543151 0.14742422 0.15416716 -0.33412576 0.23671378 0.012525269 0.20701668 -0.26516217 -0.34143788 -0.14303812 -0.14607976 -0.2003083 0.08440601 -0.20557784 0.03786366 -0.19959913 -0.080309995 0.2475078 0.07023441 0.15860413 -0.04105017 -0.033829294 -0.35318714 0.0070969565 0.124688916 0.147278 0.06354491 -0.035577342 0.56507415 -0.3779995 -0.18447584 0.19800518 0.30785415 0.0818913 0.16201733 0.2554749 -0.32060045 0.1559987 -0.05592601 -0.08672405 0.38211843 -0.21344045 -0.33721954 -0.008633446 -0.067546666 0.15512492 0.22399116 0.13209341 -0.12681329 -0.08020003 -0.40928447 0.45580283 0.011133088 0.059863456 -0.25657588 -0.40756157 -0.01110056 0.03538644 0.26140955 0.15821333 -0.00030293598 -0.036208645 0.66790414 0.11531441 0.054649487 0.14134036 0.08533582 0.16772096 0.040654656 -0.15046474 0.16254255 -0.02951617 0.28838357 -0.3029485 0.19225852 0.19059208 0.014614404 0.036286425 0.008217912 -0.0856161 0.1412961 0.16632679 -0.07459718 0.18779133 -0.19632336 -0.1166359 -0.17449804 0.11799973 0.24206617 0.19795468 0.33913845 0.14456142 -0.39452243 0.14325823 0.03590068 -0.24754508 0.062013373 -0.056871083 -0.38120824 -0.093843855 0.12655163 -0.16341865 0.29870096 -0.0043170275 -0.03503788 -0.12986593 0.045991644 0.084119156 -0.23524745 0.0070902733 0.043342583 -0.050613876 -0.079468146 -0.07751733 -0.43076575 -0.23910646 -0.022277076 0.2009092 -0.070933275 -0.00011064628 -0.20242526 -0.44390792 -0.15292889 0.4613921 0.105877325 -0.3770981 -0.124610506 -0.28621128 -0.21043642 -0.07544503 -0.29062068 -0.058367796 0.011682631 -0.0055558705 -0.19975074 -0.17014569 -0.012438644 -0.27540153 -0.0019075031 0.19551079 0.017750094 0.15668558 -0.18920656 0.34981197 -0.082881905 0.21229522 0.110695384 0.19021118 -0.09634399 -0.07661501 -0.01666641 0.24520588 0.03131515 0.30373707 0.023890305 0.3954211 -0.19352964 0.043577068 -0.25717863 0.3217942 0.051691074 -0.4166695 0.013068157 -0.15213414 0.10659669 0.37292862 -0.32982048 -0.3360014 0.11677174 0.116449445 0.0912985 -0.0921429 -0.091727205 -0.18546557 -0.10909394 -0.14309604 -0.25443992 0.47164515 0.23090304 0.2767225 0.2434984 -0.2353598 -0.096120656 -0.14305165 -0.27918127 -0.1487223 -0.004607567 -0.012420821 0.14065205 -0.10952219 -0.046088804 -0.1921077 0.034548588 0.15304036 0.47737035 0.24503015 0.36840296 0.34965685 -0.008132345 0.18520723 -0.070407644 -0.056736264 0.04283101
8 -0.059253015 0.23450226 0.11440454 0.20920919 -0.15537164 -0.26352692 -0.11426499 0.24866958 -0.01668438 0.06384269 -0.017801128 -0.09700191 -0.104342215 0.20786208 -0.3522631 -0.03502411 -0.075513326 0.28657392 0.020442408 -0.120628044 0.20831019 -0.047959052 -0.014969309 -0.1269727 -0.027017804 -0.27932042 -0.31453007 0.13790986 -0.16530846 -0.20089121 -0.005836339 -0.18707687 0.14127773 0.3852603 -0.001576407 0.08228926 0.02812721 -0.19086687 0.02749276 0.054116428 0.35164514 -0.1931024 -0.11424316 0.25453544 0.25289655 0.24860874 -0.059929352 -0.09089445 0.21737923 -0.2549894 0.0009903038 -0.009478667 0.1167727 0.34973282 -0.23377973 0.21968603 0.20684926 0.102525726 0.31569117 0.016798321 0.115333915 -0.019883968 -0.08653429 0.082089625 0.17619616 -0.0121059185 -0.091598056 0.24432455 0.09131597 0.116870075 -0.35294282 -0.40461162 -0.04418182 -0.19259897 0.086502865 0.09441093 -0.13377108 0.066214725 0.09453983 0.05810283 -0.33076257 0.06708805 -0.30504125 0.38864473 -0.07831421 0.16900279 -0.24749307 -0.11742398 0.40431437 -0.012410677 -0.23293191 -0.3020275 -0.19448444 -0.3806728 0.08623661 0.49941158 0.25280073 0.12209085 0.14763173 0.24546331 0.26349434 -0.14865115 0.14013892 0.18491217 -0.09749946 0.04376178 0.2712293 0.2087679 -0.30899426 0.26675457 -0.28843534 -0.20340487 -0.133078 -0.1263925 -0.47158235 0.07427032 -0.07222934 -0.06840448 -0.048447955 -0.17158008 0.22568296 0.11554147 0.36359438 0.07222867 0.008648796 0.35675073 0.026235739 -0.3050128 0.03135996 0.25582063 -0.1605417 -0.15744801 0.16590971 -0.5013046 0.19129534 -0.12013815 -0.043104183 -0.11632263 -0.14430572 -0.50555146 -0.16346672 -0.29281124 -0.0915567 0.4544966 0.0044938517 0.082187906 -0.5204371 -0.35476792 0.061697397 -0.10749009 0.12130511 -0.3910304 -0.047428776 -0.31673136 0.38243997 0.2766646 -0.10995161 -0.26460004 -0.18718639 0.33341518 0.17907542 0.020287843 -0.16508763 -0.025585026 -0.31878138 -0.010532848 -0.2862999 0.51427037 0.13263655 0.38543016 -0.06179601 0.094634324 0.18285832 0.13745193 -0.06303804 -0.06398841 0.21527973 -0.2371631 0.048366547 0.021150904 -0.08530298 0.025019184 -0.37447152 -0.34058687 -0.39327505 0.13572629 0.006677396 0.05456004 0.052561358 -0.34339055 0.10045224 -0.18052751 -0.032459542 0.0077583105 -0.11551044 0.07720328 -0.25463906 0.047661107 -0.12004994 -0.25812003 -0.121032655 -0.21003424 0.15480769 0.010885101 0.09049632 -0.12669687 0.107143514 0.1232585 -0.091154344 -0.046522584 -0.08638439 -0.3783844 -0.11244356 0.17005746 0.50524485 -0.24590187 -0.07571999 -0.2539641 -0.16339752 -0.21896793 0.27697396 0.08014174 -0.2276893 -0.43888274 -0.08687725 -0.13702767 -0.22584099 -0.19392094 0.034187242 0.045592453 0.04996757 0.13274035 -0.2734388 0.22786187 -0.13933487 0.30903405 -0.12240592 0.06911146 0.20185736 -0.37502903 0.10562933 -0.23317543 0.3058132 0.029144742 0.101669855 -0.09677053 -0.243289 -0.05830885 0.20193142 0.12230954 0.08873464 0.28391573 0.37218785 0.10724024 0.26090816 -0.020948438 0.11289994 -0.084172 -0.063160464 0.13344462 0.02749429 0.039818294 -0.11502086 -0.47090247 -0.015949909 -0.23597933 0.08861445 0.23942955 -0.16587313 -0.29053158 0.12792838 -0.13635358 0.09010804 0.14886756 0.40304762 0.18225881 0.21055293 0.17660026 -0.13502778 0.17427018 -0.025401153 0.1381941 0.04031781 0.2134424 -0.07991249 0.40189764 -0.068204075 -0.036666248 0.15407057 0.0044466895 0.12963444 0.40879768 0.3442289 0.38937512 0.05860216 0.21612567 -0.14814754 -0.12794995 0.29621884 -0.22375365
11 0.060727514 0.17254688 0.059651908 0.029429093 -0.016462581 -0.16090597 0.06250338 0.49535817 -0.114106655 -0.19763495 -0.19465587 -0.03975284 0.0070212334 0.012833811 -0.09709467 -0.24818827 0.39134446 0.30105054 0.21090081 -0.08685474 0.19136107 -0.35417494 0.013962306 -0.083242185 0.08719551 -0.10517009 -0.47618598 -0.088255726 -0.21731412 -0.14936844 -0.020671548 -0.04896792 -0.027360283 -0.13360617 -0.021339998 -0.14156494 -0.15585732 -0.10148096 0.1522931 -0.23066376 0.20497549 -0.025867594 -0.22767696 0.09952037 -0.04215551 0.07129532 -0.1496998 -0.0441985 0.14511912 -0.18250102 0.00026701493 -0.34416312 -0.04277368 0.10953087 0.025631016 0.37300497 0.00059299014 -0.14437103 0.27511466 0.12837544 -0.08999053 0.06379969 0.2306688 0.06127421 -0.24371271 0.38876238 0.212456 0.1953195 -0.42679888 -0.039997313 -0.007078493 -0.023935681 0.24806638 -0.13044715 0.3132411 0.037884068 -0.23329727 -0.15279594 -0.5299116 0.25175235 -0.22238667 -0.3537236 -0.3455875 0.4172249 0.25873655 -0.0010581657 -0.08351159 -0.06135919 0.12978894 -0.13765264 0.44582856 -0.25624225 0.11462417 0.3298388 0.094837375 0.5661897 0.2577364 -0.022127049 0.060136046 0.039235577 -0.24285366 0.15283556 0.11144768 0.35891837 -0.28182048 -0.22799417 -0.050528605 -0.06057652 -0.1683284 0.06946251 -0.11193251 -0.02474894 -0.067056544 -0.036258288 0.16044915 0.10036567 0.028930226 -0.11894165 -0.03447415 -0.293643 -0.09371014 0.08072892 0.015016677 -0.11044092 -0.16954635 0.4422667 -0.28465742 -0.10248769 0.21817285 0.26039305 -0.024976365 0.09920394 0.23583174 -0.29109025 0.03505911 0.011702602 -0.0057227034 0.31721622 -0.2041225 -0.26740578 0.06942525 0.047589067 0.10850188 0.14374782 0.11653537 -0.010256918 -0.020135319 -0.42475718 0.4164702 0.07906882 -0.07422816 -0.29560247 -0.41135582 0.002648484 0.047401115 0.29803002 0.12258343 0.067204565 0.09712647 0.60624176 -0.027222993 -0.09461075 0.09940988 0.059424262 0.15645152 0.12797797 -0.28084376 0.06897946 -0.059274714 0.17861605 -0.29542628 0.27665862 0.27271798 -0.031549845 -0.08101804 -0.067699686 -0.019954814 0.16943341 0.0776573 -0.07109099 0.13734072 -0.17616497 -0.13351613 -0.24075957 0.24235909 0.15555388 0.059244808 0.29973835 0.2464354 -0.3185221 0.056536816 0.0113932025 -0.3553287 0.0981732 -0.03589557 -0.39690498 -0.13591968 0.21374093 -0.13353977 0.23751834 -0.07094761 -0.06969039 -0.15187983 0.19356449 0.0957899 -0.16098812 -0.04883532 -0.010304501 -0.15591995 0.07903413 -0.12661728 -0.30676144 -0.06254908 0.057518516 0.29794207 -0.1610878 -0.07298362 -0.114080586 -0.4720334 -0.07176203 0.39514703 0.0434702 -0.36595443 -0.016660634 -0.1884159 -0.28662395 -0.07506921 -0.2586884 -0.24817829 0.039299488 0.13569123 -0.29312527 -0.15649876 0.045301802 -0.2672995 0.13704139 0.1216642 -0.058100168 0.11170276 -0.20186073 0.23710932 -0.05669909 0.052609615 0.16753693 0.10365161 -0.19816828 -0.03447464 -0.015169852 0.33095405 -0.045454845 0.31432477 -0.07454659 0.29417783 -0.10894346 -0.06012365 -0.13409811 0.21805564 -0.018630682 -0.44485515 -0.055821035 -0.05233349 0.16277741 0.38343224 -0.3766652 -0.3741889 0.13148956 0.09163589 0.061237935 -0.05209016 -0.040071916 -0.16474336 0.012136802 -0.22488791 -0.25303543 0.5178004 0.31590158 0.22920834 0.21647987 -0.24973042 -0.14300643 -0.10592526 -0.25561547 -0.20020384 0.06487719 -0.1023186 0.13302882 -0.15788026 -0.06919566 -0.14143309 0.15089223 0.06873448 0.43875763 0.15522458 0.2907941 0.37467697 0.10430469 0.21731743 -0.19027178 -0.08208335 -0.053805273
-0.08547448, -0.29826584, -0.14741431, -0.67061037, -0.43497878, -0.38970268, -0.19331034, 0.0026911893, -0.14017418, -0.3710046, 0.19588524, 0.50693357, -0.40660346, 0.060307745, 0.4046258, -0.62973624, 0.11785334, -0.17953649, 0.05160977, -0.095493965, -0.18132052, 0.03826847, -0.1944767, -0.8787426, -0.052537657, 0.23939374, 0.61991715, 0.87798643, 0.22267313, -0.29736802, 0.028789824, -0.30809578, -0.0542155, -0.25352523, -0.25583473, -0.08532951, 0.28817376, 0.41289523, -0.00792686, 0.24107456, -0.20131549, 0.3377247, -0.25690502, 0.35726756, 0.027287206, -0.40293846, -0.54056203, -0.28486973, -0.029724529, -0.47154206, -0.3967071, -0.4742465, -0.005546905, -0.50885016, -0.061332688, 0.07627737, 0.12908617, 0.19868691, 0.5408949, -0.4623319, 0.13502872, 0.1309458, -0.26053345, -0.009056642, 0.08146737, -0.14192095, -0.20352887, 0.21550697, 0.19168872, -0.29205415, 0.26351216, 0.24171916, 0.025810005, -0.55607706, -0.40277648, 0.13517939, -0.27300778, 0.3711192, -0.193878, 0.02004339, -0.36554146, 0.48420388, 0.0878743, 0.34118977, 0.03527869, 0.06615776, 0.24636766, -0.030541956, -0.30129728, -0.05087695, -0.08543088, 0.25910518, 0.16375847, 0.14950982, 0.41354564, -0.09212178, 0.039013565, 0.12550597, -0.39747158, 0.0011751303, -0.0302062, -0.28866524, -0.1901337, -0.2015753, 0.11327507, 0.46685705, -0.49245948, 0.06320734, -0.3105893, -0.20835456, 0.17934407, -0.52467066, 0.19670442, -0.10700878, -0.032256693, 0.5803727, 0.30203456, 0.26631632, -0.23506074, -0.23485185, 0.2501363, -0.12184304, 0.6253184, -0.035855155, 0.050049763, -0.15232724, -0.38403606, -0.020263184, -0.5847818, -0.004061971, -0.09157497, -0.4583943, -0.34568977, -0.52104604, -0.25861678, -0.117276, 0.09799441, 0.15111157, 0.3134129, -0.10316217, 0.040958494, 0.2389556, 0.17087452, -0.70924014, -0.001072801, -0.26048806, -0.0540118, -0.42857033, 0.42508703, 0.0016576943, 0.070508994, 0.04336412, 0.00092854566, -0.00027608735, 0.040260985, 0.2957077, 0.0015368146, -0.14539924, 0.12009415, -0.21632099, -0.16827787, 0.012367013, -0.26745015, 0.016989142, -0.016897155, 0.0875287, 0.020095015, 0.13754281, 0.21871457, 0.1386973, 0.1382741, -0.059942845, -0.13604516, -0.2653919, -0.2131206, -0.1908882, 0.36786342, 0.5130381, -0.1351802, 0.0793475, -0.39795962, 0.42081177, 0.3715465, 0.35093012, 0.12619488, 0.35592395, -0.40973133, -0.19444618, 0.18313268, 0.07849345, -0.25149447, -0.15154907, -0.2326549, 0.053796984, 0.09788425, 0.07247626, -0.02296063, -0.37131947, 0.0594042, 0.09914632, -0.16609015, 0.34075087, -0.12332687, 0.0005157145, 0.14297669, 0.017582132, -0.008779151, -0.12335509, 0.028752109, -0.13830797, -0.015183254, 0.018969852, -0.15514384, -0.20015176, 0.41659614, 0.4606939, -0.19941185, 0.012086859, 0.18714122, -0.17984743, 0.39554515, -0.21936855, 0.22323571, -0.4914505, -0.13813391, 0.017122291, -0.09105322, -0.32170448, 0.056053903, 0.02643442, 0.28093007, -0.16845793, -0.054187518, 0.28471726, 0.07457285, 0.14122358, 0.019835977, -0.31870613, 0.13467562, -0.34367275, 0.16879731, 0.4887708, -0.24816054, 0.41746026, 0.31506085, 0.17307363, 0.044022985, -0.31272265, 0.068612866, -0.15236238, 0.0671384, 0.3666283, 0.05042359, -0.24060361, -0.22770517, -0.11951465, -0.04880576, 0.019174015, 0.2776341, 0.5573643, 0.39455283, -0.06596572, -0.38140762, -0.040391847, 0.16734867, 0.22110373, 0.5233019, -0.244626, -0.06581722, -0.23032989, -0.1740666, -0.26465023, -0.22275618, 0.43023762, -0.026344901, 0.0849443, 0.06791598, 0.15605208, -0.29888138, -0.17934243, -0.13411514, -0.08885195, -0.15275909, -0.3600689, 0.08731703, -0.014200481, -0.072012715, 0.019505868, 0.10770646, -0.1055515, -0.14581163, 0.21632844, 0.22605777, -0.32623723, -0.12906912, 0.25288722, -0.22108723, -0.12618136, -0.6181268, 0.28843206 -0.10528618 0.06747048 0.022113202 0.07128932 0.024115447 -0.038333043 -0.14258513 0.16534095 0.086359814 -0.0702838 0.23796457 0.1929636 0.11450193 -0.13198373 -0.10325833 -0.011512706 0.12600817 -0.1090491 -0.06892545 -0.052311342 0.01827619 -0.063742176 -0.10071291 0.1525467 0.007601459 -0.02468148 -0.060961515 0.06861614 -0.08504108 -0.13751209 0.12207847 -0.11626323 -0.15823287 -0.13079512 0.02570719 -0.036999844 -0.18182032 -0.26854852 -0.04041006 0.07560942 -0.10361381 -0.07646846 -0.014297377 -0.04337468 0.05835195 0.06750842 0.19007403 0.026571691 0.013917377 -0.05322319 0.20915435 0.17403576 -0.2783741 0.038932387 -0.028586252 0.1598356 0.15414782 0.062495716 -0.12793295 -0.024441266 0.036881313 0.048649386 -0.09228542 0.2430164 0.18212542 0.13929579 0.035643086 0.072757035 -0.068905465 0.277054 0.0004171758 -0.040275246 0.26808348 0.052047227 -0.03949001 0.058848146 -0.21152546 -0.06058827 0.018447427 0.081135005 0.008763157 -0.20137544 -0.1444176 0.2949715 0.07118136 0.23601305 -0.010905893 -0.118262544 0.3871328 0.13871938 0.3080215 -0.1714975 -0.17900239 0.0665595 -0.29964492 0.060148776 0.02907767 0.08622111 -0.25522658 0.012392239 0.30805424 0.13679072 0.04134415 0.025494872 0.21525195 -0.10621621 -0.0010777117 0.16055651 -0.07881447 0.09465186 -0.31095824 -0.053051468 -0.02791793 0.17652494 0.04574408 0.10822273 -0.24341811 0.053482626 0.24702822 0.095876396 0.03172256 0.18744437 0.08584763 0.038108837 -0.022414852 0.04105991 -0.23484865 -0.16186568 0.21115239 0.17589703 -0.13568448 0.1915211 -0.08657448 -0.12694968 0.1814441 0.06547025 0.226357 0.14201124 -0.2410169 -0.10520538 -0.01889227 -0.015382465 -0.08064543 0.04773184 -0.15670113 0.024777507 -0.1140496 -0.20741868 0.08531266 -0.18805209 0.066104814 -0.21208991 -0.043227423 -0.16516803 0.10039872 -0.029720148 -0.13387747 -0.23271728 -0.05845168 0.3741285 0.07524233 -0.041604172 -0.08806494 -0.06436207 0.0061762664 0.07493323 0.02950953 0.012310216 -0.28914434 0.18735738 -0.22503327 -0.27506018 -0.11181265 -0.017311944 -0.16920856 -0.004647904 -0.035537973 -0.16719745 -0.103006914 -0.032260254 -0.0029479102 0.072792776 -0.12114319 -0.34507737 -0.21422605 -0.22002523 0.3543154 0.3042164 0.20959602 0.03256973 0.04288454 -0.08579409 -0.14509141 -0.0659848 -0.019122535 -0.15603763 -0.23347457 -0.09139972 -0.076286964 -0.007981135 0.0033127968 -0.13480349 -0.086142115 -0.12421223 -0.038244803 -0.12849663 -0.05938287 0.17828146 -0.09933172 0.15027736 -0.023441 0.016294865 -0.026337145 0.16300191 0.065134354 0.0019909865 0.09518712 -0.3622051 -0.14240994 -0.23058438 0.41135418 0.13139607 0.059234425 -0.11531735 -0.04845742 0.16667166 -0.17238657 0.024438431 -0.08202535 0.30314246 0.22490431 -0.08861317 -0.04419853 0.26060745 -0.015189956 -0.045736942 -0.053559687 -0.048511278 -0.011624781 -0.15883337 0.22448878 0.25548324 0.143158 -0.0058427146 0.058267035 -0.22540404 -0.0010381041 -0.08232515 0.0997522 0.004118881 -0.015263525 0.12451871 0.115112916 0.0912822 0.1430502 -0.0049681165 0.27349645 0.12969024 0.046283975 0.027848 0.07561171 -0.074976884 0.14518611 -0.19567622 -0.16573186 -0.077245004 0.068230316 -0.22140864 -0.14555494 -0.10526389 -0.19915535 -0.03546473 -0.28224555 -0.077493064 0.023565771 -0.14907734 0.096972354 0.0030079018 -0.37623015 0.16666146 0.019654602 0.060694285 -0.006600621 0.12128689 -0.17814273 0.105322674 -0.46574613 0.353698 -0.063063785 0.076066695 0.18141788 -0.075699285 -0.12971984 0.09386147 0.2790626 0.18421234 -0.03725796 0.08279441 0.06771692 0.09687098
-0.2249016, -0.053476267, 0.08432953, -0.045511417, -0.20936985, -0.40506476, -0.5429182, 0.14118932, -0.18078493, -0.38848507, 0.3459763, 0.190049, -0.49841735, 0.016199242, 0.1531825, -0.27905184, -0.12057595, -0.16513021, -0.018487029, -0.11841819, 0.038885217, -0.11696725, 0.0041145077, -0.610339, -0.24681902, 0.5630991, 0.34745818, 0.4186136, 0.45183426, 0.069901854, -0.13515696, -0.0050174785, -0.09962355, -0.30181167, -0.021334173, 0.31338412, -0.15750353, 0.3165593, -0.057124116, 0.5325685, 0.017845979, -0.21110815, -0.15959224, -0.071074225, 0.0735729, -0.64677405, -0.025851382, -0.313768, -0.20219107, -0.012195247, -0.48241752, -0.37162885, -0.035165988, 0.02007471, 0.15270215, -0.001242023, -0.49981737, 0.024298798, 0.37553528, -0.33986238, 0.024775857, 0.29163784, -0.28030095, -0.2885512, 0.19389491, -0.1379098, -0.06494312, 0.19298309, 0.30567127, 0.3478201, 0.20597248, 0.2718856, 0.49794447, 0.013377012, -0.292283, -0.071816005, -0.17716278, 0.36878425, 0.12486155, 0.1866944, -0.3227196, 0.4598505, 0.08622459, -0.0003059078, 0.13022092, 0.43207708, 0.2334045, 0.17516562, -0.45877331, 0.24705052, -0.1314324, 0.19614965, -0.092009276, 0.6690234, 0.18109474, -0.018265165, 0.3544846, 0.15807979, -0.5273931, 0.023711892, -0.09049496, -0.14350323, -0.038565785, 0.14167197, -0.0897719, 0.29614866, -0.60993713, 0.19362572, 0.13190061, -0.36185238, 0.0013485437, -0.61363065, -0.05945661, -0.02182421, 0.10592105, 0.5426139, 0.22974892, 0.15013298, -0.123289235, 0.33017325, 0.24996148, -0.048989426, 0.53381443, -0.17581594, 0.0044379295, -0.10189862, -0.456149, 0.08455664, -0.06258535, -0.12664619, 0.007989795, -0.48457292, -0.16132976, -0.42098808, 0.03554766, 0.30311367, 0.0014643092, 0.26768816, 0.105896756, 0.21411285, 0.20506786, 0.2770473, 0.19204016, -0.2975628, 0.12994504, -0.42486042, -0.35304806, 0.12681843, 0.26454365, 0.043411814, 0.01839233, -0.080157444, -0.14488521, 0.047218543, 0.04081391, 0.0056863045, 0.23669352, -0.2104586, 0.20081542, 0.15299883, -0.10117783, -0.22407132, -0.38708577, -0.09162373, -0.19584613, -0.14027776, 0.32165772, -0.42982027, 0.34926334, 0.040591694, -0.28052676, -0.54837894, -0.15007073, -0.18211818, 0.23670152, -0.25732264, -0.08399628, 0.4120273, -0.08216757, -0.35457233, -0.51937276, 0.5856229, 0.19137706, 0.3331014, 0.021131108, 0.20336324, 0.16418374, -0.13088495, 0.0334612, -0.08791626, -0.23344679, -0.048585966, -0.26328278, 0.24557255, 0.10599005, -0.042507574, 0.019298067, -0.52162635, -0.015642354, 0.274584, -0.08226237, 0.41855994, -0.19186938, 0.16447592, -0.21152703, 0.054484867, -0.3089268, -0.3765168, -0.33535615, -0.12553327, 0.08521302, 0.16891053, -0.22786507, -0.07155389, 0.3717003, 0.17129698, -0.18526334, -0.26539412, -0.0057792813, 0.11890642, 0.03297648, 0.12567444, 0.107998736, -0.04338421, -0.03829477, -0.3199356, -0.05071198, -0.3100781, 0.14198287, 0.17588644, 0.1952509, -0.22045338, 0.20568554, 0.08224665, 0.02016481, 0.57256365, 0.343855, -0.34962225, 0.2345643, 0.014613574, 0.4882392, 0.0882462, -0.2509133, 0.29936633, 0.14694661, 0.052791044, 0.08299495, 0.14577952, 0.3489694, 0.17913732, -0.0010998979, 0.3922993, -0.20277062, -0.05790636, 0.040727936, -0.1796949, 0.0041840333, 0.06816952, -0.050097883, 0.904486, 0.115082614, -0.4086165, -0.64734566, 0.055255212, 0.28042832, -0.114520594, -0.21923882, 0.24987875, -0.530997, -0.14694741, -0.026000228, -0.370858, -0.004899095, 0.39446434, -0.40740034, -0.19621287, 0.00064806384, 0.26399976, -0.27537712, -0.03050004, -0.27125558, 0.12214912, -0.1679334, -0.17210814, 0.06362561, 0.08880147, 0.020801693, 0.17972016, -0.3058571, 0.2234346, -0.4243881, -0.10870145, 0.3464801, -0.09196184, 0.030542832, -0.14789887, -0.35264152, -0.5003838, -0.13799055, -0.3315248 -0.09143737 0.089677215 0.016894046 0.07112209 0.08029158 -0.038314167 -0.15250853 0.15604997 0.08014569 -0.07896359 0.2525905 0.20416777 0.11101584 -0.1426869 -0.12937926 0.014841498 0.13933486 -0.08870672 -0.06280374 -0.049480658 -0.031577226 -0.07232182 -0.09649004 0.09838231 0.017780313 -0.086720675 -0.032732036 0.05532855 -0.09239411 -0.13946599 0.09212652 -0.13797778 -0.16812405 -0.18678169 0.012882936 -0.03966327 -0.22599658 -0.24622537 -0.0041942787 0.0977061 -0.11476897 -0.049542 -0.015553201 -0.06640742 0.047367867 0.056430824 0.1606648 0.003383521 0.038884375 -0.06214552 0.1748988 0.14294183 -0.25693244 0.024371522 -0.018710027 0.1454479 0.15532136 0.035422124 -0.09160237 -0.022213135 0.052190334 0.014414192 -0.08089257 0.20748588 0.20096494 0.1155347 0.076013796 0.06525556 -0.09373406 0.23619676 0.0055049798 -0.07417782 0.26532865 0.06413198 -0.063706405 0.046340887 -0.22167939 -0.06681 -0.006512144 0.09759709 0.021967543 -0.16230525 -0.15504047 0.29685163 0.08822047 0.182628 -0.02746412 -0.10173641 0.41085508 0.16585907 0.30194822 -0.1618849 -0.18961251 0.033627957 -0.3468069 0.037069824 0.014983443 0.04262903 -0.24555415 0.025570609 0.34259674 0.13510725 0.035292942 0.037400156 0.2485332 -0.099492006 0.026602363 0.16735932 -0.08958965 0.07384304 -0.280389 -0.041669857 -0.011127172 0.16969171 0.045039445 0.105727695 -0.22917232 0.08462972 0.20064121 0.097592406 -0.0049603493 0.19337499 0.06503342 0.05434682 0.009485095 0.048542608 -0.23662455 -0.20108087 0.19209415 0.18627375 -0.118787855 0.14307792 -0.0730253 -0.12420831 0.16352288 0.045962095 0.20321554 0.10599969 -0.22468048 -0.14848664 -0.04496057 0.011800401 -0.06626769 0.0754139 -0.15040258 0.026721373 -0.11060506 -0.22872023 0.07780977 -0.15648478 0.063521065 -0.23291843 -0.041931733 -0.16344611 0.07919464 -0.06554166 -0.11741215 -0.21914789 -0.048052445 0.36790103 0.08289608 -0.040546987 -0.117315926 -0.1151955 -0.008068642 0.10803255 -0.0023901316 0.03247925 -0.31178614 0.17628859 -0.22187155 -0.3029458 -0.109022826 0.008509192 -0.13820168 -0.036880232 -0.013051023 -0.19428544 -0.104209535 -0.07387937 0.028024798 0.067747444 -0.10502522 -0.36133173 -0.22409618 -0.21386592 0.33444154 0.3244757 0.20455283 -0.002922594 0.028425986 -0.092293724 -0.15624566 -0.03435769 0.018130109 -0.1472209 -0.1969358 -0.11868795 -0.069919884 -0.0052568633 0.0020748668 -0.11240665 -0.09211702 -0.06440636 -0.045151573 -0.08901 -0.084850155 0.15738925 -0.117098175 0.15249851 -0.039704617 -0.022620158 -0.066023506 0.14884081 0.09127 0.0017017125 0.10689353 -0.37048993 -0.119382486 -0.22470812 0.35188103 0.17236352 0.054198183 -0.11178306 -0.05692352 0.17444162 -0.14746732 0.04015081 -0.08583195 0.28062248 0.14253901 -0.13502225 -0.0027921377 0.3026575 -0.027315032 -0.06311824 -0.043399572 -0.06342678 -0.015794566 -0.15384386 0.2277697 0.23649876 0.17149298 -0.011569474 0.0452527 -0.20853719 0.026821822 -0.06759435 0.10775742 -0.04360479 -0.02593904 0.12635323 0.11018701 0.13813557 0.13969848 -0.057855956 0.2651417 0.10518134 0.035092615 0.012621687 0.047572095 -0.051718473 0.16654573 -0.18101119 -0.21256003 -0.05080249 0.042167474 -0.18646908 -0.12204113 -0.087482974 -0.20290756 -0.029717479 -0.27082947 -0.043105375 0.023807708 -0.1596663 0.046251386 0.0037485734 -0.34529546 0.14560446 0.0049961573 0.055187788 -0.013624539 0.123141035 -0.1475933 0.08370793 -0.42344728 0.31750417 -0.018483397 0.08213967 0.14846484 -0.061135203 -0.1376947 0.13301168 0.29035482 0.18158835 -0.049641218 0.08142711 0.051132374 0.05894516
26 0.03945416 0.09121121 -0.13112037 0.02935779 0.29667863 -0.20598087 0.076570384 0.22766985 0.42463887 0.18965216 0.3728484 -0.07459127 0.054246824 -0.10394219 -0.20438741 -0.114756994 0.30451724 -0.15709224 -0.14553466 -0.06334095 -0.07905407 0.26068667 -0.0027513478 0.13694946 0.1507111 -0.14469792 -0.21999621 0.06703129 -0.11800556 -0.2679469 0.28932962 -0.09722743 -0.26806468 -0.15833199 -0.09944566 -0.17850682 -0.118354134 0.001329692 0.15325414 -0.042300817 -0.099945575 -0.19027159 -0.3399796 -0.06120107 0.07194067 0.2569503 0.019969555 0.01735852 0.017672518 0.13449061 -0.056800034 -0.34741908 -0.02948693 -0.009055153 -0.13305004 0.17659996 0.25869095 0.17261586 -0.1764798 0.15083084 -0.20049413 -0.20279114 0.08307102 -0.021942819 -0.021361832 0.12687255 -0.029033754 -0.035213266 -0.21322392 -0.048024867 -0.14992498 0.038773023 0.38826552 -0.26590326 -0.15917264 -0.09259648 -0.391854 -0.31618816 -0.13092434 -0.06591542 -0.16797969 -0.21804918 0.14438947 0.2514929 0.15837272 -0.029034074 -0.31277043 -0.15965827 0.3573742 0.271505 0.47186714 -0.04069907 -0.15178564 -0.096557796 -0.019784043 0.18719181 0.040472027 0.13446619 -0.29061195 -0.03844179 0.34085363 0.060213946 -0.053344678 0.08174439 0.10808705 0.026964381 0.10183774 0.008331781 -0.056963433 0.08765216 -0.36727336 -0.0959682 -0.0014252791 0.32249105 -0.23649384 0.24140427 -0.0047854483 0.015616217 0.14815947 -0.22421773 0.06400813 0.10074691 0.17982313 0.11755243 -0.13243578 -0.16486475 -0.1720723 -0.15890776 0.060350545 0.22906323 -0.032838605 0.2368553 0.20342773 -0.1413464 -0.026332939 0.043547202 0.18659805 0.026680402 -0.327652 -0.0939969 -0.042294785 0.012895094 -0.07981623 -0.103462815 0.14235285 0.14902757 -0.13495868 -0.40037853 0.13742322 0.03196762 -0.08849581 -0.27392992 -0.11362249 -0.25712755 0.0921247 -0.15375029 -0.16320577 -0.0796532 -0.25033438 0.4509705 0.077114455 0.009726357 -0.042438287 0.010566209 -0.24892056 -0.12529257 -0.13715923 -0.046795797 0.014159107 0.39031523 0.094121054 -0.2345937 0.0692324 0.2097638 0.011506552 -0.13458662 0.103705645 -0.20251378 -0.20421113 -0.051441707 0.07974635 -0.08510367 -0.21976994 -0.16658527 -0.11297334 -0.27876914 0.33951133 0.37403768 0.17072442 0.010964318 -0.004719655 0.09037542 -0.31729004 -0.06493833 -0.10543303 -0.083826825 -0.2332142 -0.2672304 0.24223827 0.015368742 -0.12547928 -0.24604605 -0.18833981 -0.30174556 0.08391896 -0.1346158 0.035928376 0.055201016 -0.087420374 0.2478192 -0.04777971 -0.12220957 0.082970224 0.08968079 0.18655388 -0.07623533 -0.026559351 -0.5005162 -0.27837846 -0.18096334 0.2616759 0.14402817 -0.09495624 -0.075434506 0.27831683 0.0923803 -0.13252632 0.020345617 -0.15461706 0.017764278 0.18216476 0.11607222 -0.1394652 0.16275221 -0.06903767 -0.06814059 -0.14526552 -0.2241551 -0.060903445 -0.2696913 -0.13520254 0.10196908 0.15432459 0.042363424 0.11182559 -0.1814516 -0.17442521 0.091605105 -0.09246432 -0.08583292 -0.014372944 0.082824595 -0.07742307 0.041539945 -0.0131761795 -0.16231123 0.38619187 0.22195315 0.16019368 -0.07407783 0.15653975 -0.20038275 0.28208098 -0.038394116 -0.08023902 -0.021448681 0.0720455 -0.011488228 -0.23862325 0.10385209 -0.258477 0.26437026 -0.07257484 -0.038207952 -0.07479739 -0.1884424 0.15443034 -0.010290034 -0.13075238 0.008193865 -0.16853118 0.005064302 -0.06525853 0.057794776 -0.15796883 0.18722834 -0.30580252 0.1432374 0.2144919 -0.01364385 0.012772907 0.114127785 0.040065728 0.2744585 0.29258528 0.28373477 -0.013493893 0.016806535 -0.08646331 -0.032161746
23 0.021382779 0.19664025 -0.031104328 0.076917484 -0.3664425 -0.25394234 0.15632176 0.50529706 -0.026063986 -0.04000466 0.0112361275 -0.2297416 -0.18121627 -0.14163047 -0.24027447 -0.2045143 0.06947197 -0.14215617 0.03825651 -0.30636477 0.17980717 -0.30985355 0.15985999 0.12152731 0.0475231 -0.24098174 -0.20986229 -0.20489629 -0.3322921 -0.3417038 0.20705785 -0.095813654 0.20399402 -0.06234338 0.10716675 -0.04284913 0.08442143 0.0015787287 -0.09550756 -0.014584348 0.043717347 -0.08697011 0.12628777 -0.26833546 0.020196823 -0.05294293 0.13765424 0.21200524 -0.07808598 -0.07905025 -0.06636166 0.06533182 -0.008999985 0.11696925 -0.07352666 0.31960756 0.10541617 -0.16573973 -0.094951846 0.10762543 -0.19586039 -0.21096933 0.12831755 0.10101767 -0.089195855 0.023983521 0.057369385 0.22294721 0.11074513 -0.19771455 -0.12391736 -0.15776023 0.23084642 0.09908909 0.4208908 0.09290022 -0.2610129 -0.097779736 0.1525174 0.15812786 0.119864516 -0.3788454 -0.10289551 0.4374209 -0.027466519 0.20777604 -0.045785062 0.011849122 0.52903986 0.06526765 -0.08341467 -0.01564413 0.15397994 -0.111179784 0.12787752 0.4083814 -0.22441192 -0.20059355 0.070788614 0.0016047643 -0.12984909 -0.22386658 0.1905452 -0.05715699 -0.17970154 -0.24226002 -0.16791992 -0.102051586 0.0084642945 0.17629287 0.08469733 -0.24711384 0.23236805 0.12202494 0.16234332 -0.2032286 -0.09856893 0.09232686 0.0013504771 -0.20052359 0.13266872 0.21798265 0.0636337 0.06616571 0.06667952 0.101019606 -0.13040954 -0.03488294 -0.11293063 0.12673672 -0.19919163 0.2834473 0.37838838 -0.17712341 -0.23076305 0.13100694 -0.038978767 -0.2654278 -0.05956978 -0.26569635 0.06378826 -0.34071884 0.1633587 0.004106445 0.5127047 0.08516371 -0.038266532 -0.30552408 0.100498915 -0.025857309 0.25833562 -0.23162697 0.019995444 -0.34480977 0.06215865 0.3124364 -0.13088639 0.082551695 0.053408198 0.5659106 0.30543688 0.18171112 -0.014129197 0.009659984 0.1339864 0.05189454 -0.265098 -0.075695194 -0.10743587 0.5759085 -0.061836444 0.14913109 0.0034330883 0.12390842 0.008789064 0.103207596 -0.03415638 -0.29519024 0.22626287 0.18716702 0.34184146 -0.025528153 -0.2937297 -0.065336555 -0.2744908 0.15178584 0.19531551 0.2647549 0.08750455 0.09194031 0.2441417 -0.07385155 -0.25312215 -0.11295623 0.031570807 0.0026740008 -0.15136643 0.02705721 -0.022018004 -0.3215378 0.02156147 -0.34237325 -0.38648054 0.062253084 -0.057862587 -0.04683858 -0.26417536 0.25924858 0.20582925 -0.03820566 0.17797136 0.06632438 -0.3879306 0.21467003 0.26633763 -0.0018627814 -0.3377751 -0.3984193 -0.07967289 -0.10999766 0.2072164 0.10676586 0.051144972 -0.13068968 0.08724967 -0.015751079 0.17723045 -0.122094996 -0.14064315 0.25511023 0.11329232 -0.03456641 0.13870423 0.00030046052 0.086290024 -0.2145943 -0.30839568 -0.28276882 0.20498054 -0.2481297 0.053181503 -0.19097026 -0.22963966 -0.3438737 0.22140561 -0.3457266 0.12969708 -0.049579352 0.25087023 0.19779947 0.090943135 0.14631374 0.10077773 -0.15315492 0.36127165 -0.12117634 0.00046005234 0.119526945 -0.32208467 0.10318156 -0.19432443 0.07009509 -0.08957148 -0.20317507 -0.12825531 0.004994799 0.21608451 0.44396663 -0.29183817 0.2403145 -0.037013777 -0.12687261 -0.11642101 -0.1902703 0.12148422 -0.06863834 0.0751344 0.11575797 -0.18993586 0.014511358 0.09204097 -0.25490612 -0.16750966 0.21436797 0.09266142 -0.107063115 -0.16259383 -0.084998116 0.1390216 0.35598114 -0.15084723 0.32785618 0.33116755 0.02846319 0.051431194 0.1854725 0.20160171 -0.03710387 0.054991476 -0.3374075
21 -0.038235124 0.2057929 -0.028855428 0.09447065 -0.3211499 -0.37427133 0.14348997 0.6430311 -0.20830576 -0.1405018 0.06878101 -0.0010651976 -0.34340024 0.07491161 -0.27903458 -0.122056894 0.088360034 -0.062880404 -0.0029411404 -0.102737404 -0.013762816 -0.26121822 0.19041085 0.18200462 0.23329173 -0.39698094 -0.09805647 -0.259056 -0.27629915 -0.2716212 0.10022852 -0.25223503 0.072575465 -0.13803059 0.13210262 0.043296136 -0.040328637 0.024258731 0.06281842 -0.07867021 -0.10254377 -0.05357969 0.041086935 -0.18540631 0.12715936 0.051905803 0.10407365 0.24111766 -0.07524128 -0.12350664 -0.12300909 0.21278362 -0.039954405 -0.11768432 0.02180286 0.25596383 0.00484034 -0.22282852 0.061027568 0.0077382317 -0.39029267 -0.20517525 0.059049588 0.17775385 0.040219072 -0.015539267 0.16380385 0.21194711 0.05744008 -0.08037268 0.0035669806 -0.14577486 0.111111574 0.120603144 0.3506386 0.0565733 -0.20145148 -0.20725498 0.21936221 0.18029308 0.2683492 -0.51188695 -0.029073274 0.20717822 0.18189782 0.22748286 -0.09416881 -0.039590046 0.48490083 0.20917481 -0.13123025 -0.11820591 0.18202274 -0.11350448 -0.11258437 0.38845098 -0.2185642 -0.21066314 0.25659013 -0.0038010804 -0.13107866 -0.18160814 0.08300793 -0.1229426 -0.176277 -0.20878263 -0.12520947 0.109447844 0.05416341 0.12373036 0.10196785 -0.28765085 0.17175947 0.16443087 0.093593605 -0.17488079 -0.112585515 0.19293357 -0.043737564 -0.18212359 0.14035183 0.20604897 -0.038701095 0.13314594 -0.032224555 0.030408977 -0.057877414 -0.2352762 -0.0802055 0.07585059 -0.35035312 0.17739727 0.43953243 -0.19129346 -0.2656304 0.1506802 -0.0092951 -0.24346605 -0.07043706 -0.2682434 0.18061402 -0.24919902 0.08230193 -0.0643877 0.4770507 0.050615884 -0.06010221 -0.37294754 0.19500723 -0.022492664 0.14771327 -0.32446778 -0.012241354 -0.2372807 0.28788006 0.25527537 0.15212157 -0.0176739 0.15202785 0.37977102 0.23000772 0.13499597 -0.06305179 0.063161254 -0.015099905 0.16029347 -0.30840153 -0.041517034 -0.19271651 0.5529233 0.03613505 0.18554538 0.12035745 0.11539913 -0.013899379 0.12745665 -0.078395 -0.26791823 0.008542931 0.26316562 0.24484774 0.037452873 -0.41350254 0.0428669 -0.1480535 0.038068492 0.27258956 0.36392862 0.11001949 -0.02041188 0.16721967 -0.10437048 0.015351355 -0.034346826 -0.017465273 0.16023344 -0.25055104 0.005433276 -0.107537106 -0.13528547 0.065397084 -0.31364927 -0.18444213 0.04091132 -0.13473365 -0.024931706 -0.28051305 0.10815814 -0.025590464 -0.063335486 0.11166884 0.06396749 -0.28036487 0.29170054 0.22479145 -0.12538998 -0.3018598 -0.22156505 -0.16228928 -0.035240628 0.38831148 0.12492331 -0.10807288 -0.232996 0.053304434 -0.19196232 0.16773494 -0.07976115 -0.18883495 0.23567776 0.17548111 0.12318841 -0.006837698 0.014440164 0.15877202 -0.18536194 -0.29866704 -0.25611967 0.09649605 -0.34234726 -0.119005255 -0.100095384 -0.089450404 -0.35129482 0.17029996 -0.1998269 0.16924931 -0.10053032 0.33770865 0.21493982 0.24502249 0.30952525 -0.049528103 -0.33724663 0.37897715 0.01969605 -0.054742083 0.17211509 -0.41594735 0.029149823 -0.17860812 0.20912087 0.00046237477 -0.42322162 -0.13290724 -0.028260518 0.080144204 0.2528494 -0.24943767 0.15800808 -0.042252894 -0.14218873 -0.1627695 -0.09355244 0.11591087 0.0783018 0.20764953 0.03335875 -0.3419191 0.12415398 -0.08149659 -0.27852136 -0.24512142 0.2988242 -0.122150235 -0.15434636 -0.26428205 -0.08136993 0.3260588 0.32634088 -0.06431949 0.31182775 0.2046849 0.1339984 0.044548992 0.1444688 0.21841301 -0.00591854 -0.007340187 -0.31666258
22 -0.013467365 0.33935687 -0.085262865 0.05133235 -0.27919164 -0.26866037 0.22081932 0.5643136 -0.07653669 -0.022461979 0.10442516 -0.22356944 -0.19885136 -0.043488726 -0.27818295 -0.066397265 0.11604991 0.024284476 -0.051817283 -0.19190884 0.032931488 -0.35029107 0.09254591 0.22658007 0.03912547 -0.30307126 -0.13472043 -0.3005212 -0.30406836 -0.34568864 0.16766888 -0.12904693 0.15752035 -0.10669088 0.06894295 0.11236812 0.10305638 0.060684822 -0.07537049 0.053784914 0.024408842 -0.011046266 0.15686189 -0.22820373 0.08572995 -0.02803885 0.16916408 0.23809427 -0.0158065 -0.0896652 -0.08509835 0.12791298 -0.043430563 -0.02070213 -0.0005039516 0.12939787 0.08281527 -0.13003552 0.14694941 -0.015579365 -0.31898773 -0.21138066 0.09616546 0.08238998 0.017065367 -0.04386606 0.16551124 0.24416743 0.048054133 -0.15203133 -0.0010727122 -0.11796388 0.16466913 0.22225438 0.40073556 0.13476571 -0.17043933 -0.19994742 0.22992553 0.258904 0.114204966 -0.42647046 -0.09740156 0.30865082 0.084050015 0.18294013 -0.1101268 0.009306377 0.55853736 0.21726546 -0.1705739 -0.034495566 0.22828405 -0.08682387 0.07912127 0.35694653 -0.11369045 -0.11483269 0.11788597 0.052578602 -0.1012188 -0.2316599 0.13671024 -0.1299676 -0.19054238 -0.14048061 -0.026071852 0.004172136 -0.07722809 0.22186947 0.04166987 -0.18520527 0.17628378 0.11481244 0.112628855 -0.12576224 -0.047262456 0.20739849 0.07557103 -0.23239915 -0.01655541 0.25751597 0.06188305 0.052336775 -0.0012240128 0.16694655 -0.1546229 -0.18612617 -0.093397975 0.13992521 -0.2941896 0.24055663 0.50490266 -0.1935265 -0.25312844 0.10536921 -0.031156698 -0.2893747 -0.17179 -0.26529703 0.101704076 -0.26516894 0.052858397 0.08470173 0.51198834 -0.016061582 -0.010198819 -0.3817424 0.10709455 0.0053822882 0.17498241 -0.27703175 -0.0990971 -0.26475844 0.10401048 0.21520552 -0.06266298 -0.0043642255 0.018674053 0.44222093 0.32948354 0.17682095 -0.004850665 0.13563581 0.03510767 0.085042626 -0.37632403 -0.07561717 -0.15990208 0.50770086 -0.08188259 0.23132323 0.047135383 0.015997076 0.06400574 0.08495635 -0.088187836 -0.22482015 0.035001278 0.26274478 0.32540253 -0.021834996 -0.43488193 -0.022616718 -0.2963596 0.055171784 0.283256 0.28920147 0.011903216 -0.12202137 0.202916 -0.081174284 -0.09580937 -0.08593236 0.08590814 0.048097633 -0.085780345 0.07841007 -0.108012795 -0.27599886 -0.089013696 -0.27481955 -0.27742147 0.067335196 -0.10081335 0.034615688 -0.28816688 0.16392277 0.10613509 0.01603754 0.11134261 -0.0011943702 -0.27767348 0.2990542 0.10738526 -0.10526875 -0.37842286 -0.28009918 -0.14741735 0.0003653064 0.43139553 0.08450875 -0.00893684 -0.12355528 0.14491338 -0.087054044 0.16584656 -0.2574135 -0.09121454 0.321492 0.101349995 0.11989416 0.06821773 0.087602146 0.15655926 -0.07834923 -0.28596377 -0.16852477 0.20332035 -0.33203116 0.0088300705 -0.20999566 -0.0827468 -0.39204296 0.09309117 -0.24333555 0.19628376 -0.095948674 0.32858467 0.15407734 0.21130703 0.25829273 0.13801943 -0.2862461 0.36199155 -0.051668163 -0.06525558 0.2050215 -0.40326938 0.13159648 -0.15064037 0.12447054 -0.023275997 -0.41047266 -0.11809743 -0.14258108 0.21225218 0.40463594 -0.2898703 0.24717574 -0.048486557 -0.18929386 -0.16776145 -0.09852776 0.090726435 -0.007147849 0.17573039 0.13188003 -0.17471595 0.14611828 -0.06144992 -0.3170957 -0.032940153 0.20778556 -0.075046055 -0.16519712 -0.19663371 -0.067658864 0.23802742 0.30308813 -0.08431138 0.23865487 0.14940515 0.13190706 -0.014861247 0.16483921 0.16217755 -0.11699207 -0.045039546 -0.19815344
5 -0.14785212 0.25965488 -0.21977909 -0.10104177 0.1559643 0.101531304 -0.05048396 0.17162192 -0.0005898236 -0.09893708 0.34159055 -0.027496083 0.06113644 -0.14678578 -0.090470344 -0.24559298 0.31420273 -0.19267426 -0.0549871 0.06445053 0.064543344 0.11946776 0.014753999 0.010573682 -0.010884433 -0.04373261 -0.24163373 0.022155197 0.12046444 -0.19953099 0.0310998 -0.21505816 -0.20412877 -0.09849821 -0.002724547 -0.00937106 -0.26036736 -0.08525111 -0.079817824 0.046155058 -0.15184979 -0.027081909 -0.058571853 -0.02377576 -0.06560054 0.19082835 0.23084784 -0.04006319 -0.04856167 -0.01994278 -0.057874084 0.040576223 0.0074999286 0.12683734 0.046700362 0.10918468 -0.010699493 0.036360953 -0.2878249 -0.16260053 -0.02188041 -0.17923318 -0.1369304 0.19797239 0.17265819 0.11170193 0.011885402 0.020919876 -0.06851894 0.029737582 0.024801213 -0.0434887 0.34636247 0.010109422 -0.30672613 0.13579246 -0.39336562 -0.09438641 -0.1304107 0.19898833 -0.12503676 -0.2772442 0.021908607 0.24751101 0.21892817 0.18234536 -0.15347257 -0.12691508 0.36877158 0.18297423 0.32463777 -0.14431697 -0.22496141 -0.17926933 -0.2657372 0.1947059 -0.14791673 0.10202374 -0.23574798 0.07168642 0.14481819 0.0060411724 -0.0033043798 -0.11768506 0.24027352 -0.08265877 -0.09049229 -0.0133989705 0.05467196 0.15757476 -0.31939575 0.09167699 -0.19621283 0.25852486 0.012611379 0.02645623 -0.2647231 -0.10796713 0.22346511 0.13630696 0.019883294 0.28960252 0.051364638 0.04724395 0.08448871 0.07529042 -0.057256926 -0.12746975 -0.0021209621 0.19346061 0.055481393 0.11989876 -0.11506046 -0.1548837 0.029575538 -0.03364582 0.13001552 0.13118556 -0.21879745 -0.108742535 0.04038002 0.20962702 -0.121743165 -0.11211589 -0.1099535 0.02648434 -0.2368713 -0.21480729 0.1187005 -0.025342248 -0.0010929736 -0.270492 0.054835904 -0.16437581 0.16218643 0.056392856 -0.158423 -0.13475972 -0.2672395 0.19628583 0.006912061 0.061091967 -0.22277088 -0.21813017 -0.09238212 0.016058197 -0.24130996 -0.01255182 -0.12859383 0.25471124 0.015573787 -0.07497261 0.13959984 0.14636324 0.07888804 -0.2725661 0.056065973 -0.22654845 -0.1567256 -0.118682705 -0.061814856 0.077543944 -0.24566737 -0.17203096 -0.20151624 -0.29703856 0.2541669 0.40232843 0.16335586 -0.2015469 0.14618215 0.07051628 -0.1617982 -0.052195285 0.061970837 -0.041086707 -0.1298296 -0.19854537 -0.09017823 -0.03793253 -0.15174955 0.042292263 -0.22626667 -0.30571622 -0.034816045 -0.20105998 -0.049995456 0.049546383 -0.0012656845 0.09558806 -0.00058488984 -0.105990924 0.073845856 0.20553423 0.2614163 -0.05962358 0.1251345 -0.39139372 -0.2063816 -0.18327585 0.20586775 0.24166004 -0.09950919 -0.18546526 0.12059671 0.13298951 0.14695208 -0.02911673 -0.17890911 -0.020004878 0.025077693 0.06368466 -0.20616718 0.21403748 -0.09171456 0.0067821746 -0.116921395 -0.12640117 -0.019651372 -0.35000488 0.124722265 0.11525574 0.20350133 -0.11251604 -0.033146735 -0.28465432 0.041414205 -0.019693727 -0.00492361 -0.060275927 0.03004911 0.19277088 0.023933556 0.22850212 -0.07499688 -0.2865261 0.510139 0.09636405 -0.19889772 0.0034139242 0.18947619 -0.05019143 0.2537006 -0.12583716 -0.31968847 -0.14857282 -0.091006346 -0.23139526 -0.25999865 0.13823874 -0.17467515 0.039312795 -0.19586198 -0.030329999 0.12939085 -0.17906332 -0.0021686782 0.10947405 -0.39170465 0.031251773 0.024446048 0.13647981 -0.028985364 -0.06411547 -0.16826962 0.12515531 -0.6088405 0.4559769 0.08436745 0.09302013 0.2361934 0.11221256 0.004368117 0.17690584 0.20217158 0.29895672 -0.1066949 -0.08136225 0.06974502 -0.12129457
20 -0.07428635 0.18566933 -0.13018179 -0.010452784 0.054713186 -0.15306671 -0.055673607 0.31687272 0.16943562 -0.15068668 0.34732157 0.05541929 -0.20577708 -0.34899318 -0.31728342 -0.08348088 0.15344875 -0.06409545 -0.07586016 -0.013601156 -0.107300594 -0.30559617 -0.06521382 -0.1975164 0.07085441 -0.25787583 -0.030124376 -0.047388498 0.0816816 -0.37332156 -0.08574485 0.110879526 0.005419045 -0.114214666 0.27996755 0.10377203 -0.09884276 -0.42515233 0.10648738 -0.06243894 0.21973437 0.083902724 0.031660434 -0.31751162 0.34502214 0.061991338 -0.1537199 0.2777979 0.004070311 0.10702767 0.024728583 0.023028526 0.028420914 0.30787855 -0.039545387 0.3431791 0.03409863 0.015055028 -0.01886737 -0.06731204 0.07016223 -0.21429618 0.06951065 -0.09131515 0.066117376 0.23863682 0.054844942 0.30603233 -0.14552082 0.06345144 -0.312503 0.17850964 0.010152423 -0.28783655 0.35769778 -0.03893571 0.06829604 -0.31044006 -0.115138255 -0.09963514 -0.106628686 -0.023270862 -0.39744377 0.38750356 -0.1279266 0.029493298 0.019239092 -0.061607584 0.0915496 0.004664071 -0.1167705 -0.50488085 0.029860156 0.119694576 0.04535574 0.07990714 -0.031246632 0.038578764 0.05438511 0.047110304 0.08146361 -0.15110986 -0.07421428 -0.007337861 0.117012635 -0.35362276 -0.01270914 -0.08537556 -0.06537945 0.047698025 0.04096104 -0.40683195 -0.03885242 0.047048934 -0.0928468 0.17105268 0.04612969 0.11700975 0.3091837 -0.2132191 -0.29982126 -0.16246156 -0.092301905 -0.020938648 -0.16698126 0.19931822 -0.02947653 -0.016131965 0.225603 -0.09156222 0.043818925 0.21777277 0.07949183 -0.14960892 0.024926912 0.032898244 0.33019048 -0.08299206 -0.21115026 -0.4120328 -0.13110028 -0.14692083 -0.43199125 0.15398246 0.087141596 -0.116300434 -0.1292183 0.099741705 0.05525271 -0.1254441 0.1816243 -0.22355819 0.17435771 -0.14733024 0.058360226 0.2813153 0.14805576 -0.13889126 0.008587655 0.23701015 0.027561441 0.016494542 -0.05924225 0.12218667 -0.12711394 -0.10861911 -0.16443278 0.092944436 0.08327356 0.20452194 -0.24948655 -0.19808415 0.28026456 0.34704652 -0.14422876 -0.23697804 -0.015612818 -0.21770765 0.15515444 -0.048192635 -0.17808872 0.16969906 -0.13671283 -0.077363774 -0.122487925 0.16068827 0.452962 0.350469 0.18860076 0.23622555 0.18423246 0.24670762 -0.2235476 0.22785226 0.07309183 0.2541041 -0.32840323 -0.09906574 0.10226648 -0.05047064 -0.073713705 -0.27264532 0.22080195 0.12656023 -0.14875573 0.046334133 0.05132582 0.06586178 -0.28837538 -0.255209 -0.15989797 -0.17186823 0.012176136 -0.11828312 0.0635101 -0.06696789 -0.083289005 -0.4761462 -0.10411605 -0.12781513 0.2877238 0.27394953 -0.2850771 -0.19210173 0.2089478 -0.060392283 -0.06406475 -0.054881107 -0.38902494 0.09589892 -0.119506605 -0.0140961865 -0.30950695 0.4320394 -0.2699396 0.11908626 -0.1927083 -0.18897988 0.13212535 -0.3601777 0.21386759 -0.20567513 -0.22742014 -0.06775236 0.2946517 -0.088250995 -0.016865993 -0.3381448 -0.053299323 0.3451022 -0.076338895 -0.17176239 -0.11369353 -0.2732069 0.2318329 0.04404975 -0.096528955 -0.09972248 -0.3041658 -0.17810099 0.0075025507 0.22126736 0.2769813 -0.6260146 -0.33893383 -0.30317613 0.12976493 0.3674627 0.05795333 0.004839255 0.16816132 0.21800242 0.2320726 -0.005596427 0.39660296 0.24342823 -0.1554101 -0.033210117 -0.1005135 0.043360997 0.10599615 -0.4386465 0.006227491 0.36567336 -0.20784652 0.1247177 -0.2785744 -0.21893732 0.10881181 -0.07168254 0.061742637 0.18757774 0.38954797 0.31180578 0.45269576 0.031948283 -0.14733705 0.051862516 -0.014820271 -0.23847733
24 -0.094390556 0.21348803 -0.11027002 -0.005233386 0.2555534 -0.18206625 -0.22492091 0.31012428 0.29505944 0.12090976 0.2597402 0.12614496 0.22502089 -0.12747431 -0.10967759 -0.07160228 0.13179064 -0.12966505 -0.05917285 0.0066901674 -0.12709005 0.07522808 0.046055675 0.22314484 -0.06630493 -0.12069665 -0.047989976 0.12683216 -0.13180302 -0.055473905 0.22250345 -0.22088471 0.029956646 -0.16706114 0.052141465 -0.027513022 -0.20872438 -0.13134019 -0.031113528 0.2298341 -0.17088938 -0.12496623 -0.028955314 0.033913497 0.0047032316 0.19270739 0.12247716 -0.06669854 0.06615509 -0.008314525 0.14867158 -0.074001305 -0.21370341 0.043868285 -0.072299495 0.16251442 0.18571064 0.04890857 -0.05160141 -0.0028457684 -0.005367275 -0.051246535 -0.10760474 0.27593023 0.12042871 0.14035092 0.19662863 0.040547613 -0.16322519 0.3471802 -0.06455015 -0.15614764 0.35393065 -0.04499656 -0.01966624 0.060594846 -0.32107136 -0.12638168 -0.059836242 0.16058053 -0.24959777 -0.2389661 -0.14873815 0.19710512 0.02390816 0.101047225 -0.16303597 -0.11988672 0.40227124 0.23257561 0.4112176 -0.27795538 -0.2494876 -0.031627275 -0.38754463 -0.025094919 0.05738822 0.053274676 -0.3641232 -0.023650466 0.18413988 0.0645938 -0.19120452 0.068365335 0.17289183 -0.09857221 -0.09133654 0.07504005 -0.12374661 0.09385702 -0.3641294 -0.13482943 0.062580764 0.14310981 0.048303347 0.02907019 -0.22126193 0.02551071 0.14151707 0.04608105 0.035863888 0.06424835 0.057529185 0.0725588 -0.045524046 -0.08052454 -0.28245214 -0.28608015 -0.034093898 0.13594785 -0.10858332 0.14011872 -0.09057334 -0.18678035 0.076126225 0.0148517145 0.046828333 0.009710401 -0.23220044 -0.17456232 -0.09012148 0.02395697 -0.09958318 0.11920665 -0.037875637 0.1989058 0.0023761033 -0.33671564 0.08910989 -0.13591745 0.084216155 -0.1757875 0.124671005 -0.28843194 0.11386873 -0.18131265 -0.123559974 -0.1333136 -0.15927054 0.33187836 0.032990962 0.0391207 -0.21950112 -0.03103471 0.015980538 0.124017306 -0.13702333 -0.0035548664 -0.27344096 0.26496518 -0.1581401 -0.29980597 -0.023301577 -0.0978081 -0.07669138 -0.027748147 -0.07731631 -0.22071378 -0.022540016 -0.0500189 -0.03571702 -0.015159345 -0.19714445 -0.37348178 -0.1778112 -0.26887387 0.39340702 0.30610436 0.14328328 0.03337516 0.08328981 -0.12265904 -0.16005586 0.03368342 -0.05622901 0.015528213 -0.23211098 -0.08551081 0.061777543 -0.17220798 -0.072933085 -0.14572197 0.010102107 -0.244252 0.003706548 -0.10892343 -0.07955707 0.045510415 -0.01550729 0.09127531 -0.08448275 -0.1332222 0.0024631787 -0.07249337 -0.012587305 -0.08263188 0.024545293 -0.47805187 -0.084926136 -0.15135758 0.2781997 0.052667923 0.025300004 -0.10816342 0.051895965 0.19005851 -0.20055123 0.067339756 -0.14557122 0.15587194 0.12685744 0.07679833 -0.07396547 0.299809 -0.12656467 -0.014617121 -0.15742575 -0.21462205 -0.14535195 -0.27341837 0.034728006 0.10001492 0.21724539 -0.14816074 0.024255706 -0.326673 -0.07296485 -0.14117701 0.10086665 -0.036591813 -0.022623936 0.08203658 0.10499207 0.036082927 0.15191303 -0.18612093 0.32486656 0.16018154 -0.090772726 -0.05662529 0.119553715 -0.054436326 0.1683499 -0.1809828 -0.09036639 0.03219895 0.18187492 -0.19293645 -0.20627517 0.003373966 -0.24124393 0.09095447 -0.17212573 -0.0155093465 0.11502041 -0.19188997 0.20470114 -0.118613526 -0.28423125 0.22299066 0.01764243 0.047426682 -0.022536024 0.12518425 -0.17269315 0.020955004 -0.26455924 0.36182275 -0.043597367 0.02185492 0.13461445 0.123498976 -0.1411952 0.15424916 0.42574233 0.3435203 0.027295869 0.07043737 0.08121668 0.1564588
6 -0.07669967 0.14992124 0.14958125 0.10372632 0.112965226 -0.15728703 -0.42413807 0.047539163 0.011538144 -0.04020411 0.19170617 0.2575169 0.16741079 -0.08905669 -0.0014512074 -0.029282972 0.09374502 -0.016979618 -0.06595783 -0.07450277 0.0527651 -0.2530654 -0.11091604 0.010240511 -0.0118344035 -0.11025023 -0.13355127 0.097493306 -0.32603592 -0.25393623 0.020461785 -0.12806825 -0.022597589 -0.13100749 0.04962948 -0.02490526 -0.20503975 -0.11516048 -0.039575182 0.054024927 -0.01330901 0.040781926 -0.1392747 -0.08920458 0.03431581 0.0022457098 0.14061365 0.11333089 -0.11299888 -0.028755857 0.049331307 0.025294136 -0.376881 0.019760823 0.10121411 0.1094624 0.049892638 0.009523192 -0.095418006 -0.12445692 0.10449618 0.012192615 -0.09099849 0.29572678 0.294029 0.082099944 0.11153922 0.19107676 -0.1045926 0.38999376 -0.13642982 -0.17682384 0.26265183 0.089126594 0.06843074 0.11795866 -0.16539764 -0.24721229 -0.05330203 -0.06633149 0.08347006 -0.27022338 -0.32179856 0.38368458 -0.0010644638 0.24206248 0.043935794 -0.262648 0.3723691 0.062541686 0.3616516 -0.2549872 -0.2186915 0.25949973 -0.43816262 0.11771612 -0.08296159 0.15735741 -0.30013263 -0.043611348 0.2749229 0.072090976 0.068811566 0.055874575 0.047299977 -0.2049093 0.011924101 0.29889166 -0.059545595 0.051261894 -0.2958635 -0.083398744 -0.058756966 0.11280278 0.17365049 0.059678312 -0.3028261 -0.06344726 0.14684497 0.21738163 0.02652142 0.1598994 0.19699955 -0.08213547 0.015154973 0.1329885 -0.2963685 -0.36343646 0.35901162 0.066886485 -0.21626607 0.18926126 -0.1239323 -0.17275532 0.15167323 -0.09870228 0.11485835 0.111022644 -0.26222017 -0.19665232 -0.1620942 0.024302267 -0.0422585 0.047222953 -0.088497594 0.19549333 -0.051357165 -0.23588142 0.15943156 -0.10943803 0.187357 -0.22697131 -0.05768358 -0.15982789 0.10035716 -0.06085062 -0.03944982 -0.3154428 0.052169427 0.3515139 0.10471305 -0.027305586 -0.11013676 -0.18801522 0.14197516 0.17513187 -0.09254493 0.1496363 -0.18639746 0.1836741 -0.24534605 -0.37392855 -0.09933228 -0.006733425 -0.2470735 0.016547013 0.01898361 -0.16531473 -0.0057166824 -0.06694227 0.035778515 0.10972894 -0.18504661 -0.40756887 -0.057695337 -0.25958738 0.37303793 0.40676653 0.1816849 0.1662829 0.13171801 -0.16205388 -0.25332224 -0.094004184 0.03982126 -0.028446073 -0.18992324 -0.07105042 -0.15316938 -0.14138277 0.12754734 -0.219966 -0.111417964 -0.055974476 -0.0240569 -0.15566792 -0.014469479 0.30738243 -0.20856544 0.28086984 0.058693457 -0.03667441 -0.13648084 0.25965655 0.014233195 0.0058242306 0.12434303 -0.29924098 -0.17379194 -0.17453434 0.4354619 0.02094079 -0.076896496 -0.0711005 0.08000527 0.05020222 -0.059950106 -0.03230113 -0.05194781 0.28780064 0.18855274 -0.058531247 0.071289584 0.095888644 0.005241823 -0.08506992 -0.0080702035 0.09568176 0.060784087 -0.24817163 0.28217095 0.25664628 0.17275552 0.05899855 -0.07192404 -0.12823857 -0.014723309 -0.06150284 0.16620718 -0.021755192 -0.14204097 0.05348522 0.18438499 -0.053538468 0.3526828 -0.043179207 0.19527873 0.23664649 0.2224041 0.16439614 0.09270009 -0.1908595 0.21197008 -0.24703303 -0.17739604 -0.20357496 0.105950564 -0.11527108 -0.11170432 -0.088885486 -0.21842909 -0.06696141 -0.31900385 0.0033650303 0.14325225 -0.14955653 0.0023079906 -0.050551265 -0.3289817 0.10277037 0.065766774 0.105404384 -0.07952402 0.08330457 -0.2859687 0.045282908 -0.29339617 0.14102922 -0.023316743 0.18930572 0.1545048 -0.061393842 0.014722468 0.15188226 0.22093222 0.07943911 -0.10208329 0.15308341 0.071288235 0.07939043
7 0.014624485 0.2139983 0.18137386 0.18578088 -0.07805376 -0.27266636 -0.16597816 0.28946492 -0.105185084 0.023779253 0.039695323 -0.0048578572 -0.14770932 0.2308936 -0.2592321 -0.034630317 -0.07004803 0.20371877 -0.08755654 -0.1555118 0.29074875 -0.116158 0.073728226 -0.09066237 0.08715089 -0.34944433 -0.3283073 0.08306015 -0.0764108 -0.11195131 -0.07003927 -0.20431581 0.16275385 0.21313925 0.06682548 0.05207284 -0.08334881 -0.13563152 0.10772207 0.00409086 0.2758548 -0.17339653 -0.034459963 0.24333814 0.2472119 0.1281156 0.024846142 0.002894329 0.19724634 -0.07566887 0.12187696 0.02653268 0.006004645 0.27819744 -0.2676436 0.21999103 0.21518454 0.13287172 0.26657495 -0.025509067 0.13766323 0.045615695 -0.060586285 0.06374695 0.016856179 0.10116897 0.00573445 0.2609888 0.06509249 0.056568645 -0.30004114 -0.38865697 -0.05277754 -0.179281 -0.023635764 -0.0055234577 -0.25102493 0.0844616 0.108554184 0.14331186 -0.30298313 0.09647516 -0.32766613 0.4387713 -0.052046597 0.17387891 -0.24346481 -0.06774523 0.3448194 -0.032513577 -0.20644923 -0.3437484 -0.07223537 -0.39988816 0.18890265 0.47072232 0.10202202 -0.006276277 0.022524152 0.19138885 0.22003917 -0.06304692 0.062934205 0.20758562 -0.070073225 0.031765524 0.30907726 0.18411757 -0.42023176 0.30794507 -0.25541273 -0.19335872 -0.06352215 -0.21704571 -0.41261116 -0.020707307 0.0028725916 -0.00023665128 -0.10581025 -0.15963699 0.23687729 0.16182917 0.420026 0.059893824 0.069656454 0.28084475 -0.015462432 -0.107988246 0.015925122 0.24339588 -0.16255176 -0.19657846 0.23925053 -0.46187323 0.14772698 -0.10207146 -0.075901605 -0.12261887 -0.058851533 -0.42338297 -0.14348641 -0.29551646 -0.09974552 0.37864658 0.012239432 0.07671469 -0.5161069 -0.35455376 0.002035427 -0.17448054 0.24246404 -0.40813792 -0.13972628 -0.41246372 0.41043508 0.20118165 -0.066131204 -0.24501406 -0.16280942 0.34043825 0.14755306 -0.0050157346 -0.2576039 -0.037654664 -0.3842092 -0.011908582 -0.19785291 0.47238854 0.03718029 0.47532323 -0.21618669 -0.048924025 0.22669052 0.17196363 -0.09618681 -0.034622632 0.22611314 -0.23370485 -0.001272803 0.051123995 -0.09713362 0.11105745 -0.2962707 -0.34585556 -0.38997918 0.014417326 -0.08389852 0.000998812 -0.07142945 -0.34252602 0.06466578 -0.20720921 -0.06865662 -0.010834417 0.02487474 0.023555808 -0.10251623 0.1209456 -0.14214201 -0.31277522 -0.19286251 -0.27442113 0.18098189 0.12637419 0.10944397 -0.20200945 0.102358416 0.15008406 -0.004186408 -0.108043514 -0.09503471 -0.41962117 -0.25915596 0.15572202 0.4886607 -0.18977156 -0.1134327 -0.22512907 -0.22523975 -0.06755214 0.09476557 0.19666481 -0.28533527 -0.50918233 -0.037067886 -0.1591512 -0.2007208 -0.13845402 0.03372535 0.036418907 0.10162072 0.12945777 -0.15400429 0.23975213 -0.23592998 0.22827114 -0.02890334 0.03200789 0.26613715 -0.3608144 0.07433979 -0.17387484 0.2331856 -0.048361234 0.14938457 -0.067274034 -0.29823306 0.060480364 0.14028563 0.06464085 -0.0040957583 0.22189564 0.3199895 0.16936487 0.08331165 0.0028292027 0.1206475 -0.18252833 0.038814854 0.06954063 0.07354987 0.17022724 -0.13159037 -0.47177643 -0.036798023 -0.22868444 0.056578852 0.26872692 -0.2754409 -0.22913687 0.1360982 -0.11608409 0.09759043 0.15981524 0.42671382 0.16210316 0.17641765 0.18300028 -0.16492867 0.06901755 0.12334897 0.07943658 0.025979824 0.29765552 -0.15641722 0.41826206 -0.1216761 -0.08640556 0.03129465 -0.10619384 0.048663683 0.38199782 0.327719 0.41598642 -0.047602247 0.27030763 -0.1575679 -0.08897271 0.3933904 -0.2557131
17 -0.10262526 0.055162318 -0.03594225 0.11840255 -0.18878357 -0.024139423 -0.21382214 0.16359678 0.17038041 0.018609554 0.10986904 0.2413569 0.09516774 -0.15439892 -0.08859512 -0.061951715 -0.020594517 -0.1434008 -0.14840229 -0.022688871 0.084284395 -0.11613421 -0.078342184 0.085117295 -0.07201613 -0.27867404 0.08560283 -0.01889736 -0.19828856 -0.21750651 0.081023484 -0.12138629 0.04591673 -0.093916215 0.07356713 0.030661965 -0.1782574 -0.12652004 -0.021925718 0.1183699 0.042075366 0.045514654 -0.0516356 -0.19599126 0.06413779 0.049418833 0.28274122 0.01804618 0.12927304 -0.10758163 0.29746518 0.04556839 -0.27025163 0.10480499 -0.03979519 0.16407095 0.036457814 -0.101073414 -0.054200113 -0.05790577 0.045738183 0.17228353 -0.25177827 0.15994793 0.2543197 0.16487612 0.0017470381 0.096962236 0.0061185616 0.21245095 -0.032701638 0.0045810547 0.25539878 0.036818605 0.102296285 -0.05416884 0.010938616 -0.1382146 -0.073593535 0.08178167 -0.060616944 -0.1847785 -0.16763408 0.20274279 -0.15221208 0.117345124 -0.06937009 -0.09384117 0.41158518 0.1702443 0.21594347 -0.24502257 0.003657902 0.15068427 -0.27182773 0.06784453 -0.08643668 0.15241475 -0.3686969 0.24233767 0.16369927 0.2409915 0.06511013 0.093002476 0.12688571 -0.251314 0.09471357 0.14985564 -0.14699456 -0.050262354 -0.211683 -0.15310937 -0.008313698 0.16129564 0.15855944 0.019667773 -0.28314638 0.09118407 0.15168014 0.19599517 0.109781705 -0.02205926 0.20992027 -0.03599362 -0.104136325 0.18857792 -0.20748064 -0.1846796 0.08223102 0.15985161 -0.17693797 0.26599658 -0.07945128 0.0017771968 0.17164992 -0.07893833 0.18733329 0.22680455 -0.28838775 -0.12558562 -0.0346795 0.20505472 -0.050358973 0.012783306 -0.18517795 0.0537807 -0.02586141 -0.28629246 0.10402372 -0.16463652 -0.01736881 -0.2721669 0.07705703 -0.2477821 0.14361078 -0.074207485 -0.028476238 -0.18021536 -0.007162644 0.47469494 0.09756645 -0.071004435 -0.06729614 0.05477512 0.13468406 0.1607236 -0.065500684 -0.023913981 -0.2558501 0.14936256 -0.25317022 -0.27792054 -0.03108165 -0.06478126 -0.15925476 -0.006036328 -0.023648832 -0.14462467 0.007420162 -0.107158236 -0.030797102 0.17093101 -0.18670394 -0.38821286 -0.33346066 -0.30461746 0.4004358 0.26775485 0.17395055 -0.04187843 0.1686723 -0.031827997 -0.2975472 -0.27340075 0.04377307 -0.13388889 -0.18159318 -0.14095537 -0.0077943006 -0.07208884 0.13984971 -0.07221179 -0.029804368 -0.14750817 0.024532132 -0.14712985 -0.028680364 0.15506983 -0.07529817 -0.040088538 -0.040404633 0.021268329 -0.06692691 0.15699373 0.16675164 0.062557794 0.013966529 -0.2772705 0.010523661 -0.14689149 0.42401397 0.17033328 -0.021456337 -0.06424857 -0.12863977 0.2999786 -0.28026053 -0.06400014 -0.028406816 0.25290236 0.22181243 -0.1333327 -0.08953744 0.27568662 0.003417298 0.06647644 -0.06955471 -0.034105424 -0.08411953 -0.045769952 0.17888412 0.21864182 0.15182875 -0.15379676 0.115553156 -0.17105974 -0.15365468 -0.17408197 0.122207195 -0.046594087 -0.06217717 0.20957842 0.2283835 -0.019007854 0.3174428 -0.16225451 0.3200602 0.03718616 0.026934348 0.09924327 0.07357924 -0.12859632 0.1257451 -0.34933248 -0.029121019 -0.1948506 0.12268669 -0.29346862 -0.12997566 -0.20563225 -0.2564761 -0.060450155 -0.32502067 -0.062404547 0.12538141 -0.12233427 0.09617711 0.18832003 -0.4894698 0.30041027 0.011997752 0.19775014 0.0662929 0.21152945 -0.2989289 -0.013583456 -0.39654025 0.23726238 -0.09318183 0.019031784 0.22186 -0.0698783 -0.073815614 -0.0654269 0.2456084 0.06113896 -0.18211538 0.08523313 0.0025937308 0.16167958
19 -0.03816275 0.36037847 -0.10460486 0.04855173 -0.040660374 -0.14663191 -0.1637562 0.30785033 0.09984675 -0.2917708 0.32061973 -0.12779509 -0.20102872 -0.14819738 -0.17298648 -0.047689315 0.15026315 -0.057119638 -0.032527175 0.054451644 -0.07288531 -0.39085147 -0.1569814 -0.019846719 0.06957152 -0.28925082 -0.03123365 0.02983524 0.07217997 -0.4077866 -0.18391189 0.03181521 -0.10957062 -0.075190686 0.17201611 0.074869365 -0.030134391 -0.42695865 0.178319 -0.015575311 0.20824033 0.03193475 -0.056368522 -0.15977971 0.2387665 -0.0792159 -0.13795592 0.19997339 0.017712856 0.08688119 0.0029484923 -0.13424462 0.04843833 0.18728578 0.122505106 0.41111112 -0.055693135 0.028816964 -0.090427116 -0.16789322 -0.034317706 -0.24619606 -0.050967187 -0.059040383 0.056324605 0.31394458 0.21145399 0.37951046 0.022733636 0.10032874 -0.19385992 0.26798525 0.032575257 -0.32096216 0.29689947 0.07375038 0.14098065 -0.38741297 -0.084767215 0.013278882 0.011865957 -0.20194794 -0.39260554 0.390062 0.030796938 0.06541637 -0.014355264 -0.052326616 0.107033156 0.067279674 -0.01772754 -0.51196253 -0.05832915 0.1785927 0.072347976 0.22465429 0.030512268 0.008802135 0.1899311 0.09162576 0.16832422 -0.039436553 -0.098331384 0.20692211 0.17829932 -0.2766075 0.09039225 -0.105257325 -0.088210985 -0.01365474 -0.020380821 -0.25446966 -0.072737485 0.08994683 0.0003106852 -0.032433752 0.09398091 0.109202884 0.19486772 -0.091071576 -0.29946443 -0.13115755 0.06929775 -0.039178737 -0.051917918 0.19262493 -0.121486835 -0.07295243 0.22158171 -0.07200004 -0.015137122 0.109812535 -0.030373657 -0.10780827 -0.014349817 -0.035813693 0.40643466 0.0014045544 -0.12319072 -0.4139835 -0.18889675 -0.10425811 -0.31331804 0.19794784 0.013867916 -0.007503531 -0.12799673 0.043770716 0.11094644 -0.06952536 0.27615118 -0.3856341 0.0703923 -0.24899825 -0.08542216 0.2520536 0.08606324 0.0686931 -0.14736181 0.314251 0.041335147 -0.0027079477 -0.08045824 0.08119898 0.06967584 -0.1964181 -0.32095042 0.113352455 -0.04524409 0.1130746 -0.38110018 -0.101032525 0.32807046 0.24073823 -0.13466497 -0.33019036 -0.10362113 -0.17807671 0.13110265 -0.08247498 -0.07202688 -0.033472247 -0.20332038 0.028073713 -0.14051256 0.24490286 0.492547 0.33651012 0.18538558 0.3703779 0.16812117 0.2880657 -0.15319058 0.21401632 0.05604973 0.17792839 -0.3483539 0.03234335 0.19372618 -0.10676953 0.042315315 -0.37897208 0.25174296 0.19911207 -0.14654848 0.088637955 0.13128349 0.06266789 -0.3143729 -0.20938343 -0.1905422 -0.35094187 -0.069665484 -0.14419027 0.20019428 -0.12607335 -0.20954125 -0.50253356 -0.17478734 -0.23874536 0.38811108 0.21646096 -0.3327299 -0.09012095 0.1639953 -0.13347079 -0.0628637 -0.21751711 -0.45147085 -0.041248336 -0.0853334 -0.035126712 -0.18413733 0.27866077 -0.20797543 0.07641624 -0.18443723 -0.07193028 0.07126541 -0.22121741 0.41041005 -0.306544 -0.13817191 0.098047435 0.2686955 0.04320366 -0.14107184 -0.2939069 -0.11898598 0.50703853 -0.11235443 -0.107226565 -0.07745874 -0.25627455 0.3523615 -0.043526135 -0.11474393 0.11318954 -0.29968825 -0.06789981 -0.002930627 0.24409427 0.10666097 -0.54729426 -0.36986637 -0.40165946 0.20522474 0.37635243 0.062335107 0.117609024 0.14883678 0.15641043 0.19796202 -0.11535674 0.41425872 0.16113365 -0.07052137 -0.011626694 0.029791588 -0.012170246 0.035352692 -0.28119588 -0.06216993 0.4220873 -0.2212452 0.22982289 -0.32293573 -0.11420402 0.19148938 -0.12745541 0.04082009 0.03657166 0.3828029 0.393755 0.23037381 0.019363213 -0.14467089 -0.09170396 0.079222225 -0.23285161
1 -0.023266522 0.074001946 -0.049714316 0.17739885 -0.050660174 -0.07764566 -0.284552 0.24671021 0.13883626 0.035192646 0.2648112 0.1840676 0.047911566 -0.028071538 0.08614573 -0.0041766004 -0.027167689 -0.20859012 0.026243458 -0.15886965 0.100595415 -0.07464132 -0.12328043 0.20350878 -0.08796535 -0.08514641 0.11795457 0.12554255 -0.29907873 -0.13279967 0.17325297 -0.16824001 -0.058551118 -0.049942456 0.007941039 0.048364844 -0.20844138 -0.11439474 0.022452855 0.11883047 -0.065529734 -0.12360102 -0.00042315628 -0.07056067 0.020192094 0.041919753 0.15703468 0.02952011 0.012789417 -0.06289138 0.26295757 0.16320592 -0.32980508 -0.017575897 0.15029576 0.15642758 0.1741835 -0.11925847 -0.121243246 -0.06845615 0.105225086 0.09697384 -0.21287715 0.16231193 0.15158486 0.29163262 0.100666866 0.1202699 -0.03579419 0.22916815 -0.048383858 -0.0759247 0.26329178 0.07273423 0.09914782 0.10676438 -0.10068978 -0.03033841 0.02551811 0.022200707 0.1472651 -0.19920789 -0.21851932 0.26493773 0.07775325 0.23199719 0.019992713 -0.015563329 0.3853484 0.11986156 0.26406637 -0.1960384 -0.16706413 0.22339633 -0.3895205 0.17544566 -0.17168383 0.2126724 -0.31315553 0.120377 0.19525759 0.1746101 0.051211238 0.014073626 0.10798342 -0.24429631 0.085847534 0.10091438 0.031968154 -0.028483463 -0.26695374 -0.1405029 -0.12603816 0.08170819 0.18879953 0.060759503 -0.33838975 -0.0030128427 0.16191283 0.011215239 0.13469508 0.21465877 0.060917757 0.02635491 0.020448357 0.13275343 -0.30152538 -0.19324309 0.16980758 0.2222076 -0.043197494 0.34655416 -0.03779163 -0.03437592 0.2795506 0.118402496 0.36393732 0.27874956 -0.3911147 -0.022657648 -0.116330214 0.031741377 -0.2301783 -0.027982553 -0.12935434 -0.011476952 0.05944683 -0.10323187 0.11218981 0.020546177 0.07519718 -0.33968806 -0.018181 -0.19052061 -0.05643956 0.007729721 -0.12991159 -0.17016955 0.01712694 0.38758484 0.07714553 -0.009382639 0.052432176 0.015892256 0.22037196 0.06386443 0.04981107 0.033806723 -0.3975956 0.2287415 -0.28025734 -0.16843385 -0.16564967 -0.076319866 -0.2532768 -0.07374757 -0.045567185 -0.19420877 -0.0064329593 0.0025615585 0.021766856 0.00787126 -0.18252403 -0.30791208 -0.17832658 -0.30000997 0.38230142 0.37229374 0.14869078 0.090558276 0.24147286 0.041096378 -0.17994429 -0.20906596 -0.024600014 -0.11300942 -0.021776054 -0.028014092 -0.0077171708 0.015238695 0.0641802 0.01452635 -0.11136541 -0.20137982 0.0724324 -0.254547 -0.07438872 0.19100443 -0.16495158 -0.059927955 -0.053704504 0.0034388492 -0.13631955 0.22006743 0.069293015 0.06710242 -0.042243365 -0.24905713 -0.07206499 -0.2583787 0.37528887 0.29287702 0.10870424 -0.0734614 -0.056266077 0.13244492 -0.12564296 0.034843016 0.016554588 0.24841584 0.2489008 -0.08160169 0.011405654 0.3131423 -0.1266824 0.0033738099 0.063449174 0.0472169 -0.028286405 -0.14425942 0.29973808 0.17820859 0.11612152 0.03549568 0.13823125 -0.14259626 0.015619894 -0.23075333 0.066506594 0.10826705 -0.12158167 0.2419031 0.2853296 -0.054696836 0.12563811 -0.16563699 0.26304537 0.015175561 -0.04045628 0.017138451 0.15285577 -0.004359358 0.15130423 -0.3252693 -0.06926661 -0.13384807 0.19590954 -0.16869885 -0.17353153 -0.15909727 -0.3094174 -0.038229197 -0.2557517 0.024930948 0.053338327 -0.071295895 0.14739643 0.07434641 -0.41062775 0.25105044 0.10426841 -0.036203656 -0.071866274 0.056570742 -0.123306215 -0.116937764 -0.30433422 0.2226524 -0.15465896 0.030822653 0.12158127 -0.08591619 -0.017276838 0.06271047 0.4234847 0.13197507 -0.035318848 0.1756855 -0.05521426 0.21711922
3 -0.055201452 0.10380707 -0.09399559 -0.00039659694 0.13311417 -0.10613809 -0.22658293 0.26791933 0.20485882 0.012280887 0.26136622 0.10226949 0.117668524 -0.15103444 -0.1215684 0.017194215 0.08851289 -0.11690019 -0.08868162 -0.18528628 -0.20628393 -0.035244994 -0.07554663 0.048354793 -0.08517057 -0.1256326 0.024445545 0.122243166 -0.23596133 -0.06488201 0.15147221 -0.09563692 -0.0008194179 -0.19689853 -0.06450691 -0.094112545 -0.24808626 -0.1068682 0.16015927 0.11927861 -0.06461305 -0.24776483 -0.016880255 -0.030528722 0.14899033 0.19867688 0.14117576 -0.083226554 0.12601294 0.055121973 0.10940306 0.108312584 -0.2052124 0.19652581 -0.049259137 0.166655 0.16823848 -0.04829106 0.07273659 -0.014564486 0.028125169 -0.02669482 -0.1924811 0.12546366 0.081525795 0.17189075 0.30398917 0.038848292 -0.20996536 0.27482837 0.00548357 -0.13262387 0.3252974 -0.0014264284 0.039398383 0.06792823 -0.27569014 -0.011984751 -0.06593607 0.077756345 -0.09482221 -0.1863501 -0.088989116 0.22772993 0.07800228 0.01218179 -0.16343303 -0.0706131 0.35375977 0.25252303 0.41978514 -0.26973704 -0.26083532 0.1460914 -0.3975895 0.122010544 0.11930851 0.023463989 -0.3673702 0.14253804 0.3157797 0.04194457 -0.15973796 0.17879385 0.13993506 -0.23411945 -0.077064924 0.13341932 -0.18790677 -0.11716188 -0.39609975 -0.1545259 0.044137027 0.13241848 0.16560636 0.14483853 -0.22694966 0.19562593 0.084895246 0.061556596 -0.024468742 0.07555403 0.014784483 0.09236456 0.013007954 -0.053848363 -0.27590665 -0.31444958 0.17496033 0.2954518 -0.16625145 0.23138043 -0.03399043 -0.18810374 -0.00658339 0.13802388 -0.08858142 0.062335372 -0.28606874 -0.21009476 -0.0441516 -0.023096012 0.005115911 0.14485298 -0.1442253 0.11743667 -0.031452436 -0.31110293 0.03248835 -0.15049851 0.034871887 -0.29611346 0.08972201 -0.25811946 0.046126638 -0.12623693 -0.11130929 -0.06945824 0.029651133 0.4697367 0.084707245 -0.00772151 -0.26972038 -0.1948772 0.00495712 0.19895072 -0.05628417 0.08293413 -0.3078122 0.2248371 -0.16948234 -0.28611413 -0.15966266 -0.10818819 -0.04409611 -0.075025804 -0.02587691 -0.12780254 -0.13712746 -0.1499007 -0.03499677 0.11721981 -0.06709961 -0.36965147 -0.1699254 -0.16782679 0.3902914 0.26437125 0.2731138 -0.044838395 0.13311493 -0.16806811 -0.21606085 0.11814971 0.009916288 0.052361242 -0.15090469 -0.21620536 0.0019717023 -0.17959212 -0.008691339 -0.1164357 0.058895323 -0.010112448 -0.003991802 -0.05178769 -0.11033151 0.18964337 0.031341057 -0.023681318 -0.010932677 -0.10867088 -0.06038171 -0.021169359 -0.05109738 0.04315264 0.067562245 -0.4267191 -0.102456816 -0.14302759 0.11010001 0.03239923 0.028515778 0.09548918 -0.0568714 0.27959955 -0.28615913 0.30791044 -0.15273187 0.25713316 0.114994675 -0.17554946 -0.00103498 0.29128745 -0.057293475 0.013937493 0.030181505 -0.21722277 -0.12670031 -0.19146305 -0.07056283 0.19294764 0.23525296 -0.024992904 0.094831176 -0.24460325 -0.017224262 -0.08975942 0.22946225 0.022253226 -0.18460712 0.12397037 0.058855727 0.055449888 0.11927789 -0.17477979 0.24856691 0.06464521 -0.06204314 -0.095712 0.1222535 0.021978145 0.18067984 -0.10409599 -0.24634261 -0.000532906 0.22110324 -0.13590614 -0.14980593 0.053391803 -0.096843526 -0.013464278 -0.21501955 0.055899993 0.02883979 0.007991685 0.042314917 -0.1581006 -0.24889478 0.17356722 0.02795266 0.110745326 0.058255807 0.10158414 -0.1338208 0.009055679 -0.2162437 0.34130856 -0.096188985 0.08957436 0.19093482 0.050066944 -0.097935826 0.085264005 0.36700624 0.29738042 0.04394066 0.05868188 -0.073499106 0.1975749
18 -0.070641674 0.27301487 -0.12643985 0.027145961 0.011975475 -0.124454364 -0.11354727 0.34894487 0.11689664 -0.23466997 0.31440994 0.0072427513 -0.15843117 -0.29200372 -0.27672657 -0.07952281 0.14621267 -0.05826324 -0.02569443 -0.06332074 -0.13668732 -0.32342634 -0.07334406 -0.15808652 0.018879991 -0.23323855 -0.10914645 -0.023179334 0.055492297 -0.37613207 -0.10241614 0.09981062 -0.055145003 -0.11864117 0.26031995 0.15823829 -0.12994394 -0.43316004 0.11991223 -0.06368788 0.22336262 0.08904683 -0.0305558 -0.289093 0.3701855 0.044625185 -0.13178708 0.22764808 0.011001106 0.07848361 0.03364969 0.018437149 0.051326163 0.300509 0.026361443 0.3371972 -0.029348142 0.009501762 -0.029579036 -0.0949929 0.061249748 -0.23759001 0.0536193 -0.07222029 0.059206147 0.24853753 0.13036035 0.349453 -0.080782115 0.09923904 -0.26342475 0.2275203 -0.019639123 -0.2819307 0.3111899 0.0086049335 0.07474209 -0.28337753 -0.10913376 -0.0631008 -0.085076764 -0.07616696 -0.4101584 0.3452262 -0.0791964 0.013258767 0.06818715 -0.023732275 0.08189895 0.03358982 -0.124135695 -0.47863173 0.048522394 0.14233336 0.030230653 0.13316947 -0.007519843 0.037896927 0.100195505 0.040288597 0.06609957 -0.14311054 -0.106194995 0.06595645 0.11633478 -0.32322454 0.01845348 -0.114797525 -0.09851107 0.04524847 0.031454537 -0.35118273 -0.07013634 0.0047024605 -0.08814272 0.16027048 0.060248796 0.07939997 0.2804624 -0.15154612 -0.30707082 -0.108899236 -0.08625071 -0.028402198 -0.13941154 0.2561375 -0.043426402 -0.0027854017 0.24367893 -0.11399814 0.08626745 0.19205049 0.064153075 -0.15015584 0.073274426 0.05411752 0.3415795 -0.01664288 -0.17935133 -0.39183068 -0.11976285 -0.18740714 -0.41285363 0.1427407 0.05201029 -0.08444827 -0.16076343 0.114437215 0.050253723 -0.15396775 0.20594878 -0.24303205 0.1895631 -0.14396119 -0.021611273 0.29954615 0.12282763 -0.05416599 -0.05191975 0.20776142 -0.002303013 -0.0064633084 -0.07368994 0.13155735 -0.04974355 -0.10450869 -0.17833586 0.101722166 0.038786527 0.20620286 -0.3024452 -0.14311583 0.25905734 0.31904817 -0.110603146 -0.2461567 -0.054509647 -0.15665881 0.16485283 -0.008029531 -0.16927329 0.11224369 -0.19260626 -0.07700874 -0.12625487 0.15633574 0.437299 0.3471714 0.16585498 0.23429276 0.15639077 0.24733646 -0.17978156 0.2157047 0.058202676 0.19059385 -0.29008543 -0.04682902 0.11219643 -0.008377483 -0.057132564 -0.2607273 0.24075022 0.12469199 -0.13090593 0.030083783 0.06859401 0.03553353 -0.3020286 -0.22764026 -0.13716362 -0.22038537 -0.011780647 -0.14144748 0.07612731 -0.118833095 -0.10811831 -0.46344352 -0.14155765 -0.1364099 0.31257278 0.25096625 -0.29654178 -0.15284649 0.14230005 -0.07906455 -0.00794505 -0.07914835 -0.40442804 0.079711065 -0.07475659 -0.02379982 -0.31560254 0.39492348 -0.29363203 0.09503373 -0.1209843 -0.16113019 0.12739113 -0.3129824 0.26723498 -0.24557859 -0.17615704 0.010304144 0.2853563 -0.034117512 0.0031782205 -0.31820086 -0.07391682 0.3938311 -0.05275633 -0.19548535 -0.038291633 -0.2629327 0.23139995 0.04992468 -0.10363066 -0.074779436 -0.34303418 -0.19423385 -0.03905698 0.28294742 0.2353914 -0.60811913 -0.3018387 -0.2967981 0.16186908 0.34784266 0.0060957586 0.016052194 0.15976171 0.1648781 0.23185377 -0.03662518 0.37063342 0.2578884 -0.11088956 0.010649311 -0.051746972 0.058344085 0.09199829 -0.40676615 -0.03033052 0.38073167 -0.20444588 0.1391485 -0.30810022 -0.18418835 0.11615836 -0.07131776 0.081924506 0.21068181 0.39208555 0.32225174 0.40613443 0.019198341 -0.109031074 0.012555327 0.03326842 -0.19262429
27 0.005780826 0.035903387 -0.16216971 -0.01933891 0.14542076 -0.16818231 0.008856032 0.24869815 0.20120263 0.07691795 0.2133374 0.12378461 -0.021248465 -0.18438984 -0.18534443 -0.01585339 0.16103663 -0.18328431 -0.21067649 -0.13074525 -0.059481997 0.23871428 -0.121976584 0.13043739 0.09614731 -0.068814404 -0.18526515 0.15319347 -0.09047484 -0.13322821 0.072783485 0.01951141 -0.29861516 -0.1980314 -0.067726284 -0.23525813 -0.12963678 -0.055238158 0.15981595 0.061201625 -0.12550236 -0.27034053 -0.13815905 0.0070009236 0.20085785 0.2649693 0.091092184 0.13993496 0.015040786 0.12288418 -0.02070968 -0.16936426 -0.057213664 0.032008953 -0.23248374 0.1818531 0.21860671 0.1942436 -0.17126484 0.10829743 -0.16808926 -0.20936504 -0.102771506 0.024681745 0.13554426 0.2204462 0.14536804 0.069996126 -0.20804843 -0.010587979 -0.024222748 0.07396611 0.4202906 -0.14370033 -0.12432352 0.036453806 -0.40238476 -0.110255644 0.0076074065 -0.036724817 -0.14545229 -0.13662045 0.088762335 0.30873346 0.18071602 -0.0015430175 -0.14195967 -0.14185724 0.28999186 0.25650454 0.4488312 -0.053491425 -0.19557397 0.003725276 -0.14210233 0.20666502 0.019477213 -0.04748507 -0.204229 0.07147009 0.2813302 0.05732747 -0.042513516 0.14575905 0.2818377 -0.035171323 0.00092148 0.11316019 -0.21241389 0.14971612 -0.33078688 0.06980733 -0.10542855 0.1359228 -0.04299077 0.20462535 -0.076710194 0.14225368 0.2891712 -0.13272363 -0.07454614 0.2325874 -0.020580119 0.06993861 -0.0651586 -0.17732255 -0.22313248 -0.23899722 0.06103449 0.2600911 -0.15007964 0.21320103 0.23674788 -0.1772023 0.04856471 0.12250747 0.071498185 -3.7348935e-05 -0.18455543 -0.09903666 0.13875386 -0.084756464 -0.014737413 0.023105066 0.08811288 0.16762243 -0.15237358 -0.30701438 0.016665606 -0.11827977 0.07004654 -0.18931541 -0.17602244 -0.22870669 0.105242416 -0.1529875 -0.20358714 0.03752232 -0.104876205 0.33683732 0.04380403 0.16217932 -0.09107409 -0.1351998 -0.18631448 -0.10968939 -0.016559763 -0.038804416 -0.13718006 0.21380731 0.07254829 -0.13199206 0.04164044 0.14220543 0.0767856 -0.12492049 0.13558684 -0.10335672 -0.2454936 -0.16806751 0.05894471 0.09675052 -0.11317635 -0.34392816 -0.07695978 -0.24656208 0.2631598 0.40319186 0.30630457 0.020745654 0.09842961 0.048166864 -0.4014333 0.048127744 0.023099327 0.061263565 -0.17985228 -0.25938213 0.10684851 -0.14083813 -0.10159326 -0.17465785 -0.084651046 -0.27294362 0.031415157 -0.080059394 0.05097726 0.1799761 -0.0069332835 0.17315921 -0.032417968 -0.11087639 -0.0631478 -0.009382402 0.18644048 0.052204166 -0.005823551 -0.4761743 -0.20670515 -0.156823 0.2738699 0.21277243 0.027004207 -0.11787444 0.10633005 0.108520515 -0.09222186 0.14745557 -0.24805988 0.21010315 0.275871 -0.097158626 -0.019335173 0.17019002 -0.10707796 0.05370001 -0.04223396 -0.30868378 -0.029955165 -0.34980848 -0.19394754 0.19231972 0.06439984 0.12672657 0.25945157 -0.15428047 -0.038190655 -0.08260228 0.02739305 -0.11441961 -0.050401997 0.1991588 -0.08775058 0.06640302 -0.05464009 -0.26354125 0.5198796 0.1840473 0.15194505 -0.06859753 0.14120513 -0.084035635 0.18324004 -0.017321426 -0.17364442 0.040472526 0.060902376 -0.007933205 -0.15449534 0.016874172 -0.3137147 0.08726551 -0.24096887 0.13193281 -0.04728989 -0.101107694 0.040587034 -0.11284741 -0.25211573 0.07124911 -0.009456897 0.028388306 0.10782008 0.14804617 -0.05574152 0.2283224 -0.33310217 0.20383655 0.056300182 0.0029874877 0.1380691 -0.024350375 0.008671066 0.1470542 0.46415788 0.36206904 -0.057368807 -0.049703725 0.034698732 -0.08182306
2 -0.15952738 0.23096396 -0.16374862 -0.0024317296 0.18268067 0.00549562 -0.044917237 0.37060958 0.16605939 -0.18507718 0.23192471 0.260791 0.077020556 -0.13901867 -0.10232264 -0.14418148 0.20969707 -0.16365734 -0.07842439 -0.18973576 0.1013545 -0.08411662 -0.12430141 0.08238611 0.1099518 -0.15166117 -0.11011009 0.17199267 -0.17271832 -0.15172833 0.0067955893 -0.112435415 -0.29801765 -0.0933709 -0.011024858 -0.0008398529 -0.13545592 -0.2759422 0.021478174 0.13799676 -0.09879433 -0.14605625 0.037691217 -0.068640344 0.12890927 0.054531217 0.2172184 0.07565654 0.036678504 0.025622398 0.02253273 0.07731009 -0.1408719 0.092522904 -0.028468838 0.10195606 0.10510799 0.10186345 -0.14326733 -0.11674542 0.021146607 -0.05744841 -0.0802073 0.048296545 0.20382383 0.2529871 0.05253283 0.09627784 -0.023706771 0.13626648 -0.08324844 -0.060392976 0.24592441 0.04607601 -0.13146132 0.11316548 -0.27281028 -0.104502626 0.011734524 0.15186237 -0.08381857 -0.18831818 -0.17158978 0.23493586 0.14756869 0.25984338 0.025036111 -0.27792358 0.3984776 0.16582732 0.24045826 -0.1705451 -0.13388167 0.036798485 -0.21224548 0.14907642 0.049454417 -0.02281029 -0.26454383 0.0270053 0.15905903 0.108788036 0.08445148 -0.030979121 0.1951619 -0.13020732 -0.089877754 0.1880543 -0.100966014 0.23276263 -0.27061152 0.07236042 -0.16371585 0.06573947 0.11843935 0.063374385 -0.24379687 0.040201824 0.24391137 0.056284767 -0.03699801 0.2905211 0.065275386 0.052715503 -0.10524464 -0.03446687 -0.10731874 -0.34631634 0.23175046 0.14046332 -0.085701585 0.12050423 -0.07043268 -0.13196275 0.12162188 0.074652106 0.20480318 0.15533392 -0.22727081 -0.18378787 0.13060711 0.09053497 -0.12688844 -0.094008684 -0.18860762 0.19789375 -0.29113507 -0.16255088 0.05284031 -0.1476899 -0.017803686 -0.23945114 -0.03624196 -0.22319861 0.012772383 -0.029977491 -0.20499037 -0.25609422 -0.040317796 0.15726148 0.10794632 0.14360702 -0.19989556 -0.1922399 0.02242056 -0.0006239283 0.037109192 -0.0072064837 -0.23574361 0.12287998 -0.102194704 -0.1432164 -0.076444216 0.078396045 -0.038067896 -0.080068454 0.10679691 -0.06844838 -0.27567455 -0.14493352 0.10648418 -0.01660257 -0.2644371 -0.241608 -0.24611212 -0.19664156 0.23376855 0.28556392 0.28981045 -0.03642058 0.16156015 0.0672089 -0.28015915 -0.035395764 0.106460616 -0.14021583 -0.024216192 -0.11859953 -0.058692873 -0.079416215 -0.041626785 -0.04314268 -0.070859365 -0.28918165 0.021137975 -0.2589995 0.026207263 0.17526004 0.027468285 0.11060194 0.10179265 -0.0084744375 -0.11042017 0.045992095 0.14859557 0.09923171 0.01829065 -0.33106694 -0.14860211 -0.041483566 0.26431745 0.29153594 0.07362817 -0.095211364 0.030891338 0.23864414 -0.074810386 -0.04750052 -0.053548895 0.1926023 0.09510904 -0.024478272 0.0069352794 0.15953195 -0.12959217 0.06873134 -0.042209126 -0.056575418 -0.030642733 -0.20742163 0.16231903 0.08817779 0.13110033 0.020865211 0.082552336 -0.21588986 0.04197448 -0.16536649 0.057125825 0.04687611 -0.10609363 0.14775 0.041900635 0.21941338 0.1184986 -0.197533 0.42115852 0.055806093 0.0037699805 -0.02616806 0.06806468 -0.1465564 0.12581153 -0.15917513 -0.21110249 -0.071940966 0.083990194 -0.2059739 -0.105866544 -0.050059423 -0.35275838 -0.01052424 -0.27430168 -0.014481875 0.11885691 -0.008378532 -0.004170021 0.021750439 -0.41758966 0.14824185 0.13135612 0.04657992 0.09856851 0.035340425 -0.19310021 0.15976977 -0.4962883 0.4022762 -0.01564561 0.120586865 0.16425875 -0.039787665 -0.06840715 0.10881138 0.31582028 0.14913018 -0.18671407 0.09368636 -0.053010557 0.0024997762
4 -0.20879626 0.25714576 -0.111963555 -0.05420166 0.1652604 0.016285585 -0.0834799 0.34624675 0.14028296 -0.2092518 0.28071833 0.2230495 0.14852323 -0.14686306 -0.08028672 -0.15743758 0.22663774 -0.13921236 -0.0053059803 -0.16252781 0.10157363 -0.106631555 -0.1291334 0.010595631 0.0856091 -0.102338925 -0.13449673 0.11797899 -0.10470688 -0.2205863 -0.009940776 -0.15548687 -0.25237536 -0.07737415 0.009743635 0.07344755 -0.16068678 -0.3136819 -0.026672337 0.01743575 -0.0800613 -0.037047755 0.009060676 -0.09061703 0.085779056 0.045105267 0.23528008 -0.0041179075 -0.035568986 -0.028738238 0.0104755 0.14905801 -0.15205339 0.09293376 0.09718645 0.1010757 0.024629962 0.04535389 -0.12633288 -0.11774656 0.03792745 -0.048276678 -0.060295552 0.107969806 0.14499696 0.19761744 0.047152363 0.046215933 -0.039753173 0.17334859 -0.054886308 -0.08409182 0.22675054 0.11914819 -0.16099748 0.09291902 -0.26125762 -0.14020696 -0.09157594 0.20738013 -0.02129285 -0.21024418 -0.19688423 0.21307707 0.1652717 0.31733212 0.009147577 -0.17585741 0.4035915 0.10333263 0.23992671 -0.16896868 -0.14572757 0.020051312 -0.26406163 0.11104095 -0.0024489388 0.019171296 -0.23701465 0.022193572 0.14909415 0.12538716 0.09217167 -0.109893695 0.17962421 -0.11532805 -0.11178394 0.0997936 0.007859608 0.19208366 -0.2993212 0.05346021 -0.18680337 0.18783413 0.15587668 0.010941149 -0.29021427 0.03091994 0.17496055 0.13777617 -0.04552231 0.2256286 0.0876132 0.0587627 -0.04697883 0.022053493 -0.08773602 -0.27119285 0.21749963 0.11538533 -0.045012232 0.09356313 -0.16129956 -0.094987854 0.097181484 0.0053139213 0.22258876 0.22194952 -0.18627891 -0.17855434 0.032099824 0.17142771 -0.14767987 -0.11374687 -0.22671859 0.098729245 -0.28193703 -0.118624814 0.1457685 -0.09819388 -0.059163097 -0.17823459 0.052745163 -0.14808246 0.030856501 0.027119502 -0.1103102 -0.2710921 -0.03393623 0.17829593 0.05189662 0.08772796 -0.21628246 -0.19320048 0.033627905 0.041244086 -0.044406295 0.00011464287 -0.20228548 0.15787639 -0.08161949 -0.17143933 -0.1003773 0.09288072 -0.04860113 -0.14244664 0.07758975 -0.12648712 -0.21158408 -0.084986426 0.0490054 -0.02945822 -0.23907569 -0.17881934 -0.2482069 -0.22521085 0.26920035 0.30399948 0.25246647 -0.06054083 0.093091294 0.021908564 -0.14725508 -0.03582147 0.08379673 -0.14814748 -0.05366022 -0.11767351 -0.088355936 -0.020477567 0.014481483 0.017579298 -0.14330247 -0.20264304 0.025500076 -0.22423834 0.014216902 0.15865435 0.007091678 0.09971911 0.08797517 -0.01938913 -0.043759387 0.14831008 0.10558621 0.074969836 0.04038711 -0.3317518 -0.17841767 -0.12168844 0.21965545 0.23514654 -0.0062668975 -0.049543668 0.026549188 0.21037057 -0.004626623 -0.10665629 -0.031074915 0.15786456 0.08894809 -0.013937086 -0.046619825 0.21781327 -0.17573297 -0.013228521 -0.06926605 -0.035018425 -0.007649438 -0.2587868 0.2634565 0.1636333 0.19574176 -0.030378042 -0.015369384 -0.23894158 0.06730064 -0.1335259 0.06828591 0.04616814 -0.08751248 0.14089884 0.037529625 0.2101374 0.12001817 -0.14351338 0.38629982 0.090871245 -0.11769316 -0.00515286 0.10406949 -0.12938938 0.18981752 -0.20546201 -0.26193818 -0.15235789 0.039066073 -0.3090063 -0.15412188 0.02415498 -0.29645693 -0.009918904 -0.27499866 -0.103878886 0.12726326 -0.07703991 -0.025897441 0.06894887 -0.47988385 0.08116907 0.12489349 0.10668302 0.0047351145 -0.047087066 -0.23614049 0.13704689 -0.5738196 0.47437936 0.024339851 0.12275606 0.22214995 -0.013329957 -0.048732802 0.16361052 0.31718397 0.2055024 -0.15793623 0.047925975 -0.026638307 -0.0072355447
