502 300
116 -0.07543676 0.24816997 0.12421602 0.38458648 -0.0291849 0.13601403 0.21625465 0.3280484 0.31298915 -0.5065506 0.07456787 -0.10085266 0.21020703 -0.2973543 -0.1457562 -0.07408317 0.13955827 -0.029897993 -0.15499525 0.028151978 -0.041423645 0.0065568583 0.24377522 0.27430233 0.3722699 -0.07418308 -0.39634442 0.22705394 -0.32764784 -0.14180881 -0.47364756 -0.14077753 0.13906272 0.068749845 -0.3093188 0.22361138 0.12614268 -0.035575353 -0.2979234 -0.10189885 -0.58351964 0.15969189 -0.00019628917 -0.051321927 0.07746022 -0.18165082 -0.03114894 0.07356054 -0.11065925 0.47199535 0.077091806 0.02430241 -0.23661606 -0.24634723 0.3633634 -0.012445264 0.5461606 -0.14319405 0.057836972 -0.041840754 -0.2428622 -0.0138447825 -0.027353501 -0.22932324 -0.15052299 0.090814464 -0.053117685 0.2616532 -0.21005723 0.14246608 0.2774656 0.54612154 0.077612266 -0.45356894 0.19846846 0.23217802 0.3110795 -0.1936234 -0.14292203 -0.3490287 -0.32025668 0.27295995 -0.015063183 0.30198544 -0.19703275 -0.009067429 0.34994274 -0.012860724 -0.12994471 0.18774706 -0.23647697 0.06380139 -0.010755762 -0.04511363 -0.0071967086 -0.0009577831 -0.28472632 -0.049840733 -0.4477341 -0.1381501 -0.4607463 0.6889067 0.16947672 0.22785428 -0.02463409 -0.48122478 -0.29867393 0.063462295 0.051981483 -0.21854094 0.26142943 -0.6134934 -0.33258015 0.2741622 -0.004112543 -0.032525048 0.18463287 0.034833495 -0.28552333 -0.0019195572 -0.08016524 0.3121977 0.34888405 -0.089084096 0.5618124 0.14479308 -0.35152078 -0.04654159 0.05802666 0.012315249 0.2590328 0.19070342 0.060504194 -0.15405072 0.48971522 0.32952476 0.1957967 0.49517485 0.35776293 0.36008573 0.23333555 -0.117402 0.056597814 0.28607562 -0.015956422 -0.082879335 -0.1435201 0.06419189 0.16259582 -0.4142328 0.24789587 -0.19737364 -0.030735437 0.069130346 -0.012417373 0.23522186 0.28207302 0.44467357 -0.28037146 0.2775187 -0.058674324 0.061232813 0.043410458 0.13409367 0.18582813 0.2585035 0.5400105 0.07780519 0.34364206 0.26896742 0.086404406 -0.34087533 0.120191 0.1992772 0.09091301 -0.1818337 -0.022909554 -0.16935493 0.043351997 0.11630016 -0.4082551 0.26856822 0.26353404 -0.28862163 -0.29994857 -0.0077409474 -0.34342462 -0.34982488 0.0741934 -0.28788787 0.2533146 -0.081382476 -0.11290232 0.33671123 0.06832534 -0.08211403 0.5511323 0.26881662 -0.34802645 -0.02328277 0.33106548 0.084773324 -0.028130967 -0.3641816 0.33851644 0.19446978 -0.021395266 -0.24285579 -0.18501925 -0.25225273 0.19710323 -0.22509408 0.01653897 0.16732979 0.06888543 0.022992102 0.17216302 -0.25730604 -0.30059648 -0.24814555 0.10134911 0.07789014 0.0964402 -0.2448211 0.0029149891 0.1477902 0.23396501 -0.18734273 -0.06761379 0.26824644 0.21490216 -0.08406852 -0.45207304 -0.13459024 -0.28568426 0.11652063 0.1859237 0.0553337 -0.2384379 -0.084722 0.003433123 0.13208978 0.48610297 0.2924051 -0.17545824 0.13533849 0.19281238 -0.11734407 -0.25917727 -0.037230253 -0.07627929 1.4649634e-05 0.036238484 -0.13591298 -0.46433082 -0.39460126 0.23553996 -0.10385157 -0.038981456 -0.08561674 0.016326316 0.056995224 0.38592586 0.3745531 0.034319315 0.37907803 0.32254717 0.039020404 -0.3218356 -0.12128315 0.023891956 0.19434059 0.29289913 -0.08212633 0.04277079 -0.10450686 0.3071912 0.5447704 0.13931839 0.17348154 -0.05647346 0.23732826 0.043111756 -0.25731313 -0.057941306 -0.09878863 -0.31363285 -0.0035396009 0.41454172 -0.22804722 -0.037007492 0.044603698 0.23142311 -0.061590534 0.23829304 0.4238044 0.2402613 0.34494084 0.48386973 -0.18790755
113 0.0036759803 0.54516345 -0.24640699 0.09795859 0.12982075 0.042192373 0.11411928 0.38717046 0.5235377 -0.3983074 0.23436107 0.18718411 0.35609296 -0.45947754 0.34652716 -0.3106021 0.3642423 -0.26305708 -0.308435 0.5388236 -0.15357244 0.007668649 0.27332392 0.3883843 -0.22732213 0.07534694 -0.19919264 0.30893475 0.12909837 0.020675104 0.081963554 -0.20079553 -0.19446798 0.06775678 -0.19171414 0.15917183 0.21827322 -0.29795647 -0.1470725 0.21624021 -0.080089495 0.300374 0.15558921 -0.07402294 -0.28882438 -0.11794636 0.27463773 -0.26776618 -0.349677 0.12683502 0.38083002 -0.012603239 0.0304645 -0.4691729 0.19323903 -0.1354694 0.30816492 0.30642438 0.4850437 -0.16368009 0.0067035235 0.23698305 0.2198807 0.15019673 0.14402458 0.0859795 -0.015353065 -0.10354968 -0.092844576 -0.16085465 0.43411338 -0.09296828 0.34782597 0.06204338 0.028333582 -0.06873403 0.03298282 0.015747242 -0.017402802 0.081742786 -0.25778285 0.31560075 -0.025616782 -0.08716782 0.03384793 -0.08803654 0.21654014 0.008790177 0.017350486 -0.061010964 -0.4718628 -0.049258504 0.066795334 0.13794819 0.062382776 -0.18347716 0.2514771 -0.23604181 -0.46206158 -0.19883262 -0.29345572 0.43993318 -0.3609516 -0.1464394 0.0014161913 -0.10861216 -0.16395226 0.28897473 0.12102514 0.008765294 -0.15634638 -0.13450159 -0.1761843 0.04209499 0.14620918 -0.37287116 0.22247559 0.24814625 0.10801471 0.06261622 -0.20410493 -0.020103632 0.2883898 0.39072868 0.15279481 0.3775569 -0.18006784 -0.06295084 0.0060120816 -0.010264964 0.36258182 0.17036313 -0.11649538 -0.25240228 0.37400332 -0.06270915 -0.120023035 0.3636347 -0.14388923 0.016690603 -0.14108776 -0.004649584 0.0586633 0.34324285 0.12239088 -0.42434117 -0.037003275 0.0439183 0.17332803 -0.32226864 0.052509025 0.17578195 0.36604714 -0.1101556 0.115820706 -0.06378617 -0.31676888 -0.3146907 0.2167795 -0.03633472 0.36311063 -0.18243852 -0.0031159369 0.280419 -0.19253531 -0.41738623 0.24555065 0.5897286 0.21918058 0.54122347 0.09043616 0.22784962 -0.14672334 0.12457828 0.029332092 0.04079673 0.22315297 0.27481645 0.29835582 -0.15283692 -0.355651 -0.13910201 0.09449535 -0.020625053 -0.091650374 -0.21362077 -0.059153166 0.26986808 -0.4678887 -0.19669208 0.25157267 -0.048006896 0.027089307 0.52829343 0.007835094 -0.3789905 0.27068585 0.18228525 -0.056451738 0.12636559 0.013176863 0.26616782 0.04045068 -0.57403505 -0.07513708 -0.08678973 0.3372662 -0.034334775 0.0685436 -0.40382016 0.21278046 -0.06767779 -0.119630225 -0.45655733 -0.034554288 0.04616313 -0.052582778 -0.5593214 0.043281704 0.050549835 -0.09616467 0.2911626 0.40553713 0.10475115 -0.33333585 0.18605784 -0.051435906 -0.36719358 0.034835167 0.014160663 0.12046476 -0.17517255 -0.2503445 -0.45588633 0.09149063 0.31925848 0.21157682 -0.003806925 -0.11823461 -0.077571355 0.45798814 -0.123479985 -0.12308566 -0.07913301 -0.20792711 -0.33445293 0.105376884 0.37979212 -0.46812376 -0.024153072 0.20440602 -0.07368692 0.28957316 0.077894576 -0.051944107 -0.24031383 0.59833026 0.11620018 -0.22167996 -0.22437133 0.06560333 0.3562588 0.21538736 0.11347415 0.111070566 0.26405123 -0.24910386 -0.15516818 -0.23870635 -0.3223494 -0.11563933 0.41090918 0.22039743 0.06492237 -0.073869064 -0.14522627 -0.25842205 0.10830587 0.015810072 0.036855116 -0.034972277 -0.07088775 0.35289764 -0.4133323 -0.09931596 -0.5449935 -0.43699458 0.22918142 0.036480412 -0.16036446 0.23864323 0.009643768 -0.07198434 -0.064573415 0.4755332 0.60910964 -0.05904167 0.03525239 0.350116 -0.02460319
9 -0.07301393 0.11645566 -0.2799735 0.3178859 0.2845971 -0.1049838 0.287658 0.0511156 0.24422805 -0.22763017 0.016234547 -0.19394289 -0.0009137024 0.0067202933 0.14078857 -0.16959152 0.42319754 -0.17947264 0.1741418 0.04245625 -0.43684074 0.20983984 0.33220807 0.3540471 0.12404328 -0.06280772 -0.33846292 0.1987369 0.08625795 0.34821033 0.27978855 0.1805462 0.036764823 0.1987897 -0.17510618 0.008659351 -0.034094192 -0.58831674 -0.4877215 -0.12578107 0.048070747 -0.0073242867 0.24315235 -0.1991691 -0.14078823 -0.056129716 -0.060332146 -0.31817394 -0.66824067 0.2608994 0.099062115 -0.28572473 -0.24873886 -0.11352981 0.20535393 -0.13722852 0.1634314 -0.19821581 -0.32759956 -0.52850443 -0.20075619 -0.014431302 0.07313522 0.06100962 0.04260574 0.22842912 0.10201706 -0.04413602 -0.0077885096 -0.13699995 -0.046771932 0.39860693 0.05225574 -0.06240344 0.086500846 0.11764572 0.40658173 -0.41312462 -0.082668126 -0.24097966 -0.09852991 -0.032156963 -0.1893879 0.085979626 -0.24559748 -0.099158 0.41957462 0.25099593 -0.29646283 0.11112631 -0.32085103 0.10813998 0.10432854 0.3327223 -0.27404124 -0.26997268 0.4658087 -0.2218365 -0.3778515 0.069174506 0.22899842 0.55045044 -0.0018439945 0.20608123 -0.3398002 -0.013164216 -0.16324896 -0.29762748 -0.12776323 -0.24096046 0.08964103 -0.29641896 0.018503096 0.004922575 0.033923067 -0.095764115 0.2023288 -0.072596945 -0.2899274 -0.20074415 0.040823698 0.20137331 0.12488191 0.23332132 0.088880286 0.2056061 -0.20390134 -0.060344845 0.09474473 0.34351087 -0.007405877 0.31252012 -0.051568545 -0.57800037 0.20373815 0.35850835 -0.11079286 0.12898774 -0.05696246 0.36525515 0.18569261 -0.112455584 0.18713576 0.24197288 0.43094453 -0.45487115 -0.3704513 0.20083678 0.20616879 -0.040376782 -0.10919728 -0.06593684 0.116625994 -0.044364963 0.025053095 0.6050448 -0.24560858 0.29422787 0.26115215 0.48925903 0.35111296 0.02360673 0.060617227 0.29990998 0.28587037 0.16689654 -0.13151641 0.5144368 0.08751737 0.14860608 -0.033468205 -0.29187083 -0.17518212 0.009373536 -0.15875228 -0.06721737 -0.017023487 -0.107564114 0.058957264 -0.17490362 -0.40874207 -0.17074478 -0.08155342 -0.005163603 -0.12409131 0.032478094 0.18036413 0.0038746023 0.22069593 -0.19126163 0.19446933 -0.14186807 0.06537655 0.6331556 -0.040213186 0.017511263 -0.026018355 0.16791594 0.16850343 0.10040453 -0.20673154 0.46399176 0.38563824 0.22209904 0.3611429 -0.04083274 0.23773727 -0.3735738 -0.25103188 -0.29101115 0.11894364 -0.27216002 0.21894112 -0.14780828 0.28940064 0.13081276 0.26837802 -0.3626096 -0.06329746 -0.2586744 0.040321387 0.28149527 0.10405123 -0.29061124 -0.11385504 0.30069408 0.061678734 -0.26970217 0.2233492 -0.26916054 0.23471849 0.23477052 -0.21246561 -0.08014872 -0.31875446 0.16066091 0.23586945 0.38309062 -0.028088437 -0.5473153 0.085293345 0.08184288 0.23840164 -0.10863879 -0.3166628 -0.18560979 -0.06173902 0.12983641 -0.5985636 0.12828024 -0.022344105 -0.04180836 0.27936348 -0.50148475 0.4689925 -0.4390615 -0.014527944 0.12005349 0.32330438 0.14855842 -0.089855894 0.22193338 0.65822643 -0.0041395715 -0.13147555 0.13564497 -0.25204208 0.1554659 -0.25094235 -0.085446894 -0.4542821 0.0075241784 0.29013768 0.0112554915 -0.032621015 -0.2578823 -0.24024628 -0.29499358 -0.057165172 0.018900255 0.1765892 -0.15357402 0.056760255 0.0010527909 0.27634445 -0.10316192 0.08820791 0.12382708 -0.16334096 -0.18892899 -0.029657906 0.18377969 0.36327633 0.010392124 0.42394778 0.37379226 0.2508388 0.19324155 0.5352622 -0.046450526
89 0.09259765 0.28310853 -0.53097475 0.19329244 0.07348005 -0.079901665 0.21876916 0.2947902 0.20163141 -0.45773366 -0.35333562 -0.3457931 0.11357481 -0.113931075 0.025277529 -0.067624815 0.44583583 -0.48941743 0.24937361 0.15177464 -0.36420026 0.19222172 -0.1467558 0.073585965 0.11895904 -0.116104454 -0.5061504 0.44692087 -0.047340393 -0.35314727 0.29307997 0.1992947 -0.019053625 0.25487077 -0.3568136 0.114052996 0.3116662 0.107196 -0.2058025 0.02805154 -0.075112574 0.1461528 -0.06462993 -0.29986528 -0.16381794 0.08417466 0.15915136 0.058372393 -0.22343802 0.6147646 0.3041767 0.1909577 -0.10648299 0.12828445 -0.03150479 -0.02309356 0.18222247 -0.1082876 0.2870898 0.033484932 -0.23711695 -0.051114634 0.11469562 -0.03283282 -0.015889501 0.18429732 0.034964662 -0.21008489 -0.1073001 0.16231951 0.18061718 0.1373787 0.22886878 -0.23594533 0.29502213 0.037391517 0.42178702 -0.20818537 -0.13798434 -0.054555807 -0.1525168 0.13997327 -0.22171341 0.19516566 0.009656778 0.09360611 -0.05167022 0.14764148 -0.12330478 0.3989353 -0.44748744 0.1520476 0.06001447 0.4734504 0.19306359 -0.17998198 -0.19077884 0.11404088 -0.26284173 0.04178166 0.22332175 0.5974376 0.07745181 -0.16994087 -0.12097139 -0.38466275 -0.23978503 0.21620364 -0.092586026 -0.16481738 0.26623535 -0.26162612 0.408777 -0.17289178 0.331762 -0.0016888283 0.070730016 -0.0067400374 0.19667114 -0.07154553 0.12889707 0.07825334 0.11758317 0.22357813 -0.19926035 0.063069254 -0.15964073 -0.45981175 0.17762603 -0.15609613 -0.25020328 0.45508295 0.26615813 -0.0928147 0.3911476 0.4341455 0.22292855 0.019612527 -0.18593162 0.030939216 -0.18625589 0.11208424 0.08405698 0.55415434 0.08985723 -0.6413447 -0.25829002 0.28899932 -0.14150266 -0.14463975 -0.12786882 0.18244174 -0.24037953 -0.041294213 0.24521291 0.006430692 -0.061848085 0.3852346 0.31974795 0.36010864 0.0862849 -0.16647874 -0.14883465 0.17439462 -0.15915647 0.1992964 -0.16263637 0.14442143 0.31744897 0.1107123 0.043166846 0.30613768 -0.17839292 0.17689297 0.107193485 0.35747868 0.18027264 -0.3010576 -0.035696864 -0.13134228 -0.14707024 0.08820059 0.15191561 0.30098552 -0.40845466 0.21492468 -0.34634334 0.06533153 0.03965922 0.373208 0.15717787 0.28835443 -0.06899913 0.3149187 -0.031842962 0.004480909 0.20342869 0.13619468 0.04314511 -0.11865408 0.41437837 0.070270486 0.28696147 -0.18661545 0.2471369 -0.13392895 0.24201988 -0.17859556 0.10821274 -0.27611506 0.32495704 0.28696272 -0.038164098 -0.16039157 0.14744222 -0.05902136 -0.016578848 -0.38122323 -0.16711664 -0.25932708 0.042465407 0.09584798 -0.015316987 -0.5128495 -0.3463557 -0.26591653 -0.22558662 -0.11477875 -0.11412287 0.24764107 0.04131654 -0.3069623 -0.30890852 -0.034262925 0.0097430805 0.041121695 0.2997301 0.063984014 -0.48058105 -0.16615824 -0.0445405 0.24011254 0.46303695 0.17968605 -0.31335762 -0.39447463 0.4579259 -0.025403501 -0.18507046 0.3504163 0.38472998 0.04880042 0.3695918 -0.0421581 0.019497423 0.008510789 0.5169278 0.2720463 -0.21497497 -0.08793154 -0.056470886 0.26353392 0.057301376 0.12763965 -0.1259736 0.4672595 0.01264154 0.07309882 -0.25876942 -0.23419738 -0.25385404 0.24335273 0.013442887 -0.046802793 0.32896733 -0.33368248 -0.013725417 0.09912927 -0.07851915 -0.11456428 -0.3207687 0.29903308 -0.11731887 -0.12236461 0.3152716 -0.18541086 -0.43305406 0.22834592 0.2602817 0.10445408 -0.06501577 -0.0977023 0.08603991 0.012195187 0.5848959 -0.04464482 0.10616795 0.06646921 0.17083888 0.013739615
90 -0.072422564 0.18872248 0.2713399 0.06588788 0.32662958 0.055044185 -0.10400642 0.20487957 0.36707217 -0.15656604 -0.21828982 -0.39158002 -0.14649034 -0.43974707 0.066579916 -0.46651548 -0.020302095 0.040603958 0.015305186 0.23784295 -0.023318209 -0.09084917 -0.027387079 0.24206439 -0.017048372 0.37693474 -0.4026914 0.45361945 -0.17990327 0.32223085 -0.08428842 -0.06300393 0.09711645 -0.04636351 -0.1878723 0.023860862 0.032056797 -0.08887371 -0.2985101 0.122752905 -0.011341106 0.15464687 0.04956345 0.04081884 -0.34235293 -0.42541298 0.38654873 -0.16133998 -0.3461788 0.3907416 0.26118028 -0.48339224 0.085739255 -0.20813729 0.16958807 0.1963029 0.0838262 -0.002065961 0.21896964 -0.08543241 -0.074644044 0.008720503 0.34510577 0.21407108 0.29444575 0.35811588 -0.029191142 0.039151065 0.007209169 -0.052326262 -0.03688312 0.13068464 0.034071896 -0.31223112 0.037150033 0.46341705 0.20960122 -0.6840861 -0.12296679 -0.24794067 -0.26274237 0.33180958 0.1462455 0.40974352 -0.33312553 0.07383918 0.28525743 0.016893484 -0.122833475 -0.05898025 -0.15970445 -0.21165209 0.02635758 -0.07629941 -0.20972654 -0.08614772 -0.0008697219 0.26058027 -0.12507012 0.20648809 -0.5998375 0.33411887 -0.28260407 -0.37650114 -0.38057655 -0.22592486 -0.40460023 -0.12064148 -0.018598543 0.106531575 -0.04037271 -0.20987748 -0.30759978 0.012128339 0.25154263 0.116886206 -0.07070886 0.36425787 -0.030382788 -0.3177776 0.1855144 0.10177787 0.11186816 0.38438773 0.23902562 0.24445339 -0.34214798 -0.52178437 0.10774763 -0.089388244 0.10563581 0.47916976 0.13690038 -0.42636997 0.41805327 0.21477498 -0.121420145 0.41029865 0.25459987 0.046148494 0.03404648 -0.0013565045 0.3221071 0.544521 -0.13179001 -0.42790738 -0.20218852 0.20795517 0.101244144 -0.16555211 -0.21435809 0.120453805 -0.11216455 0.1520572 0.04299715 0.14100967 0.104438685 0.14952621 0.21957193 0.20017315 0.35533178 0.2008372 0.10999489 0.3707269 0.23534483 0.26165202 0.31774837 0.31683987 0.33160403 0.19722573 -0.008715085 -0.17534608 -0.165325 0.22397828 0.21902248 0.23147514 -0.25091013 0.05862111 -0.03404734 -0.21229693 0.08061972 -0.28913474 0.20571977 0.058292914 -0.23296195 0.42923293 0.024286434 0.19520399 -0.27013028 0.012268006 0.18581215 0.41879004 -0.09690778 0.05306742 0.04650438 -0.2019071 0.39377907 0.12879832 -0.3671207 0.12277201 0.23039156 0.18078141 0.49971074 -0.42464128 0.29943952 -0.3215434 0.2746797 0.008185787 0.30189505 -0.45538265 0.2746677 -0.23279628 -0.16964495 -0.19286408 -0.14776672 0.4287523 0.40847224 -0.043105252 0.15253837 -0.22432724 0.29952377 0.34296712 0.28073114 -0.112075746 -0.14062195 0.3481479 0.004517908 -0.17214943 0.25937667 0.015290116 -0.4953279 0.09154109 -0.33283657 -0.09698069 -0.11882961 0.1301064 0.53795344 0.20807777 -0.10208228 0.11695394 0.30034295 0.054802857 0.36935776 -0.016937897 0.028014012 0.08343168 -0.0017160211 0.10011279 -0.058128644 0.017923048 0.33090425 0.26392448 0.44828224 -0.20543252 -0.18490241 -0.34085414 0.3230465 -0.041626673 0.32943258 0.15418056 -0.31997117 0.087911844 -0.10572921 0.18361597 0.30794704 0.46255276 0.023709396 -0.2905482 0.2080702 -0.061198365 -0.12971167 -0.122415 0.19263417 0.23317246 0.097531386 -0.22758693 0.23589803 0.19152887 0.2744297 0.1600047 -0.47909746 0.36723024 0.17600673 -0.20574784 0.05131275 -0.10822338 -0.0052956613 0.41935992 0.057436313 -0.18296094 0.022883026 0.033626907 0.298449 0.1747816 -0.18127245 -0.041598313 0.063683525 0.02892787 -0.14964543 0.4302365
110 0.01174907 0.38712224 0.082092084 0.2938929 0.017673688 -0.09113392 -0.22324727 0.19103704 0.24012552 -0.22046685 0.04011493 -0.5648559 -0.19442031 -0.082927234 -0.14418451 -0.5559056 0.0028292418 0.0010701667 0.12537538 0.28873792 -0.2731808 0.14691596 -0.004597145 0.33748335 0.029104602 0.11067598 -0.13200748 0.50161195 -0.099164315 0.13785917 -0.22285374 -0.33252907 -0.0068036416 -0.092690416 -0.34349608 0.16735439 0.2500949 -0.10766252 -0.2093254 0.33045587 -0.05845229 -0.19011219 0.15823773 0.23607385 -0.016529199 -0.07079272 0.12745742 -0.09062335 -0.33938566 0.01466967 0.14583202 -0.273931 0.062444963 0.014611397 0.09821195 0.42838752 0.27636862 -0.06597798 0.06089396 -0.00942599 -0.076960206 -0.09291106 -0.017460205 0.1154572 0.05920311 0.41911444 -0.09114441 0.22882769 0.261186 0.09164417 0.17046562 0.18994725 0.09473062 -0.32636082 0.261526 0.6259821 0.120061494 -0.6288276 -0.03995541 -0.18872492 -0.120504424 0.1860901 -0.10626249 0.2396194 -0.35557032 0.27659056 -0.057694208 -0.11884381 0.1664281 0.1772979 -0.23707384 -0.21972728 -0.17602241 -0.082993716 -0.27775106 0.013194076 0.16808546 0.2630343 -0.1456133 0.27282465 -0.3292236 -0.08867089 -0.1257434 -0.059160624 -0.24078275 0.14868324 -0.34717253 0.1320332 0.2705364 0.024580777 -0.27277818 -0.30174777 -0.36508164 0.13881378 0.1026748 0.020175323 -0.3468801 0.36773258 0.14665836 -0.15568386 0.38047758 0.33825102 -0.029689858 0.55643696 0.30653507 0.16803677 -0.1022892 -0.6255327 -0.06719733 -0.25445217 0.22784674 0.3026211 0.17596667 -0.44118905 0.3538455 0.3321016 0.045058616 0.18888897 0.006977195 -0.03724708 0.009711359 -0.09512674 0.25261235 0.51904273 0.3510513 -0.4107989 -0.22871298 -0.0727834 -0.08461293 -0.22347735 -0.20639086 -0.090165965 -0.23255344 0.23736636 0.298181 0.33745128 0.026096122 0.29825723 0.0076106526 0.14607544 0.49674815 0.2648838 -0.0023433769 0.40061983 -0.08910433 0.30917227 0.06724272 0.4292424 0.4963418 0.4904605 0.018485112 -0.05113454 -0.09669716 0.041201632 0.124427095 -0.055117495 0.08367039 -0.16254266 -0.053725924 -0.25715184 0.021338444 -0.15774617 -0.086361066 -0.33067697 -0.4358093 0.305695 -0.09193962 0.10140853 -0.08392339 0.18294048 0.35569614 0.18788658 0.1268787 0.17240296 0.19469199 -0.041250158 0.10108041 0.018033996 -0.35407525 0.008192497 0.2824808 -0.025010874 0.40105847 -0.27890015 0.12805691 -0.16787444 0.31244233 0.08912187 0.18177679 -0.2954235 0.094946586 -0.2289906 0.0059860186 -0.061304007 0.34027645 0.033940822 0.17940521 -0.09508195 0.18530035 -0.40186605 0.46923673 0.25318494 0.13230497 -0.20108828 -0.063387 0.0746676 0.012786295 -0.19839744 0.26093182 0.32170063 -0.19913723 0.30395427 -0.6789797 -0.103268944 0.08554479 0.15041745 0.064230606 0.20882398 -0.0006297969 -0.18000582 0.40380168 -0.19777685 0.1973565 0.18781021 -0.0451402 0.015514453 -0.07769048 0.072641246 -0.1588497 0.12756844 0.098282844 0.4855226 0.4982002 -0.16493915 0.2897304 -0.42220277 0.19238062 -0.0323642 0.29136473 0.21691546 -0.27448234 0.33698606 -0.09216145 0.19291943 0.20152089 0.27153087 -0.13623297 -0.28043517 0.14819288 -0.24708496 0.014254387 -0.11071153 0.13687922 0.22229812 0.40923506 0.039236642 0.1782183 0.27147758 0.08702411 0.28623962 -0.31723535 0.34333292 0.21309398 -0.23232657 0.12502359 -0.23785646 0.08435479 0.2423061 0.1898143 -0.02124735 0.13487916 0.08386747 0.23549768 0.003289245 0.2212979 0.37202522 0.14103013 0.1837699 0.352191 0.1481668
106 0.017934602 0.22235449 -0.1369575 0.23965222 0.0949021 -0.3099478 0.04943784 0.44874913 0.21228987 -0.3071717 -0.21667856 -0.398133 0.31195727 0.041501325 -0.074867755 -0.11703068 0.30909652 0.22863525 0.3565783 0.40565133 0.07494441 -0.2940719 0.09818631 0.24145828 0.040794976 0.13080859 -0.6846231 0.35514593 0.055828407 -0.20520538 0.46603575 -0.29477966 0.07856977 -0.01948764 0.00927066 -0.10780981 0.01463445 -0.3209425 -0.36534247 -0.3846661 -0.0075948606 0.15048628 0.32728076 0.052538697 -0.36219966 -0.26650575 -0.03223328 -0.24700382 0.19540587 0.22036397 0.17315784 -0.09688378 0.061407294 -0.34970784 0.2717555 0.3187718 0.32135546 -0.03049477 0.6096851 -0.13901153 -0.3003481 -0.028203271 0.21299563 0.10569858 -0.02216709 0.3003602 0.4172044 0.27110317 -0.25119078 -0.14579421 0.20470637 0.28955117 0.5522036 -0.2041573 0.043575447 -0.02229615 -0.19002825 -0.08512958 -0.28513762 -0.32878786 -0.34093854 0.10555124 -0.026604634 0.15172108 -0.03554086 -0.010144235 0.19960192 0.28052738 -0.14301735 -0.18880019 0.22396493 -0.19066232 -0.06370249 -0.07734171 0.12852396 0.10983887 0.35067704 0.059624914 -0.17333643 -0.10499449 0.1351844 0.5565144 -0.15723178 0.38999572 -0.43682536 -0.021403166 -0.066582456 -0.2610494 -0.10480386 -0.18094647 -0.053637054 -0.13570526 0.18571743 -0.0024779704 0.05007134 -0.22627534 0.25795853 -0.0073125246 0.014241107 0.11545567 -0.126848 0.5035313 -0.12692471 0.11367532 -0.089417584 0.20264417 -0.23135136 -0.52562094 0.16858716 0.11606856 0.039636962 0.18691392 0.2227299 -0.49214825 0.2071896 0.37905276 0.020980785 0.4779139 0.011307606 -0.18368322 0.114248596 0.013111712 0.2001025 0.4386621 -0.08116277 -0.64184093 -0.31228954 -0.0014579257 -0.12283843 -0.26483256 -0.39180362 0.12342142 -0.20195633 -0.019069837 0.28265956 0.22924049 0.053799063 0.14801542 0.3016286 0.12616566 -0.06559239 0.19543515 -0.016777826 0.21932134 0.010300534 0.35388997 -0.15674743 0.21082138 0.2034636 0.40902346 -0.018352851 -0.10068519 -0.118326545 -0.4019861 0.06414829 0.051968183 0.2912709 0.23470315 -0.0706835 0.016065845 -0.45328397 0.08852034 0.14512342 -0.19568835 0.026523262 -0.08449926 -0.2720841 -0.079980046 -0.09968739 -0.15852241 0.10806313 0.08953102 -0.002965625 0.3983427 0.09355157 -0.25616834 0.1604636 0.10349667 -0.14908215 0.30296952 0.34031782 -0.06474673 0.14464915 -0.29312912 0.2511133 0.18160781 0.2444112 -0.21976444 0.50237334 -0.14156274 0.30577695 0.2315753 0.16353707 0.30323344 -0.16852689 -0.08782549 0.12405263 -0.27257985 -0.35914803 -0.07492544 0.27923253 0.5035996 -0.17898494 0.08845498 -0.0022143328 -0.1059331 0.13077262 -0.0041013933 -0.36719558 0.2792339 0.31918156 0.08456508 -0.29518983 -0.10076243 -0.3243943 0.20741293 0.17307161 0.38514915 -0.038377088 -0.03472333 0.24049518 0.07620366 0.03892463 0.013946133 -0.08315048 -0.32803884 -0.080896534 0.050440554 -0.03509136 -0.20019917 0.038083382 0.018421728 0.33815944 -0.2683765 -0.110017225 -0.08507492 0.3385037 -0.07642468 -0.16476592 0.028604083 0.0627741 0.07349301 0.15599446 -0.003878379 -0.3293805 0.4401201 -0.13184324 -0.30273664 0.2253118 0.015728572 0.03517805 0.34739244 0.1365626 -0.1786926 -0.009474377 0.10903141 0.12057839 -0.043480407 -0.078578934 0.1785895 0.06402027 0.2891927 0.045618605 -0.2411741 -0.3793216 0.051597916 -0.03130834 0.6078604 -0.2759978 0.2937968 0.11548241 0.0032189572 0.28157437 0.32897663 0.4359476 0.4293914 0.059314273 0.23487495 -0.003355773 -0.06209789
25 0.011492238 0.32879877 0.016701413 0.3546028 -0.076743685 0.2157166 -0.15140669 0.0028893345 0.42741776 -0.06877328 0.031531647 0.03601048 0.34220108 -0.22761025 -0.15400846 -0.31095517 0.32161805 -0.2398894 -0.12872462 0.25822774 -0.3522577 -0.39157394 0.018345663 0.16198678 0.18699162 0.15236719 -0.38139534 0.5118287 -0.0069951713 0.35455042 0.08682782 -0.17470579 0.29154426 -0.13169838 0.01692028 -0.22531596 -0.2137355 -0.25990957 -0.1339372 -0.09490862 -0.36273366 0.18961328 -0.022397578 0.07459322 -0.47480792 -0.47848535 0.11846402 -0.10859485 -0.42974037 0.09798868 0.25057843 0.041220065 -0.2653423 0.09442521 0.12079897 -0.4132453 0.12676084 -0.18280196 -0.1990726 -0.23513737 -0.09367206 0.22279406 -0.009100418 0.47208136 -0.016006798 0.1518149 0.32801652 0.15234102 -0.146303 0.04453768 0.053735718 0.21965891 0.17689575 -0.4098846 -0.100578114 -0.05837752 -0.018404478 -0.097618304 0.19377193 0.2335473 -0.29298106 -0.13037276 0.11442905 0.040978655 -0.03437517 0.118832104 0.13668373 -0.1170269 -0.35113838 0.18805252 0.026497744 -0.08268232 -0.031285588 -0.012316286 -0.27152407 -0.14582352 -0.020373503 0.2337826 -0.6125732 0.039752454 -0.13208404 0.5892321 0.08601355 0.33933347 -0.15433958 -0.08702344 -0.2475498 -0.10787115 -0.06854249 -0.11718121 -0.03101075 -0.62832785 -0.11386568 -0.03780187 0.23910268 -0.11519345 0.034421884 0.14665718 0.18648535 0.016560165 -0.018565588 0.41549957 -0.34705296 0.45454696 0.45648912 0.28318277 -0.3135831 0.14264402 0.11584522 -0.13676162 -0.20192192 0.11687314 -0.039557617 -0.25926566 0.40612268 0.38844556 0.12927896 0.08310814 -0.3590557 0.33953044 0.23513375 -0.16156851 -0.4319365 0.020898512 -0.0015151914 -0.41117236 -0.062374823 0.1657749 -0.25403953 -0.37171757 0.101742946 -0.13638222 -0.29666626 -0.05002202 0.13088539 0.25623736 -0.24189375 -0.0019957267 -0.07131497 -0.15213144 -0.41836342 0.008810047 0.06173402 -0.03489426 0.20272428 0.12872042 -0.043312114 0.22614515 -0.08773628 0.37494203 -0.038533896 0.01052059 -0.031202132 -0.1106293 -0.041492313 0.11287427 -0.20425984 0.0039357976 0.11279947 -0.013037608 -0.13521491 -0.115195826 0.37515756 -0.3349566 -0.47546297 0.11023309 0.2079912 0.015959991 0.25008404 0.01588744 0.2658223 0.09666946 -0.19640763 0.23857282 -0.0047678524 -0.46872482 0.4059832 0.15237118 0.0073931525 0.16442172 -0.12583086 -0.08494006 0.24432011 -0.44589695 0.15983497 -0.029778501 -0.22236682 -0.18000558 0.24266459 -0.17312397 -0.060840994 0.09316896 -0.18664257 -0.033967543 0.23598816 0.0883541 0.359985 -0.3331047 0.224848 -0.08140122 0.055614877 0.45128915 0.35982513 -0.32081127 -0.19369245 0.12139514 -0.0010134545 0.18999031 0.21026875 0.088374265 0.29365796 0.008130058 -0.2870292 -0.15916887 -0.11606409 -0.16074781 0.455089 0.20189434 -0.39768863 0.2657446 0.5004781 0.0395042 0.43484548 -0.4223531 -0.079838626 -0.4413237 0.0041345945 -0.13407773 -0.2831378 -0.008878518 0.103644684 0.076531395 0.27595392 0.25613198 -0.27974728 0.05830165 0.28360763 0.34435543 0.29944834 0.09214555 0.047262296 0.19285056 0.2700061 0.51566005 0.033462174 0.21323138 0.042161465 -0.4013254 0.30770022 0.0806122 -0.19954658 0.48315167 -0.16285574 -0.15480188 0.34896013 -0.12080215 0.07732688 0.123376295 0.069155894 -0.14337409 -0.028370034 0.072102785 -0.021340625 -0.030930817 -0.12216148 -0.08887208 -0.32648307 0.4293477 -0.22387485 0.11702545 0.2920621 -0.13249998 0.03317103 -0.34044543 0.08582684 0.42031938 0.21780829 0.11009605 -0.09090203 0.43705884
115 -0.20209464 0.15849118 0.37338054 -0.16457218 -0.10672565 -0.0020801036 0.30634 0.19799918 0.23377806 -0.42274523 -0.106177606 0.0689322 0.29702866 -0.22019385 -0.0958416 0.16715573 0.24330537 0.2959716 -0.41424486 0.20839597 -0.18107715 -0.104275756 -0.067965545 0.3446917 -0.34387827 -0.1300296 -0.33197385 -0.11031809 0.06401268 -0.15964635 0.143899 -0.06638059 0.035596807 0.007064056 -0.38508663 -0.121208034 -0.1629054 -0.47120655 -0.09118818 0.22699203 -0.38045472 0.15058142 0.15224726 -0.42986953 -0.086660184 -0.2953939 0.35800618 -0.16439532 -0.105943665 0.30001917 0.2861465 0.2447329 0.10737106 -0.38788897 0.14539926 0.14511876 0.49082455 0.37361014 0.49129778 -0.3264419 0.25747076 -0.11758502 -0.043790743 0.24073198 0.3347435 0.37268126 0.031211553 -0.23015328 -0.18638596 0.5818344 0.115638584 0.24645355 -0.04527239 -0.39946783 -0.02927464 0.19896258 0.1875965 -0.2535737 0.23085245 -0.15787546 -0.057434388 0.1965266 -0.046731893 0.1230412 -0.034649733 -0.011487306 0.3270735 -0.066301115 -0.03660664 0.23070487 -0.25658274 -0.31398755 0.16402985 0.08476444 -0.2998818 -0.48008636 0.27060586 -0.3255759 -0.11978169 -0.20990898 -0.24487182 0.4116051 -0.1281108 -0.21306358 -0.28399596 -0.1379917 -0.4939722 0.1429129 -0.14686769 0.10455544 -0.40600586 -0.08267235 -0.05760921 0.13943754 0.0014833612 -0.15945445 0.15605776 0.20708345 -0.23196784 -0.0730472 -0.09049625 0.26836684 -0.28879926 0.17508444 0.22144353 0.053171203 -0.6060384 -0.21428365 -0.1509503 -0.16386446 -0.039338496 0.16810451 0.027744455 -0.40721276 0.52284735 0.52056056 0.10950037 0.30901143 0.32200044 0.012989211 0.06509146 -0.49280772 0.45912907 0.11026859 -0.08750386 -0.679327 -0.188633 0.13142341 0.16385762 -0.39610597 -0.0058425074 -0.13626175 -0.372403 -0.25486252 0.065915726 0.18838654 -0.2719568 0.26777682 -0.21528788 -0.17041498 0.26567954 0.2178311 0.08688366 0.17994271 0.034019228 0.32823977 0.38632616 -0.014618585 0.054616425 -0.04585525 -0.2967051 -0.34371707 0.021861915 -0.102947414 0.07963635 0.12372905 -0.21611987 -0.13022044 0.12755732 0.34914377 -0.01571296 0.6005353 0.11927047 0.018611532 -0.39625043 0.29885307 0.06330604 0.5120775 -0.28582507 -0.13533354 0.024639048 -0.146121 0.22746846 0.5899947 0.037157174 -0.31906882 0.045588423 0.400033 -0.3792867 0.3487187 -0.11155896 -0.22018105 0.018247288 -0.023353709 0.31968388 0.1413469 0.259512 -0.14217831 -0.068059355 -0.06882372 0.22903937 0.21264017 0.08751532 -0.07105385 -0.16731536 0.24993458 0.42509806 -0.45502028 -0.06975429 0.010383508 0.25545162 0.18964253 0.24799334 -0.44914111 -0.31377572 -0.0789005 0.19268893 0.12287431 -0.107986644 0.23367192 -0.11320729 0.1559886 -0.238852 0.041239128 -0.026716238 0.3759135 -0.0029008202 0.010849275 -0.15635659 -0.16680834 0.068044886 -0.04494742 0.19979939 -0.005676575 -0.20391324 -0.39781585 0.14262426 -0.1673308 -0.1481503 0.002965378 0.06561755 0.20316198 0.18947273 0.07277369 -0.07793964 -0.23315986 0.18490198 0.18750516 -0.23406616 -0.06479218 0.0710759 0.470369 0.38922116 0.104096934 0.2474949 -0.060489155 -0.1658684 -0.34230357 -0.42372903 0.0062540444 -0.09986932 -0.11534951 0.11592309 -0.0042726826 0.1968486 -0.3033541 0.1148065 0.1953214 -0.21312322 0.18801837 -0.16146874 0.29105806 -0.06709396 0.06534034 -0.06513715 -0.6138985 -0.15069126 0.6018278 -0.07853692 0.0235291 0.3593794 -0.14610441 0.055079445 -0.20026803 -0.1325497 -0.13636644 0.33597925 0.2817128 0.40866596 0.17090343
54 0.0036815742 0.43538475 -0.15137373 -0.051089674 0.22824442 0.15826015 0.22782655 0.05369944 0.31186402 0.07447688 -0.12766895 -0.45322734 0.07342617 -0.485377 0.0022188008 -0.45759255 0.42446432 -0.12469036 -0.031175857 0.39343137 -0.4716348 0.18358135 -0.01830183 0.25664905 -0.23756017 -0.1363719 -0.43688872 0.346487 -0.105236694 0.00057238026 0.014084905 -0.2880171 -0.30251303 0.0027076772 -0.57901675 -0.28200856 -0.05183929 -0.044791874 0.27165306 -0.1523046 -0.47823954 0.079160474 -0.13858189 -0.14087594 -0.23402146 -0.23966628 -0.15194337 -0.077882074 -0.08465016 0.36861083 0.16041055 -0.25711292 0.08208914 -0.38041282 0.18644643 0.14303005 0.32427716 -0.034334444 0.031154467 0.20721538 -0.30270335 -0.34889898 0.016391382 -0.030159255 -0.16559738 0.24846683 -0.06393261 0.013003193 -0.014734853 0.17369308 0.30419135 0.25242314 0.34203997 -0.5270888 -0.20175721 -0.060550787 -0.061602816 -0.31202275 -0.035883877 -0.45791355 -0.270268 0.12956321 0.36466497 -0.042695146 0.027323235 -0.1551045 0.07231452 -0.18149526 -0.119440146 0.16833287 -0.041110568 0.004590466 -0.07963974 -0.28221443 0.050042897 0.18626001 0.11193937 0.0688725 -0.5634113 -0.035100266 0.22331673 0.2676512 -0.4727157 -0.010376667 -0.34875748 -0.2678379 -0.43527108 -0.30368695 0.062194664 -0.04603482 -0.389218 -0.36516976 -0.07588831 0.18166469 0.09087421 0.15601408 -0.0074995602 0.24960274 -0.017342914 -0.014304847 0.47811922 0.2645199 -0.10647914 0.4676994 0.34333873 -0.17929171 -0.06067457 -0.24805549 0.20433627 -0.026135944 -0.0016694575 0.3523864 0.4690703 -0.39504108 0.17872407 0.08693038 0.09624939 0.11423426 -0.033999003 0.17324324 -0.19816552 -0.108347625 0.49761218 -0.0023613165 0.032619227 -0.13664772 -0.043285135 0.24820188 0.09532741 -0.18985642 -0.18018204 -0.09400216 -0.21337245 -0.039817594 0.22696625 0.02542176 -0.09759058 0.3869569 -0.1284034 -0.032221824 0.21471824 0.025426783 -0.20282698 0.007157959 -0.12307217 -0.1709652 -0.20679696 -0.19276312 0.40905094 0.3889849 0.051567655 -0.258464 0.14021969 -0.04909225 -0.089939415 -0.40403274 -0.1713276 0.17483811 -0.104196474 -0.020836812 -0.17265463 -0.23864223 -0.05506802 -0.03487135 -0.4543729 -0.20100555 0.029845808 0.10711868 0.1185706 -0.18858458 -0.07606672 0.10631875 -0.059702158 0.403361 -0.16172974 -0.48132166 0.18621683 -0.15992294 0.17763247 0.16370293 -0.12090643 -0.21687871 0.13809873 -0.37161273 0.40523744 -0.10771588 -0.33938202 -0.09433552 -0.16066062 -0.30092368 0.13003649 0.022983935 -0.085112624 0.17440607 0.19146065 0.0850319 0.14437117 -0.38986817 -0.3846435 -0.15826958 -0.05606357 0.40867674 0.23739335 -0.2875742 -0.048812218 0.48732725 -0.06991582 0.2906783 0.11587025 0.19566846 0.02699393 -0.15674154 -0.34901568 -0.15347004 -0.23082492 0.2633189 0.25635052 -0.2830336 -0.0042063855 0.018558836 -0.06445323 0.09523057 0.31386065 0.03901031 -0.18586724 -0.14002284 -0.30968854 0.3827965 -0.49161652 -0.14978036 0.199482 0.13937943 -0.015224813 0.21335332 0.024356065 -0.23376895 0.45987913 0.2576689 0.2186512 0.24783058 0.03198529 0.0991446 0.44807196 0.65511054 0.16749123 0.09246826 -0.19554244 -0.03382193 -0.2377407 0.061839964 -0.19659644 0.37506607 -0.19256894 0.09557576 0.054407522 -0.3158828 -0.026519567 0.31687427 0.17525236 0.09132896 -0.4163336 -0.012658011 -0.338317 0.15600619 -0.15195154 -0.012355509 -0.15628836 0.54412 0.13426349 -0.09470274 0.12690961 0.07508369 0.45727015 0.16120455 0.48321694 0.16900273 0.36977452 -0.015496381 0.030606706 0.03854756
114 -0.13659048 0.171352 -0.219072 0.09485136 0.24355666 0.31205666 0.28718525 0.3906281 0.3722249 -0.15646838 -0.226252 -0.29746667 0.10033587 -0.42144692 -0.02828367 -0.29769203 -0.012645304 -0.2763098 0.14006527 -0.13070557 0.018321691 -0.23130341 -0.13089553 0.14930315 -0.21369977 0.23860885 -0.18774563 0.26317543 -0.15804783 -0.10548813 0.3153485 -0.38728207 0.20482202 -0.3626489 -0.20642132 -0.21618082 0.41588008 -0.22098528 -0.40127143 0.15984151 -0.20174907 -0.028653631 -0.07713353 0.12023549 -0.47555462 -0.48290104 0.63356763 0.15999061 -0.104413465 0.2777748 -0.14827211 -0.07292553 0.033429082 0.21469545 0.24081117 0.009850777 0.4235486 -0.23816325 -0.09922281 -0.04226751 -0.20532845 -0.17997351 -0.10979605 -0.007442906 -0.035193443 0.18337378 0.28006336 0.11135331 -0.15742071 -0.2052869 0.13029149 0.23984863 0.30469045 -0.1437245 0.2234396 -0.10874222 -0.007664253 -0.07407068 0.25009647 -0.3011089 -0.13434194 0.076706655 -0.2214284 0.27048007 -0.11195082 -0.10448204 0.1606145 0.04801838 0.13933581 0.15342785 0.12515678 0.06523425 0.38567463 -0.11635175 0.12123574 0.08216496 0.04241422 -0.024468731 -0.6038197 -0.036912557 -0.31831893 0.29125515 -0.08358375 -0.013634846 0.01821502 -0.17786536 -0.50149196 -0.44022405 0.15348825 -0.15688027 -0.038987394 -0.2412247 0.42129773 0.22081904 -0.09967201 -0.05001308 -0.12259096 0.1379235 0.13528483 0.13385086 -0.00076095737 0.09462204 0.14958018 -0.13453746 0.21067898 0.4120006 -0.54526436 0.13069537 0.12373092 0.14566275 0.08474303 0.45361778 0.2235217 -0.10930425 -0.09805749 0.21472825 0.1002814 0.22507606 -0.027001254 0.22446012 0.14089142 0.1980155 0.53597146 0.2043957 0.1572358 -0.1873223 -0.24374896 0.29455048 -0.0043906253 -0.42269072 -0.017055191 0.15527204 0.26861504 -0.0443774 -0.3128286 0.06724314 -0.3624578 0.24834652 0.2532247 0.24293496 0.039877627 -0.024360986 0.028135221 0.14113274 0.38359 0.012994444 -0.07879729 -0.06698189 0.012930357 0.01169391 -0.2370102 -0.010312384 0.004110913 -0.17848147 0.09199031 0.06917306 -0.1924987 -0.19349009 0.2000694 0.2504281 -0.084822625 -0.017584221 0.15568773 -0.0038657894 -0.079700924 -0.00014464179 -0.18938315 0.0110796 0.032137394 0.21432646 0.39584514 -0.11731281 -0.62675893 0.18795961 0.05460848 -0.43665406 -0.22830379 0.36539277 -0.14364074 -0.036622882 0.32917038 -0.017871385 0.07570716 -0.11439094 0.17855346 -0.07803693 0.2574669 -0.27264386 0.14303237 -0.20317163 0.5261237 0.13997686 -0.18210073 -0.08719281 0.037531726 0.25207856 -0.0013844448 -0.38592654 -0.057781164 -0.31484422 -0.20878369 0.32326588 0.24130581 -0.11264893 0.0068392274 0.25393182 0.028110726 0.1429214 -0.019619472 0.48010576 -0.0889452 -0.16045399 0.1799686 -0.29613099 0.10026486 0.11249381 0.12432983 -0.093651816 -0.13528815 -0.37016228 0.25523886 -0.14215666 0.14751624 -0.25618628 0.15282717 -0.33596525 0.12630267 0.14062528 -0.22481264 0.04959036 -0.09789919 -0.1360508 0.11549259 0.35005027 0.42474404 -0.43652275 0.33739257 0.3228157 -0.10770171 0.24314451 0.09343436 0.37018558 0.046892222 0.19025537 -0.28361952 0.3738966 -0.070076555 0.13686334 -0.5041504 -0.23322405 -0.1805892 0.15171096 0.36179158 -0.08361901 0.17845258 -0.56776565 0.10918614 0.073689595 0.0006165892 0.1424111 0.0916175 -0.14659621 -0.23315087 0.15975766 0.11283687 -0.26290992 -0.29378545 0.5122841 -0.40567565 0.051407997 0.091547884 -0.09454737 0.15641151 -0.16106966 0.24564081 0.35084528 0.30597523 0.15844943 0.27153885 0.17531465
112 0.15733878 0.29928508 -0.28843084 0.035167117 0.17006615 -0.15694453 -0.07899593 0.25234774 0.14239964 -0.6217481 -0.072222255 0.105467804 -0.117404416 -0.0048650987 -0.35459593 -0.15681465 0.026034806 -0.26803273 -0.0105617875 0.39373916 -0.17805018 -0.005123519 -0.021523722 0.53942317 -0.088569395 -0.25354952 -0.10250082 0.30604553 -0.3027419 0.09056562 0.04494554 -0.1845571 -0.096944585 -0.23485501 -0.258582 0.19025631 0.065211095 -0.084874436 -0.0805817 0.23407102 -0.45307988 -0.1686268 0.16069686 0.34497213 -0.08383957 -0.2945945 0.41101986 0.15507177 -0.37426737 0.08222887 0.042328503 0.1011332 -0.24282193 -0.12087255 0.18155898 0.3260695 0.08076442 -0.33989382 -0.087712675 -0.14920591 -0.5192022 -0.19368397 -0.05514925 0.086979374 -0.32532343 0.5028632 0.12239505 0.14626966 0.1313675 0.1916071 0.59542245 0.20091069 0.0005785823 -0.110355355 0.3082196 0.07080059 0.015283336 -0.45522967 -0.052331515 -0.1514808 0.1995092 0.02980048 -0.24004698 -0.07676414 0.11322108 0.24966371 -0.17136869 -0.1313964 0.16017489 0.24786018 -0.28293565 -0.3155888 0.26592425 -0.09019197 -0.3433071 0.03474532 -0.10536679 -0.022923201 -0.1807596 0.07189414 -0.15811245 0.13008924 -0.21378066 0.12760273 0.042843487 0.20489864 -0.22683813 9.339728e-05 0.1183933 -0.077769265 -0.076344125 -0.41589728 -0.08984048 0.0872329 0.26099527 0.024309572 -0.32572153 0.46020302 -0.13733736 0.12947157 0.21027291 0.26060596 -0.08982109 0.6061567 0.14863597 0.15538777 -0.26494408 -0.53241104 -0.16948679 -0.19908041 -0.1262606 0.3703135 0.35788187 -0.49877343 0.1458868 0.4719859 0.16006145 0.14758962 -0.027840715 0.27548158 0.30425134 0.10148152 0.262995 0.29164436 0.37936875 -0.2584782 -0.19258668 -0.0655397 -0.1534177 -0.34974808 -0.18159524 -0.071922965 -0.17183639 0.035196885 0.034242686 0.46706972 0.10490901 0.28608343 0.12532291 0.12741713 0.27912596 -0.06561612 0.23150267 0.14056164 -0.20137155 0.37130702 0.1847748 0.43744722 0.12261349 0.31700012 0.15746456 -0.23001727 0.21570463 -0.017232578 -0.025138443 0.1882818 0.1275831 -0.014191194 -0.39715847 0.054309957 -0.1287265 -0.045644566 -0.17490458 -0.24666817 -0.119614415 0.22138402 0.14746876 0.33996773 0.1974163 0.12996033 0.52539104 0.054878563 -0.053608466 0.018648613 0.113294765 0.06634789 -0.13145983 0.014764799 -0.099684484 0.117511384 0.48544434 -0.24462965 0.44632724 -0.08085227 -0.05428531 -0.046952188 0.09419596 -0.33801976 -0.08274601 -0.22365779 0.450288 -0.021421611 0.17002107 0.03629053 0.33987072 0.043714706 0.020228935 -0.23858231 0.0290699 -0.27394903 0.39064243 0.35657966 0.03222432 -0.3658625 -0.1495836 0.08129926 0.10799352 -0.14077327 -0.074138544 0.2180254 0.08538003 -0.019213375 -0.43289402 -0.2631469 0.18185508 0.15385668 -0.06367848 -0.030564193 -0.17059222 -0.15542936 0.2565346 0.03243822 0.45285493 0.12806845 0.1101882 0.03204651 -0.13828324 0.09116244 -0.036872182 -0.011150328 -0.096126854 0.39004514 0.23330598 -0.1506445 0.23399852 -0.30790237 0.013977823 -0.0634562 0.22963752 0.13030449 -0.099032916 0.4455461 0.09306633 0.15400626 0.056640152 0.3322357 -0.39934984 -0.3059109 -0.08635865 -0.32349607 0.04309952 0.13132821 0.14886642 0.15496069 0.17582828 0.008158674 0.25325024 -0.033712562 -0.036650747 0.46699056 -0.10019248 0.18448798 -0.123828165 0.0014080228 0.025351007 -0.45275173 -0.07566192 0.17810853 -0.058378495 0.20386758 0.033526473 -0.26023257 0.1284077 -0.13119815 0.19856891 0.42114133 0.31839338 0.3869499 0.30261704 -0.15252513
12 -0.13726647 0.36318496 -0.20599923 0.0073340987 0.18807101 0.03309444 0.06224132 0.4962283 0.5986707 -0.12596755 -0.08630169 -0.42855993 0.5039899 -0.086573966 -0.26637948 -0.074796125 -0.097015955 0.30119792 0.21025504 0.26761258 -0.5311204 -0.2400307 -0.005134246 0.20323898 -0.1571023 -0.15969758 -0.29204485 -0.0798588 -0.0101189455 -0.12994073 -0.00016477799 -0.022496218 0.40680015 0.03818341 -0.42591846 0.3257206 0.05940126 -0.1818373 -0.6238281 0.0020068071 -0.34822494 0.30558294 -0.02399802 0.038568687 0.110320084 -0.44760787 0.34913376 -0.02304115 -0.31726328 0.35585895 0.18725646 0.2057576 -0.1205771 -0.3438561 0.11294928 -0.2838871 0.1606716 0.19584924 0.52534896 -0.016876824 -0.25998983 -0.32491907 -0.21971324 -0.19204591 0.17271078 0.37307554 0.24843863 0.42370376 0.13775347 -0.042487044 0.20687042 0.24169408 0.1583341 0.08036324 0.31577688 0.36831447 0.13074538 -0.46662334 -0.20357075 0.009376849 -0.22925581 -0.0697172 -0.09676366 -0.035890646 -0.053941682 -0.38143465 0.0037877485 0.053014517 0.21087775 -0.10769327 -0.3568836 0.19458172 0.016419835 0.27197665 0.020985974 -0.22481847 -0.10024374 0.091094576 -0.5299605 -0.05797182 -0.059692618 0.02423445 0.29389426 -0.046018478 -0.19445118 -0.10267561 0.10555343 0.06268165 0.09916111 -0.054716732 -0.09394516 -0.4918097 -0.16080147 -0.25225583 0.14904596 -0.30190548 0.051502086 0.28180328 -0.008691292 -0.15115075 -0.032793265 0.27021635 0.23600884 0.10994287 0.1527208 0.118755475 -0.13595437 -0.32846385 -0.12799868 0.020660985 -0.25661305 0.46020183 0.29977784 -0.4867486 0.16796705 -0.105468 -0.15983705 0.026930053 -0.022513404 0.20076092 0.13761716 -0.2975556 0.27739856 0.21733461 0.072743796 -0.39541465 -0.1574477 0.10943768 -0.025657926 -0.16663909 0.041410726 -0.107259214 0.040362034 -0.07482658 -0.09100472 -0.20589124 -0.15311038 0.23516741 -0.22114289 -0.24649256 -0.050384082 0.21736038 -0.15783481 0.08881547 -0.07094606 0.36804044 -0.34802938 -0.01664116 0.20690082 0.06443379 0.17664771 0.21690938 0.110554695 -0.3737664 0.08651162 0.34600967 0.0055031483 0.032715812 0.1278303 0.27372894 0.079987496 -0.39171773 -0.18459533 -0.2730447 -0.28548944 0.1558516 -0.106327586 0.08075531 -0.40685505 -0.19441146 -0.28485882 -0.18700363 -0.08912265 0.38598546 0.33762464 0.038903225 0.41842416 0.14565627 0.03108241 0.19299708 -0.23994334 -0.23500861 0.2716223 -0.3733145 0.20498495 0.4714904 0.21235774 -0.5012678 0.12152541 -0.21554014 0.27018264 -0.045032963 -0.27379748 0.0646164 -0.4233773 0.4004962 -0.33702993 -0.24749988 0.07527311 0.08250872 0.4041926 0.22314438 0.16397806 0.07906796 0.06815617 0.2105175 0.43453395 -0.24475653 0.37853932 0.10880185 0.42324054 0.4486906 0.015423131 -0.31274658 -0.06867285 0.18594927 0.1301483 0.22063257 0.20886387 -0.26398548 0.41793072 0.12768385 0.5571977 -0.13103622 -0.5376673 -0.21709548 0.064840846 0.066082016 -0.02483335 -0.12572262 -0.20952389 0.2917769 0.18627739 -0.032662217 -0.031683177 -0.17608063 0.13993257 0.33145347 -0.1630731 0.20460956 0.036221527 0.2791832 0.07352713 0.25343293 0.024267238 0.0012980129 0.064367816 -0.098908655 0.014897943 0.26180983 0.24486692 -0.06840038 0.26973447 -0.08463834 0.0044774185 -0.4950327 -0.0141273895 0.30228996 0.098777376 0.2857794 0.15722819 0.08029475 0.24608895 -0.003942486 -0.070868835 -0.24992093 -0.03594185 0.07139883 0.17057167 0.29178852 -0.13960563 -0.091959104 -0.10594078 -0.065477334 -0.18408462 0.43786138 -0.058220293 0.11499038 -0.1272713 0.021513633
26 0.15569624 0.44773528 -0.30485007 0.13269962 -0.072490215 0.23091628 0.3579398 -0.09830718 0.16268332 -0.029966945 -0.18115088 -0.08093584 -0.17216852 -0.2976852 0.0855603 -0.18112713 0.31032053 -0.10168264 0.15210408 0.38886142 0.08355884 0.3098082 0.3765533 0.4946694 0.16578795 0.0048790406 -0.42500848 -0.214746 0.22857548 -0.28669932 -0.057685204 -0.31177083 -0.0141244745 0.15483652 -0.3732846 0.17789981 0.027780756 -0.06196468 -0.4324139 0.022180893 -0.3464425 0.1132581 0.005504374 0.23041455 -0.40382865 0.105701506 0.43359858 -0.03611597 -0.17001155 0.50204337 -0.028904362 0.20575722 0.27680644 -0.039327763 0.19371372 -0.07914415 0.5580349 -0.28885388 0.13562168 -0.22566305 -0.07513698 0.112755656 -0.22888523 0.27503768 0.13007621 0.024059294 -0.025960974 0.07683307 -0.3747447 0.03288524 -0.050553285 -0.017468804 0.37244755 -0.17704685 -0.16759889 0.31885043 0.054644242 -0.3328863 -0.08724845 -0.47684398 -0.31146255 -0.15143125 -0.09185356 -0.054619055 0.12896807 0.08534495 0.07668368 0.10397407 -0.12324092 -0.19510168 -0.17850572 0.20064063 -0.1265959 0.04878233 -0.22547096 -0.19783531 -0.24051137 0.19825779 -0.46894246 0.023896167 -0.29131353 0.37038442 0.21204415 -0.3718461 -0.14929041 -0.08201774 -0.4535807 -0.06087491 0.098900475 0.06934671 -0.30438542 -0.15550965 -0.44917688 0.09202723 0.05216125 -0.13796103 -0.010749763 0.055282027 0.35636866 0.2218078 0.19787104 0.3103909 -0.077527136 0.20431042 0.43345812 0.1305128 -0.17144203 0.007889605 -0.39906314 -0.3457423 0.020289773 0.22498207 0.19990285 -0.29458869 0.015143522 0.39943883 -0.32192475 0.26682943 0.21691187 0.2326397 -0.06513118 -0.116628446 0.1904101 -0.2154934 0.12407942 -0.676451 -0.2394567 0.22763406 0.062942214 -0.0968888 -0.092566 -0.10277965 -0.15809391 0.11010263 0.45597273 0.23417002 -0.03636036 0.32097936 -0.26633257 0.26200598 0.01065775 -0.01177932 -0.19614588 -0.05842749 -0.021162258 0.38297287 -0.095074944 0.1484051 0.33881733 0.30855674 0.10165675 0.22987348 0.19256583 0.037331462 0.09586633 -0.15777777 -0.25932297 -0.40689474 0.023720575 0.07550177 -0.25174883 0.44869286 -0.16315542 -0.09149967 -0.06947734 -0.15755092 0.15813494 0.13822523 -0.0070223934 -0.23655507 0.42523798 0.1410366 0.27851257 0.30167648 0.26277316 0.10785859 -0.037571233 -0.0056769233 -0.4080383 -0.38544694 -0.07012861 0.1324946 0.1476803 -0.60297894 0.503849 -0.0011304313 0.021855826 0.14882675 0.26464438 -0.19979423 0.31867337 0.17171986 0.1293912 -0.1452263 0.11898883 -0.03545937 0.40814775 -0.2078281 -0.046584774 -0.030201951 0.14108618 0.1417237 -0.1758952 -0.1224902 0.33253655 -0.2379343 0.20032783 -0.17281657 -0.3727569 -0.047808304 0.04519358 0.1519152 -0.350316 -0.2993839 -0.0035125893 0.031523667 0.0576164 -0.055410612 -0.008684535 -0.3960942 -0.053212818 0.22754495 0.1832706 -0.09746442 -0.3727063 -0.54377156 0.21577054 0.14688669 -0.13458665 0.06579639 0.17660476 0.28859133 -0.12271876 -0.089179374 -0.13642071 -0.5082559 0.42729512 0.40800095 -0.11757166 0.13701534 0.3705169 0.35215718 0.20182724 0.20430206 -0.075744644 0.11810399 -0.6002394 -0.3254639 -0.0068351477 0.11200711 0.34010428 0.21318015 -0.052834373 -0.06711208 0.36114705 -0.32767797 0.04089781 0.18279687 -0.22882411 -0.24011484 0.29961506 0.2436489 -0.2023298 -0.19104609 0.032048125 -0.048801303 -0.43029356 0.42743084 -0.26777354 0.4070064 0.01917071 0.10218204 -0.0333746 -0.20372735 0.0064712013 0.5134561 -0.07563176 -0.027940001 -0.06875058 -0.11350201
111 -0.11742599 0.075921156 -0.18329717 -0.055523667 0.3382194 0.15227593 0.07331334 0.41793668 0.7171418 0.038943313 0.2184718 0.07539715 -0.24701957 -0.7717839 -0.1518322 -0.15684293 0.49877498 0.07842852 -0.22807503 0.24342255 -0.4772356 -0.21844606 -0.097761475 0.1502857 -0.0013956862 -0.08847455 0.07973362 0.077547 0.10559894 -0.128858 0.2616959 -0.0062315776 -0.005856075 0.26738837 -0.08117192 0.019910095 -0.14470787 -0.40185058 -0.032605536 -0.102007836 -0.063945904 0.07485595 0.23388113 -0.074096926 -0.33971247 -0.096422315 0.1918158 0.22475934 -0.27035767 0.4059669 0.29472476 0.07374246 0.0147443805 -0.018641911 -0.15546921 0.056808904 0.3679906 0.04614341 0.30753627 -0.026893485 0.22585554 -0.059247028 0.13974667 0.12570536 -0.15792127 0.57919174 -0.09647934 0.20065103 -0.4893029 -0.23985103 0.0042381315 0.09893668 0.21630019 -0.42826232 0.25374955 -0.013274424 0.22612575 -0.28557932 0.071453385 -0.307797 -0.4843991 0.44689295 -0.100676455 0.3296989 -0.42459232 0.08787152 0.12826318 -0.2735416 -0.3166581 -0.0319733 -0.27835587 0.021973567 0.17772508 -0.09934798 -0.18737851 -0.30723792 -0.07176695 0.09375777 -0.5279183 -0.21797507 -0.27490953 -0.12158906 -0.33154994 -0.22188726 0.11653291 -0.3929751 -0.3475894 -0.053142726 -0.054247916 -0.27500346 -0.10224796 -0.4591718 0.056460712 0.04088607 -0.12686485 0.33933458 -0.0074874526 0.4285752 0.44268608 -0.25329617 -0.09593329 0.107174024 -0.034920614 0.08445953 0.08995643 -0.26201802 -0.032755226 -0.30063006 0.17886302 -0.5263744 -0.112414844 0.29068556 0.23700772 -0.29397547 0.3820956 -0.014106464 -0.0843793 -0.0069018146 -0.15395358 0.04707545 0.12501118 0.10120034 0.17165487 0.47478497 0.111734256 -0.3323924 -0.14519882 0.21671672 -0.1503855 -0.19831291 0.03562721 -0.09018585 0.08363225 0.46864966 0.4523233 0.06741794 0.027008185 0.17546612 0.29675907 0.15330468 -0.05980598 -0.0012685612 0.1417297 0.28155154 -0.33350828 0.23208492 0.028540652 0.08952989 0.33184806 -0.04095803 0.30066162 -0.15012252 0.36727408 0.35521293 -0.09926398 -0.21157713 0.20908679 -0.28055015 -0.1297236 0.10604322 -0.24129678 0.26498273 0.2702299 -0.2869751 -0.2818581 0.15447883 0.16988492 0.12579556 -0.051381372 0.07895888 0.35604763 0.123269945 -0.3574768 0.61529076 0.38002074 0.12873751 0.12724335 0.25031492 -0.13903745 0.29001674 -0.077489026 -0.017616231 0.13003664 -0.20085354 0.18638524 0.2530383 0.087629326 0.01928159 0.22510765 -0.26841965 0.12048999 0.13688512 0.16648297 -0.38699764 -0.044421554 0.29956982 0.24089515 -0.33159822 0.24228387 0.057413526 -0.28918576 0.56470454 0.021558266 -0.19801822 0.09595766 0.31703627 0.06511753 0.0121321995 0.13517322 -0.046505284 -0.06400867 0.22034794 -0.3361694 -0.030742958 -0.10408631 0.20588294 -0.08394455 -0.12098063 -0.16594626 -0.40130514 0.14653806 -0.029867942 0.14978412 -0.16679877 -0.02056875 -0.3969879 0.16647191 -0.044303227 -0.26594526 -0.07508531 -0.38575765 0.07896198 -0.157259 -0.3123798 -0.029007716 -0.20271659 0.07312365 -0.0647709 0.22849607 -0.112137035 0.12096781 0.3952726 0.5038588 0.15318778 -0.2989894 0.39396265 -0.14610867 -0.094233595 0.10911188 -0.1751642 -0.09536963 0.3576917 0.03477185 0.05527278 0.40335995 -0.28771073 -0.19762214 -0.084081866 -0.09310209 0.13814467 0.078233436 -0.19258761 0.09705115 0.31215072 0.041487902 -0.3269226 -0.20237833 0.085300215 -0.1492883 -0.09055964 0.061972976 0.23895553 0.2669029 0.08816186 0.39529142 0.65016365 -0.010377385 0.38291284 -0.17206852 -0.044067
75 0.16931881 0.27546743 -0.07479974 -0.001265853 0.54094595 0.067334965 -0.1161929 0.56375736 0.20910631 -0.24973921 -0.01253102 0.18241407 0.32579637 -0.1272766 0.201218 -0.18104124 -0.021671724 -0.09543035 0.17992365 0.35248458 -0.14265162 -0.070739314 0.049252417 0.3441127 0.023216605 -0.26391152 -0.2706999 0.35948503 -0.16826366 -0.1613301 0.023091847 -0.27840185 0.13731441 0.23741972 -0.078436665 0.3526473 -0.038848806 -0.1893727 -0.56831604 0.25897726 -0.40811458 0.26699677 0.21233413 -0.2933918 -0.3129423 -0.013888163 0.095878795 -0.0150434505 -0.2715256 0.122653194 -0.13033924 -0.3606419 -0.19659188 -0.5523213 0.25820553 0.17593832 0.13603318 -0.051495846 -0.010867739 -0.3600925 -0.12700951 0.010697247 -0.13120173 0.45106667 -0.05794411 0.45399675 0.2078284 0.0026908694 -0.42830735 0.009304585 0.116152674 0.062621 0.0050315787 -0.38940454 -0.009639215 -0.05122389 0.4030205 -0.44488043 -0.15672776 0.2831531 -0.4608356 -0.09653564 -0.31636003 0.35248291 0.2623849 -0.048176993 0.18707281 0.21673521 -0.0143185435 -0.0113319 0.064084075 0.105958365 -0.033801824 -0.049505845 -0.3760162 0.04056201 0.04377622 0.12281429 -0.44354215 -0.2788592 -0.19486749 0.27298778 -0.086116344 0.07742072 0.13931653 0.18044621 -0.22463934 -0.21472465 -0.20393662 0.35915315 -0.15573566 -0.23204476 0.12300649 -0.10545248 0.2552061 -0.20229073 0.039925348 -0.2946274 0.13169593 0.077895656 -0.1439361 0.29020226 0.14363195 0.15586345 -0.12974355 -0.24589874 -0.26279482 -0.36620086 -0.22268946 -0.081342936 0.40307096 0.22044244 -0.2606932 -0.38667983 0.28562203 0.12425143 -0.08341672 0.24431549 0.2196183 -0.10206427 0.082711704 0.115410596 -0.13619743 0.19102634 0.03355543 0.036870826 0.0834917 0.16438788 0.19537902 -0.23708789 0.12749697 -0.11134813 0.027640717 0.049738582 0.0024509646 -0.014342794 -0.18764903 0.3666226 -0.20189309 -0.012960345 0.10665402 0.18377326 -0.20894746 0.30910504 0.11434616 0.15616494 -0.11749389 0.03254854 0.30301857 -0.049016945 0.2589907 -0.16715321 0.20078558 0.050294407 -0.31106937 0.22172292 -0.25102222 -0.21364765 0.16738966 -0.041962396 -0.11300279 -0.15951742 -0.06917004 -0.41209495 -0.37582228 -0.117413126 0.06907826 0.12465867 0.042875968 0.17780825 0.24234322 0.057690646 -0.19549695 0.49709114 0.010856394 -0.17064112 0.3846939 0.4669007 0.47829887 -0.21660857 -0.123538695 -0.25132304 0.40837112 -0.217952 0.41233537 0.2053022 -0.051872134 0.009694173 -0.22320937 -0.2536396 -0.1748057 -0.3303155 -0.04941803 -0.2603319 -0.18226215 0.12815905 -0.15782054 -0.44861576 -0.002801996 -0.012090307 0.20810305 0.11156727 0.31127122 -0.5762126 -0.104345255 0.031610526 0.21235171 -0.14947638 0.03777301 0.04012793 0.06568038 0.23084342 0.10937967 0.014536402 -0.06559233 0.20838548 0.1122637 0.019451685 -0.57019204 -0.37799722 0.33838922 -0.14737922 0.42585656 -0.016167017 -0.35580328 -0.22838414 -0.34471977 0.11049805 -0.27552468 0.14901754 0.07549095 0.28543264 0.33462012 -0.039684623 -0.106601365 -0.31731245 0.1345195 0.42824334 -0.20346887 -0.06265859 0.17100702 0.11358217 0.249421 0.13886434 0.33332124 0.49586448 -0.07002574 -0.27132195 -0.05791129 -0.27338463 -0.4594566 0.28109047 -0.072298236 -0.030955533 0.5317911 -0.5250261 0.39904577 -0.14634569 0.1641616 0.477577 -0.12301696 -0.012003857 -0.06101113 -0.32559577 -0.18109345 -0.31169748 -0.015004945 0.59409124 -0.05047676 -0.0020159862 -0.15919578 0.3129753 -0.14384536 0.09676274 0.23348476 0.46907982 0.3052349 0.0028956751 0.44641042 0.018083623
109 0.15879239 0.38920414 -0.021673294 0.0002907452 -0.034345914 -0.032501865 -0.08426788 0.101635635 0.31190792 -0.09989469 -0.07876016 -0.21657613 0.45890698 -0.09108081 0.018348696 -0.11415684 0.13033366 -0.456999 -0.028166369 0.16369948 -0.47755075 -0.050735693 0.021772902 0.091656245 -0.065296456 -0.2839788 -0.43951195 0.1152412 -0.30960768 0.019033724 0.04990772 -0.10797893 0.109850615 0.030663427 -0.27159908 -0.012720679 -0.08793238 0.010678625 -0.1576197 -0.13890031 -0.33601606 0.28121212 -0.09435445 0.110445954 -0.11999976 0.14349602 0.3158024 0.2085603 -0.53757715 0.37906712 0.069149114 -0.36958796 -0.21995528 -0.30216518 0.14222412 0.22911708 -0.15666229 0.2080143 0.22468087 -0.44740942 -0.14259908 0.124580696 -0.31010136 0.21705122 0.08787159 0.31148744 0.56711113 0.12142559 -0.15393537 -0.13289922 0.097830355 0.22977604 0.2180225 -0.13103905 0.2832905 -0.014714778 -0.08146424 -0.32720143 0.0038086132 0.064589776 0.08591458 -0.25483882 -0.021387812 0.10354131 -0.38137296 -0.31994772 0.30358332 -0.17723927 -0.11988173 0.22806484 -0.08038386 0.015259698 -0.19485134 0.2636027 -0.19130702 -0.028986426 -0.46172813 -0.043802645 -0.61667395 0.12952241 -0.25659442 0.3609704 0.029002232 0.36979905 -0.30124488 -0.34653896 -0.16819105 0.21076852 0.14501818 -0.14972742 -0.3857886 -0.31788722 -0.07902137 -0.06679612 0.19740745 -0.121158905 0.103205115 -0.060579136 0.072802864 0.38665846 0.36001557 0.13847807 0.06817624 0.005926676 0.050184306 0.38143033 -0.26078767 -0.0755138 0.25750962 -0.34857398 -0.20722833 0.31769493 -0.10835456 -0.002273818 0.5347557 -0.027368348 -0.20379648 0.236606 -0.20315522 -0.08439588 -0.007656748 -0.20435022 0.42398453 -0.04934491 0.059684742 -0.361078 -0.26336315 0.08427409 0.16888712 -0.2806711 0.2605411 -0.0018165807 0.19288473 0.10591473 0.3075379 0.28142226 0.100402564 -0.040268872 -0.06106322 0.1731983 0.2519722 0.059513837 -0.022950578 -0.029123126 0.037590582 0.14175785 0.1977084 0.3191734 0.24824725 0.3285364 0.10824714 -0.08579199 -0.20744465 -0.3543526 -0.15147582 0.18201226 0.40641046 -0.33198294 0.26242787 -0.23839608 -0.3091636 0.2018212 -0.011445672 -0.5713789 -0.13385443 0.21519817 0.26527807 -0.06721923 -0.07331932 0.21201573 0.46148917 -0.029099554 -0.53914124 0.2413269 0.40279132 -0.4057627 -0.27944085 0.19048396 -0.14835368 0.20600723 -0.060911994 -0.10478239 -0.14356934 -0.42217758 0.04456214 -0.11044768 0.040115472 -0.098372236 -0.1677503 -0.0030977225 0.34050664 0.03318607 -0.24967685 0.3406177 -0.12901075 0.18983154 0.5046758 0.008117474 -0.26679033 -0.2872517 0.047324628 0.12715688 -0.21986967 -0.07206009 0.041368376 0.044466976 0.037397563 -0.12487136 0.21712625 0.2800754 0.520763 0.15255699 -0.05460778 -0.38305843 0.07492011 0.0031890476 0.11997956 0.21942487 -0.20675315 -0.35729477 0.121830896 0.030459706 0.0030407587 0.31938604 -0.5964719 -0.24582359 0.071875684 0.30267882 -0.20081937 0.059031952 -0.15654248 -0.052452877 0.37712803 -0.49259207 0.16871133 -0.43654385 0.3942089 0.13446458 0.061655607 0.22830977 0.01728356 0.109409004 0.04653209 0.044752434 0.014859876 -0.12488646 -0.05160154 0.20889829 0.0141652515 -0.05111978 -0.26664668 -0.039054833 -0.11708752 0.016476253 0.42489126 -0.16922794 0.2839499 -0.05015214 0.2600431 -0.12713952 -0.096829586 0.31158695 -0.16353416 -0.048922718 -0.24086632 -0.2561537 0.04072641 0.09353736 0.09893712 0.3172623 0.01602911 -0.03945845 0.27736267 0.23844025 0.33856824 0.16473764 0.26917845 0.3716253 0.12708862 -0.23297577
60 0.33028978 0.08489032 -0.18963166 -0.338858 0.25086734 -0.07066432 -0.0123232 0.16032435 0.16765802 -0.569416 -0.100808375 0.20047161 0.16056862 -0.17951024 0.0655695 -0.008057151 -0.07189888 -0.06424902 -0.24839073 0.02704549 -0.098699145 -0.10923856 0.07499333 0.2873508 -0.10714078 0.04427068 -0.35991123 0.013211273 0.23551959 0.22494082 -0.19283845 -0.33555198 -0.005684197 -0.24397485 -0.062747456 0.3021972 -0.16057318 -0.06999183 -0.0774059 -0.06275416 -0.27211782 0.1767854 0.23037086 -0.014034946 -0.26954073 -0.30138525 0.3978629 -0.16562457 -0.43288448 0.4701882 0.015132995 -0.10007278 0.20157887 0.3014539 -0.013117672 -0.048798643 0.2076035 0.1339628 0.35560876 -0.43195218 0.14848246 0.424828 -0.05086505 0.32734 0.021389943 0.41251054 0.46164635 0.041764032 -0.03833141 0.0049277353 0.09721441 -0.014962915 0.22478354 -0.178804 -0.0026396955 0.08562602 0.012236037 -0.048222646 0.030652568 -0.25044748 -0.27320313 -0.073605165 -0.5743786 0.009618144 -0.15105112 0.059887305 -0.05401138 -0.16629003 0.0030899337 0.22514781 -0.24391925 0.21307506 0.31024733 0.02695359 0.29755118 0.018017765 0.046109032 -0.37844822 -0.30766493 -0.27129734 -0.15121631 0.52519035 -0.30346248 0.005596114 -0.5048465 -0.062351305 0.09310298 -0.282822 0.033564173 0.20020966 -0.3042991 -0.5643391 0.1030332 0.1417347 -0.11490499 -0.012595097 0.15493 0.07101828 0.04985673 -0.26060373 0.22423953 0.6838155 0.13375112 0.17069702 -0.010865733 0.23385859 -0.12833127 -0.1760922 0.073500015 -0.14727609 -0.24158138 0.020832537 0.34893817 -0.22846687 0.06909629 0.11087878 -0.111454666 0.047756508 0.2473012 -0.06877374 -0.1953162 -0.3293831 0.30550587 0.3724176 -0.028443478 -0.28535 -0.52437353 0.15232562 -0.19434439 -0.5090485 0.14230375 -0.14443853 -0.13978845 -0.33549252 0.22519916 0.104002945 0.1255954 -0.003297797 -0.005409799 0.03727685 -0.04490372 0.11624592 -0.33770934 0.3109838 -0.27024758 -0.023833837 -0.05192336 0.41071555 0.35949105 0.27789715 -0.03268288 0.035405636 0.10473121 0.10597079 -0.109116495 -0.20621146 0.03511135 -0.29864618 0.073671386 -0.041952237 0.0043568783 0.017065804 -0.21369024 -0.19654381 -0.50991696 -0.43282473 -0.4317467 0.006642454 -0.19574271 -0.2624015 0.1459484 0.040639438 0.022216156 0.56901914 0.24581423 -0.319451 0.10725451 0.35093012 -0.3581845 -0.13312732 0.07918099 -0.16225891 0.36794546 -0.25668457 0.66671574 -0.20212142 0.26170346 0.1745236 0.3450984 -0.49409208 0.14602311 -0.26236582 -0.24377115 0.05557057 0.3015905 0.3286683 -0.054382455 -0.091396414 0.13422795 0.114990436 -0.18557288 0.35743344 -0.06364098 -0.36655483 0.0727553 0.03306632 -0.16549438 -0.06824562 0.16259077 -0.08083661 0.1934669 0.19905044 -0.00012827842 -0.16660039 -0.039839935 0.16463356 0.40395465 -0.106925204 -0.25761628 -0.35506165 0.11136212 0.35749695 0.32291713 -0.39006755 -0.20507452 -0.055125307 -0.02036688 0.33517838 -0.10504679 0.15062244 0.056164745 -0.13063438 0.4910066 -0.08428066 -0.1893108 -0.27551356 0.39567065 -0.06938085 0.35704955 0.1328805 0.14496112 0.50908643 0.06665257 -0.113482654 -0.1783044 -0.038069516 -0.17220825 -0.1945282 -0.28320968 -0.07901613 0.01818885 0.095490545 0.291512 0.0064985333 0.11145929 -0.24574271 0.14658418 0.42339617 0.20069587 -0.19163182 0.25344715 0.103436634 -0.13784985 0.36214972 -0.19872203 -0.00239623 -0.1432586 -0.06238176 -0.1540058 -0.01104665 0.19059929 0.084711336 0.32416716 0.15248717 0.05498764 0.48112485 -0.10718272 0.24325123 0.27959883 -0.03357748
11 -0.35895595 -0.06842167 -0.06395625 0.2042047 -0.1652256 0.29652604 0.29135945 0.25223595 0.32799384 -0.0095603075 -0.63968974 -0.113220215 0.16293547 -0.605136 -0.088062525 -0.14138952 0.4114071 0.030753816 -0.14038664 0.06778266 -0.09479276 0.072244994 0.1002301 0.2418868 0.04351955 -0.48398662 -0.07876033 0.014242406 -0.07657408 0.004820677 -0.3267424 -0.07503599 0.30647826 0.21272622 -0.12171823 0.21857063 -0.16817307 -0.33291098 -0.14431101 0.08140862 -0.039472066 0.124987446 -0.11263102 -0.41415286 0.28165004 -0.03363125 0.11829278 -0.26903963 -0.06203864 -0.04527789 0.37276202 -0.28629193 0.22981973 -0.022888772 -0.06603761 0.09675927 -0.061123062 -0.113578916 0.32567003 -0.20198295 -0.3043612 0.53446335 -0.3732902 0.05280951 0.26280722 0.240338 0.026372846 -0.014562945 -0.2613979 0.13261482 0.2952612 0.41642365 0.48031715 -0.47440416 0.25703424 -0.13546269 0.32487437 -0.4571216 -0.36785042 -0.18838774 -0.29903138 -0.15430126 -0.20986801 0.037024114 -0.1936384 -0.07255289 0.094333984 -0.00022732306 -0.09395346 -0.010649195 0.19311139 -0.07182628 0.22858025 0.18793331 0.15701655 0.1606515 0.10144962 0.0062708743 -0.5991166 0.539977 -0.31648627 0.6824794 0.10005253 0.14334734 -0.02670478 -0.2692927 -0.3879991 0.09772262 -0.32202336 -0.013919066 -0.23347807 -0.35318834 0.061357982 0.14883278 0.23061562 -0.041571755 -0.08016347 0.06745196 0.29984814 0.14186533 0.09137976 0.08296355 0.30483636 -0.114934124 -0.25577036 0.32131806 -0.32950166 -0.37918308 -0.00085419766 0.11957184 0.0021339057 0.37898263 0.03178804 -0.037884638 0.053748924 -0.105864204 -0.099068716 0.81053245 -0.0392818 -0.039299645 0.13212301 0.007840061 0.34784675 0.27764553 -0.010217551 -0.2935918 -0.12681067 0.0016976754 0.33697546 -0.3287322 -0.14809538 -0.14706303 0.13610631 -0.14291428 0.35971466 -0.095831014 0.13876058 0.3489453 0.034024972 0.2507567 0.48855916 0.056250382 0.15775533 0.5034438 0.068522654 0.09232878 0.07383132 -0.2084901 -0.035158742 0.14204219 -0.12828141 -0.051127043 0.082007855 -0.21850874 0.010550309 0.061482344 -0.060258154 0.031825643 0.1284826 -0.10957301 -0.07154493 0.34294277 -0.24872492 -0.45090398 -0.69879526 -0.27834865 0.034250956 0.20430028 0.14644133 -0.058027953 0.13626145 0.052049108 -0.1377167 0.067632206 0.17645706 -0.5121446 -0.012962136 -0.022535516 0.1747268 -0.02643101 0.33700213 -0.057943754 0.18777978 -0.4920281 0.40580884 -0.14763628 0.16811311 0.076572545 0.1544134 -0.58592516 -0.06696173 0.0020216007 0.1182396 -0.11845208 0.14573729 0.2044956 0.023404183 -0.2407303 -0.1636798 -0.08867881 0.2885671 0.27896878 -0.25020245 -0.16946308 -0.1286158 0.34150732 -0.0557653 -0.25163817 -0.025863403 0.43259057 0.1410878 -0.16571909 -0.27095833 0.030949803 0.14976116 0.22645621 0.119763605 -0.021595191 -0.35701984 -0.14395997 -0.1790839 0.25090718 0.08351089 -0.32292795 0.0017966199 -0.23776388 0.009347414 0.100535884 -0.4288592 -0.38873103 0.1082602 0.050222307 0.024518492 -0.22627395 0.12544271 -0.43436855 0.5136504 0.14082348 -0.06510165 0.07842363 -0.10276568 0.16544782 0.17788859 -0.009584029 0.0036712585 -0.08554456 -0.009912361 -0.38854164 -0.06512244 -0.45374155 -0.33085585 0.12281912 -0.20028867 -0.26184765 0.267204 -0.3906157 0.2213629 0.28722584 -0.24600044 0.1604086 -0.19287542 0.25262693 0.3777152 0.1726504 -0.14404915 -0.017702341 -0.43136927 0.43587163 -0.10869532 0.033910505 0.24762511 -0.118623815 0.07987282 -0.37415898 0.41210595 0.4490392 0.042910673 -0.13019389 0.15844905 0.11248015
105 -0.21630277 0.36958313 0.15841104 -0.16987896 0.05248887 -0.2417601 0.22215532 0.42112347 0.05100588 -0.4174552 -0.16246389 -0.5447541 0.3263682 0.11083033 0.0704195 -0.09275617 0.28910896 0.26755357 0.17172255 0.3316239 -0.20562296 0.05736721 -0.21784143 0.42523646 -0.004719729 -0.06649623 -0.41890344 0.2735352 0.2100603 -0.27810052 0.32604793 -0.09783037 -0.07544585 -0.1345666 0.0014946809 -0.42962113 0.1261185 -0.58790153 -0.152359 -0.0625258 0.08263101 0.14574417 0.3943481 -0.2682614 -0.1941217 -0.32650834 0.10748959 -0.04685453 0.2162835 0.25660133 0.17079198 0.20405178 0.3310305 -0.33742973 0.2918197 0.3161716 0.32445845 -0.057313703 0.64374214 -0.23993559 0.013341268 0.25401014 -0.16569272 0.20816165 -0.009891876 0.40696552 0.35419118 -0.3112948 -0.29861802 -0.13328801 -0.025735812 0.37571922 0.33797526 -0.23561685 -0.019709427 0.09412165 0.20387384 -0.321359 0.0052125603 -0.26911086 -0.12895645 0.11094518 -0.121416576 0.15549335 -0.084200606 0.30698523 0.12205625 -0.04069621 -0.2878267 0.1650401 0.086200394 -0.07542072 0.058221593 0.07470854 -0.102329396 -0.28876197 0.35158244 -0.18640772 0.08658162 0.004697747 -0.06835965 0.5755115 -0.31741074 0.26228094 -0.14964944 -0.10047227 -0.32612213 0.023911243 -0.1966234 -0.14732975 -0.15636508 0.18746419 -0.03383374 0.13802116 0.049472146 -0.13883625 0.06686063 0.33779055 -0.12478456 0.06449781 -0.12722449 0.12114608 -0.07427918 -0.16480526 -0.057784714 0.0168647 -0.4441671 -0.48487994 -0.060456257 0.047450654 -0.22467521 0.08309706 -0.17478673 -0.44009966 0.35173085 0.35757884 0.17993806 0.5613478 0.16496739 -0.14338173 0.057785295 -0.12684186 0.18161485 0.054261427 -0.1246591 -0.63530785 -0.246177 0.22863783 0.30294892 -0.21579072 -0.03176568 -0.007921672 -0.26857814 0.0071514156 0.33148763 0.22995372 -0.2355544 0.294648 0.06865841 0.05234112 0.27045268 0.2919925 0.025941713 0.31028792 0.17122689 0.10236058 0.1286406 0.11415542 0.072305664 0.056412317 -0.22867875 -0.11535885 -0.110896595 -0.20308019 -0.03851216 -0.06981117 -0.17388898 -0.04876111 0.08917971 0.03921321 -0.23259413 0.27999073 0.0043081366 0.12079492 -0.09694587 -0.1563853 -0.17284423 0.07141893 -0.22314376 -0.041148398 0.21670686 0.1207503 0.03426115 0.6836619 0.2810012 -0.383866 0.070115566 0.32955372 -0.30065644 0.36559236 0.15166499 -0.22798201 0.112584956 -0.09115763 0.3197411 0.2780609 0.2784957 -0.19048117 0.14897999 -0.17340007 0.1750562 0.06466752 0.1042145 -0.0044211308 0.01966357 -0.05231573 0.42471972 -0.30486768 -0.3742735 -0.1511641 0.3483897 0.3174329 -0.051616356 -0.052760888 -0.060666203 -0.13299027 -0.109387815 0.07659613 -0.39878237 -0.02719867 0.1556949 0.014695086 -0.39454487 -0.34138668 -0.18850864 0.41255066 0.108426206 0.35174584 -0.20617196 -0.21105474 0.19452524 -0.007072148 0.08547949 0.07645649 -0.16948266 -0.3890303 -0.10664187 0.074172884 0.00706536 0.34083527 -0.014610184 -0.083531655 0.20781933 -0.33839235 -0.026366081 -0.26031542 0.114309154 0.2120122 -0.31027073 -0.042365413 0.047191992 0.31366166 0.18258832 0.21277463 -0.20586139 0.14424272 -0.021511992 -0.3238671 -0.06603168 0.13288765 -0.010320753 0.23242559 0.24507907 -0.2267586 0.31462148 -0.058394443 0.14630908 -0.008583766 -0.08105299 0.011777899 0.10418913 0.22739574 -0.3288911 0.022625972 -0.38565183 -0.22172318 -0.18132035 0.6520539 0.018925859 -0.0817734 0.3320707 -0.15935588 0.16723838 0.2578143 0.22434935 0.07159726 0.021567723 -0.029143542 0.15340777 -0.03361697
104 -0.17142299 0.08679078 0.037310094 0.32435912 -0.028374737 0.008986826 -0.18588515 0.14761409 0.16175413 0.061054546 0.000691084 -0.3682047 0.45568967 -0.23973934 0.33261746 -0.20253043 0.2961631 -0.4981506 0.26877543 -0.22234558 -0.28905225 -0.2517895 -0.04186762 0.6272908 -0.31057534 -0.22483347 -0.2840488 0.19027707 -0.32205242 0.30085534 0.10328373 -0.21450795 -0.009425319 0.11939029 -0.1938631 -0.1376965 -0.08176285 -0.24197508 -0.14663914 0.13942857 -0.14958563 -0.33441836 -0.17380264 -0.005310618 -0.12271516 -0.45615116 -0.06756587 0.08303017 -0.19306456 0.06812649 0.2284288 -0.030857386 0.024415899 -0.10351469 0.4449351 -0.15632974 0.1306082 -0.15898524 0.32643646 0.12299685 -0.12538062 -0.06370671 -0.17841803 0.19354443 -0.05641091 0.50531393 0.5954263 0.0643082 0.0077880966 0.14897068 0.0052498938 -0.0824243 0.11450101 -0.53198576 0.09622792 0.1886474 0.0137412455 -0.25222775 0.19241755 -0.5206917 -0.21850772 -0.15388544 -0.26466617 0.073608816 0.37965918 0.08210971 -0.040483963 0.1429331 0.18682191 -0.25448385 -0.29356962 -0.001326921 0.116668925 0.5375025 -0.31884345 -0.11502806 -0.13039598 0.2681429 -0.54480463 0.20820537 0.1243834 0.6402987 -0.040058922 -0.2092215 -0.28163 -0.13595776 0.004264653 0.11976116 -0.06120633 0.10336926 -0.19372348 0.084298514 -0.22899191 -0.108594105 0.48794597 -0.09377017 -0.1504537 -0.015076568 -0.030595914 -0.042407114 0.33512372 0.50345427 0.06571628 -0.0041580517 0.43995014 0.3523299 -0.09446381 -0.28948048 0.029037151 -0.17581883 0.10612322 0.43892932 0.4596976 0.06569707 0.5082421 0.19295788 0.109618604 0.24631768 0.09641362 -0.21504836 -0.11050981 0.018677672 0.05658226 0.30863342 0.2800295 -0.7306474 0.029243317 0.252273 0.3382991 -0.2835366 -0.10816802 0.0031994006 -0.043614432 0.07521723 0.2531476 0.100546025 -0.13303125 0.20327975 0.19824201 0.14253375 0.05551318 -0.20213711 0.01796496 0.03475541 0.21224646 0.25591016 0.2278471 0.22905311 0.22057511 0.2505863 0.0732678 0.24053037 0.049592532 -0.36086625 -0.3040287 -0.14805439 0.07915709 -0.08669647 0.2570497 0.2824866 -0.20080455 0.02565388 -0.0058164475 -0.0049161506 -0.12772293 -0.32192153 0.10168809 0.19275472 -0.13839868 -0.065567486 0.24311376 0.14089876 0.13065283 0.42399964 0.114153184 -0.27526447 0.4135368 0.46528703 0.08716016 0.008268785 0.51088583 0.015544643 0.17804791 -0.23754074 0.5003983 -0.18351759 0.3383327 0.089981414 0.36792776 -0.08836801 0.13013005 0.03853495 -0.15000033 -0.19343343 -0.32249758 -0.13813983 -0.045696598 -0.44228676 0.17355607 -0.26622957 0.19154248 0.44517097 0.15659483 -0.11690991 -0.31524605 0.14685278 0.06998533 -0.32873616 0.14152113 -0.053626195 0.4611426 0.25139233 -0.00806304 0.07097011 -0.22440967 -0.10444775 0.6369278 -0.14125165 -0.105283655 -0.029461192 0.41434097 0.24145481 0.30229163 0.097163685 -0.03814585 -0.20479761 0.21687433 0.114300184 -0.2464923 0.06932091 -0.045714438 0.072262175 0.32348898 -0.4032431 0.11542511 -0.58749735 0.43421286 -0.14379631 -0.1890359 0.14088324 0.19533361 0.46603805 0.07237485 -0.0073944647 0.29226747 -0.12085402 -0.23193021 -0.19455098 -0.1383006 -0.22295444 -0.30205712 0.14401431 0.08527776 0.18281588 0.021913288 -0.14912339 -0.18705015 -0.061045192 0.036469456 0.10622285 0.012498773 -0.05828769 -0.24938048 -0.048324686 0.09241855 -0.27985585 0.09329746 0.0723179 -0.30918497 -0.19130105 0.100633964 -0.23285085 0.33269808 0.065766536 0.37641972 0.50022006 0.27801076 0.19208252 -0.12691136 0.13009897
107 0.026589379 0.5442951 -0.13277318 -0.058852877 0.19989689 0.21133924 -0.044118125 0.09403738 0.28112298 -0.25255838 0.15168881 -0.07550433 0.31976685 -0.1948686 -0.010131864 -0.10659469 0.14542522 -0.22440666 0.13090071 0.16035536 -0.5629229 -0.030258449 -0.0708987 0.22304979 0.03112372 -0.37987104 -0.29975682 0.029544042 -0.08857934 0.069394134 0.22658724 -0.21427289 0.3140717 -0.010159558 -0.21112567 -0.27914846 -0.31994095 0.2172669 -0.22476396 0.13546868 0.032554906 -0.009920984 -0.052898213 -0.092609495 -0.20170608 0.15621993 0.4189271 -0.04998349 -0.1289557 0.58729094 0.27235582 -0.1575112 -0.16443452 -0.006271543 0.27283487 0.1651812 0.09547688 -0.10253951 0.39896002 -0.3768202 -0.025036551 0.11525039 -0.4170742 0.1553857 0.0907935 0.2580032 0.7368827 -0.053268388 -0.45350718 -0.14198068 0.309959 0.052179173 0.018781252 -0.12379054 0.17436981 -0.1212155 0.0072900834 -0.28779933 -0.012262219 0.12805338 -0.02256871 -0.0028442843 0.16767159 0.17734411 -0.06977097 -0.22786322 0.09812927 0.0758476 0.14706913 0.14645547 0.0051105567 -0.055197343 -0.28281134 0.032426268 -0.41918942 0.10234829 -0.16032593 -0.08327151 -0.82153666 0.22033025 -0.17625949 0.32939962 -0.048564877 0.13355657 -0.2255638 -0.458412 -0.113210484 0.00520319 0.08954364 -0.4358049 -0.32450414 -0.51916045 -0.06832119 0.08193805 0.17678154 -0.28897172 0.11510005 0.29338202 -0.030143714 0.20333461 0.1891195 0.042062998 0.05799276 0.12599207 0.2890686 0.3007917 -0.4995075 -0.33478764 -0.014515091 -0.010673232 -0.03163649 0.52552336 -0.13297024 -0.35530022 0.42615205 0.23499572 -0.2431169 0.09031156 -0.22485203 0.23562294 -0.007897199 0.04126421 0.4328282 0.2052058 -0.103803694 -0.5546053 0.17613803 0.13982698 -0.09686561 -0.010763642 0.01781547 -0.14311217 0.061893485 -0.25338137 0.20635027 -0.10023509 0.028469425 0.2769748 -0.13187644 0.38113832 0.38737217 -0.16903377 -0.057779897 -0.059345473 -0.13677621 0.25651982 0.16349702 0.21245627 0.4502889 0.31317866 -0.24732713 -0.30776682 -0.25978485 -0.25438017 0.110060796 -0.026163882 0.22344533 -0.27443084 0.05267668 -0.18815123 -0.4123922 0.19498153 0.4288474 -0.3048281 -0.14784299 0.2868809 -0.08308662 0.01953367 -0.09737297 0.104834005 0.43041238 -0.45033643 -0.2627145 0.5269682 0.07098593 -0.362646 0.08242992 -0.016943756 -0.12725978 -0.14316493 -0.13094918 -0.0052787946 0.0015661506 -0.18992646 0.020739285 -0.14687267 -0.117016286 -0.12023714 0.030358588 -0.30952394 0.32891306 -0.033785336 -0.07676662 0.06681832 -0.18219635 0.14919606 0.19441034 -0.2891952 -0.0012283295 -0.11653437 0.057426635 0.057175845 -0.048481606 -0.04101598 -0.097652666 0.24085036 -0.104239486 0.04394034 0.066876315 -0.08858639 -0.09534285 0.047536556 0.006692742 -0.35848734 -0.18139963 0.0009923775 0.15452859 -0.06408846 -0.39661998 -0.24991442 -0.12209012 0.0714533 0.2575567 0.20385724 -0.15178496 -0.4243195 -0.07814292 0.30901885 -0.042370733 0.24712454 -0.2270878 0.06570954 0.3820031 -0.31378245 0.19585676 -0.54151636 0.13916627 -0.15219693 -0.12595485 -0.0886657 0.17007276 0.2298559 0.3785642 0.26224533 -0.07034618 -0.06448961 -0.20530632 0.4021622 0.28521556 -0.09289266 -0.17181839 0.020680236 0.08728163 -0.17167841 0.6222775 -0.09859878 -0.09187512 -0.16545855 0.042679366 0.24921493 -0.36984524 0.73310137 -0.0146988835 -0.22828154 -0.0119534265 -0.30193582 0.15176328 0.27069175 0.15358236 0.056707963 0.06258061 0.40971875 0.05954822 0.24422835 0.007830559 0.39756465 0.30360723 0.36349177 -0.06089593 -0.105227485
34 -0.46479058 0.17911734 -0.3129224 -0.1036495 0.13756439 -0.25644386 -0.1535037 0.39752287 0.02832334 -0.5165842 -0.09281475 0.024146862 0.40066415 -0.6125723 0.066358276 -0.46067658 0.3322165 -0.30180496 0.23391816 0.2333756 -0.33946034 -0.24514902 -0.12957834 -0.21134533 -0.15049088 0.058246512 -0.6166264 0.32791683 0.002619256 -0.06863129 -0.07188244 -0.031223131 -0.41058892 0.17309213 0.008730085 0.07397022 -0.35938427 -0.38177565 -0.28876272 -0.1770084 -0.2431985 0.19111231 -0.060760826 -0.034769632 -0.07387493 -0.27520782 0.18675557 0.026623009 -0.49210283 0.27803302 -0.036669564 -0.0013078034 0.079967216 0.19065891 0.33182713 0.115668826 -0.04046714 0.53999823 -0.11569357 -0.024317874 -0.023123447 -0.021348374 0.038785204 -0.022288203 0.13308288 0.13402781 0.30483156 0.42776418 -0.07999018 0.028849563 0.3016972 0.49834675 0.30299062 -0.36955634 -0.2522597 0.343542 0.055735704 -0.5333123 0.2377071 -0.2705683 -0.23960558 0.06508773 -0.3299367 0.29647458 0.054110635 -0.21671352 0.44054577 0.17859104 0.33150306 -0.017035656 -0.39260554 -0.4389885 0.4787614 0.38201895 -0.16921674 -0.092117436 0.07774149 0.11743628 -0.17520148 -0.10146977 -0.13168077 0.07748802 -0.06957866 0.07448333 0.06463321 -0.26490813 -0.3317883 -0.2805993 -0.16288945 0.09660573 -0.00843473 -0.6591215 -0.3342982 0.18963566 0.41011426 -0.034892805 -0.27978706 0.25202048 -0.048631668 0.21061257 -0.039814256 0.12155291 -0.07455108 0.12662926 0.078742065 0.12490132 -0.07919743 -0.11541887 0.09383075 -0.102309786 0.15608248 0.4339732 -0.09650962 -0.3303515 0.42731464 0.12099786 0.223963 0.14952981 0.20255105 -0.25954944 0.25199148 -0.018670628 0.18960612 0.50466794 0.04651387 0.08773409 -0.45722228 0.48328158 0.1802072 -0.27584693 0.1411762 0.031160463 0.3618634 0.19844544 -0.12737787 0.4322696 0.2797287 0.27666694 -0.005615227 -0.07991757 -0.15402372 0.24668938 -0.38534376 0.17570941 -0.3201658 -0.11840847 0.1259268 0.18385984 0.1445202 0.21746421 0.14846094 -0.3603229 -0.13799125 -0.17863837 0.020971425 -0.44438386 0.13455404 0.17116868 0.18184236 0.085121274 -0.17595518 -0.16750321 -0.12157595 -0.09612664 -0.4272069 5.464236e-05 0.099885926 0.25907594 0.24544409 0.076172225 0.029139947 0.24377495 -0.09626366 0.28366452 -0.053497568 -0.067871444 0.11936816 0.007096338 0.26090142 0.18863115 -0.011837948 -0.09331136 0.4075167 -0.14054196 0.37466055 -0.0034469413 -0.0783975 -0.2638203 0.066755906 -0.1597062 0.36444175 -0.17316721 -0.051777024 -0.008823775 -0.103894375 0.15295711 0.23327239 -0.5022115 -0.16911551 -0.3660704 0.09220547 0.3199158 -0.23439005 -0.3093965 -0.17763868 0.16485135 -0.024566682 -0.045428682 -0.025986057 0.2580113 0.42462552 -0.11374798 -0.15218674 -0.18871182 -0.32225752 0.29280698 0.20049621 0.07002769 -0.17866428 -0.34231395 0.19047055 -0.21813308 0.34312358 0.12668464 -0.5070284 -0.3083383 0.17633006 0.07406586 -0.38066122 0.05056461 -0.019566452 -0.042184208 0.089259 -0.06746106 0.0006297699 -0.12414082 0.14685957 -0.12548761 -0.29352352 -0.08737195 0.04580757 0.24207026 0.16685084 0.12845306 0.38398832 0.07645077 0.012456625 -0.20420787 -0.11038181 0.02668686 -0.15996243 0.30388466 0.27962115 -0.026114313 0.33437937 0.09970617 -0.20272067 0.044248443 0.16734229 0.1359532 0.017739167 -0.13092858 -0.09936963 0.108635224 -0.31934398 0.05379529 -0.5365255 0.18491429 0.22838739 0.35959998 0.42501333 -0.040337395 0.3872684 -0.18064108 0.32790968 0.30577746 0.048462994 -0.110096715 0.27187508 0.13289145
88 0.18217254 0.33295166 -0.43443844 -0.0055895476 0.21389945 -0.34431854 0.033997193 0.2916948 0.46138445 -0.21598472 -0.37026286 -0.20514962 0.19499016 -0.2666145 -0.2139846 0.12705134 0.12661897 0.15840097 -0.06876456 0.31607586 -0.02814023 -0.16847694 0.06275624 0.018606734 0.22984962 -0.049851682 -0.6959953 0.2621958 -0.25454485 -0.024668023 -0.05021318 -0.08872174 -0.25440556 0.026981404 0.29218683 0.007237513 -0.31375954 -0.40155983 -0.53313047 -0.054390967 0.07505401 0.14894836 0.39107046 0.14285897 -0.1285736 0.022410695 0.092483364 0.008836485 -0.18985039 0.27353653 0.115081616 -0.30354452 -0.03263317 -0.25166184 -0.025049655 0.30258194 0.3614042 0.26522642 0.26191774 -0.09805541 0.026749289 -0.29441684 0.06495771 0.40720123 0.08708337 0.33942774 0.5181989 0.3783048 -0.3419777 0.11299268 0.27952084 0.23228382 0.50107825 -0.25347435 -0.002459317 0.03970298 -0.059203256 0.21760614 -0.15063979 -0.09501799 -0.42945972 0.20246837 -0.018677142 0.08346501 -0.09007757 0.06378038 0.61618286 0.26089913 -0.16285309 -0.3297851 0.23440428 0.058053523 -0.07105632 0.20982969 -0.14662245 0.06191058 0.34803596 0.12952387 -0.30978805 -0.08120425 0.029918477 0.5279598 -0.02614624 0.39521587 -0.024485974 -0.009565046 0.10092347 -0.41546255 -0.16876626 -0.078909084 -0.1524554 -0.028218344 0.00076075166 -0.05510533 0.21059734 -0.36090913 0.14453372 -0.15927203 0.06340225 0.23232268 0.1831551 0.50708526 -0.22098528 0.27242556 0.17459919 -0.021254303 -0.30992508 -0.39586037 0.25464836 0.07309207 0.08700684 0.38126123 0.22695981 -0.48908383 0.30000013 0.30479324 -0.13658446 0.34699643 0.06451176 -0.2910503 0.06297478 0.20928688 0.36923084 0.39525154 0.13331005 -0.5010121 -0.10491022 0.17069052 -0.09831893 -0.34291425 -0.006782219 0.16715276 -0.14642051 -0.05627812 0.15158221 -0.104316555 0.22559151 0.38688502 0.1871604 -0.09464158 0.12608595 0.009432963 0.1807552 0.13030373 0.2760775 0.07063312 -0.1547433 0.29447764 0.10619283 0.17287323 0.18646273 -0.0099669155 0.07172006 -0.22059003 0.16661647 0.057108447 0.22300127 0.09176636 -0.2757156 -0.112467624 -0.13279457 0.09465045 0.11606302 -0.17778125 -0.11021447 0.101981476 -0.091056235 -0.0777994 0.03720198 0.11459817 0.18003906 0.059159577 -0.046226144 0.47436354 0.13810444 -0.025633942 0.06212674 0.095328 0.21507512 0.0125533575 0.4556079 -0.16415627 0.13972281 -0.46758625 0.20213866 0.114630185 0.22542924 -0.06566601 0.41570047 -0.27355152 0.29001683 0.08329309 0.08136794 0.1938158 -0.26812923 0.08246003 0.08954393 -0.4987966 -0.2981288 -0.11019942 0.16047628 0.57039297 0.1472798 -0.04736205 -0.31787503 0.0751644 0.5786997 -0.17929775 -0.22556224 0.241497 0.22355056 0.07533257 -0.24190065 -0.06778968 -0.20290808 0.1682044 0.31433138 0.12596048 0.14161251 -0.14559393 0.29805893 -0.092167616 -0.15732789 0.15574138 -0.16188554 0.025897756 0.13845558 -0.11526964 0.11340387 -0.22121148 -0.15194152 0.049526155 -0.011557694 -0.057314772 0.009380742 -0.21196976 0.43466783 0.21851937 0.21084201 0.04209532 0.41690212 0.25195745 -0.050828405 0.099642515 -0.20010877 0.45680004 -0.41837054 -0.27914244 0.13195357 -0.10425011 -0.2289583 0.13552152 0.01455047 0.058748666 0.025833255 -0.24963875 -0.090517595 -0.04430057 0.017839069 0.029339062 -0.021869956 0.4311119 0.3567061 -0.2888835 0.03845207 0.36568347 0.18492481 0.28341603 -0.2778223 0.02273858 -0.064482674 -0.081832044 0.3559707 0.22417109 0.46785402 0.3369484 0.23682334 0.20936361 -0.046106514 0.031077571
42 -0.1633723 0.17183828 -0.15293515 0.118483596 0.31835398 0.35509598 0.27439255 0.33726224 0.6340872 -0.06321964 -0.2525118 -0.020085705 0.14923203 -0.1932734 -0.15599817 -0.3333861 0.4454055 -0.05054724 0.018819679 0.39297536 -0.13850686 -0.18838929 0.15190029 -0.04802065 0.16398281 0.13158707 -0.085275665 0.15092343 -0.020340115 0.04788738 -0.2398008 -0.056417484 -0.094975695 -0.2391311 -0.4789137 0.34713966 0.30488673 -0.22390825 0.009317488 -0.04107168 -0.12265671 0.1445624 -0.116191044 -0.33648655 0.10570752 -0.3015007 0.30593175 0.116204776 -0.07932427 0.17413639 0.08695814 -0.04781975 -0.150577 -0.034166526 -0.109993614 -0.091952346 0.22731812 0.24987637 0.17838602 0.021022595 -0.022758665 -0.08354224 0.2064917 -0.15319672 -0.103478305 0.5038661 0.081849925 0.17211947 -0.17207064 0.1309821 0.043185018 0.1025934 0.16125718 -0.27868435 0.10583237 0.22892188 -0.26362458 -0.33302832 0.0160825 -0.06061408 -0.039054237 0.17157458 -0.41705135 0.14622822 -0.0027532007 0.2999442 0.42944658 -0.29548723 0.1899527 0.18670656 0.23888569 0.145025 0.023760727 -0.16400762 -0.020824537 0.38045716 -0.20990784 -0.0021367003 -0.3888124 -0.20046161 -0.32554057 0.116308555 -0.18588664 -0.008170259 0.036688678 -0.3149296 0.03489294 -0.0823154 -0.24453205 0.2599872 -0.22934224 -0.13625999 0.06308414 -0.19590423 0.45686772 -0.12069534 0.0076985224 0.19440821 -0.031038605 -0.20187457 0.16798955 0.13823499 0.28611726 0.29238802 0.040308867 0.36665714 0.021552678 -0.3920374 -0.0104066515 -0.3003178 -0.14959876 0.5404966 -0.08206294 -0.38601178 0.08500493 0.17722233 0.1600242 0.13621016 -0.19044204 -0.073486835 0.19167505 0.06929968 0.06007726 0.07394499 0.02777011 -0.29475966 -0.18659174 0.13728918 0.36422008 -0.49496967 0.08288564 -0.009439083 0.0776012 -0.01239161 -0.22934455 0.074468285 -0.247843 0.18025666 -0.10585592 -0.043189228 0.26640797 0.12844129 -0.20122929 -0.0193194 0.12958407 0.36706468 0.28462926 0.017910847 0.23266762 0.20660599 -0.019292098 0.36293745 0.18245383 -0.060399238 -0.23381603 0.08351582 0.1347994 -0.024607899 -0.07175178 -0.2610712 0.15519975 -0.08776539 -0.20934203 -0.10334788 -0.44454715 -0.066049166 -0.05446108 0.01737538 -0.16998136 0.07257122 0.1621077 0.031504445 -0.27792647 0.041083418 -0.13272907 -0.49762136 0.36586332 0.1213522 -0.08016 -0.10993424 0.38255867 -0.09703381 0.23535258 -0.46873745 0.41875488 -0.16323656 0.14730024 -0.061109517 0.33871755 -0.08637116 0.15805708 0.17517032 -0.14229393 0.035420932 0.04732806 0.28941926 0.020752596 -0.80861413 -0.5223684 0.22075897 0.34747973 0.7097959 0.15280572 0.12388034 0.3965626 0.32080802 -0.17336383 -0.30281305 0.06187681 -0.0017072625 0.38676232 0.030184772 0.040282883 0.009278954 -0.1643034 0.08341208 -0.14866278 0.041885614 -0.12993027 -0.33974376 0.31278124 0.22872949 0.5420695 0.19666421 -0.41318604 -0.40846598 0.33855453 0.45271927 -0.2261686 0.31477273 -0.18360084 -0.008099923 -0.18324049 0.30610356 -0.07735177 -0.022563528 0.5265736 0.21930204 0.23855951 -0.23855004 -0.32954365 0.27977785 -0.0491025 0.21095037 0.14289127 -0.043745615 -0.3911343 -0.4188084 -0.16731887 0.31743968 -0.019570135 0.22833155 0.055009373 -0.045107987 0.20459501 -0.0034363572 0.44691303 0.093390614 -0.25984564 -0.09289093 -0.03388133 0.49462077 0.08325322 -0.21508202 0.0683788 -0.068321735 -0.081135504 0.4092348 -0.049606707 0.39797238 -0.071118064 -0.3195856 0.4454614 0.08828488 0.16630763 0.44133028 0.109558545 -0.05163431 -0.28847936 -0.326638
35 -0.4528189 0.22508678 -0.12452374 -0.018115278 0.13295436 -0.34609467 0.1582617 0.58841866 0.22674279 -0.29245377 -0.26063344 -0.001458407 0.49816287 -0.44584906 0.013370542 -0.2966106 0.41791585 -0.25818703 0.19443631 0.09060519 -0.26256132 -0.11293226 -0.0712993 -0.27873385 0.17106454 -0.026313405 -0.33336988 0.3678793 0.12477639 -0.25785998 -0.17236625 -0.29756865 -0.13480435 0.40506414 -0.15292597 0.21921192 -0.1885384 -0.52658767 -0.12116649 -0.3347277 -0.2419301 0.023088198 -0.04884866 -0.25037685 -0.048162553 -0.49815908 0.1554047 -0.12283233 -0.56894445 0.23586415 -0.0095220255 -0.0819851 -0.02572478 0.08112154 0.25482467 0.01127756 -0.04950831 0.45428887 0.05342856 0.024826804 -0.015989866 -0.061635952 0.06511466 -0.06812793 0.1005712 0.3597903 0.340174 0.2119206 -0.04604669 0.23903535 0.27318963 0.19077888 0.3482975 -0.12594731 -0.068701036 0.12760966 0.16001968 -0.4755082 0.053398952 -0.08548732 -0.22419517 0.13047309 -0.3465824 0.19521134 0.10986976 0.02158423 0.44124427 0.19854873 0.40382552 -0.3234245 -0.3018923 -0.30975854 0.47666395 0.2841274 -0.24792755 -0.17294091 0.13895807 -0.07484743 -0.422168 -0.082145795 -0.23559305 0.37446523 0.17977211 -0.1338542 0.04130681 -0.38648966 -0.59427327 -0.056213826 -0.031991627 0.2209607 -0.12404207 -0.46691012 -0.32042384 0.36609852 0.344084 -0.25201923 -0.4493105 0.23779115 -0.009079432 0.007338754 -0.124399476 0.021697419 -0.057962872 0.31034514 0.21165204 -0.13299856 -0.23834935 -0.12998898 0.11693176 -0.026191982 -0.08042847 0.229229 -0.28903544 -0.2336806 0.2088192 0.021706466 0.04341704 0.25077882 0.32809794 -0.31548175 0.20688531 0.13555796 0.12236508 0.29744852 -0.042429995 0.16643724 -0.6449699 0.5407794 0.34581578 -0.28181905 0.0016551996 0.14281128 0.46792394 -0.025238266 0.13863575 0.44021967 0.3186089 0.22866644 0.34766665 -0.19614781 -0.33001515 0.20163974 -0.3339216 0.091099076 -0.29218006 -0.20467795 -0.0036291888 0.1947446 0.2233621 0.2589498 0.25820112 -0.42867765 -0.13907877 -0.14193833 -0.21093221 -0.4420582 0.19100854 -0.057681963 -0.10801279 0.2051113 -0.06030095 -0.121822335 -0.052210715 0.015909277 -0.40251327 0.076177955 0.07832243 0.1139046 0.13622262 -0.26037937 -0.09328294 0.34431076 0.06276979 0.32303953 0.004468666 -0.20334147 0.21506563 0.13753772 0.09067879 0.272892 0.14778759 0.0848707 0.116153054 -0.12531304 0.41893268 -0.18713447 0.08514256 -0.13756402 0.23000988 -0.40424278 0.4445556 0.0675598 -0.017390206 0.04383707 -0.051180687 0.21157539 0.14330271 -0.50392044 -0.050498184 -0.37517017 -0.09966973 0.25704858 -0.2560671 -0.33066466 -0.086245775 0.23216558 0.076077394 -0.07919011 0.34477594 0.29680923 0.45760036 0.057510246 -0.23233135 -0.15520221 -0.28447562 0.057587393 0.12583768 -0.09163648 -0.24589701 -0.35539573 0.21297099 -0.07884613 0.49249732 -0.1433627 -0.50369453 -0.2513291 0.071962036 -0.060138516 -0.24061273 0.06433185 -0.30849126 -0.044950884 0.1200778 0.22981313 0.09599213 -0.021307478 0.14842087 0.03949437 -0.26617038 -0.16741285 0.1816069 0.041622244 0.13894184 0.38817534 0.2550007 -0.008469639 0.17660907 -0.29693833 0.03349136 0.002123374 -0.11844381 0.21246013 0.26315197 -0.19955619 0.2873246 -0.08862323 -0.1043341 0.02587823 0.10399243 0.10244144 -0.020204676 0.14097461 -0.074295275 -0.05958968 -0.1488885 -0.16024575 -0.45525345 0.38928252 0.17625198 0.2790088 0.41521654 -0.17366661 0.28994605 0.018114952 0.24192826 0.50056875 0.10686218 0.096233636 0.07484526 0.13705693
59 0.43914878 0.17704065 -0.12150884 -0.03931953 0.29818085 -0.14015381 0.14864844 0.19268563 0.5246815 -0.29261974 -0.03334802 -0.013776251 0.22989462 -0.3775399 -0.290628 0.16842014 0.025722854 -0.011909893 -0.41269022 0.10505013 -0.32126686 0.10803946 0.11179838 0.30437812 -0.25172573 0.30452812 -0.1857361 -0.1351152 0.1909912 0.074856706 0.0047598006 -0.23474042 0.07301648 -0.1460371 -0.20279133 0.3843964 -0.3540787 -0.3992576 -0.069792055 -0.15971352 -0.141058 0.5463328 -0.12950021 0.07753345 -0.13262266 -0.12997164 0.38384512 -0.068822995 -0.16781771 0.19264412 0.08490958 -0.27724758 0.33798295 0.10636966 -0.08669663 0.1293331 0.18270944 -0.056307275 0.46665254 -0.4320668 0.09668402 0.12878652 -0.082377955 0.36142343 0.10350589 0.25550154 0.53047705 -0.16859144 -0.36005518 -0.09150777 0.023970634 0.2326143 0.22376572 -0.18750909 0.108690105 0.45786497 -0.07464925 -0.4274962 -0.077489346 -0.605563 -0.305948 0.10745939 -0.25981355 -0.135546 -0.04014795 -0.011736223 0.036538254 -0.0030459196 -0.20100303 0.31669834 -0.021687806 0.40176645 0.14328577 -0.07998716 0.26402175 -0.08108456 -0.10492313 -0.22938201 -0.2614016 -0.20229627 -0.2744054 0.55485725 -0.3073085 -0.07152399 -0.46463925 -0.1281462 -0.0717672 -0.4289767 0.32440177 0.29747847 -0.13141005 -0.53172916 0.027146854 0.15140465 0.01991133 0.23444228 -0.079078294 0.09980745 -0.015776824 -0.15634783 0.15185858 0.47587034 0.17950359 0.3011569 -0.17016542 -0.09946383 0.05119719 -0.46311706 0.22564726 -0.22230166 -0.13407275 0.21421796 0.30398497 -0.15894504 -0.01839281 0.17149383 -0.25079128 -0.018975804 0.32921746 0.24536353 0.0979685 -0.38141066 0.40908027 0.2018505 -0.14143363 -0.29933482 -0.55164427 0.4803751 0.0070847985 -0.62699807 0.20016421 -0.21762817 -0.048998892 -0.07884849 0.27963886 0.13080192 0.21135937 0.21122916 -0.09327061 0.028242184 0.22528441 0.33751085 -0.30139953 0.24337697 -0.011124774 0.0006473659 -0.0074449023 0.39281154 0.17122962 0.18153027 0.2233136 0.0009740791 -0.07703074 0.31362885 0.07379697 0.19151978 -0.16159587 -0.22154692 0.22549736 0.085974164 -0.29390067 -0.19372098 -0.07774136 -0.24765481 -0.44397485 -0.23982346 -0.23203273 0.07257331 -0.14231224 -0.14938119 0.19666883 0.06763507 -0.004195911 0.53608423 0.05974087 -0.08908041 0.22474246 0.06819702 -0.12042539 0.042038795 0.13931265 -0.15701526 0.23059456 -0.24422668 0.58047163 0.13875832 0.10738968 0.23298644 0.13770244 -0.32395503 -0.06810394 -0.40557557 -0.22009848 -0.028182697 0.023978377 0.3335882 0.17169991 -0.076520994 0.20105162 0.28581673 -0.14824997 0.057579804 0.14502524 -0.44498473 -0.26220626 0.159812 0.14212653 -0.05925872 -0.07638789 -0.022889651 0.09262715 0.22742327 -0.094723895 -0.10079272 0.054206587 0.20968269 0.44652805 -0.2932549 -0.25039536 -0.07627985 0.12899458 0.37408423 0.22941267 -0.26927337 -0.25774255 -0.0350567 0.20033237 0.35791734 -0.028058674 0.08501966 0.022418754 -0.13541183 0.6392662 -0.20563288 0.0888713 -0.2116988 0.2292218 -0.044873785 0.15085003 0.16908197 -0.06486245 0.35749054 0.21293505 -0.19893596 -0.30094257 0.09174982 -0.24553534 -0.26190415 -0.41358954 0.037353158 -0.11879932 0.12632531 0.22943664 -0.08553918 -0.110539794 -0.19589429 0.14750987 0.3766695 0.15248652 -0.14829503 0.1350275 0.106684 -0.2620639 0.1353239 -0.0990716 -0.13413651 -0.18703316 0.043412432 -0.25245565 0.10886099 0.22283171 0.16369988 0.27671152 0.13518253 0.10955008 0.4342863 0.03690574 0.043973006 0.19637847 -0.09587235
46 -0.029352104 0.092703365 -0.31055748 0.14381017 -0.11394577 -0.10591448 0.09416859 0.2895309 0.531275 -0.0058813817 -0.10737338 -0.120488666 0.3797213 -0.31014836 0.17270747 -0.09874066 0.40388185 0.043503862 -0.08088691 0.18546605 0.058879506 0.12878364 -0.2354089 0.33714038 0.11751977 0.31286404 -0.55350137 0.34724796 -0.38901725 0.17744827 -0.18884951 -0.29124194 0.004110354 -0.032671396 -0.2224366 0.15860754 0.34508356 -0.27173632 -0.32077974 0.1276611 -0.38739672 -0.0006812207 0.0067682904 0.20128971 -0.29120472 -0.2065347 0.109303206 0.14293528 -0.14583248 0.33541027 0.14826143 -0.15659653 0.17193761 -0.41516486 0.25917977 -0.20964263 0.02441729 0.286757 -0.00080739893 -0.002076666 -0.13333687 0.3200011 -0.10563784 0.14634033 0.057084598 0.28105265 0.100592695 -0.15083499 -0.14850317 -0.036661584 0.12763831 0.5683235 0.38299888 -0.2811368 -0.11416827 0.113424264 0.21612519 -0.0005403529 -0.06079624 -0.09402685 -0.043394696 0.48469678 0.06463631 0.01669771 -0.12045517 -0.08115178 -0.1368102 0.17527127 -0.094716325 -0.03282704 0.10637586 -0.008356776 -0.017730525 0.39768842 0.27452523 0.4077683 0.08008364 -0.18517551 -0.14170909 0.20323035 -0.22199619 0.18632405 0.14084765 0.18941465 0.03724355 -0.15137032 0.17128918 -0.123816885 -0.25675654 -0.12280544 -0.21111718 -0.06275543 0.013104713 0.37971717 0.17987697 -0.11509234 0.09155522 0.21680245 -0.19924162 0.106043525 0.613305 0.15239659 0.18726932 0.37602437 0.34038213 -0.121895455 0.13604143 -0.17967033 -0.14504129 0.01486413 -0.13938329 0.64007306 -0.22473642 -0.2690814 0.34034553 0.24564604 -0.03830237 0.1481845 -0.00888811 0.01388894 -0.05697589 -0.065573364 0.3733588 0.60202265 0.23157372 -0.3306965 -0.31646684 0.16078982 0.22549818 -0.056673475 0.15813501 -0.18640886 -0.27322984 -0.134263 -0.18347065 -0.17858328 -0.30095208 -0.108097255 0.039774492 0.29271308 -0.19677737 0.0555515 -0.19072126 0.1100657 -0.4377379 -0.22208631 0.016331127 0.6266978 0.11326457 0.38336697 -0.19496442 0.19085631 -0.027769309 0.07942893 0.14557779 -0.072096646 0.14032054 -0.09818421 0.047853794 0.2775914 0.07244802 -0.26383412 -0.12883504 -0.17492805 -0.05360926 0.0050379154 -0.17457923 0.030879183 -0.051857095 -0.22069277 0.02572634 0.33194602 -0.37174326 0.29002798 0.067644104 -0.04545005 0.088988446 0.03151996 0.23243545 -0.060735673 0.03590084 -0.048890192 0.023194073 -0.41295442 0.39971903 0.13634937 0.16291477 -0.2875113 0.24750245 -0.06274721 0.294762 -0.41041574 0.009391489 0.005440026 -0.13640313 0.042858858 0.16033162 -0.30113074 -0.17517059 -0.06715778 0.17338751 0.31659007 -0.26133224 -0.07248762 0.0007638238 0.13877192 0.20456547 -0.5999845 -0.19622104 0.08434581 0.1449135 0.022493443 -0.35594192 -0.30271515 -0.13135298 -0.098307386 -0.050781727 0.28981516 -0.109535754 -0.26097932 -0.04518801 0.09543219 0.86299247 -0.20490518 -0.17383163 -0.17454404 -0.18907958 0.19621755 -0.24646279 -0.113941684 -0.21185125 -0.042552367 0.4164456 -0.010223015 0.06429663 -0.27167127 0.4201357 -0.0630423 -0.021434886 -0.01665569 -0.016442666 0.35159805 0.2513622 -0.105699025 -0.082969956 -0.20273003 0.0025393001 -0.1606261 0.2142892 -0.6469241 -0.018530095 0.23788692 0.07056429 -0.05966143 0.075264744 -0.10839245 0.4560411 0.04427883 -0.22952148 -0.27561516 -0.07139093 0.43894666 -0.08178625 -0.48173055 -0.1960911 -0.15982851 -0.09846766 0.27252436 0.15074806 -0.03247379 0.28577873 0.17693584 0.15390813 -0.1133473 0.13267751 0.4009112 0.59267646 0.120344885 0.5627424 0.3313988
