52 128
9 -0.04902361 -0.020940304 0.54361236 0.08455036 -0.21404575 -0.36518726 0.17313248 0.47454453 -0.4592485 0.3478745 0.40639374 -0.30297628 -0.3940628 0.15401241 -0.1228137 -0.23895015 0.45599893 0.4034428 -0.40050828 -0.016367482 0.32385948 0.24151307 0.2848821 0.24934727 -0.106642544 -0.31893808 -0.14637022 0.39452136 -0.41821098 -0.112682566 -0.7141356 0.1229282 0.056609295 -0.22734503 -0.2810518 -0.15747821 0.64833766 -0.4203992 0.059815966 -0.27892536 -0.3714501 0.2877757 -0.40754393 -0.20137046 -0.21709935 0.06381837 -0.20543163 0.002038187 0.04934703 0.18110172 0.02872333 0.25802875 0.11387853 0.09904383 0.34245345 -0.18274938 0.27671435 -0.18964413 0.00300843 0.5643248 0.0960508 -0.115131296 -0.044855308 -0.20080495 0.037149124 -0.02066265 -0.40494838 0.26268566 -0.27260813 -0.086184844 0.42054695 0.29690614 -0.44111708 -0.4385546 0.24490301 -0.44234946 0.03280847 -0.40613332 -0.21399783 0.035398643 0.060245678 -0.051406853 0.45547894 0.38266623 -0.11258651 0.28938767 0.5698332 -0.26883066 -0.038588107 0.4532238 -0.11470193 -0.17112859 0.27799177 0.12113737 0.49297252 0.37730315 -0.5923153 -0.7367809 0.0046616974 0.047689192 -0.3846426 0.3355995 0.118564546 0.27383414 0.38456944 -0.11364672 -0.019942794 0.059895616 -0.12353113 -0.4892911 0.07149678 -0.32209808 0.0747183 0.45768416 0.23424976 0.1263014 0.5892497 0.51312673 -0.030038819 -0.024141021 0.11917476 -0.45603675 0.37421677 -0.055503923 0.19372466 -0.0686551 -0.31286925 0.22651206
8 -0.15405409 0.1076429 0.552521 -0.07586356 -0.019850232 -0.6924365 0.31254643 0.25961557 -0.18374474 0.31980142 0.4893747 -0.16449904 0.17143847 -0.59830534 0.33608845 -0.13850018 0.23915729 0.49975255 0.27596435 0.09200182 -0.08317516 0.45273945 0.17714117 -0.048219137 0.0049327468 -0.05482439 0.047588658 0.31355715 0.09089966 -0.028921368 -0.46611696 0.27380478 -0.4328873 0.18893313 -0.5331537 -0.09094241 0.56390166 0.32123604 0.42798996 -0.59563553 0.22948362 0.3668791 -0.013843622 0.016192168 0.19971474 0.6506405 -0.06908455 -0.2232085 0.17491132 0.261915 0.14976613 -0.035199143 0.22459324 0.2276079 0.38328034 -0.1355015 0.014074879 0.010712421 0.16772923 0.08216729 0.23909105 -0.30212662 0.07948665 -0.02976479 0.33367085 -0.2836237 -0.28688192 -0.065780245 0.24123354 -0.13236426 -0.14400959 0.14461003 -0.27408534 -0.1821975 -0.1934277 -0.11131437 0.087447286 0.19301036 -0.5021792 0.604422 -0.17642729 -0.0012879169 -0.099734545 0.42558554 0.31883654 0.2856328 0.6006216 -0.2712725 0.22902197 0.29902375 -0.54269195 -0.5760337 -0.1760515 -0.048541836 -0.003578423 0.0060262973 0.055403385 -0.25856394 0.07630842 0.033537358 -0.33936927 -0.043223813 0.56468946 0.22684819 -0.11341882 -0.14863251 -0.04634309 -0.0194867 -0.096594125 -0.35412455 0.2627057 -0.054957483 0.1317449 0.17135702 -0.29146254 -0.074995786 0.10885368 0.19698484 0.07783183 0.015051222 -0.41716504 -0.02628581 0.21775004 -0.008316681 -0.11557752 -0.3536517 -0.14753868 -0.058460988
11 -0.00651878 -0.46981853 -0.062194087 -0.111953385 0.1213941 -0.16155067 0.15387206 -0.09039717 -0.26435772 0.12925673 0.30533668 -0.030913819 -0.29003572 -0.024229273 0.29415134 -0.14338975 0.37325025 -0.062406473 0.09885841 -0.07988101 0.3417795 -0.007187793 -0.11846795 -0.032252748 -0.08233408 0.064163536 -0.18039933 0.005711109 0.3301764 -0.26967555 -0.5367633 -0.15483643 0.04006121 0.035796918 -0.12533613 0.34968513 0.10890266 -0.25431365 0.08133471 0.018535897 0.16831465 0.12022416 0.101474844 -0.09617201 -0.033014398 0.07598223 -0.23302564 -0.22139107 0.05410194 -0.06230659 0.35302603 -0.17435741 0.27036488 -0.10156859 0.19803819 -0.1311003 -0.009997424 -0.3833189 0.07860393 -0.07038057 0.45351017 -0.21766163 -0.19664961 0.11650235 -0.18006937 -0.27673584 0.027115287 0.33549416 -0.25258195 -0.067621045 0.2202024 -0.12450114 -0.3036306 -0.21737961 0.051012035 -0.08281721 -0.26177275 -0.09606996 0.15774402 0.19990778 -0.04780273 -0.36074963 -0.0028996672 0.38929892 0.26528028 -0.17375965 0.34772813 -0.19581763 0.42018327 0.020450538 -0.04337011 -0.07444607 -0.17927133 0.03248016 0.3963832 0.046954088 -0.12362617 -0.46658945 -0.3624103 -0.009774911 0.19383869 0.23404787 0.14044984 -0.28882977 0.35822162 -0.07432821 0.11283423 -0.20338707 0.4026918 -0.18509002 0.10154992 0.18176237 0.27524382 -0.32785162 -0.1016468 0.06852375 -0.08754083 0.505168 -0.000616002 -0.18640158 0.04602851 0.19646029 -0.21719289 0.48867732 -0.312933 0.020207252 -0.039804712 0.034170456
5 0.24183814 -0.24977838 0.11686019 0.16676669 0.02533929 -0.25469378 -0.36808193 0.00076984003 0.2602899 -0.106207676 0.19748 -0.11480078 -0.026216578 -0.16029729 0.053979754 0.029538125 -0.20596462 -0.18794483 -0.2088789 0.08092281 0.24550523 0.24895252 0.23064804 -0.14271335 -0.23793554 0.09826164 -0.35637918 -0.023130357 -0.04997787 0.11927227 -0.36941501 -0.08253147 -0.052488584 0.29853457 0.10995944 -0.011202507 0.24852502 -0.031215286 0.5069084 0.27845925 -0.18739931 0.12765414 0.14501655 0.005863306 0.012445004 -0.08826749 0.20970878 0.036082994 -0.20072922 0.069803424 0.40437657 -0.1741216 0.023182012 0.06406835 -0.13537002 0.3997999 0.47624266 -0.080785014 -0.36689395 0.09929022 0.0027141063 -0.29140434 0.19675 -0.08318816 0.40409908 -0.032032046 0.29726544 0.095619805 0.21655881 -0.21667676 0.09922029 -0.24451768 -0.405438 -0.22295731 -0.12399504 -0.43739545 0.0010065363 0.031765465 -0.009711715 0.27564523 -0.053062264 -0.08694181 0.1759211 0.25794217 -0.1385047 0.2847765 0.25682062 0.09235335 0.03576734 0.34279963 0.023232901 -0.26665804 -0.14217272 -0.20663127 0.37833574 -0.28622296 -0.30182737 -0.52123016 -0.046882767 -0.24504058 -0.29372835 -0.034481183 0.004689933 -0.07208197 -0.06596313 -0.3167382 0.008521871 -0.21336329 0.022804983 -0.22371611 -0.029912911 -0.1415063 0.11708502 0.084393196 -0.20437334 -0.01127314 -0.16750385 0.17585342 0.18069896 -0.021792958 -0.30975547 -0.2930477 -0.121412285 0.34378287 -0.044820882 0.013385136 -0.31336945 0.0022522106
10 -0.046732828 -0.49002615 0.03272749 -0.018341718 0.11051658 -0.12704886 0.049068343 -0.10067302 -0.3109488 0.000946728 0.22063664 0.05803139 -0.213335 -0.14098443 0.31971946 -0.19565926 0.29839942 -0.038627174 0.19601873 -0.15049176 0.3003369 -0.08460981 -0.05610097 0.06237744 -0.039826654 0.18554062 -0.071798034 0.022823444 0.32030925 -0.21057896 -0.6284216 -0.21264175 0.039488453 -0.09330036 -0.07911303 0.26693755 -0.04889304 -0.32543743 -0.029800778 -0.09838539 0.08019155 0.05791454 -0.016630454 0.0316495 0.06688908 -0.03141764 -0.24933504 -0.17352338 0.034198005 0.017921109 0.4477374 -0.23191789 0.27598017 0.005759901 0.0143700475 -0.1308769 -0.03603437 -0.40910637 -0.033921544 0.062698156 0.31933844 -0.16359179 -0.09571045 0.052354705 -0.32679096 -0.31183755 -0.014022963 0.31213036 -0.0745418 0.017745089 0.2147038 -0.14947979 -0.32106778 -0.30105916 -0.039201047 -0.0063511757 -0.23759393 -0.038448304 0.27606928 0.25193727 -0.27905017 -0.34387746 0.23323143 0.4707974 0.16564599 -0.31170487 0.36018568 -0.16999055 0.4488792 -0.0029601257 -0.06473738 -0.08811532 -0.07022707 0.06315604 0.4219385 0.041020405 -0.021641092 -0.42352515 -0.25632292 -0.08109882 0.12288533 0.20863731 0.04188802 -0.34545407 0.31401467 -0.1087356 0.17266817 -0.17559795 0.33997977 -0.18253924 0.23708943 0.042111322 0.21022806 -0.13121235 -0.28729224 -0.026346799 -0.10262836 0.4415497 0.11143102 -0.047283173 0.083068445 0.073574945 -0.078953795 0.48228773 -0.32182008 -0.14283401 -0.296759 -0.027461542
3 0.342897 -0.34525836 0.27033657 -0.040969804 0.2891022 0.06895135 -0.284941 0.04077743 -0.11292749 0.09731673 0.1667624 -0.35956168 -0.35158196 -0.13451092 0.15652852 -0.16255754 0.1969439 -0.38398573 0.01736508 -0.09139652 0.18389614 -0.013022192 0.17768605 -0.1643832 -0.09154228 -0.008074503 -0.28305542 -0.2186472 -0.117477536 -0.059058364 -0.33829522 0.011426069 -0.13476728 0.4017379 0.13964255 0.26388174 0.31105262 0.060748644 0.3700636 0.12436839 -0.08300366 0.01750719 -0.011547475 0.07554989 0.098828346 -0.2179096 0.09686398 -0.041136395 -0.38618872 0.22168772 0.2939166 0.09422749 0.061831687 -0.011385732 -0.0015455331 0.062002204 0.3235985 -0.23127972 -0.0037796104 0.17804968 0.13440318 -0.22162177 0.12123431 0.02367006 0.13897759 -0.23898703 0.2513763 -0.0465854 -0.10339319 0.07423844 -0.17685832 0.055123124 0.0015639695 -0.059558116 -0.13844573 -0.25442693 -0.10029551 0.054647774 -0.18374093 0.37064552 -0.33511177 0.1835107 0.02506541 0.018319497 0.00036769433 -0.008070294 0.31567848 -0.06113441 -0.048072364 0.16751681 -0.07093834 -0.4590163 0.025998697 -0.29815146 -0.044024523 -0.022995863 -0.2761392 -0.22011994 -0.4156272 -0.050622094 0.08044107 -0.1265738 -0.0702697 -0.06410385 0.34116387 -0.2968998 -0.24039377 -0.08840679 0.24381843 -0.14896579 -0.27970093 -0.09485606 0.3017013 -0.18303975 -0.38492045 0.27988923 -0.084493324 0.29659337 0.24622828 0.39045182 0.11968824 -0.1432368 -0.2623231 0.42532608 -0.07819926 0.18246117 -0.21948212 0.3085948
6 0.17271097 -0.38992968 0.09026405 0.00043199238 0.12977737 -0.08278861 -0.27357736 0.10687139 0.1550077 0.0553162 0.07503522 -0.26199865 -0.19775215 -0.08668444 -0.04828067 -0.112948276 0.22561806 -0.31646016 0.09627783 0.33030516 0.30797523 -0.073922105 0.17625938 -0.18199797 -0.23947605 0.22542587 -0.114688456 -0.12536669 0.03965171 -0.066116884 -0.21805218 -0.11254229 -0.22473538 0.4096029 -0.00069142657 0.27608988 0.10978015 -0.05975428 0.21519504 -0.040874306 -0.3539946 0.20678332 0.08938321 -0.05905473 0.3807382 -0.19044721 0.046516094 0.09101655 -0.36233422 0.11781807 0.17514329 -0.13331334 0.058201127 0.049147073 -0.0692953 0.07355905 0.19212979 -0.1279907 0.14893475 -0.18943475 0.092305355 -0.19025065 0.040287185 -0.23317298 0.27182856 -0.029979756 0.0018189015 0.1175191 0.009628012 0.05891168 0.05979077 -0.19886327 -0.28228897 -0.013363787 -0.10182991 -0.2882342 -0.05977553 0.0552694 0.08215998 0.2806113 -0.3472862 -0.15689495 0.06949392 0.04670346 0.10850568 -0.1727947 0.47327414 -0.1288014 0.19088659 -0.10199276 0.16311063 -0.4789306 -0.17093292 -0.26461163 0.3313233 0.048706476 -0.2158717 -0.41450572 -0.24462384 -0.020203637 -0.17954747 0.10020143 -0.07741944 -0.09755966 0.20599298 -0.021549482 -0.26009107 -0.27687392 -0.07315182 -0.14780383 -0.3566624 0.06524705 0.13695711 -0.18260385 -0.07575887 0.04178655 0.18779646 0.26332563 0.07080409 -0.1344399 -0.058943786 -0.19978535 -0.28367418 0.29713985 -0.14600787 0.0868152 0.087098554 0.09176405
1 0.23800048 -0.22612272 0.04489563 -0.017798545 0.1338892 -0.10541872 -0.28808612 0.14192083 -0.03726198 -0.06949102 -0.0020323563 -0.19388346 -0.19637784 -0.08713536 0.25964114 -0.1544911 0.029615788 -0.31956264 0.0042457827 0.1720533 0.37547687 -0.13503513 0.11670093 -0.20152646 -0.117528096 0.14858189 -0.23869286 -0.07894996 0.30024981 -0.02755634 -0.4648389 -0.038122896 -0.07538589 0.045000114 0.09700283 0.3804374 0.0644944 -0.028139645 0.078661405 0.07358325 -0.07089915 0.107331604 0.15721902 0.0148964515 0.14495187 -0.11413985 -0.08412308 -0.1565874 -0.294908 0.1176648 0.41457623 0.018596482 0.16543853 -0.053015053 -0.017044207 0.1202328 0.18579131 -0.08338754 0.080153234 -0.25560772 0.08712668 -0.24268287 0.054649577 -0.1588051 0.010174383 -0.008828147 0.3074253 0.12263443 -0.08299162 -0.07505024 -0.026009817 -0.21075538 -0.25747138 -0.03254467 0.005570194 -0.20028558 -0.11160042 -0.09213458 0.1823402 0.24444364 -0.27530745 -0.18082106 0.11089428 0.12286874 0.16130495 -0.33415598 0.45996007 -0.007144945 0.35770345 -0.07579772 -0.0975128 -0.24178162 0.008114401 -0.111251414 0.25986576 0.14031138 -0.2021347 -0.31964812 -0.2425391 -0.21959983 -0.112901635 0.23849411 0.03135277 -0.2191523 0.30309057 -0.12156617 0.033369385 -0.3320775 0.05278697 -0.0893263 -0.13276808 0.1613466 0.07141421 -0.30089068 -0.18685648 0.10319377 0.14285675 0.32697666 0.2305474 0.11321506 0.027895195 -0.09210226 -0.26405847 0.30503902 -0.16390882 -0.0028475292 -0.13474262 0.14188477
2 0.25079647 -0.25463605 -0.106665984 0.17095348 0.20441228 0.010347647 -0.26009548 0.010314741 0.19797884 0.1150292 0.1310628 -0.13136324 -0.052023478 -0.18283458 0.13582362 0.074702814 0.028437808 -0.34516704 -0.12959246 0.15615655 0.17010613 0.0067901537 0.17641035 -0.07293088 -0.23307572 0.12156926 -0.30947623 -0.12543486 -0.029931506 0.067326516 -0.37119547 -0.14346845 -0.100385256 0.14671914 -0.0016532822 0.15671304 0.15210813 -0.13223594 0.41427562 0.077244796 -0.25489625 0.10470195 0.0057797907 -0.13521911 0.10971379 -0.17396316 0.018369306 0.08244783 -0.2603382 0.22198422 0.45239076 -0.061806783 0.26264167 -0.10967753 -0.14289771 0.278924 0.42060786 -0.045560353 -0.08595698 0.10931964 -0.093637735 -0.20576485 0.0029966575 -0.030571138 0.17589426 -0.14832012 0.31874526 0.10094622 -0.056830067 -0.010586034 0.05280311 -0.0346791 -0.15865868 -0.10152591 -0.11128162 -0.40375322 0.028185038 0.16492869 0.105930306 0.40473935 -0.14106718 -0.17732096 -0.0106033785 0.24871057 -0.06592249 -0.03815862 0.48615897 0.10350451 0.17627758 0.1847208 0.100801975 -0.40519118 -0.050245777 -0.38189662 0.24982834 -0.18942831 -0.20396033 -0.4344469 -0.16554031 -0.23377757 -0.13073298 -0.06300471 -0.09007862 -0.07178472 0.20638555 -0.2512517 -0.035070814 -0.10490116 0.1257882 -0.13993384 -0.0195823 0.06225484 0.10142069 -0.0705179 -0.30031118 -0.05687682 -0.2018025 0.27427498 0.21954204 0.14732617 -0.08503373 -0.24434863 -0.038641084 0.30834618 -0.046893664 0.093814835 -0.17105907 -0.027913164
4 0.3265979 -0.2745402 -0.00722551 0.15343203 0.101254076 -0.05388142 -0.2676178 -0.000611257 0.21071704 0.00070595194 0.15496682 -0.19021755 -0.09805635 -0.108994156 0.17916693 0.09717567 -0.06291553 -0.27168363 -0.15363267 0.12071914 0.22158542 0.17168103 0.14709142 -0.12065142 -0.24417223 0.14175722 -0.29427707 -0.15446204 -0.0077241026 0.13659485 -0.4595936 -0.115216665 -0.051215354 0.24049872 0.02414713 0.14889331 0.2512102 -0.036582254 0.44915715 0.10711774 -0.27058434 0.14189556 0.14164494 -0.059293862 0.065110706 -0.13778289 0.017315788 0.029154345 -0.2977639 0.07470485 0.45646095 -0.14470345 0.15252988 -0.0035690842 -0.08557071 0.27495113 0.44543904 -0.078467354 -0.18241791 -0.02098895 -0.11674399 -0.23196878 0.005445603 -0.12289629 0.25900596 -0.077575505 0.24295346 0.068353064 -0.008640746 -0.051789287 0.025123307 -0.026992641 -0.2879229 -0.03490875 -0.1444597 -0.28928274 -0.0518053 0.14317724 0.0018097147 0.25771877 -0.13134448 -0.12481028 0.06673787 0.19068195 -0.051026326 0.024395086 0.35453746 0.018816212 0.09253232 0.21503435 0.048254028 -0.31857902 -0.14851968 -0.26869544 0.28469032 -0.18328835 -0.25104967 -0.35752094 -0.1291683 -0.23763445 -0.11406722 -0.09621433 -0.02104913 -0.07740126 0.09421684 -0.2637626 0.0076586334 -0.10824156 -0.0046712095 -0.22470452 0.021035124 -0.054359008 0.08388487 -0.0046490766 -0.17524321 0.033529174 -0.18156685 0.23635565 0.17073992 0.1262107 -0.06847603 -0.24492452 -0.11099096 0.34116894 -0.019680941 0.03485817 -0.2114354 0.03458611
7 -0.20488954 0.15120406 0.43577895 0.05927404 -0.029987022 -0.6795518 0.3528024 0.22748451 -0.28028613 0.26586142 0.4301561 -0.26351735 0.1446315 -0.56845856 0.45741922 -0.11023262 0.34913686 0.3993419 0.2887296 0.17082517 -0.10713448 0.47491264 0.059993558 0.03415648 -0.010002707 -0.10635048 -0.023332972 0.18455558 -0.012848863 -0.09882484 -0.46749517 0.20277901 -0.4734021 0.114181206 -0.4780882 0.030383028 0.63577783 0.36887833 0.44874796 -0.6250257 0.21314017 0.38038525 0.111354604 0.14125787 0.23621053 0.70637906 -0.14979741 -0.17802325 0.23730934 0.38073653 0.119656175 0.086069606 0.3621623 0.14969672 0.37971058 -0.13416259 -0.08811773 0.10151619 0.20400631 0.13155715 0.20628852 -0.2926435 0.085017525 0.01955994 0.32182923 -0.2668952 -0.25688487 -0.096852675 0.23749463 -0.105663106 -0.07270994 0.0881547 -0.30139372 -0.19440761 -0.14782396 -0.07355767 0.0449142 0.14255954 -0.46911907 0.6847077 -0.12046883 0.020107245 -0.081440635 0.5149244 0.25385952 0.21760568 0.62151945 -0.20091332 0.23277625 0.1964224 -0.50495636 -0.6225358 -0.18670085 -0.013922766 0.076266296 0.12715068 -0.05040998 -0.16207606 0.011928516 -0.024434993 -0.34213638 -0.08611461 0.54595494 0.32995176 -0.0076000616 -0.10469924 0.10482836 0.0112376 -0.11782245 -0.43610215 0.3110441 -0.007293863 0.13438943 0.0722374 -0.2955929 -0.14990756 0.14690943 0.12722309 0.031097915 0.09072957 -0.29328474 0.04895216 0.15280114 -0.054245345 3.696973e-05 -0.30292082 -0.038431533 0.042356048
vaccine 0.30593875 -0.35394225 0.0289828 0.043039065 0.18299226 -0.033010304 -0.28615743 0.11050149 0.123355925 0.012245945 0.057453364 -0.25433314 -0.185795 -0.1160956 0.1639707 -0.07217842 0.13092692 -0.3033497 -0.007820102 0.12191668 0.31889728 0.004022465 0.13288851 -0.15339656 -0.13643882 0.050145864 -0.2573951 -0.19382487 0.1079391 0.067062505 -0.3756638 -0.05006728 -0.05093428 0.23202278 0.022702375 0.24144955 0.14221951 -0.04349609 0.27844504 0.074880704 -0.18008174 0.062050246 0.09428981 -0.019211996 0.12867285 -0.18848285 0.008942092 -0.021091392 -0.30833447 0.14768079 0.2662785 -0.0860388 0.070183225 -0.029433684 -0.06332908 0.13383004 0.24651271 -0.12420227 -0.049285408 -0.070485406 0.052046966 -0.1441185 0.018153233 -0.15796222 0.2069208 -0.15152134 0.17835501 0.06042397 0.012436518 0.012488706 -0.030705858 -0.028219959 -0.23382616 -0.014426752 -0.13774295 -0.33661005 -0.1195568 0.13097039 0.019337341 0.34066474 -0.26398823 -0.03584588 0.0665773 0.057673503 0.101970896 -0.042688087 0.3656558 -0.07200716 0.14746636 0.124501735 0.04972854 -0.36035088 -0.10585376 -0.22969894 0.2348329 -0.015342143 -0.20541222 -0.35447267 -0.2571704 -0.12671378 -0.028540825 0.046231363 -0.10962732 -0.21352565 0.16849099 -0.19459882 -0.16577098 -0.13300751 0.07397542 -0.12455932 -0.18685043 -0.0015664509 0.1425907 -0.047892556 -0.25430098 0.061169624 -0.042023875 0.26270255 0.15948021 0.15862799 -0.034275007 -0.25589034 -0.27267435 0.3411787 -0.056931287 0.14661628 -0.16324313 0.17786093
inoculation 0.27333862 -0.38062334 -0.036598958 0.083813526 0.16445602 -0.015630418 -0.2788659 0.08466222 0.124909185 0.04005442 0.06278571 -0.22706468 -0.1779563 -0.10832871 0.14160109 -0.06485306 0.17086658 -0.335609 -0.0051766187 0.09314271 0.27987882 0.018565236 0.14538963 -0.15596464 -0.118538 0.027594838 -0.23813629 -0.15328504 0.085146345 0.06744997 -0.38114843 -0.089557886 -0.053458754 0.26767957 0.020973695 0.19884041 0.11673887 -0.06630432 0.30049476 0.094309226 -0.18553409 0.04501987 0.0608704 -0.018446958 0.15044312 -0.2012 -0.012764672 0.026594622 -0.28703222 0.13837706 0.25754416 -0.101434566 0.043586735 -0.028267678 -0.077963844 0.13546762 0.22349113 -0.16768724 -0.040646497 -0.011696244 0.060321283 -0.0814821 0.041322533 -0.15769015 0.19059782 -0.17505842 0.13400707 0.07550067 0.029890839 -0.00699296 -0.015548951 -0.031329397 -0.23761918 -0.054768063 -0.14782684 -0.36193147 -0.09812101 0.15296423 0.0023924168 0.33496225 -0.27214435 -0.027071724 0.073252924 0.066032715 0.10532009 -0.02757699 0.35362038 -0.057984225 0.12594014 0.11170189 0.0887914 -0.38287696 -0.10573756 -0.23743673 0.23982334 -0.04231777 -0.17833234 -0.36704725 -0.24828306 -0.106067985 -0.0044226027 0.03270082 -0.12667404 -0.20418367 0.1829484 -0.2153495 -0.18387519 -0.121149726 0.096916154 -0.1215948 -0.17918593 0.007909007 0.16681112 -0.037827846 -0.25358734 0.051025044 -0.028665354 0.25940382 0.11983627 0.09939958 -0.054464675 -0.23244762 -0.28316006 0.35713828 -0.06628556 0.15763354 -0.14717114 0.13215367
prevention 0.08272004 -0.37777904 -0.058373127 0.0008229539 0.12262456 -0.08927997 0.020991204 -0.07695313 -0.093359694 -0.012041548 0.16814995 -0.172237 -0.13072418 -0.08652705 0.32335916 -0.18480682 0.23611963 -0.2194324 0.09276937 -0.106965564 0.3194685 -0.026804825 -0.09965082 -0.10963848 -0.14452684 0.16319622 -0.15313639 0.018419737 0.32691085 -0.069093294 -0.5220104 -0.14002028 -0.0057882406 0.039096545 -0.08446206 0.22078304 -0.037397746 -0.2234162 0.021281747 -0.013139531 0.06334997 0.039954983 0.057933733 -0.013377918 0.022301473 -0.097596385 -0.17771702 -0.21479306 -0.028392404 -0.024638114 0.39517805 -0.25982875 0.14596346 -0.085494556 0.047112774 -0.11127599 0.042095877 -0.24127688 -0.07529357 -0.08902358 0.32125345 -0.21071202 -0.092256 -0.04992288 -0.13283385 -0.27623698 0.026354467 0.2405875 -0.1358555 -0.13551812 0.17133765 -0.17453729 -0.41654754 -0.16956179 0.032917332 -0.1987374 -0.12044505 -0.09561476 0.15786059 0.14219207 -0.14166594 -0.2905552 0.085015446 0.257814 0.20962876 -0.22605348 0.35924885 -0.10645441 0.38500246 0.028480478 -0.07981893 -0.045454293 -0.1649779 0.014243302 0.4027217 0.02659224 -0.093889914 -0.43346643 -0.3550717 -0.0796829 0.14581124 0.12953857 0.059981924 -0.312389 0.27655146 -0.16096327 -0.013058039 -0.20230879 0.3438778 -0.04324185 0.07137219 0.14882837 0.21441692 -0.18822189 -0.20920937 0.15506001 -0.13490869 0.32792887 0.02855998 -0.12515692 0.039058793 0.051477607 -0.14423905 0.43076473 -0.17760755 0.007405047 -0.10456084 0.04727099
recuperation 0.31973782 -0.33971426 -0.06584964 0.22128831 0.08567786 -0.12902431 -0.29846776 0.012362773 0.23862995 -0.01788469 0.09793319 -0.2281648 -0.064150706 -0.16051681 0.16478626 0.15060581 -0.09598823 -0.24963708 -0.15529606 0.066091105 0.20708631 0.19682044 0.18188952 -0.08577327 -0.15149075 0.06762263 -0.3060003 -0.16540173 0.042080935 0.048256584 -0.3783699 -0.09499276 -0.045591883 0.16181642 -0.01495757 0.23130825 0.2500665 -0.07354223 0.5028292 0.099512495 -0.21192805 0.061937973 0.120678745 -0.13200995 0.11456213 -0.13539627 0.06430529 -0.009999279 -0.30315325 0.21689875 0.3709694 -0.1324184 0.20070095 -0.03602394 -0.13294783 0.23130485 0.43114942 -0.047637347 -0.2200381 0.074699424 -0.069524445 -0.19334197 0.04763232 -0.023047093 0.25478163 -0.05265637 0.26402366 0.08706368 0.03187096 -0.07913102 0.083577424 -0.018850977 -0.26076332 -0.036920328 -0.09635946 -0.3893463 -0.12780024 0.17112091 0.05920978 0.3231128 -0.11018847 -0.115690395 0.048332117 0.23282325 -0.0349204 0.13002118 0.35220116 0.0024589153 0.15101248 0.2122102 0.085110225 -0.33270633 -0.047782835 -0.24405093 0.28085917 -0.12137057 -0.18305321 -0.39776903 -0.09511489 -0.19570047 -0.15146917 0.010140359 -0.08331434 -0.044510525 0.055617608 -0.2772744 -0.021871394 -0.03553579 0.054734513 -0.18243374 -0.042760253 -0.067090325 0.055149376 0.08870732 -0.29278964 -0.03001476 -0.110195205 0.22518712 0.1925092 0.18923716 -0.16213258 -0.31237486 -0.19156452 0.36863345 0.045202687 0.08043488 -0.27046624 0.04503824
coexistence 0.2955948 -0.34035286 -0.0680921 0.2317487 0.025758453 -0.16087691 -0.33178905 0.003775436 0.22596623 -0.037913013 0.08928757 -0.22525908 -0.060954064 -0.1297677 0.14144506 0.12980253 -0.12624127 -0.26714453 -0.15541553 0.0810429 0.2151409 0.21467575 0.18769364 -0.123907775 -0.15299095 0.08874193 -0.30628428 -0.134074 0.05978181 0.04723557 -0.42496157 -0.10738232 -0.060006972 0.17208274 0.017935859 0.22142853 0.22773385 -0.063867085 0.4754784 0.11392381 -0.22186528 0.080571584 0.14268532 -0.11038346 0.141261 -0.12410468 0.04357451 -0.014882108 -0.31007722 0.19479048 0.4108483 -0.12933727 0.17568423 -0.037642173 -0.14345399 0.2607228 0.42788726 -0.05852854 -0.19798571 0.053564172 -0.06783625 -0.1872127 0.082419254 -0.05936956 0.24383181 0.009781965 0.24353865 0.09881155 0.06634645 -0.13617693 0.085726224 -0.07874625 -0.30285937 -0.056793123 -0.07683069 -0.36251295 -0.1052887 0.13255355 0.06199195 0.26262867 -0.1252079 -0.12660822 0.09116518 0.23943995 -0.032407887 0.09606161 0.35278207 0.007776286 0.16173674 0.15526597 0.06823888 -0.3200529 -0.05577398 -0.20711154 0.29850352 -0.10487214 -0.18215321 -0.38903245 -0.07250197 -0.19840656 -0.18550614 0.036679115 -0.050494727 -0.006875669 0.038851492 -0.26258633 0.008140719 -0.085254356 0.00024287759 -0.18748805 -0.024608228 -0.07195932 0.04745973 0.069361195 -0.27355108 -0.013061566 -0.036120575 0.22026734 0.1674659 0.14085221 -0.18642935 -0.28615367 -0.21114166 0.3666133 0.022942137 0.055044506 -0.27594468 0.020452637
society -0.11387637 0.120041355 0.48661253 -0.10545402 0.008260378 -0.6702724 0.287034 0.27897406 -0.2521494 0.25918263 0.3846815 -0.23274232 0.13375235 -0.5332838 0.49683255 -0.18861283 0.3110834 0.48652405 0.26726213 0.07669627 -0.107594 0.4501491 0.14191172 0.031558745 0.026342457 -0.10589374 0.1362467 0.3043458 0.026362095 -0.07239322 -0.48309392 0.22242783 -0.35398212 0.17117219 -0.5388114 -0.026579717 0.51337695 0.36270994 0.36371157 -0.5696722 0.14242364 0.3251757 0.009117277 0.13586389 0.17305113 0.60764945 -0.06713177 -0.12787157 0.32499468 0.34532762 0.029613879 0.016085377 0.2945977 0.2058543 0.34634018 -0.03514695 -0.07493123 0.059072 0.22161648 0.16768482 0.2484647 -0.2465201 0.0140931755 -0.019809347 0.42858538 -0.2165689 -0.29924166 -0.17624475 0.21252576 -0.120274775 -0.069226615 0.088238955 -0.25248042 -0.27619797 -0.10884405 -0.111664705 0.02302356 0.17463736 -0.5079649 0.7098718 -0.14408512 -0.05331471 -0.10035845 0.47620088 0.20438196 0.23666213 0.5583394 -0.28846452 0.19356301 0.1546628 -0.55773276 -0.5654985 -0.105958484 -0.00642085 -0.0027231516 0.11280036 -0.04738466 -0.22424503 -0.0395285 -0.021492504 -0.3475365 -0.086648345 0.5268886 0.30548158 -0.07844537 -0.12067422 0.017028792 -0.102439106 -0.11289699 -0.34739932 0.20791593 -0.042808954 0.21450065 0.13907269 -0.33439556 -0.101768605 0.042521484 0.20046967 0.14032537 0.04008694 -0.41066203 0.003389888 0.18809037 0.062892206 -0.11288167 -0.30878258 -0.061372086 -0.0032179942
compete -0.09208374 0.11091054 0.51105213 -0.113445275 0.008317766 -0.67479223 0.28930214 0.2868103 -0.2600058 0.26375657 0.3987843 -0.23543946 0.116919816 -0.5344271 0.5056168 -0.20334356 0.31510785 0.4856851 0.256437 0.075314984 -0.10828916 0.46408424 0.14961763 0.027710093 0.029024806 -0.09598172 0.14087784 0.32788184 0.03811294 -0.07406198 -0.49090648 0.2342726 -0.34709528 0.1758404 -0.5539753 -0.044722922 0.51696414 0.3564186 0.3666741 -0.5529795 0.12897383 0.32151905 0.009702394 0.13099656 0.17673892 0.59963256 -0.06896608 -0.116435334 0.33391044 0.35316005 0.028130597 0.011310459 0.29019818 0.2028089 0.3280154 -0.014120412 -0.055823095 0.036736123 0.2292381 0.17896934 0.2687071 -0.26646656 -0.0033696566 -0.019938705 0.43925476 -0.2224551 -0.29771 -0.18797436 0.19898328 -0.11861773 -0.07254479 0.08830997 -0.25149626 -0.28335044 -0.0974704 -0.13139036 0.016568072 0.18606755 -0.500713 0.7124909 -0.16401681 -0.070164226 -0.10316531 0.47177824 0.194316 0.24841538 0.55220544 -0.28307217 0.20519435 0.17201073 -0.56970143 -0.56700134 -0.103707984 -0.0056199995 -0.019643294 0.10557351 -0.032359555 -0.22355516 -0.05005569 -0.003570847 -0.3434428 -0.087771915 0.5114703 0.2990716 -0.09946786 -0.114417516 0.016842559 -0.11473201 -0.119751945 -0.32394618 0.20760146 -0.042369142 0.23217174 0.14120698 -0.33024606 -0.10030439 0.020940823 0.21335603 0.15262647 0.02176199 -0.42304912 -0.008150284 0.187141 0.08571018 -0.13416266 -0.3097763 -0.064493455 -0.018066883
effort -0.12787499 0.08604866 0.46226662 -0.106271744 0.020244056 -0.66831326 0.25836203 0.27026826 -0.24525426 0.26880485 0.3945957 -0.21404698 0.14414564 -0.5624584 0.5008696 -0.18495984 0.32743666 0.4939454 0.28240913 0.047547314 -0.11954494 0.474192 0.1430613 0.022692293 0.051913235 -0.113868944 0.15113203 0.2795733 0.0022160579 -0.08895525 -0.49176887 0.20199671 -0.30577224 0.18951596 -0.5296137 0.008298971 0.53078747 0.3472214 0.37410536 -0.58064556 0.13481568 0.29223448 -0.0044666985 0.12883423 0.15841785 0.5798621 -0.05960073 -0.11776166 0.32983407 0.3636027 0.025053287 0.029522492 0.2924916 0.22568111 0.34189704 -0.051596362 -0.07614409 0.044660628 0.23279467 0.1932258 0.2526777 -0.2501638 0.014122768 -0.042820998 0.43390942 -0.19217162 -0.29631153 -0.1546747 0.18419608 -0.11727502 -0.061029937 0.08070042 -0.22955444 -0.2680889 -0.11778283 -0.102631815 0.0067789857 0.16886418 -0.5188058 0.72544384 -0.15855244 -0.054638587 -0.12677905 0.5060629 0.17684247 0.2553719 0.5761071 -0.2988641 0.17607796 0.15070507 -0.57245946 -0.54193544 -0.074178874 -0.019056492 -0.0004241641 0.12741432 -0.04261 -0.2183621 -0.040072963 -0.036561154 -0.34818774 -0.101508304 0.5468875 0.3002131 -0.0807746 -0.14161696 0.016727235 -0.07998154 -0.110526465 -0.3385303 0.19792706 -0.028110579 0.21639332 0.15817626 -0.3600943 -0.113175295 0.018719483 0.1984208 0.12143252 0.05455279 -0.42895856 -0.010502092 0.20627064 0.03876403 -0.110621706 -0.31472817 -0.04322516 0.026047833
Useless -0.11692829 0.13179806 0.48822957 -0.09458174 0.012025469 -0.6728998 0.31197494 0.2786983 -0.2738026 0.2521945 0.40568542 -0.24035719 0.12953082 -0.53337896 0.5039937 -0.1891564 0.34389642 0.4728407 0.27409163 0.1018228 -0.11247055 0.46893838 0.13055521 0.039766923 0.03289752 -0.094545975 0.12527697 0.3122708 0.031846944 -0.08574261 -0.489571 0.22884709 -0.37077984 0.16660523 -0.55522007 -0.03337072 0.54127926 0.37734783 0.37257513 -0.5886675 0.15200432 0.33306882 0.030443454 0.14568518 0.19468608 0.6296885 -0.0826883 -0.12775648 0.33481964 0.3660974 0.037533946 0.038162913 0.31382787 0.19536398 0.34304932 -0.030788442 -0.059440617 0.055959757 0.22947116 0.16897045 0.2614032 -0.26980728 0.019166732 -0.028314317 0.42250663 -0.23311944 -0.28018373 -0.18284568 0.20701389 -0.10412904 -0.060300205 0.08218513 -0.25649333 -0.26596427 -0.10906549 -0.114762515 0.025020247 0.17292753 -0.49243426 0.7101582 -0.15594737 -0.054910745 -0.10277676 0.48347613 0.21180001 0.24203236 0.55225456 -0.280558 0.20348148 0.16076013 -0.5536752 -0.5765719 -0.116283886 0.0014107041 -0.0056334217 0.117539495 -0.04916673 -0.20536524 -0.045171123 -0.010468025 -0.34736574 -0.097743295 0.50211525 0.3087191 -0.05924951 -0.11444045 0.031122899 -0.10825986 -0.11492178 -0.35004142 0.22198547 -0.034526143 0.20778127 0.115880795 -0.32491246 -0.11263743 0.04644095 0.19580868 0.12818901 0.037922677 -0.39651868 0.005534728 0.17527063 0.055216853 -0.115182415 -0.30980837 -0.06108351 0.0035461914
government -0.0014037098 -0.3771304 -0.012309536 -0.033388812 0.13851301 -0.14152963 0.1198518 -0.09407437 -0.2147862 0.03176368 0.2139994 -0.10409279 -0.16352016 -0.12983698 0.32756728 -0.1978492 0.31327608 -0.060288616 0.121913776 -0.0848079 0.3642262 -0.036866155 -0.090934604 -0.0027272229 -0.14053118 0.18502781 -0.12398822 0.06655666 0.34187338 -0.1872915 -0.6044006 -0.15995032 0.008280514 -0.048011273 -0.16437712 0.23108307 -0.0020716274 -0.29688254 -0.03132781 -0.07730657 0.095484175 0.06780833 0.025584545 -0.035883438 -0.015004949 0.034574818 -0.21528359 -0.23981053 0.037291005 -0.033211943 0.3654957 -0.25159165 0.26574606 -0.036722057 0.10914325 -0.17649588 -0.0041920114 -0.32345256 -0.045807697 -0.071725145 0.40290964 -0.2607888 -0.12188948 0.022915805 -0.24157228 -0.33348596 -0.02311405 0.3128915 -0.20127581 -0.08399948 0.243376 -0.16939645 -0.43117997 -0.24085219 0.033747684 -0.11802073 -0.20056319 -0.11659435 0.19306408 0.17484759 -0.124764964 -0.37851384 0.113708235 0.38080624 0.22847389 -0.2457591 0.39702427 -0.13989975 0.47428042 0.058897756 -0.1262097 -0.029428469 -0.17104301 0.062013514 0.46585268 0.047896747 -0.066176176 -0.48634735 -0.3415072 -0.06514306 0.15110834 0.19648059 0.11442896 -0.35545197 0.31600043 -0.12112016 0.09486935 -0.19965622 0.39347237 -0.13531937 0.15597385 0.1566288 0.238805 -0.22399561 -0.18993089 0.06205994 -0.13960925 0.42424893 0.021976046 -0.19358018 0.062582985 0.089715995 -0.06645062 0.45843956 -0.24953656 -0.08176533 -0.13184293 0.027709428
absent -0.0057425867 -0.33024865 0.039380945 -0.02872869 0.11515148 -0.09627172 0.097030394 -0.11626589 -0.17513058 0.016690796 0.20238256 -0.060785145 -0.14124647 -0.14483021 0.2800104 -0.17216218 0.3445159 -0.05271296 0.14928488 -0.07573702 0.33121467 -0.039782476 -0.08578391 -0.028051874 -0.1494735 0.20247641 -0.10199796 0.025635887 0.3038442 -0.18469127 -0.54481435 -0.11956396 -0.0317636 -0.02866377 -0.11991599 0.2430154 -0.008568527 -0.30504063 -0.06995469 -0.076453246 0.047637 0.08087018 0.05149416 -0.019282449 0.0038397652 0.050697062 -0.23018508 -0.20995593 -0.01663503 -0.029683042 0.36281586 -0.26025903 0.23559938 0.013547889 0.07772205 -0.20032997 0.0033926016 -0.31046003 -0.07425197 -0.08850887 0.347958 -0.27941126 -0.14127387 -0.006197004 -0.20192973 -0.37166005 -0.064611085 0.31392604 -0.19969167 -0.025595712 0.22038141 -0.16731605 -0.4533316 -0.24050774 0.021096148 -0.09073274 -0.24620211 -0.122929916 0.18204196 0.15873261 -0.15700918 -0.3711992 0.14175683 0.39913714 0.243915 -0.2338549 0.35850966 -0.15715371 0.4509604 0.030505385 -0.11570302 -0.065452784 -0.17416005 0.07825205 0.45411846 0.03985092 -0.039086044 -0.50217336 -0.3534727 -0.07150934 0.14733323 0.15486127 0.14167976 -0.35724172 0.3386146 -0.16908142 0.1113321 -0.21161956 0.39751598 -0.18267544 0.13364275 0.09939291 0.26144144 -0.2081843 -0.16596961 0.09170787 -0.14144695 0.42963737 0.0144670345 -0.20212315 0.13947025 0.07652432 -0.02024496 0.47442034 -0.27831993 -0.097454734 -0.11671208 -0.007862467
measures -0.006202954 -0.26344562 0.061557014 -0.06476185 0.18030368 -0.07878345 0.1455498 -0.04363545 -0.27591303 0.036342856 0.1600645 -0.108834654 -0.1409881 -0.1584555 0.3670712 -0.2302609 0.38633138 -0.057928003 0.16662017 -0.07766473 0.38094935 -0.09892923 -0.110268146 -0.0072619603 -0.12988146 0.18167508 -0.10789336 0.046338096 0.32934046 -0.17209673 -0.5837966 -0.10867042 -0.029146602 -0.09214142 -0.15496469 0.26697248 -0.021727214 -0.30897507 -0.11570966 -0.11801153 0.08832037 0.051402144 0.025207853 0.012523357 -0.044340797 0.04783163 -0.24641813 -0.25168848 -0.018847043 -0.019637585 0.36238426 -0.21277753 0.2876995 -0.0067311563 0.121171676 -0.2560168 -0.024580747 -0.30495578 -0.032775633 -0.0915499 0.38029978 -0.306483 -0.1543815 -0.00358303 -0.25769597 -0.41293916 -0.031951297 0.2874982 -0.252612 -0.014354791 0.17223762 -0.13758864 -0.41627288 -0.2216061 0.04120674 -0.107708395 -0.23378125 -0.15642117 0.18757886 0.21451476 -0.21333323 -0.3515138 0.12478019 0.37538916 0.2600944 -0.3122904 0.41190398 -0.14326812 0.50251365 0.03041818 -0.18177247 -0.06380823 -0.12122536 0.0903541 0.4159723 0.09912402 -0.0647735 -0.48847094 -0.4212156 -0.08468097 0.16264968 0.17096774 0.14623089 -0.41478243 0.38259736 -0.16074829 0.09369718 -0.21021749 0.4557337 -0.14228725 0.12825578 0.14523596 0.257979 -0.24994645 -0.21056747 0.13610892 -0.14084777 0.4408253 0.06471439 -0.14470276 0.17832631 0.08986745 -0.0020900038 0.45005712 -0.28835383 -0.12341452 -0.11727981 0.06026439
certification 0.21448746 -0.3303302 -0.031967018 0.04490609 0.13346 -0.08735695 -0.26670787 0.14219438 0.014617106 0.051841814 0.031380285 -0.32663035 -0.14393091 -0.0484539 0.19045237 -0.22208449 0.1563889 -0.44973627 0.06306497 0.20337947 0.34059107 -0.064021416 0.13510986 -0.24075118 -0.16058399 0.16456638 -0.17319494 -0.014868347 0.15829366 0.060314797 -0.45984724 -0.16365977 -0.12858355 0.25992566 -0.04734496 0.1877188 -0.0027549348 -0.083492726 0.12833866 -0.047749188 -0.21145877 0.10779392 0.065172605 0.0045846575 0.24349129 -0.2381101 -0.057130236 -0.04187653 -0.251034 0.11919602 0.3579564 -0.06640504 0.018311458 -0.11880335 -0.07635407 0.12772833 0.13938805 -0.121421784 0.16432242 -0.124410816 0.10847194 -0.106093325 0.06821288 -0.25752082 0.10043151 -0.04062461 0.124704055 0.08449071 0.032152098 -0.11693547 0.0016841298 -0.16311441 -0.29123867 -0.042928535 -0.04228722 -0.32035992 0.10058742 0.011133708 0.06947229 0.2544894 -0.33902404 -0.07061316 0.06947512 0.00080809917 0.106576316 -0.28941515 0.52263725 -0.046950456 0.22895819 -0.09226935 -0.020624822 -0.36505204 -0.09038936 -0.23203374 0.2868503 0.10368447 -0.21425077 -0.3760709 -0.29383564 -0.1025622 -0.07489289 0.13348013 -0.02290984 -0.14291848 0.21348163 -0.07760112 -0.20185117 -0.26264688 0.00061139395 0.011751308 -0.19916551 0.19487284 0.09714923 -0.1880573 -0.23057875 0.13733771 0.14974552 0.22828327 0.11481714 -0.03479846 -0.10880209 -0.1306663 -0.28558207 0.2526245 -0.07888632 0.08017608 -0.07223977 0.13017872
Normalize 0.33412048 -0.3116902 -0.0655456 0.13263753 0.095422596 -0.03698921 -0.27106696 0.05045787 0.20733084 0.04343823 0.07511828 -0.22467004 -0.0824452 -0.14916752 0.16242824 0.06977814 -0.030960804 -0.29478464 -0.14361408 0.16665696 0.2137325 0.13249525 0.18203567 -0.041516967 -0.2025486 0.12493458 -0.3255799 -0.24093325 0.007660304 0.08728158 -0.3271161 -0.07614399 -0.05177583 0.13310319 -0.090861045 0.1709495 0.19381379 -0.07847789 0.38569927 0.01938765 -0.22808719 0.12053222 0.110702865 -0.15126985 0.10096175 -0.18981877 0.06442619 0.0057069506 -0.31510815 0.22628504 0.44577336 -0.16246949 0.24238852 -0.110291004 -0.17583174 0.2782341 0.39304382 0.011530031 -0.0901103 0.06462099 -0.069346465 -0.18597274 -0.060084444 -0.041397456 0.30692455 -0.092451476 0.2658928 0.042111337 0.04760557 -0.07947276 0.04128744 0.035780743 -0.18115899 0.032634947 -0.13205558 -0.3959255 -0.037189346 0.17639531 0.06394402 0.40554184 -0.107971 -0.14025329 -0.03441486 0.18214712 -0.054662928 0.08383973 0.40652823 0.011833413 0.17222813 0.14657193 0.081271015 -0.3496703 -0.04837643 -0.30816278 0.24055474 -0.09113853 -0.23478137 -0.44441357 -0.17335479 -0.24461631 -0.14521591 -0.027598783 -0.0029259948 -0.013405438 0.04048855 -0.30449158 -0.050170843 -0.032330994 0.016332718 -0.17394243 -0.08518921 -0.03740245 0.069237225 0.090135425 -0.32173178 -0.028723095 -0.10536315 0.28365347 0.24139005 0.25534993 -0.19025043 -0.3970902 -0.18844633 0.31626028 -0.010417531 0.12449575 -0.23649405 0.03920456
state 0.27449054 -0.42001873 -0.059262034 0.24167827 0.011853909 -0.18002011 -0.3216111 -0.06256485 0.2702488 -0.053533 0.2033331 -0.10655033 -0.08681792 -0.1487141 0.07404962 0.1420424 -0.07617057 -0.28122848 -0.13666227 0.008829524 0.1343334 0.23327379 0.22110267 -0.14324333 -0.16522999 0.096811526 -0.26552573 -0.09252538 0.007259812 0.023271386 -0.36036453 -0.1490023 -0.0492425 0.25174132 0.042662017 0.11963666 0.21412385 -0.07905862 0.5070116 0.14971316 -0.20205578 0.09526647 0.09379397 -0.098813765 0.21371359 -0.13720345 0.067976214 0.055524953 -0.25013235 0.20229107 0.3941013 -0.19176756 0.1306857 0.0106893685 -0.15536545 0.28370893 0.4372225 -0.09615258 -0.24485952 0.12612319 -0.04606102 -0.1806004 0.10500758 -0.0057055755 0.25977623 -0.031894278 0.1816715 0.16114406 0.07143773 -0.14076878 0.19127049 -0.15055151 -0.30491477 -0.16251117 -0.10662979 -0.3583641 -0.095849924 0.1169729 0.06006761 0.2356062 -0.047778353 -0.15930097 0.09750057 0.33860764 -0.059496325 0.20848508 0.3296505 0.0023290175 0.10680129 0.20860976 0.10237307 -0.3284211 -0.07833119 -0.2494522 0.3404489 -0.17347147 -0.13058406 -0.44251114 -0.024392745 -0.18620887 -0.17989421 0.0035259973 -0.057147298 0.01941292 0.0473968 -0.29618105 0.017358845 -0.09269832 0.02308024 -0.22920842 -0.012245713 -0.0570006 0.075645134 0.08734676 -0.2446717 -0.062153105 -0.06426502 0.23242432 0.13514355 0.035316695 -0.22976226 -0.27290332 -0.18441698 0.42715585 -0.011342748 0.059775487 -0.24956727 -0.07768447
noise -0.08461039 0.038897548 0.6551296 -0.049829908 -0.1513383 -0.35129923 0.14933468 0.48139533 -0.5313316 0.46338555 0.41105908 -0.3622787 -0.479034 0.16191265 -0.15832174 -0.267426 0.4889021 0.45064515 -0.39582017 0.098995306 0.2438515 0.17864761 0.2576473 0.31873408 -0.1892043 -0.3545471 -0.1222872 0.39998323 -0.46231586 -0.08804755 -0.63967156 0.10591311 -0.038909648 -0.15952653 -0.26470205 -0.15579835 0.6224852 -0.3947256 0.031782225 -0.21774288 -0.3046222 0.21690872 -0.33397618 -0.19028552 -0.29725447 0.03199874 -0.076612316 -0.11509735 -0.013950715 0.096183434 0.08283162 0.27656436 0.18754667 0.100117356 0.30726537 -0.18320961 0.29874048 -0.15740542 0.042956367 0.54175574 0.16275156 -0.09680087 0.010254489 -0.21339352 0.03190604 -0.054409154 -0.45182642 0.20401819 -0.306974 -0.11729248 0.43557155 0.21432379 -0.45474118 -0.3625633 0.20419393 -0.5352984 -0.050681237 -0.47218165 -0.2567057 0.17540106 0.09961316 -0.04279675 0.45167202 0.29525653 -0.06467918 0.31157792 0.5180533 -0.24388286 -0.04790719 0.43921292 -0.12702346 -0.18981999 0.31108952 0.15668744 0.39018768 0.3594544 -0.5985609 -0.69362205 -0.020143647 -0.03972029 -0.33392677 0.29929972 0.02375058 0.24258626 0.38954833 -0.056366675 -0.071533374 0.025846116 -0.11358036 -0.47343886 0.053828835 -0.246591 0.16109505 0.3997533 0.25615975 0.025492925 0.5973343 0.42730042 -0.018030833 -0.031233061 0.111177936 -0.4271685 0.25707766 0.013817908 0.16328299 -0.11839617 -0.26907104 0.24389832
driver -0.08084643 0.027881438 0.6497638 -0.03383562 -0.156305 -0.3489338 0.15297179 0.47662 -0.5250206 0.45553827 0.4050946 -0.35254806 -0.46402362 0.16597198 -0.1436544 -0.27067804 0.48357353 0.4519239 -0.38918078 0.088759355 0.25733542 0.19073051 0.25653064 0.31173286 -0.17665176 -0.34725407 -0.13221161 0.40915272 -0.4474404 -0.088517725 -0.65022993 0.11837332 -0.022221005 -0.1581524 -0.25844938 -0.16533126 0.6292282 -0.40181917 0.035874236 -0.21445964 -0.31825998 0.22084147 -0.34875378 -0.18569687 -0.27282426 0.03537252 -0.09498929 -0.09905945 -0.0064846985 0.108290136 0.0715009 0.27725556 0.17136833 0.10783995 0.31059292 -0.1666152 0.2840084 -0.15715535 0.032365296 0.5525623 0.14215678 -0.108692475 0.019832721 -0.19249521 0.03326753 -0.04296326 -0.43169197 0.20391506 -0.29262578 -0.11257688 0.42731503 0.22969303 -0.45570385 -0.36727312 0.216899 -0.5187301 -0.03674784 -0.46380544 -0.23646294 0.14628723 0.08077608 -0.044367123 0.436109 0.3087105 -0.08148002 0.30264035 0.51859564 -0.23761036 -0.04121089 0.43950215 -0.12337056 -0.19161853 0.30156365 0.14535366 0.406931 0.3566266 -0.59761906 -0.69693196 -0.015513169 -0.01970913 -0.34322253 0.30747896 0.041373372 0.2420296 0.37660086 -0.053744897 -0.060154498 0.017796045 -0.112273775 -0.46490344 0.06008412 -0.2621152 0.14399725 0.4064908 0.23273633 0.04594649 0.5924778 0.43282166 -0.018703066 -0.022484569 0.11119682 -0.43451166 0.27509004 0.01884885 0.15751566 -0.11427146 -0.2940543 0.24734026
road -0.08955002 0.028412053 0.6518705 -0.047487646 -0.14017458 -0.33837795 0.1518618 0.48248035 -0.522721 0.46120077 0.40329868 -0.36514312 -0.47299066 0.16527279 -0.16079514 -0.27882478 0.49486357 0.46104038 -0.4055096 0.096993536 0.24317181 0.19001426 0.27202085 0.31200352 -0.18467963 -0.34253553 -0.11912896 0.39136612 -0.46077392 -0.087182365 -0.6472489 0.10751159 -0.04058895 -0.14576593 -0.26742834 -0.15962324 0.61865693 -0.40376994 0.02341213 -0.21343544 -0.3048458 0.21637708 -0.33013737 -0.19554082 -0.29775345 0.026450377 -0.08474511 -0.11311459 -0.0031186412 0.09041603 0.077117465 0.28493452 0.19656733 0.11660132 0.29343402 -0.1746719 0.29344687 -0.15301037 0.048311915 0.54481965 0.16624963 -0.1105864 0.019080844 -0.20511846 0.029221585 -0.04930936 -0.44699383 0.20296212 -0.3137048 -0.11526949 0.43193075 0.20416258 -0.45116147 -0.35283217 0.20794319 -0.5388789 -0.0470357 -0.46900788 -0.25736266 0.17320785 0.10350006 -0.045317296 0.4435847 0.30369344 -0.070634015 0.3027936 0.52338475 -0.23194665 -0.044467896 0.44293448 -0.11666533 -0.18955523 0.30294213 0.14829138 0.3924758 0.3541805 -0.59806275 -0.6903993 -0.03175156 -0.041134708 -0.32217294 0.28490126 0.02829114 0.25004378 0.39038426 -0.052857395 -0.07609509 0.024649525 -0.10496761 -0.4626697 0.06286388 -0.24038447 0.16143991 0.40903997 0.24529257 0.029524907 0.5846925 0.40705812 -0.010748008 -0.036177065 0.10160296 -0.42440957 0.27013814 0.020924797 0.16497584 -0.123291895 -0.27224672 0.24101047
dislike -0.08007372 0.021778088 0.64262867 -0.021196274 -0.16015172 -0.34672305 0.15302227 0.47861698 -0.52253056 0.45070753 0.41645953 -0.36041853 -0.46118817 0.16844551 -0.15681621 -0.26940712 0.4744496 0.4447855 -0.39875403 0.08142142 0.26876757 0.18617703 0.25762397 0.2999115 -0.18221603 -0.35700715 -0.13739567 0.39911914 -0.45715114 -0.08606855 -0.6546606 0.11878157 -0.016049394 -0.16878802 -0.2587069 -0.16719636 0.631658 -0.39600912 0.04199755 -0.22800507 -0.31971684 0.23320012 -0.35741034 -0.19355243 -0.28279024 0.040457293 -0.103198774 -0.09911565 -0.0015961257 0.1131648 0.07444243 0.28142256 0.16541691 0.11218087 0.30554074 -0.17833336 0.28895962 -0.1629721 0.029630074 0.55945474 0.15130717 -0.112739295 0.011029079 -0.2029446 0.029261362 -0.04375208 -0.4456636 0.21660006 -0.29287434 -0.107850425 0.41768104 0.22535534 -0.4547789 -0.37073174 0.21695413 -0.5232703 -0.042318955 -0.46453726 -0.24836195 0.15280932 0.08643359 -0.04110113 0.45516923 0.31343418 -0.0685852 0.30578104 0.52279484 -0.2460774 -0.05055692 0.43126324 -0.12752594 -0.19024886 0.29389018 0.1509723 0.40647462 0.3508823 -0.59339255 -0.69489765 -0.024890698 -0.022695374 -0.34863797 0.3078011 0.039325405 0.24229117 0.3796083 -0.05760211 -0.058221236 0.027278842 -0.10652972 -0.47843784 0.056841567 -0.25629836 0.14996178 0.4038148 0.25187504 0.047362197 0.6015434 0.4446961 -0.019186154 -0.022553388 0.11630578 -0.42997327 0.28327817 0.01427109 0.16483416 -0.10387997 -0.27623177 0.23960923
child -0.08807114 0.03308882 0.66564274 -0.050905403 -0.15103409 -0.3429265 0.15924558 0.4782998 -0.5282763 0.46256092 0.41203025 -0.35966295 -0.47346172 0.16598155 -0.16036834 -0.27578747 0.49223667 0.46564418 -0.4064601 0.09932714 0.2517849 0.18385625 0.2657009 0.3165423 -0.18810412 -0.35719892 -0.12219251 0.4075802 -0.46819007 -0.0805131 -0.6429902 0.10594869 -0.03334158 -0.15284932 -0.26856002 -0.16321631 0.6251894 -0.39831907 0.029080227 -0.21086021 -0.31003273 0.21141323 -0.33494812 -0.19661987 -0.29292393 0.026946 -0.0792704 -0.11570888 -0.005238429 0.09642626 0.07231188 0.2783192 0.17959899 0.115598895 0.29444712 -0.17137091 0.2879157 -0.16550599 0.039804764 0.5572198 0.15755561 -0.102669194 0.010576885 -0.20791464 0.01955802 -0.049373556 -0.4488484 0.1944136 -0.31373498 -0.10931955 0.4342054 0.20705877 -0.4550228 -0.3534216 0.21163596 -0.53580993 -0.040967125 -0.47488752 -0.24268903 0.17353883 0.10018523 -0.0365565 0.44990036 0.30245912 -0.07903424 0.3052754 0.50943846 -0.2386939 -0.039788455 0.42954576 -0.12598112 -0.19185159 0.30350164 0.15373434 0.39368278 0.3569108 -0.5988623 -0.68370634 -0.034997616 -0.03340472 -0.3343679 0.29821658 0.03400955 0.2476572 0.38427237 -0.04672267 -0.06117341 0.014918741 -0.10958923 -0.46373728 0.05450574 -0.23751462 0.16083443 0.4098142 0.25470176 0.027376954 0.5909171 0.41019458 -0.020027468 -0.037499387 0.113113165 -0.4256984 0.26330572 0.027486924 0.16174097 -0.12089034 -0.2806093 0.24284074
damage -0.08662721 0.036265142 0.65895516 -0.042179063 -0.1484681 -0.34894907 0.14898768 0.48347953 -0.5308918 0.46536347 0.4047084 -0.36572483 -0.47651082 0.1602028 -0.15335934 -0.27141315 0.48890886 0.45860705 -0.39722902 0.09566613 0.25200245 0.18865006 0.2599905 0.31322426 -0.18867211 -0.35405082 -0.13091478 0.40720147 -0.464723 -0.0850064 -0.65305287 0.10849635 -0.03550192 -0.1622459 -0.26630262 -0.17056902 0.6324103 -0.41070572 0.034376282 -0.22119303 -0.30437833 0.2183871 -0.34926105 -0.1867943 -0.2963641 0.034832846 -0.08490848 -0.115247674 -0.015777217 0.09597015 0.0843573 0.28518608 0.18489969 0.10938593 0.3110831 -0.17745806 0.30181396 -0.15474463 0.037334546 0.5602318 0.14840676 -0.10855228 0.026483014 -0.2000958 0.020323072 -0.04946493 -0.44146588 0.20391886 -0.30336827 -0.10705038 0.43229428 0.225323 -0.45797473 -0.35757366 0.20669433 -0.53451145 -0.047077153 -0.4751429 -0.24866292 0.15621592 0.09253557 -0.042346478 0.44749784 0.30449876 -0.075224645 0.30972457 0.52400273 -0.2288718 -0.04821128 0.4453045 -0.12753084 -0.19141339 0.29880723 0.15094298 0.39401913 0.34829193 -0.5977984 -0.6921891 -0.026094286 -0.026196899 -0.33164376 0.30777353 0.02990024 0.25140277 0.39110577 -0.053573076 -0.06169391 0.01676174 -0.11252412 -0.4680935 0.06363741 -0.2552244 0.14390744 0.4117349 0.24070042 0.043829154 0.596507 0.42443475 -0.014683049 -0.021251224 0.107211635 -0.43571225 0.28013545 0.018744906 0.17235085 -0.12591082 -0.28692985 0.25072253
scientific 0.014795841 -0.3962106 -0.016557824 -0.18968628 0.11098593 -0.08284508 0.2711707 -0.05915417 -0.20852768 0.15325415 0.30010438 -0.1436251 -0.2571998 -0.05824169 0.37309438 -0.2507549 0.52589196 -0.039877046 0.12970227 -0.105831236 0.34068045 -0.036479354 -0.2593555 -0.0052611213 -0.163627 0.08645614 -0.15765733 -0.017319916 0.36446732 -0.11763744 -0.55945146 -0.02714801 0.024396826 -0.012123714 -0.18194617 0.3052955 0.015101302 -0.24890083 -0.06869917 -0.069789924 0.14073637 0.17873798 -0.00058349676 -0.068668716 -0.07814031 -0.012048399 -0.30597147 -0.2624913 0.022209637 -0.064714395 0.3748495 -0.26031417 0.25359043 -0.13804136 0.18188007 -0.2258349 -0.08514158 -0.22343144 0.04601633 -0.112901926 0.45569733 -0.19802241 -0.31444013 -0.041495737 -0.11340939 -0.40225896 -0.1543044 0.2528509 -0.2594627 -0.11331084 0.1653001 -0.095492385 -0.38849747 -0.148735 0.058129307 -0.15542915 -0.22189923 -0.12381328 0.07855349 0.17538649 -0.039694235 -0.39871404 -0.015067472 0.34135208 0.37325403 -0.21115282 0.3819772 -0.2972431 0.45792124 0.03209124 -0.090825446 -0.010949298 -0.23130587 0.10916947 0.4012956 0.09242842 -0.14459233 -0.5087251 -0.45113587 -0.06854601 0.23698665 0.09274535 0.17147416 -0.31855333 0.37395728 -0.14212571 -0.028689267 -0.19269423 0.41819635 -0.13064569 0.10300709 0.13849446 0.36372414 -0.223849 -0.11778232 0.17024794 -0.13110927 0.48413056 -0.047184758 -0.10768073 0.12333486 0.09200059 -0.1556383 0.4886849 -0.3054517 0.039558373 0.041902095 0.05868815
entity 0.026202096 -0.35957864 0.020019026 -0.13539344 0.067059405 -0.08420399 0.23005876 -0.15200089 -0.08355501 0.067052975 0.32260185 -0.048019797 -0.20597094 -0.105597705 0.3106894 -0.14634107 0.39729413 0.013209981 0.07108061 -0.12896173 0.28041822 0.0036901846 -0.25256607 0.037591856 -0.21906675 0.15767965 -0.17073435 -0.043585483 0.3189387 -0.099364325 -0.51687735 -0.00013000792 0.038066093 -0.029806651 -0.08498767 0.28085312 0.023637397 -0.2483621 -0.015876217 0.017650612 0.103281334 0.20776308 0.004359218 -0.06521239 -0.08896288 0.0025978032 -0.26959488 -0.2101823 -0.01754962 -0.07306446 0.41460583 -0.31805435 0.2854919 -0.06766453 0.100362115 -0.16169976 0.016070062 -0.15940781 -0.12800366 -0.097001776 0.34472415 -0.26264942 -0.27957302 -0.017797679 -0.076420866 -0.38491982 -0.12675162 0.26597965 -0.23380916 -0.11153143 0.20736347 -0.1691591 -0.4190617 -0.18570557 0.027225347 -0.12549597 -0.2776628 -0.14383215 0.1136758 0.1086485 0.033710845 -0.47953027 0.03902845 0.45195094 0.3000384 -0.13949749 0.3084282 -0.2510865 0.4436685 0.09977768 -0.049348008 0.045461528 -0.2425382 0.1291874 0.43386018 -0.0303459 -0.12642483 -0.5191321 -0.34152168 -0.1530334 0.16378522 0.012621293 0.16573611 -0.29109982 0.31865537 -0.21656741 0.07631183 -0.19156061 0.40100646 -0.20117857 0.16239086 0.03172859 0.35388356 -0.18556477 -0.10740996 0.11405628 -0.21764514 0.4789805 -0.030877251 -0.101419225 0.12702721 0.03134496 -0.0720335 0.5459715 -0.32722008 -0.011503227 -6.19769e-05 -0.030520294
Entry 0.3079285 -0.118966475 0.23374972 0.02902912 0.26537466 0.026934838 -0.20303693 0.18690695 -0.117899254 0.07040793 0.120610595 -0.19330117 -0.2637079 -0.109402336 0.2614972 -0.077089675 0.21956539 -0.41165996 0.031824563 -0.06890238 0.2543549 0.017399827 0.14252546 -0.26208642 -0.011104153 -0.20451999 -0.30660507 -0.15077914 -0.07902308 0.17205079 -0.34311005 0.034169532 -0.079704225 0.28120425 0.23395681 0.31535617 0.25581518 0.072086886 0.3692485 0.17554288 -0.1437366 0.03599363 0.068460494 0.15733571 0.034474052 -0.18327786 -0.020794315 0.040580038 -0.45161176 0.25752124 0.32730746 0.19243757 0.010879581 -0.0026687272 0.01634378 0.054716762 0.3102662 -0.15311253 -0.05469138 0.09750952 -0.039521445 -0.19684564 0.062308997 -0.18846972 0.20528015 -0.27979293 0.22827742 -0.041519202 -0.08683858 0.1761321 -0.25033423 0.062887296 -0.0077362442 -0.024051212 -0.13150553 -0.34178492 -0.18008788 0.03657423 -0.14118461 0.46563053 -0.38823488 0.22747397 0.033370223 0.11589052 0.08477267 -0.04240668 0.36428186 -0.114279784 0.0022521769 0.15401289 -0.03184336 -0.50943154 0.16970861 -0.22614343 -0.010003832 0.0035887111 -0.2917593 -0.26818284 -0.42434597 -0.1650344 -0.07013617 -0.095911816 -0.13195674 -0.19399533 0.32873335 -0.32427743 -0.14631428 -0.095837004 0.18496704 -0.15262432 -0.2077064 -0.12794305 0.18246832 -0.11542408 -0.31467268 0.26781026 0.0686447 0.3074926 0.29093575 0.40636656 0.19362286 -0.10201409 -0.22711483 0.3639138 -0.09969308 0.072204374 -0.20720693 0.276719
daily 0.32721585 -0.40129113 -0.0018870945 0.29251796 -0.019977912 -0.32464445 -0.33930495 -0.049124192 0.271851 -0.08815584 0.23411465 -0.21226081 -0.09002985 -0.11845499 0.12936327 0.20500433 -0.21940343 -0.21190177 -0.24243 -0.039835818 0.18020721 0.37027776 0.21549062 -0.18525292 -0.15542452 0.016519012 -0.34485242 -0.05248583 0.020898027 0.04159502 -0.48743376 -0.09703642 -0.03317917 0.29121542 0.08656347 0.18630603 0.37344944 0.0067108315 0.6773852 0.23003443 -0.1885342 0.10836566 0.14260133 -0.09025572 0.13563989 -0.09155572 0.09504716 -0.008210015 -0.27150226 0.19714797 0.38803732 -0.12163502 0.11733722 0.025710184 -0.08764491 0.3224821 0.5361572 -0.07879054 -0.35991699 0.13109708 -0.06883773 -0.20910028 0.18869244 -0.02717781 0.2964195 0.088964455 0.24004972 0.1198432 0.08525446 -0.21530613 0.15945257 -0.1476054 -0.36549374 -0.16465457 -0.05755978 -0.36843118 -0.1342233 0.10305488 -0.028403996 0.17613181 -0.0052625285 -0.09302307 0.13850684 0.32202145 -0.089344904 0.27547327 0.29983124 -0.01937629 0.049682643 0.3099777 0.06083235 -0.30208445 -0.081067264 -0.19364776 0.32898325 -0.19303307 -0.19572291 -0.37037736 0.04902066 -0.17439216 -0.24886924 0.010316808 -0.088166654 0.071067765 -0.0009837614 -0.26108202 0.03433268 -0.08163813 -0.0177795 -0.23092419 0.037787024 -0.13842832 0.052016057 0.10111913 -0.23015793 -0.029242026 -0.052581195 0.17332427 0.1267039 0.08919286 -0.253921 -0.23747447 -0.21874794 0.4142663 0.09485499 0.050985325 -0.32278445 0.018166807
stage 0.27752087 -0.33663693 0.008240826 0.29832625 0.004622972 -0.3258295 -0.35094786 -0.044666894 0.28704053 -0.10499544 0.22950897 -0.19083513 -0.06568292 -0.14214754 0.08588315 0.17774223 -0.21292035 -0.23843968 -0.23168322 -0.024375085 0.18351206 0.31848547 0.26268888 -0.2029044 -0.18207426 0.028842356 -0.32371867 0.0014263651 0.006647746 0.04113569 -0.48106095 -0.12335892 -0.07490643 0.31255147 0.11078082 0.1536501 0.3375015 0.0014271702 0.6583403 0.24579656 -0.21426518 0.10060161 0.11125246 -0.06783508 0.1584796 -0.079787955 0.11474957 0.022368275 -0.25777668 0.19784614 0.3304953 -0.10330695 0.07295808 0.06831922 -0.099811904 0.311427 0.5245111 -0.08990295 -0.37827244 0.11152596 -0.062212363 -0.22677587 0.25201994 -0.05989009 0.28571972 0.07337608 0.22941375 0.12476735 0.09131226 -0.21025904 0.17208788 -0.2128116 -0.39517576 -0.21479346 -0.0652848 -0.3977689 -0.10815268 0.07048653 -0.016094215 0.1775086 -0.03299637 -0.07581709 0.17830057 0.31544894 -0.10073589 0.24942392 0.31982368 0.022536162 0.051461127 0.32507795 0.059138738 -0.32515067 -0.07803234 -0.20077053 0.36287147 -0.21858875 -0.18282098 -0.3747435 0.064271085 -0.1723495 -0.28980064 0.023993546 -0.12528953 0.023096243 0.027731529 -0.25302306 0.016599458 -0.123299524 -0.011989037 -0.22135702 0.021239884 -0.11647764 0.061867606 0.06667594 -0.20618287 -0.041931592 -0.034366798 0.1470754 0.12746093 0.008033052 -0.2413206 -0.22531791 -0.17681028 0.40106207 0.08579143 0.012408954 -0.3092126 0.0074882824
force 0.18768668 -0.2605069 -0.05349674 -0.015245489 0.17178896 -0.20792669 -0.18518625 0.13442557 -0.08150242 -0.010754688 0.088921554 -0.31643716 -0.17023322 -0.043799896 0.3671336 -0.23014097 0.01791147 -0.3837207 0.017047662 0.012490575 0.41297212 -0.056865107 0.03628723 -0.21393786 -0.0884979 0.07247225 -0.2625059 0.06464462 0.31618553 0.08942674 -0.55584925 -0.1457631 -0.03478449 0.12586914 0.01421895 0.2737076 0.016116543 -0.049599107 0.20368832 0.066456206 0.004541993 0.05594121 0.063050486 0.026451197 0.04579432 -0.20702773 -0.06252016 -0.19354579 -0.14834264 0.058906816 0.37204847 -0.0022401547 0.03569655 -0.15538333 0.02911022 0.12528749 0.09707001 -0.068411395 0.037917018 -0.12754366 0.17494734 -0.13294607 0.12696159 -0.19933061 -0.016062943 0.0030598566 0.29362953 0.08020562 -0.00090846984 -0.2280851 -0.03693901 -0.24355558 -0.27762017 -0.07715234 0.021246277 -0.32382 0.07766443 -0.06496278 0.09374293 0.23568149 -0.25207222 -0.07913274 0.04425161 0.055790372 0.1486354 -0.3437925 0.49625388 -0.037000056 0.29819405 0.026427792 -0.13137794 -0.19280192 -0.041364424 -0.1508526 0.32183155 0.06767517 -0.26227394 -0.30824164 -0.29923967 -0.16344635 -0.060223494 0.19823125 -0.06469497 -0.23484802 0.21289375 -0.057941247 -0.12074015 -0.26779604 0.11148829 0.069068395 -0.073175974 0.22439897 0.086692564 -0.28043658 -0.25989422 0.16842546 0.06066197 0.23623773 0.1873688 0.030163147 -0.14625755 0.02182692 -0.344926 0.27350798 -0.062731676 0.03065839 -0.14218065 0.22477947
obligation 0.22816864 -0.36454123 0.03742626 0.042443823 0.07652692 -0.023805073 -0.30258504 0.125851 0.079865046 0.08030477 0.050063416 -0.2583018 -0.19215487 -0.04292051 0.048839256 -0.18607368 0.25231338 -0.44445336 0.06850408 0.29246217 0.2637903 -0.026807202 0.20837513 -0.28470418 -0.19068004 0.17855628 -0.112292565 -0.08134889 0.055635296 0.040439647 -0.3983836 -0.13180038 -0.1863245 0.37832814 -0.034117967 0.15272988 0.060370963 -0.04456197 0.13398953 -0.072879896 -0.3282695 0.17121665 0.07792222 0.0045046923 0.3728447 -0.20880081 -0.07374236 0.06225459 -0.33125263 0.12710384 0.333959 -0.07133604 -0.018514477 -0.046176106 -0.1034309 0.15290673 0.18003812 -0.1546493 0.25096756 -0.16342883 0.051290244 -0.07974475 0.028329907 -0.30219868 0.19857791 -0.053081658 -0.00562191 0.11031134 0.0302448 -0.028785735 0.022102423 -0.11502028 -0.297238 -0.025145216 -0.10336566 -0.25221315 0.04554881 0.058734115 0.02038908 0.23081644 -0.34974855 -0.06851311 0.1029198 0.012870143 0.118165396 -0.20982775 0.50801075 -0.097623855 0.13850288 -0.14766921 0.050142884 -0.47835723 -0.13829754 -0.2774904 0.25078186 0.10320145 -0.1863722 -0.38810125 -0.25558847 -0.09157881 -0.080022015 0.09538031 0.016666174 -0.053064216 0.24274899 -0.093706176 -0.20975658 -0.29063815 -0.10689104 -0.10686138 -0.25948274 0.14549132 0.119654916 -0.15623392 -0.12930392 0.10076343 0.23576178 0.26547942 0.048146855 -0.07404786 -0.04780015 -0.18586092 -0.26290235 0.26465335 -0.13381329 0.118188396 0.00030563958 0.0629359
virus 0.28252515 -0.39262912 0.03362682 0.312705 -0.008753653 -0.32159808 -0.37717652 -0.061531693 0.24568489 -0.09833821 0.22625516 -0.22500908 -0.08765099 -0.12974556 0.11227825 0.15844178 -0.22304416 -0.2240401 -0.21168138 -0.067768596 0.16698803 0.35305178 0.22246058 -0.20988779 -0.15369838 0.016460909 -0.33530277 0.015439511 0.0072591105 0.030306807 -0.52753854 -0.12046522 -0.05800268 0.3071748 0.12582506 0.14063291 0.3452045 -0.0043206234 0.65514433 0.24772257 -0.17848673 0.068591826 0.102361105 -0.050834198 0.13127743 -0.08422055 0.10629444 -0.01756697 -0.22253574 0.16939072 0.36159354 -0.08478815 0.049491037 0.04309235 -0.08097984 0.30682668 0.5105736 -0.1166228 -0.37032998 0.1599615 -0.033927433 -0.20433977 0.26573128 -0.03684777 0.24425235 0.08897498 0.23920128 0.12910247 0.11395328 -0.23880436 0.15748836 -0.19419676 -0.39077467 -0.22963403 -0.04334006 -0.35898226 -0.087027885 0.06769724 -0.047901377 0.13547353 -0.04935745 -0.047650207 0.19726005 0.29508024 -0.10728554 0.2368183 0.28438622 0.018703543 0.029261783 0.31533107 0.02297672 -0.2985065 -0.08845373 -0.17945221 0.32748058 -0.2135907 -0.18415698 -0.33524832 0.05345877 -0.1440873 -0.22727418 0.0101982085 -0.10080476 0.05467452 0.014129345 -0.23955752 0.020659659 -0.111197546 0.019332394 -0.1952991 0.053251695 -0.13922717 0.07491052 0.07925525 -0.24725017 0.011562323 -0.06414184 0.12889774 0.1098953 0.052320097 -0.24319445 -0.18481284 -0.17241089 0.40119445 0.087824985 0.03376024 -0.34809294 0.016843569
lack -0.18333347 0.033668835 0.448859 -0.1419395 -0.020978242 -0.6799638 0.23692223 0.2208113 -0.15855433 0.22223069 0.31448 -0.18941517 0.1690919 -0.55182666 0.3966604 -0.13287729 0.259494 0.542313 0.32574856 0.043974448 -0.064669155 0.44883695 0.13409771 -0.009626958 0.0871605 -0.15009017 0.10287794 0.21669208 0.036813825 -0.09819512 -0.4973426 0.1996505 -0.34230077 0.24772146 -0.49348417 -0.0025115565 0.49389318 0.31276542 0.3665557 -0.6228358 0.14300896 0.30865517 -0.031334255 0.09503524 0.115805596 0.61581314 0.0050097117 -0.1727719 0.29051074 0.35988328 0.018741297 -0.012981578 0.2559593 0.22496869 0.41714978 -0.07793228 -0.07745028 0.045675557 0.20069297 0.19872771 0.23239739 -0.23382472 0.036979545 -0.07214096 0.37180972 -0.1810282 -0.26637015 -0.07006965 0.17961621 -0.11996945 -0.10171778 0.1131552 -0.2944491 -0.22711691 -0.18508524 -0.10615051 0.012933218 0.11279919 -0.57849884 0.7097693 -0.1125204 -0.02392388 -0.11262378 0.56547683 0.2580289 0.3084338 0.62672096 -0.33031476 0.1536684 0.18585022 -0.56746715 -0.6136883 -0.034397423 -0.04889766 0.028053356 0.06902029 -0.05810079 -0.21502961 -0.08115725 -0.024051903 -0.3420907 -0.050580114 0.5914852 0.29216358 -0.019221181 -0.14594983 -0.038179427 -0.008740777 -0.059613846 -0.41144648 0.23626646 -0.047754448 0.21931249 0.21614875 -0.44994935 -0.119246885 0.044619657 0.16409722 0.100948334 0.08196813 -0.4952812 -0.0006102841 0.26881742 0.0016654647 -0.070775196 -0.3194536 -0.062880196 0.014842379
more -0.18734643 0.054445334 0.46331745 -0.14168082 -0.029950807 -0.67650294 0.26364875 0.22497481 -0.16282935 0.21294057 0.34287688 -0.17512687 0.17014903 -0.54245144 0.36463606 -0.13486186 0.25783408 0.538716 0.3130931 0.066466406 -0.068038926 0.4636395 0.13234779 -0.02940426 0.07716185 -0.1254534 0.084026866 0.24782582 0.066848814 -0.09873963 -0.5004891 0.21827763 -0.36585775 0.24397397 -0.50741106 -0.03328153 0.49919355 0.3189867 0.36920553 -0.63132375 0.15877365 0.3189124 -0.02316132 0.07671984 0.14634717 0.6318219 0.0020632646 -0.19589613 0.2813077 0.34770617 0.035082553 -0.016385192 0.2470759 0.21947278 0.42550957 -0.06383552 -0.047406886 0.030815585 0.18483253 0.17602497 0.24327336 -0.25362867 0.05926741 -0.07895092 0.35500988 -0.20265289 -0.24638467 -0.068641685 0.1897536 -0.11976692 -0.105684154 0.13071944 -0.3003582 -0.20118244 -0.19580056 -0.1181207 0.03820027 0.13074137 -0.55768967 0.68008304 -0.12669814 -0.019560128 -0.09648019 0.53222585 0.29314744 0.3135239 0.59279317 -0.3199744 0.1725378 0.20220535 -0.5454222 -0.60274726 -0.06573497 -0.033304147 0.022608802 0.050171815 -0.042138647 -0.2088567 -0.055730928 0.0021792552 -0.34298015 -0.057842538 0.54977196 0.272499 -0.02982512 -0.13540064 -0.05190976 -0.015102328 -0.06236455 -0.39908496 0.24663725 -0.04265743 0.19344752 0.21783613 -0.4291022 -0.1123434 0.056626793 0.16140728 0.09410306 0.07533844 -0.47876945 0.0035070796 0.2500411 -0.0063365535 -0.073604204 -0.3270383 -0.07400783 4.788334e-05
excessive -0.0630188 0.17379616 0.5294651 -0.049682185 0.044580225 -0.66198313 0.33162934 0.3218386 -0.3283588 0.33822635 0.5019836 -0.24789946 0.11414625 -0.5779413 0.5463522 -0.21142818 0.3640978 0.43255007 0.22566591 0.109635115 -0.15810819 0.4694233 0.16343349 0.038189806 -0.029474005 -0.062110413 0.13630152 0.35510015 0.004550913 -0.04082304 -0.46203622 0.25306952 -0.37148708 0.12176209 -0.5810118 -0.0332194 0.5894554 0.39128733 0.40124014 -0.54431945 0.177017 0.33836585 0.039661005 0.14111988 0.23636505 0.6064035 -0.14537528 -0.10495547 0.29618767 0.31504467 0.099555954 0.036618974 0.3096333 0.19776595 0.27303398 -0.05326836 -0.03549882 0.046908736 0.24995682 0.1253135 0.2540265 -0.28961426 0.0112187425 0.022041311 0.44984794 -0.25918737 -0.32157943 -0.22707714 0.2370162 -0.108593434 -0.05733362 0.07082159 -0.19727686 -0.29269975 -0.05977355 -0.115341656 0.037342746 0.23383027 -0.44899416 0.68917 -0.20599887 -0.0646519 -0.109968975 0.40352646 0.16744587 0.20053165 0.5271624 -0.23885706 0.2392002 0.18044016 -0.5574379 -0.5165834 -0.18420908 0.0030289318 -0.028401824 0.13887303 0.004406111 -0.24307422 0.03742725 -0.020113934 -0.32748818 -0.12122873 0.48159876 0.28152046 -0.13190822 -0.12615506 0.058995705 -0.14103182 -0.16050912 -0.29462355 0.18631403 -0.029279074 0.19143377 0.062474087 -0.20444767 -0.086589284 0.06176571 0.24051274 0.14553039 0.0034503122 -0.32457167 -0.010190361 0.11203262 0.09309869 -0.15265203 -0.298731 -0.07863943 -0.005900027
inspection 0.26635966 -0.404226 0.023957418 0.034382336 0.0071324278 -0.024357477 -0.29293653 0.104672365 0.14633426 0.10876592 0.099417955 -0.3137283 -0.22218713 0.0027345927 0.05653009 -0.15865189 0.27960268 -0.4891354 0.043856468 0.26738924 0.20578423 0.032374617 0.15233165 -0.32428437 -0.223226 0.17483589 -0.1350126 -0.09584956 0.0453738 0.06917034 -0.39776006 -0.09580076 -0.1957915 0.43911383 -0.00744432 0.17851177 0.09844756 0.006239197 0.18258645 -0.046984166 -0.3476132 0.23262312 0.07502944 -0.029056411 0.410815 -0.25482425 -0.10651395 0.06062917 -0.36775908 0.1317588 0.39777085 -0.08020582 -0.020232376 -0.08957724 -0.1026709 0.17696254 0.22106239 -0.082876 0.27421406 -0.15152279 0.031557277 -0.052625142 -0.0070800153 -0.3332458 0.26726735 -0.019294538 -0.057477176 0.081128046 0.020424513 -0.09508316 0.014727154 -0.10844263 -0.2946754 0.014999216 -0.06587812 -0.27999386 0.065538615 0.049114432 -0.046076696 0.16299912 -0.29326308 -0.10764754 0.06321866 0.017903313 0.15450315 -0.18362966 0.5054178 -0.14097112 0.10358275 -0.18732691 0.073089786 -0.4765266 -0.16026951 -0.26719972 0.21226926 0.110091634 -0.20325851 -0.37798235 -0.25731385 -0.10860417 -0.077646144 0.022727614 0.06201122 0.06428222 0.25177994 -0.12956457 -0.25323102 -0.28571197 -0.14446144 -0.1057708 -0.27110597 0.13615471 0.1457178 -0.14704059 -0.09835299 0.16061199 0.27703342 0.26069388 -0.0032801996 -0.0372666 -0.059091143 -0.18462983 -0.31311345 0.28633955 -0.12820502 0.17164229 0.078282855 0.031910516
strategy -0.024158426 -0.31858766 -0.0121795125 0.07508631 0.15779018 -0.06003294 0.019756146 -0.08164996 -0.25436616 0.018551651 0.0763675 -0.09792536 -0.06835553 -0.18305197 0.26707524 -0.16999994 0.28277257 -0.09428985 0.1725928 -0.02030445 0.3458787 -0.07276129 0.036321145 -0.014021872 -0.07747746 0.22948201 -0.07186944 0.051548064 0.27322164 -0.26918802 -0.55513835 -0.22561252 -0.04526666 -0.094293796 -0.20278178 0.19186625 -0.00286816 -0.37105104 -0.084099054 -0.17460626 0.021326574 -0.032898437 0.0681993 -0.03575772 0.051227044 0.10014964 -0.20507553 -0.19602762 -0.009493508 0.021935044 0.36911854 -0.21836813 0.28595388 0.028463744 0.05937175 -0.20822145 0.018888988 -0.42827883 -0.00058513816 -0.022409977 0.3462243 -0.3032648 -0.07831679 0.08094386 -0.32460493 -0.3678159 0.019983947 0.34062004 -0.2157041 0.03408301 0.24389482 -0.09698275 -0.42222792 -0.24290054 0.015845602 -0.080360994 -0.1986167 -0.069201715 0.26227313 0.21230681 -0.277673 -0.32139072 0.17123583 0.36378956 0.17101441 -0.26991904 0.41427353 -0.033975016 0.47174838 -0.006395747 -0.16660443 -0.11165982 -0.10823167 0.0010436922 0.4468255 0.09341656 0.030672325 -0.48517773 -0.35836145 -0.011597352 0.15093619 0.26080826 0.14989707 -0.3836305 0.34832865 -0.15638806 0.14886773 -0.1703997 0.4228288 -0.16768867 0.1481399 0.17979582 0.15904044 -0.19820972 -0.26009542 0.04417255 -0.13099025 0.40225533 0.04618199 -0.21979873 0.12159647 0.047498528 0.044093624 0.40722087 -0.22722068 -0.12779151 -0.21531162 -0.014730161
completion 0.29072937 -0.19424471 0.27042267 0.008473264 0.27408668 0.03846415 -0.2161572 0.1500876 -0.07820302 0.07529309 0.13625962 -0.218807 -0.2803977 -0.13075837 0.19315098 -0.06864469 0.26278228 -0.35723382 0.045153882 -0.048244655 0.24947737 0.014983928 0.14350444 -0.22694246 -0.042317297 -0.16349082 -0.27823994 -0.17390525 -0.112113 0.106122434 -0.30998653 0.041117195 -0.12314221 0.36444643 0.23042037 0.32063448 0.2938881 0.06642553 0.40542328 0.1793964 -0.166364 0.041681807 0.045609266 0.15022545 0.07546509 -0.1662524 0.025134 0.06472866 -0.4471103 0.22119164 0.23140667 0.14488058 -0.0048338035 0.06154617 0.025769258 0.01531738 0.30729228 -0.19367047 -0.082329676 0.10156502 0.0013346737 -0.20734197 0.08823639 -0.17168336 0.23860578 -0.30026618 0.16038121 -0.04398132 -0.07542993 0.20432423 -0.23303671 0.050422538 -0.047369234 -0.050254382 -0.15592849 -0.32813087 -0.21482673 0.07102872 -0.16635168 0.45036027 -0.40471926 0.22926621 0.060877204 0.08558027 0.08907901 0.010447838 0.31013826 -0.13378914 -0.03653026 0.18323737 0.018874777 -0.5366669 0.094710134 -0.22939678 -0.007842529 -0.022025874 -0.27977908 -0.25880507 -0.41509137 -0.08928568 -0.041390732 -0.12050383 -0.14991264 -0.19316688 0.33349106 -0.29082555 -0.21382262 -0.09329722 0.19743153 -0.19324759 -0.266774 -0.17167649 0.248985 -0.11375356 -0.27480316 0.2511492 0.016054574 0.29198185 0.24036455 0.33737513 0.20555784 -0.11753909 -0.23655893 0.39350322 -0.10666579 0.09698917 -0.1664894 0.29003993
effect 0.31259057 -0.21697634 0.24471618 0.03991186 0.2608967 0.035576332 -0.21194762 0.122154385 -0.13369144 0.075284414 0.12556936 -0.2543241 -0.29071626 -0.117946886 0.25042596 -0.07201565 0.22740573 -0.3727495 0.046214756 -0.12108583 0.22219793 0.035405792 0.13308132 -0.2503155 0.0040272404 -0.18557915 -0.2766462 -0.1659566 -0.073835194 0.06739954 -0.35325804 0.024919173 -0.09026259 0.3194247 0.21373242 0.34218353 0.28872603 0.054217078 0.38760182 0.16721253 -0.10762781 -0.0117276395 0.048289258 0.13538289 0.067238055 -0.16710366 -0.012360976 0.0047295312 -0.42981836 0.25012544 0.27508935 0.17152834 0.018315626 0.010118115 0.029503105 0.008899896 0.29595366 -0.20702921 -0.06813686 0.13085079 0.018002344 -0.17603046 0.08509402 -0.11371267 0.1567557 -0.2818133 0.20320874 -0.0324638 -0.10470157 0.16827415 -0.22506244 0.085367136 -0.031974606 -0.04191513 -0.114546455 -0.29781407 -0.22099878 0.052052937 -0.15402274 0.41032815 -0.38699907 0.2394354 0.05392956 0.098643966 0.094490856 -0.01148235 0.31243956 -0.131972 -0.02325458 0.15819609 -0.032443516 -0.494051 0.13163063 -0.20092162 -0.03827193 0.024212627 -0.24632739 -0.22109234 -0.41800424 -0.08078959 0.017091839 -0.09301812 -0.12030585 -0.17200497 0.34983224 -0.29462472 -0.17304985 -0.07049381 0.23334935 -0.16132024 -0.22245362 -0.14436212 0.22595622 -0.12327303 -0.32410678 0.28688765 0.029191293 0.2889644 0.2309426 0.3898458 0.20660464 -0.07175335 -0.2492542 0.4001671 -0.07837515 0.11083031 -0.21113917 0.29467595
death 0.2944971 -0.17449942 0.27476925 0.0011471271 0.25859085 0.055648368 -0.21465772 0.14740844 -0.11360835 0.09140256 0.15219113 -0.2181656 -0.28437322 -0.095500134 0.21845269 -0.100823686 0.24823391 -0.3968137 0.043812152 -0.05592103 0.21379627 0.012841252 0.14522944 -0.26527652 -0.047616635 -0.15015295 -0.25627512 -0.13420963 -0.1119463 0.12548462 -0.3224268 0.022477718 -0.125046 0.36429846 0.23181537 0.2858691 0.2701069 0.06423379 0.37603527 0.16484894 -0.15763104 0.038489398 0.050484184 0.1558164 0.082003996 -0.18410741 -0.0077615827 0.056793693 -0.4343072 0.22303358 0.29679865 0.16716778 -0.017481714 0.03212904 0.011366042 0.036244515 0.30485004 -0.18603273 -0.02707845 0.102905035 -0.014963132 -0.18946485 0.07989966 -0.18006966 0.21862382 -0.28555405 0.17222247 -0.034205727 -0.08483423 0.1791516 -0.2264659 0.055913184 -0.035592407 -0.048710093 -0.12694816 -0.31137112 -0.16328415 0.038827617 -0.1694108 0.4237635 -0.40025946 0.23308021 0.042952925 0.089492306 0.0838483 -0.025370657 0.3441889 -0.11981535 -0.055862743 0.14794147 -0.017557034 -0.52654815 0.115373105 -0.23775627 -0.020748407 -0.0015098084 -0.28961405 -0.25850198 -0.41746747 -0.12057224 -0.036502637 -0.13483603 -0.106414475 -0.16335371 0.35231647 -0.28896526 -0.18369275 -0.119862154 0.18269013 -0.16429348 -0.24906066 -0.123326905 0.22356279 -0.13541684 -0.26103175 0.29376814 0.049776267 0.28829086 0.24321093 0.33256295 0.2083028 -0.07229428 -0.22506613 0.36816293 -0.115200624 0.07608816 -0.16355185 0.26226538
impotent -0.0027834373 -0.30766112 0.020061713 0.11567126 0.15240371 -0.099762395 -0.027037354 -0.09543388 -0.23565951 -0.049768448 0.08665649 -0.10248347 -0.05588373 -0.19923812 0.3075525 -0.17265914 0.24149872 -0.124042235 0.16969883 -0.09856273 0.3563742 -0.043395527 0.04802471 -0.066728994 -0.077661626 0.21650136 -0.08018018 0.10820507 0.29777494 -0.22454791 -0.62670773 -0.2204623 -0.048342083 -0.07861406 -0.1390631 0.17697161 -0.0037510844 -0.3452033 -0.06291367 -0.12610014 0.052513752 -0.07025099 0.06748487 0.02872586 0.037997246 0.09213942 -0.19322076 -0.22410505 0.008625507 0.0070708394 0.3604927 -0.2161279 0.22279765 0.06365562 0.071419746 -0.21270062 0.04223081 -0.42887864 -0.09826029 -0.018903932 0.3419519 -0.31489125 0.006659875 0.04920232 -0.33779997 -0.3622478 0.027195051 0.32868585 -0.18926397 -0.017032523 0.23284365 -0.15431651 -0.4889902 -0.3003371 0.023072459 -0.10108732 -0.18962926 -0.09724296 0.2314431 0.17419456 -0.2899586 -0.2698941 0.23535751 0.37024927 0.17117234 -0.26108828 0.39703313 -0.016904278 0.44727695 0.05156577 -0.21657962 -0.10409797 -0.08864082 0.040576562 0.45738643 0.0661377 0.039369497 -0.4567013 -0.334009 -0.018075699 0.14490364 0.25344798 0.118940935 -0.4091007 0.34444186 -0.18225215 0.1456042 -0.1881861 0.4391582 -0.15491559 0.16729757 0.15118217 0.16305763 -0.18887204 -0.27648312 0.0899733 -0.13508968 0.3613067 0.053793214 -0.22400959 0.1301965 0.070663884 0.050572354 0.42489272 -0.19845234 -0.16396725 -0.27679208 0.007484211
admit 0.18516695 -0.21890138 -0.06299213 -0.014225418 0.22176017 -0.19458264 -0.16085234 0.15680166 -0.07067517 0.000726572 0.042145684 -0.3529623 -0.113608144 -0.07230362 0.39199433 -0.22324242 0.017196478 -0.35679123 0.027935 0.0832787 0.45971283 -0.08225544 0.023912873 -0.1770057 -0.11324134 0.102706365 -0.26597852 0.046248224 0.32341745 0.096007615 -0.5450246 -0.14861074 -0.051770043 0.09074782 -0.042056125 0.2936074 -0.004895361 -0.075929746 0.18039219 0.015209431 -0.03037533 0.04961508 0.079719424 -0.0024787413 0.015417973 -0.19429414 -0.037489723 -0.21006323 -0.15540211 0.0576672 0.32912406 -0.032903522 0.07900516 -0.16428779 0.03848048 0.07576256 0.084010154 -0.050761454 0.028512057 -0.1756682 0.17945164 -0.16599458 0.085471 -0.21075524 -0.013062988 -0.023348166 0.3039352 0.06675002 -0.009984372 -0.18488625 -0.05019466 -0.21185991 -0.27928582 -0.03328578 0.021541845 -0.3443616 0.06643338 -0.037477676 0.109473996 0.2864803 -0.27355647 -0.08609217 0.018937575 0.022952886 0.13871923 -0.37798885 0.5055348 -0.029451858 0.34762108 0.029924303 -0.12174524 -0.19598536 -0.05787074 -0.14293766 0.32977402 0.06654515 -0.26964155 -0.3072769 -0.32475522 -0.1500309 -0.065703094 0.19109835 -0.08027705 -0.2851164 0.17791303 -0.025663167 -0.14009707 -0.23627608 0.13125153 0.09312761 -0.08452502 0.22647612 0.07801074 -0.2821692 -0.27283585 0.15727006 0.016555838 0.22031742 0.1969485 0.026927158 -0.13629274 0.007755952 -0.3113704 0.24428464 -0.043950357 0.014173892 -0.13183078 0.25731358
infection 0.30844313 -0.34352496 -0.0381095 0.15325402 0.09727547 0.017140713 -0.26182413 0.024791637 0.14724728 0.046021096 -0.039732687 -0.31324497 -0.06473496 -0.14252286 0.15257305 0.095897615 -0.028745795 -0.16508572 -0.10486734 0.2252524 0.25067085 0.12723786 0.09990359 0.034482542 -0.18166357 0.18659718 -0.30181155 -0.3222981 0.009380457 -0.0069154585 -0.3426097 -0.047327477 -0.06311817 0.0703269 -0.14077397 0.28223073 0.20285371 -0.14864558 0.3125217 -0.055994745 -0.2878094 0.086645514 0.15846796 -0.1859853 0.06615851 -0.13981482 0.044959184 -0.05282457 -0.38958704 0.18930317 0.44773135 -0.1907402 0.3399419 -0.10304 -0.18356852 0.16989908 0.38267946 -0.052703574 -0.06891452 0.03716333 -0.048067015 -0.20798764 -0.12621811 -0.013933025 0.22549962 -0.08419493 0.23071523 0.056382857 0.023054864 0.012353526 0.00016937513 0.12786041 -0.20497106 0.10434326 -0.09841378 -0.29418382 -0.1396281 0.22283845 0.0959199 0.34068948 -0.20878166 -0.17305364 0.014706318 0.12273863 -0.031560767 -0.0025290002 0.332914 -0.023279825 0.21914868 0.0485502 0.09818288 -0.31430683 -0.098544165 -0.20839366 0.19994694 -0.027846534 -0.19115096 -0.40374622 -0.20775533 -0.17825624 -0.072406515 -0.017055452 0.036915444 -0.036467277 0.02246139 -0.24898632 -0.036648806 0.006601369 0.05523971 -0.19641776 -0.07253488 -0.12363965 0.0679862 0.10512025 -0.3355354 -0.0021714638 -0.14831445 0.26228732 0.1873132 0.30407125 -0.08939609 -0.39379594 -0.14579765 0.3098363 -0.01685449 0.12802687 -0.2529242 0.09400268
passport 0.25257692 -0.440511 0.05360031 0.03164885 0.020337021 -0.014809246 -0.32150948 0.10413779 0.07612681 0.08339111 0.09416842 -0.27141875 -0.26301178 0.0043804077 0.05876732 -0.18188241 0.26417893 -0.47304478 0.06438728 0.24991705 0.20807624 0.012438716 0.18009296 -0.31778976 -0.18412293 0.1685593 -0.10973907 -0.09911765 0.057637025 0.01617574 -0.4284025 -0.119539574 -0.18309143 0.43097702 0.0166854 0.20143567 0.098890476 -0.0051711733 0.17004251 -0.04848891 -0.31894597 0.21313836 0.0940146 0.0016708646 0.42456722 -0.23030378 -0.10784443 0.057976786 -0.35779825 0.124011144 0.4128278 -0.05675265 -0.023286738 -0.05706522 -0.09176675 0.16411379 0.20186086 -0.1685831 0.30196202 -0.14667368 0.047554005 -0.049165126 0.019562222 -0.29174563 0.20840864 -0.015038882 -0.030326616 0.11402793 0.025288194 -0.05616255 0.010475428 -0.10127856 -0.2877062 -0.012515839 -0.08653947 -0.21633567 0.034714755 0.04870585 -0.02331353 0.1836116 -0.344505 -0.09358167 0.113714345 0.033482645 0.14515279 -0.2193459 0.4950566 -0.13580906 0.110039 -0.20865776 0.058502514 -0.48616427 -0.1445735 -0.25470734 0.20011038 0.12259595 -0.19560714 -0.3534776 -0.25627053 -0.09452255 -0.053083904 0.06906782 0.056394845 0.040310968 0.27237672 -0.117979206 -0.20038301 -0.29947633 -0.14541219 -0.13459097 -0.25102353 0.1235522 0.14351533 -0.1606834 -0.11955385 0.14140977 0.2957541 0.28787518 0.022853743 -0.025053192 -0.03582888 -0.1588363 -0.31807914 0.3066603 -0.15777226 0.1510773 0.017185075 0.04162879
